635 200
1 -0.0044920016 0.031965338 0.0056208707 -0.015880719 0.01293822 0.0191885 -0.0046170503 0.015508808 0.021531075 0.015951093 0.026720835 -0.0045827925 0.015575454 0.052890047 0.016719759 0.05344321 0.03200327 -0.029125562 0.05149807 0.03567542 0.0022846162 0.019833934 -0.02364638 -0.03431655 0.0168832 0.0057199076 0.0014877021 0.013196461 0.008926906 0.018864885 0.020613685 -0.033115566 -0.009830261 0.022274613 0.010632064 0.018494911 -0.0062592514 0.001566356 0.016492628 0.0027291477 0.0027287267 0.03176991 0.023296539 -0.0004994422 0.002896838 0.023688339 -0.018346265 0.012820922 0.006157007 0.008613285 0.016744548 -0.009708606 -0.010927051 0.021560073 0.0002539009 -0.023508416 0.0030966476 0.008128867 0.024245307 -0.0074793817 0.0359304 -0.026293328 -0.011464611 0.00966707 0.034532726 0.07514038 -0.0076013207 0.046443723 -0.0014893636 0.011403969 -0.006872259 0.04435689 0.028170452 0.011021055 0.0033796467 0.002673136 -0.0102129225 0.034310885 0.015883222 0.02151455 0.027288869 -0.008100705 0.02017019 -0.024609737 0.020330556 -0.024030209 -0.011948153 0.009856187 -0.013807185 0.028598122 0.024219878 0.007200189 0.053436026 0.032928996 0.0088184625 -0.0013656486 0.00093563646 0.010694683 0.029604983 0.0030109175 -0.0017402247 -0.006221948 -0.005436249 0.058316115 -0.02711077 0.016209029 0.006693933 0.022303013 -0.0111102285 0.011213619 -0.012921039 -0.019687792 -0.0006395951 0.007781416 0.0019389465 0.029682547 0.028638516 -0.00014714897 -0.0115160905 0.0046908353 0.033489674 -0.024569303 0.008434787 -0.024654077 0.0064634755 0.008195762 0.0029738287 -0.024424411 -0.011570517 -0.016727073 -0.0229231 -0.005741941 0.012957303 0.0036443174 0.022629142 -0.022594817 0.0071996003 0.037526965 0.009381205 -0.004651984 0.024242405 0.028942872 0.02457232 0.04063593 0.020271115 0.044948824 0.01568469 -0.029627092 0.018295527 0.026073463 0.025419725 0.015769895 -0.0035451911 0.0024661198 0.024899608 -0.019446433 0.002720769 0.015543589 0.045224227 0.015996449 0.0071815103 -0.020300552 0.042231303 0.0072179437 0.027049001 0.0059876367 0.012724344 0.004500281 0.026716517 -0.0033072922 0.00010531861 0.008314237 0.0077342093 -0.016123908 0.010679446 -0.011973992 0.0010763407 0.014154127 -0.0020457841 0.017821983 0.002239577 0.0153536 -0.004835828 7.124245e-05 -0.022610635 -0.011922218 0.021107197 -0.0076488964 0.008274224 -0.04402093 0.02967971 0.017764397 -0.019039351 -0.016047582 0.0137747675 -0.02263389 -0.008813251 0.00094217807 -0.0053148195 -0.0070794895
5 -0.008318296 -0.021024946 -0.008987494 0.03186082 0.036578454 -0.0156076215 0.0029080138 -0.030807137 0.01402273 -0.009692688 -0.007958315 -0.002324421 -0.016246483 -0.0036678743 -0.018776461 -0.051736042 -0.0007596873 0.0015474558 -0.015932819 -0.024679309 -0.018580068 -0.02795571 0.023680095 0.039835498 -0.024336796 -0.008669667 0.010128655 -0.019527938 -0.027452126 0.02637858 9.097159e-06 0.014310896 0.017410606 -0.012598038 0.0077799726 -0.032619473 -0.010792851 -0.021449536 -0.01897417 0.011913776 0.01157763 -0.057440266 -0.030802947 0.013575412 0.012232594 -0.011512481 0.014959205 0.021165496 0.008299321 -0.038196616 0.006883353 0.005121678 0.0074081533 -0.012247913 0.008191456 -0.001964435 0.008951394 -0.0010542795 -0.014705576 0.0018803626 -0.020240763 0.026397124 -0.008451134 -0.015465543 0.00048980117 -0.04722224 -0.015059635 -0.057666697 0.019400999 0.0037039407 0.037413243 -0.005747296 -0.02275385 -0.0049322024 -0.013510086 0.022924628 -0.0029934794 -0.027325043 -0.0037614703 0.010412261 -0.0073956177 0.0060066357 -0.0053457767 0.02853632 -0.07571633 0.022837602 0.022673916 0.026673457 0.0072236434 -0.01812489 -0.02537851 -0.0047338903 -0.046311382 -0.0049159676 0.032825224 -0.010969868 0.001600422 -0.010252576 -0.011862338 0.013817694 -0.006570328 -0.0104927495 -0.03335776 -0.040913813 -0.0025359504 -0.0054321364 0.0019278862 -0.018302033 0.0022824034 0.023734845 -0.0024622213 0.028581694 -0.0009420458 -0.0008153394 -0.007651802 -0.018451944 0.012124736 0.018107831 0.021112878 0.0023565292 -0.04982792 0.013841294 -0.012458891 0.05152583 -0.010996819 0.01626366 -0.0060691833 0.034171455 0.02754891 0.04182162 0.010836165 0.021908931 -0.026007473 -0.0103338435 -0.02496524 0.0008134395 0.03558048 -0.032660253 0.005406987 -0.0051590204 -0.01318186 -0.020545192 -0.01776439 -0.0013152575 -0.008437872 -0.03755179 -0.0062285364 -0.0014716685 0.010561757 -0.014912045 -0.0065870658 -0.007851284 0.0039388277 0.012872666 -0.009073272 0.040168166 -0.008089762 -0.015719254 -0.033289444 -0.027251326 -0.020093206 0.020144336 -0.036646586 0.007741891 -0.00075797364 0.0248277 0.0145555325 -0.0071893334 -0.03233567 0.0035103094 0.020147951 -0.00013268739 0.0034229301 0.027412951 -0.01854685 -0.02444017 0.01891189 -0.004618194 -5.8799982e-05 -0.015714563 0.0062849075 -0.050887007 -0.00044039031 -0.0055202767 0.008204125 0.008478936 0.0050476864 0.0079396255 -0.015829455 0.022991642 -0.03553468 -0.018000273 0.04369295 0.025892153 0.02232425 0.0088408515 -0.007199539 -0.014480848 0.00500302 -0.011366785
abbé 0.014039615 -0.0073650703 0.00033905916 0.011230461 0.007740397 0.011839084 0.0046645254 0.005696689 -0.0044376105 0.008469382 0.0025357548 0.002049338 0.0085573625 -0.0036531612 -0.013194248 -0.0065807626 0.0015600845 -0.0041998923 0.017414197 0.016398914 0.008348443 -0.009737607 0.006067928 0.011066861 0.012193043 -0.0035838932 0.01924628 0.0044549704 0.01233153 -0.007595498 -4.3548644e-05 0.017482415 0.006302427 0.0021346584 0.0078020934 -0.0021853 0.004294038 -0.0016309619 0.006299369 0.007838532 0.0076522194 -0.021714617 -0.013482824 0.015172284 0.008934454 0.008092469 0.017977064 -0.0024761818 0.0065561635 -0.0020387396 0.018641297 0.004689291 -0.0039504096 -0.0013703406 -0.005743537 -0.019692644 0.0066957474 0.0061101243 0.0012211949 0.0118005425 0.008026138 0.009910695 0.011760292 -0.0011089109 -0.0100676045 0.002288729 0.00068326294 0.01109058 0.00068375655 0.005725451 -0.011675917 0.0026527122 -0.0012791455 0.009173611 -0.0021558627 0.015496671 -0.0011926172 0.0067595504 0.014562685 -0.0047726184 -0.002038002 0.009261707 -0.009267397 0.015313202 -0.0027923286 0.007852004 0.0038937777 0.0069277473 0.0031796247 -0.00064729154 0.0034941435 0.0039813146 0.008264497 -0.0007817894 0.00014235824 -0.004051894 0.009840611 0.0028370246 0.015124271 0.010349017 0.0044137277 0.00538275 0.006106809 0.00030003488 0.0033438895 0.0047702864 -0.0035826322 0.0042906776 -0.0031490475 0.005998872 -0.0070372596 -0.003144998 0.0013118014 0.017965382 -0.01235164 0.00083602965 -0.0067621544 0.004357485 0.015935605 0.0123601705 0.0017205589 0.002889365 0.009983532 -0.0071576945 0.0006838739 0.013284758 -0.007481169 -0.01816881 -0.001768182 0.008857749 0.004788734 -0.009782836 0.0011411328 0.002961797 0.00562145 0.009207922 0.0036487654 0.0022191554 0.004951939 -0.0019016974 0.0018544644 0.00992341 0.0064484775 0.014163017 -0.0055185147 0.0063884445 0.0074840803 -0.012962958 0.011907212 0.0031403713 0.024410658 0.0067766868 -0.011499692 -0.003062889 -0.002700122 0.011973554 0.0041021854 -0.0017369445 0.008795366 0.019168736 0.0027553923 0.0066682547 -0.011209149 0.008388795 0.012423603 0.0029420927 0.008781806 -0.001951322 -0.0039177164 0.007851811 -0.009696697 0.0006188229 -0.01145719 0.009340946 0.0046573044 -0.006212741 -3.6019832e-05 -0.0052784383 0.003916988 0.00114353 0.0132365115 -0.00818714 0.0017562946 -0.006963471 0.0098471735 0.0032128433 -0.002445355 -0.006818317 0.014684875 0.007871084 -0.010302125 -0.0055945404 -0.010877773 -0.006408967 0.005140975 0.000465977 0.009106688 0.00061998516 0.0011731982 -0.01512216
abc -0.010848321 -0.00038780272 0.0057781334 -0.005094111 -0.0038241297 -0.003919022 -0.011592001 -0.00053393655 0.0034650117 -0.0008744113 0.0048471354 0.001556024 -0.0077919844 0.0034633204 -0.008909926 0.0018268991 -0.0019209906 0.00590159 0.00019741803 0.0007073283 -0.004546687 -0.0046579614 -0.0036990382 -0.011486391 -0.00026533008 0.001076337 -0.0099775195 0.009524919 0.0074761575 -0.0041534826 -0.012126068 -0.0019875653 0.0018045753 -0.0050134435 -0.008394126 -0.0057266075 0.0018546195 -0.010031104 0.0004352834 -0.0010440648 -0.00402141 0.0051430464 0.0028588977 -0.005379373 -0.0036056638 -0.0023490228 0.0036707837 -0.01712776 -0.0018152741 0.0015360266 -0.0006349683 -0.010331318 -0.001696269 0.0017584935 -0.0040737987 -0.004307625 -0.012237266 0.00038725138 -0.0061262334 0.0014740229 0.0017653033 -0.00442677 -0.009646557 -0.00051327795 0.0002361238 0.0015965775 0.0056122188 0.0038160272 -0.0045239944 -0.0036428683 0.0043992326 0.009350201 0.008776657 0.006577273 -0.0143135935 -0.0055150706 -0.0043049455 -0.0027999692 -0.00600709 -0.0047813505 -0.008484494 -0.0015144721 0.0053887814 -0.003945647 0.002427958 -0.00027601048 0.002629932 0.0034587532 -0.0064064227 0.0020232424 -0.0009301808 0.0057495385 -0.000270769 -0.004604146 -0.0012191292 0.0070713833 -0.00028060097 0.0008999631 0.0037629232 -0.014708757 0.004152417 0.0013763495 -0.0038692132 0.0077503575 -0.00012476835 0.002298301 -0.0030392557 0.0021402375 -0.008045122 -0.0071048066 0.0010846518 -0.0058407336 0.0015354659 -0.0022298247 -0.0061933026 0.0006154105 -0.0013887063 -0.0008687638 -0.012939788 -0.002166979 -0.0004230719 0.0047448203 -0.011130452 -0.0045777136 -0.008143419 -0.007832665 -0.013422657 -0.009155106 -0.009243708 -0.0032373033 0.00013685226 -0.0047625005 -0.0022976026 -0.009040501 -0.004916107 0.0050432086 -0.0093831085 -0.0061328113 0.0031637773 -0.0049224347 -0.0051468275 -0.004363116 -0.0080326125 0.0015803091 -0.0036618616 0.0042306706 0.004356185 -0.005534455 -0.005286228 0.004164897 -0.0017124191 0.00482494 -0.006047014 0.003906168 0.003156118 0.0022984445 -0.0030799508 -0.0036069676 -0.0062360577 -0.009320132 -0.003944861 0.0018552821 -0.005968198 -0.002009347 -0.0009110719 0.005057946 0.00076586753 0.0017650947 -0.0053648883 -9.272341e-05 -0.012561386 -0.0012955535 0.0005561318 0.00626231 0.0048414767 -0.002467297 -0.00083812326 -0.0027482565 -0.008867085 0.00210993 -0.004500471 -0.007614553 0.011317978 -0.0035542995 0.0011796057 0.009087231 0.0064430386 -0.002440039 -0.0038141701 -0.009262584 -0.002825871 -0.0013953038 -0.00089113787 -0.0021706969 0.0004832819 -0.0005399063 -0.0009438209 0.006713476 -0.008734986 0.011973767
abondance 0.0021126214 -0.019935522 -0.009117431 -0.01255933 0.0016531125 0.010811985 0.0045296364 0.0014523566 -0.00956957 -0.0025523677 0.006287895 -0.015139259 0.00811258 0.018856812 -0.0069644116 0.009736106 -0.025496058 -0.001621224 0.021445237 0.04682973 -0.0019724518 -0.0061586816 -0.005517602 -0.014739618 0.004139483 0.0037486851 0.017182782 -0.005788058 -0.0139521435 -0.004927382 0.0033244994 -0.004663676 0.020093456 0.017517336 0.039005443 0.009076275 0.01135613 -0.0010317713 0.007171426 0.02250918 -0.015447337 -0.009614789 -0.0049208044 0.021569565 0.0055364436 0.004725583 0.011842698 -0.003928542 0.0013090848 -0.008745806 -0.014223307 0.0129999025 0.031769298 -0.023910634 0.01256898 -0.009026762 -0.005445406 -0.009741273 0.010979593 -0.0090697 -0.026749738 0.042049818 0.007833824 0.00885653 0.025008503 0.010754589 0.0032399092 0.0010332912 -0.028331652 0.0024795495 -0.0016202256 0.027059391 -0.023889747 0.00483837 -0.006723795 0.012305066 -0.0056094527 0.014925394 0.0007049367 0.003226786 0.017240684 -0.00011559017 -0.00019246712 0.017812332 -0.0026750676 -0.002547972 -0.022165872 0.02392599 -0.032451432 0.02104827 0.0068974495 0.011682123 0.0069664996 0.0011347458 -0.00653027 0.009526968 -0.0065309517 -0.0037208158 0.023732489 0.013508968 0.02838707 0.028642874 0.0108740255 0.04574711 -0.0066987053 -0.0014727637 -0.015720509 -0.007090047 -0.03274729 0.024006106 0.0071172817 -0.0001847595 0.0015138986 0.04603195 -0.012365274 -0.0013467297 -0.006358944 0.016309403 0.038096357 0.016237848 -0.019521676 -0.009982966 -0.009398482 0.003715789 0.021798447 0.05773206 -0.016985483 -0.0050955415 0.0019557774 -0.012965083 -0.00017044693 4.1682273e-05 -0.007507993 0.016243443 0.000603579 -0.007980131 0.0051823184 0.003243208 0.030699547 0.015030736 0.015721234 0.011082875 0.010078855 -0.011973478 0.006174024 -0.019744294 0.00086818635 -0.014671899 0.009428477 -0.0011091232 0.000103812665 0.0008391626 0.01756673 -0.013803177 -0.0032725744 0.002236843 0.04145626 -0.010443315 -0.014385819 -0.020555124 -0.010833025 -0.0044090413 0.0042303614 0.005023245 0.034429483 -0.0011599287 0.023663633 0.0058657974 0.012726303 0.017927527 0.02361831 -0.026599929 -0.0010953406 -0.013607621 0.0031065643 0.01727347 0.005279651 -0.015728617 0.014997726 -0.0037411377 0.012386031 0.0032752175 0.026744451 -0.063743055 0.013319086 -0.009761516 -0.014575874 0.03927557 0.0054122433 0.006518811 0.0038374774 -0.01028513 -0.013830736 -0.003246407 -0.009034688 0.006783612 0.0004002154 -0.004384432 -0.0038254354 -0.006392196
accident 0.0021278486 0.013028061 0.005847428 -0.005995456 0.0056758486 0.0023681521 -0.00013647508 0.00052108616 0.00097581744 0.0014002286 0.0032207917 -0.009788349 0.009618461 0.014355991 -0.002245715 0.006892763 -0.0041270927 0.012662742 0.011658125 0.0060739554 6.713718e-05 -0.008720718 -0.000583631 0.00096478686 -0.0016942322 0.0020137988 -0.009179816 0.009630334 -0.008043186 0.0026998073 0.006851919 -0.0026201122 0.012425143 -0.004605904 0.020754345 0.0042060018 -0.0016245078 -0.010539323 -0.0032638325 0.008008495 -0.00012782309 0.0074009653 0.010607666 0.009226445 -0.0026135445 -0.0051000565 -0.005950086 0.020811908 -0.00475391 -0.004092209 0.015237479 0.0059267115 -0.0017365515 -0.0025899503 -9.809807e-05 -0.005948454 0.007284304 0.0083925575 0.00026461668 0.0049554873 0.016356634 0.0010993928 0.0054934174 -0.013753248 0.0042198896 0.010513887 -0.0009557195 0.005065605 -0.0026375465 0.0037862193 -0.0012772279 0.01393399 -0.01086301 0.002282231 -0.0030265301 0.0015603527 0.008473011 0.0025615282 0.004437417 0.0051132897 0.0070380084 -0.0040421933 -0.0010134876 0.006936267 -0.0018791761 0.007707867 0.0012634546 0.0041136295 -0.0071351156 0.00073720515 0.012337055 -0.0027634911 0.0015284866 0.005322665 0.0015260875 0.00235483 0.003299214 -0.0018436676 -0.0005141124 -0.00292129 -0.0010058209 -0.011053368 -0.008230776 0.010913461 0.0044294186 0.0032919273 0.0011212934 -0.0043768436 -0.011541933 -0.0062000137 0.003518507 0.0052067563 -0.0060164947 -0.008383222 -0.0031223185 -0.002595067 0.0096022785 0.0069289207 0.009030614 0.004737731 0.018458182 0.00093507394 -0.006951018 0.0016865022 0.0011888854 0.015763905 0.016433187 0.001525037 -0.010582328 0.0023387186 0.0011555329 0.0015280694 0.0006310344 0.008589119 0.0022234619 0.0062482804 0.0019207951 0.004230272 -0.0023467615 -0.0035596434 0.0024822429 0.0046858266 0.0007198006 0.006323099 0.0040615555 0.00072830543 0.0032053217 -0.005274672 0.004660584 -0.0028850995 -0.0132872835 -0.0034677312 -0.0076158904 -0.0045081526 0.00090776384 -0.0027611097 -0.0019323574 0.0036280528 0.00016457122 -0.01779401 0.0033455715 0.0063980864 0.0097240135 0.005728394 0.012755454 -0.0025830958 0.0055580214 -0.0010401104 0.0119102895 -0.003990464 0.004290074 0.0029324824 0.005379906 0.017203059 0.011175405 0.008459045 6.948039e-05 -0.00032190746 0.0043860227 0.0075000897 0.002439227 0.008959383 -0.0029295236 0.0050090067 0.0069764927 0.012231559 -0.00506822 0.017762952 0.004614368 -0.002150558 0.005845338 -0.0032244027 0.009131633 0.0053668916 -0.010431156 0.0076059997 0.0065784603 -0.0024681613 -0.0076486813 0.005154349
accord -0.0125910565 -0.0075928885 0.0035959631 -0.002420511 0.021625089 0.0017205216 0.017782044 0.0023420528 0.006389714 0.0012037782 -0.0022709146 -0.008478921 -0.0075624734 0.010740297 -0.0020831432 0.02340705 -0.0066196322 0.0021977366 0.015300687 -0.001634974 0.021524169 -0.0023515597 -0.0074879397 -0.0046323314 0.013914483 -0.009870097 0.007298339 0.008246489 0.0040272176 0.004532248 0.00015844032 -0.021417895 -0.009855464 -0.00053970516 -0.0020329766 0.0040483885 -0.0023082793 0.0009457618 -0.007118456 -0.009077996 -0.0062866686 -0.017917171 0.009887435 -0.0076041147 0.0009083301 0.0059172884 -0.008410454 -0.013735324 0.0002565831 0.01995901 -0.00863535 -0.000666216 0.00023145974 0.012574239 -0.022099229 0.007077001 -0.00028222427 0.0038486803 0.014618911 0.0072597116 0.0008272454 -0.017781314 -0.007462483 0.003049599 0.017960988 0.04206371 0.001674518 0.009261496 -0.016894508 0.0049001463 0.0002837358 0.013857931 0.025187723 -0.00887985 -0.004587915 -0.007982358 -0.0013205633 2.2152439e-05 -0.0042641982 0.0043592453 0.0080544725 -0.007653974 -0.004321158 -0.027109362 0.020134866 -0.01704973 -0.0077397767 0.0018086359 -0.008924454 0.011361718 0.0051089297 0.012701966 0.0058659315 -0.009099849 -0.0016218685 -0.0030735284 0.0013195239 -0.006822102 0.0025139302 -0.0072483374 0.0060625337 -0.00052401423 -0.009302117 0.016781278 0.0035911622 0.010715082 0.008780379 0.013624765 0.0015701428 -0.0012722518 -0.0025654286 -0.022912744 -0.011885427 0.01120308 0.0026096106 0.009385098 0.010375388 -0.009072367 -0.005290404 0.012250543 0.0040741675 0.0014964715 -0.014150195 -0.016275808 -0.0114375055 -0.0051983604 -0.015392065 -0.010447411 -0.007973527 -0.004642606 -0.0031015538 -0.034536526 0.0004947707 -0.00035241246 -0.0051771626 -0.025873385 -0.0019787606 0.0030066092 -0.0036683064 0.0065224655 0.0029418096 0.0028472021 0.008609854 0.010582276 -0.00143319 0.014205191 0.0066481605 -0.0035582534 -0.001504954 -0.009139642 0.011760928 -0.0025910176 -0.018845491 0.007186629 -0.0014631152 -0.0071763336 0.0125598535 -0.0054909177 0.0072672507 -0.0032124296 -0.0022853543 -0.0005658427 0.0016774293 -0.0093497485 -0.011356717 0.0076744407 0.0077133533 0.0012125764 -0.0037008114 -0.0069137514 -0.017249398 0.009017747 0.007205993 0.010628626 0.0065969303 -0.00081760436 0.00014838576 0.0052788593 -0.028694563 -0.008852061 -0.0029817075 0.016525764 -0.0075165387 -0.0012122169 0.00476826 0.0005880445 0.0116331205 -0.002911456 -0.0053405613 -0.004344344 -0.003620416 0.001049567 -0.017804526 -0.014143048 0.0050853495 -0.013092145 -0.006376043 -0.020726807 -0.016564537 -0.0038525835
ace 0.006114045 0.006449301 0.0004806742 0.008255234 -0.0031480566 0.009897143 -0.0010869429 -0.0030931383 -0.006959453 0.0036839992 0.0032696729 0.005987704 -0.00412564 -0.004525572 -0.0056114495 0.0049075726 0.00051400857 -0.0050685555 -0.009897217 0.0062564127 0.0021551512 0.0029598176 0.0015519261 0.006559098 0.000562001 -0.004374869 -0.007334903 -0.0052304603 0.011044458 0.00017149001 0.00096734613 -0.0123147145 -0.0016825646 0.012048248 -0.010129532 0.0003521298 -0.0023266226 -0.011821028 -0.00292629 -0.0060655586 -0.004870735 0.002334997 -0.0016685426 0.0018280789 -0.003579177 0.0025284644 0.01792746 -0.0036106445 0.006993685 0.0039558373 0.0026921052 -0.002668798 -0.009746857 -0.003371993 0.00012486428 -0.0036490262 -0.0040615425 -0.0014426224 0.006520482 -0.010160135 -0.012655728 -0.003167756 -0.002319743 0.009818047 -0.0018180981 -0.0037107617 0.002477406 -0.008720972 0.0048728324 0.0032188874 -0.0040036514 0.0008135736 -0.0050823353 0.0022721589 0.00384231 -0.0017746594 -0.0005971156 0.009731462 -0.0074251406 0.007681895 0.0020680241 -0.00910037 -0.0044476707 -0.005431108 -0.005021712 0.008617485 -0.005947955 -0.015529692 -0.011913996 0.01730835 4.094094e-05 0.004117064 -0.0013062805 0.0001205951 -0.0038176328 -0.0062527712 -0.004172066 0.017542992 0.002936298 -0.002857158 0.00886979 0.015457119 0.0027692243 0.00032229722 -0.006150659 -0.0015902072 -0.0040253373 0.000729315 -0.012628878 0.005379133 -0.0076308213 0.015107833 0.005723631 -0.0005492433 0.0007115621 0.0027461424 0.012698472 0.0011167475 -0.0017308872 -2.9943883e-05 -0.013507158 -0.0020118356 0.0038961843 0.0024669673 0.00935898 -0.0070169717 0.0021833368 -0.0039598644 0.011443779 -0.003080912 -0.0015851445 -0.00039565656 0.00069092214 0.0051327534 -0.0016816258 -0.0072895214 0.0014298148 0.0067266524 -0.0047494434 -0.004957348 -0.006130643 7.9117715e-05 -0.00052853674 0.003709484 0.0002823025 0.0038211793 0.0032223314 0.0048666075 -0.0098906495 -0.004668426 -0.005220769 0.0073332824 0.002852045 0.010247551 -0.004893655 -0.00081763417 -0.00044227391 -0.00015188754 -0.0031049699 0.0032798275 0.0058883354 -0.0023818351 -0.0025262386 -0.0029215533 0.005368855 -0.007847875 -0.0010533407 0.0034454046 -0.0050462484 0.0036084466 -0.0047241 -0.012952155 0.0016013868 -0.004358731 -0.00025220215 0.009945244 -0.0006699562 -0.0047234306 -0.00089854 -0.0003518276 -0.005999945 0.0065020695 0.004845813 0.00037305057 0.0011403635 -0.002030189 0.0052364767 -0.0019509085 0.01009629 -0.0024443567 -0.0039110966 0.009633236 -0.00745444 0.011624982 -0.010301761 -0.00448158 0.0024659708 0.0018402487 0.00794445 -0.0038157455
action 0.010360636 0.005056519 0.00077445246 0.0080555305 -0.007952116 -0.0015806109 -0.004828658 0.0019696169 -0.0036928337 -0.0005333796 -0.00043147855 0.004360914 0.007853996 -0.001154378 0.006472118 -0.0019314513 0.0040174276 -0.012982272 0.0031718947 0.01132188 -0.013843566 0.010625459 0.0072988085 0.00030707195 -0.0075952783 0.009191483 -0.0023808307 -0.00605423 -0.006283909 0.0040344223 0.016692244 0.01564113 0.0023432067 -0.006954856 0.0064597074 0.0008535683 0.00616649 -0.0046379864 0.0062664133 -0.004471384 0.01013688 0.00059461594 0.0023437776 0.008890018 -0.0041328836 0.0076644253 0.0053902864 0.021477547 -0.008006968 -0.000678502 0.007944561 0.005379632 0.0054173023 -0.005101544 -0.0067311823 -0.0074665584 0.0073780892 0.018450666 0.008346304 0.012698319 -0.0029495605 -0.007354401 -0.0020569433 -0.002662018 -0.0029450804 0.0041011646 -0.007361069 0.009737335 0.010125387 0.0016420186 0.0049883313 -0.0034148656 -0.000725884 -0.0034766495 0.0074459706 0.011287756 0.021231629 -0.004245186 0.008381127 0.0028747693 0.0044305464 0.008075833 0.0020757616 0.009700805 -0.016549103 -0.0034968853 0.0017463043 -0.0053361114 0.013122033 -0.007330455 0.007472258 -0.009597242 -0.0034744032 0.020859644 0.012014367 0.00531362 -0.002199566 0.004272133 -0.018806592 0.010483883 -0.007645753 0.0007008575 0.0048183366 -0.002791673 0.006588608 0.008806295 -0.00084532425 0.0003837049 0.005814962 0.00046271086 -0.0021380782 0.010484282 -0.00063143764 -0.0014091916 -0.0058135 0.004495606 0.005317524 0.012203301 0.0073440373 -0.008162869 0.016990736 -0.0066194907 -0.0072606653 0.01906152 -0.0018967763 0.0035949051 -0.0028876513 0.0061697215 0.0034132302 0.011004791 0.012066841 0.01909054 0.004034765 0.012368746 0.0008657931 0.025782986 -0.0012734607 0.0059777275 -0.010341559 0.0014244765 0.0073112324 0.008822797 0.0045904443 -0.004004224 -0.0017235465 0.00557168 0.0085158385 -0.0075191706 0.012471303 0.015015624 -0.019013818 -0.0003011562 0.010375559 0.002278693 0.0025311708 0.005834952 -0.0037950724 0.00445842 -0.0029510688 0.0141320005 -0.0044359285 -0.0091677755 0.010912803 0.0064682905 0.010382988 -0.00015084818 0.0017271452 0.0034345947 0.009655651 0.004111454 0.010436308 0.0065377653 0.0016215295 -0.007201068 0.006473611 0.014768675 -0.0050413143 0.009214636 0.0083351955 0.005057484 0.004188546 -0.0043390617 -0.0035029203 0.0065209493 -0.0050727315 0.0031381994 -0.009752534 0.0020037033 -0.005590992 -0.0029861555 0.0053363815 0.013573997 -0.0045657605 -0.0019604526 -0.0016741976 0.012472622 -4.001707e-05 0.013879649 0.0094710495 0.002714567
ada -0.0042923186 -0.00221451 0.007821632 -0.0047250986 0.009218343 0.0064062 0.015330106 0.011217557 0.016555257 0.0037024524 0.007224679 -0.0069434196 0.004378478 0.01892994 0.007907463 0.021240659 0.012019915 -0.00024380907 0.033804625 0.00039692968 0.012511313 0.01152475 -0.008538401 -0.004041314 0.010555938 -0.00464895 0.014666811 0.01921618 -0.00092952326 0.007233233 0.0056243427 -0.012545951 -0.016818285 0.01777216 -0.0028252439 0.009936437 -0.0045160893 0.006395608 0.0049631856 -0.00719871 0.0045582205 -0.00013324246 0.016138341 -0.0022801831 -0.0021281093 0.01343426 -0.017751545 -0.004812749 0.0063074008 0.024182811 -0.0032347888 0.0018187612 -0.00028564036 0.012405202 -0.014315855 0.0017023124 0.008885672 0.011053711 0.025641493 0.003169463 0.014013894 -0.026908007 -0.009978246 0.00018465146 0.01911778 0.040827677 0.003468451 0.021910649 -0.014773935 0.0012001842 -0.0008433461 0.013242109 0.028081946 -0.0031214505 0.008107576 0.0021573454 -0.002936788 0.0058036204 0.012427937 3.618002e-05 0.01751446 -0.0015337393 0.0033853874 -0.020130396 0.039520428 -0.021202434 -0.0046627633 0.0070162825 0.0025832988 0.010066237 0.0195233 0.008637559 0.023557369 0.013898184 0.0015853024 0.012534961 0.0020487197 -0.004027549 0.0056424625 0.005754538 0.007036008 -0.007015448 0.0022086427 0.021837972 -0.00057206675 0.015549004 0.009159997 0.016384184 0.00285995 1.552701e-05 0.00109189 -0.01850675 -0.0032767057 0.0051457873 0.0011212379 0.020126998 0.00813451 -0.0018446296 -0.0057402924 0.012570366 0.01840284 -0.011543736 0.0024624057 -0.015427679 -0.0043898523 -0.006596379 -0.012728151 -0.012513414 0.0051762015 -0.0058622956 -0.007831715 -0.021323845 0.010487374 -0.0020406246 0.0039217994 -0.01381658 0.003970556 0.021236412 0.0032729544 0.016074166 0.009506458 0.0119484365 0.023155088 0.016639624 0.0024700798 0.030507462 0.008809708 -0.0075507266 0.00862946 0.00051124394 0.023895655 0.0015465962 -0.0083253905 0.0041242065 0.012598497 -0.017416358 0.013870616 0.0036871098 0.018796433 0.011324342 0.005828649 -0.0068452284 0.026585981 5.370751e-05 -0.003954828 1.9941479e-05 0.0024181344 0.010409287 0.011688574 -0.0030991572 -0.008084672 0.009548936 0.0048620403 -0.0016208887 0.0056158546 0.005163938 0.019500598 0.017346293 -0.015350111 0.0009071296 0.008133952 0.025233706 -0.009252459 -0.000179708 -0.003430277 -0.011433035 0.008447144 -0.007270463 0.012680039 -0.018193677 0.011402406 0.007317934 -0.014062 -0.010823429 0.0074760616 -0.007829882 -0.0052878484 -0.00095992535 -0.0063031646 -0.011551291
ade 0.0027209297 0.02157975 0.010662723 -0.017867932 -0.001625672 0.012484029 0.014314843 0.021235 0.0042573437 0.015510637 0.011492588 -0.013043962 -0.0018776879 0.022249661 0.011756474 0.05882459 0.010057248 -0.012581218 0.031594895 0.016309537 0.02263399 0.0194069 -0.032826453 -0.028099313 0.023984767 -0.0025288425 -0.003208044 0.025772464 0.026331916 -0.0067845285 0.01175083 -0.032142308 -0.022091396 0.008823827 -0.00798836 0.018197626 0.0003412366 0.00505957 0.0046672616 -0.018339843 -0.0047116242 0.02769195 0.025212176 -0.010181591 0.0029517673 0.021599615 -0.017286105 -0.014523191 0.015375841 0.03794128 -0.002145499 -0.009549148 -0.004479438 0.016312733 -0.021228451 -0.02001794 0.0046472102 0.00914875 0.037582815 -0.0027913153 0.016665721 -0.03916616 -0.0016249269 0.0038650185 0.017132863 0.064830095 0.008334361 0.05101248 -0.027741041 0.013100874 -0.019405594 0.030168444 0.03735905 0.0032988023 0.00554353 -0.022388399 0.0038523115 0.024731461 0.011164095 0.0032053087 0.018943414 -0.011000425 0.00016479194 -0.03764434 0.052401632 -0.030355863 -0.021979913 -0.006638542 -0.011449061 0.02239247 0.030680003 0.0046264585 0.04827406 0.0063491613 -0.013406269 0.0037948526 -0.001193691 0.004683068 0.01818674 -0.014096819 0.0085682385 0.007945354 0.0130245015 0.051366225 -0.0009406954 0.0059510246 0.0084161125 0.031339146 -0.018459661 -0.0021569245 -0.006337958 -0.03721461 -0.009626966 0.0007986054 -0.0017794743 0.030903343 0.012077943 -0.016164206 -0.024263509 -0.0026911385 0.046149492 -0.025275618 -0.00904749 -0.039132126 -0.004092768 -0.0053451955 -0.021767594 -0.036873303 -0.0171174 -0.025204761 -0.010513298 -0.033547647 0.02150951 0.0042686127 0.010290988 -0.024222001 0.0022079498 0.040187318 0.006332934 0.02062212 0.012730889 0.026325762 0.026868962 0.02731283 0.005736295 0.049654413 0.027932925 -0.014816072 -0.004322797 0.0055926144 0.024849802 0.005490385 -0.01187066 0.0049519576 0.014569197 -0.027000323 0.01939331 0.011501439 0.02237509 0.024670333 0.010127753 -0.023312014 0.032523125 -0.013884986 0.001404345 0.004012257 0.0007500425 0.002381973 0.027319178 -0.011702277 -0.021646872 0.0011521466 0.0009488687 -0.010144905 0.011949129 0.016291842 -0.003918439 0.015961668 -0.020758238 0.0075519457 -0.0026804525 0.044737063 -0.0073220506 0.004325591 -0.0084127765 -0.013822064 0.003957823 -0.0139538795 0.008165019 -0.042440847 0.019351847 0.017649144 -0.034835145 -0.013900168 -0.002189152 -0.0122426525 -0.005526513 -0.00425265 -0.013579486 -0.005844839
aides -0.008153163 0.018875413 0.009479549 -0.019362474 0.0013284036 0.014981564 0.009572893 0.021302957 0.005982347 0.009834535 0.016081728 -0.009149857 -0.0006222278 0.02277823 0.0111426525 0.050469525 0.004892789 -0.013179928 0.018943675 0.016284838 0.024802215 0.016522372 -0.021990038 -0.028932989 0.018383533 0.0011055022 -0.0026541501 0.023356773 0.02379154 -0.004522618 0.006710395 -0.032204024 -0.018115204 -0.0011737011 -0.00025124475 0.0229473 -0.0061493814 0.00038529327 0.0053404346 -0.009535395 -0.0063844062 0.027311118 0.022139229 -0.010914536 0.0043501854 0.011435948 -0.013769388 -0.0126796225 0.002476845 0.024958024 0.0040594954 -0.010613017 -0.0051632375 0.015129801 -0.0060697272 -0.015098728 0.0018547997 -0.0027502277 0.02300888 -0.0010440703 0.016197307 -0.026872672 -0.005041968 0.016125754 0.015337199 0.061680846 0.0015015956 0.049492978 -0.021984264 0.012716653 -0.013987102 0.023686722 0.01616352 0.004833821 0.002517309 -0.01629784 0.00032631308 0.012180805 0.008646779 0.014323227 0.016472567 -0.007259503 0.007008396 -0.034582444 0.037683524 -0.022636592 -0.017663822 -0.0023795106 -0.008831337 0.018159054 0.022431508 0.008999452 0.044550065 0.009279538 -0.016736288 -0.00092510134 0.0021665804 0.0076319873 0.015294645 -0.016378965 0.008420885 0.009924518 0.0030892408 0.049254704 0.002011478 0.003853023 0.003034711 0.023507595 -0.003687311 -0.0021659583 -0.006641917 -0.026207298 -0.0134876445 0.001594644 -0.001715336 0.022594914 -0.0018540844 -0.01573953 -0.01740896 0.004486069 0.028423905 -0.022693608 -0.0059801415 -0.042290173 -0.0043821037 -0.0065315384 -0.009510532 -0.035393957 -0.019799449 -0.025755733 -0.015262627 -0.034400083 0.016378287 0.003673531 0.014755361 -0.012990624 -0.0033327937 0.03109435 0.008634988 0.020176228 0.011065356 0.026085958 0.01962442 0.01986057 0.008290466 0.036838453 0.016779503 -0.014311969 -0.0023641773 0.0014457926 0.021059338 0.0018931916 -0.008109704 0.0019358154 0.009525262 -0.01780891 0.012781337 0.008135408 0.021642603 0.020482033 0.007920438 -0.014059115 0.023770116 -0.017766774 -0.0015640073 0.006047234 0.0075913705 -0.003304733 0.019751323 -0.013904288 -0.015930556 0.0029979348 0.009934597 -0.009781515 0.007923657 0.018248111 -0.0076164603 0.008963289 -0.019022986 0.0067235418 -0.004457934 0.034448426 -0.0055364296 0.003909778 -0.007973425 -0.007580586 0.007963501 -0.0095335785 0.00977506 -0.033143774 0.017654024 0.008973582 -0.028240576 -0.008660357 -0.00072736666 -0.0068152146 -0.012297129 -0.007160086 -0.013547121 -0.003952574
aigre 0.027291153 0.02119013 0.010604352 0.013216874 -0.015456282 0.00736236 0.013066351 0.009377342 -0.010330668 0.018884711 0.011068245 0.0017016232 0.008345142 0.0075756833 0.014269143 0.009014912 3.2339245e-05 0.004544273 0.0054216236 0.008091224 0.0028572902 0.010633919 0.010713771 -0.0037972827 0.013733906 -0.0011225892 0.0057545006 -0.000939494 0.016992003 -0.0001760791 0.009211414 0.0031964555 0.00438533 0.003046248 -0.005965065 0.016361464 0.014353119 -0.0038432255 -0.00059940666 -0.009709723 0.002729006 0.008392073 0.011574656 0.013303839 -0.005329281 0.015237816 0.004284948 0.010093652 0.0040932 0.013138002 0.008509476 0.007321492 0.012127455 -0.0076316567 -0.011850208 -0.0038423724 0.012044117 0.023156792 0.01913745 0.00587292 0.009343311 -0.013113877 0.009004317 0.0126078725 0.006981276 0.0057255477 0.012521319 0.011774771 -0.002403289 0.007276494 0.0008645229 0.006027065 0.00904195 0.00869848 0.010120885 0.0003039576 0.010530334 -0.012004271 0.004116351 -0.016014807 0.00022728927 0.007534243 -0.0039992626 0.0019320454 0.00768137 -0.0020814538 0.00836134 -0.015396594 -0.009877516 -0.008561872 0.024057932 0.00095943734 0.012589788 0.012022112 -0.009222455 0.0051488895 0.0004333891 0.008728556 -0.0013233125 0.00018329546 -0.013255894 0.0069839247 -0.0073072794 0.024401337 0.0012841076 0.0020985454 0.0030534714 0.011566747 -0.0063690646 -0.0199322 0.013272066 -0.0027584843 -0.00989195 0.002740845 -0.0016101263 0.011878505 -0.003808538 -0.0015044585 -0.0025975518 0.000123756 0.0170618 -0.022764124 -0.009233072 -0.025636762 0.0013385005 0.002989404 -0.0062453337 -0.01278561 0.003747642 0.0014738776 0.011546247 -0.006741807 0.020023666 0.008077621 -0.0014061909 0.016756713 0.002078563 0.013217786 -0.008831926 0.011928603 -0.002666302 0.01077728 0.01200996 0.0007631667 0.0056215897 0.02124995 0.02476485 0.013476912 -0.005556762 0.0015186518 0.010859311 -3.3840537e-05 0.005325263 0.018992081 -0.0037371852 -0.010459732 0.0016076118 0.008051291 0.005820702 0.012460187 0.005783789 0.00014612079 0.017124034 -0.00975698 0.0123218745 -0.004691392 0.0038661733 0.0018488839 0.014854888 0.0051344186 -0.007084176 0.006915763 0.0041224835 0.0022584535 0.026014786 0.011731036 -0.0075387303 0.02237638 0.0007645488 0.01242448 -0.0028899293 0.013437808 0.011627648 0.008214831 -0.0029937066 0.005725298 -0.015366718 -0.0061588734 0.012615975 -0.0024404153 -0.008258589 0.011979011 -0.007647589 -0.0007593334 -0.014074696 0.012719937 0.018462328 0.0043125413 -0.0011857376 -0.00014383346
aimée 0.0037019309 -0.0017079078 -0.005225882 0.01166451 0.011715166 -0.004269935 -0.0060768835 -0.015523501 -0.009422734 -0.008450098 -0.008896992 0.011718407 -0.004498504 -0.019568838 -0.011504419 -0.044104926 -0.0050016213 0.014143314 -0.028833006 -0.018914968 -0.015287813 -0.019206684 0.013501203 0.020438187 -0.01942807 0.0028377324 -0.013867201 -0.024213567 -0.008103654 0.0103354445 -0.0076668076 0.024137106 0.010827497 -0.009091048 0.0026260428 -0.014134392 0.0021187216 0.0035052109 -0.008994326 0.0105078155 -0.0010182671 -0.0114257 -0.017325558 0.016976248 0.0055072755 -0.009864364 0.012545921 0.028861655 0.002471142 -0.030554168 0.009182364 -4.4234097e-05 0.009483673 -0.0133285 0.018689992 0.019500077 -0.0013254888 -0.011331469 -0.027713478 -0.0025886279 -0.019598471 0.032493763 0.008396573 -0.00421884 -0.02130483 -0.06342924 -0.005395199 -0.041648135 0.021266842 -0.0073614065 0.016646467 -0.0214585 -0.032929733 0.0034618974 0.00012014806 0.002491489 0.0013809842 -0.014130644 -0.011715096 -0.0037764665 -0.015322264 0.012026899 -0.005606845 0.02384476 -0.039520346 0.031397704 0.013298314 -0.0031145308 0.002577223 -0.017726794 -0.029958144 -0.005860258 -0.038714364 -0.0023232698 -0.002270923 -0.0045839585 0.0002533514 0.0026434176 -0.007970949 0.003811542 -0.017957464 0.0012519881 -0.008367859 -0.047423393 -0.007842921 -0.011591315 -0.0012149699 -0.025626816 -0.001699239 0.0032854453 -0.0032497216 0.021924287 0.0010080123 -0.006182894 -0.0022832677 -0.025608923 -0.016077427 0.005995482 0.019836938 -0.0024534985 -0.031188987 0.01888743 0.005658403 0.03003305 0.003861107 0.0013914295 0.0107351765 0.026963815 0.013594668 0.009750662 0.010374166 0.042013142 -0.012619233 -0.007856369 -0.0068979785 0.01321014 0.007818326 -0.022256013 -0.009326823 -0.010039769 -0.010292165 -0.021666907 -0.02114164 -0.016074743 -0.0077187344 -0.034387067 -0.014615998 0.018407695 -0.0022927374 -0.010424336 -0.007912535 -0.006846994 0.016088404 0.003653936 -0.0146865975 0.021436632 -0.0085030645 -0.0016325936 -0.021351747 -0.014959788 -0.0125871375 0.009371437 -0.031800598 0.0056704953 0.008865837 -0.005272649 -0.004486285 -0.008393481 -0.0202889 0.0068841 0.024993181 -0.0042818747 -0.00053168833 0.004383508 -0.00010070205 -0.015299661 -0.011313263 -0.012567416 0.026247349 -0.0016415119 0.0028197896 -0.028004225 0.0124273375 -0.0070890915 0.011254642 0.009213373 -0.0050417855 0.0050338963 -0.011193521 0.029132947 -0.015645482 -0.012225032 0.023282763 0.018449593 -0.0054271445 0.009400666 0.005247727 0.009428747 0.018085992 0.0017000437
airbus -0.0009770691 0.015529051 0.011775732 -0.011334087 -0.009026855 0.014477344 0.0057258606 0.014350526 0.0005319668 0.015400901 0.015358828 -0.0016952083 0.0010366626 0.013718985 0.015120819 0.047292165 -0.0020584688 -0.0124425925 0.015891124 0.017318565 0.02044677 0.016517915 -0.016278168 -0.032501005 0.013922686 -0.0008492172 -0.002891317 0.024213754 0.02779632 -0.0043447614 0.009630874 -0.028414607 -0.0137279965 0.005356759 -0.002118975 0.012993692 0.0027704537 -0.0014974624 0.0017475411 -0.019321486 -0.0059465617 0.026100826 0.017969154 -0.006494716 0.00014446676 0.011335403 -0.0073774084 -0.010334764 0.006243974 0.0206924 0.003208882 -0.0022736192 -0.008176252 0.010924138 -0.0005471036 -0.01755508 0.003561329 0.004944764 0.018588424 -0.0033459435 0.011315238 -0.021646231 -0.0068223253 0.0144987665 0.00433553 0.049624372 0.008825261 0.038525406 -0.018807042 0.005891584 -0.017899714 0.019173652 0.019745395 0.0027890988 0.00015195087 -0.00930541 0.0008085184 0.015594248 0.0007937923 0.010453777 0.013451695 -0.008408281 0.0063967034 -0.02738471 0.02650594 -0.014975086 -0.012711082 -0.011423122 -0.0052876696 0.018658567 0.019762196 0.004115509 0.034363896 0.008443845 -0.016477332 0.0021270514 -0.003164867 0.010961123 0.0112066865 -0.0167019 0.006053681 0.013583297 0.011619455 0.041215137 -0.0015637651 -0.0036125965 0.0010189842 0.020374686 -0.009143341 -0.0022016307 -0.0061037876 -0.021065414 -0.005153086 0.00011551939 -0.00569351 0.016571343 0.002237834 -0.010750756 -0.02004613 -0.0045946334 0.020123638 -0.022390611 -0.011390857 -0.030717462 -0.0021643192 -0.008189835 -0.005708009 -0.036682628 -0.010405514 -0.024296016 -0.009969562 -0.02642424 0.018817551 0.005428992 0.0064068437 -0.008455351 -0.0034007058 0.027966544 -0.0014797561 0.013950136 0.007001714 0.019703582 0.0133694075 0.019160582 0.004955479 0.030618913 0.015638836 -0.008278862 -0.005366698 0.0055685453 0.013127156 0.0052663796 -0.006805904 0.009533398 0.0152439475 -0.015902953 0.011083145 0.01088234 0.015816033 0.023971878 0.010814201 -0.012949556 0.023511179 -0.013395492 0.004173834 0.005166322 0.005858578 -0.0009941198 0.017806098 -0.008141886 -0.020797802 -0.0008445084 0.0043068454 -0.0059822276 0.009418171 0.014433101 -0.022393491 0.012346616 -0.011202931 0.0074219815 -0.007630974 0.02846881 -0.0014015865 0.0014184117 -0.011377931 -0.0062503293 0.00519298 -0.011176996 0.009564105 -0.024900295 0.007881215 0.017672705 -0.029751416 -0.0061141774 -0.007408308 -0.010115594 -0.0037892517 -0.0029517412 -0.0033271555 0.0016409867
aire 0.0065342486 0.0008532703 0.0046664365 -0.0048622936 -0.0077723768 0.005889602 0.00606592 0.0025691371 -0.011962697 0.0072524613 0.007542908 -0.0062916055 -0.0029901117 -0.007682033 -0.0071557686 0.023682296 0.0051748753 -0.016088175 0.0034459084 0.009105112 0.014216501 0.022081904 0.0014522066 -0.003077183 0.006452713 -0.0040309094 0.0010853037 0.010910407 0.019589987 -0.010113955 0.019269437 -0.009062186 -0.008086219 -0.016095554 0.02186519 0.0048120264 0.014033817 -0.005888462 -0.005451426 -0.021535724 -0.013309851 0.0021852162 -0.0036638416 -0.0064853355 -0.0016223006 0.0046633314 0.011115054 -0.0010100827 -0.006643541 0.023357168 0.0039004907 0.0028550923 -9.838864e-05 0.016046345 -0.006584339 -0.017479744 -0.0029356964 0.0080561 -0.0017717257 0.0068617426 0.007616151 -0.01236552 -0.0036689192 0.008966461 -0.017251648 0.02176826 0.0073549524 0.025489246 -0.0034633894 0.00071463734 -0.011606328 -0.014908928 0.0068990514 -0.01363454 0.009615466 -0.0033787116 0.010524616 0.012784079 0.0007249266 0.0048149377 -0.00025854632 -0.011362206 -0.0046104155 -0.018810853 -0.0023545465 0.008857463 -0.00065271556 -0.0034492537 0.007933877 0.009601517 0.007186737 -0.008364264 0.0063394904 0.010087468 -0.016502779 -0.007814148 -0.0035847127 0.011767022 -0.00029780716 -0.00611474 -0.004449472 -0.0039177164 0.01900854 0.0012505017 0.0028778762 -0.009915803 0.0051677683 0.022191925 -0.0018887501 0.003949791 0.0054888083 -0.013374694 -0.0008265525 -0.008777946 -0.004452817 0.0033393167 0.002169421 -0.007519897 -0.00929682 -0.020354433 0.012209192 -0.009265576 -0.011084352 -0.015542947 -0.0124809 -0.007199928 0.0005642846 -0.019163638 -0.008983165 -0.012693394 -0.008524956 -0.011074513 0.005504824 0.004416719 -0.00089508295 -0.0058987653 0.002791386 0.014666323 -0.029628415 0.015376225 -0.0069007967 0.015027648 0.0048669092 0.013873556 -0.017504346 0.008497775 0.008935183 -0.01119753 -0.00088905543 0.012540102 0.0008757897 -0.00053017586 0.0138106495 -0.0028842017 0.0038596764 -0.0054562017 0.0049770586 0.012992073 -0.0028287955 0.031385683 0.0027820468 0.0010948218 0.005051484 -0.012390383 0.002407506 0.0067350864 0.0036251806 -0.010233596 -0.002479069 0.005850099 -0.013847861 -0.0057522804 -0.008283429 -0.008746058 -0.002790505 -0.004465662 -0.033160515 0.0014238022 -0.010170694 0.005371481 -0.008664444 0.008563854 0.0022316016 -0.0043924674 -0.0059767514 0.0017038286 0.022140782 -0.0007890165 0.003719043 -0.008335693 -0.0016662255 0.028954767 -0.015891306 0.013831276 -0.0067243353 -0.0027138367 0.0009956285 -0.012720518 0.0012065321 0.0145216845
alberta 0.0020576157 0.0021919534 0.004527863 0.00011573732 0.008422971 -0.0021715686 -0.00075527374 0.006543573 -0.003828898 0.0020298325 0.0036978908 0.010427572 -0.0041975887 8.7320805e-06 0.00912896 0.013949677 0.0025401264 -0.0003860183 -0.0039593577 0.0076023303 0.009180203 0.009145487 0.0002507493 -0.01025632 0.004307624 0.00064959377 -0.0019450635 0.016632196 0.0069384575 0.002446428 0.0013059229 -0.004720792 0.00095279515 0.0048595443 -0.0016321801 -0.0029906482 0.0060276464 -0.0013689734 0.0026293043 -0.011044085 -0.0014658198 0.0029330328 0.0015648529 0.0037103705 -0.0009840392 0.00011351332 0.005746737 0.001945667 0.010232016 0.0028893943 0.0040689707 -0.0013629158 -0.008889541 -0.000977099 0.0036372505 -0.00011895597 0.0028719231 0.0024885293 0.005368078 -0.0021621864 0.0045786425 0.0006137267 0.0022755712 0.014431125 -0.01133962 0.0022243299 0.0017881934 0.0023449808 -0.010561198 0.010309199 0.0027765185 0.006374333 0.00051258504 -0.0025740825 0.0020783618 -0.0033688284 0.0041645393 0.0051277094 -0.007815307 0.003536556 -0.0064374693 -0.0023789927 0.0016250685 -0.0025055707 0.0017710701 0.009659961 -0.0022484474 -0.010675728 -0.0044780374 0.00815817 0.005186375 -0.0008586347 0.008295789 -0.008509792 -0.009513713 -0.0071766526 -0.0048715696 0.0032105022 0.0031744093 -0.004463926 -0.007250338 0.011871293 0.008006871 0.004691733 -0.004272975 -0.0028381124 -0.0008938606 0.004770331 -0.008688472 -0.0003138549 0.003117837 0.0020077738 0.0029304996 0.002358988 -0.002181016 0.0022486784 -0.00071813166 0.005456917 -0.006262917 -0.0009041764 -0.0018628091 -0.00752303 -0.0067632794 -0.006708756 0.007997297 0.0017109625 0.005373384 -0.017283097 -0.0002579568 -0.011309072 -0.007921748 0.0015242826 0.008947717 0.009591844 0.0019786507 0.006320415 0.005848985 0.0042271167 -0.000771055 0.005557202 -0.00789123 0.0034636725 -0.0026475266 0.0002754517 0.0043929443 0.0114624575 0.008344604 0.012785183 -0.0053375587 -0.0047918744 0.0006989464 0.0054208003 -0.007005144 0.008705821 0.0048422944 -0.0029064287 0.009293381 -0.00025862455 -0.0040099286 0.011952282 0.0045992434 0.0041776597 -6.169826e-05 -0.0047854073 0.010781415 0.0060942024 0.0006016176 -0.0062506236 0.0064482763 -0.011916262 -0.0058052987 -0.0095238015 -0.001890555 0.006837815 0.0084168855 0.0023785233 -0.02165185 0.0029357001 0.0037743351 0.005122073 -0.0041883364 0.014680862 0.010670656 0.0012518764 -0.005903594 0.0010227561 -0.005735847 -0.0028340667 0.0070723146 -0.0054675937 -0.0033234768 0.0022533461 0.000918217 0.0070651397 -0.007344302 -0.007879717 0.005846627 0.0033076182 0.007871255 -0.0031333286
albino -0.011591682 0.01385838 0.0050211884 -0.022090964 0.00076889247 0.008920625 0.004722841 0.021387458 0.012956493 0.012122965 0.013300391 -0.017770708 0.00694111 0.028231606 0.014850935 0.0401034 0.008991804 -0.0007462129 0.032977283 0.010137934 0.018855646 0.011962775 -0.021070845 -0.033561606 0.024024777 -0.0034773387 0.0073396787 0.029666275 0.02318193 0.005466178 0.0002289014 -0.040164985 -0.024511427 -0.0057544634 -0.00050031394 0.032525547 -0.0055515077 0.0036022458 -3.1348318e-05 -0.008294124 -0.01305127 0.030513838 0.02952425 -0.016918266 0.0061102733 0.015312057 -0.030614823 -0.029169928 0.0076910555 0.021060333 -0.0030662194 -0.014556449 -0.012226116 0.01598489 -0.02254012 -0.011492699 -0.0063401535 0.0065798573 0.0320881 0.00032155286 0.024694327 -0.032114744 -0.012219682 -0.0013046041 0.02380184 0.07888265 0.0034621134 0.044226285 -0.025557905 0.00551036 -0.013198551 0.035751194 0.03633493 0.0028367527 -0.00034324452 -0.014593938 0.00025289133 0.0026467852 0.010385322 -0.00061591994 0.021704018 -0.0076139197 0.0038517434 -0.029010907 0.045099705 -0.033245802 -0.0088630635 0.004628256 -0.009589978 0.010252751 0.025667865 0.011388369 0.043982916 0.008126665 -0.0048526004 0.0011186181 0.0072833886 0.0020935219 0.01744353 -0.014808524 0.0052736104 -0.0017853081 -0.0081321355 0.05948767 -0.004002942 0.009343214 0.0049130805 0.019271977 -0.00060479343 -0.007557042 -0.015094522 -0.040036134 -0.019168805 -0.0040160045 -0.0045623854 0.018641876 -0.0020020753 -0.016639017 -0.027496923 0.012681916 0.034673985 -0.025170395 -0.011315443 -0.048456002 -0.009050772 -0.018651053 -0.009072062 -0.037433766 -0.019260526 -0.019139003 -0.01573493 -0.04450044 0.015842266 -0.0012854934 0.014307942 -0.025155077 -0.009369455 0.027315734 0.015550993 0.023896776 0.01201191 0.016905159 0.02100847 0.023631673 0.007905201 0.042658925 0.015018493 -0.014007557 -0.008703243 -0.002540063 0.0233142 0.0021036044 -0.017117582 0.00598373 0.008508585 -0.023483366 0.011344612 0.01318421 0.025854709 0.007627845 0.01805022 -0.012709223 0.032182 -0.009185329 -0.009713601 0.015057076 0.004548073 -0.001183806 0.011034079 -0.011752662 -0.024014866 0.0052221846 0.0031379424 -0.0057580285 0.016477145 0.0036228523 0.014324039 0.009403564 -0.031986773 0.0038635768 0.005427016 0.037918255 -0.007950557 0.013043642 -0.008052722 -0.0030014515 0.0014716536 -0.009158485 0.017008644 -0.03166596 0.022204384 0.014548984 -0.02941792 -0.012441643 0.00155247 -0.016223278 -0.0035123127 -0.013840511 -0.032621883 -0.011696253
alcazar 0.0015588477 -0.009754825 -0.008846782 0.006839511 0.00022254139 -0.011774808 -0.014599815 -0.010838307 -0.009599447 -0.004720561 -0.0022840784 0.013008207 0.001255393 -0.021587163 -0.009992713 -0.026829751 -0.004501179 0.0038154162 -0.013020193 -0.009283468 -0.01437084 -0.008852705 0.010112166 0.011489749 -0.007517606 -0.004151592 0.0033056177 -0.010352746 -0.011361036 -0.0044154227 -0.00048552826 0.010254189 0.011953652 -0.007358834 0.0015558796 -0.015272237 0.0060939956 -0.00090816617 -0.004126045 0.0046713967 -0.004480362 -0.006342791 -0.021759339 0.0045273304 -0.0016106665 -0.013447365 0.0058182105 0.00044176728 0.0045849606 -0.023201186 -0.0005563721 -0.0010768995 0.0032839817 -0.0029664636 0.0059741316 0.007976204 -0.008037388 -0.0043734238 -0.028909292 -0.007988751 -0.01683192 0.025351794 0.0001364313 -0.011158109 -0.006830482 -0.037492417 -0.0073373243 -0.030968277 0.012778882 -0.0050276266 0.014242325 -0.012030485 -0.008316625 -0.0049293786 -0.004579067 0.00024657696 0.004648678 -0.0038505308 -0.0037998483 -0.008976439 -0.012420621 0.001053445 -0.002088395 0.01527008 -0.035418216 0.017084092 0.008654747 -0.002168201 0.0010239929 -0.011801088 -0.015248623 -0.011958987 -0.019134682 -0.012797226 0.009354919 -0.009365343 0.0014592186 -0.0007050801 -0.0013998747 -0.003964819 -0.011787377 -0.006653793 -0.001225777 -0.02823121 -0.002354581 -0.007920171 -0.00016805856 -0.014534451 0.0012134463 0.011467785 0.0022529066 0.0096763065 0.009485918 0.0012518605 -0.0011648834 -0.013882205 -0.0034888908 0.016391356 9.0939924e-05 -0.006315004 -0.022321906 0.011401216 -0.0029894225 0.017191619 0.004286833 0.009256117 0.008874938 0.014338627 0.0034400523 0.008683808 0.0040120855 0.02343839 -0.016790122 -0.0043149106 -0.006776188 0.006517753 0.008957386 -0.020735988 0.00020602345 -0.01126423 -0.014066897 -0.019600866 -0.013110459 -0.01884508 -0.0011351034 -0.02486384 -0.00952607 0.008077425 -0.008921191 -0.0049109533 -0.010689706 -0.0019744243 0.010576095 -0.0053700767 -0.010928795 0.01665239 -0.009117324 -0.0038393794 -0.016157955 -0.013841718 -0.008341972 0.012010872 -0.021429798 0.008506205 0.0013242569 0.008603752 -0.004313657 -0.01052092 -0.009988698 0.001685854 0.0070405565 -0.01078926 -0.011511736 0.0010325079 -0.003979599 -0.016978858 -0.0026450455 -0.012179632 0.007923372 -0.00048804842 -0.0020611137 -0.020011768 0.005774729 -0.0049358048 0.0022508688 -6.943196e-05 -0.0076153427 0.0045580366 -0.0046638995 0.017565355 -0.0140803745 0.00011855364 0.019053787 0.011287026 -0.0006402731 0.0014326014 0.00048803538 -0.0021818504 0.00642924 -0.007943541
alexis_de_tocqueville -0.022713758 -0.015259545 -0.004862845 -0.01200635 0.0044904314 -0.0070618354 -0.011170857 -0.008444801 0.00847479 -0.009655273 -0.001289919 -0.006503731 -0.01159244 0.010427587 -0.0015886836 0.003964439 -0.008091789 0.0030667484 0.0057445187 0.00057451427 0.014570415 0.0012685936 -0.005148044 -0.0030082315 0.012858298 -0.009839483 0.006731078 0.013429385 -0.00052250177 0.004290458 -0.005830046 -0.020155981 0.0051118135 -0.00330472 0.004465226 0.0040886626 -0.0084383935 -0.006035 -0.003228426 0.011836693 -0.015730783 0.0020512147 -0.012167733 -0.020219162 -0.0071753412 -0.013042964 -0.0147373825 -0.02215706 -0.0028430186 0.0023219213 -0.0077987676 -0.0041243583 -0.007157862 0.0058620926 0.0053868443 0.0069211945 -0.0077735186 -0.016001288 -0.012020968 -0.004371032 0.0092806555 0.0060127378 -0.0072235316 0.0039344244 0.0010402724 0.008300791 -0.016063137 -0.016187962 -0.0041534547 -0.0051944405 0.00051629543 0.002285473 -0.0037638578 -0.007206157 -0.012979407 -0.003903661 -0.013858851 0.005608 -0.008326191 0.012283228 -0.0113392025 -0.020994216 -0.0013451912 -0.0059364885 0.006192386 -0.0030610487 -0.0031700432 0.012037612 -0.0062311813 0.0019366816 -0.009014327 0.007156629 -0.0014843792 -0.013241731 0.0025652274 -0.0076836497 -0.0039701387 -0.00050793216 0.006567687 -0.0063646063 0.010079797 0.002856657 -0.0003745705 0.0031319894 -0.0010700673 0.0040651336 -0.008765899 -0.0004370003 0.003718528 0.00015120907 -0.01196564 -0.0020824969 -4.18392e-05 -0.0051105544 -0.003406562 -0.007832702 -0.008508123 -0.0096176565 -0.0058686063 0.0073049404 -0.020015232 0.008017451 0.0027267914 -0.026377685 0.0026534353 0.009382453 1.8943101e-05 0.005594451 -0.008064315 -0.010738909 -0.016743971 -0.028439745 -0.017408915 -0.0031626374 0.0047789426 -0.016428653 -0.00723709 -0.012177844 0.009512231 -0.006776316 0.0013739318 -0.0007878095 -0.0066998275 0.0033987174 -0.004574977 -0.009325985 -0.013692288 -5.144626e-05 -0.0053088907 -0.008738273 0.010667054 -0.0039121658 -0.010672025 0.0047067106 0.00069986656 -0.008505009 0.0076763295 -0.006606862 0.0011537969 -0.0005196482 -0.0050632916 0.0088425055 -0.0032277256 -0.00782679 -0.011319888 0.008523911 0.008843873 -0.0022962727 -0.012345314 -0.013772387 -0.013952249 -0.0035156459 0.0007032752 0.006228538 -0.020010125 -0.012282614 0.019025516 -0.01719287 -0.018024663 -0.01259147 -0.009151295 0.0060129315 -0.014711592 -0.014232162 -0.013935458 -0.0032434762 0.014865398 -0.003650397 -0.0021113623 -0.0059173554 -0.0016833469 -0.01300481 0.002444975 -0.0017266106 0.009535055 -0.013533302 -0.018528555 -0.016390895 -0.010406747 -0.008562468
alfred_de_musset -0.0045315884 -0.015484072 -0.0067633577 0.006497942 0.0051844474 -0.0062521845 -0.005852921 -0.008244798 -0.004234284 -0.009843387 -0.00676262 0.0003824276 -0.005357623 -0.01702097 -0.01519189 -0.026751319 -0.009013613 0.004558459 -0.017573662 -0.013375893 -0.004234731 -0.012697004 0.011660134 0.013827506 -0.010499403 0.00082646124 -0.0029694512 -0.0144780055 -0.008890426 -0.0063875616 -0.00491036 0.0100168 0.011984184 -0.014655396 0.0019085575 -0.013116509 -0.0022058804 0.0006862208 -0.0014960021 0.009725586 -0.0020110402 -0.014152442 -0.014005378 0.00031949207 0.0029214472 -0.010172827 0.013875015 0.0011872351 -0.0054763313 -0.009780092 -0.003907621 -0.0008734539 0.0047607347 -0.004363069 -0.00036220998 0.0097505525 -0.008761551 -0.009224258 -0.01775987 0.0004955735 -0.013873547 0.017551117 0.0066035986 -0.009519272 -0.012844473 -0.035229683 -0.0025499687 -0.020178221 0.0073997676 -0.0059088916 0.0096321255 -0.016934566 -0.014720254 -0.0020676702 -0.00484873 0.0016278327 -0.002138991 -0.010961633 -0.0069759376 -0.005824957 -0.010203965 0.0050387084 -0.003251426 0.013368875 -0.022757336 0.013354306 0.00216081 0.0021335622 0.0009778813 -0.012014752 -0.018977456 -0.0016478524 -0.024486925 -0.011263393 0.0060574636 -0.0033921897 0.0052849744 -0.00500264 -0.0041085705 -0.001858091 -0.0012362748 -0.0013761334 -0.008468159 -0.032229632 0.0015764339 -0.0054922905 -0.00090582296 -0.018002123 0.009333409 0.0025455412 0.0047675148 0.010790806 0.0008159429 -0.0046175197 0.00581488 -0.01641427 -0.0063870326 0.0029839724 0.007322847 -0.0011954196 -0.016049169 0.01462223 0.002042532 0.013171509 -0.003648486 0.00037503242 0.0106868 0.021425618 0.00077709556 0.009739257 0.0038555264 0.016074007 -0.0132607445 -0.008488819 -0.004682854 0.00341863 -0.004698282 -0.01867618 -0.0023907498 -0.007859021 -0.010037806 -0.015477814 -0.0137128085 -0.014581861 -0.008646047 -0.02283141 -0.015474897 0.010073513 -0.0018181689 -0.0055392906 -0.0078910235 -0.005315922 0.012162995 -0.012113774 -0.00875292 0.009204343 -0.0052750055 -0.007641308 -0.014938859 -0.013181701 -0.006629167 0.011968386 -0.019290723 0.0061286464 -0.0050028004 -0.000947088 -0.0033120709 -0.006866552 -0.013985299 0.0050170496 0.00929977 0.0005475208 -0.00242389 0.004584931 -0.0067493096 -0.014717502 -0.005298659 -0.012885258 0.0029877424 -0.008260898 -0.00078054797 -0.019364655 0.012581065 -0.0026371256 0.0074196747 0.009879302 0.00020331726 0.010073297 -0.0068330914 0.02299852 -0.004921764 -0.010063797 0.013335332 0.005040154 -0.00038990192 0.007925734 -6.35013e-05 -0.007791521 -0.001770176 0.008602619
alfred_russel_wallace -0.003995415 0.019285351 0.009562217 -0.011811487 0.0018773228 0.01294047 0.009162337 0.017487153 0.0076141115 0.008706167 0.009385787 -0.007984743 0.0026864894 0.024587095 0.01494115 0.04665474 0.010169154 -0.011965882 0.02799327 0.01844772 0.012417167 0.019320413 -0.012900647 -0.024567813 0.018213267 0.0017836909 0.0022526458 0.02038429 0.017401297 0.0042833686 0.0143082775 -0.027156562 -0.022266492 -0.0006212443 0.00873664 0.026336566 -0.0036939457 -0.0016314198 -0.00020376593 -0.01240173 -0.0049813427 0.022287212 0.024686202 -0.010308571 -0.0027664881 0.01423176 -0.020623736 -0.0051796287 0.0032446608 0.026151823 0.003278628 -0.008000996 -0.0022964198 0.020612225 -0.014925547 -0.013546361 2.4355948e-05 0.008790299 0.022181809 0.0071163177 0.024561837 -0.032609 -0.00540849 0.011180181 0.019191556 0.06554187 0.00919085 0.048449412 -0.010710904 0.012097608 -0.017496102 0.025521688 0.02641277 0.0019079521 0.0094104335 -0.011748575 0.003600631 0.009510361 0.012930896 0.0071027577 0.019334503 -0.009635605 0.0039692 -0.02965649 0.035778403 -0.023834378 -0.008056948 0.003858611 -0.0013937429 0.013887547 0.029627098 0.0047755055 0.036144808 0.021837302 -0.008461088 -0.003896471 0.0031621605 0.009140454 0.008814141 -0.0074664354 0.0019748732 -0.00033737486 -0.0021952838 0.04386134 -0.004358623 0.008083288 0.00075993687 0.02614627 -0.0043787733 -0.0038676 -0.012185574 -0.023684546 -0.012311369 0.0035630371 0.0014419183 0.022415716 0.002779659 -0.008278962 -0.012549534 0.004234541 0.03643664 -0.018670395 -0.0058175027 -0.038643472 -0.012145884 -0.008174746 -0.0034737377 -0.027161457 -0.015220001 -0.02103655 -0.0112242475 -0.03038983 0.016580645 0.0067091137 0.017908089 -0.011225533 -0.0045000426 0.034643777 0.0032301694 0.01457225 0.010140952 0.023551516 0.020755148 0.026629023 0.00023449957 0.03799049 0.01870916 -0.013613582 -0.00032289326 0.0069412235 0.010225959 0.006516017 -0.014020662 0.0100605935 0.008467317 -0.024018712 0.0035033461 0.01549422 0.025683647 0.019747421 0.016081735 -0.013006821 0.025147144 -0.012011617 0.0035528243 0.006555207 0.004944917 0.0016701818 0.013440782 -0.013377398 -0.0130559355 0.0038511753 0.0013439953 -0.010542944 0.012040999 0.010070592 -0.0016502477 0.010016948 -0.019408613 0.0065755546 -0.00086013414 0.03391078 -0.015735503 0.009529989 -0.007419288 -0.0075380504 0.009381261 -0.010303378 0.00815829 -0.03602556 0.022122145 0.01791024 -0.029538095 -0.0066217408 0.0012438521 -0.010549046 -0.00087153167 0.003330052 -0.01087955 -0.0026717186
allemande -0.0012855008 -0.02480026 -0.015394434 0.019730128 0.01253405 -0.020409271 -0.010098312 -0.02559939 -0.00071573444 -0.012664437 -0.023697712 0.010337248 0.008302189 -0.02591135 -0.018141292 -0.07820891 -0.006339267 0.03139085 -0.024368374 -0.024516374 -0.026218846 -0.030109903 0.032818787 0.044628516 -0.0200389 -0.0035891458 0.012184862 -0.021475386 -0.033499427 0.010179229 -0.022112325 0.042403676 0.031635948 -0.006027885 0.006867176 -0.02282016 -0.0008295588 0.008924423 -0.0031362846 0.028411515 0.012227915 -0.040345404 -0.035258703 0.01658772 0.0053213164 -0.02268368 0.019077525 0.013194799 -0.0057519805 -0.04008788 -0.00026649237 0.013424864 0.010091009 -0.022756249 0.011112787 0.034347944 -0.003372591 -0.009873293 -0.03623423 0.00059771724 -0.01831866 0.05253439 0.01094608 -0.020318963 -0.017086767 -0.08978816 -0.01051495 -0.08250023 0.02621669 -0.010036144 0.029237501 -0.03193082 -0.032114826 0.0025404915 -0.00862696 0.018903911 -0.0013043582 -0.026301116 -0.010354985 -0.012370601 -0.023839556 0.012686662 -0.008022159 0.050069056 -0.055376396 0.038189474 0.026041467 0.011557739 0.009331286 -0.02641553 -0.040371016 0.0003183782 -0.060598686 -0.02730041 0.02528017 -0.007580932 0.009090029 -0.017748548 -0.011671431 0.022159092 -0.009513393 -0.014120046 -0.020746525 -0.069124624 0.001588665 -0.00081388094 -0.0032314658 -0.034960125 0.009613 -0.0021601887 0.017133988 0.037377574 0.013599768 -0.0022267364 0.0062025487 -0.03878405 -0.0112067545 0.02214694 0.026320878 0.006870784 -0.044162497 0.043615118 0.027134007 0.042494044 0.0096110925 0.015270077 0.019692468 0.056676 0.021228973 0.037653573 0.02274245 0.045292348 -0.023153216 -0.013361894 -0.0137772765 0.0125897825 0.012690097 -0.05113957 0.0063177873 -0.023274776 -0.015746787 -0.040615454 -0.025469467 -0.02628591 -0.0021199882 -0.05395998 -0.028044965 0.030475123 0.0030140579 -0.020636968 -0.008589279 -0.006884057 0.013624422 -0.010560973 -0.02417612 0.02711755 -0.019017126 -0.019253481 -0.0297511 -0.049193587 -0.011584075 0.035062272 -0.04234288 0.029550493 -0.0023730844 -0.0037479703 -0.0029621795 0.00059406366 -0.032328695 0.020401549 0.02879233 0.0059660524 -0.0070751123 0.03189168 -0.012743294 -0.033959057 0.023647115 -0.017226998 0.022060245 -0.009184249 0.01315593 -0.04907544 0.011294996 -0.00015293062 0.015329955 0.020041041 -0.010184586 0.024189446 -0.0059304275 0.052835315 -0.017830173 -0.029659718 0.056965735 0.008468371 0.009503422 0.014880598 0.0154031515 -0.009075858 0.007904738 -0.00014581345
aller 0.00029014796 -0.015434179 0.00022108667 0.00050739996 -0.0049868617 -0.00772099 0.0015586913 -0.005813922 0.0007338226 0.0030284016 -0.0010223612 -0.0008688271 0.0020458624 -0.005966313 0.0069712624 -0.013480511 -0.0036498867 0.001823023 0.004081011 -0.0018117726 -0.009943321 -0.005861353 0.0021782294 0.0008078441 -0.0029629879 -0.0064025745 0.007171413 -0.009304136 -0.0019898787 0.005427204 0.0009630509 0.0039252862 -0.0056293905 0.0055375174 -0.012537617 0.002074197 0.017404474 0.004348621 -0.006424889 -0.009492461 -0.006755004 0.0047884583 -0.0015669279 -0.003312991 0.0007581338 -0.00014412403 -0.007230809 -0.017696016 0.0025916956 -0.00045202672 -0.008505091 0.0043666586 -0.012318382 -0.007069491 -0.017225534 -0.0057848543 -0.00052140653 0.010922335 0.008863129 -0.0067562684 4.6014786e-05 -0.0010875948 -0.0008177683 -0.01040262 -0.012548905 -0.0012840331 -0.007335931 -0.011282649 -0.004746286 -0.00627587 -0.014063653 -0.015035292 0.01061617 -0.006852627 0.00015377253 0.0034869164 0.0059423335 0.003381893 -0.0022548884 -0.0141791105 -0.008035395 -0.008158896 -0.004466235 0.0034350418 0.007976979 -0.0052910447 0.00025250018 -0.010489803 -0.010151163 -0.0066612363 -0.008336943 -0.0050393865 -0.0035252199 -0.0047283173 0.00034860335 -0.0058447868 -0.0007513501 -0.00029740483 0.0042829327 0.009197529 -0.006808847 0.006055532 0.019207802 -0.00089018047 0.0008447096 0.004802404 -0.0017542336 -0.011615366 -0.00912413 -0.007176429 -0.0054043215 -0.013166927 -0.002446122 -0.008436304 0.0002612099 0.0018825307 0.0032172613 0.00463064 -0.0001565367 -0.0027603954 -0.0071189925 -0.002155045 -0.0061701033 -0.0048195943 0.0050658174 -0.0065725446 -0.013390444 -0.0110183805 0.00039490312 0.006923612 0.0007353714 -0.005399339 -0.00047229975 0.0064826924 -0.008591469 0.007630706 0.00016642362 -0.008796331 -0.00470832 0.0064000264 -0.0050396193 -0.0042767897 0.0031491518 -0.007390786 1.6525388e-05 0.004071664 0.0024812147 -0.001248464 -0.00010976195 -0.0011372324 -0.0021581892 0.0056464123 -0.010806538 0.00055004656 -0.0062097833 0.0021069497 0.016199596 0.00059852004 -0.0029000603 0.010094292 0.0034685172 -0.0023484752 0.014795605 -0.002979122 -0.0060267895 0.0020853914 -0.0046295347 -0.005258035 -0.0019346923 0.0037476271 -0.007840037 -0.0025007594 -0.012228537 -0.00382559 -0.005975049 0.0030732602 0.0050934292 -0.007110536 -0.009738602 -0.0005563572 0.0073802024 -0.0016241372 -0.0067890137 -0.013238907 -0.0023825243 -0.0015805438 -0.007044852 -0.009136587 0.0026606098 -0.0036076389 -0.008113705 -0.0018745121 -0.0053028204 -0.0044875103 -0.005539302 -0.012519844 0.0026489645 -0.005138509 -0.0020710938 -0.011647262
alliance -0.021878682 0.008892167 0.003149609 -0.017354533 0.013477776 0.008404565 -0.01077817 0.0022408217 0.012579076 -0.0006826413 -0.011185825 -0.028053962 -0.009843909 0.023947261 0.018347442 -0.011923835 0.02819261 0.009947784 0.025000755 0.011172388 0.00129849 -0.012678048 -0.002844545 0.0052681053 0.008108966 -0.0035630278 0.020977743 0.027195334 -0.013068646 0.0104251 -0.037149593 -0.020397877 0.0028900355 0.037764393 -0.0062856227 0.018879488 -0.024794709 -0.0035385787 0.010296471 0.023547389 0.001480436 -0.034092307 0.01694778 0.018841196 0.014361836 -0.003233306 -0.008107573 0.0069944505 -0.009018123 -0.018934533 0.0028477404 -0.0028061485 0.0037197247 -0.019546598 -0.01833126 0.008853838 -0.009932965 -0.0080320835 0.023343451 -0.012399644 0.02320937 0.007491572 0.0057265423 -0.011850847 0.019026421 0.011145536 0.0006206873 -0.05521757 -0.013465792 0.00128562 0.014981334 0.038493127 0.008502066 0.0033726012 -0.011936903 0.025979653 -0.03448005 0.021227583 -0.012366518 0.013468798 0.0050763004 0.001055494 0.013700075 0.015733551 0.01040414 -0.012266614 -0.0020231754 0.021756135 -0.031288214 0.024439499 -0.011978068 0.033348776 -0.00025901198 0.0017280355 -0.005475655 0.01498539 0.0131150065 -0.022660166 0.01888385 0.026391702 0.026237905 0.0068025775 -0.025459737 0.03556648 -0.011956833 0.02702149 -0.0055792816 0.0031058416 -0.016414173 -0.03078627 0.005882982 0.009931855 0.011657417 0.022478849 0.0047946125 0.0012976276 -0.0076126903 0.010845225 0.005858265 0.030704021 -0.008871027 0.007032916 0.016862076 -0.014166881 0.021895051 0.012540065 0.0022090524 -0.00222517 -0.014501486 0.012100463 -0.0055047423 -0.00815304 0.017243134 0.00869856 0.0068850555 -0.0009660423 -0.017691985 -0.0053230003 0.01506247 -0.036542736 0.014055919 -0.0027988106 0.008666035 0.004046537 0.020345442 0.0026101694 -0.0008084029 0.0013031606 0.019926764 -0.022497542 0.010357752 0.006394258 -0.023907185 0.0008869022 0.002797205 0.007014919 -0.013231479 -0.018491082 0.020701274 -0.051875595 -0.004550196 0.0011514202 0.0077754036 0.009058025 0.021393217 -0.022876099 0.028611109 0.018428437 0.007696122 -0.0030141436 0.009698866 0.009534996 0.010258694 0.037927367 0.011412129 -0.028645158 0.03411705 0.015465468 0.0002143383 0.006755747 0.0052461918 0.006122563 0.0025583506 -0.0006572604 0.011411101 0.01661101 -0.0031959936 0.009373568 0.01414977 -0.020079523 -0.005463876 -0.038974866 0.02355329 -0.013265669 -0.0061671305 -0.0116252825 -0.0019379593 -0.01058051 -0.008355193 0.0017264932
am -0.004840404 0.00059289485 0.0005704053 -0.0053822994 0.0044746846 0.002842173 0.0029336847 0.0008543134 0.0002745837 -0.0031166263 0.00019398332 -0.008134179 -0.0036868695 0.005787093 -0.002454009 -0.0033766106 -0.0023942068 0.00081156194 0.0034986287 0.00052559935 -0.00096688047 -0.010949321 0.00021629035 -0.0037103277 -0.001853101 -0.00021936558 -0.0018993616 -0.004733149 -0.005986307 -0.0015555024 -0.00906305 -0.0063932016 0.0007991269 -0.0008961931 -0.0058380626 0.00063258363 -0.004166767 0.005380757 0.003726013 0.005054392 -0.0023465753 -0.0034873625 0.006371051 -0.0008838759 0.0030428432 0.0032535056 -0.0037760846 -0.005371377 -0.0014536977 -0.005203478 -0.00302241 -0.0060732365 0.0022289678 -0.0049080886 -0.005936927 -0.0076173646 -0.0072891917 0.004255783 0.0056062066 -0.0024111718 0.00053972006 0.003054142 0.0007706508 -0.0049509816 0.017190933 0.0102107525 -0.0012457394 0.005967293 0.00082878396 7.1991235e-05 -0.006105244 0.0100917 -0.0005606748 0.0025802776 -0.009578899 -0.0031001028 -0.010598443 -0.00625962 0.00018976629 -0.00018230826 0.0018171892 0.0039995126 0.0016420707 0.00089614093 6.253272e-05 -0.0048089884 -0.0037844554 0.00830695 -0.008592492 -0.000671763 0.00013810769 0.0100122485 0.0016951626 0.0022395477 0.0024449565 -0.0013325177 0.0056639495 -0.008747997 0.0021457747 0.005019037 0.007074818 -0.0036769453 -0.006830916 0.009658964 -0.0016833916 0.0033078007 -0.0022843927 -0.0029758587 -0.00040608644 -0.0043103024 -0.0036837496 -0.0011665598 -0.0062261187 0.006194409 -0.0063017905 0.0024297796 -0.004149765 0.0020645037 0.0017712489 0.0060885027 -0.004612078 -0.0013372079 0.0002999669 -0.0051870905 0.0047170594 0.00617218 -0.0034038872 -0.00014049187 -0.005544584 0.0025379062 -0.0014410168 -0.0039185807 -0.0058544204 0.0014232248 0.001420645 -0.007472329 -0.0050918274 -0.0023722947 0.010550171 -0.004096668 0.0026652329 0.001937136 0.0016989997 -0.005713053 0.0049933717 7.612258e-05 9.519234e-05 -0.0061197802 0.0061493553 0.0023832927 0.0006720759 0.0033034924 -0.0066435933 -0.0040073507 0.00202295 0.0010075346 -0.0007215068 -0.005271584 0.006743811 -0.0114856325 0.0023119543 -0.003370598 0.004016388 -0.0011015758 -0.00052699447 1.2098812e-05 0.0049317926 0.0035815164 -0.0020726062 0.0011813864 -0.0007646978 0.00433363 0.0019966364 0.0014245324 0.0034427047 -0.005651489 0.0139952 -0.0054756925 -0.0034639752 -0.004377689 0.006903507 -0.007875338 -0.006992057 -0.00427489 0.007352501 0.004753761 -0.0041834265 0.0034585148 -0.0021135285 0.0021532848 -0.0012214491 -0.006874929 -0.003144987 -0.007004626 0.0040911734 0.0016097687 -0.004784696 0.0016018264 -0.007241901 -0.007820852
amadou 0.0016125664 7.0210546e-05 0.001009684 -0.0006533675 -0.0142285675 0.0036688372 -0.0066619813 0.00034558773 -0.003642857 0.009612672 0.0114481 0.015308507 -0.0026593544 -0.010208484 -0.007926442 -0.013822153 -0.006161198 0.0024146885 -0.0138651505 0.007644994 -0.005734641 -0.0034055766 -0.0077805594 -0.0041022263 0.0005952567 0.0028203316 -0.018433463 0.0019689277 0.0019265302 -0.0056479946 -0.0070734248 0.017483518 -0.0013929233 0.0015501305 -0.012219509 -0.012466148 0.00094398856 0.00081166625 0.0047784895 0.0031034462 0.00418815 -0.009761607 -0.006465094 0.013434671 0.0085698515 0.008877773 0.020645104 -0.02654057 -0.0004993677 -0.001936838 -0.01603983 0.010673925 0.0072583556 -0.005624061 0.004151292 -0.012694191 0.0011191666 0.0038530193 -0.00016169157 -0.0066494346 -0.0045004496 0.016378663 0.011503562 0.0048987567 -0.012107275 -0.0023090392 -0.00480216 0.00760372 -0.018710881 0.0014502704 -0.0038448572 -0.012960643 -0.012737063 -0.003073752 -0.0134904515 0.00053147227 0.00704938 0.014577981 -0.003302984 0.0044110417 -0.010629168 0.00011583418 0.0016647056 0.010307945 0.011979967 0.00906563 0.008335066 -0.018664936 -0.013029728 0.0024781525 -0.020230984 -0.0041913334 -0.0028411653 -0.0078119375 0.0047255456 0.01637218 -0.015624821 9.466335e-05 0.005512759 0.0006486494 0.0040411726 0.029362861 0.03644155 0.002315987 0.019938394 -0.0006528348 -0.0043775365 -0.0016066441 -0.009970013 -0.0058259815 0.0062591676 0.005514264 0.01270235 -0.001977697 0.00020564161 0.0086443 -0.001963622 -0.0046627223 -0.0056688543 -0.0197471 -0.0012386814 -0.006300427 -0.018634647 0.009978108 -0.0013561808 0.0033001453 -0.017557263 0.0025480986 0.009226453 0.012655519 0.011221088 0.0018178448 0.019151267 -0.014162937 -0.006189078 -0.0006034076 0.00609437 0.008429131 -0.007961363 -0.00031728484 0.0020846934 0.002381608 -0.008069664 0.004357163 0.0023978949 0.0011209175 -0.008767996 -0.00086865947 -0.0025892965 0.012597945 -0.001370877 -0.0032729618 0.016653642 0.006826887 0.00012210803 -0.0010520816 0.006197291 -0.0020029359 0.003626451 0.0090102665 0.00053704716 -0.00844007 -0.0020376183 0.0029562283 0.0072070155 0.0038683293 0.0034620408 -0.0037559345 0.02338196 0.007962465 -0.005856797 -0.0055833687 0.004656613 -0.008492468 -0.0013407916 0.026741348 -0.04010527 0.019466113 0.011631921 -0.008000046 -0.017102376 -0.009019341 0.024969049 -0.010901734 0.0032054782 -0.007115718 0.0053600147 -0.013767868 -0.0054477155 0.00469663 -0.021551803 -0.007218942 -0.014507096 -0.007094711 -0.004100103 0.024296142 -0.01230292 0.0021136776 0.0075274035 0.016663544
amarante -0.010579236 0.003680408 0.000949502 -0.01209243 0.008700155 0.0057565644 -0.00073465705 0.0064666104 0.0011999756 -0.0056402087 0.008884026 -0.0036787987 -0.00019558519 0.0060854256 -0.008792313 0.002792269 0.00024776533 0.006205842 0.0144561175 -0.0016203541 0.0024459064 -0.006494537 -0.00089100003 -0.003050613 0.0010236278 -0.0018932372 -0.0046506617 0.014574856 -0.009361673 -0.00415951 -0.008269008 -0.010009594 0.0047347643 -0.009382114 0.003514573 0.0024949964 -0.0018482283 -0.0017808881 -0.005473181 0.005050866 -0.010512099 0.002790209 -0.00080437213 0.008660346 0.013431543 0.0020758659 -0.0058489023 0.0012468398 0.0052559674 -0.0022991598 0.0029951483 -0.013289541 0.009001285 0.0015903562 0.0005318485 -0.0003582202 -0.004190538 -0.0003907159 -0.0062294938 -0.0051369704 0.0037267804 0.001244396 0.005424857 -0.006800864 0.004400406 0.003179945 -0.003876038 0.005190734 -0.004537806 0.0044760965 0.0051257424 0.010865634 0.0059775403 0.0026603267 -0.0076381713 -0.0074147377 0.003993295 -0.0070442446 0.0018248111 -9.316206e-05 0.0027574142 0.0010617021 -0.007041052 -0.009480251 -0.0002592951 0.0027529374 0.000385724 0.007329019 -0.0036590137 -0.00066839904 0.0050083995 0.0028619021 0.0035251044 -0.0006610006 0.0028126584 -0.005666226 0.0084652975 0.00018245354 0.009063717 -0.012737463 0.00016122311 -0.015165476 -0.008687526 0.0018846663 -0.0031833984 -0.0010041893 0.0005258322 0.0027177185 -0.010933064 0.0022884682 -0.00037575886 -0.00011998415 -0.008528804 0.0049049035 -0.008840278 -0.0030766353 -0.009332469 -0.0010859612 -0.003467165 0.0050175376 0.0027775615 0.006868683 -0.0034442842 -0.015147414 -0.0017709956 0.009396501 0.0031994134 0.0007612482 -0.012513757 -0.007818032 -0.0063034724 -0.003946975 -0.009960912 -0.0012725741 0.0037792665 -0.008759476 0.0038196743 0.004477013 0.015294246 -0.0019804612 -0.0025110021 -0.0036264397 0.0021433234 -0.00043426082 -0.0030583404 0.0022887327 -0.0013552457 -0.0036911382 -0.0031105839 -0.007042719 0.008912712 -0.008014306 -0.0045845658 -0.007425174 -0.00053746207 -0.004364036 -0.0015359093 0.0051695406 0.0011073798 -0.014207572 -0.0033243038 0.008350741 -0.0013943985 0.004018992 0.0033838078 0.0015114229 0.0029000007 -0.0043650717 -8.123182e-05 -0.0024968386 0.004053965 -0.003557399 -0.005372321 0.008347742 0.0056074336 -0.012723154 0.003951777 -0.005299218 -0.00402721 0.00053615123 0.003837254 0.005325742 0.0017051101 -0.0027643591 0.0069470853 0.0069345757 0.0014292151 0.0015977067 0.005912385 -0.0020297612 -0.008174479 0.001998689 0.0068347957 0.004468996 -0.0026746392 0.0002777949 -0.003119938 -0.008702174 -0.007836994 -0.0070671495
amazone -0.0005449876 0.0077936277 0.0038371943 -0.002526882 -0.011656508 0.00013829768 0.00072106346 0.0039125085 -0.0037843361 0.0002015382 0.0014403109 -0.005449525 0.0006729886 0.0033019856 0.0035019517 0.012265369 0.010873705 -0.0050788634 0.006889738 0.008859575 0.0003489703 0.011002772 -0.0034250915 0.00034755468 0.004202299 0.0014571622 -0.00018668175 0.012142062 0.0013527796 -0.0055492446 0.0040148348 -0.0027864426 -0.008495733 0.0011130013 0.0010244129 0.0040179975 -0.0020380486 -0.004546091 0.0035072342 -0.00389978 0.0048867576 0.0064349733 0.010550274 -0.0038736612 -0.00939846 0.0015104413 -0.007097274 0.00038544834 -0.0012868606 0.00848636 0.001107554 -0.0050676186 0.005768936 0.0013304166 0.00057436153 -0.0056074485 -0.00086348504 0.0023431256 0.001657784 0.004728157 0.008412674 -0.013295017 -0.0054545365 0.010810633 0.0071061254 0.016545035 0.010122187 0.018693062 -0.0026917756 -0.0002619624 -0.0038870014 0.0069398805 0.008900963 -0.0036587655 0.007066838 -0.0014098305 0.001001358 -0.0040626824 0.009123682 -0.0019464903 0.0029623061 0.00023555278 0.0066226795 -0.012947451 0.0063642655 -0.012799069 -0.00028662384 0.00058786944 0.0074135587 -0.004398994 0.016965944 0.001539886 0.012714714 0.009407791 -0.0042898394 0.006573539 0.00040451437 -0.0029318184 -0.005388773 -0.0051078685 -0.0023309588 -0.010731205 -0.00076590106 0.015890092 0.003352277 0.00070522726 0.006983511 0.015336303 0.006511109 -0.0019503683 0.0053283945 -0.007573314 0.000965273 0.00401507 -0.0008496195 0.009381883 0.004043393 0.00017447025 -0.008548569 -0.004555136 0.015053272 -0.008288007 -0.0069344654 -0.0052043507 -0.007814899 0.0050189365 -0.0010388568 -0.009083375 -0.009490775 -0.005740002 -0.0062750205 -0.008133128 0.00682766 -0.0025695115 -0.0018408932 0.000921987 -0.0020559877 0.009154767 -0.0045593902 -0.0009895582 0.0010810196 0.009552091 0.0014597178 0.004190907 0.0037198365 0.009601416 0.0039929897 -0.007856108 -0.0023382902 0.007113766 -0.0029783351 -0.00033660606 -0.00063356385 0.00072690845 0.0041883215 -0.012070984 -0.010142162 0.0003833659 0.008142194 0.009844027 0.0014835149 -0.004812738 0.005246898 -0.00548362 -0.0043681115 -0.002912445 -0.0019010864 0.0022918098 0.008039538 -0.0018693507 -0.003827259 0.0040568504 0.0031133909 -0.0045431033 0.0060927346 0.005430501 -0.0048455745 0.010865921 -0.00642208 0.0018489342 -0.0055442657 0.008686028 -0.0069105104 0.011384286 0.0009807148 -0.0073172003 0.00027808547 -0.00865585 -0.004915312 -0.010756163 0.0020156056 0.004848622 -0.0043807235 -0.0031771958 -0.0018240064 0.0024908409 -0.0009517763 0.009522947 -0.0019188751 0.008357812
amen -0.01497389 -0.013401352 -0.0034371912 -0.00734476 0.008154154 -0.0023988038 -0.006673917 -0.007174466 0.0026002321 -0.008807465 -0.0046342164 -0.002579663 -0.0062183365 -0.004446905 -0.004164093 -0.014434364 -0.0024751052 0.008288603 0.0004021749 -0.011644095 -0.00035771914 -0.010988313 0.008390645 0.0060896166 -0.008742606 -0.0053776503 0.0035174042 -0.0026776418 -0.007827474 0.00012996793 -0.006417729 -0.00039646775 0.005207084 -0.0038146824 0.0022914298 -0.0062238127 -0.00961259 -0.0024132468 -0.0067953393 0.010134295 -0.013139851 -0.006431274 -0.00998763 -0.0018830448 -0.0028962092 -0.009266742 0.003394492 -0.009121753 -0.0038991664 -0.011155078 -0.0048598647 -0.0033809058 -0.009195453 0.0002861023 0.008039539 0.009669624 -0.011759371 -0.0055610724 -0.013574373 -0.0046449415 -0.0014666468 0.015717862 -0.0056270286 -0.008501001 -0.0035064705 -0.018277168 -0.0067153396 -0.0129462 0.0047907196 -0.008410513 0.0075567737 -0.0056993067 -0.008495323 -0.00035676174 -0.009627432 0.005269684 -0.012477603 -0.013001576 -0.010341903 -0.0033787396 -0.0079200305 -0.004811935 -0.0042890515 0.008324929 -0.014927842 0.013372391 0.007425487 0.0063288957 -0.0029993095 -0.0053212848 -0.01209281 0.0005062893 -0.0141724385 -0.010806471 0.0084486045 -0.0040329993 -0.0001535532 -0.0035838168 0.0057089925 -0.0023220293 -0.00016622059 -0.009309223 -0.014122712 -0.010184221 -0.0042497134 0.00028942898 -0.007670421 -0.009621996 0.0012011454 0.001929814 -0.0036679842 -0.00021930784 0.00254279 -0.003737606 0.001972817 -0.01191612 -0.012829542 0.0007352908 -0.0004331395 0.003483951 -0.019710116 0.0141619295 0.0010758769 -0.0038291067 0.002761539 -0.003270425 0.010435998 0.0058265217 0.0038413256 -0.0026082136 -0.0085172355 -0.0034560561 -0.0115798935 -0.0048704892 -0.0057917647 -0.010069385 -0.0017630775 -0.014828203 0.0051717497 -0.006848678 -0.006560743 -0.012552217 -0.007758947 -0.0054389453 -0.0017845035 -0.017099075 -0.013915867 -0.0026615355 -0.0061960444 -0.0067391917 -0.002594404 -0.00043626316 -0.002576694 -0.0012017265 -0.002044466 0.0018732767 -0.005534377 -0.006707404 -0.0073247626 -0.01905209 0.0027992167 0.011216426 -0.007599905 -0.0023790076 -0.0045921355 -0.0016549807 0.0034216866 -0.0030414602 -0.016176514 0.00080338493 -0.0060296357 -0.00433328 -0.002832003 0.008224422 -0.011083201 -0.01718016 0.017505646 -0.014047097 -0.005844131 -0.006475076 -0.004015766 -0.011284009 -0.005894728 -0.009664364 -0.00066085253 0.00084878504 0.0024541914 0.005356304 -3.564637e-05 0.01469614 -0.006616218 -0.009217724 0.010425124 0.0025555664 0.0017857607 -0.0055850344 -0.0017476305 -0.007985793 -0.007284306 -0.0043814704
amine 0.0012916401 -0.029836364 -0.00900313 0.018967114 0.008606315 -0.015890945 -0.011720739 -0.029902216 -0.0027886666 -0.010522589 -0.013623748 0.017757975 0.001313895 -0.033467337 -0.023427635 -0.06951475 -0.016422953 0.0273014 -0.030094137 -0.0267451 -0.015051857 -0.02840392 0.02778177 0.039523058 -0.01890233 -0.0030452115 0.00583186 -0.022494655 -0.017762087 0.008840129 -0.018365161 0.043416843 0.033521518 -0.007420853 0.002612006 -0.028534409 0.0061164238 0.005131215 -0.0016026637 0.019263633 0.006980203 -0.033232003 -0.038024977 0.01565115 0.0020387052 -0.023748333 0.03431987 0.009707755 -0.005493179 -0.033819012 0.0005620029 0.01701644 0.004044423 -0.017592229 0.014037415 0.03435336 -0.0018639117 -0.012775505 -0.03372684 0.0031006895 -0.024482077 0.04711786 0.0112562105 -0.017239675 -0.03578347 -0.09262407 -0.013096038 -0.082741596 0.022938741 -0.009541415 0.03399469 -0.037773572 -0.03375212 0.0057276133 -0.009434119 0.016350426 -0.0006158885 -0.012760211 -0.01757463 -0.0042094253 -0.030284971 0.0093426 -0.0021501323 0.037974134 -0.056313388 0.048596762 0.014224432 0.00081428513 0.011805456 -0.017690439 -0.039875872 -0.0042993426 -0.061089147 -0.034600474 0.014012456 0.0005671419 0.0038494766 -0.00649035 -0.011705488 0.012099311 -0.008123524 0.0014295466 -0.013053298 -0.07419058 0.0027719438 -0.005864423 -0.0021407232 -0.03703537 0.0046844855 0.0039657666 0.0143784955 0.03492865 0.014545673 -0.013370484 0.006912264 -0.038183764 -0.0064143613 0.01864446 0.016051948 -0.00049736723 -0.0500025 0.03562549 0.019625505 0.044708773 0.0068600997 -0.0015525818 0.017096037 0.05339523 0.028558768 0.033061236 0.020634767 0.05315019 -0.023338461 -0.0118272025 -0.017539594 0.014714725 0.008701904 -0.05186467 -0.0027140826 -0.014372256 -0.016796421 -0.036811475 -0.027643897 -0.024414293 -0.005325049 -0.05198273 -0.024531595 0.031206138 -0.0006472729 -0.021790944 -0.0053147385 -0.0058488026 0.023385964 -0.0047526136 -0.019926026 0.033607155 -0.005327313 -0.021859147 -0.039198667 -0.027849883 -0.013100609 0.029101767 -0.045582682 0.030234113 -0.00087704137 -0.00084784627 -0.004263073 -0.0042841434 -0.03234081 0.020010293 0.02618447 0.0032964237 -0.000595056 0.026979093 -0.015978694 -0.028233252 0.005554855 -0.015396793 0.025695786 -0.010466818 0.008404307 -0.044241674 0.031133773 -0.007949598 0.008321017 0.01932622 -0.0057795197 0.02113279 -0.007132806 0.048374705 -0.015142113 -0.02575104 0.048226714 0.01603482 0.0072388686 0.012813155 0.0117250085 -0.014544006 0.014575429 0.005527243
ampère 0.013526652 0.011889607 0.0020925328 0.010535276 -0.0139092505 -0.004801713 -0.010178757 0.0074252635 -0.013900623 0.0081066545 0.007952601 0.0026817992 0.0011200309 -0.017076068 -0.002351448 -0.0032469276 0.0022922535 -0.008556586 -0.0028364602 0.0013715327 0.00021729991 0.0031156242 -0.0008604899 -0.0038731322 -0.000307673 0.0024095252 -0.010147985 0.0013291351 0.015231118 -0.008804157 0.0029961877 0.0005214587 -0.0027974974 -0.005229355 -0.008103538 -0.009331733 0.023131646 -0.0035291687 0.004210474 -0.017246762 -0.0049721953 0.013761982 6.352365e-05 0.014170526 0.0038269758 0.007305093 0.0013276543 0.004832983 0.01588422 0.0003183484 0.0015466958 -0.0020799292 0.0104853 0.0004235059 -0.0070475237 -0.010841563 0.00011764467 0.008689158 0.0007253811 -0.0065074787 -0.017900271 -0.0067515047 0.006847143 -0.004137449 -0.015328318 -0.008953944 0.0032122154 0.0118548535 0.0013670679 0.00947723 -0.0014018312 -0.0070008934 -0.0022427663 0.0015750378 0.0019070506 -0.0025254004 0.020006005 0.0038512833 0.0006962437 -0.010774642 -0.006720111 0.00787355 -0.0068923384 -0.00056286156 -0.010561779 -0.0006012991 0.00046814978 -0.018991457 -0.0019685607 -0.0032517388 0.000546027 -0.0064727217 -0.0025526546 -0.00053492934 -0.0060082767 -0.00021739095 -0.0033689514 0.0054403115 0.0007356927 -0.007810898 -0.0103884265 0.009849371 0.021356167 -0.003631711 0.004139267 -0.012959909 0.0046314765 0.0025506895 -0.010853972 0.0036205593 0.0031802654 -0.007874612 0.0014202667 -0.0024007447 -0.0133816 0.002391234 0.0012770185 -0.0025349706 -0.009757329 -0.020754836 0.010785993 -0.009228632 -0.021656066 0.011645824 -0.004182264 0.001981832 -0.012188893 -0.009988762 0.0032985285 0.00705861 0.0015015379 0.013125539 0.006470613 0.0063478462 -0.0020371713 0.015937373 0.009066349 0.008553885 -0.010024063 0.004718706 -0.004605636 0.002065204 -0.008656749 -0.00042512873 -0.013240568 0.011567667 0.010536268 0.004896136 -0.0074128956 0.0079927705 -0.0026543848 0.0019128695 0.014768075 0.00070185214 0.0010907296 0.0042808503 0.006697841 0.007583294 -0.009668842 0.013279537 -0.0054491237 -0.010992143 -0.0038236417 -0.0023241602 -0.005406566 0.0054150894 -0.008619711 -0.009725854 0.0050464086 -0.0020846277 0.009776503 -0.005399905 -0.016447246 -0.0012328774 0.008016661 0.0010017822 -0.026365433 0.0038958285 0.0055501387 0.0017860681 -1.9907951e-05 -0.0021138191 0.021027762 -0.00020710006 -0.0032823943 0.00089580566 -0.00917796 -0.011027383 -0.0020066947 -0.00091536855 -0.011120666 0.011854143 -0.0074517876 0.008171161 -0.0062695667 0.0010651425 0.00359785 0.0059876926 0.004820453 0.0041939113
anas 0.0036401786 0.030187333 0.012237173 -0.016378965 -0.009302251 0.023083411 0.011552684 0.024986409 -0.0046560206 0.018851288 0.019877542 -0.01135236 0.0014740154 0.023607742 0.016262576 0.061294053 0.0120975375 -0.022665884 0.025385898 0.026398547 0.016034096 0.019982915 -0.025396757 -0.041606605 0.013271004 0.0064835325 -0.009692244 0.022734404 0.025761649 -0.0067903046 0.012562487 -0.03353608 -0.020441286 0.008470207 -0.0045368522 0.02407578 0.0033898242 -0.002997458 0.0043701604 -0.020177066 -0.007623017 0.031523496 0.03374522 -0.0027902685 0.003228188 0.025206417 -0.011536118 -0.0020559132 0.00756686 0.023787515 0.003806971 -0.0067815855 -0.003865986 0.010344468 -0.011846401 -0.036250252 0.0016681217 0.014178258 0.039195538 -0.004114341 0.018727854 -0.035966314 -0.0036670314 0.01520054 0.019945621 0.07330456 0.009923726 0.070182584 -0.01946868 0.011245683 -0.03252341 0.032010198 0.023179319 0.0019702464 0.004635576 -0.01132388 0.002584761 0.019296478 0.009824514 0.0096672475 0.024341583 -0.003470149 0.0012504794 -0.026900887 0.040398084 -0.030030925 -0.017209895 -0.009625018 -0.015761843 0.02251001 0.032064956 0.008816794 0.049174078 0.026721999 -0.022610528 0.0063665435 -0.0037482232 0.008378446 0.01365073 -0.011122938 0.012347758 0.01649627 0.01837784 0.062110607 0.0011068457 0.0012462661 0.00057797134 0.030716548 -0.017440028 -0.0065625906 -0.010107059 -0.026400864 -0.012577781 0.0065621883 -0.01355648 0.029308528 0.006506454 -0.015289858 -0.014151327 -0.0036805868 0.040549725 -0.039747745 -0.021020658 -0.032655187 -0.00097032636 -0.0046734028 -0.013799086 -0.04894646 -0.016938973 -0.02652692 -0.009752452 -0.032309413 0.024987794 0.01690207 0.012323607 -0.004567519 -0.007415604 0.045521475 0.0005680397 0.016784526 0.014936708 0.03506221 0.022869848 0.020186953 0.0068239644 0.04620244 0.027848087 -0.021848407 0.005039219 0.017335996 0.010152832 0.0071219727 -0.011540186 0.0066634826 0.018085167 -0.022113815 0.013704479 0.0180367 0.027672857 0.028181361 0.011603322 -0.029369358 0.037674572 -0.018867757 0.009713478 -0.003273387 0.005066745 0.0025130212 0.031438768 -0.010902949 -0.01649043 -0.00069995224 0.0026871804 -0.016897723 0.020739144 0.026040308 -0.02135498 0.015575726 -0.008779526 0.011570588 0.0006579594 0.034887504 -0.0043583307 0.005586602 -0.0058302768 -0.005794689 0.0026793648 -0.011944987 0.012352772 -0.039111134 0.008615376 0.024705444 -0.04549502 -0.007989695 -0.009692371 -0.0072561577 -0.006002344 0.008734427 -0.010241322 -0.0032645464
anis -0.015659884 -0.008158763 0.0006404668 -0.0075911283 0.0120253125 0.008699253 0.00046487898 0.003818266 0.0036542863 -0.00054787844 0.0074039847 -0.01022847 -0.009054359 0.0061479174 0.0045558503 0.0044255173 0.007814445 0.0024223048 0.004258018 -0.0041547082 0.005445525 0.008595727 0.001822196 0.0013610087 -0.0015733447 -0.004927961 0.006450113 0.015123896 0.011767231 -0.0046159914 -0.0056471378 -0.009302002 -0.0013464615 0.002220802 0.0022596978 0.0050507784 -0.0003279429 -0.009697025 -0.008436032 1.2722798e-05 -0.010759354 -0.010306746 -0.007729452 -0.000777483 0.00017909845 0.0024364963 0.0139222 -0.013324156 -0.009744115 0.008199519 -0.008996859 -0.004698463 0.0019849539 0.0074062296 -0.008959897 0.00027178787 -0.010629207 -0.0037974045 0.0029126853 -0.006719038 0.0055167815 -0.0040719565 -0.010230241 0.0065056793 -0.009176224 0.012180172 -0.0022822544 0.0057107955 0.0020055026 -0.0056896918 -0.0019126385 -0.0027987082 -7.6202676e-05 -0.006428886 -0.0052952524 0.0072395913 -0.0022789128 -0.00035816059 -0.003962688 0.010077 0.0011373749 -0.002244234 -0.0017293133 -0.008487631 0.011225048 0.0067574307 0.0062666256 0.004889708 -0.0060844906 0.0032654405 -0.0034766123 0.010450143 -0.0030427799 -0.002730593 0.0018247962 -1.2271106e-05 0.0037680026 0.0033780932 0.005073048 -0.010115206 0.0068061426 0.008689247 0.003652338 0.01561176 0.009930305 0.0028538331 0.008481279 0.0012896918 0.0030619958 -0.00053904764 -0.0024670698 -0.00071668625 0.001988437 0.005370293 -0.0019241441 0.0010676133 -0.007364711 -0.0058905855 0.00024727732 -0.0031985566 -0.0065931887 -0.0049001444 -0.010265693 -0.008413948 -0.0054467395 -0.014191881 0.0045046024 -0.0052929 -0.0011799037 0.0022113733 -0.016224962 -0.014212385 0.0017665324 0.0031398833 -0.007692162 -0.006927654 -0.0055142157 3.2693148e-05 -0.0015487503 0.009367168 0.00025477447 0.005416818 0.0009758398 0.0029546134 -0.002581397 0.00050616637 0.0005091764 -0.0015911814 -0.0013589337 -0.00549699 0.00694173 -0.0023527378 -0.007057674 0.0010454729 0.0032850243 0.002800718 0.0016611423 0.0040789545 -0.005681835 0.005928103 -0.004561458 0.0025057904 0.0052128136 -0.0032800883 -0.0044960678 -0.0061602704 0.0028641447 -0.0029737055 -0.008248322 0.006815061 -0.00674206 -0.005688682 0.00035970658 0.0070057027 -0.0029736683 -0.005226372 0.0007975921 -0.0036151446 -0.019826427 0.00449886 0.0007495135 0.00021448359 0.009378128 -0.008927111 0.0064723194 0.0018238574 0.0153455045 0.0055719838 0.0065818205 0.002322344 -0.0025404356 0.006170705 -0.01325563 0.006511122 -0.0025855736 -0.0059395134 -0.00867568 -0.01530084 -0.015366718 0.0035997834
année -0.0023121834 0.020701248 0.0014311419 0.0010719635 0.0026385821 0.006131977 0.010996036 0.0035314895 -0.010900959 0.009943325 0.0058492394 -0.009320334 -0.016354479 -0.0050066547 0.0004667882 0.01675307 0.008795783 -0.005662486 0.0071572885 0.001579918 -0.0037331544 0.0051504597 -0.0049359906 0.0028692856 -0.0048244186 -0.0054019615 -0.007015422 0.014108568 0.013576984 0.00071536377 0.0049334317 -0.013647586 0.0003406722 -0.0016289279 -0.0014446303 -0.011158444 -0.0021219384 -0.012931142 -0.0059450865 -0.011866193 0.0047181705 -0.005055122 -0.0006865412 0.002158828 0.0035214834 0.003423266 0.004583895 0.012125999 0.005069807 0.0022604465 0.006562587 -0.010792188 0.018757038 -0.008183499 0.010482453 -0.02130755 0.013189599 2.3193657e-05 0.0074379183 -0.002306845 -0.01017982 -0.010365581 -0.0035309345 -0.0066824406 -0.011322096 0.0026670843 -0.0008324608 0.0129335 -0.0029112436 -6.0402323e-05 0.0028039888 0.011483237 -0.0014903992 -0.002953723 0.0021447018 -0.0051114336 0.011201598 0.0021788157 0.0059795566 0.0058679413 0.0018781014 0.0036305264 -0.0048102215 -0.0027010925 -0.014893839 -0.0032092333 -0.002631165 -0.0066359695 -0.0062143635 0.0061920956 0.0025271773 0.0026058182 0.007932477 0.0037977323 -0.004483117 -0.0026315898 0.0038149403 0.008793546 0.0056897476 -0.016538419 0.004894859 0.009192655 -0.0055586733 0.018484082 0.0006263107 -0.011234656 0.014384616 0.010463152 -0.02245973 -7.867068e-05 -0.00075993687 0.0033812858 -0.0014848816 -0.0022902787 -0.008929126 0.015314199 -0.0059431195 0.0017589629 -0.008492112 -0.010292042 0.012455318 -0.020126961 -0.014638081 -0.014585897 -0.006139624 0.009791892 0.0007552132 -0.011804648 -0.01178658 -0.008743633 0.002744563 0.005594626 0.0037666708 0.0020933733 -0.008492239 0.0038178246 0.01452557 0.014408559 -0.009783156 0.0048146173 -0.0040232465 0.001566086 0.01210242 0.006845776 -0.0042710267 0.008454081 0.013986779 0.0039917156 -0.0012295535 -0.005140405 0.009335889 -0.0052490244 -0.0144312605 0.010442469 0.0023556426 -0.0019352576 -0.0050402284 0.005415179 -0.012127973 -0.0018379316 -0.011719197 -0.0034576096 0.010457795 -0.007750366 0.016879417 0.0067698173 0.0032657422 -0.005666773 0.017017268 -0.0029737428 0.0014145952 -0.0026293118 0.00034634024 -0.00080733 0.0053398684 0.011990458 -0.02414386 0.015712723 -0.00643754 0.008770339 -0.009300724 -0.0033041849 -0.0052277446 -0.0006110668 0.0020812098 0.0030014738 -0.011539169 0.0048354343 -0.0034432858 -0.032162324 -0.011029877 0.007071778 0.0018848777 0.017744644 -0.005809821 0.01390278 -0.025350468 -0.0023788614 0.0037541874 0.002682045
arche 0.008943014 -0.01681444 0.008055966 -0.006855406 0.016637316 0.033015396 -0.046739705 -0.03993181 0.010897156 -0.0003806064 0.037298635 0.08963838 0.048917443 0.040783368 0.03376554 -0.03743974 0.002712272 -0.03927254 -0.02875179 0.058257036 -0.033328235 0.026408702 0.012793494 -0.039918143 0.026637863 0.02539309 0.0008041095 0.0070621707 -0.060829327 0.056305118 0.019384213 -0.0028963909 0.070754714 -0.0013242215 -0.08362836 0.054183915 0.028421884 0.008398496 -0.020144273 0.013353836 -0.029461786 0.030670911 -0.043069616 0.022252042 -0.032822177 0.007487558 0.037760038 -0.014453784 0.04776802 0.00085707754 0.03754248 0.021163074 0.005969152 -0.03868089 0.008541055 0.0077767074 0.0011140965 -0.041243263 -0.047951814 -0.036514334 0.0053510033 0.02081044 0.020798925 0.07449582 -0.040379386 -0.050351158 -0.07095783 -0.018249404 -0.016223665 -0.00077052414 -0.04638554 -0.027128436 -0.029453477 -0.019758968 0.010400489 -0.02331581 -0.0027735606 0.04324296 0.0038573183 0.058186606 -0.041501414 -0.020694392 -0.014293842 0.007331021 -0.016616384 -0.02364711 -0.024068065 -0.0019189268 -0.0022669155 -0.027420904 -0.06488233 0.012741476 0.03220377 0.007506553 0.009840187 -0.041612726 -0.028665002 0.022563577 -0.000496801 -0.026640857 -0.052804515 0.022576567 0.010298937 0.040888738 0.008231737 -0.0039328495 0.0010485202 -0.050768435 -0.03377343 0.025987767 -0.01081855 -0.030032128 0.017616125 0.0072188303 -0.02115865 0.00048091263 0.026379872 0.0051320903 -0.010872729 -0.041360557 0.0070560826 -0.030120801 -0.0071939817 -0.009114873 0.013155465 0.06522532 0.017243013 0.046145767 -0.014675625 0.032312233 0.03007941 -0.024142072 -0.001054598 -0.0072548166 0.018678423 0.060032576 0.052982673 -0.045552194 -0.044981018 -0.01899837 0.049191654 0.04866214 -0.05052429 -0.019206278 0.041009203 -0.016584761 0.016896077 0.03854247 -0.01847985 0.04858404 -0.0750392 -0.0035873242 0.03167131 0.010076515 -0.050099596 -0.08311829 -0.038140945 -0.022550121 -0.008912738 0.008635931 0.030893274 0.010254927 0.022462122 -0.03355042 0.019464172 -0.0008672327 -0.007320896 -0.02547558 0.0019096062 -0.072204635 -0.020376503 -0.026955627 0.015091158 0.017931003 -0.032268725 0.0601896 -0.04043534 -0.043297842 0.01824738 0.016768305 0.029082753 -0.036667164 -0.010973075 0.022499332 0.007394798 -0.017721944 -0.044990316 -0.012243403 -0.047988508 -0.008599214 0.030763002 0.021171272 -0.04094809 -0.0393933 -0.034930162 -0.00695616 0.0490959 0.005505465 -0.033805564 -0.0039236397
archipel -0.0065243654 -0.014848851 -0.00605027 0.0029884055 0.0010979548 -0.01907612 0.00049721636 -0.010421537 0.009114949 -0.0075691957 -0.012525158 -0.0030272827 0.0011778157 -0.0019203718 0.001808621 -0.018591732 -0.0032408684 0.0066402107 0.0017975834 -0.010498051 -0.0064999387 -0.0069329124 0.00031449646 0.012901768 0.0011116317 -0.0043788627 0.0071343817 -0.006480783 -0.014642306 -0.0011760592 -0.009196989 0.0072231144 0.003531132 0.0061140656 -0.0066895382 -0.011099603 -0.005654836 0.008042838 0.0022587925 0.006392343 0.008843245 -0.012455717 -0.0064816773 -0.007043671 -0.0015099794 -0.006729085 -0.012033224 -0.011743993 -0.0016829651 -0.0064567756 -0.008691475 0.002580442 -0.0052997125 -0.003180109 0.0033376738 0.015931105 0.00048512965 0.0016671494 -0.008554243 -1.1846423e-06 -0.0067672282 0.007036552 -0.00033088773 -0.009254187 0.010249086 -0.014986709 -0.0017408058 -0.030406242 -0.0045017004 -0.008340981 0.015363753 -0.0006952062 0.00634484 -0.0052250996 -0.0065292343 0.0046676886 -0.009898972 -0.009704672 -0.002973901 -0.013845153 -0.007966243 -0.0008928962 0.0017712116 0.005132742 0.0023562685 -0.0028280076 0.002633974 0.0073030833 0.0088953 -0.007309782 -0.0049341787 -0.0023619474 -0.012832504 -0.014368758 0.0137899 0.00357546 0.00050470233 -0.01527952 -0.008690331 0.010484515 7.92779e-05 -0.015952744 -0.0050051473 -0.015055627 -0.000769116 0.007898599 -0.0013748221 -0.008114055 0.01034762 -0.0008148402 0.009652551 0.0003504455 0.007655438 0.0030841958 0.0034558773 -0.0055996478 0.003129989 0.0055928864 0.00080518425 0.0048711486 -0.0068159625 0.012000013 0.0090803355 0.012909092 0.0024170652 0.007185258 -0.006709203 0.015596822 0.005993232 0.007669933 0.0012274608 0.00019286573 -0.007468894 -0.008593686 -0.004930228 -0.01287806 0.0016337149 -0.017466143 0.009567872 -0.009230204 0.0015165806 -0.014826145 -0.0060987696 -0.008645501 -0.0005855374 -0.008824147 -0.009608133 0.0032625198 0.0003412217 -0.0044802288 0.0035796831 -0.002085995 -0.006778665 -0.004240388 -0.0011659637 0.0013990775 -0.0037821233 -0.013230339 -0.00034841895 -0.013829468 -0.0020090938 0.0074862093 -0.010032788 0.0051761493 -0.01318372 0.005112514 -0.0031437725 0.0051870197 -0.0032411963 -0.0011303499 -0.00047263503 0.006353669 0.0015292 0.0064821485 -0.007390499 -0.008187201 0.025919136 -0.0010426044 -0.005383879 -0.008953784 -0.002327945 -0.0041644424 -0.01038821 -0.002159005 -0.0009846538 -0.0065608853 -0.0038610566 -0.0026248768 -0.011329597 0.011857495 -0.0036371127 -0.018372908 0.019474037 -0.011479333 0.00742396 -0.0053479355 -0.0012653619 -0.0011225976 -0.0022366345 -0.0035431213
argent 0.0138250645 0.0100245355 -0.003979206 0.008519577 0.0014071092 -0.004317131 -0.0070904493 0.0012984052 -0.0010928437 -0.0023007765 0.0106853135 -8.649379e-05 0.004436551 0.009113841 0.0054692663 -0.0011826456 0.013534296 -0.0044631176 0.003177612 0.010446429 -0.014744706 -0.0026883855 -0.0029174201 -0.0060388036 -0.012493275 0.0040648114 0.0051995274 0.0039869994 0.0015567541 0.006288521 0.009845739 0.006240365 0.0010671504 0.0036188066 0.011951329 0.008612998 -0.005010835 -0.011079093 0.0008054152 0.0072846785 0.0025226623 0.0052682906 0.004523769 0.014596447 0.00031840056 -0.0023041777 -8.494593e-05 0.036405236 0.0005738884 -0.0045867413 0.011783473 0.002035141 -0.000791898 -0.008888088 0.016451627 -0.014837641 0.012326688 -0.0039003417 -0.0031550676 -0.009826658 0.00012364401 0.008827046 0.0043894053 -0.0041509196 0.0041455775 0.0015902519 -0.005120009 0.01832962 0.011354949 0.0014590449 0.0012709089 0.0013143569 -0.010689154 0.0033287276 0.006068982 0.010406842 0.007479215 -0.0001837397 0.0027965754 -0.0009782463 0.00749192 0.0009886175 0.0040990114 0.0071125757 -0.015312597 0.0099828355 0.0062441602 0.0039199404 -0.0040642098 -1.668185e-05 -0.0023186058 -0.006478161 0.00063264556 0.02343084 -0.008999743 -0.00021527708 -0.0019435659 0.0033703446 0.0134461075 0.0035961233 0.0034582391 0.0010630414 -0.00080103055 -0.0027169585 -0.011689758 0.005175069 0.00034376234 0.005371943 -0.0002087634 0.0034677535 -0.0013365522 0.007539302 0.0057794824 -0.0010323077 0.0075034127 -0.0018946603 0.0063238638 0.002827157 0.013120202 0.0003409721 0.0052836016 -0.01401362 -0.0052377433 0.007384166 0.0017573088 0.0066910572 0.015754543 0.0042928904 0.0056667216 0.005685024 -0.0026154816 0.028004691 -0.0061962903 0.008700481 0.003649354 0.028500654 0.00095535815 0.004404081 0.004321128 0.005125057 0.0016574413 0.0040985495 -0.0011154711 -0.000771543 0.0013895929 -0.0019196868 -0.00089813024 -0.0011788383 0.0103171095 0.01031654 -0.010680251 -0.003697101 0.016249653 -0.005736636 0.007259339 0.008136362 -0.0056826808 0.004868176 -0.0060348045 0.0021860395 -0.0014068037 -0.0031318227 0.012933917 0.005378202 0.021001115 0.0027113864 -0.0042799413 -0.0034906603 0.010340559 0.005203411 0.02281472 0.0012996439 -0.011409782 -0.003986329 0.0067705587 -0.006069904 -0.027341455 0.0006092582 0.024025567 0.013987754 0.00466083 -0.003145285 0.0032928213 0.0036436822 -0.0005157124 0.0013921224 -0.0004473552 0.011916553 0.0050568767 -0.0068320334 -0.0050718263 0.009278266 0.025145438 0.012873406 -0.007367786 0.001778841 0.007663645 0.0090830475 0.0076615214 0.0023465129
