635 200
1 0.012602806 0.020706177 0.028367996 0.058303833 -0.055454254 -0.021133423 0.08420539 0.022269249 0.048856735 -0.013410568 -0.04656601 0.13352323 0.056333542 0.02533722 0.061430454 -0.03658676 -0.023851395 0.04858017 -0.039340973 -0.049045563 -0.049064636 -0.028964996 0.0023956299 0.04850769 -0.04600334 0.09043026 0.02769208 -0.08445358 0.054855347 0.066726685 0.051887512 0.10812378 -0.013298035 0.1464405 0.042847276 -0.04442215 0.024552345 0.029270172 0.055807114 -0.08407688 0.054636955 -0.020385742 -0.009979248 0.04005432 0.10190582 -0.0032262802 0.028067589 0.06279373 0.03755188 0.029949188 -0.00064849854 -0.017990112 0.16079807 0.13907146 0.111141205 0.04677391 0.06405544 0.0713377 -0.08429718 0.014398575 -0.020780563 0.009449005 0.055864334 -0.002752304 0.21666145 -0.14637947 0.092725754 0.00631094 0.09252453 -0.02728653 0.08958495 -0.09624481 0.070812225 0.07594299 -0.046375275 -0.02586174 -0.0076646805 -0.09175205 0.09725571 0.071762085 0.040291786 -0.010900497 0.015789509 -0.08098221 0.030685425 0.16204834 0.15614033 0.08188248 0.063568115 0.03862381 0.083340645 -0.060321808 -0.08397865 0.054250717 0.13515854 0.032497406 0.062693596 0.12866575 0.03112793 0.03578949 -0.029021263 -0.0127334595 0.117345095 -0.101486206 -0.075445175 0.103312634 -0.059513092 -0.035985947 0.018562317 0.021232605 0.06081009 0.044981003 0.07735634 0.16042566 0.12152481 0.06456947 0.029151917 0.1496613 0.020792007 -0.024502754 0.07038689 0.09223175 0.12290764 0.041053772 -0.08804321 0.03707695 -0.0064401627 0.13284492 0.0532856 0.03427124 0.033725977 0.03613901 0.0066833496 0.031461716 0.078826904 -0.08079147 0.10499954 0.05222702 0.13305664 -0.0019378662 -0.0645237 -0.077531815 0.068161964 0.12197411 -0.10612488 -0.013080597 -0.008235931 0.03233528 -0.060649157 -0.018138885 -0.013755798 0.026872635 0.04390526 0.06214142 -0.0074920654 0.065322876 -0.010318756 0.012943268 0.046894073 -0.0048294067 0.03525102 0.07911682 -0.016220093 0.061348915 0.0023880005 0.05658245 -0.044389725 -0.014661789 -0.019252777 0.028316498 0.009806156 0.0072460175 -0.037698746 0.035354614 -0.076236725 -0.067230225 0.14604759 0.0080266 0.021446228 -0.0808754 -0.0080451965 -0.009734154 -0.010360718 -0.11357498 0.17130089 -0.06339264 0.064517975 -0.03772974 0.03931427 -0.0024709702 -0.028008819 -0.0033397675 -0.03071022 -0.011457443 0.05752945 0.019761086 -0.04160309 0.103785515 0.055566788 -0.07301712
5 0.019747734 -0.012023926 -0.08695412 -0.07242584 -0.041885376 -0.034332275 -0.05795479 -0.0241642 -0.07477379 -0.0464859 -0.022846222 -0.031579256 -0.075746536 0.0262146 -0.02497387 0.009397507 -0.01849556 -0.07928848 0.01499176 -0.004611969 -0.033050537 0.11168289 -0.045066833 0.012184143 -0.02541256 0.034020424 -0.1030612 0.045181274 -0.15563202 -0.12813568 -0.07751846 0.06575775 -0.056310654 0.055217743 -0.0008071661 -0.0069770813 -0.11105347 0.03188324 0.008316517 0.083179 -0.039387703 0.06664276 -0.004486084 -0.08419037 -0.10344696 -0.071063995 -0.061088562 0.0024337769 -0.12364769 0.10700989 -0.06375885 0.031972885 -0.041137457 0.029425621 0.0058898926 0.089076996 -0.03648281 -0.08597088 -0.052490234 -0.037870407 0.04657173 0.08549118 0.07795906 -0.07418728 -0.22519302 -0.07538605 -0.16173553 0.07256508 -0.096673846 -0.065561295 -0.07336652 -0.08646393 -0.09529495 -0.07989502 -0.02602768 -0.01366806 -0.12399387 0.035805702 -0.07942963 0.01676178 -0.080711365 -0.0814991 -0.04172516 -0.01576233 0.089006424 -0.0181427 -0.051651955 -0.048065186 0.07697296 0.078437805 -0.06280708 -0.078430176 0.0005970001 -0.07206297 -0.032642365 0.015169144 -0.122674465 -0.039999247 -0.03370285 0.032136917 -0.01043129 -0.08217621 0.07536358 -0.07144928 -0.021165848 -0.023017883 0.039627075 -0.0009088516 0.1013031 -0.009590149 0.020458221 0.028058052 -0.017147064 -0.038425446 -0.024253845 -0.1694088 0.032705307 -0.13645506 -0.034090042 -0.09592533 0.05471611 0.0754509 0.13796425 -0.032440186 -0.013473511 0.040473938 0.086527824 0.06160927 -0.18208694 -0.069667816 -0.04658711 -0.030121803 -0.069265366 -0.06822014 0.04140091 -0.09506798 -0.12111282 0.0040245056 -0.051376343 -0.07023239 0.037578583 0.06243515 -0.066802025 -0.0044219494 -0.10478592 -0.041038513 -0.09844971 -0.057920456 -0.057121277 0.036857605 -0.089653015 -0.050834656 -0.05948639 -0.20669174 0.05171871 -0.17277145 -0.031009674 0.029593468 0.039897442 -0.070129395 -0.004276991 0.07164574 0.07077408 -0.09685421 -0.036857605 -0.084536076 -0.0048999786 -0.017625809 0.08015823 -0.028889656 -0.046568394 -0.059368134 -0.0055828094 -0.005630493 -0.14954376 -0.137743 -0.13799763 -0.041946888 0.024318695 -0.016834259 -0.06318283 0.0663929 -0.007209778 0.06305313 -0.11373711 -0.047279358 0.029838562 0.05036664 -0.044052124 0.0804162 0.09184456 0.047060013 -0.05909729 -0.06258583 -0.030236244 -0.033846855 0.024007797 -0.043434143 0.067956924 0.088191986
abbé -0.010245323 -0.0844574 -0.021802902 -0.05758667 0.034122467 0.103946686 0.14213419 -0.016178131 -0.11388874 -0.0018024445 0.0116996765 0.0061364174 -0.038879395 -0.064834595 -0.12328386 -0.047590256 -0.09808159 -0.06594086 -0.08062172 -0.056770325 0.035232544 -0.03472519 0.05171585 -0.104644775 -0.05223751 -0.0012025833 -0.09744549 -0.095645905 -0.1387558 -0.021736145 0.032798767 -0.117118835 -0.013771057 -0.074165344 0.010391474 -0.086299896 -0.034108162 0.054935455 -0.093295574 -0.12748456 -0.068115234 0.06575012 -0.023792267 -0.016212463 0.0045166016 0.0041542053 0.011500359 -0.016368866 0.0014877319 -0.08075714 -0.0069274902 -0.14182472 -0.06269598 -0.10291481 -0.050712585 0.09213638 -0.06277847 -0.046845436 0.070487976 -0.100429535 -0.09770203 0.08383942 -0.016672134 -0.023112297 -0.032517433 -0.12703896 -0.1361351 0.0004272461 0.028075337 0.06679726 -0.08022061 -0.06982422 -0.12093735 0.013244629 0.00655365 -0.10645771 0.016681671 -0.034155846 0.033016205 -0.060401917 -0.06560898 -0.0152282715 -0.05886793 -0.017965317 -0.15386581 -0.007789612 -0.14412975 -0.06173706 -0.054180145 -0.13444519 -0.0769186 -0.06325531 0.03097725 0.118490696 -0.10125351 -0.078733444 -0.064566135 -0.09374374 -0.025299072 -0.058605194 -0.0015249252 0.05014801 0.03932184 -0.16793823 -0.013893127 -0.09886618 -0.014595032 -0.1137228 -0.13613129 0.09026146 0.040851593 -0.05820465 -0.039165497 -0.024433613 -0.06951904 -0.033540726 -0.08440018 -0.022920847 -0.0172863 0.06443596 0.04418373 -0.10952377 -0.0819397 0.06940842 0.09745026 0.10879326 0.057764053 0.026489258 0.016727448 -0.08137512 0.051089525 0.041297913 -0.02863121 -0.0051574707 0.019893646 -0.00097084045 0.06306839 -0.07173538 0.041534424 -0.05373001 -0.09642601 0.025611877 0.09190464 -0.07598734 0.060890198 -0.055015564 -0.03540802 0.03400421 -0.07648969 -0.049316406 0.01576233 -0.042384148 0.032510757 -0.07698059 -0.016502857 0.008586884 -0.08535385 -0.021430016 0.022818089 -0.02073288 -0.020451784 -0.18771935 0.021362305 -0.10404873 -0.03265381 0.029587746 -0.10113144 -0.14957047 -0.07530594 -0.01147747 0.023736477 -0.068035126 -0.06084919 0.049106598 0.0008430481 0.11241341 -0.06068039 -0.10572338 0.010211945 -0.08255386 0.02381897 0.013631821 0.012639999 0.01756668 -0.035668373 0.00035476685 -0.24202728 -0.046616793 0.021467209 0.09203005 0.029358387 0.047447205 -0.04389572 -0.010759354 -0.08347273 0.005748749 0.02750969 0.04245758 -0.1098938 -0.058532715
abc 0.11790562 -0.068092346 -0.0009498596 0.047641754 0.13568115 0.014041901 0.13764715 -0.0042009354 -0.094872475 -0.047189713 -0.051876068 0.039928675 0.011808395 -0.031661987 0.11021757 -0.023958206 0.058425903 0.038352966 -0.028902054 -0.1351471 -0.082042694 -0.09062195 -0.042757034 -0.0026054382 -0.15142822 -0.017288208 -0.11189222 -0.10921478 -0.013671875 -0.028457642 0.01826477 -0.043704987 -0.16805267 0.09280205 -0.050700545 0.03517151 -0.006122589 -0.008300781 0.028692722 -0.010625839 -0.045809746 -0.117111206 0.016578674 0.03492737 0.16299438 0.047855377 0.018068314 -0.010486603 -0.00015830994 -0.075920105 -0.09220886 -0.14867973 0.00634861 0.032227516 0.17228699 0.0073986053 -0.08990097 0.065787315 -0.00894928 -0.035657883 -0.07097435 0.054512024 0.094465256 -0.07138729 0.1349163 -0.07183075 0.014486313 0.040172577 0.032796264 -0.044326782 0.114151984 -0.02949524 -0.08395767 -0.00907135 -0.017601013 0.036566734 0.0844965 0.04554653 0.089767456 -0.10798645 0.065592766 0.078676224 0.042211056 0.033233643 -0.08660698 0.028198242 0.04566288 0.081790924 -0.03975296 -0.082424164 -0.027796745 -0.11094284 -0.059085846 0.14607954 0.023090363 0.074531555 0.007847786 0.020399213 0.02748108 0.05952072 0.11356449 0.058441162 -0.11218238 -0.010238647 -0.013961792 0.02260907 0.044174194 -0.0077905655 -0.012634277 -0.017124176 -0.060279846 -0.045918465 -0.020040512 0.13532066 -0.08987045 0.11943054 -0.073150635 0.034506083 -0.061424255 -0.09441185 0.02500534 -0.08095169 0.16106224 0.011016846 -0.019889832 -0.0378685 -0.02867508 0.036071777 0.05957985 0.055541992 0.12408507 0.090684414 0.07029343 0.044467926 -0.0008544922 -0.11982536 0.025680542 0.07788277 0.089645386 0.064647675 -0.038726807 -0.029872894 0.060077667 -0.037398815 -0.024578094 -0.07011795 0.024269104 -0.086940765 0.029672861 0.08535385 0.03301239 -0.040737152 -0.041950226 -0.11271286 0.054058075 0.0725441 -0.1332016 0.04798317 0.039898396 -0.0419693 0.030819893 -0.021762848 0.12136841 -0.09187508 0.01738739 -0.056978226 0.0026054382 -0.058294296 0.009086609 0.0070962906 0.012442589 -0.02589798 0.0081243515 -0.101127625 -0.059322357 -0.121414185 0.10094929 0.032837868 0.1220932 -0.09582901 0.04601288 0.027795792 -0.037994385 -0.09344101 0.11614609 -0.06217575 0.012771606 0.038174152 0.033571243 0.1158061 -0.061682582 -0.02068901 -0.03970337 0.16135216 -0.11780214 -0.04228115 -0.035583496 0.041449547 -0.07607651 -0.033599854
abondance -0.00879097 0.072128296 0.02474022 -0.014125824 0.033405304 -0.15509796 0.0019893646 -0.106936455 0.14387512 -0.08211517 -0.07875061 -0.0691371 0.009214401 -0.014007568 0.02805996 -0.13894653 -0.05688095 0.086891174 -0.121845245 -0.15349579 -0.097091675 -0.01556778 -0.07452202 0.1664238 -0.08975792 -0.086276054 -0.13936329 -0.07817078 -0.02935791 0.13806915 0.0119018555 0.08815384 -0.24244499 -0.107372284 -0.0029973984 -0.07447815 -0.13732815 -0.067985535 -0.05875349 -0.1297636 0.0763731 -0.0028152466 0.011516571 -0.11631012 -0.0020446777 -0.098145485 -0.20882034 0.08854675 -0.00030708313 0.034713745 0.04737854 -0.003730774 -0.021682978 -0.056349754 0.14040375 0.034420013 0.122758865 -0.05266285 -0.08545303 0.015104294 -0.095033646 0.030643463 0.027795792 -0.009183407 -0.03383541 -0.068387985 0.02308464 -0.090895176 -0.07842064 -0.043296814 0.06376162 -0.06980896 -0.025188446 0.032424927 -0.046901703 0.02202034 -0.06045246 -0.063700676 -0.014678955 -0.018733978 0.00048351288 -0.019834518 0.04425764 -0.0045051575 0.050682068 0.049453735 0.058947563 -0.08012009 0.07555771 -0.08258438 -0.16093731 -0.06482315 0.018381119 -0.072329044 0.028060913 -0.072553635 -0.020358562 0.011082649 0.0036621094 -0.09610748 -0.10415745 -0.08631897 0.06281036 -0.067085266 0.07117081 0.05918873 0.039726257 -0.04670143 0.073349 -0.053466797 0.008434296 -0.13562202 0.0021800995 -0.09572744 0.12427902 -0.09613228 -0.09395409 0.0059666634 -0.0809021 -0.09678936 0.031665802 0.116989136 0.022827148 0.02501297 -0.14432526 -0.12548447 -0.068908215 -0.05722809 -0.10587692 0.10636139 -0.033679962 -0.022108078 0.02379036 -0.10316467 -0.0894928 -0.06772423 0.0027770996 -0.03124237 -0.041427612 -0.015029907 -0.041965485 -0.0058670044 -0.10262489 0.04140675 -0.038513184 0.0033607483 -0.046642303 -0.012893677 -0.03415346 -0.012012482 0.05052948 -0.023817062 -0.078668594 0.052845 -0.033132553 -0.0320549 -0.059806824 -0.04268551 -0.06589794 -0.15177536 0.059904814 0.06236458 0.017543793 -0.04356861 -0.110645294 0.049229145 0.04664421 -0.065330505 -0.035591125 0.04599476 -0.0809021 0.09117699 0.012565613 0.074329376 -0.14463806 -0.120975494 0.006289482 0.008820057 -0.0225029 0.052158356 -0.07651901 -0.022714615 -0.08457756 0.010540009 -0.0482502 0.013748169 0.003063202 -0.11897731 -0.076416016 -0.08242321 -0.047377825 -0.008243561 0.15273285 0.008323669 0.022902966 -0.12746906 0.049497604 -0.0018157959 0.021871567 0.19192505
accident 0.06694126 -0.040405273 -0.06333542 0.0301857 -0.04815674 -0.11014938 0.007871151 -0.04243946 -0.09328556 0.025327682 -0.0061912537 0.11054635 -0.19310188 -0.031234741 -0.0127949715 0.021940231 -0.106552124 0.028526306 -0.12680244 -0.063186646 0.11674881 0.1010437 0.014371872 0.05586624 0.066185 -0.03829956 -0.08851576 -0.045928955 0.023071289 0.041488647 0.07672119 -0.04932022 -0.061683655 -0.13157845 -0.11579454 -0.09712219 -0.006427765 -0.14733887 0.010748386 -0.18063927 -0.009631157 0.019622803 -0.010856628 -0.033164978 -0.15548706 -0.11196518 -0.0923748 -0.14427567 0.03548622 0.022621155 -0.015365601 0.01471138 -0.0877676 0.024159431 0.0450058 0.093961716 0.009952545 -0.020302773 -0.01688385 0.007188797 -0.00023460388 -0.12099457 -0.025774002 0.04023838 -0.05641365 0.08179474 -0.03486061 -0.078229904 -0.010782838 0.013961792 -0.008162469 -0.03794861 0.056926727 0.002281189 -0.029792786 -0.08135319 -0.008460045 0.03358364 -0.15809631 0.0075531006 -0.015034676 -0.063840866 -0.06612635 -0.17990112 -0.015928268 0.0061950684 -0.08409786 -0.18714523 -0.03133011 0.048252106 -0.06930065 -0.046855927 -0.14099503 0.07908964 -0.12705612 -0.008804321 -0.09481335 0.006147504 -0.075546265 0.0016899109 0.034379005 0.111846924 0.11828637 -0.02720642 -0.06372833 -0.020191833 0.0008239746 0.08072567 -0.08502197 0.031154633 -0.084114075 -0.08519459 -0.005147934 -0.07547188 -0.056484222 -0.040420532 0.042785645 -0.09208083 -0.05278778 -0.048757553 -0.044330597 -0.017230988 0.00015830994 -0.050750732 -0.020256042 0.028232574 -0.11168289 -0.07537842 -0.04350853 -0.03010559 0.037598252 -0.10304117 -0.058460236 0.07406998 0.014892578 -0.09773064 -0.027954102 0.04292488 -0.07247925 -0.008106232 -0.08218384 0.057987213 -0.1055336 -0.052810192 -0.020427704 -0.03735733 0.0664444 -0.037136078 -0.09795165 -0.057956696 0.06047821 0.06731033 -0.03334427 0.035663605 -0.08544922 -0.012783051 0.0154800415 -0.10545921 -0.003985882 0.07964325 -0.092074394 0.0038719177 -0.10952759 -0.092027664 -0.12226105 0.025510788 -0.076862335 0.021402359 -0.13739777 -0.068953514 -0.09415531 0.0052604675 -0.0068597794 -0.0038375854 -0.044273376 0.018005371 -0.06140423 -0.0046834946 -0.095314026 -0.03659439 -0.059013367 0.10491371 -0.10998535 0.026950836 -0.13035583 -0.09876633 -0.019569397 -0.088748455 -0.11164665 -0.06514788 -0.05881393 0.06573677 0.02154541 -0.03347206 -0.027958393 -0.16969204 0.089660645 0.09560299 -0.005153656 -0.07727051
accord 0.03746891 -0.018569946 -0.09924507 -0.018920898 -0.010059357 0.03773117 -0.060512543 -0.0678072 -0.016497612 -0.0071258545 0.06914139 0.070527315 0.07041359 -0.03993225 -0.020623207 -0.05735588 -0.033376694 -0.0025863647 0.030874252 -0.04636383 0.015155792 0.065654755 -0.009843826 0.07393265 0.0004711151 -0.031751633 -0.06934118 -0.06511307 -0.10066223 0.027996063 0.041778564 0.011024475 -0.14786911 -0.17978859 -0.008018851 0.04561615 -0.076107025 0.052238464 0.06202984 0.1018734 0.011878014 -0.04349518 -0.08797455 -0.0023040771 -0.0345726 -0.07297897 -0.106134415 -0.051944733 -0.1874218 -0.0761528 -0.09992218 -0.1546402 0.07151222 0.0051050186 0.049362183 -0.07312393 -0.04802227 -0.011419296 -0.11699295 0.051355362 -0.069280624 0.0675354 0.047777176 0.019646645 0.100811005 -0.016355515 -0.10682869 -0.120069504 0.059428573 -0.0126514435 -0.014614075 0.088653564 -0.14979935 0.034614563 0.06201935 0.057095528 0.06444645 0.007870674 -0.09372711 -0.095321655 -0.04679203 -0.06629753 -0.09247923 -0.0394001 -0.16872978 0.012031555 -0.011378288 -0.06535721 0.1096344 -0.1445427 0.00038146973 -0.055477142 -0.06292343 0.029686451 0.05659485 -0.021795273 -0.04569626 -0.005874872 0.044044495 0.021701813 0.031788826 -0.12365723 0.07400346 0.09223175 0.009778976 0.14255984 -0.047325134 0.0726099 -0.08988953 -0.025119781 -0.05965042 0.016730309 -0.02920723 0.05973482 -0.059577942 0.03419113 0.0647068 0.025996923 0.17964935 -0.07148552 0.013820648 -0.08566666 -0.011329651 -0.082344055 -0.013031006 -0.0082473755 -0.100170135 0.036104202 0.004442215 -0.056316376 0.0434438 -0.022963047 -0.047021866 -0.049966812 -0.0411644 0.03909874 0.012870789 0.02158928 0.027542114 -0.045669556 -0.06694794 0.05275345 -0.11681175 -0.13004446 -0.047973633 -0.037101746 -0.047618866 0.0062294006 0.055083275 0.015174866 -0.060897827 -0.033441544 0.0052108765 0.05726242 -0.14930487 0.008647919 -0.10952759 0.045469284 -0.012452602 -0.08432007 0.0023765564 0.006126404 0.02508545 -0.0119457245 0.03318405 -0.13568878 0.0219841 -0.01763916 -0.030052185 0.104865074 -0.026977539 -0.013292313 0.012623787 -0.22079086 0.062561035 0.10962105 0.21355534 -0.06624508 0.030403137 -0.011974335 0.079128265 0.025348663 -0.014371872 -0.019058228 -0.0315094 0.12693787 -0.048202515 -0.09529948 -0.0283432 -0.04134226 0.16908038 0.01484108 -0.024030685 -0.013555527 -0.002222538 -0.112252235 0.081279755 0.13959694 -0.025871277 -0.017868042
ace -0.035964012 -0.044898987 -0.050373077 0.011203766 -0.023742676 -0.16167831 -0.03447199 -0.028279305 -0.02248478 -0.06323433 0.0029335022 0.03217721 -0.11174202 0.06990051 -0.050941944 0.01577568 0.0041656494 -0.10886383 -0.13083076 -0.04017639 -0.018505096 0.029876709 -0.1388874 0.012653351 0.043907166 -0.09249878 -0.057906628 -0.039489746 -0.13769531 -0.07606506 -0.03213501 0.054195404 0.036231995 -0.0014514923 -0.014811873 0.0027008057 -0.023212433 -0.029663086 -0.056420803 0.038446426 0.021618843 -0.15422058 -0.1330185 -0.0021820068 -0.10681152 0.013309479 -0.116666794 0.063747406 0.03939247 0.052742004 0.017295837 0.06944466 -0.057311058 -0.015318871 0.08695984 -0.015306473 0.117191315 -0.049019814 -0.021156311 0.025133133 0.09934425 0.09635162 -0.0041675568 -0.05236721 -0.076021194 -0.21044159 -0.0062351227 -0.08433914 -0.007364869 -0.025405884 -0.0203695 -0.1252594 -0.033786774 -0.09925079 -0.015693665 0.028388023 0.05007267 0.017958641 -0.010246277 -0.05618286 0.02457714 -0.07335472 -0.013819218 0.037506104 0.033510208 -0.029815674 -0.070334435 -0.051753998 0.048625946 -0.069423676 0.0641222 -0.11640549 -0.07580948 -0.12330294 -0.07505417 -0.003616333 0.014195442 -0.015214801 -0.03074646 -0.022266388 -0.09471035 -0.025665283 -0.06115699 -0.12046814 -0.040618896 -0.12180011 0.009765625 -0.027245522 0.022888184 -0.10806656 0.043937683 0.035075188 -0.036153793 0.006292343 0.02627945 -0.06336975 0.10739136 -0.008218527 -0.0029830933 -0.06389427 0.05662155 -0.03700638 0.09514427 0.027008057 -0.099113464 -0.01253891 0.030529022 0.15203857 -0.04590416 0.06593323 -0.03698671 0.010606289 -0.13069534 -0.03658676 -0.033813477 0.075242996 -0.060913086 -0.06866264 0.06199646 -0.10612869 -0.04714966 -0.10552597 -0.05350876 0.052933216 -0.062603 -0.07638931 -0.10597992 0.03219986 -0.018789053 -0.032661438 0.03075409 -0.046993256 -0.053791046 -0.08597946 -0.012512207 -0.07984543 -0.046653748 0.025064468 -0.15757322 -0.054733276 -0.10538006 0.0131492615 0.13452911 0.027662277 0.035209656 -0.11133003 -0.087833405 -0.015966415 0.0958786 -0.024336815 0.089865685 0.0019340515 -0.049340248 0.093055725 -0.1232872 -0.113967896 -0.18176556 0.013978004 0.07558441 -0.05133438 -0.10242462 0.101831436 0.058685303 -0.101184845 -0.049686432 -0.00065231323 -0.080970764 -0.008578777 -0.019041061 -0.134377 0.0559932 -0.065000534 0.14633179 -0.016382217 0.010249615 -0.010695457 -0.043029785 -0.14316654 0.119846344 -0.0014343262
action 0.09381676 -0.052696228 -0.030752182 -0.066028595 0.10066223 -0.055000305 0.04339838 -0.02890873 -0.013780594 -0.09449196 0.00034332275 -0.0796926 -0.043214798 0.03731537 -0.08112621 -0.07062721 -0.092739105 0.11640358 0.01879692 -0.07630539 -0.0966835 -0.076797485 -0.0417099 -0.052978516 -0.09987831 -0.063679695 0.008113384 -0.07840729 -0.1634674 0.0029754639 0.036937714 0.07680893 -0.014886856 0.08402252 -0.024638534 -0.12662888 -0.033262253 0.07496643 -0.030748844 -0.07264233 0.057870865 -0.05104065 0.059326172 0.054229736 0.033668518 0.014219284 -0.084028244 0.028388977 -0.029777527 0.039215088 5.340576e-05 0.065485 -0.04492092 -0.008714676 0.1714859 0.044425964 0.006102562 0.004023552 0.07217026 0.005502701 0.007299423 -0.084243774 -0.008089066 -0.17310429 0.1026783 -0.09555435 0.01030159 0.021587372 -0.06251395 -0.0848732 -0.035344332 -0.034233093 0.056236267 -0.018623352 -0.01952362 0.10349655 -0.10002804 -0.012375832 -0.018161774 -0.077381134 0.004255295 0.03159523 0.0683732 -0.030658722 0.10918045 -0.05947876 -0.07584381 -0.005596161 0.04157257 0.075401306 -0.06345272 -0.029384613 -0.058940887 0.108006954 -0.115177155 0.07898903 0.018302917 -0.05995381 -0.12631226 0.081129074 0.021964073 -0.019683838 0.0023663044 -0.140419 -0.15859985 -0.018002197 0.042678833 -0.17320347 0.09896088 0.11546135 -0.0740509 0.012595177 -0.0070877075 -0.03432846 0.025539398 0.053426743 0.09627533 -0.0257833 -0.10766029 0.0051259995 0.04646492 -0.05073166 0.06702995 0.10956192 -0.07349396 -0.086135864 -0.06443405 0.12150574 0.08170891 0.012588501 0.06622851 0.0907855 -0.084825516 0.04957199 0.0027656555 -0.001455307 -0.06967163 0.048740387 0.07077026 -0.13746262 -0.047489166 0.0050201416 -0.081272125 -0.0076401234 -0.03989792 -0.028282166 0.00976944 -0.14833069 0.06569457 0.0296669 0.010025024 0.059347153 0.053203583 -0.03363037 0.12716866 0.0119133 -0.062282562 -0.08577824 0.024196148 0.018108368 0.02254057 -0.05480957 0.0016479492 -0.015284538 -0.017036438 0.049658775 -0.051675797 0.04900551 -0.06856537 -0.025057793 0.024003983 0.059259415 0.04972458 -0.081596375 -0.004901886 -0.17637634 0.034269333 -0.038247585 0.032295227 -0.072151184 0.003894806 -0.06698418 0.1048851 -0.05001068 0.021690369 -0.119823456 0.07751465 -0.05305624 -0.019960403 0.07678747 0.0957557 0.04961586 0.13489532 -0.035619736 0.06985998 -0.0921793 0.09389496 0.10616207 -0.03737831 -0.037303925
ada 0.031868935 -0.05784607 -0.017028809 0.03162384 -0.13331223 -0.016471863 0.044025898 -0.061112404 -0.10000706 0.0027561188 -0.14142227 -0.05634284 0.008890152 -0.042686462 0.011405468 -0.1272583 -0.020431519 0.008102417 0.12818909 -0.036392212 -0.13313293 -0.018527985 -0.011388779 -0.028011322 -0.053569794 0.0006160736 0.12671041 0.12983704 0.036827087 -0.0022735596 -0.04343033 0.08527756 -0.16023636 -0.022518158 0.008215547 -0.048965454 0.029328346 0.028644562 -0.044601917 0.03896904 0.047101974 0.029426575 0.027996063 -0.061447144 -0.094688416 -0.011630058 -0.044947624 -0.0069503784 -0.11785698 0.032684326 -0.0650177 -0.040460587 0.09648132 -0.114629745 -0.025901794 -0.045188904 -0.009319305 -0.062390327 -0.07633591 -0.011026382 0.09239006 -0.016277313 0.045793533 -0.046294212 -0.016794205 -0.0068626404 0.005701065 -0.030357838 -0.032088876 -0.04582596 0.07921031 -0.0209198 0.015552521 -0.047691345 -0.008552551 0.0300169 0.11989403 0.01881504 -0.05973816 -0.048614502 -0.09565258 -0.03204155 0.08396864 -0.1352539 0.107954025 -0.003364563 0.04954052 0.05009842 -0.05945587 -0.052921295 -0.13842297 -0.04801178 -0.032016754 -0.027067661 -0.0070381165 0.18877792 -0.020306587 0.06362879 -0.038642883 -0.10315704 0.025187492 0.05116272 0.09074044 -0.025939941 -0.03158188 0.08344968 0.041305542 -0.15079117 0.09226227 -0.085510254 -0.093193054 0.09706879 0.11615944 -0.0045804977 0.19272232 -0.07685661 0.027952194 -0.04273963 -0.107393265 -0.08461666 0.012275696 0.07429123 -0.061273575 0.13964462 -0.08230591 0.04839897 0.07426119 -0.1305027 -0.09647751 -0.054260254 -0.0088813305 -0.12735224 0.019050598 0.09120178 -0.079460144 -0.057497025 -0.122169495 0.04969406 -0.062698364 -0.059165955 -0.024288177 -0.13908958 -0.0008621216 -0.013995647 -0.059375763 -0.060913086 0.009643555 0.021915436 -0.03503394 -0.07847214 -0.009048462 -0.011182785 0.10206604 0.0043525696 -0.0144200325 -0.11298752 -0.020942688 -0.05226803 -0.00756073 0.042064667 -0.12053037 0.04336357 -0.015609741 -0.037200928 -0.15122604 -0.03148079 -0.033958435 0.0035057068 -0.003616333 0.0023708344 0.016574383 0.008346558 -0.07578945 -0.12124252 -0.033592224 -0.12696075 0.110043526 0.041380882 -0.051940918 -0.011806488 -0.04497528 -0.028030396 0.13799286 -0.09577942 -0.06327629 -0.070194244 -0.049568176 -0.07180548 -0.046928406 0.026892185 0.017525792 0.025960922 0.035678864 0.09377861 -0.062399387 -0.062081337 -0.0752449 0.08600521 0.006450653 -0.0515213
ade 0.027876854 0.048980713 -0.043834686 -0.00016403198 -0.115356445 0.039432526 -0.045171738 0.01194191 0.08113575 -0.05015564 -0.13145828 -0.08421111 -0.10918808 -0.055496216 0.011072636 0.012788773 -0.06820679 0.06983185 0.04707527 -0.09795761 -0.010936737 0.03894806 -0.0335083 0.004207611 0.04015255 -0.008635521 -0.011590481 -0.01795578 0.059814453 -0.15335083 -0.037384033 0.03504181 -0.023263931 0.13349915 -0.051270366 -0.12495422 -0.07181358 -0.044391632 -0.034284115 -0.07733536 -0.05581951 -0.030181885 -0.06125641 -0.06790924 -0.03778076 -0.026788712 0.0025997162 -0.008548737 -0.051008224 0.006832123 -0.15681458 -0.069646835 0.16040993 0.13357067 -0.015506744 0.025756836 -0.16411972 -0.03396511 -0.06537628 -0.036539078 -0.04501152 -0.0548172 -0.096385956 -0.12521076 0.08533287 -0.22549438 0.06985855 -0.09035778 0.043412566 -0.012836456 0.03977874 -0.02205658 0.03502655 0.018341064 -0.04537964 -0.13478374 -0.052761078 -0.05496216 0.02451706 0.0115356445 -0.009331703 -0.12679672 -0.0847621 -0.106370926 0.016641617 0.13395691 0.0580225 -0.030010223 0.05564499 0.024162292 -0.028744698 0.003993988 -0.09374428 -0.13370943 0.1001358 -0.03652954 0.018592834 0.019631028 -0.099285126 -0.048599243 0.05358982 -0.007194519 0.07188678 -0.2124939 -0.019983292 0.063627556 -0.06765747 0.016342163 -0.0011291504 -0.04569626 0.003479004 0.08656788 0.05591011 0.11723709 0.10573959 -0.044200897 -0.025686264 0.10338044 0.006942749 -0.035905838 -0.04948616 0.104660034 -0.02252388 0.06258011 -0.057037354 -0.05178833 -0.019634247 0.045417786 0.027505875 0.014419556 -0.08139837 -0.04818964 -0.0235672 0.054805756 -0.09194183 -0.09418869 0.04485321 0.0064373016 0.08842468 -0.030910492 -0.07734108 -0.1775322 0.032661438 0.03741026 -0.04135132 -0.09019852 0.00038528442 -0.030761719 -0.105544806 -0.14340591 -0.08444977 -0.08213997 -0.09754181 -0.032230377 -0.032943726 0.033237457 -0.08462906 -0.02584076 -0.042918682 -0.062358856 -0.043520927 -0.022230148 -0.12085724 0.018880844 -0.08054733 -0.077487946 -0.0676918 -0.0037059784 -0.097213745 0.005051613 -0.018248081 -0.051620483 -0.06698799 -0.0014915466 -0.08438492 -0.14318657 0.117147446 0.007580757 -0.0044898987 -0.08116531 -0.024269104 -0.07675266 -0.044986725 -0.074710846 0.008741379 -0.105400085 0.08047104 -0.067662716 0.013177872 -0.1186223 -0.10513747 -0.08759308 -0.032505035 -0.098054886 0.048858166 -0.054781914 -0.08664513 0.046753883 0.03858757 -0.048171997
aides -0.024302483 -0.06650543 -0.05932045 0.04594803 -0.0065307617 -0.062129974 -0.17126513 -0.026339531 -0.030766487 -0.09097099 -0.035743713 0.044217348 -0.14160919 -0.051582336 0.030159473 -0.1620388 -0.07846451 -0.056964874 -0.078323364 0.048770905 -0.11867523 -0.046459198 -0.051101685 -0.13367462 0.044487 -0.056100845 0.047588825 -0.073287964 -0.044662476 -0.055419922 -0.08219528 0.04938507 -0.03911209 -0.041578293 0.032636285 -0.05908203 0.061876297 -0.00674057 -0.12058687 -0.023636341 -0.027980804 -0.025543213 -0.072696686 0.0016555786 -0.18401718 -0.09135628 -0.13955879 0.015533447 -0.036756516 -0.028690338 -0.0073547363 0.03360176 -0.039126396 -0.05663681 -0.046424866 -0.083330154 -0.01996231 0.008087158 -0.05208969 -0.0036716461 -0.008478165 -0.06474686 -0.03613472 -0.068060875 -0.20984459 -0.15584755 -0.011562347 -0.079624176 0.116751075 0.010255814 -0.011070222 -0.10372925 -0.10712814 -0.04727173 -0.050403595 0.09354591 -0.06112194 0.020562172 -0.11182785 -0.099056244 -0.05800152 -0.06273079 0.05619526 -0.07450485 0.045610428 -0.07354736 -0.055399895 -0.04505539 -0.05691147 -0.053451538 -0.10427284 -0.10905838 -0.0764122 -0.045367718 0.05934906 -0.08823776 -0.060739517 0.055473447 -0.07380676 -0.017650604 -0.14950371 -0.0263443 -0.018432379 -0.10732269 -0.09854889 -0.10654704 -0.1512413 -0.15918446 0.026023865 -0.014003754 -0.078762054 0.147439 -0.053785324 -0.019435406 0.036830902 -0.09732056 -0.032180786 -0.02707553 -0.026817322 -0.047496796 -0.067798615 0.045528412 0.033044815 -0.03152466 -0.0500412 -0.021129608 0.028102875 -0.026191711 -0.029312134 -0.0992012 0.0062767267 0.099223614 -0.058563232 -0.033147812 0.074897766 0.13659286 -0.15401459 -0.12550926 -0.03691101 -0.06700134 -0.008895874 -0.11925697 -0.10538864 -0.042232037 -0.060993195 -0.031936646 -0.026165009 0.1395359 -0.033890963 -0.084285736 -0.0424881 0.004430771 0.13589096 0.006134033 0.08140755 0.0056152344 0.05369568 -0.0769577 -0.085577965 0.02790451 -0.03246212 -0.026239395 -0.07752991 0.06480789 -0.014625549 0.068042755 -0.060121536 -0.015550613 0.0057296753 -0.054286003 0.10518265 -0.075717926 -0.11771011 -0.008232117 0.015602112 -0.11943054 -0.1793375 -0.014591217 0.051696777 0.0450325 0.03250122 -0.08959484 0.12734222 -0.051765442 -0.058753967 0.102996826 -0.07472229 -0.016423225 -0.021120071 -0.19748735 0.08519566 -0.020114899 0.023674011 -0.013132095 -0.043770313 -0.007082939 0.033773422 -0.034147263 -0.004589081 -0.056713104
aigre -0.08420277 0.034584045 -0.05496025 -0.033756256 0.11762619 -0.025485992 -0.08673906 -0.057970047 -7.724762e-05 -0.035251617 -0.030254364 0.13706613 0.03541565 0.11742401 0.025272846 0.03358078 0.05054283 -0.09354401 0.06697273 -0.025108337 -0.112537384 -0.049621582 -0.10700035 0.005367279 -0.01566124 -0.0030517578 -0.11477232 0.026309967 -0.23816681 -0.0055007935 -0.07697296 -0.044193268 -0.072488785 -0.01988411 0.014010072 0.04560089 -0.046361923 -0.021404266 0.03494215 0.04469204 0.0388937 -0.09713745 -0.1389122 0.07371521 -0.08786774 -0.09345722 -0.116659164 0.09380722 0.020605087 -0.041282654 0.04374695 0.08995819 -0.034571648 0.0028181076 -0.06024933 -0.022138596 0.058451653 -0.116129875 -0.11350632 -0.074445724 0.07211113 0.02986145 0.10166359 0.11701679 -0.10944271 -0.042102814 -0.11016464 -0.05568695 0.06012857 0.02783966 -0.00056025386 -0.07939911 -0.082977295 -0.00089263916 0.0115737915 -0.045456886 0.022515297 0.2208128 0.014862061 0.051620483 0.02706623 -0.063589096 -0.00050354004 0.022197723 0.055662155 -0.1088562 -0.022597313 0.0071144104 -0.011310577 -0.020458221 0.05814171 -0.04118347 0.01612091 0.010761738 -0.022724152 0.003643036 -0.056559563 -0.079654574 0.13368607 -0.04420662 -0.11192322 -0.06517792 0.013273478 -0.0803833 -0.010538101 -0.017429516 0.059848785 0.027737617 0.0031356812 0.06689072 -0.030258179 -0.052786827 0.08214569 0.055160046 0.046527863 0.11715698 -0.0026607513 0.12428832 0.018325806 0.003165245 -0.090545654 0.08546448 0.2112751 -0.0069885254 0.008087158 0.08805847 0.045446396 0.068611145 -0.13414192 -0.054309845 0.022948384 0.18480444 -0.048574448 -0.07695198 0.031627655 0.097408295 -0.018772125 -0.015539169 -0.028778076 -0.027462006 -0.06243515 0.11702728 -0.049468994 -0.049579144 0.06896973 0.01845169 -0.022228241 0.0027122498 0.11562991 0.06593323 -0.049575806 0.066903114 -0.009025574 -0.1570549 -0.02425766 0.043087006 0.079193115 -0.09073448 -0.0033745766 -0.10027695 -0.123865604 -0.045391083 0.043483734 0.03368187 0.16247559 0.07883453 -0.06293106 -0.06476021 -0.026165009 -0.075862885 0.14707899 -0.034934998 -0.010665894 -0.06398392 -0.063682556 -0.10967064 0.027445793 -0.09286404 0.10089874 0.024597168 0.031993866 -0.058755875 -0.023618698 0.024471283 -0.05263996 -0.014385223 -0.051216125 0.07084131 -0.06225586 -0.086072445 0.08027947 -0.008319855 0.15781593 -0.083086014 0.010623455 -0.09140015 -0.02541542 -0.047325134 0.034130096 -0.08152771
aimée 0.016630173 -0.035308838 -0.04055977 -0.07744217 0.033302307 -0.045555115 0.0632453 -0.068463326 0.106778145 -0.04395485 -0.025360107 0.06575227 -0.07221794 -0.037017822 -0.07357836 -0.03145981 0.023801804 0.04623604 -0.012769699 -0.059410095 0.054775238 0.04006958 0.009933472 0.06376648 0.046178818 -0.07993698 0.03914404 -0.094249725 -0.1748352 -0.010822296 -0.01121521 0.013248444 -0.0670166 0.027841568 0.018329024 -0.04809189 -0.0991478 -0.0028915405 -0.15514517 -0.019515514 0.016992569 -0.02986908 -0.08895874 -0.043251038 -0.04159546 -0.04803753 -0.09606552 -0.036685944 -0.003440857 0.11436081 -0.1084671 -0.07054138 -0.040625334 0.070201874 -0.0053100586 0.07648659 0.004579544 -0.107831 -0.06272888 -0.009679794 0.023359299 -0.030403137 0.046525955 0.005548477 -0.07128143 -0.08284378 0.013395309 -0.04994583 0.00061261654 -0.019104004 0.047143012 -0.07129669 -0.07286072 -0.077796936 0.116573334 -0.10934353 -0.007466316 -0.0009813309 0.009845734 -0.01889801 0.018351555 -0.08714485 -0.08636713 -0.067100525 0.09908295 -0.081222534 -0.055775642 -0.017787933 0.11213684 -0.073474884 0.015660286 -0.037895203 -0.06736755 0.053636074 -0.01322937 -0.02984047 -0.02225399 -0.038672328 -0.0042266846 -0.010147095 -0.037677765 -0.04321289 -0.02075553 -0.17792511 -0.08268356 -0.07838075 -0.046871185 -0.022767067 0.17215729 0.06989288 -0.022666931 0.10319328 -0.010158539 -0.009480476 0.09093094 -0.0010929108 0.0013217926 -0.071852446 0.008867264 -0.047109604 0.12501144 0.059604645 0.09199333 -0.054031372 -0.039466858 0.052675247 0.08931923 0.10133362 -0.057229996 -0.03462982 0.08281577 0.019444942 -0.0034866333 -0.097579956 0.0030937195 0.02025795 0.07878494 -0.040006638 -0.02645111 -0.08498764 -0.08970451 -0.05848694 -0.011950493 -0.04005432 -0.075222015 -0.11248398 -0.07330704 0.042194366 -0.06251025 0.0369339 -0.04510498 -0.10168743 -0.017791748 -0.0029449463 -0.014767647 -0.16194153 -0.16068268 0.06836128 0.015054226 -0.0054473877 -0.059031487 0.034433365 0.06192398 -0.04984665 0.008396149 -0.030667305 -0.09680557 -0.057388306 -0.13955307 -0.02973175 -0.033858776 -0.036254883 -0.071899414 -0.03996277 -0.095458984 -0.014057159 -0.02259636 -0.04558468 0.022262573 -0.081134796 0.022594452 0.08096123 -0.12014198 -0.0029029846 -0.068398476 -0.1019516 -0.08862686 -0.010667801 -0.06329918 -0.08731508 0.12069523 -0.030179977 0.032058716 -0.060735703 -0.079158306 -0.08465862 0.028030396 0.11419392 0.008321762 0.07669449
airbus 0.14008808 0.0048599243 0.019813538 0.0153541565 -0.038627625 -0.0005683899 0.029402256 0.07890415 -0.011013985 0.121967316 0.06714249 0.100339174 -0.033147812 0.024017334 0.10293627 0.0068969727 -0.08069229 -0.02034378 0.021482468 -0.0274086 -0.12690353 0.06463623 0.04168701 -0.056316376 -0.026319504 0.10528374 -0.12159014 -0.08804321 -0.032318115 0.07184219 0.070487976 0.062282562 -0.02456665 0.048324585 0.08963525 -0.016521454 0.1101923 0.20529938 0.11505556 0.04731655 0.14309788 0.014556885 0.067554474 0.1541977 -0.082927704 0.07623482 -0.04265213 0.021831512 -0.0380764 -0.1097641 -0.0053482056 0.07530022 0.09578371 -0.11106682 0.089668274 0.06640053 0.04577923 0.012584686 -0.014961243 -0.0005970001 -0.053503036 0.09049988 0.11128044 0.02653265 -0.079200745 -0.008367538 0.036340714 -0.03539467 0.023730636 -0.050266266 0.03186801 -0.012992859 0.07274628 -0.04296112 0.029346466 -0.025603294 0.032971382 -0.015551567 0.03466034 -0.034900665 0.033841133 -0.0039043427 0.07306814 0.051143646 -0.12442398 0.059913635 -0.039269447 0.0667572 -0.05147934 -0.026779175 0.07469654 -0.02451706 0.043050766 0.009891033 0.17726517 -0.019594193 -0.018458843 -0.06315565 -0.09095383 0.060871124 -0.012009621 -0.03351593 -0.0027005672 0.08705902 -0.10333824 0.03804119 0.02785492 -0.11457157 -0.05025482 -0.00699234 -0.034671783 0.14714813 0.049833298 -0.02338028 -0.047504425 0.03779602 0.046930313 -0.025101423 0.15032959 -0.019112587 0.07078171 0.09029007 0.12152672 0.107616425 -0.07284546 0.047189713 -0.023501873 0.14150047 0.00015068054 -0.06715393 0.11257994 0.027011395 0.03722763 -0.10893631 -0.05431366 -0.07777023 -0.021697998 0.058351517 0.039375305 -0.07474899 -0.017597198 0.056863785 -0.016895294 -0.03730321 -0.004508972 0.016967773 -0.06414795 -0.10421753 0.13332963 0.02368927 0.10927582 0.024736404 -0.07698059 0.06521988 -0.141541 0.03042984 -0.04837036 -0.01583004 0.022222996 0.007816315 -0.066501856 -0.12533951 0.099487305 -0.03335476 0.022964478 -0.15491581 -0.10058212 0.018262863 0.14702988 0.011597633 0.007914543 -0.04998398 0.05453396 -0.10682678 0.019649506 -0.09254265 0.07178497 -0.009277344 0.15310287 0.026210785 -0.011177063 0.038414955 0.0215168 -0.067173004 -0.08337402 -0.042881012 -0.089653015 -0.093725204 -0.042539597 0.10396528 0.0014625788 -0.010520935 -0.02865982 -0.09077835 0.031448364 -0.07989788 0.028673172 0.08510876 0.033218384 -0.04455185
aire 0.05986023 0.034439087 0.019470215 -0.06061554 -0.018051147 -0.047016144 0.07742691 -0.02074337 -0.08144379 -0.015834808 -0.06418228 0.08768964 -0.07339859 -0.07938385 0.11269522 -0.060346603 -0.07078934 -0.0008506775 -0.1426773 -0.03438568 0.023105621 0.027938843 -0.011678696 0.053920746 -0.06892109 -0.045452118 -0.12527466 -0.12340546 -0.06538391 0.087581635 0.05191803 0.18405151 -0.16727066 -0.009138107 0.08062172 -0.0046844482 -0.12272835 0.14603043 -0.08446455 0.10127306 0.07659149 0.011505127 0.052646637 0.08862305 -0.025421143 -0.022960663 -0.013635635 -0.01374054 -0.030632019 -0.06716919 0.018726349 0.032255173 0.038979053 0.10870266 -0.04694748 0.07816887 0.052000046 -0.054060936 -0.074150085 0.026529312 -0.018526077 0.13489914 -0.087610245 0.1090889 0.093045235 0.039325714 -0.026964188 -0.019061089 -0.024207473 -0.083805084 -0.09305236 0.0688324 -0.09957504 0.1062088 0.09737015 -0.07126522 -0.0944643 -0.15524864 0.07679367 0.076107025 0.052607536 0.026147842 -0.057234764 0.09492302 0.016744614 0.03730011 0.08629131 0.051971436 0.03338623 -0.034313202 0.03189087 0.00034332275 -0.089076996 0.06481457 -0.017234802 -0.012866974 -0.030947685 0.019031703 -0.0440979 0.04847336 0.14150143 -0.110313416 -0.055718184 0.037521362 0.036369324 -0.04627721 0.0019416809 -0.050268173 -0.016433716 0.10380173 -0.017307281 -0.030656815 -0.104372025 0.073604584 -0.015960693 -0.050727844 -0.028409958 0.021110296 0.11630249 0.024654388 0.055473328 -0.040779114 -0.013965607 -0.06982422 -0.0821991 -0.15119743 -0.11095524 0.17516708 -0.062711716 0.043823242 0.032780766 -0.053828716 0.06385231 -0.15679741 0.081199646 -0.00050735474 -0.04101181 0.026826859 0.009399414 0.12111664 0.01821518 0.007247925 -0.04229927 -0.023367643 0.02034378 -0.09486771 -0.045211792 -0.0034217834 -0.017906427 0.111450195 0.053642273 0.046625137 0.08341408 0.096385956 -0.108551025 -0.1023674 -0.052696228 0.030561447 0.029958248 0.07391739 0.101515174 0.027544022 -0.010501862 -0.042520523 0.046016693 -0.08573723 -0.019153595 0.07298851 -0.07046509 0.10117245 -0.03685808 0.027284622 -0.013656616 -0.12028122 -0.025161743 0.08085632 0.03214836 -0.018057823 -0.0066871643 0.018859863 -0.0074157715 -0.026602745 -0.04378128 -0.07438278 -0.071391106 -0.09133148 -0.034698486 -0.07524824 0.04253578 0.0155854225 0.10205901 -0.118925095 -0.092819214 -0.07326698 -0.03694582 0.059319496 0.07603836 0.09778595 0.08298874 0.046977997
alberta -0.045119286 0.021263123 0.018520355 0.10354996 0.06085205 -0.019802094 -0.0006585121 -0.05125904 0.12528133 0.031736374 -0.040309906 0.033153772 0.00141716 0.16072083 0.008872509 -0.18741035 0.09840393 -0.035621643 0.11239433 -0.037643433 -0.13044357 0.008514404 0.086271286 0.111896515 -0.06455231 -0.030426025 -0.0061793327 0.027709961 -0.21655273 0.07311249 -0.062438965 0.16857529 -0.19197845 0.06251335 0.062214494 0.07746887 0.013408661 0.012939453 -0.024545193 0.14361 0.021069527 -0.10005188 0.029457092 0.04664612 -0.040771484 0.01643753 -0.1396923 0.0766716 -0.15836143 -0.009941101 0.042678833 0.004213333 0.13470554 0.023133278 -0.045303345 0.013990402 0.070682526 -0.0184412 -0.019691467 0.021104813 0.055612564 0.05669403 0.074567795 -0.036192894 0.07766533 0.034309387 0.017873764 -0.0139045715 0.059224486 0.015052795 -0.08689782 0.028549194 0.06203842 0.036094666 0.06414032 0.021288872 -0.050513268 0.031630516 -0.020584106 0.056747437 0.011698723 -0.02624321 -0.09481287 0.1053772 0.06540108 -0.07354736 0.031502724 0.13965225 0.16798782 -0.09756088 -0.017420769 0.04506302 -0.04553604 0.08122587 0.06819534 0.077926636 0.023838997 0.003889203 -0.048690796 0.037914276 0.014237404 -0.096588135 0.06262231 0.0041656494 0.06071472 0.11437543 0.0058898926 -0.05509281 0.078430176 0.0019798279 -0.034065247 -0.0037431717 0.04660988 0.08102989 0.065769196 -0.04335022 0.021331787 0.082601786 0.027168274 0.05655861 -0.060077667 0.0827446 0.12135887 0.1546936 -0.12596893 0.05978775 0.0036735535 0.20127869 -0.008962631 0.115859985 0.07446349 0.025987148 -0.027973175 -0.0569458 0.03552246 -0.021680832 -0.019165039 0.04141426 0.0129852295 0.033763885 0.040496826 0.021259308 -0.100818634 -0.041060925 -0.09482956 -0.088214874 -0.0118637085 -0.03469467 0.084299326 0.06335068 -0.06430817 0.04425335 0.056957245 0.020740509 -0.02368164 -0.019496918 -0.021995544 -0.118276596 0.047222614 -0.0015640259 -0.068118095 0.04732132 0.09011841 0.054273605 0.0210495 0.08373833 0.02085495 0.05742836 -0.11969757 -0.0013570786 0.070334435 0.057109833 -0.075707436 -0.07707977 0.015964508 -0.17817688 0.10558796 -0.0408926 0.0014877319 0.059749603 0.067741394 -0.15122032 -0.022125244 -0.075634 0.08727646 -0.09269333 0.016197205 0.038342 0.034547806 0.068748 -0.016272426 0.12115669 0.11764526 0.010778427 0.06615782 0.017868996 0.08514404 0.07576656 -0.031276703 -0.022155762
albino -0.017350197 0.014915466 -0.03657341 -0.06732559 0.108181 -0.10920715 -0.076090336 -0.11373806 0.10600281 -0.010406494 -0.04208374 0.046464205 0.09036827 0.12325287 0.009776592 -0.14691734 -0.063762665 0.08362198 -0.010507584 -0.06016922 -0.1578865 -0.054332733 -0.01158905 0.047985077 -0.14043236 -0.030889511 -0.11918402 -0.12557602 -0.2069931 0.09631348 0.011569977 0.11535263 -0.12423515 0.009170532 0.0112730265 -0.097229004 -0.012226105 0.0074806213 -0.037847996 0.07012749 0.028738976 -0.011627197 0.00074005127 -0.012329102 -0.05120468 -0.052206993 -0.16904163 -0.014347076 -0.116464615 0.044254303 0.04889679 0.038316727 -0.00026988983 -0.049476624 -0.0005722046 0.1455574 0.09470558 -0.038924217 -0.05682373 -0.001783371 -0.06979561 0.050251007 -0.09823418 -0.019400597 -0.024297714 -0.04118347 -0.094451904 -0.051998615 -0.04061377 -0.11588478 0.035642654 -0.08127594 -0.057540894 -0.04875946 0.033859253 -0.012682915 -0.038535118 -0.0630703 -0.013935089 -0.010257721 -0.021942139 -0.07056618 -0.016438007 0.11221695 0.12837029 0.009529114 0.039040565 0.074661255 0.12102127 -0.11632156 0.006011963 -0.09314728 -0.036432266 0.03123331 0.12711334 -0.012994766 -0.01974678 0.010056615 -0.03055191 -0.019403458 -0.15537071 -0.19076538 0.034706354 -0.15255737 -0.010637283 0.049121216 0.042957306 -0.14198017 0.12646484 0.09289169 -0.025222778 -0.06146145 -0.022886276 -0.06662941 0.11207199 -0.02486229 0.07856941 -0.07355571 0.018903732 0.035214424 0.020067215 0.0466156 0.044534683 0.06984711 -0.051689148 -0.107357025 -0.015903473 0.10571289 -0.11751366 -0.023071289 0.005383134 0.04794693 0.0040359497 -0.17930412 -0.020648956 0.009466171 0.08233261 -0.02831459 -0.055145264 0.023830414 0.011432648 -0.07857132 -0.09714222 -0.01437521 -0.009628296 -0.008232117 -0.05854416 -0.019678116 0.04360032 -0.051445007 -0.12763977 -0.037715912 0.013698578 -0.013961792 -0.070580006 -0.17287064 -0.049568176 -0.031152725 -0.00613451 -0.14277649 0.03038168 -0.030506134 0.033016205 0.06363106 -0.0070114136 0.012004852 -0.09311676 0.01628685 -0.05922699 0.0038347244 0.020464897 0.016937256 0.029463768 -0.053100586 -0.07272339 -0.09376907 0.11641598 0.028774261 0.023944855 0.055496216 0.018550873 -0.015096664 0.0017662048 -0.055690765 -0.1213913 -0.08550644 -0.09679031 -0.030135632 -0.06690979 -0.014303684 0.09719384 -0.029668808 0.08319664 -0.08285713 0.020830631 -0.021380424 0.00749588 0.050097466 -0.047885895 -0.045516968
alcazar 0.038410187 -0.0146102905 -0.018529892 -0.021137238 0.047302246 0.12785721 0.16168165 0.10192013 -0.12345505 0.005514145 0.006111145 0.07252717 0.025865555 -0.019752502 0.034027576 0.036569595 -0.155262 0.043506622 -0.017896652 -0.06425476 0.052074432 -0.10461044 0.018575668 -0.14003372 -0.05188465 0.016626358 -0.050394535 -0.04535675 -0.012626648 -0.0799675 -0.021945953 -0.16918945 0.010498047 0.11956978 -0.011712432 -0.07564163 0.011921883 0.16075134 -0.009778976 -0.03400612 -0.12420273 0.040992737 -0.008487701 0.07733917 0.08364487 0.0013551712 0.055836678 -0.07832718 0.07700157 -0.031223297 -0.09189606 -0.04433441 -0.0017323494 -0.087620735 -0.01914978 0.044729233 -0.073036194 0.101169586 0.074295044 -0.11323547 -0.15158272 0.0007171631 0.034189224 -0.078967094 -0.01064682 -0.057519913 0.0026397705 0.038407326 0.03689325 0.011924744 -0.04189536 0.021835327 -0.041297913 0.0854187 -0.056819916 -0.0096616745 0.04158497 0.023909569 0.0330925 -0.01984024 -0.0076236725 0.051006317 0.014251232 -0.036945343 0.03626442 0.061790466 -0.07105732 -0.08861923 -0.07861328 0.038532257 0.032045364 3.8146973e-06 0.059387207 0.00069761276 0.08306122 0.07185173 -0.03514719 -0.011252284 0.06389618 -0.03077507 0.0895319 0.08390808 0.1259709 0.016708374 0.018491745 0.018683746 0.0039367676 -0.083976746 -0.11730194 0.023443222 -0.0418396 0.0007648468 -0.023187637 0.0063648224 -0.17169571 0.06498146 -0.031841278 0.015187502 -0.022720337 0.02767849 -0.025335312 -0.019382477 -0.045684814 0.034843445 0.1103363 0.08072853 -0.064453125 -0.05329895 0.13742256 -0.07286072 0.071740866 -0.004500866 0.05907631 0.041023254 0.0041999817 -0.091005325 0.11304474 0.042100906 0.07270813 0.007816315 -0.077775955 -0.0074653625 0.12898254 0.011040211 0.096523285 0.09892273 0.04473877 -0.021173477 -0.03260708 -0.048107147 0.03514862 -0.019893646 -0.035406113 -0.031028748 0.04939747 0.07878876 0.059402466 0.0074033737 0.07639456 -0.122089386 0.06005764 -0.089019775 0.022850037 -0.028284073 0.013832092 0.082930565 -0.012630463 -0.13241768 0.021080017 0.03251171 -0.057469368 -0.055948257 -0.06128502 7.6293945e-05 -0.021347046 0.0072898865 0.11953068 -0.031390667 0.08303833 -0.029987335 0.13694763 0.072621346 0.09798241 -0.030036926 0.024829865 0.06445694 -0.20916367 -0.009596825 0.071144104 0.12333059 0.012223363 0.0859108 -0.18858147 0.028848648 -0.12844324 0.03622341 0.037899017 0.063477516 -0.06932068 -0.14960098
alexis_de_tocqueville 0.07127476 -0.020729065 -0.023227692 0.11331558 -0.03753662 0.02829361 0.07929754 -0.10402393 0.04569149 0.02612114 0.09367752 0.07526803 -0.050828934 -0.052749634 0.041953564 -0.079380035 -0.040664673 -0.0699234 0.018217087 -0.08299255 -0.2275505 0.019500732 -0.014802933 -0.1376152 -0.047950745 0.06210327 0.12553453 -0.06451416 -0.024902344 0.028366089 0.029541016 -0.05475235 -0.1691513 0.18211174 -0.062533736 0.07829285 0.071819305 0.15112305 -0.0725646 0.02782631 0.07267475 -0.009933472 0.01084137 -0.023674011 -0.11239624 -0.07108688 -0.2136364 0.038311005 0.048761368 0.03907013 0.0010528564 0.1281147 -0.07966137 -0.015211105 -0.051345825 -0.055101395 0.07617569 0.01695919 -0.04953766 0.09876442 -0.06291771 0.19864655 0.090681076 0.020447731 -0.025239944 0.016609192 0.026784897 0.016857147 0.022725463 -0.05266571 -0.04722497 0.024093628 -0.00018692017 -0.11784363 -0.008369446 0.06030941 -0.018042564 -0.07212925 0.0054779053 -0.04468918 -0.07243824 0.035219193 -0.011988163 -0.10360718 0.09283638 -0.07904053 0.06971073 -0.009151459 0.060955048 -0.05324936 0.06497669 -0.06864548 0.038692474 0.11815214 -0.04166794 0.18522644 -0.062052727 -0.0049608946 -0.059921265 0.08698654 -0.0092458725 -0.058258057 0.046264887 -0.037582397 -0.08656311 -0.09409015 0.10482788 -0.006814003 -0.010559082 -0.0058937073 0.079948425 -0.03676319 -0.0045776367 0.04489708 0.08298111 -0.024734497 -0.034698486 0.094076395 0.05316925 -0.06365013 0.05625534 -0.07301712 -0.031808853 0.07437134 -0.0001449585 -0.06759262 -0.03331375 -0.051452637 -0.011678696 -0.05368042 0.042236924 0.112962246 -0.016742706 -0.1951561 -0.008674622 0.018724442 -0.015625 -0.024869919 0.04826355 0.025676727 -0.08053589 -0.07564926 0.013996124 -0.017531872 -0.024150848 0.042720795 0.02721405 0.047641754 -0.008535147 0.0086631775 0.008842468 -0.04717636 -0.06752396 0.022663116 0.046691895 -0.05099106 0.043556213 0.08442116 0.05181551 0.08242035 0.056271553 -0.11197281 0.12307739 -0.14427376 0.0073776245 0.12682915 -0.06709671 0.03624916 0.12627411 0.044831276 0.0013341904 -0.08860397 0.031226158 -0.023979187 0.02173233 -0.04597473 0.0120821 0.088624 0.019248962 0.03142929 0.14342499 0.0805912 -0.0074768066 -0.042430878 -0.038150787 -0.06483078 -0.10684967 -0.14602995 0.03286934 -0.06974077 0.108605504 0.008852005 -0.061553955 -0.022241592 -0.010502338 -0.08274746 0.042297363 -0.0024194717 0.06869888 -0.029632568
alfred_de_musset -0.014127731 0.037269592 0.042142868 0.007068634 -0.00730896 0.11236191 -0.018024921 -0.094828606 0.085614204 -0.10427475 0.04825592 0.004238844 0.018175125 0.12827301 0.070268154 0.011295319 -0.0019760132 -0.038524628 0.084991455 -0.011184692 -0.12295151 0.0075302124 -0.007188797 -0.064338684 -0.06743145 -0.015813828 -0.013054848 0.10425949 0.026138306 0.07650757 -0.0034103394 -0.023532867 -0.038194656 0.09241867 0.012944818 0.0831871 0.017611504 0.09467316 -0.05158472 0.121263504 0.020504951 0.028663635 0.05309677 0.044128418 -0.13793945 -0.005903244 -0.05083561 0.13037872 0.009752274 -0.009185791 0.072444916 0.12412453 -0.06893492 -0.0021944046 0.027500153 -0.017673492 0.05760765 0.041937828 0.002216339 0.009469986 0.13008308 0.04859543 0.07108307 0.041511536 0.15003777 0.103507996 -0.04709053 -0.031790257 0.05625856 -0.010707855 0.16652396 0.023902893 -0.011669159 -0.14388275 -0.005508423 0.1965971 -0.028208733 -0.04892254 -0.05027771 -0.048625946 -0.04656887 -0.08068085 0.111588955 0.053014755 0.12748146 -0.019111633 0.054133415 0.011837006 -0.01845932 -0.01620102 0.12522793 -0.040966034 -0.021743774 0.05785227 0.076690674 0.18076515 -0.035546303 0.020720124 0.019973755 0.027090073 0.04654312 -0.030227661 0.069895744 0.053764343 -0.008232117 0.029730156 -0.03453827 -0.044062614 0.08996582 -0.031492233 -0.10637665 0.044308662 -0.020551682 0.015975952 0.042964935 -0.084186554 0.09738922 0.0943892 -0.0003643036 0.03677082 -0.06153679 0.03837967 -0.15086555 0.17269135 0.03491211 -0.075424194 0.12260246 0.0049362183 0.10539055 -0.08861923 -0.11009824 -0.042104244 -0.08089447 0.07728195 -0.07199097 -0.0033283234 -0.020957947 0.0007362366 -0.10544586 -0.13097382 0.023649216 -0.0773716 -0.06683731 0.025267124 -0.012275696 0.101890564 -0.03017044 -0.06367874 0.03169465 -0.04100418 -0.012001038 0.07061577 -0.027139664 0.00079345703 0.08730888 -0.06796646 0.018253326 0.056617737 0.021561146 0.082733154 0.035451412 -0.023199081 -0.024147034 0.013034821 0.033927917 -0.11668587 0.018098831 -0.104745865 0.10585785 0.06727409 0.08325958 -0.08420372 0.04181671 -0.08654785 0.07404709 0.029304504 0.14617538 -0.018660069 0.0075302124 -0.03662491 0.012046814 0.016614914 -0.08497238 -0.10387802 -0.0005712509 -0.0057258606 0.0013618469 -0.095078945 -0.028375626 0.0738492 0.14997423 -0.12652016 -0.05842209 0.14055061 0.029919624 -0.1469698 -0.03778267 -0.016732216 0.07217026 -0.10134125
alfred_russel_wallace -0.054096222 -0.093559265 -0.017051697 -0.05357361 -0.15008545 -0.06137848 -0.058005095 -0.044786453 0.008822441 -0.04990387 -0.070804596 0.0053350925 -0.006883621 -0.0933609 -0.007954121 -0.08663368 -0.03958893 0.0032691956 -0.10538864 -0.03918457 -0.08488464 -0.020591736 0.008926392 -0.10658646 -0.009102821 -0.007961273 0.1043973 -0.008178711 -0.0013427734 -0.105392456 0.03125763 -0.041744232 -0.07472229 -0.03555107 -0.044889808 0.038993835 -0.030731201 -3.8146973e-05 -0.05589056 0.13305473 -0.04236126 -0.088394165 -0.09738159 -0.059265137 -0.01058197 -0.0507946 -0.066700935 -0.1625061 0.04133606 -0.04333496 -0.08647537 -0.04891777 -0.013712883 -0.06993103 0.04579544 0.03495407 -0.05272484 -0.116806984 -0.18021774 -0.05522728 -0.012773514 0.18383789 0.006832123 -0.039157867 -0.07091713 -0.054216385 -0.046049118 -0.040620804 0.031534553 -0.053905487 -0.05392167 -0.1454544 -0.040607452 -0.09411621 -0.09473038 -0.08716583 -0.058734894 -0.029968262 0.022850037 -0.107997894 -0.08529663 -0.06275368 -0.078039646 0.0055236816 0.035024643 -0.16567993 -0.0006198883 0.10521698 -0.03168106 -0.08562088 1.9073486e-06 -0.05624771 0.026554108 -0.084748745 -0.025821686 0.04726219 -0.11135578 -0.057853103 0.022541046 -0.08903885 -0.06634426 0.0041885376 -0.12274891 -0.100349426 0.048755646 -0.053513214 0.08513641 -0.11833382 0.029434204 0.028495789 -0.046894073 -0.0713253 -0.06842232 -0.027834892 0.09974289 -0.027664185 0.02000618 -0.037237167 -0.02929306 -0.03038311 -0.056411743 0.08697128 -0.14692116 0.045783997 -0.056228638 -0.0031280518 -0.003938198 -0.08614731 -0.030742645 0.1028595 -0.05562198 -0.10094881 -0.050720215 -0.10805893 -0.10027313 0.010587692 0.029525757 -0.11214638 -0.11771393 -0.039684296 -0.047332764 -0.116485596 0.0008010864 -0.0115122795 -0.042625427 -0.03699112 -0.09854889 -0.08536339 -0.073109865 -0.022052765 -0.056159973 -0.09726906 0.0031261444 -0.08175278 -0.07701397 -0.035770416 -0.0051116943 0.058966637 -0.030232906 0.025726318 -0.11866093 -0.06406784 -0.067230225 -0.14870453 -0.17066193 0.06259298 -0.045370102 -0.03776741 -0.035316467 -0.055386543 -0.07061958 -0.13661957 -0.07135296 -0.12717056 -0.060626984 0.10267258 -0.038378716 -0.11618137 -0.108119965 -0.066093445 -0.029418945 -0.09963703 0.07080078 -0.027023315 -0.041409492 -0.07589722 -0.04327774 -0.13328075 -0.002571106 0.066380024 -0.08339965 -0.038049698 -0.10451889 -0.05743599 -0.08035803 -0.05888176 -0.039115906 -0.076268196 -0.034000397 0.096450806
allemande -0.03985405 -0.033477783 0.016613007 -0.09131241 -0.033187866 -0.05254364 -0.019264698 -0.055069923 0.030592918 -0.07308769 -0.07490921 -0.07867217 -0.08360481 0.011169434 -0.046918392 0.07382774 -0.028968811 -0.021175385 -0.0030345917 -0.04723358 0.013961792 0.03233719 -0.09416771 -0.024215698 0.027020454 -0.07584858 -0.044030905 0.012687683 0.09968567 -0.11663437 -0.018196106 0.0353508 -0.13465881 -0.06139183 0.0062646866 0.019798279 -0.049467087 -0.034500122 -0.07309675 -0.08582735 -0.100110054 0.029556274 0.012252808 -0.17759705 -0.036727905 -0.05217552 -0.15814114 -0.13674927 -0.01931572 0.1561203 -0.069438934 -0.03775215 -0.032739162 0.07177639 0.006549835 0.00011062622 -0.03549385 -0.026453972 -0.029037476 0.006559372 -0.016115189 -0.06258392 -0.046388626 -0.03867054 -0.033712387 0.009613037 0.017377853 0.0269413 -0.082224965 -0.027290344 0.056260616 -0.10362244 0.04026413 -0.09017944 -0.019908905 -0.062026024 -0.06379604 -0.11833668 -0.04327774 -0.030265808 0.031454086 -0.13195038 -0.04265499 -0.14490509 0.14081764 -0.040153503 0.024967194 0.044776917 0.06333542 0.020183563 0.058667183 -0.12137604 -0.07518387 -0.077356815 -0.045700073 0.05053711 -0.035368443 0.035956502 -0.07072449 -0.11553764 0.0006723404 -0.015602112 0.0062344074 -0.09139252 -0.08866882 -0.020724937 -0.014091492 0.04728985 0.1098938 0.0063667297 -0.07357025 -0.10893345 -0.048856735 -0.025903225 0.10784149 -0.05957985 0.024309158 -0.1066854 -0.08099365 -0.068341255 0.058057785 0.0016822815 -0.053518295 -0.043628693 -0.103248596 -0.12877274 -0.03536415 -0.103961945 -0.067007065 -0.1103363 -0.1327194 -0.18311834 -0.044384003 -0.07000542 0.004047394 -0.20262337 -0.049030304 0.019550323 -0.0010681152 0.06838989 -0.042800903 -0.09459305 -0.05199051 0.06645918 -0.14476395 -0.03117752 -0.025810242 -0.039497375 -0.13734889 -0.075042725 -0.016853333 -0.03358555 -0.076999664 0.009513855 0.058078766 -0.097019196 -0.016803741 -0.03010559 -0.0728116 0.08218765 0.006297946 -0.0013465881 -0.056922913 -0.10988617 -0.2026329 0.010278702 -0.082330704 -0.013048172 -0.049987793 -0.059720993 -0.13954926 -0.08335495 -0.02055645 -0.066036224 -0.13535309 -0.026351929 0.045884132 -0.028559685 -0.20217514 -0.10793686 -0.10394287 0.10272026 -0.039409637 -0.081832886 -0.036187172 -0.097766876 0.10572815 -0.08626127 -0.049095154 -0.042706013 0.024946332 -0.017749786 -0.047569275 0.04336357 0.02109003 -0.08138275 -0.11105347 -0.061570168 -0.017101288 -0.025966644
aller 0.0655632 0.051086426 0.014595032 -0.0005302429 0.022148132 0.03687668 -0.08308458 0.017918587 0.079707146 -0.0035419464 0.03263855 -0.12725997 -0.110630035 -0.062301636 -0.035008907 -0.033691406 -0.0387249 0.117456436 -0.06144333 -0.15019226 0.10400772 -0.041511536 -0.06459236 -0.083847046 -0.042469025 -0.040132523 -0.0039992332 -0.0741806 0.086128235 -0.116539 0.045204163 0.05066681 0.07754707 0.09657669 -0.009536147 -0.10355377 -0.0765028 0.034347534 -0.009919643 0.06002617 0.014523506 0.094688416 0.046333313 0.015144348 0.11407852 -0.02335453 0.02649498 0.009239197 0.05381584 0.07596588 -0.05039215 -0.12910652 -0.0018548965 -0.039936066 0.21961975 0.14458275 0.048369408 0.025183678 -0.04924774 0.089372635 -0.08776665 0.024353027 0.092767715 -0.15492916 -0.028892517 -0.18075943 0.07360649 0.0626235 -0.01472342 -0.030324936 0.07030776 0.03376007 -0.020786285 0.071495056 0.104839325 -0.0633173 0.013160706 0.019442558 -0.006286621 -0.07765198 -0.035305023 -0.01984024 0.008597851 -0.010017395 0.141325 0.074798584 -0.0924263 -0.041549683 0.101631165 0.08576965 0.062600136 -0.07167816 -0.10029793 -0.14176035 0.014736176 0.102573395 -0.049357414 0.09153712 -0.021995544 -0.039619446 0.08266163 -0.004989624 -0.019859552 -0.16452026 -0.11584473 -0.024245903 0.028476715 -0.11370754 0.13699341 0.10606003 -0.013404846 0.10268688 -0.0012130737 -0.028829575 0.072948456 0.032564163 0.05921173 -0.13665366 -0.045518875 0.058855057 0.072790146 0.032730103 -0.014331818 0.08154297 0.02695465 -0.14379501 -0.074248314 0.07696152 0.118413925 -0.016002655 0.0061024427 0.06248331 0.03772354 0.009468079 0.03806305 -0.075149536 0.078804016 0.047109604 0.060028076 -0.025554657 -0.019079208 -0.081329346 -0.016356468 0.035021305 -0.096206665 -0.023536682 -0.0826416 -0.100580215 -0.024935484 -0.017341614 0.021461487 -0.0072517395 0.09820557 0.07948685 0.08119869 0.020088196 -0.016368866 0.021390915 -0.0371871 0.06782532 -0.025543213 -0.07910538 -0.061408997 -0.106123924 -0.07543945 0.042398453 0.016168594 0.059728622 -0.055000305 -0.07045841 -0.066025734 -0.012067795 0.044966698 -0.09882736 -0.028553009 0.042222977 0.026906967 0.113907814 -0.04553604 -0.07185364 -0.14509964 0.0692606 0.08610344 -0.0692215 -0.046372414 -0.020004272 -0.012016296 -0.030456543 -0.100912094 0.0012030602 0.041543126 -0.02071762 -0.008808136 0.009124756 0.0480628 0.106882095 -0.09939766 0.07191086 0.03747368 0.04870224
alliance -0.0347414 -0.0022354126 0.008314133 0.056007385 0.012313843 0.0059127808 -0.0027635098 -0.053118706 0.10848522 0.004508972 -0.050685883 0.11427522 0.01822853 0.0923996 -0.032789707 -0.052825928 -0.0665741 0.04932213 -0.08215618 -0.07057953 0.0068359375 0.003742218 -0.008462906 -0.014377594 -0.07351589 -0.053878784 -0.09662938 -0.08698654 -0.096092224 0.02072525 0.122478485 0.044719696 -0.11493111 -0.046367645 0.034891605 -0.0053215027 -0.03373909 -0.15822601 -0.0693326 -0.09056854 -0.0072841644 0.0032653809 -0.050060272 -0.07928467 0.049873352 -0.023661613 -0.10735226 -0.014980316 -0.034036636 0.108997345 -0.032203674 -0.009923935 0.10646677 0.09127331 0.09954834 0.14728165 0.08003235 -0.023385048 -0.13888168 -0.022468567 -0.10286331 -0.03578949 -0.055294037 0.028918266 0.08922863 -0.06588936 -0.0002002716 -0.03894329 0.06234026 -0.042087555 -0.0055158436 -0.14381409 -0.07165527 -0.017593384 -0.022117615 -0.12866783 -0.046862602 -0.13544655 0.09004974 0.024944305 -0.021655083 -0.13907433 -0.055500507 -0.057546616 0.09110832 0.105155945 0.084046364 0.054294586 0.1104393 -0.06327057 0.026029587 -0.1545906 -0.123903275 0.051144123 0.08008194 -0.12279892 -0.006340027 0.15369987 -0.011077881 -0.0069618225 -0.19067001 -0.052490234 0.087414324 -0.24211884 0.061496735 0.017132826 0.007537842 -0.08189392 0.10460663 0.038822174 -0.04681015 0.005915642 -0.04883766 0.09114647 0.09183502 -0.0110759735 0.041233063 0.051469803 0.07976532 -0.05438137 -0.006090164 0.11116791 -0.024101257 0.026016235 -0.14025116 -0.06373596 -0.069470406 0.02857399 0.07307243 -0.023059845 -0.10751009 -0.0031013489 -0.033002853 -0.08029747 0.0129470825 -0.08077812 0.09054184 0.045064926 0.024627686 -0.055137634 -0.035331726 -0.072366714 -0.057222366 0.09389579 -0.10907745 -0.039123535 -0.075660706 0.0049533844 -0.10048485 -0.07434082 -0.20315552 -0.03657341 0.0166893 0.004055023 -0.034401894 -0.05385208 -0.06760025 0.08191395 0.021748543 0.08377838 0.04999578 -0.021839142 -0.075805664 -0.016690254 -0.09365082 0.056725502 -0.04591942 -0.08279991 -0.11541748 0.037532806 -0.0259552 -0.059373856 -0.023907661 -0.033374786 -0.16049194 -0.071214676 0.060590744 -0.05384493 -0.054512024 -0.04555893 -0.006427765 -0.0031833649 -0.045627594 -0.16031265 0.06267357 -0.14527893 0.11691284 -0.07924914 -0.08172035 -0.026628971 -0.08217859 0.08057785 -0.086444855 0.13095284 0.032896996 -0.04897976 -0.043151855 0.08226395 0.06532478 -0.07574463
am 0.052279472 0.092033386 0.052886963 -0.08976364 0.114551544 0.05548477 -0.055749416 0.07613087 -0.17366505 -0.056106567 -0.08182144 -0.06919837 0.02549553 -0.050979614 0.025342464 0.0884285 0.11621475 -0.064891815 0.06737518 0.015571594 0.05540085 0.08326721 0.071437836 0.029598236 -0.06812763 -0.018417358 -0.19805479 0.05860138 -0.04486847 -0.07394409 -0.052230835 0.08434677 -0.021440506 0.038352966 -0.05497682 0.0070648193 -0.14459991 -0.06852722 0.018175602 0.0576725 0.051012993 -0.008621216 0.043384552 0.007522583 -0.02708435 0.00406456 0.028227806 0.22520828 0.12880135 0.1136322 0.08963776 0.14994049 -0.1256814 0.047013283 0.008872986 0.022388458 -0.0054092407 0.039717674 -0.0029258728 0.060682297 0.073568344 -0.08660126 -0.015756607 0.056239605 -0.13747501 0.034683228 -0.003293991 -0.002161026 -0.051814675 -0.04857254 0.09566596 0.028450012 0.0250206 -0.10811615 0.14064407 0.024889946 0.056502342 -0.08378506 0.08818054 0.05690384 0.05376053 -0.02850151 -0.077664375 0.08507538 -0.06747246 0.06626892 0.10725021 0.013183594 -0.004180908 0.044647217 -0.05775833 0.01259613 0.012275696 0.07488632 -0.04353714 0.022922516 -0.0100979805 -0.014795184 -0.08149719 0.004840851 0.085967064 0.017494202 0.04028344 -0.010223389 -0.06831169 -0.05418174 0.1300621 0.10784435 0.06767273 0.063201904 0.033576965 0.024123192 0.06357384 0.04634285 0.058776855 0.05311966 0.058559418 0.00936985 -0.07154274 0.10845852 0.019779205 -0.018188477 0.0037384033 -0.030765533 -0.07762909 -0.091804504 0.087654114 -0.051187515 0.0027828217 -0.0018081665 -0.082235694 0.10702276 0.0423584 0.08432007 0.014587402 0.015226364 -0.0025482178 0.10463905 -0.19273376 0.051849365 -0.061639786 -0.048776627 -0.003030777 0.04610777 0.042396545 -0.054336548 -0.02218628 0.06282234 -0.0010840893 0.0021209717 0.01663971 -0.028244972 0.053417206 0.042713165 -0.024501324 -0.051273346 -0.09922409 0.08899307 0.029990673 0.046051025 0.012298584 0.09384918 -0.023796082 0.07560921 0.13614655 -0.010576248 0.084163666 -0.091127396 0.017707825 -0.032752037 0.110518456 0.026226044 0.103051186 -0.051742554 0.0897789 -0.07616043 -0.1655283 0.069494724 0.016532898 0.008888245 -0.09214401 0.035600662 -0.15853691 0.12751389 -0.08938503 -0.057315826 0.11153793 0.07601881 -0.031892776 -0.10219383 0.014194131 -0.0033092499 -0.04000473 -0.077480316 0.011416912 0.025432587 -0.11216354 0.04858303 0.041618347 -0.06043625
amadou 0.023648262 0.027755737 -0.03501892 0.032093048 0.1821289 -0.07704544 -0.15164328 0.048160553 0.06854153 -0.12296867 -0.161129 -0.12511563 -0.03538704 0.051483154 0.04230833 -0.0065631866 -0.08762932 0.102775574 0.05301857 -0.010498047 0.031417847 0.025436401 -0.07247543 0.058612823 0.09690857 -0.02226162 0.056022882 -0.068740845 -0.055137634 -0.08774567 -0.06211853 0.0785141 0.063014984 0.09064293 0.010068774 -0.037273407 -0.06413746 0.10090637 -0.0386343 0.05385685 0.032206535 0.010658264 0.0077934265 -0.08097839 0.04919052 -0.040454865 -0.09578991 -0.051288605 -0.06704712 0.114601135 -0.028308868 -0.14772987 0.0756371 0.0035543442 0.09459686 0.069257736 -0.04629326 -0.01935482 -0.014331818 0.08955574 0.0029525757 -0.08302307 -0.07582283 -0.18444443 0.06868076 -0.056749344 0.078891754 0.047329426 0.07085407 -0.09057045 -0.06062287 0.08657074 0.0018081665 0.03778076 0.038333893 0.008229256 -0.025471687 0.023423195 -0.06330109 -0.16812897 0.00962162 -0.075424194 -0.017953873 -0.069021225 0.053382874 -0.0044937134 0.0019245148 0.037441254 -0.039150238 0.031143188 0.010201454 -0.01966858 -0.026321411 -0.04565096 0.05928421 -0.033382416 -0.03234148 0.040894926 -0.09682846 0.02560234 0.07762146 -0.04210663 -0.0084299445 -0.031944275 -0.20550728 0.058632314 0.0050582886 -0.013661385 0.030151367 0.049209595 -0.00012207031 0.12598705 -0.052667618 0.11501789 0.028224945 0.0016326904 0.014661789 -0.1113503 0.031093597 0.07192993 0.098342896 0.116825104 0.15019417 0.006263733 -0.03378296 0.014642715 -0.096010685 0.060417175 0.030227661 -0.06390762 -0.008003712 -0.11095095 -0.052980423 0.031261444 0.14442062 -0.14365768 0.021640778 0.014083862 0.19202423 -0.0036392212 -0.0012588501 -0.151371 0.0058135986 -0.06645024 -0.12887955 -0.07199097 -0.025562286 0.035219193 0.031442404 -0.034118652 0.102142334 0.007455826 -0.058588028 0.017112732 0.0069589615 0.05783844 -0.008724213 -0.057593346 0.088567734 -0.038894653 0.027676225 0.042757034 -0.050827026 -0.011250496 -0.03781128 -0.0127334595 -0.024614334 0.122039795 -0.04179001 -0.13538742 0.08580494 0.0059871674 -0.09949303 -0.019226074 -0.045726776 -0.09916115 0.17802906 -0.041730404 -0.12250519 -0.040050507 -0.039848328 0.012144089 -0.08558464 -0.048355103 0.0089559555 -0.04075241 0.0814476 0.04057789 -0.049369812 -0.09459591 0.18657029 -0.11171341 0.03059578 -0.073272705 0.04288721 0.08155155 0.04734993 -0.033228874 -0.06854248 -0.11928177
amarante -0.09248257 -0.0792923 -0.025730133 -0.036830902 0.06329346 -0.11123276 -0.008043766 -0.019429207 -0.1346674 -0.046022415 -0.003353119 0.060985804 -0.050218582 -0.16215515 -0.011269093 0.14794731 -0.051864624 -0.09030914 -0.017030716 -0.019729614 0.1389656 0.11569214 -0.09372139 0.00093460083 0.035942078 -0.065979004 0.009628773 0.09145355 0.03387451 -0.096206665 -0.032958984 -0.059329987 -0.012107849 -0.012559891 -0.09661424 0.016540527 -0.08473587 -0.02709961 -0.0021910667 -0.023565292 -0.089159966 -0.031967163 -0.07337189 -0.18696594 -0.022064209 -0.12388229 0.016145706 -0.14305496 0.009912491 0.07056427 -0.07701111 0.00689888 -0.10656643 0.16879368 -0.034500122 0.04688835 -0.055538177 -0.09967899 -0.035606384 -0.053541183 -0.053762436 0.041908264 -0.09388924 0.0584116 0.028715134 0.060310364 -0.08844948 -0.025684357 -0.13193762 0.049057007 0.035660774 -0.019424438 -0.016483307 -0.10257721 -0.07782745 -0.017022133 -0.07370663 0.004714012 -0.12446594 0.067108154 0.004740715 -0.017580032 -0.14492273 0.032684326 0.1013813 -0.02432251 -0.07811642 -0.027706146 -0.0043525696 0.08966446 -0.07369518 -0.031841278 -0.03332901 -0.05384493 -0.0030326843 0.122787476 -0.09183788 -0.056352496 -0.048049927 0.004650116 0.09590244 0.043121338 0.12219262 0.0062408447 0.046951294 -0.07016437 -0.14041138 0.08351803 0.050109863 0.10897446 0.052726746 -0.073506355 -0.010030746 0.081121445 -0.055080414 -0.08522034 -0.006011963 -0.01700759 -0.044822693 -0.03142357 -0.073841095 -0.046772003 -0.07422829 0.02029419 -0.06679535 -0.022350311 -0.07164383 0.024963379 -0.017507553 -0.008529663 0.027832627 -0.119520664 -0.090717316 0.07437515 -0.0061035156 -0.038526535 -0.074035645 -0.04058647 0.08256531 0.092357635 -0.11074829 0.0402565 -0.1344719 -0.029098034 -0.05640793 -0.050540924 -0.011253357 0.0051002502 -0.046865225 -0.021152496 0.03276825 -0.02160263 -0.040180206 -0.05790329 0.0049705505 0.024326324 0.02646637 -0.14476585 -0.058795452 0.05910492 0.034359932 0.053676605 -0.06512451 -0.08366585 -0.09033966 0.019773483 -0.03145218 -0.064352036 0.025382996 -0.16941738 -0.066765785 -0.114795685 0.01179409 0.03151703 -0.07058334 0.014862061 0.048703194 -0.0766592 -0.06858063 -0.11700821 -0.064582825 0.11586952 0.055145264 0.0782814 -0.053165436 -0.07896042 0.0835495 -0.009189129 -0.020872116 -0.0021138191 -0.017248988 0.031190872 0.003326416 -0.012231827 -0.032474995 -0.09431362 0.017028809 -0.1564722 0.013767242 -0.009857178
amazone 0.032538414 0.012458801 -0.03634262 -0.011962891 0.10277939 -0.09087753 -0.028450489 -0.026873589 0.080283165 0.035528183 0.016021729 -0.008384228 -0.074985504 0.11375427 -0.019930363 -0.14909363 0.07354164 -0.010932922 0.05829239 -0.082901 -0.19686508 -0.06453323 -0.0556736 0.08530426 -0.087999344 0.07990074 -0.040542126 0.0449028 -0.02645874 0.053821564 -0.09335327 0.18621826 -0.15242767 0.059885025 0.011019111 -0.04682541 -0.028858185 0.081848145 -0.055165768 0.016838074 -0.034953117 -0.021972656 0.008113861 0.04837036 0.032936096 0.16489983 -0.122097015 -0.043354034 0.010349274 -0.057289124 -0.013671875 -0.0040798187 0.04181099 -0.040312767 0.057556152 0.07264519 -0.03665161 -0.08093929 0.059944153 -0.057691574 -0.097042084 0.05845642 0.05926323 -0.0024709702 -0.09039974 -0.1008358 0.036912918 -0.035591125 -0.027415872 -0.071891785 0.065947086 0.04736328 0.06716156 0.004508972 -0.008041382 -0.025671005 -0.13918877 -0.12529087 -0.013080597 0.057689667 0.01588726 -0.00067710876 -0.07474184 0.058689117 -0.022226334 0.019439697 0.10626507 0.06166458 0.072387695 -0.0755806 -0.02111721 0.02130127 -0.13899422 -0.019872189 0.047519684 0.014625549 -0.0672884 0.0198704 -2.2888184e-05 -0.04890442 -0.095648766 -0.13276672 -0.04089713 0.12812805 -0.078653336 0.08854969 0.015777588 -0.034368515 -0.034614563 0.05102539 -0.09875488 0.05144596 -0.030557632 -0.00908947 0.03340149 -0.008266449 0.0800724 -0.08379722 -0.052167892 -0.014736176 -0.061309814 0.062927246 0.0018196106 0.0021781921 -0.1190567 -0.029031754 -0.101997375 0.15579987 0.01515007 0.13397217 0.070313096 -0.08869648 0.0792675 -0.17236328 0.039482117 0.024597168 0.13034058 0.06538582 0.100486755 0.015048981 0.037864685 0.029359818 -0.090239525 -0.068139315 -0.08119583 -0.0033226013 0.018585205 -0.049461365 -0.049409628 0.024745941 0.017555237 -0.044981003 -0.03665352 0.17868042 -0.08003998 -0.07114792 -0.15870285 -0.043284416 -0.001912117 -0.07805252 0.04012394 0.024957657 0.020824432 -0.0969677 0.05583191 0.015399933 -0.038446426 -0.041604996 -0.04360962 -0.07762909 0.05400753 -0.027929306 -0.024868965 -0.0888176 -0.042049408 0.02135086 0.14204693 -0.013148308 0.10089874 0.010803223 0.0040664673 0.027910233 0.10866547 -0.13225174 -0.0022907257 -0.081840515 -0.11207962 -0.043167114 -0.1314106 -0.015061855 -0.0921458 -0.09599495 -0.024728775 -0.014814377 0.05034685 -0.045746803 0.030237198 0.019148827 0.003643036 -0.044483185
amen -0.04085064 -0.07736206 -0.06790161 -0.03227997 -0.07549667 -0.07990646 0.026149273 -0.01695919 0.0026397705 -0.070482254 -0.104156494 -0.057337523 -0.061546326 -0.021614075 -0.010971546 -0.047424316 -0.096990585 0.023136139 -0.081588745 -0.082588196 0.02930832 0.018569946 -0.033340454 -0.043006897 -0.016981125 -0.06928253 -0.044972897 -0.037921906 0.005531311 -0.1545639 -0.054656982 0.012924194 -0.12359619 -0.015703201 -0.045071244 -0.038188934 -0.026561737 0.023822784 -0.029407024 -0.09466553 -0.06736469 -0.048103333 -0.053661346 -0.12545776 -0.010002136 -0.034615517 -0.09735584 -0.11474991 -0.015512466 0.031173706 -0.13086319 -0.04044342 0.03357029 0.052227974 0.0027999878 0.046483994 -0.11494064 -0.035565376 -0.030155182 -0.041719437 -0.061811447 -0.037612915 -0.06873131 -0.100141525 0.042928696 -0.13225174 0.014007568 -0.04016924 -0.025399804 -0.023557663 -0.024249762 -0.12260437 -0.027015686 -0.02508545 -0.1177063 -0.11127567 -0.032883644 -0.16428852 -0.018119812 -0.009796143 0.017554283 -0.09493065 -0.022856236 -0.1007328 0.06642914 0.08378601 0.018932343 0.05196762 0.024456024 -0.0051879883 -0.006594658 -0.07313919 -0.045583725 -0.06309271 -0.0027770996 -0.023843765 -0.0074653625 -0.018883824 -0.1333313 -0.048736572 0.01536274 0.0028305054 0.0179981 -0.11266327 -0.0005493164 -0.016710922 -0.04673767 0.014302254 0.05003357 -0.027404785 -0.023349762 -0.07003689 -0.06448364 0.07223797 0.090156555 -0.036174774 -0.025814056 0.00475955 -0.07249069 -0.08058357 -0.029901505 0.040534973 -0.007936478 -0.06338501 -0.057266235 -0.040081024 -0.13371038 -0.05954361 0.041677475 -0.030380249 -0.11722481 -0.15081167 -0.046489716 -0.07060051 -0.037677765 -0.17101479 0.025875092 -0.0020751953 0.055793762 0.09189224 -0.08440399 -0.118896484 -0.008156776 0.00980401 -0.10947037 -0.09051132 -0.06008911 -0.002735138 -0.11198783 -0.09593201 -0.080444336 -0.030281067 -0.06328583 -0.063568115 0.004717827 -0.006072998 -0.013656616 -0.018245697 -0.055609226 -0.0052833557 0.014468193 -0.022392273 -0.084495544 -0.07000446 -0.1748581 0.017702103 -0.09022522 -0.011209488 -0.081848145 -0.06329727 -0.12702656 -0.0643425 -0.04940319 -0.013366699 -0.13132095 0.011968613 0.13345051 -0.024667263 -0.17218399 -0.1068306 -0.05863571 0.04750824 -0.026613235 -0.063373566 0.008875847 -0.08465576 0.020080566 -0.00972271 -0.011226654 -0.053425312 -0.015859485 -0.05542755 -0.043792725 -0.007940292 0.028607845 -0.0050029755 -0.10953522 -0.03866577 -0.063596725 -0.11387253
amine -0.07213688 0.110443115 0.019672394 -0.05974579 0.06817627 -0.01897049 -0.068942785 0.06252766 0.03187275 -0.122076035 -0.013484955 -0.083856344 0.04801178 0.14518738 0.07005596 0.06625557 0.068805695 0.09798241 0.018669128 0.06569672 -0.04033661 -0.015106201 -0.22307777 -0.11601639 0.012706757 -0.0044994354 -0.09713316 -0.033657074 -0.02986145 0.07850647 0.010879517 0.02500534 -0.14642715 -0.14882278 0.006385565 0.02381897 -0.038434982 0.12337875 0.015194416 0.08180237 -0.073031425 0.1235199 0.07960892 -0.03967285 -0.010715485 0.015499115 -0.13398838 0.0030403137 0.12063217 0.014377594 -0.015037537 -0.13083267 -0.02616787 0.017107964 0.19390106 -0.0147686 0.055333138 -0.0147333145 -0.13362885 -0.05104637 0.05067253 -0.1528244 -0.043779373 -0.04794216 0.020868301 0.14858246 -0.03042221 0.06724167 0.00559783 -0.047275543 -0.056729287 -9.918213e-05 0.022468567 0.020324707 0.07593155 -0.026791573 0.0031547546 0.019658089 -0.011558533 -0.013217926 0.08704376 -0.029426575 0.014813423 -0.14926147 0.15287781 -0.032600403 -0.093691826 -0.027309418 0.017539978 0.061763763 -0.021695137 -0.14725113 0.008640289 0.021953106 -0.025268555 -0.026031494 -0.07029247 0.02778256 -0.11593628 -0.17636108 0.015160561 -0.041046143 0.018122911 0.02294159 -0.16536713 0.053302124 -0.044265747 0.047574997 -0.108047485 -0.0035552979 -0.056850433 -0.17510033 -0.014890671 -0.10759735 -0.017944336 0.10729599 0.0705452 -0.0049455166 -0.012676239 -0.015611649 -0.007827759 -0.04682541 0.0024700165 0.033535004 -0.08106232 -0.084415436 -0.035003185 -0.08893585 0.018526077 -0.17428589 -0.07255876 -0.11185312 0.042892456 0.034196854 0.07753754 -0.06850624 -0.032295227 0.13061714 -0.12275696 0.058124542 0.048322678 0.022377014 -0.05988884 0.05569315 -0.1468811 0.08771896 -0.05693817 -0.09229469 -0.003164053 0.05337143 0.008491516 0.011151314 -0.12831116 -0.07980728 0.019313812 -0.1403656 0.0068855286 0.029886246 -0.010909557 -0.056777954 0.037798405 -0.1010437 -0.036369324 -0.035313606 -0.051452637 -0.078053474 -0.089832306 -0.076797485 0.09598541 -0.18606853 -0.07081318 -0.062202454 0.00059986115 -0.032749176 0.01203537 0.11997414 -0.13306332 0.00470829 -0.0724411 -0.0405159 -0.08639526 -0.03300476 -0.03470993 0.07260895 -0.046813965 0.008190155 0.13772583 -0.05447769 -0.097969055 -0.013967991 0.14531195 -0.12994194 -0.032409668 -0.10717392 -0.049906254 0.008875847 0.031642914 -0.04362297 -0.13120842 0.07685089
ampère -0.050185204 -0.17624664 -0.040225983 -0.032924652 0.049621582 -0.049678802 -0.0007805824 -0.025349617 -0.055565834 -0.032434464 -0.049129486 0.069530725 -0.08152962 -0.064834595 -0.07199907 -0.020540237 -0.0076141357 0.052757263 -0.005098343 -0.14173889 0.012378693 0.05886841 -0.06686592 0.04011917 -0.000831604 -0.10480118 -0.023513317 0.036315918 -0.11450958 -0.13673401 -0.013183594 0.033138275 0.029335022 -0.007692337 0.010214448 -0.024475098 -0.071308136 -0.044433594 -0.023675442 -0.00086021423 -0.015063286 -0.14665222 -0.16036224 -0.037704468 -0.11778641 -0.06487656 -0.026456833 -0.042224884 -0.079992294 0.14942169 -0.112350464 -0.004743576 -0.0077810287 0.035035133 -0.0014190674 0.13178825 0.059280396 -0.07978153 -0.04990387 -0.039319992 0.0015354156 0.018791199 -0.053850174 -0.010603905 -0.12356758 -0.23595428 -0.028253555 -0.03697586 -0.02109778 -0.030075073 0.0012412369 -0.19883728 -0.048801422 -0.09552765 -0.033638 -0.041924477 0.0057611465 0.028487206 0.015365601 -0.07371521 -0.079670906 -0.13458061 -0.08217859 -0.055267334 0.19879341 -0.06590271 -0.047110558 -0.0047569275 0.03092575 -0.07326889 0.033589363 -0.114543915 -0.048854828 -0.1016202 -0.020000458 -0.0030670166 -0.040369987 0.01640141 -0.075912476 -0.08671951 -0.039046288 -0.03152466 -0.04397559 -0.19786072 0.04093933 -0.044529602 -0.021759033 -0.03244877 0.072654724 -0.012973785 0.067588806 0.06821728 -0.0042324066 -0.050531387 0.06747818 -0.0594635 0.00033569336 -0.09226394 -0.045066833 -0.07878685 -0.05678177 0.12778854 0.15386009 -0.03842163 -0.11803436 0.013706207 0.01771164 0.106048584 -0.084524155 0.0023345947 0.048796296 -0.05213785 -0.054706573 -0.054164886 -0.052368164 -0.020460129 -0.03805542 -0.025541306 -0.024551392 -0.04265213 -0.12496948 -0.07572174 0.011981964 -0.0035853386 -0.07865524 -0.09570694 -0.07400513 0.017246246 -0.07481933 -0.060825348 -0.059272766 -0.077754974 0.027324677 -0.059246063 -0.018422127 -0.12166977 -0.04372406 -0.028554916 -0.14357328 -0.017982483 -0.07586956 0.0401268 0.03823471 -0.008089066 -0.028633118 -0.07629585 -0.1290474 -0.015081406 -0.03717804 -0.04441738 -0.08179569 -0.065387726 -0.052559853 -0.05504608 -0.2067833 0.0029144287 0.060421944 -0.033148766 0.03249359 -0.10486221 -0.09070587 0.11855507 -0.05996704 -0.021816254 -0.044345856 -0.05363083 0.0741806 -0.0012850761 -0.039304733 -0.001106739 -0.036658168 -0.026182175 0.05074501 -0.014619827 -0.058964252 -0.04633999 0.019744873 -0.02915287 0.010654449 0.022857666
anas 0.030467033 -0.0574646 -0.067604065 -0.014904022 0.050498962 -0.13142395 0.014729977 -0.05856228 -0.048727036 -0.05076027 -0.029071808 0.05451989 -0.10852623 0.0035858154 -0.09751415 -0.04250145 -0.18862915 -0.014932632 -0.087278366 -0.13554764 -0.039253235 0.006980896 -0.0573864 -0.074417114 0.004937172 -0.07144356 -0.08330393 -0.06796265 0.08078003 0.013103485 -0.048671722 -0.025878906 -0.029008865 -0.11038399 -0.06891906 0.012493134 0.022800446 -0.029312134 -0.047118664 -0.026595116 -0.12620258 -0.105400085 -0.10676193 -0.03504181 -0.0047721863 -0.112957 -0.033189774 -0.13795471 -0.0019702911 -0.010231018 -0.075935364 -0.061979294 0.0006761551 -0.050177574 -0.07280731 0.009441376 -0.04597187 -0.021128654 -0.06491089 -0.013168335 -0.05777359 0.11418915 -0.010946274 -0.085131645 -0.16027641 -0.07130623 0.00071525574 -0.12970924 -0.04830849 -0.035865784 -0.1016874 -0.09794617 -0.009967804 -0.0989151 -0.06451416 -0.03354931 -0.031912804 -0.059012413 -0.14340973 -0.09322357 -0.036100388 -0.0064640045 -0.030824184 -0.0794754 -0.10998726 0.016967773 -0.053616524 -0.1210022 -0.010730743 -0.08081055 -0.06901169 -0.094371796 -0.1672306 -0.11557531 0.034564972 -0.0065689087 0.044983864 -0.03757298 -0.15641785 -0.03359604 0.17364216 0.05305481 0.09442639 -0.06977844 0.0052986145 -0.09603374 -0.08117676 -0.020933151 -0.010055542 -0.08026695 -0.025074005 -0.040644646 -0.016748428 -0.06300449 -0.054267883 -0.124967575 0.045621872 -0.054469824 -0.02220726 -0.10300732 -0.10316658 -0.09266281 -0.08503151 -0.06951141 -0.081352234 -0.040821075 -0.099559784 0.052619934 -0.03427887 -0.01083374 -0.006696105 0.013820171 -0.09651184 -0.05706215 -0.03012085 -0.093767166 -0.026359558 -0.032079697 -0.06867981 0.05086136 -0.08114052 -0.12653732 -0.1196785 -0.059607744 -0.080890656 -0.036899567 -0.1018486 0.053676605 -0.06057048 -0.10317612 -0.14782715 -0.083226204 -0.0481205 0.034564972 -0.12911224 0.038974762 0.088912964 -0.092659 -0.13684797 -0.04555893 -0.016526222 -0.008998871 -0.09378815 -0.023126602 -0.103500366 -0.0019798279 -0.071985245 -0.11421776 -0.11532974 -0.06798172 -0.120726585 -0.06236267 -0.02540493 -0.12974167 -0.012462616 -0.14284325 -0.023173332 -0.056585312 -0.15570831 -0.06752396 0.0051727295 0.009234428 0.029577255 -0.100421906 -0.034784317 -0.077739716 -0.03363037 -0.05593443 -0.09997177 0.055778503 -0.025807261 -0.020050049 0.0940361 -0.020332336 -0.041125774 -0.058680534 0.07960701 -0.09575939 -0.016597748 -0.09813309
anis 0.027207375 -0.0042495728 -0.06283951 -0.123744965 -0.024597168 -0.1797142 -0.06016779 -0.0681963 0.05011654 -0.06848335 -0.07921982 -0.07167411 -0.011613846 -0.023239136 0.0017313957 -0.012666702 -0.0723114 0.026679993 -0.03549385 -0.040908813 -0.06580734 -0.036010742 -0.09109688 -0.028301239 0.019981384 -0.00894165 -0.04853773 -0.0770874 0.048461914 -0.0069732666 -0.12031555 -0.002445221 -0.08882904 -0.08529854 -0.06083238 -0.037094116 -0.030612946 0.017578125 -0.056054592 0.0037784576 -0.04851055 0.03437805 0.025367737 -0.15449524 0.003692627 -0.04078293 -0.12038994 -0.21385574 0.099206924 0.010871887 -0.08305359 -0.10049248 -0.06750393 -0.001830101 -0.047683716 0.01679802 -0.089473724 -0.07814121 -0.1346817 -0.04676628 -0.018789291 -0.020591736 0.0032787323 -0.06256008 -0.0035114288 0.09680939 -0.051584244 -0.052986145 -0.1324259 -0.026443481 -0.04534051 0.011398315 0.027858734 -0.009681702 -0.022590637 -0.06328678 -0.03244686 -0.03770542 -0.08308411 -0.11630249 -0.009358406 -0.07061577 -0.05501795 -0.041381836 0.0021381378 -0.0897522 -0.031119347 0.05322647 -0.03194046 -0.051570892 -0.0641737 -0.029827118 -0.047916412 -0.11353731 -0.03989792 -0.082901 -0.02837658 -0.08829439 -0.091171265 -0.059497833 0.065506935 0.0033874512 0.041260004 0.06581116 -0.074417114 0.009425476 -0.0675354 0.046347618 0.007019043 -0.03030777 -0.034706116 -0.13271046 -0.019475937 0.019292831 -0.014141083 -0.004470825 0.022857666 -0.08429885 -0.07482147 -0.038381577 0.0064811707 0.017620087 0.019460678 -0.08905792 -0.06163788 -0.08245468 -0.059833527 -0.08508301 -0.052541733 -0.040786743 -0.026488662 -0.16602945 0.0016899109 -0.030078888 0.04284668 -0.19257927 -0.016845703 -0.06604195 0.023727417 0.05701828 -0.031097412 -0.06344223 -0.06473923 -0.032760143 -0.028179169 -0.016078949 -0.04006195 -0.02160263 -0.10448241 -0.027317047 0.011955261 0.0108680725 -0.07411575 -0.0046195984 -0.0541687 -0.056179047 0.015113831 -0.087026596 -0.011615276 -0.059181213 -0.01299572 0.015163422 -0.10848999 -0.106126785 -0.15552521 0.025373459 -0.02223587 -0.025457382 -0.09165192 -0.14204311 -0.12561893 -0.040729523 -0.020348549 -0.062187195 -0.09045029 0.013473511 0.12402058 -0.03674221 -0.17972565 -0.035217285 -0.10547638 0.030542374 -0.077423096 0.038669586 -0.07934952 -0.08262253 -0.025550842 -0.053348064 -0.113767624 -0.017555714 -0.04593551 -0.116147995 0.03366089 -0.17818642 0.00072813034 -0.053725243 0.0006713867 -0.11753178 -0.15493393 0.0050354004
année -0.07159805 -0.03429413 -0.0022125244 0.04240036 -0.054157257 0.13903046 -0.039270878 0.04951191 -0.22738075 0.043540955 0.008312225 0.1140964 0.123140335 0.0015716553 -0.011098862 0.052980423 0.110507965 -0.08156967 0.082372665 0.066352844 0.03963852 0.08950806 -0.0021457672 -0.10776901 -0.02867508 0.06584549 0.09428573 0.08692169 0.07886505 0.032512665 0.080265045 -0.13928604 -0.025468826 -0.09387016 0.034956574 0.06842041 -0.009242058 -0.024002075 -0.035003185 0.0569005 0.0063028336 0.12130737 0.059947968 -0.08824158 0.015399933 0.005947113 -0.033316612 -0.11155701 0.027656555 -0.11236954 0.013206482 0.0044670105 -0.082519054 0.008151054 0.0010375977 0.036052704 -0.13157082 -0.015572548 -0.044124603 -0.028100967 -0.018716812 -0.006389618 -0.12586021 0.15937996 0.18355751 0.2003212 -0.108263016 0.031576157 0.04705608 0.0005950928 0.016938 0.041984558 0.14455032 -0.021736145 0.100429535 0.08488083 0.059494972 -0.0037136078 0.043670654 -0.0008392334 0.036456108 0.030244827 0.07371807 0.04745865 0.0059375763 -0.089027405 -0.044774055 0.031848907 -0.024269104 0.002216339 -0.055236816 -0.01971817 0.080358505 0.048579693 0.017116547 0.11272049 -0.005376816 0.01259625 -0.07665634 0.09966087 0.0050649643 0.0129852295 0.0425539 0.023162842 -0.074863434 0.076744154 0.032981873 0.025393486 0.15441895 0.07085228 -0.057754517 -0.063593864 0.006341934 0.10085964 -0.042690277 -0.022352219 0.06272125 0.10759711 0.0726223 0.06759834 -0.035520554 -0.09506607 -0.15382195 0.14360046 0.013084412 0.021648407 0.06973791 -0.02858162 0.11096382 -0.032722473 -0.1096679 -0.07807827 -0.08213234 0.0054798126 0.0876503 -0.020839691 -0.08021927 0.026500702 -0.062278748 -0.06767273 0.05260086 0.051122665 -0.027553558 0.025252819 0.06119156 -6.484985e-05 -0.043384552 -0.08928871 0.004571438 0.048732758 0.014167786 0.009342194 0.12705421 0.011257172 0.0018281937 0.015960693 -0.047153473 0.04468155 0.101941586 0.11893463 0.0723052 -0.054914474 -0.04813385 -0.0042705536 -0.09790039 0.014127731 0.0016918182 -0.00015449524 0.025405884 0.036600113 0.022686005 -0.016954422 0.096977234 -0.06783295 0.07305527 -0.081707 0.004044533 0.015106201 -0.025245667 -0.08809662 0.12733841 0.009723663 0.07299614 0.1415062 0.01710701 -0.04972458 0.08449936 -0.093565226 -0.023378372 0.15333605 -0.011321425 0.17675781 -0.06762886 -0.02868843 0.006198406 -0.064255714 -0.003686905 -0.0030708313 0.030345917 -0.044487
arche 0.06999302 0.042015076 -0.03976822 0.044956207 0.00730896 -0.009059906 0.02829504 -0.027729988 0.03513241 0.0027446747 -0.026424408 0.100780725 -0.039964676 0.0045928955 -0.0102620125 -0.04483223 -0.04258728 -0.02646637 0.02107048 -0.023513794 -0.044078827 0.0042419434 -0.039705276 0.027881622 0.027122498 -0.006134033 -0.00031995773 -0.064697266 -0.15692139 0.038238525 -0.008483887 0.068416595 0.0012588501 0.08790398 -0.1195482 0.026382446 -0.010456085 -0.045135498 0.0076355934 -0.060689926 -0.011950493 -0.031173706 -0.057273865 0.012954712 0.051940918 0.045703888 -0.04134941 0.031871796 0.055505753 -0.07067108 0.0021514893 0.008760452 0.10290623 -0.07321262 -0.0716095 0.13566399 0.014469147 -0.0363245 0.0014266968 -0.046461105 -0.029745102 0.10569 -0.036211014 0.058960915 -0.007204056 -0.17815399 -0.004343033 -0.03950882 -0.025454164 -0.040603638 -0.035140008 0.039413452 0.043727875 0.027183533 0.057121277 -0.06987858 -0.0063848495 0.008315086 0.051071167 0.08097839 0.051524162 0.015565872 -0.046778202 0.070755005 0.03778267 -0.02798462 0.007119179 0.050785065 -0.021808624 -0.008876801 -0.0060682297 0.024311066 -0.020633698 0.03285551 0.015522003 0.049697876 -0.0031995773 0.03239262 0.05067444 0.03358078 -0.04593563 -0.01675415 -0.005523443 -0.055770874 -0.046279907 0.016139343 -0.032196045 0.0038061142 -0.07086182 0.0092430115 0.029281616 -0.056599617 0.013406754 0.09918785 -0.0703392 0.064315796 -0.022064209 0.053793192 -0.060539246 0.026727676 0.008037567 -0.006000519 0.0051784515 0.047027588 -0.009269714 -0.045681 -0.08623123 0.11465454 0.03602028 -0.0066986084 0.03900206 0.07481527 -0.013202667 -0.11019516 0.011962891 -0.029661179 0.07299805 0.013277054 0.071395874 -0.023044586 0.029144287 -0.002986908 0.00075149536 0.06547594 0.047016144 -0.08862686 -0.007835388 0.061985016 0.05979371 -0.002231598 -0.0028152466 0.016117096 -0.021549225 0.08174515 -0.13104248 -0.0006980896 -0.047416687 -0.06896019 0.0027127266 -0.05039215 0.00085163116 -0.033237457 -0.08325195 0.007566452 0.09600067 0.04553032 -0.082775116 0.05774498 -0.05280304 -0.05021572 0.06747341 -0.022068024 0.05667782 0.03794098 0.019290924 -0.008865356 -0.011416435 0.03570652 0.066185 0.005306244 0.0845871 -0.007909775 0.01461792 -0.029476166 0.057369232 -0.07444382 -0.18875885 -0.0043063164 0.021203995 -0.100441456 -0.053809047 0.09588814 0.067230225 -0.07070351 0.03637266 0.044846535 0.04352188 0.038474083 0.030857086 -0.19290161
archipel -0.01422596 0.07129669 0.029678345 0.038410187 0.04024887 0.0017051697 -0.01964283 -0.019217491 -0.03691387 0.0077285767 -0.017253876 0.078047514 -0.019792557 -0.0012207031 -0.108777046 -0.046808243 0.11938858 -0.037963867 -0.0047283173 0.057201385 -0.06232834 -0.018650055 -0.069662094 0.065071106 -0.0074071884 -0.0073719025 0.026705265 0.054649353 -0.09579468 0.05355835 -0.07555771 0.100177765 0.037641525 0.09749031 0.00010788441 0.05111313 0.0026340485 0.024673462 0.067798615 0.021368027 -0.00935173 -0.03376007 -0.058631897 0.056495667 -0.09365463 0.008482933 0.012403488 0.11159134 0.012086868 0.022415161 0.12841034 -0.0053577423 0.007385254 0.003645897 -0.07342148 -0.00884819 0.043928146 -0.11558437 -0.052391052 -0.06478691 0.086164474 0.12445068 0.03854561 0.08966255 -0.09657478 -0.07942772 -0.05980873 0.025648117 0.18092382 0.065582275 -0.06852624 -0.03176117 -0.15811157 0.1000061 -0.03073883 -0.010262489 0.004896164 0.11526966 0.008426666 0.062618256 -0.045657158 0.028230667 -0.07768297 0.07742691 0.027414322 0.030326843 -0.03622055 -0.03611374 0.060668945 0.013317108 -0.020542145 0.0004310608 0.01332283 0.09729338 -0.053207397 -0.00032043457 -0.108854294 -0.026123405 0.06964111 -0.034944534 -0.059739113 -0.047454834 0.030111551 -0.07167816 0.076345444 -0.12539737 -0.034614563 -0.036195755 -0.08367157 0.099458694 0.039726257 0.16086674 0.04626274 -0.004802704 0.08587265 -0.12522507 -0.043819427 -0.047755003 0.08150482 -0.0404768 -0.03992653 0.022678375 0.13622856 0.03073883 -0.019798279 0.08594513 0.063964844 0.14435768 -0.040164948 0.088970184 0.079108834 0.15156984 -0.025009155 0.06523514 -0.013504028 0.15121269 0.008033752 -0.031373978 0.06022644 -0.1037941 -0.12979507 -0.022439957 -0.033412933 -0.02297163 0.049495697 -0.113651276 0.014202118 0.122745514 0.07304788 -0.010726929 -0.010574341 -0.018304825 0.05724907 -0.0248909 -0.050206184 -0.046577454 -0.10442352 -0.062996864 -0.045045376 -0.0025863647 -0.08498955 -0.09502792 0.1341095 0.07081509 0.10675812 -0.16169071 -0.16545296 0.10167885 -0.03881836 -0.10992527 0.1480093 -0.09341431 -0.024424553 -0.035751343 0.012504578 -0.04037857 -0.050014496 -0.050705433 0.15718079 0.030277252 0.058013916 -0.10949993 -0.022483826 -0.022434235 -0.10965538 0.00017166138 -0.0206604 -0.032272816 0.017227173 -0.086565495 0.08746445 -0.022201538 0.06577301 -0.074323654 -0.00588274 0.03632641 -0.06442642 0.0060281754 0.10532379 0.0087890625
argent -0.032940865 -0.014129639 0.047660828 -0.010761261 0.09428406 0.032051086 0.07377052 -0.06549263 0.05478573 -0.027578354 0.044261932 0.09582019 -0.0074329376 -0.09474182 -0.039251328 -0.100170135 0.009860992 0.005508423 0.012014389 -0.12742615 -0.094322205 -0.07835388 0.04227829 -0.042491913 -0.068995476 -0.025170326 0.01766944 -0.049369812 -0.1710968 0.09185028 -0.03432083 -0.007991791 0.053531647 0.017721176 -0.034789443 -0.085681915 0.010004044 -0.0031280518 -0.087619305 0.08541298 0.06085682 -0.038230896 -0.12747955 0.053970337 -0.09386444 -0.037590027 0.023359299 0.17034912 0.089006424 -0.06952667 0.020557404 0.0344162 -0.017817736 -0.0010108948 -0.0957222 -0.0017566681 0.085027695 -0.050852776 -0.12446594 -0.014814377 -0.0013999939 -0.0036354065 0.033334732 0.0045113564 -0.21013546 -0.09210777 -0.09379387 -0.07302284 0.048084855 -0.00047683716 -0.024054497 -0.037826538 -0.07073593 -0.029159546 0.050689697 0.006418228 -0.026122093 0.009525299 0.060863495 0.12895966 0.002951622 0.12698174 -0.08802223 0.016139984 -0.055950165 -0.047042847 -0.0593071 -0.041225433 0.02551651 0.046527863 -0.16107655 0.00774765 0.0073719025 0.1450839 -0.05821228 0.050239563 -0.0060954094 -0.03963387 -0.078762054 0.024402618 -0.052369118 -0.11003876 -0.041062117 -0.14411926 0.040374756 -0.14989106 -0.08917999 -0.10544109 -0.022163391 0.08773804 -0.07634735 0.052754402 -0.044914246 -0.1366849 -0.073329926 -0.07250404 -0.009338379 0.00043654442 0.017244339 -0.022542 -0.10978699 0.0050239563 0.099466324 0.070625305 -0.037605286 0.019460678 0.024180412 0.09859276 -0.063840866 -0.06029892 0.07591927 0.11326933 -0.079660416 -0.003370285 -0.026557922 -0.0073871613 0.0804863 -0.033527374 -0.19572449 -0.045978546 -0.08327103 -0.020238876 -0.053679466 -0.020127535 -0.060390472 -0.1438675 -0.05809784 -0.07040024 0.05103445 0.006252289 -0.08685303 -0.01491642 -0.018953323 0.019268036 -0.09887028 -0.03427887 -0.025432587 0.03362751 0.0053830147 -0.025733948 -0.14107752 0.01660347 -0.044914246 -0.0086250305 0.14519882 0.0042004585 -0.036323547 -0.03877449 -0.020664215 -0.108942986 0.03627014 -0.021837234 0.099583626 -0.06921768 0.037937164 -0.020206451 -0.045488358 -0.022922516 0.091682434 -0.016540527 0.021324158 -0.09926605 -0.08020973 -0.009170532 0.020597458 0.04981613 -0.06037903 -0.025844336 -0.04434395 0.08758354 0.0777446 -0.03138542 -0.07267952 0.00463295 -0.008304596 -0.08253479 0.012086868 0.110235214 0.07258797 -0.005332947
aristote -0.015239716 0.060020447 -0.01925087 0.0831337 -0.011058807 0.0024642944 -0.007548332 -0.0055122375 -0.089772224 -0.0003528595 -0.08328247 -0.10774112 0.10861015 0.10211182 0.060659885 -0.025968552 0.078125 0.15061188 0.015209198 -0.034339905 -0.114349365 -0.08647156 0.02927208 0.0141944885 -0.022761345 0.00039863586 -0.03692484 0.06170273 0.056030273 -0.0194664 -0.08743286 0.106975555 -0.107069016 0.029848099 -0.011891723 0.09372711 0.02035141 0.07268524 0.0825181 0.049583435 0.060580254 -0.03982544 0.051311493 0.106796265 0.030326843 -0.07703209 0.09130764 0.051353455 0.0009441376 -0.046253204 0.0006828308 0.03310013 -0.06049061 0.005002022 0.14696884 -0.05489731 0.0341053 0.10083103 0.057533264 -0.010923386 0.0040512085 0.072071075 0.060598373 -0.12962723 0.054411888 -0.060401917 0.07993698 -0.018042088 -0.071334004 -0.01815033 0.10956386 0.05130005 0.022571564 0.06629181 -0.017204285 0.019028664 0.034870148 -0.093447685 0.08763504 -0.030605316 0.06591892 0.0022640228 0.102250576 -0.035320282 0.07402992 0.03804016 0.054537773 -0.02683258 0.007106781 0.035362244 0.17171478 0.00064468384 0.02428627 -0.03497362 -0.029819489 -0.03952408 -0.015091896 0.024435163 0.047332764 0.02696991 -0.065366745 0.10662842 -0.001904726 0.08110809 -0.0024204254 0.13957454 0.008296967 0.06497097 -0.15213013 -0.08836365 0.056381226 -0.020871162 0.029027939 0.020424843 0.11639786 0.016153336 0.017742157 0.08775425 0.12166405 0.048052788 0.0950737 0.0705986 0.0909462 -0.04748535 0.012428284 0.030675888 0.14194822 -0.042461395 0.012592316 -0.08702469 -0.010820746 -0.08113623 0.103279114 -0.07742691 -0.08760071 -0.11286354 -0.12698364 0.033664703 0.048606873 0.03068161 0.092292786 -0.12560272 0.046811104 0.027466297 0.07452011 0.16349411 0.065402985 0.08852577 -0.006100893 -0.06631851 0.011077881 -0.07239723 -0.030742645 -0.042942047 0.0299654 -0.0780983 0.0071258545 0.06683159 0.11473417 -0.087371826 0.031977415 -0.017642975 0.07234955 0.054719925 -0.037029266 -0.08844757 0.08045578 0.024124146 0.09291077 0.16588306 -0.0114860535 -0.0019798279 -0.037337303 0.019481659 0.031036377 -0.117687225 0.07329464 0.09197903 0.09341812 0.03857422 -0.0022659302 0.08062935 -0.06482315 0.026626587 -0.011767387 0.029846191 0.016143799 -0.029978752 0.07126427 0.04683447 0.030920625 -0.1409092 -0.08606148 0.050577164 -0.05466795 0.02156353 0.011638641 0.08197117 0.020401001 0.011962891
ark 0.03849888 0.021995544 -0.053440094 0.04263687 0.006324768 -0.00045394897 0.02060461 -0.03310108 0.07181454 -0.037233353 -0.083004 0.0061762333 -0.067430496 0.05317688 -0.04303789 -0.06045723 -0.038619995 -0.0010757446 0.037626266 0.015975952 -0.03486252 -0.027130127 -0.012605667 0.03685379 0.01613617 -0.00015258789 0.015427113 -0.030212402 -0.14611816 0.04863739 -0.06793213 0.050868988 -0.0048446655 0.07716179 -0.12263048 -0.001083374 -0.06782913 -0.05682373 0.02203989 0.008401871 0.008404732 -0.13212585 -0.025718689 -0.022445679 0.048797607 0.058094025 0.0041828156 -0.035388947 -0.03922081 -0.059806824 -0.04411316 -0.006772995 0.115906715 -0.10835934 -0.094436646 0.07536888 -0.029842377 -0.03131962 0.036766052 -0.0075206757 0.037698746 0.09296417 -0.00056648254 0.049378395 0.09179497 -0.110954285 0.012075424 -0.02589798 -0.0020319223 -0.042678833 -0.069319695 0.059555054 0.03646469 0.058189392 -0.00617218 -0.007256508 -0.06119442 -0.04075718 0.04408264 0.0821991 0.059824944 0.0072956085 -0.050013065 0.059295654 0.048784256 -0.038238525 0.0017175674 0.10815811 -0.043354034 -0.0013084412 -0.019495964 0.09578323 -0.074588776 0.0049624443 0.050800323 0.053146362 0.0172472 -0.03071773 -0.0018157959 0.0700798 0.04577732 -0.022857666 -0.040282965 -0.01133728 -0.04649353 0.07229169 -0.04043579 0.016379356 -0.042297363 -0.06680679 0.012851715 -0.021260262 0.0082798 0.13626671 -0.070949554 0.064193726 0.024627686 0.052206278 -0.03429413 0.06824684 -0.013446808 0.03370285 0.052541733 0.013580322 -0.036125183 -0.033046722 -0.06630325 0.15533447 0.03071022 0.040420532 0.005005479 -0.024153233 -0.048603058 -0.07839584 0.014038086 -0.092458725 0.0013427734 -0.016141891 0.1124115 -0.105976105 0.03656006 -2.670288e-05 -0.008892059 0.09761095 0.025531769 -0.11963272 -0.0517807 0.021457672 0.07551026 -0.018222809 -0.028083801 0.029361725 -0.14357376 0.084430695 -0.10406494 -0.015956879 -0.095085144 -0.13072777 0.030102253 -0.12107086 0.027661324 -0.011142731 -0.059417725 0.022947311 0.03691864 -0.021364212 -0.04140091 0.11453819 -0.11066437 -0.01054287 0.03600216 0.004573822 0.08057308 0.08396149 0.009037018 -0.035720825 0.08697224 0.0062265396 -0.012672424 -0.068912506 0.08745575 -0.07968712 -0.03237915 -0.027004242 0.117549896 -0.024181366 -0.1322403 0.027798176 0.029088974 -0.06821489 -0.033057094 0.022584915 0.051879883 -0.111047745 0.088008404 0.045823097 0.025672913 0.024680138 -0.014308929 -0.1456604
armée -0.017144203 0.008300781 -0.059638977 -0.10011673 0.10580063 -0.007846832 -0.013480425 -0.05174923 -0.09284592 -0.042016983 -0.0075035095 -0.09919906 -0.19062233 0.0024871826 -0.09192991 -0.14953041 -0.09205055 0.027563095 0.031936646 -0.07860947 -0.058254242 -0.010612488 -0.060865402 0.022441864 -0.08555031 -0.03773594 -0.09461379 0.10734177 -0.06270599 0.019931793 -0.017105103 -0.062374115 -0.021120071 -0.14464378 -0.102187514 -0.07095337 -0.058000565 -0.032600403 -0.062309742 0.002664566 -0.06591034 -0.08126068 -0.02344513 0.007873535 -0.073394775 -0.040405273 0.07426453 0.032627106 0.017633438 -0.01424408 0.039993286 -0.09034538 -0.022068977 0.06655407 -0.0011520386 -0.17988777 -0.03442955 -0.038689613 -0.0039138794 -0.042482376 -0.040632248 -0.00018310547 0.080114365 0.0021028519 -0.10812378 -0.1221962 -0.07354927 0.07753801 0.005108595 -0.036821365 0.06199172 -0.07723236 -0.15313339 0.01374054 -0.025821686 -0.12344074 -0.07676411 -0.15775967 -0.07518005 -0.066474915 -0.07298565 -0.03349495 -0.048870087 0.046909332 -0.076963425 0.01550293 -0.102760315 -0.097221375 -0.05034256 -0.14109421 -0.018875122 -0.04989624 -0.067873 0.050853252 -0.009700775 0.047344208 -0.037905216 -0.020010829 0.0154418945 -0.10128021 0.11580372 -0.017692566 -0.016950369 -0.10887146 0.0012741089 -0.046874687 0.017669678 -0.06802273 -0.0060424805 -0.023899078 -0.14024734 -0.072888374 -0.0063381195 -0.13603401 0.03824234 -0.1016407 -0.086688995 -0.01623702 -0.04049301 -0.068240166 0.040906906 -0.054466248 -0.03968239 -0.014183044 0.004173279 0.029226303 0.082229614 0.12216759 -0.13266182 -0.03528595 -0.14687574 -0.018223286 -0.097332 -0.016262054 0.014835358 -0.03643036 -0.10456848 -0.06272316 -0.001701355 0.01878357 -0.08104324 -0.07736015 -0.11431503 -0.1851325 -0.023723602 -0.13751602 -0.026245117 0.011049271 -0.031081915 0.00989151 -0.04361725 -0.077121735 -0.054447174 0.011142731 0.024832249 -0.03206253 -0.022399902 -0.04340744 -0.049971104 0.0027999878 -0.08228302 -0.087085724 0.054721832 0.0016994476 0.021766663 -0.030622482 -0.09880257 0.0191288 -0.084674835 -0.037186623 0.026655197 -0.053325653 -0.06662178 0.009559631 -0.032974243 -0.12423134 -0.1545515 -0.1785841 -0.00598526 -0.012134552 -0.036224365 -0.015449524 -0.025842667 -0.07332611 -0.04046917 -0.010894775 -0.054771423 0.028742313 0.039136887 0.014373302 -0.012724757 0.042905807 0.009250641 0.015352249 -0.045572758 0.013215065 -0.100299835 0.029271126 -0.08241081 0.033439636
