8157 40
10-membered 1.8858935 0.70997584 0.5384606 -0.020518888 -0.2477104 0.026667368 -0.67224455 0.043839417 -0.2833503 0.06926382 1.2067052 1.100102 0.45488715 0.22799404 -0.8780853 -1.5378015 -0.23004667 -1.2554425 0.6579794 -0.09672087 0.8385471 0.9509463 -0.27903047 0.61788034 -0.5049797 -0.15032284 0.27815223 0.17653921 -0.39023468 -0.93359613 0.22791584 -0.16827372 -0.23344155 0.96938753 1.1352589 -0.7388154 -0.2941355 -0.90271145 0.20605609 0.32104245
American -2.131343 -0.653135 -1.1825982 -0.49266747 0.038414665 -0.18234496 0.06328477 0.113701925 -0.07682002 -0.78970164 0.8292779 -0.53511024 -0.5922067 -0.04290833 0.56099916 0.15705572 -0.29445538 0.1186995 -0.3535435 0.21569982 0.2685165 -0.24826005 -0.01929918 0.0482075 0.017498048 0.6236769 -0.59690696 0.8684805 0.12902533 -0.07787415 0.22301723 0.060804203 -0.3449157 -0.4195689 -0.7969284 0.5020425 -0.10715668 -0.008833283 -0.83605105 0.43956015
Anaprox 0.016331779 -0.46486777 0.09995945 -0.2521701 -0.19740619 0.14561658 -0.1517109 0.028995853 0.013928701 0.546289 0.043449067 0.34827808 -0.013059208 0.26286656 0.027435552 0.34074566 -0.280127 -0.06739915 0.08175094 0.32204497 -0.10825517 -0.054911416 0.10462385 0.3596638 -0.36536306 -0.033153594 -0.17486806 0.19340238 0.08555493 -0.5921227 -0.18343419 -0.06028977 -0.3084094 -0.048463408 0.07892299 0.18921466 0.4248686 0.35762438 -0.14240961 0.24779859
Aqua-Lung 1.8167557 0.12604026 -0.57707953 -0.35514215 -0.06867311 0.091214426 -0.2293224 0.49117425 -0.23432046 0.9585274 1.1523961 0.40480593 0.16471617 -0.049705118 -0.09854571 0.25704566 0.041260935 0.6530748 0.11045025 0.40618694 0.4103801 0.0060544778 -0.4792639 -0.27838567 -0.045781195 -0.1502162 -0.6281073 -0.43433395 -0.36834192 0.022647858 0.31342098 -0.17225352 -0.028963186 0.31759152 -0.56040674 -0.27362677 0.7723984 -0.46002948 0.53362465 0.12173856
Aquitania 0.52189803 -0.9706981 0.24336122 -1.7755665 0.16142112 0.5275919 0.24132729 0.06948779 0.5659032 0.6213864 -0.233494 0.15690245 0.3671857 -0.04932316 -0.07390709 0.24183497 -0.8088541 -0.20338242 -0.6761349 0.67897636 0.21154049 0.3325478 0.3289968 1.7883872 0.07512218 -0.1527109 -0.32307893 -0.4514601 0.08426566 0.05318188 -0.5291783 0.34228116 0.50745237 0.50173247 0.44840935 0.47483638 0.7052445 0.90614504 0.54342055 0.7223917
Arafat -1.5564928 -1.0699264 -1.6341486 -0.21953109 0.5699997 -0.097951986 0.57048136 1.3228344 0.110656865 1.5193563 0.75120026 -0.6865254 0.14090875 -0.15553951 0.33310378 0.3480982 -1.2395687 0.3335822 0.8263973 -0.6068904 0.4036746 -1.2384515 -0.21583252 -0.3661457 -0.14692043 -0.15736048 0.68765134 0.358578 -0.7850278 0.34922755 -1.0299717 0.456697 0.39913115 0.013127513 -0.35072175 -0.25134322 0.09680573 0.09006268 0.25943875 -1.0923477
BA -2.6709907 0.06464981 -0.2583501 -1.895181 -0.3182835 -1.0118308 -0.3849938 -0.063616045 0.94960964 0.18667044 0.39826754 0.0010812681 0.1837441 -0.061635036 0.2643895 0.5944186 0.44195455 -1.076477 -0.29520112 0.0060321284 -0.47355646 0.2946365 -0.11432139 0.016040979 -0.36744693 -0.18717037 -0.07637337 -0.5140321 0.065166496 -0.096272536 0.55017734 0.5270212 -0.435164 0.5033351 -0.18053392 -0.22382444 -0.51689553 0.03838218 0.5239366 0.5084931
Bahrein 0.8590492 -0.31302148 -0.0190491 -1.1761506 0.2499411 -0.1097027 0.45473772 0.1240492 -0.090555176 0.13670112 -0.013161293 0.027316261 0.4869539 -0.4015716 -0.4661945 0.82850516 -0.5092579 -0.018033585 -0.36144993 0.07657272 -0.24367158 0.36251795 -0.065034494 0.5533977 -0.35341614 0.07851567 0.022791034 0.056230146 -0.41537285 0.37891883 -0.5723969 -0.10860471 -0.56689095 -0.10211833 0.45490026 0.07041406 0.1687815 0.66436017 0.12378288 -0.37330776
Bath -2.9075882 -0.67859346 1.0105381 -1.7498584 -0.15236267 -0.46741635 0.29455954 -0.9757003 2.071596 0.88215303 0.7878344 -0.41732135 0.23685043 0.5338151 0.11709139 0.35027286 -1.0869305 -1.1220162 0.5679238 0.82091904 -1.48673 -0.020398242 -0.41664907 0.4340634 -0.67131287 -0.28971362 -0.25826415 -1.0488611 -0.48423892 0.17435658 0.37344256 0.7037737 0.0055395933 0.6254413 0.37018055 -0.7207231 -0.9367551 -0.12214135 0.031901073 -0.010159687
Bavaria -1.9994599 -0.93828636 0.04495498 -1.7224553 0.6870436 0.90267974 0.022043066 -0.02776361 0.9645651 0.82846904 0.20660515 -0.3615121 -0.19899468 -0.49212378 0.1787668 0.47347662 -0.8116269 -0.7529646 -0.5782669 -0.33758906 -0.0064243525 -0.14098944 0.061427277 0.42071116 -1.1076723 0.12988363 -0.039452456 -0.75028545 -0.15100288 0.6061575 -0.77210915 0.21495269 -0.46421486 0.057279527 -0.37060323 0.078258574 0.16312031 -0.13318987 0.33363226 0.078260064
Baycol 0.77931446 0.84501654 -0.46038598 -0.930468 0.55479616 -1.1399853 0.8985984 -0.30657804 0.17519186 0.2330487 0.18232271 -0.4711018 -0.22064917 -0.12701768 -0.7323593 0.2072613 -1.2022172 0.688766 0.0061891377 1.1642826 0.6681406 -0.057253525 0.6768477 0.5488166 0.6193907 0.36254314 -0.24689947 -0.31176794 0.29210067 -0.8049439 1.1113392 -0.39654705 0.20570992 -0.7677896 0.25080103 -0.25033873 -0.25426933 -1.0254788 -0.21856697 -0.036076535
Bayesian -0.99050903 1.7836658 -1.1822891 -0.38616848 -0.97110116 0.2832701 -1.6378684 -0.87676704 -0.24997036 -0.36600018 0.3841666 -0.104208715 0.77184373 -0.56576663 1.521036 0.0563817 0.78287315 -0.14824422 -0.22057942 0.09407733 -0.46776932 -0.45648554 0.5725109 -0.101943634 0.7760534 -0.6536871 0.37987247 -0.82264215 0.7415199 0.28971294 -0.35002163 -1.1171588 0.014694704 0.63389 -0.49518582 -0.89130586 -0.17602311 0.70924544 0.938034 -0.65002453
Baykal 1.150312 -0.40181124 -0.15007819 -1.3008426 -0.014554267 0.073662356 0.20023628 0.6245943 0.42899066 0.0697951 0.5001055 -0.6606798 0.9163384 -0.14350347 0.17029935 0.5210144 -0.7038915 -0.7196914 0.24144915 -0.24251555 -0.89951503 0.31545982 0.5960591 -0.6938176 -1.0213528 -0.12057851 0.07285139 -0.4440552 -0.092297845 0.13929035 -0.58451223 0.6796726 0.49736246 0.36646754 -0.42034942 0.03921015 0.29849297 -0.10732415 0.2706434 0.027283316
Beaumont -2.4063864 -0.8865102 -0.0007085449 -2.3123252 0.3168354 -1.1306441 0.13795069 0.13116539 1.5131484 0.2870598 0.0066755107 -0.123416014 0.16091618 0.2688712 0.37385005 -0.17770426 0.07719196 0.052756116 0.15926656 0.47121087 -0.7411184 0.2174671 -0.37237754 0.3603884 -0.3183137 0.18218546 -0.41528127 -0.2837456 0.24732663 0.16252029 0.42522565 -0.2217309 -0.17675202 -0.043618504 -0.31622824 -0.06709645 -0.052202195 -0.6144536 0.5602593 0.44702187
Beethoven -1.6196026 -0.8712892 0.099307515 -0.87345093 0.46146035 -0.16380927 -1.1763564 0.040412076 1.4148978 1.1002591 1.0209825 0.31650522 0.71066225 0.02111378 0.35374877 -0.17178008 0.05152614 0.28410727 -0.07393374 -0.16518466 -0.49561507 0.29763362 -0.08390652 -0.054089412 0.16981806 0.0076988223 -0.4378045 -0.39957535 -0.61889595 0.9755327 0.045067642 0.5189612 0.40017387 -0.28867388 -0.07403349 1.0037876 -0.43072832 -0.25844452 -0.19770354 -0.9873296
Begoniaceae 1.8779216 -0.038071826 0.5686812 -1.6683792 0.62411284 0.4810816 -0.1272709 -0.32141766 -0.50091136 -0.71798867 0.36217743 2.2457027 -0.5328828 1.303155 0.17722155 0.35833198 -0.04552723 -1.0565856 0.36057633 1.2797563 0.20264958 -0.16887556 0.28142887 0.11573195 -0.33497596 0.84165674 -1.1297513 -0.27764422 -0.59423923 0.26727203 -0.5644317 -0.6953312 0.62611634 -0.22296087 -0.40793592 0.40167648 -0.48898295 0.52969027 -0.18895917 1.4300753
Belgian -1.1281899 -0.43160495 0.58678764 -0.11611372 -0.31048572 -0.43129364 0.6143867 -0.22154628 0.21198697 -0.273558 1.0445471 -0.78542435 -0.26096353 0.096894674 0.2631178 -0.5774484 0.58186334 0.5446872 0.23954292 -0.38405177 0.38352254 -0.5015429 -0.23912156 0.6949123 -0.31860837 -0.49279016 0.38235924 -0.92926824 0.13138855 -0.1749199 -0.42940316 -0.5352537 -0.52001715 -0.062173333 0.0008529996 0.14870682 -0.39217648 -0.3063975 0.13287483 -0.36868927
Bell -3.387466 -0.51186043 0.024272246 -1.6422244 0.080005236 -0.63428843 -1.042061 0.40923724 0.5509576 0.38848573 1.0853649 0.14971928 0.39377135 0.2518027 0.2179159 0.2407681 0.6337731 0.15378283 0.6637375 0.19883884 -0.01556462 -0.3565337 -0.09709132 0.33212462 -0.40643153 0.28559217 -0.6628907 -0.19200374 0.24432775 0.10182521 0.53794545 0.09628489 -0.09672173 -0.33292556 -0.25137177 -0.33526883 0.47749603 -0.62194055 0.23300515 0.18185972
Bemisia 1.4247475 0.40959868 0.60064846 -0.88847 0.98088527 0.27226463 -0.13229696 -0.5186437 -1.4561607 -0.71139795 0.331557 1.288746 0.57672983 0.71472406 0.31652886 0.0911546 -0.49180955 0.26229167 0.10810863 -0.23751014 -0.26573163 -1.1021314 0.056332204 0.35337883 0.61491966 -1.242708 -0.93768287 -0.32380602 -0.22321884 0.6502542 -0.24308392 0.081462234 -0.052075762 -0.10523739 -0.7460166 0.103246346 0.095310904 0.5457344 1.3944695 -0.9093744
Benadryl -1.0679168 0.9935244 0.5974031 0.4288485 0.9374715 -2.5408113 1.0161788 -0.39742896 0.21290034 0.59115833 0.06036163 -0.42521933 0.60105777 -0.16447295 -0.3800226 0.6743634 -0.8793416 0.29831317 -0.34088138 1.8235104 -0.07730119 -1.1757743 1.26456 0.026334057 0.3783183 0.5934473 0.08894643 0.12272375 -0.48148128 -1.2726432 0.39509812 -0.1642723 -0.5294926 -0.024670536 0.07087376 0.34186396 0.2361102 -0.14772047 -0.5622631 -0.2072958
Berkshire -2.5753746 -0.49070904 0.07803051 -2.1660628 0.11829404 -0.27582386 0.6443461 -0.37101603 0.86903965 -0.13273558 0.31865522 0.32038635 -0.56586105 -0.49224955 0.24117768 0.54353344 0.36298972 -0.20054811 -0.451057 -0.33032048 -0.486542 -0.3350181 -0.46995157 -0.4345881 -0.19149868 -0.12505564 -0.795976 -0.6959323 0.34997308 0.5555138 0.48408145 0.0013024434 -0.05457781 -0.014590606 -0.45691562 -0.20278138 0.39252415 -0.38748962 0.075112276 -0.3711024
Bernstein -2.3089416 -0.7010007 -1.0849541 -1.2815875 0.35337391 -0.9879189 -1.3360511 0.04932143 1.2054259 -0.13719577 1.6231527 -0.25842804 0.30728996 0.052495345 0.20979798 0.04686859 0.84771496 0.7633792 0.21799323 0.18268935 -0.013803474 -0.06158044 0.2536378 -0.76631504 -0.29173204 0.10050271 -0.17039077 0.05115797 0.08226553 0.41471717 0.54676074 -0.21986048 0.17430753 0.02310382 -0.2209089 0.49563998 -0.28100508 -0.30526355 -0.28481156 -0.3399355
Bertillon 1.2937841 -0.08711429 -0.2686482 -0.550816 0.25559852 -0.6182549 -0.14190635 -0.5523629 0.3681496 0.38589805 -0.14702423 -0.3971467 0.041514922 0.010391486 1.6221249 -0.48454803 0.41163465 0.9793291 0.7907119 0.42011026 0.32240206 -0.053055525 -0.12870255 0.8987119 -0.53342474 -0.53723824 -0.26348183 -0.45876208 0.2084203 -0.31804132 -0.39211443 -0.787223 -0.28811374 -1.6035721 -0.29032928 -0.5402584 0.37264112 -0.14872956 -0.5111203 -0.61785716
Betelgeuse 0.3850482 0.21821056 0.6848142 -0.5420782 0.38427672 0.2525111 -0.8074773 1.1030442 -0.0525207 0.4309837 -0.14095797 0.1076154 1.231979 -0.80401224 -0.08883614 0.27659336 -0.5551422 0.98957485 -0.73046756 -0.9715056 -1.319651 0.8278116 0.18347983 0.7915074 -0.02564691 1.7097558 -0.1378008 0.22457057 0.12646094 -0.6628931 0.16513711 -0.2590283 -0.28435826 0.30396324 0.27359074 0.40233627 0.943583 0.75600183 -0.44121978 0.5879815
Bethe 0.42710242 -0.0940573 -0.29555985 -0.79436433 -0.30517578 0.017866867 -1.2942909 -0.15318213 0.6087813 0.8240131 0.63432735 -0.82566446 0.95734704 0.91148 1.1030848 -0.16417322 0.6716258 -0.004558383 0.6138393 -0.5422736 -0.45181 -0.37323517 1.0426941 -0.5297738 0.1425013 0.20977779 0.68135065 -0.24914967 -1.1579537 -0.35957086 -0.5735773 -0.2601924 0.07207546 0.7957088 -1.062234 0.21430725 0.8675279 -0.28743267 0.4052799 -0.5775245
Bidens 0.6547773 -0.49442133 0.1303001 -1.0125026 1.0869174 -0.017971193 0.50480705 -0.28871435 -0.72945446 -0.24839507 0.4754873 1.1729326 0.09724121 -0.3377151 0.48843074 0.38216832 -0.26633713 -0.15863498 -0.6675232 0.088503696 -0.93473905 -1.288118 0.2348877 -0.8475918 -0.4046634 0.13313171 0.64259094 0.19015531 -0.22609876 0.4259232 0.28419808 0.5273144 0.2518834 0.02920171 0.10675621 0.09541674 0.6343341 1.1497579 -0.24856427 0.098478936
Bihar -2.1412244 -0.021481276 -1.1183066 -1.0619028 0.634267 0.7861085 0.5345938 0.50300753 0.03470883 0.87132066 -0.16224632 -0.33671618 -0.15268578 -0.8396691 -0.5456445 0.22917293 0.019895958 -0.18806976 0.4140925 -0.51919156 -0.2367811 0.45559794 -0.7128387 -0.6768715 -0.092002034 -1.2656742 -0.27855235 -0.6524259 -0.28414702 -0.3345223 -0.31700054 0.2338021 -0.29923892 -0.42578804 0.8243025 0.4552526 0.9128087 0.42388362 0.71008533 -0.3017693
Blackpool -2.060881 -1.0109648 0.25723216 -1.7954848 -0.09633471 -0.56977135 -0.14089534 0.2240326 1.1999829 -0.31941676 0.12084907 -0.3625801 0.6243796 -0.36526367 -0.43375903 0.58008444 -0.24974425 -0.78029144 -0.4790405 -0.27005884 -0.6780165 0.011376315 -0.21769804 0.12562262 -0.013114898 0.21596844 0.250761 -0.49776986 -0.05462301 1.0163666 0.17047167 -0.081609175 -0.68729174 0.16155057 0.43336704 -0.14101592 -0.841832 0.3352367 0.32702196 -0.62144196
Blarina 1.9270226 -0.20847343 0.3619548 -1.2195325 0.85826427 0.21257153 -0.30424035 -0.09814898 -1.3908352 -1.5081729 0.40695864 1.0314363 0.26820242 0.87582254 -0.45266348 0.49720117 0.14481068 0.30522913 -0.04495126 1.1560332 -0.37504157 -0.16678873 0.2904371 0.02627027 -0.5558675 -0.22902405 -1.1143265 0.29910985 -0.1773654 0.47897878 -1.0596651 0.4046069 -0.08141578 0.005570088 -0.049421065 0.31103465 -0.29001173 1.4526203 -0.7033048 0.30755705
Bluebeard 0.42116794 -1.3185798 0.32355848 -0.6853596 0.4200284 -0.32538867 -0.9468543 -0.0023240522 0.37404808 0.71910596 0.22541918 -0.4890082 0.8149623 0.18300022 0.358175 -0.6754663 -0.6975841 0.8573797 -0.26083153 0.87589633 -0.44244215 -0.6862852 0.35871515 0.19972475 0.19176865 -0.30640578 -0.07500771 -0.7345386 -0.30445638 0.7839389 0.60135436 -0.36904413 0.66874534 0.27856794 -0.105187565 0.30315426 -0.44550565 0.56963277 0.031325802 -0.04721937
Bluegrass -1.9969507 -0.8312079 0.44888616 -2.1068513 0.3804182 -0.23186351 -0.269094 -0.41452155 1.0249463 -0.6030176 0.89497656 -0.45351183 0.54836965 0.040277395 -0.3799545 0.90471476 0.4738474 0.24322067 -0.35359126 0.1528939 -0.16098396 0.20437029 -1.0271931 -1.1260693 0.6235459 -0.47840667 -0.50494 1.4459541 0.5144186 0.64134943 0.6667785 -0.7354575 0.085793234 -0.5057124 -0.504176 0.14161658 0.29359123 -0.5560837 -0.3667845 -0.30044672
Boche 1.8367544 -0.13882782 -0.18585137 0.17911248 -0.4054442 -0.4920411 0.2755418 0.36305225 0.4772254 0.36687946 0.66374564 0.04533181 0.44305405 -0.5484428 0.6721729 0.26608464 -0.096300274 0.30129054 0.42555228 0.0012897708 -0.21259484 -0.2563843 -0.27631894 0.1822024 -0.016810609 -0.42487267 0.35332265 -0.6217996 -0.4494574 0.5211724 0.24177669 0.41176897 -0.4728383 0.23251857 -0.23126744 0.39424005 0.041588236 0.40679592 0.038356896 0.038567703
Bodhisattva -0.14712767 -0.67743677 -0.520592 0.17553507 0.82337195 0.59177595 -1.0743431 -0.097796984 1.0318587 1.7418796 -0.6360961 0.91631836 -0.14378618 0.69665515 -0.7752579 0.9174358 0.13287158 -0.25703803 -0.26004073 -0.20484418 0.11195828 -0.1481386 -0.59238434 -0.77051634 0.348469 -0.05328854 0.2057536 0.39682156 -0.100472614 -0.32346594 1.394369 0.26558274 0.4671502 0.8239043 0.95612895 -0.11907639 0.8984694 -0.24542367 -0.38079768 -0.3044404
Bodoni 0.9798771 0.013348545 0.37408808 -1.8482996 0.50775576 0.0419358 -0.558023 -0.21610907 0.6861674 1.079318 1.0980338 -0.41927606 -0.2735377 -0.32324612 0.4630032 0.7019797 -0.8744011 -0.21936251 0.09052612 0.3614625 -0.4926765 0.081783846 0.15324274 0.22877012 0.23384643 -0.43321994 -0.89078283 -0.5443054 0.069971316 -1.0238603 0.50485307 0.6003537 -0.083679065 -0.85610116 0.23946655 0.26861304 0.1194232 -0.16905586 -0.048755374 0.9677238
Boell -0.279036 0.24800123 -0.0008518582 -0.21223119 -0.011883523 0.015559764 0.041562676 -0.026992379 -0.12157322 0.020543281 -0.18847333 -0.042053815 0.06930322 0.05085953 0.031332485 0.05718687 -0.042965725 -0.071214356 -0.014301359 -0.079975784 0.0052848393 -0.090151645 -0.1143284 0.0006932744 -0.02320511 -0.021696689 0.021427333 -0.11493483 -0.03274545 0.10063562 0.13027906 0.022040403 -0.0014442735 -0.014309229 -0.03809148 0.07140319 -0.08256382 -0.015664684 0.00025858238 -0.05140767
Boltonia 2.304796 -0.32715276 -0.40329954 -1.4611032 0.26651785 -0.03413598 0.3892952 -0.27290723 -0.7778913 -0.51110876 0.45202437 0.87173045 -0.02754706 0.31436962 0.5680658 0.53834695 -0.6796072 -0.45113307 -0.03493234 0.40216917 -0.53647965 0.047173217 1.1155026 -0.6440997 0.30192393 0.42043167 0.7472501 -0.12416087 -0.103449866 -0.1666392 -0.34384397 -0.28215984 0.8054792 -0.16426986 -0.31354868 -0.27778152 -0.25253054 -0.30978453 -0.006934011 -0.030093802
Boltzmann 0.096766986 0.6741707 -0.57718533 -0.31045857 -0.40613264 0.0151489945 -1.5505867 -0.016642366 0.2031863 0.8522716 0.41110915 -1.2472742 1.5154012 0.19471094 1.0762277 -0.26676086 1.0753546 -0.3694284 0.48396325 -0.9664896 -0.77785957 0.46968302 0.28170657 0.9626618 -0.2326941 -0.31343842 -0.44685337 -1.2446444 0.11590927 -0.33829919 -0.4871786 0.71864843 0.11257132 -0.048291255 -0.12291187 -0.0028623967 0.25300914 0.1522729 0.32302836 -1.6443001
Bombax 1.566529 -0.1715855 0.5030308 -1.0779167 0.82996076 0.31383824 -0.41073224 -0.6286243 -1.0043597 -0.36204404 -0.42017215 1.0455931 0.04456542 0.4974644 -0.65966666 0.80919623 -0.8857625 0.2851872 0.1980514 0.23356085 0.26132357 -0.37922525 0.16854411 0.039124668 0.547282 0.15673956 -0.38124993 0.9917971 -0.39342892 -0.16928057 0.099456005 -1.1463969 0.6175764 0.5973118 -0.01850695 0.9398203 0.4047549 0.31920275 0.5524667 0.45401517
Bontemps 0.8450825 -1.2619864 -0.10382689 -1.0414355 0.4775182 -0.6388492 -0.28052625 0.28401253 0.72571874 0.3076868 0.4206449 -0.53166723 0.3872849 0.17135204 0.46778354 -0.10123376 0.47552493 0.60048544 -0.09600593 0.015622221 -0.18232852 0.3559431 -0.122994736 -0.52142644 -0.1334945 -0.56877875 -0.3980472 -0.4180608 -0.18127598 0.20972678 -0.2883359 -0.32957578 -0.5394652 -0.46895695 0.21656395 0.36642084 -0.31341636 -0.71330625 -0.13009329 -0.098875195
Borago 1.3237023 0.27592987 0.61979836 -1.3531082 1.1548231 0.35813412 0.43196392 -0.0914087 -0.8416202 0.0104265055 0.33073866 1.0450656 0.077401906 0.64218664 -0.75555956 0.60573274 -0.63753533 0.55635667 -0.447862 1.0992583 -0.61959946 -0.58451885 0.6296033 -0.29030454 -1.0555894 1.0557357 0.35804778 0.68360704 -0.10679234 -0.38959306 0.45629138 -0.91191673 -0.004378382 -0.21989964 -0.51853806 0.004871416 0.8553061 1.0589633 -0.23783943 0.40346885
Boswellia 0.69969296 1.1446699 0.70362467 -0.7565964 2.0058026 0.798349 0.23780277 0.31233883 -0.7290365 0.22320516 0.74616736 0.51289064 0.3288507 0.5592121 -0.4136832 1.2071753 -1.040468 0.27840465 -1.6757724 2.199111 0.5372696 0.056528613 0.5183285 -1.6233832 0.14873077 0.36699855 0.6845951 0.5387436 0.4602086 -0.7915578 0.3034008 -0.32190657 0.814062 0.40587863 0.61298597 -0.53518957 0.24519306 1.4357796 -0.17665131 -0.3763591
Bourgogne -0.43937683 -0.3077262 0.8419716 -1.2283894 0.59032613 -0.58680296 -0.07113952 -0.6975071 1.024254 0.3806656 0.7410594 -0.0063716373 0.23203784 -0.9407091 0.5489344 0.076643914 -0.49746954 -0.091965094 -0.64047784 -0.32527187 -0.385981 0.048892282 0.05581516 0.5475584 -1.1960443 -0.14722139 -0.026426362 -0.93084073 0.29654643 0.62877923 -0.51403147 -0.069289684 0.25852904 0.18299021 -0.4279985 -0.2930444 -0.032717783 0.47363007 0.6440799 0.33743668
Bowditch -0.27646136 -0.89381355 -0.15127334 -1.29263 -0.12697998 -0.5911777 -0.67935526 0.5178463 1.0123153 0.072818056 0.08468838 -0.31301108 0.5925738 0.1256073 1.0653609 0.15637302 1.1854193 0.066359915 -0.61896473 0.25418258 -0.3931995 -0.17282203 0.42550948 0.08371874 0.20720921 0.05488141 0.16876248 -0.288479 -0.20352805 0.38802642 0.2961232 -0.39050588 -0.39796317 0.02730083 0.2529055 0.14270777 -0.44095984 0.3099535 -0.39940315 0.21661134
Boyne -0.66766477 -0.97113013 0.31264892 -1.9507442 0.2182159 0.15384378 0.44364017 0.117170244 1.5721182 0.45309934 0.31319967 -0.79716194 0.65132153 -0.4090559 -0.07586985 0.41360292 -0.007876587 -0.28739482 -0.010617011 -0.0014700339 -0.71952254 0.16006891 0.1205922 -0.049624987 0.16218312 -0.7917323 0.77808636 0.10745712 0.44129935 0.21834868 0.37320718 -0.45556694 -0.22051863 0.19796705 0.030683668 -0.2476181 0.1455404 -0.87022066 0.19233395 0.28441006
Bradbury -1.8925037 -0.8906666 -0.44822884 -1.3298755 0.3322447 -0.42028558 -1.2310627 -0.13165864 1.1205312 0.021876251 0.70910096 -0.1341031 0.4735508 0.32449576 0.66714114 -0.05468687 0.26170853 0.7804768 0.4694455 0.3414818 -0.6683066 -0.067948595 0.35682112 -0.2024608 0.1954154 0.500676 -0.08252338 0.31433833 -0.072462425 0.26381174 0.4754435 -0.2705621 0.22290544 0.21219914 -0.5326598 0.41459888 -0.33068648 -0.64499927 -0.488805 -0.1350905
Braga -1.2316684 -0.9452671 -0.26060733 -1.686302 0.15911195 -0.47578338 -0.49286613 0.36022857 1.2145573 0.3744901 0.8139933 -0.0030564663 0.7758216 -0.34479722 -0.17373705 0.5424249 -0.46030083 -0.6486967 -0.5402176 0.15921275 -0.7094622 0.61431825 0.11420099 0.45068315 -0.16569121 -0.31702042 0.4261387 -0.23243807 -0.13822427 0.047981616 0.46085116 0.34776002 0.13461442 -0.22336744 0.105482996 -0.019308832 -0.58945495 0.26310545 0.50659627 0.19986254
Braque 0.18631878 -0.43754306 -0.01789662 -0.8896495 0.14114639 0.0018012032 -0.9368283 -0.7681107 1.3176941 0.018501513 0.51712734 -0.64761907 0.06344451 -0.20094705 1.5846587 0.12508368 -0.41066638 0.6837448 -0.3930557 0.18709669 -0.09944994 0.79353166 0.47702822 0.080484085 0.003585188 0.054202124 -0.29678205 -0.7458232 -0.50368005 0.50880635 0.06317756 0.80264527 -0.13444956 -0.6269082 0.051659103 0.9924711 0.5455322 -0.57572436 -0.37479526 -0.9062831
Brasil 0.623437 -0.16266537 0.3462173 -0.19276562 -0.37316248 -0.6210953 -0.5395176 -0.31150025 0.053145703 0.2984056 -0.14916568 0.03143302 0.11928271 -0.04481786 -0.09170562 -0.018674862 -0.20794764 -0.18591282 -0.15650533 -0.053254604 0.017413292 0.14090125 0.038800415 -0.057075337 -0.1973415 -0.06354631 0.16095491 0.15835711 0.13170464 0.1721907 0.11369132 0.12168804 0.2894438 0.07057222 -0.05729535 0.19266203 0.12349876 -0.23955911 -0.14358415 0.10825471
Brassica 0.19467969 1.2899655 0.46721205 -1.1410862 2.0641012 0.8547045 0.00518458 -0.86134255 -1.1287841 -0.3710061 1.2575344 0.98523474 0.4483231 0.29864275 0.6101912 0.07623022 -0.44302562 -0.22808358 -0.7008081 -0.04100264 -0.41928744 -0.8489605 -0.5700193 -0.25380072 -0.65133625 -1.061301 0.4083241 -0.09206987 -0.5690195 0.9446456 0.39957175 -0.67168295 0.49903998 -0.6314705 -1.7674723 0.22666529 0.27889046 0.7860851 0.36267838 0.4408641
Brazil -1.0124186 0.16259418 -0.3113054 0.113931365 0.3443235 0.50180215 0.5071001 0.2855676 -0.07393778 -0.28050157 0.109513395 -0.03870179 0.04307233 0.16669051 0.068853594 0.08210755 0.19166048 0.21324082 0.13370913 0.022347804 -0.035555176 -0.2527321 -0.10126599 0.16215068 0.18708955 0.08739506 -0.21731526 -0.18773784 -0.27179363 -0.11388448 -0.065283135 -0.044511586 -0.28642946 -0.047848735 0.039598197 -0.17214915 -0.017399719 0.28150323 0.21347788 -0.166851
Brazos -1.0167017 -0.459781 0.1398607 -2.000314 0.018701104 0.054217506 0.75279915 0.4102423 0.90778744 0.35944775 0.055361677 -0.15891616 0.5556455 -0.34533373 0.32456228 0.41875127 -0.01718306 -0.1334829 -0.19178565 0.3023433 -0.18230072 0.46153182 -0.07835572 0.017549291 0.1036719 -0.36588964 -0.43262693 0.68891764 1.1667404 0.31468046 1.0848211 0.39909372 0.094656624 0.047268156 0.0145515 -0.44395366 -0.27104914 -0.8401834 -0.14477184 0.36275396
Bremen -1.8735904 -0.7604851 0.010939497 -2.2154534 0.0027985906 -0.18537016 -0.09987165 0.56339264 0.9491 0.26534933 0.40786016 -0.26536104 0.6711405 -0.1493571 -0.0986384 0.44314808 -0.30990762 -0.34196427 -0.3604029 -0.011652103 -0.30552465 -0.0046302835 -0.30412155 0.4461951 -0.3872847 0.015027595 0.18310629 -0.53953946 -0.11097076 0.016306998 0.5613241 0.676557 -0.8460007 -0.15052502 0.10285648 0.48444274 -0.103577085 0.039052427 0.13845025 0.38634142
Bremerhaven -0.78145176 -0.14004579 0.3749463 -1.4293818 -0.22739874 -0.18664776 0.45705873 0.4370381 0.903065 0.028473616 -0.20857133 -0.5282144 0.9888104 -0.41294864 0.43828174 0.45674402 -0.2624983 -0.590008 -0.41900456 -0.5347582 -0.35335672 -0.10236135 0.012687536 0.77137816 -0.29264787 0.19398373 -0.059290845 -0.62329197 -0.48421803 0.030728629 -0.16587256 0.30960318 -0.59981734 0.21773538 -0.113817096 0.7910571 -0.44898897 0.0032633205 -0.12140784 1.3704128
Brisbane -2.4798708 -0.9913068 0.007119073 -2.3707712 -0.35127643 -0.25782746 0.44640443 -0.23045176 1.490859 -0.47900185 -0.24579407 0.005772741 0.46383744 -0.09817024 -0.32788178 0.33002654 -0.4227034 -0.5274131 -0.08090371 0.34413984 -0.5570961 0.36793584 -0.5167668 -0.14800277 -0.46153045 -0.29644135 -0.16755104 -0.07722271 -0.12452644 0.40604678 0.09598635 -0.2837567 -0.5454683 -0.14931633 0.7617175 -0.5989974 -0.51487374 0.6498043 -0.0862215 -0.09409863
Bruckner -0.4297542 -0.73473835 -0.53086376 -0.8984686 0.36293185 -0.2715797 -1.5098196 0.09362387 1.5867822 0.26225162 0.59810704 -0.16603233 0.5568148 -0.2802507 0.28531617 -0.12065151 0.37337717 0.23780382 -0.19253366 -0.06369662 -0.21064878 0.5556283 0.044827618 -0.46748543 -0.49860105 -0.36410078 -0.28983688 0.09266141 -0.402933 0.6101572 0.5073519 0.21912695 1.0222014 -0.25471613 -0.03797696 0.7361882 -0.45961523 -0.3095484 -0.37418664 -0.29268116
Brumaire 1.2436621 -0.88864696 -0.2174556 -1.1958625 -0.06580313 -0.34458667 -0.08937737 -0.0071410607 0.10667794 1.1369932 0.8878886 -0.57762074 -0.05998034 0.11244579 0.12570141 0.1024797 -0.16477334 0.45788234 0.017775726 0.2569957 -0.48840606 0.81260127 -0.33668822 0.0109009305 -0.037875384 -0.11136896 0.5623888 -0.77731323 -1.8072697 0.72222364 -0.15698504 -0.3032647 -0.6482761 0.08736307 -0.80639815 0.23335363 -0.15650748 0.1848885 -0.21327727 -1.2197574
Bruno -2.6546555 -1.2836194 0.10836714 -1.2982757 0.31289354 -1.0571362 -1.1460332 0.2202443 0.45417282 -0.063541606 0.82558775 0.035499897 0.4400396 0.30279058 0.40262356 -0.1145309 0.0013835132 0.25841776 0.15325655 0.027573958 -0.6559422 0.28879407 -0.25076732 0.5767651 -0.6753414 -0.26010075 0.39388713 -0.27307814 0.5214476 0.43999317 0.4243621 -0.1616066 -0.05552349 0.016643275 0.090615764 0.67707765 0.3626973 -0.36088678 -0.019060273 -0.21573126
Bultmann 0.5262474 -0.4989899 -1.1496094 0.030055415 0.20922884 -0.16585337 -1.3992908 -0.19260642 0.32538515 1.23615 0.88921 -1.2595931 0.4742342 -0.037278965 1.8117747 0.68037724 0.3762899 -0.344924 0.12461086 0.5893431 -0.2833815 0.56676155 0.8918127 -0.39780954 0.37291777 0.08807762 0.028557742 0.6353249 -0.34824708 0.28686976 -0.105042435 -0.1584564 0.12920392 0.5988522 -0.3451894 -0.17438404 -0.7221723 -0.3084866 -0.5550294 -0.41216895
Bunche -0.36237994 -0.622793 -0.32427073 -0.9135304 -0.13546468 -0.66086596 -0.62834 0.48191503 0.57705355 0.21723492 0.4435452 -0.73939484 0.18329185 0.66857964 0.6840621 0.19797729 0.20543529 0.42816937 0.38744313 -0.3627611 -0.25365916 -0.4957822 0.057874624 -0.3095583 -0.041180823 0.30148482 -0.06644511 0.87556314 -0.22391728 -0.27453157 -1.0083848 0.1323543 -0.20208561 -0.14402223 -0.48562685 0.5255005 -0.041283328 -0.36311117 -0.29217124 -0.2850094
Burbage -0.34702238 -0.9702142 -0.04484155 -1.0613786 0.39322734 -0.42128754 -0.6278753 0.81263155 0.7992884 0.5382779 0.03689635 -0.47445315 0.30559534 0.13430388 0.6052106 -0.08286344 -0.10252007 -0.42359212 -0.5816803 0.27344635 -0.7780223 0.14085247 -0.19134243 0.07406971 0.19147786 0.24179733 0.27560002 -0.36615047 -0.21731387 0.4513309 0.6954622 -0.47354937 0.31799218 0.7262336 -0.16381255 0.11984994 0.082713105 -0.42105493 0.26326567 0.4109965
Burbank -0.26319426 0.057087038 0.024228595 0.015666032 -0.004904992 0.07080298 0.14009255 -0.1533568 -0.008224123 0.0048574484 -0.089730114 0.20156895 0.004832585 -0.09771429 -0.07076734 -0.03965356 0.0026929607 -0.00967241 -0.040983748 -0.060855325 -0.120697536 0.06470027 -0.01771767 0.006382734 0.07027678 -0.02589611 -0.07599614 0.09471439 -0.04773551 -0.13145074 0.04010267 -0.08658712 -0.12585074 -0.06665525 -0.020928266 -0.006858054 -0.07841924 0.08367882 0.05063591 -0.049157877
Burger -2.3190844 -1.3565866 0.569935 -1.7047037 0.36390984 -1.1849481 0.28332567 -0.9928352 -0.04761896 0.1705432 1.6835144 -0.4405532 1.1825781 -0.7954336 0.43314782 0.2909352 0.39004943 -0.65021366 0.7880973 -0.26390642 0.45892885 -0.4304238 -0.4997014 1.138393 -0.1928062 0.63917124 -0.46936464 -0.34563243 1.5566136 0.19799125 0.43490672 0.26561457 -0.2153795 -0.28932232 -0.19425514 -0.34894988 0.42238942 -0.38687098 -0.6329832 -0.31054834
Bushman -0.33112842 0.19488011 -0.37159175 -0.41425413 0.7626848 0.008659594 -0.46199915 -0.5458171 0.5608782 0.052954633 0.9940474 -0.20026049 0.028011547 -0.07518137 1.1490217 0.3257069 0.10210021 -0.1490381 0.04933308 0.7917479 -0.28105947 0.007557516 0.13038567 -0.18749645 0.21188459 -0.47775972 0.033709563 0.6309859 0.27981716 0.3049399 0.6217319 0.2104573 0.013745444 -0.4154489 0.30850032 -0.40478414 -0.21890871 -0.12608878 -0.2760426 -0.3657745
Butler -2.7874439 -1.4744248 -0.49644703 -1.9625186 0.25809544 -0.69063693 -0.46765685 0.36108977 0.9393223 0.016225891 0.98277956 0.14218403 0.23490918 0.6693864 0.43979117 0.36697173 0.5095668 -0.081592046 0.281555 0.72145075 -0.64113575 0.17416114 -0.3412942 0.030840533 0.15578869 -0.28432378 -0.2318867 -0.50920975 0.15107127 0.39268106 0.36551675 0.35540947 -0.042694323 -0.21646473 -0.33707237 -0.10070088 0.10048396 -0.038585156 0.41252565 -0.117018566
CDC -0.97193706 1.2815143 -0.6631761 -0.98677135 0.7831148 -0.85960674 0.57659394 -0.15592897 0.18542379 -0.8144452 0.2683278 0.15598851 0.51304597 -0.9663521 1.1331375 0.21920137 -0.79511374 0.9770977 0.2875955 0.17735381 -0.26238948 -0.9117753 0.026422944 0.28246182 0.662415 -0.44400367 -0.83256024 0.35553595 0.03507104 -0.7620935 0.80458856 -0.14149342 -0.86083555 0.40683562 -0.070131116 0.46682975 -0.64646786 -0.61641407 0.7763172 0.49919695
CD -1.0608736 -1.0980535 0.99327224 -0.8975094 0.5678514 -0.6470375 -1.554643 -0.44031662 1.324459 -0.39916873 0.767252 0.036215443 1.4300103 -0.000109904875 -0.14925195 0.5345496 -0.60479194 0.9651646 -0.87491393 0.10090317 0.25651744 0.33774182 -0.6592876 -0.45027125 0.3420995 0.3503466 -1.1386966 0.8355105 0.055530537 0.74686337 0.7926731 0.0069924924 0.21504506 0.09928116 0.27532977 0.62184834 -0.6750846 0.051864974 -0.25095803 0.017982977
CFO -2.1270702 -0.33973965 -1.4657509 -2.2719715 -0.59942764 -0.92334414 0.14245798 0.30511814 0.13628799 -0.108124 1.0844829 1.079411 0.015386207 0.20742567 -0.07500747 0.20112197 0.749808 0.27654108 -0.08230067 -0.20792218 -0.5338997 -0.5602976 -0.06028043 -0.9147115 -0.5347758 0.64420897 -0.2929012 -0.9650244 0.7227026 -0.47679204 0.5938909 0.12542517 -0.22453843 0.44446042 0.38805407 -0.23936516 0.4750061 0.07213415 -0.07232556 0.14679669
CMBR 1.0415995 0.47371164 0.3817342 -0.6301607 -0.3517261 0.68581635 -0.2240838 0.06633317 -0.3179092 -0.15810263 -0.26839298 -0.45450592 1.2002981 -0.38370645 -0.099526115 0.11246361 0.5153865 0.29585218 1.1451466 -1.1638113 -0.8504744 -0.6889461 1.1182435 0.1156793 0.11248154 1.2132616 -0.80516773 0.85508496 0.664904 -0.96849895 -0.56327975 0.17765123 0.1882914 -0.05016237 -0.5828384 0.29211363 0.71602374 0.16305391 -0.2556301 -0.3131808
CST 0.24446073 1.0701947 0.13465387 -1.1650939 0.0046353713 -0.6717622 -0.06773039 0.5657061 -0.5419526 0.39548993 0.31304356 -0.21599576 0.29388008 0.2648098 0.14714245 0.6174072 -0.18629773 -0.09833783 0.23910175 -0.14310966 -0.19051163 -0.056509495 -0.25394487 -0.13150023 -0.22774376 -0.21243356 -0.10262764 0.4300666 0.6659873 -0.27455047 0.13369188 -0.09164675 0.6775691 0.28001848 -0.41311267 0.56117594 0.10437354 -0.5341641 0.13270114 0.43412203
C -0.8851099 0.4993923 -0.23068176 -1.6447939 0.34139517 -1.2976756 -0.6286595 -0.029347895 0.5761234 0.10523269 0.8548123 0.51292723 0.9600966 -0.2749241 0.21991171 -0.06902139 -0.24950202 0.060155854 -0.47552505 0.30064556 -0.2248478 -0.3699911 -0.6811669 -0.2457697 0.20840633 -0.86150265 -0.34374973 -0.46996394 0.7683137 0.17617625 0.0976668 0.12525068 -0.06297326 0.1602946 -0.16661483 0.24967223 -0.23744568 -0.13919993 0.29456142 0.40009332
Ca -1.1304866 -1.608358 -0.7948228 -0.58209157 0.8788817 -1.4954153 -0.69417727 -0.48963788 0.033196658 -0.62895113 -0.12561917 0.9849684 1.4651189 -1.0429437 -0.23457977 0.6223183 -0.29524714 -0.12172593 0.6930037 -0.06325573 -0.46657142 -0.257271 -0.381393 -0.5742351 0.31720364 -0.21061112 0.4523181 -0.09206392 0.6232986 0.65533966 0.079925746 -0.09024416 0.05230662 0.22493021 0.32342494 0.10369039 0.27733877 -0.43867442 -0.20165701 0.2008964
Cadra 1.4754355 -0.17820302 0.69902897 -1.2556003 0.66275245 -0.06282759 -0.027935207 -0.16116522 -0.5862468 -0.3979537 0.38993853 0.794363 0.09592909 0.78792083 0.28654763 0.1542026 0.07600741 0.25217745 0.6367637 0.5712735 -0.4608995 0.6344149 0.5030213 -0.20649028 -0.18782167 -0.33934578 -0.09035328 -0.55813015 1.1635097 -0.5461124 -0.47791478 0.13003403 0.25940534 -0.050050292 -0.15089437 -0.54414594 -0.0087499805 -0.04483112 0.62729424 -0.097503774
Caesalpinia 0.9734556 0.12308586 0.6382412 -1.5113935 1.690664 0.7054137 -0.42461693 -0.1970986 -1.8372493 -0.73377 0.39812568 1.4457266 -0.25825357 0.92153233 -1.1130129 0.6231984 -0.52090704 0.13672249 0.1763762 0.6978961 -0.5397405 -0.5794793 0.11989499 -1.3798336 0.31246462 0.28817353 0.6567988 0.6191015 -0.30317113 0.4637481 -0.40194377 -0.29246372 0.46221662 -0.24379471 -0.87412965 0.18676983 -0.08296589 1.4494017 -0.44465804 -0.30588472
Calamintha 2.3032668 -0.37380445 0.20015697 -1.5436931 1.0411339 0.26491362 -0.13322571 -0.71431553 -0.5259038 -0.6850008 0.62232137 0.9810564 0.30227277 -0.15465125 -1.013949 0.38332978 -0.41532615 -0.35246736 0.36877185 1.3796978 0.3791944 -0.18329874 0.83804333 -0.332949 -0.4689637 0.6667526 0.06447475 -0.67671996 0.28436255 -0.118562184 -0.49631664 0.26966846 0.52480227 0.14638092 -0.24866883 0.11848175 0.8135653 0.5954039 0.286075 -0.09239776
Caledonia -1.7021667 -0.5024364 -0.14854588 -2.4560611 0.70804924 0.5507314 0.760874 0.20970668 0.44257852 0.042255376 -0.21705411 -0.078049466 0.6112302 -0.29770413 -0.23088811 0.49932745 -0.67109483 -0.4049037 -0.4182503 0.4865045 -0.6126756 0.24555288 -0.07565031 0.13726136 -0.06511844 -0.6508253 -0.1515693 0.001094261 0.024129083 -0.15434636 0.20191668 0.22374639 -0.36643666 0.03812146 0.47519878 0.4080016 -0.30571368 -0.28029132 0.38038844 0.26709607
Cali -2.4120784 -1.2950813 0.76356775 -1.2745675 0.580888 -0.65768814 0.15895429 -0.15463527 -0.2610293 -0.6138217 0.29369313 0.11065492 0.7667416 -0.09269293 -0.4688285 0.7105421 -0.6231569 -0.8271491 0.18329088 -0.10890367 -1.0806062 0.33895394 -0.40425524 0.28990036 -0.40540105 -0.52443117 -0.2529255 0.45355192 0.22081937 -0.3613819 0.1370854 -0.72238225 0.3877103 -0.6475986 -0.14066467 -0.08443319 0.5042382 -0.18433395 -0.18242809 0.1678914
Caligula -0.5150589 -1.3027405 -0.48353267 -0.022256527 0.7874025 -0.50738597 -0.92761487 0.45880902 0.13125908 1.1843022 0.19063489 -0.2903719 0.23717928 0.2116856 0.79118305 -0.05521837 -0.81734633 0.084374525 -0.26309788 0.15263388 -0.75886047 0.13747866 -0.4622885 1.0729511 0.27706563 -0.078907244 -0.74371934 -0.50452715 -0.37634593 1.0339838 0.2858853 -0.2472269 0.7149639 0.5827227 -0.02239 -0.12411281 -0.2026124 -0.17836697 -0.38425332 -0.47855642
Calliphoridae 2.1863544 0.06490674 0.44653544 -1.2696342 1.3540345 0.4084144 0.060174342 -0.020917078 -1.594772 -0.71878135 0.05598364 1.5544448 0.49456933 0.7431861 0.8486813 0.65531 0.10918846 0.18702893 0.5918864 0.85876137 0.1835553 0.1698919 0.5776142 0.22060148 -0.54568774 0.36150366 -0.788543 0.54709953 -0.7002538 0.43563527 -0.43549547 0.3799504 0.23558003 -0.9992615 -0.08919492 -0.10303601 -0.7273358 0.6071248 0.4016199 0.1937588
Caloosahatchee 0.51295805 -0.34549284 0.5679722 -1.974276 0.639463 1.0039743 1.0465808 0.47279045 1.0239987 -0.63201475 -0.1049964 -0.2639976 0.9301236 -0.02446376 0.44129735 0.47185737 -0.41572675 0.30926335 0.059131656 0.71509683 -0.7775632 0.18045142 0.51064736 -0.24099374 -0.25129533 -0.91939515 0.07975631 -0.44066024 0.19982338 0.33461818 0.46188492 0.28225356 -0.016169915 -0.009076433 1.1169962 -0.61004025 -0.26248083 -0.81719077 -0.32053253 0.70101273
Cambria -1.1854848 -0.72727054 0.57466024 -1.6679453 -0.2411781 -0.50861067 -0.021710394 0.16876616 0.85848427 0.13578004 -0.18838128 -0.063082814 0.27304938 0.62240565 -0.08889904 0.11707568 -0.15089743 -0.43393853 0.25985348 0.45297727 -1.1396623 0.03354574 -0.20633069 0.15895468 0.38251913 0.33936185 -0.39774865 0.21655351 0.80424976 -0.05651819 0.44950786 0.24530563 0.49334082 -0.09771137 0.58134556 0.28773847 -0.5268299 -0.6428953 0.75849336 0.43052647
Cambrian 0.5454055 0.8598896 0.38357207 -0.29075876 0.3333157 0.9187369 -0.36223528 0.41878012 0.40186244 -0.71199334 -0.5163935 0.53539044 0.82282454 -0.00026702776 0.66379225 -0.37956017 0.81918955 -0.20396537 0.23976299 -0.4099567 -0.87345415 0.73215777 0.23798269 0.14219898 0.28685772 0.43869716 0.115662955 0.004321306 -0.00074818026 0.3456905 0.290048 0.46092138 0.5853124 0.5521924 -0.24208805 -0.6493068 0.13972363 -0.70574474 0.11346549 0.42105457
Cambridge -3.121379 -0.59433264 -0.53047776 -2.4225142 0.2608539 -0.3050457 -0.5866241 -0.6887825 1.6367612 0.41236082 0.4386158 -0.01886999 0.005761982 0.18069519 0.73796433 -0.12514868 0.3081097 -0.34772727 -0.27456474 -0.4107237 -0.48268953 0.10574681 -0.24027884 -0.27591982 -0.39591432 -0.1553222 -0.17503825 -0.85658145 0.07137192 0.35731396 0.32929346 0.272205 -1.2414582 0.24991164 -0.9709199 -0.28659165 -0.27518517 -0.017691564 0.19547413 0.20870523
Camlan 1.724227 -0.6128051 0.13638149 -0.8627568 0.524521 0.09129756 -0.15596673 -0.1900011 -0.16925871 0.1430887 -0.6818382 -0.03941859 0.99267966 0.35440236 -0.06292868 0.51749986 1.0714742 0.74328357 0.4162682 1.119883 -0.7030353 0.54122835 -0.12465661 1.104714 0.3417139 -0.24218799 -0.34465706 -0.33114195 0.96341115 0.19733985 0.08709812 -0.16919056 -0.10930007 0.44491494 0.35273108 -0.065522015 -0.086819045 -0.21550152 1.5527731 -0.2884994
Campeche -0.22364825 -0.22929779 0.47026688 -1.9054658 0.25858676 0.674388 0.57354146 -0.13242796 0.71812254 -0.09793201 -0.30647364 -0.80294734 1.2142925 -0.89035213 -0.03203756 0.39235944 -1.2698483 -0.50734115 -0.18829654 0.1936226 -0.5260033 0.007517234 0.5751565 0.35711032 -0.36203426 -0.18955216 -0.16070628 -0.6893517 0.26213673 -0.5035576 -0.2084516 0.6895487 -0.16349854 -0.63646585 0.6499431 -0.2946626 -0.030118797 0.056918047 -0.64074165 0.6228115
Canaan -1.7287158 -0.9964473 -0.5271446 -1.3119724 0.7150695 0.8648483 0.14541249 0.26227066 1.1441653 1.6532891 -0.39864156 0.2033455 0.6341979 -0.27636012 -0.026407283 0.6472874 -0.24189895 -0.4765041 -0.27587554 0.2150085 -0.5388846 0.3586983 -1.2254078 0.36311358 0.48606104 -0.37087753 -0.26210842 0.17175479 0.40850276 -0.028736258 0.88902295 -0.02277241 0.250775 -0.2868861 -0.5915092 -0.018467508 0.2843572 -0.1830026 0.6082361 0.18393429
Canaanite 0.16296844 -0.74354756 -0.7135694 0.19297323 1.3055097 1.3580709 -0.5944367 0.035062987 -0.2440261 2.167921 -0.3836187 -0.25686413 0.30179283 -0.32681254 0.42596003 0.39397165 -0.8178333 -0.7232995 -0.7178448 0.7914181 -0.09576412 0.19198874 -1.7440195 0.7358312 0.6940768 -0.6383157 -0.8319807 0.33134004 0.18115266 -0.81971925 0.35337934 0.14999439 0.33725804 0.23328368 0.28258497 -1.3256164 0.88766146 -0.2536526 0.21934211 0.6035166
Canaries -0.8753772 -0.98227143 0.61095154 -1.4322602 0.607287 0.48128012 0.6780208 -0.014566733 0.9027503 -0.37804466 0.20435092 -0.078209646 0.74170446 -0.43343493 -0.07444493 1.0753894 0.17141023 -0.54098105 -1.254144 0.14187846 -0.76489544 -0.20732106 -0.046790462 0.543081 0.006568805 0.43001604 0.12410449 0.046479676 -0.116021425 0.49426794 -0.055221923 0.3181625 -0.5426322 0.17844698 0.6141829 0.3504797 -0.52955204 -0.0033272787 0.7064244 -0.3087826
Cancer -2.423504 1.0388855 -0.42609116 -1.487623 1.978188 -1.4348062 -0.42759246 -0.15158406 1.7929105 -0.012001783 0.33727208 0.24356933 -0.09594059 -0.1896402 0.31983417 1.2023304 -0.5327897 0.8745839 0.9126373 -0.5653962 -0.61519897 -0.31922188 -0.1646399 -0.052763734 0.5885894 0.53482556 -0.28903887 0.5793336 0.30304015 -0.80596274 0.8116696 -0.24651465 -1.1769274 0.39568427 -0.12864162 -0.46200246 -0.59439427 -0.88319147 0.64007723 1.2015138
Canetti 0.60063094 -0.8146196 -0.17181456 -1.2488571 0.10536554 -0.34730104 -0.9374882 -0.061752025 0.7661626 0.4936385 0.92948496 -0.60466546 0.94734615 0.024089398 0.5062448 0.18056521 -0.18231414 0.07057254 0.0064442456 0.26532683 0.056837626 0.07529083 0.5561937 -0.8352359 -0.8660849 0.5970342 0.38127172 0.032306407 -0.6093635 0.5419325 -0.016804807 -0.050258193 -0.28224644 -0.8863187 -0.4363323 0.38076302 0.0923565 -0.25540355 -0.22496255 0.22559947
Capek 0.4413477 -0.8256404 -0.07795271 -0.9128017 0.1496979 -0.71444875 -0.93034637 -0.15312628 0.46146455 0.37427247 0.353646 -0.6140234 0.6130312 0.24281655 1.5127426 0.4235193 -0.375484 0.47769907 0.44741327 -0.13994081 0.055604763 0.64890546 -0.28347954 0.017633572 -0.14438419 -0.37636736 -0.041504905 0.27222157 -1.1995276 0.1667829 0.20574644 -0.03422438 -0.28063762 0.40885535 -0.19412269 0.4926857 0.3058354 -0.035575874 -0.49793655 -1.034496
Capone -1.4245759 -1.2608463 -0.111378215 -0.9683373 0.51659906 -0.91893315 -0.19425267 0.51415527 -0.23865822 0.1916872 0.87798613 -0.79290694 0.15469193 0.45244017 0.30034593 -0.6036256 -0.5235246 0.18947808 0.15285766 0.060180556 -0.10655973 0.21998379 -0.51702434 0.40614173 0.0727243 0.24517363 0.05878757 -0.31553224 0.70273006 0.73999596 0.23391517 -0.5150453 0.1264357 -1.0785867 0.047644746 0.44490764 -0.062301673 0.14836363 -0.32527193 -0.6827688
Capra -0.02475973 -0.08096071 -0.03151658 -0.11059531 0.0051291524 -0.12035185 0.13576144 0.047467344 0.08227569 -0.10755049 -0.16980472 0.042102773 0.0040133875 0.030131036 -0.089539155 -0.015243344 -0.076175995 0.04981827 0.018895643 -0.047218174 0.0060664928 0.0004812207 0.02256819 -0.019167349 0.046542864 0.03751353 0.021800948 0.023987157 0.014641306 0.06794929 0.041108597 -0.0489792 -0.009387663 -0.03830693 -0.053250276 -0.020338124 0.027263971 0.07384526 0.021059362 0.035566766
Capricornus 0.8036799 -0.69763124 0.36958382 -0.5723888 0.77669936 0.8346959 -0.5000717 0.33195847 -0.07559479 0.7723519 0.0592119 0.1783482 0.662124 -0.8329501 0.009376671 0.5320898 -0.06785007 0.4322029 -0.54528385 0.24649093 -0.18122329 -0.08348802 -0.05363353 0.17959334 -0.64605194 0.9106568 -0.5491303 0.30610278 0.590544 -0.5863362 -0.103392 0.19916403 -0.43824664 0.2961364 0.35802525 0.04749153 0.398321 -0.2959006 -0.20631045 0.15286292
Captain_Bob 2.0900464 -0.37889656 0.79429865 -0.59344876 -0.7456913 0.7566625 -0.7461915 -0.30702442 0.21205862 0.26497778 0.062013943 -0.6975792 1.8258053 0.06602272 -0.24504185 -0.5571806 0.23212807 2.23694 0.38864782 0.23531601 -0.3879882 -0.7421625 0.73983765 -0.21795149 -0.7138086 -0.53016424 -0.34274852 -0.9972726 -0.19722168 1.287884 -0.75303864 -0.2657402 0.7469277 -0.81756234 -0.3377106 0.7495498 0.11846052 0.5415248 -1.4260769 -1.3995134
Carafate 1.3357368 -0.3721621 0.7685909 -0.5571145 -0.12046806 -0.5400118 0.5618293 0.41326115 0.027442275 0.8032523 -0.16008599 0.12658745 0.66001034 -0.113614984 -0.54317284 -0.25403923 -0.56381655 -0.2741159 -0.41722107 0.7906144 0.27100772 0.01767632 0.6558584 0.4230093 0.97946584 1.5496632 -0.35655415 -0.25967902 1.0512084 -0.12467199 -0.3117831 0.3277093 0.112303056 0.30171037 0.70511264 0.85343754 0.56697524 -0.3861135 -1.1531774 -0.64119494
Carangidae 2.2625086 -0.12492394 0.51921415 -1.5530324 0.73900247 0.051259752 -0.27062312 -1.0341439 -1.1032051 -0.98348194 -0.1885349 2.5865042 0.35107023 1.0087266 0.13227959 -0.09067804 1.0762925 -0.39888054 -0.17347209 1.0573014 0.8888587 0.5514851 0.5245724 0.43625265 -1.185377 0.33371192 -0.92220783 -0.20608707 -0.543189 0.80411386 -0.8023473 0.047975913 1.1309403 -0.5172512 1.0057731 -0.3704551 -0.3962607 1.188732 -0.9960077 0.09920765
Carcharias 0.5438846 -0.17423223 0.65439683 -0.9324366 0.34575567 0.17100714 -0.63356 0.13143438 -1.3847567 -0.29324588 -0.796361 0.9923824 -0.19678098 0.6197224 0.6545443 1.4208839 -0.8754251 0.60776335 -0.60817176 1.1903334 -0.37205628 0.4622965 0.8624274 0.22963586 -0.31766644 0.270885 -0.821777 0.70144755 0.26367447 -0.09347104 -0.47016716 1.0593034 0.3408197 0.3232991 0.4210083 -0.28224564 -0.28597763 1.0148083 -0.74714255 -0.45954838
Cardura -0.21815017 -0.17571008 0.22497642 -0.15852462 -0.32442155 -0.79605633 0.17617069 0.16501293 0.16121106 0.41204053 0.4098423 0.26873654 0.3497774 -0.22736554 -1.2127484 0.22361363 -1.3627185 -0.31620774 -0.72034794 0.7453459 -0.11717707 -0.08494181 0.96630883 0.020933377 0.56334263 0.6010239 -0.37420487 0.011796943 0.63834304 -0.035969466 -0.14102681 -0.23051716 -0.041790813 0.5883117 -0.19844127 0.4081477 0.2730575 -0.27195814 -0.9998165 0.37589246
Carlsbad -2.0519967 -0.5016483 0.25403222 -2.2546577 0.025670758 -0.267308 0.48199108 -0.30636737 0.9279185 -0.47828203 -0.14036745 -0.22721574 0.7507741 0.3705314 0.19080608 0.19009975 -0.4128357 -0.6916776 0.3873099 -0.114694454 -1.0905131 -0.11896969 -0.046898402 0.07807469 -0.19648482 0.38788772 0.029221984 0.34255937 0.47580037 -0.26115048 0.65623903 0.61948806 0.3040504 -0.4605825 0.3340401 -0.53939724 0.07442113 -0.69600904 -0.23742586 0.03612179
Carnot 0.03423684 0.196309 -0.7083309 -1.1312362 -0.5395427 -0.41396242 -0.41660136 0.21478765 0.67720616 1.2017033 0.38765395 -1.5215919 0.9154291 0.47965062 0.759607 0.3480012 0.08595249 -0.7135141 0.069445334 -0.37250376 -0.7320076 0.11927118 0.48798436 0.074570976 -0.8671653 -0.013976036 0.39887294 -1.3141338 -0.48066333 0.31986707 -0.049439393 -0.93881834 0.087762624 0.19992252 -1.1278924 0.5610075 0.39856339 -0.12426013 0.01889969 -0.26085976
Carpinus 1.8764199 -0.119279355 0.81268567 -1.2757496 0.91710895 0.58468163 -0.32014886 -0.524258 -0.6228473 -1.0151017 0.60911894 0.93331116 0.030742103 -0.14196528 -0.24085465 0.507269 -0.28303114 0.2109204 -0.5666669 1.5863897 -0.34903032 -0.3344841 0.36813912 -0.80544657 -0.46727008 0.064467445 0.40052083 0.058549296 -0.5308491 0.2061145 0.2886754 0.36408678 0.25360188 0.28237393 -1.0881822 0.24233693 -0.36079386 1.2326599 -0.054902356 -0.96617824
Carpodacus 1.7012792 -0.06639655 0.4380693 -1.5901064 1.2622783 0.3102432 -0.43291438 -0.37425932 -0.86753917 -0.3946479 -0.407353 1.5609795 -0.13817173 0.3551249 0.097657435 0.12706351 -0.06933845 -0.27217466 0.2177594 1.0195714 -0.22747003 -0.5958723 0.7574505 -0.18092948 -0.48574212 0.28584528 -0.7906519 0.4198764 -0.30398783 -0.8663977 -0.23888879 0.42981473 1.3348451 0.28285655 -0.69140285 0.7426918 -0.12690797 0.7370709 -1.1727793 -0.4763101
Carter -3.3428214 -1.3972332 -0.6865249 -1.315925 0.6536765 -1.0623093 -0.6846798 1.01709 0.50692964 -0.025849367 1.2899243 -0.034481537 0.3700805 0.73829913 0.17446224 0.33971566 0.13662279 0.3593327 0.55853605 0.22427571 -0.59222114 -0.14829259 0.06553061 -0.27478272 0.052809123 0.030785903 -0.31963804 -0.10542755 0.053098854 0.44050205 -0.16572048 0.24433216 0.4198433 0.006585734 -0.16036977 0.01993706 0.25090206 -0.19954163 -0.21459836 0.10330001
Cartesian -0.6037525 1.2377386 -0.7768027 -0.5488734 -0.839574 0.8514324 -1.8805025 -0.29674855 0.39552352 0.35792878 0.42472148 -0.35067874 0.65534496 -0.69856083 0.44731453 0.22163588 0.027752958 -1.2910725 0.44568998 0.31959838 -0.59184873 0.11286391 0.49587336 0.7818987 0.43165016 0.43211865 0.5481877 -0.7954862 -0.24363956 -0.7340284 0.6161946 -0.7896282 -0.19898173 0.6236913 -0.23143573 0.23455945 -0.01409039 0.5069974 -0.17271025 -0.05872815
Cartwright 0.15007778 0.02744852 -0.027712224 -0.13513021 -0.038941592 0.090154015 -0.041684914 -0.035547838 0.082512714 -0.1606647 -0.1340052 0.013354841 0.005671631 0.1692174 -0.0127193 0.14307263 0.11871561 -0.08960635 -0.035565782 0.04875436 0.09344165 -0.2592443 -0.038827114 0.04646914 -0.07600281 0.055408917 -0.21950136 -0.04666242 -0.02299642 -0.050936617 -0.00024094898 -0.032485593 0.14619228 0.004552409 0.032544013 -0.023174323 0.04529126 0.054960813 -0.077780664 0.042142782
Caruso -1.6426862 -1.0105104 0.024502175 -1.4401684 0.28073722 -0.9290816 -1.0171254 0.11639048 0.6759913 -0.39606798 1.0834336 -0.16834952 0.0954613 0.23042126 0.22019157 -0.09055156 0.3740725 0.46686965 -0.13867155 0.26002106 -0.2871452 -0.07203212 0.095096864 0.021275606 -0.6151949 0.58317286 -0.25454128 0.012013788 0.22657834 0.3533906 0.5840103 0.014380373 0.89626473 -0.27718887 0.26942864 0.57309043 -0.108619414 0.32981724 -0.07273323 -0.007192501
Carya 1.3796585 0.013961349 0.969645 -1.6932784 1.5345479 0.7683121 -0.12393728 -0.8026808 -0.97962886 -0.2917056 0.42099866 1.3601862 0.51703346 0.2603764 0.4774801 1.1061709 -0.43681058 -0.60703003 -0.26402757 0.989204 -0.062474817 -0.2822731 0.7168379 -0.493552 0.013515878 0.021828007 0.123719 0.276055 -0.090973824 0.28955096 0.668229 -0.17439194 1.1507343 0.6940156 -0.98190236 0.044056166 0.61825484 0.9098507 0.12952377 0.13430245
Caryophyllaceae -0.3080497 -0.049543437 0.06101317 -0.085454084 0.0018665392 0.0024685333 0.08903641 0.0092672715 -0.1147802 -0.05587495 0.09179702 0.04650138 -0.03537375 0.10441351 0.14427021 0.037493914 -0.036541067 -0.05376333 0.111908965 0.00994485 0.099708855 -0.14075047 0.04157594 0.06148814 -0.11042618 -0.033204835 -0.12115584 0.116909936 -0.06471775 0.09304321 -0.028602406 -0.032797303 -0.027172826 -0.007521723 -0.018555304 -0.028481087 -0.035366744 -0.06701295 -0.07411383 0.022794746
Casablanca -1.9191127 -0.9931145 0.38186494 -1.9527222 0.1708527 0.09814415 -0.37459445 -0.05898488 0.88662666 0.11820745 0.7496303 -0.40652952 0.42746392 -0.48839325 -0.5450363 -0.05177007 -1.4823157 -0.18895173 0.088241234 0.26758227 -0.40465945 -0.4857521 -0.0070057223 0.6555997 -0.3089486 0.15944408 -0.10800006 0.00096305175 -0.11931893 0.40168473 0.056450315 -0.6220022 -0.07632018 -0.15771975 0.019605191 0.45922324 -0.6544875 1.0795519 0.13957925 -0.06276559
Cassiope 2.0335422 -0.37083122 0.32546568 -1.1721461 0.6490474 0.38305292 0.06554915 -0.48032463 -0.7620043 0.019880466 -0.6040906 0.97312707 0.17429094 0.55440664 -0.23421004 0.28770745 -0.5189668 0.50203437 0.34605438 0.32279897 -0.765596 -0.39973268 0.67554647 -0.5149619 -0.58771366 0.36599338 -0.47021973 -0.061005697 0.10585486 0.11810283 -0.4897474 -0.43677077 0.0090126125 0.8584535 -1.1099557 -0.34885103 -0.06835929 0.3367023 0.11488718 0.785687
Castile -0.2508965 0.0474995 -0.10428925 0.32301268 0.32690832 0.15864664 0.13656043 -0.19512689 0.124007635 0.82123977 0.37324882 -0.08423532 -0.19509205 0.32174173 0.005066829 0.029725289 -0.05406841 0.25800616 0.0097179925 0.37663046 -0.0471943 0.020531664 -0.2992867 0.19902173 -0.29459473 -0.31549183 -0.12552792 -0.36762297 -0.2511664 -0.39476258 -0.16466843 -0.18276371 0.38108197 0.14300491 -0.006279253 -0.103575185 0.026313495 -0.2675484 -0.11995277 -0.35198095
Castilla -0.05058199 0.16614555 0.0029466122 -0.407732 -0.31367937 -0.17461962 -0.19849783 0.120575204 -0.0680589 -0.81141096 -0.39286795 0.12463015 0.14867668 -0.2945915 -0.020090878 0.118771076 0.1856109 -0.31486255 -0.02146642 -0.4146915 0.050096255 -0.0942562 0.25950715 -0.18506587 0.27117532 0.36466214 0.14644592 0.32852167 0.19039278 0.38668635 0.22355118 0.19225457 -0.27134842 -0.13594405 0.0041809804 0.18325521 -0.03286418 0.2819116 0.18397568 0.33362225
Castries 0.16522051 -0.78475827 0.37295783 -1.6192212 -0.13195446 -0.09449796 0.56437224 0.11649792 0.8888253 0.3357303 -0.032306895 -0.76076305 0.63604236 -0.66758424 0.49597648 0.4090961 -0.99086887 -0.64255977 -0.6619342 -0.20834644 -0.8584859 -0.80118847 0.20872028 0.24938762 -0.5463664 -0.40723994 0.47914687 -0.6237359 0.26735783 0.2372789 0.38278443 -0.4569034 -0.74065423 0.3311239 0.49167672 0.15464294 -1.1268632 0.1565444 -0.13547595 0.67639345
Castro -2.413925 -1.342554 -0.9348801 -1.1617299 0.6307111 -0.49827033 -0.3650507 1.0441118 0.2061492 0.005860737 0.7707726 -0.2227954 0.14205885 -0.030882427 0.03611563 0.40977144 -0.76014924 -0.04340322 0.7967673 -0.07044109 -0.35148942 -0.08211653 -0.3392379 0.29983154 -0.5681911 0.026524842 0.12505706 0.17607522 0.42847028 0.28513938 0.17388146 -0.1040699 -0.15010701 0.052618425 -0.24867627 0.07136648 0.12257231 -0.022886492 0.0624886 -0.1654364
Casuarius 1.9651977 -0.5712155 0.07003765 -1.1676227 0.8401658 1.0790367 -0.54680306 -0.06807541 -0.45943022 -0.6911975 -0.5149361 1.3602645 0.5143622 -0.2556716 0.550215 -0.47639704 -0.46519035 0.105524845 -0.47784936 1.0384489 0.37841716 -0.749935 0.15528268 0.1051941 -0.3693447 0.67886066 -0.8395006 -0.05541723 -0.3827987 -0.25218514 -0.64072776 0.35210037 -0.33838043 0.6154788 -1.4305915 -0.7676207 0.16951986 0.5341082 -0.88547456 -0.31466898
Catapres 0.8565641 -0.54857177 0.38351578 -0.28639752 -0.1673282 -0.7369564 -0.10861142 0.115945786 0.014217657 0.7708885 0.37342498 0.45558897 0.51468074 -0.3328133 -1.437412 0.11701868 -1.7667178 0.44429106 -1.0897979 1.0758756 -0.47452858 -0.9897671 0.635925 -0.3710434 -0.2418865 0.07960124 -0.72949994 0.17231174 0.50988966 -0.031806767 -0.25467506 -0.3266979 -0.29764843 -0.3691167 -0.31851968 0.69801736 0.21609537 0.38808364 -0.8361469 -0.13299161
Catha 1.273716 -0.08271805 0.4869982 -0.9383303 1.432616 0.36638957 0.1418014 -0.12416379 -0.60602814 -0.21259391 0.36361095 0.7199761 0.7403147 0.55581075 -0.31959403 0.3757168 -0.33133158 0.30774668 -0.22633398 0.5415533 0.3725164 0.5871889 -0.069462165 -0.33246213 -0.5982964 -0.45482433 0.43057418 -0.35243812 -0.9448787 -0.6245632 0.30222213 -0.65141654 0.40689987 -0.31633908 -0.48261136 -0.3339613 0.4446865 0.17537239 0.08602573 0.005736479
Catharanthus 2.0737252 0.9111017 0.7925293 -1.0317622 1.708542 0.22710428 -0.43596286 -0.1149217 -1.0206804 -0.7238752 0.41247696 0.99271697 -0.042781837 0.93363404 -0.8726428 -0.182766 -0.9206436 -0.13491215 0.5144682 0.53370297 -0.06940114 -0.04846334 -0.5221819 -0.8060956 0.010282029 -0.17477007 0.3253019 -0.23866194 -0.33917832 0.6849497 0.56197065 -0.10377871 0.011288023 -0.30029488 -0.39617196 -0.022997485 0.6488895 1.1042447 -0.7606364 0.34981465
Cather -0.75578064 -1.1291474 -0.10881519 -0.9657147 0.53413683 0.041438565 -0.8454583 0.06945658 1.6846889 0.23574512 0.44374967 -0.36721507 -0.054233026 -0.16186126 1.8446823 -0.068117134 -0.08482594 0.17146334 0.12151398 0.7069337 -0.5944599 0.022736281 0.14087734 -0.7489079 0.40511423 -0.043999176 0.03085401 0.27026787 -0.049164638 0.64751273 -0.16670205 -0.9481656 -0.05745649 0.48108378 -1.0431958 0.24891287 0.04260126 -0.20557539 0.36966798 -0.02905285
Catholic -0.8773587 -0.26044765 -0.3808605 -0.6124515 -0.04017683 -0.061122704 0.0112648355 0.06430978 0.4910386 0.15613665 0.32523867 0.0038398616 -0.32006222 0.026093388 0.28026462 -0.60820735 0.28966495 -0.33248863 -0.06916624 0.05118272 -0.09452689 0.081889406 -0.25777942 -0.3295086 -0.12896582 -0.26796693 0.0648865 0.34726557 0.19288796 -0.29037836 0.11204134 0.14538825 -0.07590814 -0.20102607 0.30288285 -0.079570524 0.014613841 -0.569368 0.0759772 0.268041
Catholicism 0.8432882 0.2736378 -0.219454 0.66798747 0.04769162 0.45359284 -0.35949567 -0.41314435 -0.12812606 0.03366462 0.2514041 -0.56849766 0.098022684 -0.17997871 0.5146746 0.166634 -0.16897318 -0.14267524 0.14395674 0.2790872 -0.14352201 0.20726442 0.21472041 0.2774665 0.19590567 0.3053886 -0.14081457 -0.056430534 0.046293277 0.13447827 0.086098775 -0.057916854 -0.034229092 0.19405797 -0.49356374 0.13932608 -0.05657163 0.020817094 -0.5354963 -0.3878086
Catholicos 0.9549802 -0.47327155 -0.8788538 -1.2290555 0.2786014 -0.3270544 -0.7413449 0.6599534 0.8170507 2.149033 -0.008344665 0.45514375 -0.0054827305 -0.287557 -0.25777695 0.79102975 -0.42973718 -0.19986102 -0.007869712 0.22738662 0.42706075 -0.5510846 -0.4125269 -0.67956966 -0.81925356 -0.107582815 -0.75925624 0.54236627 -0.19419251 -0.5763382 -1.0120945 1.1948525 1.2052271 -0.5965329 -0.7045055 0.016014872 0.96318096 -0.89604414 -0.3967098 -0.5340159
Catskills -0.39100155 0.14955488 -0.041315727 -0.08738822 0.10554589 0.060003426 -0.016996212 -0.030444779 -0.012244953 -0.029156769 0.17782252 0.13251472 0.04289473 0.11165926 0.048772216 0.1531946 -0.0110816015 -0.12670922 -0.061915144 -0.080869205 -0.013196294 -0.048989058 0.0053789 0.013475029 -0.07601861 -0.07740995 -0.020292848 0.014147275 0.04083822 -0.06185514 -0.083274975 -0.06837269 -0.028096478 -0.00678451 0.024543 -0.012712609 0.011003336 0.013891436 -0.024068385 -0.041950073
Cattell 0.03040158 -0.010414493 -0.62752783 -0.89023614 0.17169493 -0.5391336 -0.528364 0.012606043 0.52102417 0.42540312 0.8584301 -0.5436916 0.09819493 -0.021717532 1.5358611 0.23311429 0.7485708 0.41678792 -0.06939254 -0.19084015 -0.4917998 0.2788253 0.21970522 -0.081913896 -0.48543924 -0.17452227 -0.026940534 -0.47041178 0.07054084 0.06588678 0.5635191 0.06112609 -0.38325018 -0.5659352 -0.48790607 -0.022461439 -0.087604314 0.07268977 0.15937695 0.46943718
Cayuga -0.7999129 -0.46293855 0.14419203 -2.0674047 0.34552923 0.080552764 0.71476954 0.08536405 0.84060425 0.38821548 0.32903448 -0.19369364 0.26885292 -0.36937535 0.32400155 0.36606506 0.11993888 -0.41181007 -0.4639381 0.45975778 -0.9047933 -0.1586087 0.05946165 0.1126597 -0.20435993 -0.60615784 -0.21227425 0.14252977 0.3313025 0.29633382 0.85204005 0.20918375 0.006793208 -0.6321479 0.4384699 0.050028823 -0.10751505 -0.72083664 0.34799525 0.6127693
Ce 0.8666948 -1.3225445 -0.8808456 -1.2405056 0.5373706 -0.45014122 -1.069504 -0.51535016 0.3797122 0.14670913 -0.30665073 0.4657483 0.554441 -0.8051294 -0.35857248 0.14482027 -0.2940702 0.5880394 0.037040044 -0.6648215 -0.3959122 -0.3008575 -0.20691206 -0.15374662 -0.40624297 -0.5756425 0.27981144 0.13611184 0.19008525 -0.026856167 0.21896271 0.070401184 -0.033004727 0.3028513 -0.1016589 0.097391136 -0.113709904 -0.29297984 0.3197068 -0.14582223
Cebu -1.9252428 -0.6945836 0.18448022 -2.232981 0.11108187 0.27262178 0.58980536 -0.18738009 0.7682341 0.14059564 -0.020446112 0.2087825 0.029115042 -0.6929084 -0.7510324 0.776705 -1.0444927 -0.7859869 -0.13672867 -0.46744308 -0.6140395 0.0074424082 -0.2542135 0.37872297 -0.60098803 -0.29263568 0.1503344 0.26858017 0.8285414 -0.13015102 0.21973722 0.15514304 -0.6604567 -0.28812987 1.1182586 -0.045143206 0.32577935 0.48672318 -0.011533339 0.6274226
Cebuano 0.04596854 -0.9979287 -0.2136007 -0.56376654 0.033937458 -0.015796822 -0.17632566 -0.86808693 0.20335147 0.31712663 0.29363418 -0.056714527 -0.19971964 -0.6383599 -0.070107676 0.5724554 -0.38652954 -0.3571354 -1.3087605 0.2581715 0.5015349 0.4849784 -0.9981003 -0.41332367 0.02336783 -0.9437827 -0.46271944 0.9306044 0.56628937 -0.6295194 -0.053733647 0.24699019 -0.46807763 -0.43923512 -0.13446796 0.6751325 0.6734624 0.061000094 -0.030495532 1.1918099
Cecropia 0.018306492 -0.013928539 0.12682182 0.13830277 -0.074802406 -0.044600405 0.13824297 -0.14004622 -0.027000539 -0.10200159 -0.12380792 0.22197993 -0.017832886 -0.009288203 -0.061669428 0.17334102 -0.019820286 0.05539 -0.16822854 -0.11766446 0.0348329 -0.26660183 0.062910356 -0.12939127 -0.04048364 -0.052005082 0.01216044 -0.023558522 -0.056295734 -0.013773899 -0.1141319 -0.015443901 0.094601095 -0.10226203 0.104252234 0.02185997 -0.11058232 -0.07732595 0.012444805 -0.055840794
Cedrus 1.2640121 0.18008015 0.28450346 -1.4473542 1.1173931 1.1777773 -0.33145973 0.019426353 -0.33182994 0.026218329 0.39483207 0.9878652 0.46253785 0.16108035 -0.42352748 0.9020445 -0.6615599 -0.24854666 -0.60151863 1.0564803 -0.33644456 -0.58339673 0.36105508 -0.76761174 -0.8596171 0.5172582 0.1305698 -0.31327963 -0.043730527 0.0121509805 0.3838321 0.13112514 1.0767294 0.41355157 -0.41649452 -0.7539112 -0.20690425 1.3870504 0.41514823 -0.21666686
Ceftin 0.67465025 0.5601807 0.13108578 -0.41421828 0.7621789 -1.5385027 0.8007245 -0.5196166 0.26199725 0.45579472 -0.18598184 0.22833143 0.4068734 -0.20401105 -1.1023802 0.4944509 -0.8666258 0.51477206 -1.0584506 1.3496705 0.7794932 -0.4227115 0.9887051 -0.08759963 0.79827297 0.69806415 -0.12385578 0.6900325 0.28289255 -0.39588317 0.63909125 -0.004754292 -0.83620864 0.87462187 0.20196423 0.22526218 -0.10638268 -0.4888368 -0.11021426 -0.37805188
Celastrus 1.8924708 0.056808483 0.022007324 -1.0393014 1.1555523 1.2639091 -0.27177343 -0.58535504 -1.1303649 -0.5761497 0.35103366 1.3976694 0.39433074 0.7114831 -1.1512227 0.23932588 -0.10715357 0.7615489 -0.2700372 1.956329 0.59930587 -0.6277127 0.24104764 -0.47867736 -0.29873225 0.31896332 -0.5608984 0.79287195 -0.46929133 0.22791584 0.40511498 -0.7128164 0.31244072 -0.58992463 -0.17288348 0.08679222 0.71816087 1.7369817 -0.04188953 0.48061967
Cenchrus 0.2363453 0.15969522 -0.24094145 -0.5111085 -0.119697176 0.14383315 0.20394024 0.11201238 -0.26130116 -0.19015425 -0.058675863 0.34214047 0.0719398 0.13614832 -0.37045008 0.009410868 0.6308227 0.05395699 0.24188113 0.26650715 0.12113198 -0.06743281 0.53990495 0.12672597 0.01574721 0.007257299 -0.11225859 -0.040930506 -0.014257009 0.40596402 -0.42830202 0.4371526 -0.56892043 0.07276062 -0.12581146 0.051876493 -0.4665842 0.26619762 -0.22366771 -0.42027986
Centaur -0.26352036 -0.21624495 -0.083406076 0.095927894 -0.64017546 -0.07587678 -0.19582264 -0.17868455 0.28901756 0.29758415 0.16966516 -0.47452605 0.30408186 0.5255407 0.30724734 0.27501607 -0.18298894 0.0007706315 -0.72786164 0.19580877 0.043878518 -0.09929595 -0.28925455 -0.15536608 0.14373285 -0.5934374 -0.13988048 -0.39121234 -0.08082067 0.4882057 -0.07219037 0.69746256 -0.16378811 0.7450718 0.35457665 0.30838114 -0.13440461 -0.31506643 -0.03164297 -0.07310835
Centaurus 0.25804704 0.046995748 0.013325192 -0.1564581 0.5404537 -0.009208363 0.13361336 0.19739711 -0.06420167 -0.39017695 -0.28158417 0.3935097 -0.29782176 -0.5336146 -0.36608097 -0.34808028 0.13538153 -0.024318568 0.60693246 -0.16639876 -0.09628253 0.15626933 0.32342136 0.17413116 -0.14321801 0.62374663 0.1277195 0.44815576 0.13658759 -0.4107396 0.13452192 -0.6080651 0.14963573 -0.70676553 -0.34529403 -0.2862464 0.14605892 0.31588435 0.04929292 0.13258812
Centranthus 1.9140495 -0.04879817 0.77265567 -1.1756504 1.3508637 0.34772125 -0.07069897 -0.13510337 -0.7897018 0.32385713 0.37551007 1.5052418 -0.13630019 0.4076954 -0.31454223 1.4388965 -0.53768754 0.7913423 0.23454477 1.1040858 -0.36962613 -0.45185784 -0.11159411 -0.11912755 -0.21087886 0.5671571 -0.21455368 -0.33381715 -0.48428744 -0.3590838 -0.23490971 -0.5935765 -0.107395135 -0.25291204 -0.44830793 0.23472098 0.43126914 0.10655934 -1.1921077 -0.49124476
Centropus 2.2588704 -0.10505732 0.40950692 -1.1642516 0.8754972 0.19198631 -0.5826782 0.097213104 -1.3226898 -0.50994116 -0.19624661 1.1930763 0.070966616 0.13291399 -1.2560778 0.6224148 0.39451358 0.83482134 0.36363235 0.9038311 0.7237465 0.013990602 0.17246042 -0.89412 -0.31939587 -0.5055006 -0.6096861 0.39285108 0.5158221 -0.5736864 0.051716536 0.52872026 0.7533024 -0.61065364 -0.76052076 0.07758012 -1.1108118 1.1727905 -0.42423716 0.34289068
Cephalotaxus 2.3006122 0.022624817 0.09398704 -1.6978962 0.7552083 0.31557834 -0.20809945 -0.19951932 -1.3804889 -0.7920277 0.76377994 1.6494244 -0.057964038 1.1517437 -0.35863844 0.50298315 -0.010082361 0.3983988 -0.11571915 0.8927474 -0.13530377 -0.71638113 0.5058535 -0.2931328 -0.45578048 -0.4010358 0.33137104 -0.6549276 -0.7869959 0.36431792 -0.505736 -0.5308785 0.26063007 0.46922413 -0.5793639 -0.73343664 -0.4290488 1.3017989 0.5790981 0.7153259
Cerambycidae 1.3243062 -0.32016802 0.65754455 -1.7439806 1.0162965 0.9012246 -0.27196825 -0.17302804 -1.1455858 -0.9661604 0.27033696 1.8839507 0.2630727 0.69196403 0.49867648 -0.22076535 -0.079445146 -0.19065405 -0.88447005 1.0775567 0.46844074 -0.53678685 -0.015946634 -0.13902959 -0.23275723 1.0706217 -0.4714051 0.98363507 -0.52870995 -0.0027376995 -0.9326914 -0.10503192 0.9568186 -0.61988187 -0.707248 -0.5672935 -0.72007734 0.27505785 -0.55787414 0.6495062
Ceratophyllum 1.8796486 0.21857426 0.7166979 -1.2012919 0.8007057 0.8824388 -0.085578255 -0.36397272 -0.80238426 -1.1632639 0.59175605 1.0803499 0.7323362 0.83445305 -0.22877754 0.29294506 0.048861478 0.0057805353 0.5805249 0.95466197 -0.26828066 -0.4164292 0.4722263 -0.02059867 -0.34082276 -0.1187815 -0.10879648 0.60572296 -0.3590556 -0.22334252 -0.4202816 -0.2998394 -0.024831736 0.7191463 -0.69175625 0.33176073 -0.46130964 1.0733782 -0.4673616 0.55711424
Cercopithecidae 2.4054902 0.03118289 0.06562898 -1.5833106 1.7802225 0.95349276 -0.9674065 -0.06852095 -1.3256954 -0.23974162 0.20030254 2.1263547 0.274656 1.1233263 -0.30490258 -0.38134637 0.35086116 -0.44027722 0.83569515 0.7801737 1.0025558 -0.42377368 0.43227494 -1.1106137 0.28168038 1.0160067 -0.5566628 -0.617395 -0.8196995 0.23936613 -0.6171938 1.8681337 0.57858694 -0.56851834 0.68097645 -0.49046713 -0.75539345 0.7943962 -0.27943668 -0.9014996
Ceres -1.5199556 -0.27437338 0.07668905 -1.3798426 0.7206692 0.6924184 -0.15617804 -0.13701352 0.8070624 1.0286157 0.25936094 0.47506428 0.6599459 -0.20811999 0.16749333 0.1670181 -0.21190326 -0.29131705 -0.31765023 -0.47597665 -1.1718768 -0.2363765 -0.37835556 0.2784966 -0.18358684 0.40803495 0.13019797 0.06167746 0.022567056 -0.66387784 1.3620702 -0.5897294 -0.1827063 0.58154905 0.37397388 -0.19999684 0.7646611 -0.007427684 0.7836007 0.50280803
Cestoda 1.1830039 -0.14716445 0.36684138 -0.6685394 0.9486399 -0.26643464 -0.30745673 0.33215702 -1.0300564 -1.1662546 -0.24516341 1.2274605 0.8347509 0.3551113 0.09059262 -0.11742128 -0.221831 -0.4640465 0.6227686 0.2995981 0.09555033 0.023073439 0.005852288 0.34601223 0.14558503 0.789302 -0.6640212 -0.21569027 0.06333427 0.55863476 -0.23137547 0.5255725 -0.3136823 0.89675653 0.5906771 0.69479245 -0.73278207 0.25831333 -0.20282517 -0.12392197
Cetorhinus -0.10507766 0.11074214 0.09453926 -0.055405762 0.15385498 0.060494613 -0.056245003 -0.1368389 -0.058569767 0.019535176 -0.12786877 0.2641102 0.022898886 -0.016209848 -0.07647359 0.17796831 0.09714797 -0.030239746 -0.13502605 -0.07250949 -0.09079137 -0.10757289 -0.00607794 -0.051867478 -0.03790682 -0.04963796 -0.05265194 -0.04559248 0.07621298 -0.13200694 -0.074776754 0.010706207 0.10481271 -0.03709177 -0.004686586 0.07413693 -0.09094796 0.03609815 0.022708662 -0.06351992
Cetus 0.13109711 -0.06911519 0.25854245 -0.7697901 -0.28172666 0.35708338 -0.4937322 0.46457782 -0.24783817 0.65652525 -0.19991566 -0.33970127 0.8281224 -0.08769877 0.8270647 0.35676926 -0.56874096 0.36153585 -0.3554271 -0.4685741 -1.1175431 0.14413072 -0.0562347 1.1981472 -0.57106256 0.91408736 -0.653589 -0.5271165 -0.07166547 -0.085794605 0.27829576 0.84029365 0.37552387 0.46728238 0.9749933 -0.3240601 0.20284215 -0.11620391 -0.06523889 0.9110732
Cezanne -0.78719085 -0.70676285 0.1878513 -0.9597607 0.41572863 0.2152409 -0.907354 -0.9769695 1.6139083 0.49429327 0.56509215 -0.19736837 -0.0054780943 -0.22376291 0.95901304 0.25072458 -0.5854737 0.4662472 -0.19800201 0.15509553 -0.46194938 0.17869158 0.6034553 -0.12685019 0.27461365 0.6471849 0.07967105 -0.946612 -0.30102354 0.6481423 0.39169574 -0.38256624 0.05889046 -0.5015301 0.013843287 0.29809147 0.29307973 -0.053908378 0.24636337 -0.77832323
Chaetognatha 2.4534562 0.13775024 0.20694341 -1.4982826 0.8644409 0.6640517 -0.91817945 1.0496109 -1.761224 -1.2521186 -0.16050576 1.3058279 0.41328162 0.14909844 0.3186588 0.5977357 0.46413377 0.6538378 0.12038866 0.51808345 0.6015889 -0.53721267 0.6274072 0.5972282 0.37085995 0.12550977 -0.19082704 -0.31859386 -0.06314244 0.13461843 -1.2581003 0.41142702 -0.65665746 0.84538066 0.62416685 -0.0036068058 0.1283367 0.5202147 -0.58258224 -0.21659735
Chaga 0.6837861 -0.012195883 0.31934333 -1.019454 1.5124938 0.40130875 0.3402274 -1.0656122 -0.7265039 0.16945906 0.64552975 -0.28588197 0.9920941 -0.063471794 0.15862392 0.5622485 -0.36490026 0.9456613 -0.75142497 0.8903931 0.66098493 -0.09842474 0.16502865 0.0540638 -0.44478846 0.2764925 0.08158981 0.37205806 0.4882301 -0.59970397 0.59085315 -0.12176011 0.29493114 -0.12614141 -0.1535784 0.009415244 -0.1641511 -0.120748 0.061686017 -0.24204229
Chagall -0.6979764 -1.180325 0.26732025 -0.9767157 0.29150864 0.24511853 -1.4686204 -0.73512477 1.5192846 1.0044395 0.52700174 -0.5121036 -0.086537294 -0.10920609 0.7081299 -0.08784104 -0.92380047 1.0192884 0.56955737 0.08531084 -0.23719874 -0.19760048 0.32690474 -0.27614287 0.34512684 0.41488123 -0.72900504 0.07028925 -0.37119153 0.26785356 -0.12581575 0.38773984 0.21248715 -0.6070395 0.47856283 0.3928757 0.38847393 -0.065887585 -0.58607197 -0.72970295
Chagatai 1.5539832 -0.42068395 -0.07192782 -0.8862869 0.10829504 -0.0009479399 -0.7391658 0.33130285 -0.068351336 0.63492143 0.6201759 0.042506173 0.05325701 -0.009212742 0.06453022 0.9668591 -0.80376804 0.19388726 -0.19993457 0.68873185 0.3836941 1.0787135 -0.8785519 0.80385387 -0.41546243 0.10109642 -1.1358525 -0.70285475 -0.54368234 -0.17769507 -0.20224361 0.5101875 1.0082009 -0.32868528 -0.7781531 -0.3841818 0.6389698 -0.102449484 0.4079215 -1.2737637
Chaldea 1.2012944 -0.74443454 -0.66361123 -0.04644969 0.63675135 0.9753613 0.029397558 0.026064005 0.41964716 2.0724409 -0.63663185 0.08267482 0.50202155 -0.13716857 -0.110649616 0.7073022 -0.49307853 0.23800036 0.089530945 0.27759287 -0.6267948 0.96726424 -1.4204544 0.6469125 0.19229977 0.13042596 -0.58924645 0.34771514 0.13642178 -0.35166156 0.14771217 0.066955894 -0.24632461 -0.2621099 -0.23052387 -0.2902036 1.1678997 0.6281883 0.39787936 -0.16511959
Chalons 0.8892149 -1.0780065 -0.04091409 -1.2160387 0.044341914 0.30141044 0.072321735 0.11719172 0.7434102 1.0176708 -0.13890982 -0.05918969 0.83952695 -0.3960879 -0.047378823 0.71210027 -0.59862876 -0.043043084 -0.002379744 0.43987447 -0.6236426 0.11929531 0.15998966 0.68325126 -0.661903 -0.4157604 0.36177918 -0.9596354 0.042667408 -0.33943376 -0.23957053 -0.19897535 0.15409625 -0.06724289 -0.56252134 0.17275877 -0.5520105 0.12549506 1.0649203 -0.342522
Chamaecyparis 1.5625795 0.07229726 0.22155014 -1.9032605 1.6145052 0.8839796 0.16539514 -0.4673589 -1.2987338 -0.38302281 1.1083517 1.3559651 -0.3011745 -0.3224703 0.2794289 0.48705813 0.0061237765 -0.64878625 -2.9878274e-05 1.5114851 -0.6493844 -0.6188443 1.4033939 -0.54930824 0.086418495 0.9315774 0.62405777 -0.15244547 0.5641575 0.17563447 0.42780775 -1.1136099 0.24593565 0.22929257 -0.18029109 -0.30074808 0.33183253 1.1447275 0.5590079 -0.3372905
Chamberlain -2.1486025 -1.2247295 -0.63335675 -1.420094 0.31287178 -0.8631543 -0.6135798 0.74677896 0.7024537 0.4960895 0.9521821 -0.36034676 0.07851807 0.36859646 0.78868824 0.43669504 0.6349101 0.033686273 -0.17138161 0.7120598 -0.20270449 -0.26446414 -0.055810336 -0.07339491 -0.04992624 0.21577726 -0.3609205 -0.2968334 0.0449718 0.4743588 -0.1167886 0.40993592 -0.1256356 -0.15043372 -0.61977905 -0.55494547 -0.25096783 -0.23131694 0.5528725 -0.28868574
Champlain -1.5740875 -0.61202693 -0.02267473 -2.0689328 0.28481844 0.5614931 0.54609126 0.090377025 1.6493098 0.39420038 -0.19518885 -0.27962428 0.7490659 -0.50553805 0.5699087 0.23097971 0.0010954097 -0.07374981 -0.26613894 0.04545245 -0.6113401 -0.2592655 0.24921246 0.5270986 0.06768123 -0.24279082 0.24750406 -0.41927546 0.33564165 0.57265234 0.2629444 0.05100889 -0.75479585 0.17149699 0.249931 0.17784029 -0.08344955 -0.91123116 0.038679115 1.0755174
Chancellorsville -0.21286961 -0.62163806 -0.15287371 -1.3672853 0.30544305 0.11386951 0.16057414 1.4261788 0.7280976 0.72074074 -0.09735964 -0.65210795 0.5524642 -0.513548 -0.11142229 0.97637665 0.08701324 0.83424765 0.14796709 0.36558926 0.4331075 -0.11833126 -0.34183156 0.2663852 0.28298298 -0.42043513 1.1270584 -0.50918084 0.2590463 0.5755519 0.03218444 -0.102702335 -0.33172765 0.43054822 -0.7726955 0.098216444 -1.0353458 -0.47175732 -0.041971963 -0.25646138
Chandler -2.8344777 -1.0743483 -0.07816264 -1.7064577 0.174088 -1.0911539 -0.33977953 0.19334207 0.71168727 -0.20775142 0.82425374 0.30455217 0.46891546 0.7533895 0.2834242 0.4308442 0.35262823 -0.04867989 0.29993588 0.8052501 -0.9751467 0.26609823 -0.18289882 0.0005295639 0.2870731 0.1408587 0.03901312 -0.06941468 0.5067883 0.049646776 0.42981902 0.14054558 0.3400385 -0.5500393 -0.48946118 -0.47726226 0.14703624 0.11374705 0.29870048 -0.047344584
Chanukah -0.95705104 -0.07970634 0.059027724 0.05972792 -0.0020999836 0.14378518 -0.16851565 -0.28235295 0.25511917 0.31073955 0.123086676 0.03443387 -0.055750336 -0.16327377 -0.19080137 0.21822673 -0.05696003 0.006257147 0.13714646 -0.18105263 0.20234558 -0.08480436 -0.12406423 0.07664125 0.009230048 -0.04199589 -0.02483782 0.119713426 0.0036502504 0.055439603 0.2980235 0.1454786 -0.089813806 -0.25971666 0.22184086 0.07545348 0.17290264 -0.08110413 -0.1517775 -0.33153602
Chanukkah 0.93138343 0.08093549 -0.06839304 -0.054224025 0.00082394935 -0.14908096 0.1693112 0.2891857 -0.24859011 -0.30800122 -0.12587929 -0.032174606 0.054243285 0.16598722 0.19544622 -0.2135897 0.065078266 -0.0061540175 -0.1443822 0.18092579 -0.19642404 0.08112989 0.12520604 -0.07790615 -0.014039269 0.04105195 0.024912197 -0.115186185 -0.007227619 -0.06173623 -0.29452062 -0.15051074 0.082770646 0.25416687 -0.22412549 -0.080232054 -0.16827372 0.07659673 0.1526574 0.32845286
Characidae 1.4384887 -0.09275033 0.39331874 -1.3218561 1.1279474 0.64059347 0.25910142 -0.7908769 -1.0503479 -0.25632513 0.23448849 2.3275406 0.28179914 1.1075441 0.73638296 0.48093456 -0.7318925 -0.94466275 -0.2292514 1.0438087 0.9141757 0.3449312 0.89617044 0.91287076 -0.7645764 1.9797746 -1.1178646 -0.18688338 0.082006924 0.24073814 -1.4104466 0.32411808 0.44335476 -0.24376746 0.7583951 -0.3448741 -1.2961398 0.23083478 -0.5856905 0.76419145
Charcot 0.36360788 0.528526 -0.40618354 -1.0618839 1.2358863 -0.81759053 -0.94972354 0.62172985 1.1678401 -0.16155447 -0.56309295 -1.0606186 -0.6089831 -0.25124612 1.5844333 0.6263703 -0.15681727 0.0065745567 0.38963836 0.91028345 0.08628172 0.33529383 -0.31681105 0.40866145 -0.55730623 0.57499653 0.35303703 -0.93621665 -0.27838224 0.18441735 -0.9864815 -0.6637397 -0.05243825 0.22845195 0.81469554 -0.10856631 0.2350958 0.5954454 -0.7339985 0.017983835
Charina 1.2422211 -0.20835339 0.5318228 -1.1388849 0.6321928 -0.21033043 -0.18601386 0.033362743 -0.29255018 -0.18320934 0.08809103 0.35684076 -0.44781885 0.54331344 1.0927398 0.88120943 -0.24388789 -0.0348861 0.13644946 0.083555 -0.7327228 0.10426775 0.881306 0.05333609 -0.3181826 0.06274041 -0.6028151 0.7180798 -0.3419877 0.6592783 0.27003312 -0.58032537 -0.036253266 0.2993249 0.5198906 0.35825709 0.74487114 0.011044243 -0.47091088 0.11395439
Charlottetown -0.70835805 -0.40164554 0.0033397742 -2.5717971 -0.15002586 -0.27232876 0.49196148 -0.007590538 1.4258385 -0.0053896373 0.20855978 -0.26586312 0.2941114 -0.031391084 -0.022685423 0.11298977 -0.5987156 -0.528408 -0.03494112 -0.23148762 -0.5634572 0.119797766 -0.28630486 -0.009282875 -0.36280265 -0.33467236 0.07587365 -0.20123906 0.4135729 0.42046165 0.09856166 0.61129737 -0.49710143 -0.1842916 0.13280025 0.20502762 0.22976072 -0.30026346 0.36663106 0.5866795
Charybdis 0.4159237 -0.67250264 0.10262789 -1.5548034e-07 0.3163626 0.7597288 -0.18811539 0.2582061 -0.6657863 0.4561355 -0.8391257 -0.35021284 1.0663899 -0.52249575 0.2761114 0.7772007 -0.5276766 -0.023757832 -0.4276886 0.6145819 -0.29960865 -0.33967695 0.47726995 0.6376259 -0.2942241 0.6643082 -0.32221016 -0.73871076 -0.16158707 0.50762546 0.49819815 -0.12814565 0.11144277 1.5938387 0.5600126 0.31885415 -0.55938506 0.16435017 -0.13775057 0.70300645
Chimaera 0.032736845 -0.41706187 0.5051586 -0.9957409 0.26235703 0.44355062 -0.53078043 0.077398516 -0.270903 0.70184076 -0.40927967 -0.21703912 0.9833735 -0.03104722 -0.09140594 0.86354315 -0.7051109 0.42714077 -1.0710908 0.24440853 0.16934912 0.09852064 -0.032151084 0.66033435 -0.2525872 1.1445211 -0.4035907 -0.09911593 0.37060526 -0.06150431 1.1956832 0.59412533 0.6713098 0.73428303 0.19337064 -0.113269195 -0.41104686 -0.13093722 -0.3811474 -0.45792574
Chisinau -0.39894575 -0.6473835 -0.60025793 -1.6788299 -0.3915362 -0.11488303 0.3247081 0.07220917 1.0005555 0.39680824 0.033920992 -0.46073195 0.28805813 -1.5167575 -0.38498545 0.5917578 -1.8856288 -0.62754524 0.027958816 -0.60914594 -0.43382058 -0.124121726 -0.08332622 -0.078846 -1.1810541 0.06843222 0.47493827 0.03647146 -0.7334484 -0.25878572 0.37456325 0.4964299 0.10041169 -0.4456255 0.13852304 0.10165847 -0.2017669 0.32345694 0.7535958 -0.6992746
Chlorophyceae 1.0450877 -0.4300342 0.6749934 -0.56548494 0.61116505 0.43374732 0.20907155 0.2615305 -1.0401225 -0.18743476 0.25161615 1.1344824 1.2160313 0.56809455 -0.37294593 -0.078689806 -0.21538201 -0.19797924 0.60564816 0.27723405 0.56825125 -0.79805005 0.52247036 -0.17217353 0.21711591 0.1730067 -0.06198587 0.38890666 0.6853424 0.57599145 -0.028314069 -0.6401856 0.69696975 0.33663598 0.384108 0.83725077 -0.49293506 0.5837368 -0.46479276 0.5961458
Chuang-tzu 1.6104184 -0.39417815 0.22100803 -0.74461406 0.061887175 0.09312392 -0.65319854 -0.036374938 -0.045356877 0.42649785 -0.46785408 0.3763688 -0.005027596 0.8218135 1.3979536 0.65301085 0.7732671 -0.20020118 0.15641521 0.47707734 0.30871224 -0.40246272 0.35359406 -0.22120304 -0.3166083 -0.17609362 -0.54158324 -0.2950322 0.06047216 0.10230554 -0.10820349 -1.3143783 -0.33357105 0.060837813 0.24820198 0.70709926 0.3590724 -0.30614135 -0.86862594 -0.046492063
Chuvash 1.3779415 0.09307417 -0.0895039 -0.8970922 0.5955849 0.43888727 -0.4558329 -0.051499702 0.23095495 0.4465017 0.2973982 -0.28772834 -0.24417607 -0.23294705 0.3552545 0.7475369 -0.6673263 0.112780996 -0.4858466 0.22317773 0.38491112 0.6167866 -0.87299347 0.07760463 0.11763441 -0.4320339 -0.6716346 -0.32869306 -0.47433117 -1.1596155 -0.4689266 0.10263206 0.24344052 -0.07674787 -0.17189616 0.10056568 0.5933065 0.03461367 0.6234906 0.40912303
Ci 1.5987846 0.37262902 -0.50727594 -0.9797216 -0.03372518 -1.0877895 -0.71855295 -0.39768884 -0.0025573072 0.8309882 0.7536554 -0.3280027 1.49382 0.18505219 -0.5749142 0.1371419 -0.12083754 -0.2771618 -0.11748097 -0.13014545 -0.4347192 0.11510945 0.22590284 0.060374413 -0.7871533 -0.5496178 -0.045354027 -0.4225198 0.44927055 0.65644014 0.41376346 -0.04345504 -0.2265544 -0.025336338 -0.23438832 0.20896131 0.5523578 -0.45958292 0.73864514 -0.09971096
Cicadidae 1.731485 -0.24429742 0.26947767 -1.4376441 0.4534777 0.4465353 -0.6019264 -0.8807918 -0.8444339 -1.1165621 0.22316942 2.0904171 0.28187197 0.25325307 -0.1599433 -0.10807234 0.19284026 -0.014676638 0.6658733 1.1734302 0.37896234 -0.22854571 0.044381443 0.14911184 -0.40533647 0.8708874 -1.2453903 0.7840526 -1.3498374 -0.7280428 -0.6114209 0.4600946 1.1964242 -0.27127132 -0.5848847 -0.5796733 -0.98753816 1.1933042 -0.87380415 0.5595327
Clarksburg -0.5953787 -0.555687 0.063461535 -2.0346074 -0.15173712 -0.44737238 0.6015934 0.017095966 1.0097742 0.25018817 0.10779914 -0.32621995 0.38154992 -0.06700322 0.36944062 -0.00084262714 -0.009993363 -0.16180122 0.2840914 -0.09351367 -0.9209182 0.031805098 -0.6937971 0.1520769 -0.1575576 0.0031479704 0.36770114 -0.22101457 0.5623147 -0.18179336 1.2326552 0.07159707 0.12711015 -1.0434276 -0.38750923 0.08838497 0.1618955 -0.56795055 0.56109893 0.054896146
Claviceps 2.2703688 1.0539773 0.32908386 -0.64520353 1.9387292 0.19804394 0.26444754 -0.25768378 -0.56845033 -0.24875507 0.43324137 1.1675956 0.24716878 0.7897688 -0.16710073 0.093667895 -0.11885977 0.08415931 0.4608194 0.75814867 0.16885193 -0.045242444 -0.017682467 -0.63549346 0.6633016 0.38116404 -0.2910968 0.62939847 -0.66368806 0.70213544 0.42306405 -0.8028131 -0.8752114 0.4871238 -0.9986987 0.2833894 -0.4442527 0.14543965 0.054377552 -0.2704458
Cleopatra -2.0640697 -1.2489307 0.37165028 -0.46522072 1.1513705 0.043173783 -0.87070507 -0.15825444 0.80007315 1.2402807 0.5100763 -0.16258907 -0.06669727 0.6763488 -0.1326345 0.21580042 -1.200488 0.75137293 -0.25548196 0.15759113 -0.7596893 0.06242548 0.28533947 1.4858631 0.24136944 -0.081912346 -0.16761409 -0.7033364 -0.06682242 0.6920801 -0.03903559 -0.41166806 0.18364221 0.6205297 0.8533476 -0.26296476 0.095598884 0.69114053 0.405105 -0.3395047
Clinton -0.035397418 0.0018868517 -0.00040385028 0.008214156 0.01256166 0.00423619 0.0119767375 -0.0065051354 0.005407932 0.0053896597 -0.0038348553 0.00016645307 0.0053032595 -0.0025411618 -0.00030203178 -0.009327624 -0.001059572 -0.0056613903 0.006614437 -0.0010106878 -0.0010218318 -0.0065939208 -0.005077002 0.0008761441 0.0022714727 0.0040820916 -0.0050454726 0.0018450684 0.00059222867 -0.0072260727 -0.0008835559 -0.0012586918 0.0005361237 -0.0049503716 -0.006251375 0.0014943065 0.0009635748 0.0015891278 -0.0076807654 -0.0098381145
Clioquinol 3.0880585 -0.61202157 0.5893684 -0.5266206 0.8376778 -0.033164736 -0.06671858 -0.0313397 0.35327268 -0.11319675 -0.6143798 -0.09672092 0.2694699 -0.5969818 -0.59207636 0.4187908 -0.4427894 0.19875799 0.52780855 0.6436101 0.31922793 -0.2083296 0.3320681 -0.28226438 1.4832926 0.082010955 -0.37062895 0.46578404 0.8779207 0.06376286 0.27594444 0.32878178 -1.4608374 0.27675182 -0.3761812 0.6741866 0.050699785 -0.04380942 0.059451636 -0.06967583
Clitoria 1.5569925 -0.012805421 0.4778606 -1.3395034 1.0742458 0.030832602 -0.11859485 -0.48555407 -1.0628922 -0.8584701 0.39920896 1.5751705 0.24410273 0.68876237 -0.12465676 0.47053984 0.23606674 0.56584084 0.36536065 0.69590414 0.37570086 -0.28300896 1.1087327 -0.42344138 -0.3514071 -0.11799175 0.18467017 0.20445052 -0.06096199 0.5406268 0.41775197 -1.14473 0.063202195 0.28496554 0.55339617 -0.6902396 0.6870843 1.0543153 -0.27760938 0.8828019
Clive -2.1226313 -1.4640547 -0.4841651 -1.2355757 0.321671 -0.857167 -0.86873245 0.3724698 0.65842277 -0.1678564 0.83221805 0.029656462 0.49427027 0.4547653 0.43297318 -0.3268394 0.36456177 0.661419 -0.074849784 0.35373497 -0.4478752 0.089146204 -0.23281603 -0.16575047 -0.28343946 0.040921055 0.0075162924 -0.64439726 0.16771486 0.9106532 0.42185214 -0.17859094 -0.19692296 0.4892349 -0.07709367 -0.083539866 -0.2637363 -0.0812243 0.05380851 -0.32884473
Clytemnestra 1.0069174 -0.62891364 -0.59891087 0.033244714 0.49775618 -0.5448247 -0.9535268 0.28747243 0.1521386 1.4616363 0.113543496 0.03210231 0.6377464 0.6866853 0.15138109 -0.13949461 -0.7839191 0.005867441 0.17694053 0.12598813 -0.28458208 -0.56596845 -0.12337159 0.70670027 0.05539922 -0.05768254 -0.28441066 -1.0011363 0.07535126 0.44656953 0.997152 -0.12640281 0.82582444 0.6717681 -0.26241 0.65640104 0.12701203 -0.21641096 0.85588706 0.2759226
Cnicus 2.3072588 -0.36491123 0.33245146 -1.2211691 0.9323579 0.5076169 0.37141123 -0.29983595 -0.6568081 0.1462246 0.25647995 1.1394295 -0.321581 1.0009425 -1.1991729 0.9757757 0.7246433 -0.5567476 -0.7552351 1.3442824 0.7746519 -0.74402773 -0.44962707 -0.49375996 -0.14818063 0.3800664 -0.9296278 0.58767897 -0.36154127 -0.22583908 0.05258609 -0.6470309 0.14629164 0.14518559 -0.4071912 -0.7945176 0.8833265 -0.10193583 0.45611492 0.40185606
Cnidaria 0.047526907 -0.070483655 -0.11697452 0.1604909 -0.010655786 -0.19792695 -0.009224649 -0.11182707 -0.06383924 0.29360864 0.06599778 0.10475801 -0.013154699 0.042236913 0.1091669 0.03255326 0.08393189 -0.0061259917 0.107718624 0.06449831 0.0828947 -0.16466628 0.10380463 0.022440882 -0.011384485 0.029092474 0.045046672 0.0203651 -0.06579799 0.048139907 -0.1280117 -0.063362464 0.06532077 0.025357151 0.08304725 -0.0074355933 -0.039895415 -0.0042206612 -0.02337512 0.1308894
Cnossus 1.8202987 -0.38532218 0.3226227 -0.8507654 -0.0874074 0.29604125 -0.8439657 -0.9346096 0.0026740609 -0.03505217 -0.040640507 0.3760732 0.45055816 0.3943732 -0.4959839 0.48577693 0.31271175 -0.1827979 0.7035747 0.17554352 -0.2700898 0.20580932 -0.36030397 0.64504814 -0.03044006 -0.059448723 -0.5806858 -1.3900298 0.12160182 0.27707845 -0.050058234 0.69266427 0.103029065 0.10265225 0.27572438 -0.43404418 0.5997538 1.1253037 0.6581763 -0.15045995
Cnut 0.6672432 -1.1269405 -0.32867485 -0.5239256 0.24847195 -0.22102776 -0.46274868 0.71424335 -0.19484355 1.5485181 0.0375495 0.11322225 -0.10265394 -0.15525603 0.6591103 0.7265078 0.3496603 -0.0016537565 -0.19917254 -0.29284668 -0.09862165 -0.3947905 -0.29675907 0.38352063 0.36785087 0.062463067 -0.95906514 -0.70391047 0.30672646 0.34936583 -0.6146813 -0.021171924 -0.13532008 0.7565212 -0.17005926 -0.30752453 0.11070452 -0.31173027 -0.19237112 -0.37712497
Co -0.7465933 -1.6958927 -1.2171624 -2.8055673 0.6495229 -0.7119643 0.07335652 -0.12875922 0.98489124 0.20687917 0.30695784 0.5544095 0.14250545 -0.3512586 0.37681714 0.42684647 -0.030637953 0.0064281514 0.13636419 0.25407076 -0.784115 0.17206725 -0.104729235 -0.09200309 0.05811835 -0.4693199 -0.12342621 -1.0067447 0.5221041 0.54668885 0.51158655 -0.648885 -0.29380205 0.07112411 -0.1835855 -0.11949066 0.49926528 -0.5652624 0.18903407 0.43503934
Coahuila -0.10471674 -0.38937506 -0.17049946 -1.8826075 0.59185874 0.48764974 0.7138218 0.5901797 -0.35865048 0.07561852 -0.067017294 -0.0038122653 0.12530449 -0.54207695 0.14102755 0.21828742 -0.990901 -0.25182515 -0.12887844 0.14291295 -0.96328753 0.41114652 -0.047791623 0.4625219 -0.048608344 -0.28602946 -0.510863 0.013000879 0.08332281 -0.29973736 -0.40115032 0.986921 0.9431791 -0.5990856 -0.33669692 0.30562624 0.043537788 -0.41470006 -0.44316688 0.09315037
Cocopa 1.7653632 -0.61024415 0.1840305 -1.2794765 -0.02554918 0.44922388 0.19687486 -0.27123296 -0.4181695 -0.12484408 0.10394795 0.24087517 -0.10302309 0.11944612 0.09287938 0.9423421 -0.49246806 -0.25736666 0.77751917 0.25804117 -0.19211511 0.31628546 -0.00049523445 0.8225011 -0.23124449 -0.729509 -0.817288 0.7493777 0.61844295 -0.23400782 -0.015779218 0.28012353 -0.16174449 -0.11386285 -0.01410908 -0.20136477 0.47591454 0.4051005 -0.14164744 0.7583351
Cola -0.3160994 0.07524384 -0.006353481 -0.07287591 -0.019103957 0.011347417 -0.075145066 -0.09087019 0.094845556 0.07717039 0.110725954 0.098357975 0.060633834 0.03718938 0.01162598 0.12195622 -0.0019698564 -0.029268013 -0.012623409 -0.15018648 -0.005597823 -0.13449785 0.016056634 0.014413209 -0.08971694 0.010105667 -0.016953362 0.0076040756 0.04844476 -0.12541287 -0.043724228 -0.010358797 0.06147794 -0.040376514 0.11454458 0.017668933 -0.047307666 0.012322283 0.020868959 -0.046570364
Colaptes 2.0277717 -0.43497595 0.38312468 -1.1470419 0.9283578 1.2200803 -0.8070478 -0.38204408 -1.3027743 -0.68959856 0.8384819 1.3241627 0.057330627 0.42884502 -0.38970968 0.21295135 0.4139767 0.12673885 0.08250603 0.92573404 -0.45794138 0.017943809 0.371308 -0.5421701 -1.0852091 1.0253365 -0.5456374 0.26917955 -0.91356516 0.03501206 -0.0927304 0.5520769 -0.3874623 -0.21785936 -0.35636726 0.038819384 0.298683 0.28961655 0.031769726 -0.63409394
Colchis 0.9541244 -1.0846647 0.17854227 -0.80518174 1.1134665 0.6836854 0.08443926 0.2583741 0.46387413 0.967133 -0.14482072 -0.2235937 0.22096321 0.084803104 -0.33338618 0.5536665 -0.9477272 0.3221066 -0.90759385 0.6908474 0.12339264 0.23188539 -0.035542242 0.7149215 0.4273542 -0.37176824 -0.24287301 -0.983306 0.47892016 -0.40968245 -0.036854807 -0.33077067 0.10254422 0.36958602 0.15498464 -0.18960331 0.35620108 0.3291695 0.823291 0.011001576
Coleridge -0.75251335 -1.0021375 -0.8482985 -0.75237024 0.8092255 0.102424085 -1.318897 -0.16511236 1.6097287 1.1906439 0.5317259 -0.3368893 0.29503214 -0.038268607 0.62533987 -0.14310332 0.39204696 0.12837209 -0.12461869 1.1638048 -0.8449858 0.35864314 0.8302204 -0.39841747 -0.15123206 -0.07698404 -0.26335737 -1.1470057 -0.80007696 0.65537584 0.08737883 -0.15272759 -0.1562363 0.23829332 0.1383779 0.7582316 -0.77955306 -0.47696 -0.23095535 0.15635683
Colocasia -0.29251295 0.26279113 0.5846246 -0.18371531 0.39153275 -0.18189822 -0.013958856 -0.35296905 0.12845059 0.014885451 0.23363495 0.0545878 -0.22395518 -1.2701293 0.4947273 0.50200856 -0.21720421 0.41338018 -0.43434164 0.036239546 0.7368663 -0.01886989 -0.2410363 0.6213144 -0.63723195 1.1235027 0.28634337 0.046441488 -0.5453573 -0.6422617 0.2732518 0.036487464 0.238486 -0.07069209 0.65070504 0.15057498 1.0544109 -0.6942388 0.49166924 -0.015943708
Colombian -2.1730647 -0.4753409 -0.67078644 -1.337823 0.606545 0.5217413 0.5866927 0.1972617 -0.4248982 -0.61325395 1.0853069 -0.27903306 -0.423628 0.1119872 -0.15120238 -0.05061436 -1.1704229 0.59415877 -0.2715984 -0.4105511 0.23311053 -0.27753967 -0.09734008 0.8558289 -0.74963146 -0.95601207 -0.07497549 0.0675699 0.043242022 -0.469215 -0.13790436 -0.6257516 0.22067915 -0.41405344 0.37389588 0.057123836 0.2474855 0.2121671 -0.30494258 -0.42936864
Colony -2.0836594 -0.3947383 -0.29631475 -2.556882 0.7595791 0.37624684 -0.009297161 -0.080331296 0.99086386 0.58943284 0.026500775 -0.06682058 0.86140317 -0.20742588 0.59288406 0.2021242 -0.44026935 -0.46181405 0.003593718 -0.23653454 -0.5664649 0.012969142 -0.9794535 0.3964364 0.21571262 -0.21202677 -0.059869505 -0.22621417 0.016092433 0.6827943 -0.20091692 0.040165238 -0.46172178 -0.3179632 -0.11319752 0.26335695 0.027368784 -0.31577364 -0.15815066 -0.043453965
Compositae -0.5791107 0.16208051 -0.08295426 -0.074936934 0.018003134 -0.0111757675 0.03265842 -0.021738954 -0.008977459 0.071879104 0.14613089 -0.005765799 -0.0132221 0.018849166 -0.023199597 0.07600386 0.063049234 0.008414509 -0.107076876 -0.03403058 0.029316336 -0.052169856 -0.052753676 -0.03716396 -0.0962462 0.03850025 0.14684492 -0.07142076 -0.052076753 -0.06761841 -0.031004515 -0.017711025 -0.04454488 -0.10629241 0.103789225 0.016800456 0.053833567 -0.052097652 0.04835551 -0.063235514
Conakry -0.104480624 0.063307054 0.11872175 0.13200882 0.104888625 0.012603728 -0.05110766 -0.0029449381 -0.1793846 0.020020988 -0.027944593 0.09886202 -0.064745225 -0.045671515 -0.02845349 0.081577 0.019414313 0.09761688 0.081124924 -0.0009151699 -0.021982046 0.07355065 -0.039306957 0.004565355 -0.006992046 0.014082945 -0.003914944 -0.08572364 -0.052371725 0.009549349 -0.10155946 -0.012135761 0.0008562902 0.038843397 0.06557959 -0.027669476 0.0039405213 0.14333972 -0.0023734646 0.061966352
Condorcet 0.5238707 -0.24951136 -0.9853409 -0.80610335 -0.6234319 -0.45830983 -0.76802754 -0.37331814 0.09823028 0.89531565 0.62906104 -0.34264526 0.3786069 0.04998662 1.0581821 0.15406325 0.90473425 -0.40693748 -0.0046025133 -0.16760841 -1.0141017 -0.14841957 -0.17709893 0.33324274 0.22949977 0.20659964 0.08117796 -0.7162436 -0.45299384 0.5893819 -0.16241218 -0.5764853 -0.09129855 0.3777964 -0.47811458 0.064688064 -0.96378577 -0.13252494 0.45692205 -1.8524987
Confederacy -1.421752 -0.9044612 -1.392386 -1.0799856 0.80260426 1.0328631 0.2442509 1.0124594 0.028303249 1.3290858 0.46028468 -0.32330334 -0.16402817 -0.027831294 0.19384882 0.8568525 -0.82923687 0.26444247 -0.024452824 -0.47861338 0.66108143 0.42652646 -0.6260839 0.2448454 0.3508898 -0.13428552 0.26618007 -0.24925385 -0.20213209 0.31222087 -0.86867124 0.26880547 -0.5242316 -0.11049121 -0.34373468 0.55223995 -0.22676034 -0.404547 -0.4882442 0.6244547
Confederate -0.63763225 -0.2740997 -0.456593 -1.3326795 0.76300323 1.3264922 0.8917141 1.8464402 0.23374255 0.6096282 0.31799707 -0.14789394 -0.4852262 -0.6663112 0.4972741 0.09888564 -0.5688767 0.65231645 0.35302743 0.69793147 0.3316291 -0.20874053 -0.28433955 0.26514372 0.8626372 -0.45687753 0.44234195 -0.25165397 0.036083594 0.2585154 -0.7249425 0.41458973 -0.53944886 -0.6019176 -1.0742879 0.8347039 -0.31754768 -0.122267395 -1.3745333 0.46649063
Confucian 0.022830548 -0.487735 -1.6434823 0.16901296 0.5341229 1.2923918 -1.3395878 -0.8617652 0.32044062 0.980691 0.55071145 -0.31903177 -0.8890843 -0.0975047 0.43866625 0.7273558 -0.52287126 -1.0488385 0.14013934 0.33908156 0.54446834 0.23615076 -0.4794455 -0.9038328 -0.11672275 -0.16562504 0.0075274687 0.1082998 -0.34287778 -0.11235981 0.24053192 0.047109287 0.44814405 0.3390914 -0.6919929 -0.51223236 0.5087038 0.5520213 -0.10535568 -0.76682866
Confucius -1.2908031 -1.2723985 -0.8668365 -0.39835206 0.8691496 0.4788472 -0.9314723 -0.82008106 0.5457726 1.8813136 0.31452486 -0.027436296 0.020031523 -0.24680196 0.6491115 0.95535064 -0.2548374 -0.4715742 0.14025405 0.11368772 -0.04318953 0.11427696 -0.24505146 -0.44771472 0.056027226 0.35839778 0.04828125 0.63390815 0.0020181492 -0.07249745 0.5487305 0.28641063 -0.6257806 -0.0041435584 -0.29838943 -0.12006292 0.8002112 -0.12855412 0.16235207 -0.52168715
Congreve 0.18293262 -1.0875928 -0.18196258 -0.24702771 0.0042297095 -0.325506 -0.79050547 0.22799926 0.6518408 0.9679087 0.31819278 -0.60722834 0.23241885 0.5653709 0.6136464 0.26962945 0.24069284 0.9220889 -0.5251605 -0.11364147 -0.09723678 0.25121412 0.12357667 -0.16673055 -0.09559638 0.03669939 -0.078173116 0.16949746 -1.5799909 1.2956649 0.1594392 -0.3192842 -0.2973853 0.1839457 -0.46642187 0.0461931 -0.23131056 -0.35357872 0.7888173 -0.19669275
Connecticut -3.3615851 -0.6238179 -0.79837847 -2.163112 0.62251204 -0.23499654 0.49525768 0.13611364 0.6645563 -0.42211336 0.17379282 0.19979692 -0.54176605 -0.16999978 0.25010008 -0.014887708 0.46254626 -0.02491147 -0.054547638 0.43741846 -0.6472468 -0.009539808 -0.14452735 -0.2491263 -0.02944385 0.119458966 -0.35775355 0.23238249 0.57921547 -0.46240237 0.7620747 -0.04868328 0.044344857 -0.64940524 -0.3129697 0.040307086 -0.1838712 -0.5451615 0.11468476 1.0814596
Conoy 1.2276462 -0.11212024 0.23336579 -1.2510906 0.56246674 -0.14973462 0.28354296 0.02306592 0.12389087 0.41856986 0.22312939 0.115205914 0.72021145 0.09498983 0.4434941 0.5308009 -0.83243376 0.16213994 -0.043037042 0.55097866 -0.22497526 0.3671099 -0.25173214 0.11871224 -0.2012364 -0.93612796 0.19256888 -0.66432226 -0.6233999 -0.22658525 0.5853506 0.47869617 -0.39038453 -0.22375514 -0.069504656 -0.1160749 0.15474562 0.5225767 0.0110361 0.6174775
Conservative -2.2189612 -0.6384765 -2.804654 -0.7277186 0.6211263 0.22786401 0.17295326 0.13318221 -0.37956932 -0.14157906 1.6853169 -0.37925068 -0.46593383 -0.41869104 -0.117125854 0.493767 -0.7463586 -0.75554776 0.40131348 -0.11151892 -0.48766723 -0.24264833 -0.071202554 -1.68034 0.07423549 0.38120285 -0.6749803 0.37467626 0.89887375 0.31760174 -0.8364032 0.41879117 -0.5072908 1.2082652 0.02068279 -0.43219304 -0.25011334 -0.484046 -0.024831112 -0.29344413
Constantine -0.2627855 0.19094352 -0.33117443 -0.1919744 -0.134184 0.02244861 -0.119420335 0.03354661 -0.01998778 0.08900497 0.0629227 -0.18305205 -0.083583765 -0.049092848 0.065641984 0.0660204 0.030887477 0.076473124 -0.16537118 -0.061354775 -0.12927328 0.17512007 0.014256224 0.069246605 -0.097089544 0.042310815 0.14170052 -0.019325264 -0.050915543 -0.012502876 0.061219078 -0.02151725 -0.12911353 -0.08151358 0.041431792 0.013833629 -0.04337512 0.017874973 0.05033389 -0.022396104
Continent -1.7117052 -0.72527206 -0.51463926 -1.0095255 0.70549697 1.1401993 0.305895 0.08506535 0.64476573 0.58254504 -0.012583963 -0.15681824 0.68554705 -0.726592 0.034599993 0.7668369 -0.6388011 0.20635647 -0.6522292 0.15394013 -0.23280166 0.6822345 -0.57859164 0.5898314 0.079633676 0.37490863 -0.32905453 -0.2521759 -0.13492854 0.042952467 -0.6967484 -0.24945003 -1.374109 0.74895984 0.25086826 0.044792052 -0.26040542 0.09601092 -0.5280272 -0.2948495
Contopus 1.9890844 -0.4338153 0.5636782 -1.5138857 0.45262572 0.8168364 -0.25151682 -0.22833695 -1.323623 -0.83004653 -0.10549581 1.228565 0.19283758 1.0118358 -0.5251494 0.048749704 -0.33075994 0.18803585 0.6014466 1.5142717 0.9170119 -0.3155868 0.9248483 -0.32834637 0.037837226 0.7190781 -0.58191353 -0.3285977 0.0609088 -0.09355845 -0.22120629 0.122945644 -0.077634685 -0.3762521 -0.58718467 0.6598886 -0.6307461 0.60921216 0.8301615 -0.2449935
Coosa -0.68647003 -0.40420258 0.23567489 -2.057524 0.22038887 0.23730712 0.53111804 0.6723182 0.609748 0.05887967 0.24817818 -0.33446774 0.42878386 0.0028202222 0.36630014 0.4177683 -0.2606414 -0.3620493 -0.67876667 0.12712254 -0.5348331 0.598797 -0.24511914 -0.06831938 0.11388948 -0.44641194 0.2607793 0.16685332 0.54745024 0.20280844 0.78193176 0.48642266 0.37974006 -0.0020565933 0.3376154 0.054133307 0.26810563 -0.53834873 0.35276258 0.5207995
Copernican 2.705143 -0.12197339 -0.8471927 -0.116314374 -0.06013022 0.4513403 -1.0503621 0.36781657 0.046840884 1.4815606 0.47416076 -1.511063 0.20643324 -0.214601 1.2076193 0.97795504 0.08440956 -0.8560792 0.96224964 -0.98679155 -0.6862414 0.21282297 0.23888749 0.684815 -0.13416255 1.048001 0.22703284 -0.2917336 -0.48231915 -0.23815405 0.90748453 -0.706666 0.013103774 0.96228814 -0.22784376 -0.27054644 -0.059978977 0.27507672 -0.70525956 -0.644582
Coprinus 1.676152 0.45184267 0.843372 -1.0169187 1.7783552 -0.16721325 -0.4134007 0.08072223 -1.556996 -0.8549432 0.7493457 1.8395473 -0.29726672 0.6678435 0.06660581 -0.30309895 0.41198167 -0.5710561 -0.1513786 -0.1161606 -0.7943604 0.5269448 -0.06930863 -0.3037113 0.24829637 0.4120697 0.110770896 -0.8080301 -0.8927506 0.2903667 -0.3521215 0.08834225 0.7031452 0.2771853 -0.1139648 0.15154833 -0.3452527 -0.2559748 -0.5042951 -1.952431
Coptis 1.6533222 -0.0942374 0.29256612 -0.8406907 1.253397 0.30490986 0.45884654 -0.9711417 -0.8297712 -0.19768709 1.0024947 0.7882411 0.19749773 0.7394295 -0.7941979 1.1043292 -0.5254975 0.028019972 0.1361344 1.6451968 0.5950323 -0.17118722 0.06307804 -0.25542548 -0.6483673 0.5615697 0.34739143 0.6768835 0.23795846 0.6644202 0.5186434 -0.92531437 0.18530467 -0.275853 -0.12087514 -0.5781847 0.6336971 0.65446436 0.9726876 0.51481897
Cora -1.570346 -0.45082036 0.0037775335 -0.23434414 0.55428874 -0.6756336 -0.07439566 0.048817787 0.5383152 -0.21574678 0.5120951 0.28623673 -0.042939093 0.52638036 0.2927311 -0.2706039 0.34112513 0.12315269 0.030028641 0.26991123 -0.10397554 -0.31980768 0.2688802 -0.085286625 -0.025053943 0.22308442 0.12797023 -0.18491258 0.060750905 0.38729107 -0.47961473 -0.3711691 0.015419799 -0.18344313 0.0031533407 0.050570287 0.12120247 -0.0050360733 -0.06608917 0.08928056
Corchorus 2.5493371 -0.015775546 0.49266145 -1.2518003 1.0768566 1.0119401 0.14955993 -0.25945213 -1.4057937 -0.5678361 0.8119201 1.6257154 -0.16403957 0.6476316 -0.6824524 -0.11824993 0.0046494617 -0.1163298 0.15032607 0.7653011 -0.64097744 -0.47263494 0.16544653 -0.27122808 0.10827848 1.2536557 -0.46812332 -0.06586093 -0.73362625 0.3781893 -0.3807604 -0.06175948 -0.1145163 -0.13308515 0.082382835 0.5572091 -0.38559747 0.99304235 -0.09713396 0.07918472
Cordarone 0.8832757 1.2471418 -0.08171803 -0.5649286 0.65124345 -1.6866778 0.8630145 -0.3160124 0.5638995 0.6353113 -0.24285163 -0.43607435 0.25412312 -0.39202923 -1.3123833 0.19449781 -1.281829 0.7796662 -0.9578474 1.4266593 1.2482097 -0.68966633 1.8591614 -0.12805285 0.8566631 0.8102204 -0.051987883 0.46295783 0.71084464 0.0745838 -0.40810043 -1.2528318 0.10120777 0.46094295 0.28424534 0.42700264 -0.32542157 0.19597916 -1.2139268 0.1379485
Corday 0.6291261 -0.69872236 -0.29436263 -0.65691525 0.50094306 -1.4870682 -0.37042946 0.3315063 0.8988578 0.33516875 0.7811767 -0.51610625 0.49911427 0.71182823 0.54992324 0.26508984 -1.0914105 0.5879532 0.429857 -0.49720603 -0.32657 -0.26301757 -0.28797635 -0.26963887 -0.4797343 0.87168896 0.15910281 -0.48105174 -0.48963428 0.13261896 0.28652996 0.07421168 0.50620055 -0.23129077 -0.17557979 0.50273925 -0.59285384 -0.21610709 0.586001 0.5044603
Coriandrum 2.1322894 0.481279 0.20219173 -1.3667718 1.4307581 0.42441288 0.33566415 -0.6218737 -0.89306694 0.50578445 0.8963468 1.4231172 0.18505666 0.6461042 -0.93785745 0.93180984 0.34193826 -0.3785841 0.12758274 0.907923 0.5113314 -1.0814104 -0.108557455 -0.426217 -0.25098336 0.39813173 0.6250969 0.58522344 -0.67768574 -0.7144743 0.76449937 -0.4191973 -0.1191493 -0.54886645 -0.65536827 0.011997348 0.8968334 0.8049977 -0.3670109 -0.48438832
Corinthian -0.82415557 -0.83102787 0.06048521 -0.9476084 0.4632308 1.27635 -0.5145145 0.5384913 1.1839199 1.21524 0.56351656 0.33356786 -1.043188 -0.4704256 -0.39178193 0.13100417 -0.013507843 -1.3994366 -0.6336514 0.4934322 -0.28706202 -0.4714809 -0.3451622 0.09979933 0.42846382 0.155362 -0.10932851 -0.5245283 0.05823866 -0.18068817 1.1666552 0.6023577 -0.45578378 0.50862586 0.410977 -0.126631 -0.35208234 -0.21188347 -0.19061929 1.2701244
Cork -2.51016 -0.74936306 0.50741976 -1.9810925 -0.096577756 -0.025077352 0.1748835 0.025537556 1.4455353 0.13047463 0.7555987 -0.40577793 0.0014966803 0.06391046 0.23212117 0.56989115 -0.1831721 -0.637169 -0.27519175 0.48515573 -0.5667278 0.4619943 -0.69004637 0.035143014 0.05135726 -0.47048402 0.14246221 -0.3228835 0.2120233 0.30733043 0.045857534 -0.091825925 -0.88385874 0.0983749 0.6584327 -0.4236512 -0.96441144 -0.13782763 0.5775377 0.055501748
