8157 20
10-membered 1.8858935 0.70997584 0.5384606 -0.020518888 -0.2477104 0.026667368 -0.67224455 0.043839417 -0.2833503 0.06926382 1.2067052 1.100102 0.45488715 0.22799404 -0.8780853 -1.5378015 -0.23004667 -1.2554425 0.6579794 -0.09672087
American -2.131343 -0.653135 -1.1825982 -0.49266747 0.038414665 -0.18234496 0.06328477 0.113701925 -0.07682002 -0.78970164 0.8292779 -0.53511024 -0.5922067 -0.04290833 0.56099916 0.15705572 -0.29445538 0.1186995 -0.3535435 0.21569982
Anaprox 0.016331779 -0.46486777 0.09995945 -0.2521701 -0.19740619 0.14561658 -0.1517109 0.028995853 0.013928701 0.546289 0.043449067 0.34827808 -0.013059208 0.26286656 0.027435552 0.34074566 -0.280127 -0.06739915 0.08175094 0.32204497
Aqua-Lung 1.8167557 0.12604026 -0.57707953 -0.35514215 -0.06867311 0.091214426 -0.2293224 0.49117425 -0.23432046 0.9585274 1.1523961 0.40480593 0.16471617 -0.049705118 -0.09854571 0.25704566 0.041260935 0.6530748 0.11045025 0.40618694
Aquitania 0.52189803 -0.9706981 0.24336122 -1.7755665 0.16142112 0.5275919 0.24132729 0.06948779 0.5659032 0.6213864 -0.233494 0.15690245 0.3671857 -0.04932316 -0.07390709 0.24183497 -0.8088541 -0.20338242 -0.6761349 0.67897636
Arafat -1.5564928 -1.0699264 -1.6341486 -0.21953109 0.5699997 -0.097951986 0.57048136 1.3228344 0.110656865 1.5193563 0.75120026 -0.6865254 0.14090875 -0.15553951 0.33310378 0.3480982 -1.2395687 0.3335822 0.8263973 -0.6068904
BA -2.6709907 0.06464981 -0.2583501 -1.895181 -0.3182835 -1.0118308 -0.3849938 -0.063616045 0.94960964 0.18667044 0.39826754 0.0010812681 0.1837441 -0.061635036 0.2643895 0.5944186 0.44195455 -1.076477 -0.29520112 0.0060321284
Bahrein 0.8590492 -0.31302148 -0.0190491 -1.1761506 0.2499411 -0.1097027 0.45473772 0.1240492 -0.090555176 0.13670112 -0.013161293 0.027316261 0.4869539 -0.4015716 -0.4661945 0.82850516 -0.5092579 -0.018033585 -0.36144993 0.07657272
Bath -2.9075882 -0.67859346 1.0105381 -1.7498584 -0.15236267 -0.46741635 0.29455954 -0.9757003 2.071596 0.88215303 0.7878344 -0.41732135 0.23685043 0.5338151 0.11709139 0.35027286 -1.0869305 -1.1220162 0.5679238 0.82091904
Bavaria -1.9994599 -0.93828636 0.04495498 -1.7224553 0.6870436 0.90267974 0.022043066 -0.02776361 0.9645651 0.82846904 0.20660515 -0.3615121 -0.19899468 -0.49212378 0.1787668 0.47347662 -0.8116269 -0.7529646 -0.5782669 -0.33758906
Baycol 0.77931446 0.84501654 -0.46038598 -0.930468 0.55479616 -1.1399853 0.8985984 -0.30657804 0.17519186 0.2330487 0.18232271 -0.4711018 -0.22064917 -0.12701768 -0.7323593 0.2072613 -1.2022172 0.688766 0.0061891377 1.1642826
Bayesian -0.99050903 1.7836658 -1.1822891 -0.38616848 -0.97110116 0.2832701 -1.6378684 -0.87676704 -0.24997036 -0.36600018 0.3841666 -0.104208715 0.77184373 -0.56576663 1.521036 0.0563817 0.78287315 -0.14824422 -0.22057942 0.09407733
Baykal 1.150312 -0.40181124 -0.15007819 -1.3008426 -0.014554267 0.073662356 0.20023628 0.6245943 0.42899066 0.0697951 0.5001055 -0.6606798 0.9163384 -0.14350347 0.17029935 0.5210144 -0.7038915 -0.7196914 0.24144915 -0.24251555
Beaumont -2.4063864 -0.8865102 -0.0007085449 -2.3123252 0.3168354 -1.1306441 0.13795069 0.13116539 1.5131484 0.2870598 0.0066755107 -0.123416014 0.16091618 0.2688712 0.37385005 -0.17770426 0.07719196 0.052756116 0.15926656 0.47121087
Beethoven -1.6196026 -0.8712892 0.099307515 -0.87345093 0.46146035 -0.16380927 -1.1763564 0.040412076 1.4148978 1.1002591 1.0209825 0.31650522 0.71066225 0.02111378 0.35374877 -0.17178008 0.05152614 0.28410727 -0.07393374 -0.16518466
Begoniaceae 1.8779216 -0.038071826 0.5686812 -1.6683792 0.62411284 0.4810816 -0.1272709 -0.32141766 -0.50091136 -0.71798867 0.36217743 2.2457027 -0.5328828 1.303155 0.17722155 0.35833198 -0.04552723 -1.0565856 0.36057633 1.2797563
Belgian -1.1281899 -0.43160495 0.58678764 -0.11611372 -0.31048572 -0.43129364 0.6143867 -0.22154628 0.21198697 -0.273558 1.0445471 -0.78542435 -0.26096353 0.096894674 0.2631178 -0.5774484 0.58186334 0.5446872 0.23954292 -0.38405177
Bell -3.387466 -0.51186043 0.024272246 -1.6422244 0.080005236 -0.63428843 -1.042061 0.40923724 0.5509576 0.38848573 1.0853649 0.14971928 0.39377135 0.2518027 0.2179159 0.2407681 0.6337731 0.15378283 0.6637375 0.19883884
Bemisia 1.4247475 0.40959868 0.60064846 -0.88847 0.98088527 0.27226463 -0.13229696 -0.5186437 -1.4561607 -0.71139795 0.331557 1.288746 0.57672983 0.71472406 0.31652886 0.0911546 -0.49180955 0.26229167 0.10810863 -0.23751014
Benadryl -1.0679168 0.9935244 0.5974031 0.4288485 0.9374715 -2.5408113 1.0161788 -0.39742896 0.21290034 0.59115833 0.06036163 -0.42521933 0.60105777 -0.16447295 -0.3800226 0.6743634 -0.8793416 0.29831317 -0.34088138 1.8235104
Berkshire -2.5753746 -0.49070904 0.07803051 -2.1660628 0.11829404 -0.27582386 0.6443461 -0.37101603 0.86903965 -0.13273558 0.31865522 0.32038635 -0.56586105 -0.49224955 0.24117768 0.54353344 0.36298972 -0.20054811 -0.451057 -0.33032048
Bernstein -2.3089416 -0.7010007 -1.0849541 -1.2815875 0.35337391 -0.9879189 -1.3360511 0.04932143 1.2054259 -0.13719577 1.6231527 -0.25842804 0.30728996 0.052495345 0.20979798 0.04686859 0.84771496 0.7633792 0.21799323 0.18268935
Bertillon 1.2937841 -0.08711429 -0.2686482 -0.550816 0.25559852 -0.6182549 -0.14190635 -0.5523629 0.3681496 0.38589805 -0.14702423 -0.3971467 0.041514922 0.010391486 1.6221249 -0.48454803 0.41163465 0.9793291 0.7907119 0.42011026
Betelgeuse 0.3850482 0.21821056 0.6848142 -0.5420782 0.38427672 0.2525111 -0.8074773 1.1030442 -0.0525207 0.4309837 -0.14095797 0.1076154 1.231979 -0.80401224 -0.08883614 0.27659336 -0.5551422 0.98957485 -0.73046756 -0.9715056
Bethe 0.42710242 -0.0940573 -0.29555985 -0.79436433 -0.30517578 0.017866867 -1.2942909 -0.15318213 0.6087813 0.8240131 0.63432735 -0.82566446 0.95734704 0.91148 1.1030848 -0.16417322 0.6716258 -0.004558383 0.6138393 -0.5422736
Bidens 0.6547773 -0.49442133 0.1303001 -1.0125026 1.0869174 -0.017971193 0.50480705 -0.28871435 -0.72945446 -0.24839507 0.4754873 1.1729326 0.09724121 -0.3377151 0.48843074 0.38216832 -0.26633713 -0.15863498 -0.6675232 0.088503696
Bihar -2.1412244 -0.021481276 -1.1183066 -1.0619028 0.634267 0.7861085 0.5345938 0.50300753 0.03470883 0.87132066 -0.16224632 -0.33671618 -0.15268578 -0.8396691 -0.5456445 0.22917293 0.019895958 -0.18806976 0.4140925 -0.51919156
Blackpool -2.060881 -1.0109648 0.25723216 -1.7954848 -0.09633471 -0.56977135 -0.14089534 0.2240326 1.1999829 -0.31941676 0.12084907 -0.3625801 0.6243796 -0.36526367 -0.43375903 0.58008444 -0.24974425 -0.78029144 -0.4790405 -0.27005884
Blarina 1.9270226 -0.20847343 0.3619548 -1.2195325 0.85826427 0.21257153 -0.30424035 -0.09814898 -1.3908352 -1.5081729 0.40695864 1.0314363 0.26820242 0.87582254 -0.45266348 0.49720117 0.14481068 0.30522913 -0.04495126 1.1560332
Bluebeard 0.42116794 -1.3185798 0.32355848 -0.6853596 0.4200284 -0.32538867 -0.9468543 -0.0023240522 0.37404808 0.71910596 0.22541918 -0.4890082 0.8149623 0.18300022 0.358175 -0.6754663 -0.6975841 0.8573797 -0.26083153 0.87589633
Bluegrass -1.9969507 -0.8312079 0.44888616 -2.1068513 0.3804182 -0.23186351 -0.269094 -0.41452155 1.0249463 -0.6030176 0.89497656 -0.45351183 0.54836965 0.040277395 -0.3799545 0.90471476 0.4738474 0.24322067 -0.35359126 0.1528939
Boche 1.8367544 -0.13882782 -0.18585137 0.17911248 -0.4054442 -0.4920411 0.2755418 0.36305225 0.4772254 0.36687946 0.66374564 0.04533181 0.44305405 -0.5484428 0.6721729 0.26608464 -0.096300274 0.30129054 0.42555228 0.0012897708
Bodhisattva -0.14712767 -0.67743677 -0.520592 0.17553507 0.82337195 0.59177595 -1.0743431 -0.097796984 1.0318587 1.7418796 -0.6360961 0.91631836 -0.14378618 0.69665515 -0.7752579 0.9174358 0.13287158 -0.25703803 -0.26004073 -0.20484418
Bodoni 0.9798771 0.013348545 0.37408808 -1.8482996 0.50775576 0.0419358 -0.558023 -0.21610907 0.6861674 1.079318 1.0980338 -0.41927606 -0.2735377 -0.32324612 0.4630032 0.7019797 -0.8744011 -0.21936251 0.09052612 0.3614625
Boell -0.279036 0.24800123 -0.0008518582 -0.21223119 -0.011883523 0.015559764 0.041562676 -0.026992379 -0.12157322 0.020543281 -0.18847333 -0.042053815 0.06930322 0.05085953 0.031332485 0.05718687 -0.042965725 -0.071214356 -0.014301359 -0.079975784
Boltonia 2.304796 -0.32715276 -0.40329954 -1.4611032 0.26651785 -0.03413598 0.3892952 -0.27290723 -0.7778913 -0.51110876 0.45202437 0.87173045 -0.02754706 0.31436962 0.5680658 0.53834695 -0.6796072 -0.45113307 -0.03493234 0.40216917
Boltzmann 0.096766986 0.6741707 -0.57718533 -0.31045857 -0.40613264 0.0151489945 -1.5505867 -0.016642366 0.2031863 0.8522716 0.41110915 -1.2472742 1.5154012 0.19471094 1.0762277 -0.26676086 1.0753546 -0.3694284 0.48396325 -0.9664896
Bombax 1.566529 -0.1715855 0.5030308 -1.0779167 0.82996076 0.31383824 -0.41073224 -0.6286243 -1.0043597 -0.36204404 -0.42017215 1.0455931 0.04456542 0.4974644 -0.65966666 0.80919623 -0.8857625 0.2851872 0.1980514 0.23356085
Bontemps 0.8450825 -1.2619864 -0.10382689 -1.0414355 0.4775182 -0.6388492 -0.28052625 0.28401253 0.72571874 0.3076868 0.4206449 -0.53166723 0.3872849 0.17135204 0.46778354 -0.10123376 0.47552493 0.60048544 -0.09600593 0.015622221
Borago 1.3237023 0.27592987 0.61979836 -1.3531082 1.1548231 0.35813412 0.43196392 -0.0914087 -0.8416202 0.0104265055 0.33073866 1.0450656 0.077401906 0.64218664 -0.75555956 0.60573274 -0.63753533 0.55635667 -0.447862 1.0992583
Boswellia 0.69969296 1.1446699 0.70362467 -0.7565964 2.0058026 0.798349 0.23780277 0.31233883 -0.7290365 0.22320516 0.74616736 0.51289064 0.3288507 0.5592121 -0.4136832 1.2071753 -1.040468 0.27840465 -1.6757724 2.199111
Bourgogne -0.43937683 -0.3077262 0.8419716 -1.2283894 0.59032613 -0.58680296 -0.07113952 -0.6975071 1.024254 0.3806656 0.7410594 -0.0063716373 0.23203784 -0.9407091 0.5489344 0.076643914 -0.49746954 -0.091965094 -0.64047784 -0.32527187
Bowditch -0.27646136 -0.89381355 -0.15127334 -1.29263 -0.12697998 -0.5911777 -0.67935526 0.5178463 1.0123153 0.072818056 0.08468838 -0.31301108 0.5925738 0.1256073 1.0653609 0.15637302 1.1854193 0.066359915 -0.61896473 0.25418258
Boyne -0.66766477 -0.97113013 0.31264892 -1.9507442 0.2182159 0.15384378 0.44364017 0.117170244 1.5721182 0.45309934 0.31319967 -0.79716194 0.65132153 -0.4090559 -0.07586985 0.41360292 -0.007876587 -0.28739482 -0.010617011 -0.0014700339
Bradbury -1.8925037 -0.8906666 -0.44822884 -1.3298755 0.3322447 -0.42028558 -1.2310627 -0.13165864 1.1205312 0.021876251 0.70910096 -0.1341031 0.4735508 0.32449576 0.66714114 -0.05468687 0.26170853 0.7804768 0.4694455 0.3414818
Braga -1.2316684 -0.9452671 -0.26060733 -1.686302 0.15911195 -0.47578338 -0.49286613 0.36022857 1.2145573 0.3744901 0.8139933 -0.0030564663 0.7758216 -0.34479722 -0.17373705 0.5424249 -0.46030083 -0.6486967 -0.5402176 0.15921275
Braque 0.18631878 -0.43754306 -0.01789662 -0.8896495 0.14114639 0.0018012032 -0.9368283 -0.7681107 1.3176941 0.018501513 0.51712734 -0.64761907 0.06344451 -0.20094705 1.5846587 0.12508368 -0.41066638 0.6837448 -0.3930557 0.18709669
Brasil 0.623437 -0.16266537 0.3462173 -0.19276562 -0.37316248 -0.6210953 -0.5395176 -0.31150025 0.053145703 0.2984056 -0.14916568 0.03143302 0.11928271 -0.04481786 -0.09170562 -0.018674862 -0.20794764 -0.18591282 -0.15650533 -0.053254604
Brassica 0.19467969 1.2899655 0.46721205 -1.1410862 2.0641012 0.8547045 0.00518458 -0.86134255 -1.1287841 -0.3710061 1.2575344 0.98523474 0.4483231 0.29864275 0.6101912 0.07623022 -0.44302562 -0.22808358 -0.7008081 -0.04100264
Brazil -1.0124186 0.16259418 -0.3113054 0.113931365 0.3443235 0.50180215 0.5071001 0.2855676 -0.07393778 -0.28050157 0.109513395 -0.03870179 0.04307233 0.16669051 0.068853594 0.08210755 0.19166048 0.21324082 0.13370913 0.022347804
Brazos -1.0167017 -0.459781 0.1398607 -2.000314 0.018701104 0.054217506 0.75279915 0.4102423 0.90778744 0.35944775 0.055361677 -0.15891616 0.5556455 -0.34533373 0.32456228 0.41875127 -0.01718306 -0.1334829 -0.19178565 0.3023433
Bremen -1.8735904 -0.7604851 0.010939497 -2.2154534 0.0027985906 -0.18537016 -0.09987165 0.56339264 0.9491 0.26534933 0.40786016 -0.26536104 0.6711405 -0.1493571 -0.0986384 0.44314808 -0.30990762 -0.34196427 -0.3604029 -0.011652103
Bremerhaven -0.78145176 -0.14004579 0.3749463 -1.4293818 -0.22739874 -0.18664776 0.45705873 0.4370381 0.903065 0.028473616 -0.20857133 -0.5282144 0.9888104 -0.41294864 0.43828174 0.45674402 -0.2624983 -0.590008 -0.41900456 -0.5347582
Brisbane -2.4798708 -0.9913068 0.007119073 -2.3707712 -0.35127643 -0.25782746 0.44640443 -0.23045176 1.490859 -0.47900185 -0.24579407 0.005772741 0.46383744 -0.09817024 -0.32788178 0.33002654 -0.4227034 -0.5274131 -0.08090371 0.34413984
Bruckner -0.4297542 -0.73473835 -0.53086376 -0.8984686 0.36293185 -0.2715797 -1.5098196 0.09362387 1.5867822 0.26225162 0.59810704 -0.16603233 0.5568148 -0.2802507 0.28531617 -0.12065151 0.37337717 0.23780382 -0.19253366 -0.06369662
Brumaire 1.2436621 -0.88864696 -0.2174556 -1.1958625 -0.06580313 -0.34458667 -0.08937737 -0.0071410607 0.10667794 1.1369932 0.8878886 -0.57762074 -0.05998034 0.11244579 0.12570141 0.1024797 -0.16477334 0.45788234 0.017775726 0.2569957
Bruno -2.6546555 -1.2836194 0.10836714 -1.2982757 0.31289354 -1.0571362 -1.1460332 0.2202443 0.45417282 -0.063541606 0.82558775 0.035499897 0.4400396 0.30279058 0.40262356 -0.1145309 0.0013835132 0.25841776 0.15325655 0.027573958
Bultmann 0.5262474 -0.4989899 -1.1496094 0.030055415 0.20922884 -0.16585337 -1.3992908 -0.19260642 0.32538515 1.23615 0.88921 -1.2595931 0.4742342 -0.037278965 1.8117747 0.68037724 0.3762899 -0.344924 0.12461086 0.5893431
Bunche -0.36237994 -0.622793 -0.32427073 -0.9135304 -0.13546468 -0.66086596 -0.62834 0.48191503 0.57705355 0.21723492 0.4435452 -0.73939484 0.18329185 0.66857964 0.6840621 0.19797729 0.20543529 0.42816937 0.38744313 -0.3627611
Burbage -0.34702238 -0.9702142 -0.04484155 -1.0613786 0.39322734 -0.42128754 -0.6278753 0.81263155 0.7992884 0.5382779 0.03689635 -0.47445315 0.30559534 0.13430388 0.6052106 -0.08286344 -0.10252007 -0.42359212 -0.5816803 0.27344635
Burbank -0.26319426 0.057087038 0.024228595 0.015666032 -0.004904992 0.07080298 0.14009255 -0.1533568 -0.008224123 0.0048574484 -0.089730114 0.20156895 0.004832585 -0.09771429 -0.07076734 -0.03965356 0.0026929607 -0.00967241 -0.040983748 -0.060855325
Burger -2.3190844 -1.3565866 0.569935 -1.7047037 0.36390984 -1.1849481 0.28332567 -0.9928352 -0.04761896 0.1705432 1.6835144 -0.4405532 1.1825781 -0.7954336 0.43314782 0.2909352 0.39004943 -0.65021366 0.7880973 -0.26390642
Bushman -0.33112842 0.19488011 -0.37159175 -0.41425413 0.7626848 0.008659594 -0.46199915 -0.5458171 0.5608782 0.052954633 0.9940474 -0.20026049 0.028011547 -0.07518137 1.1490217 0.3257069 0.10210021 -0.1490381 0.04933308 0.7917479
Butler -2.7874439 -1.4744248 -0.49644703 -1.9625186 0.25809544 -0.69063693 -0.46765685 0.36108977 0.9393223 0.016225891 0.98277956 0.14218403 0.23490918 0.6693864 0.43979117 0.36697173 0.5095668 -0.081592046 0.281555 0.72145075
CDC -0.97193706 1.2815143 -0.6631761 -0.98677135 0.7831148 -0.85960674 0.57659394 -0.15592897 0.18542379 -0.8144452 0.2683278 0.15598851 0.51304597 -0.9663521 1.1331375 0.21920137 -0.79511374 0.9770977 0.2875955 0.17735381
CD -1.0608736 -1.0980535 0.99327224 -0.8975094 0.5678514 -0.6470375 -1.554643 -0.44031662 1.324459 -0.39916873 0.767252 0.036215443 1.4300103 -0.000109904875 -0.14925195 0.5345496 -0.60479194 0.9651646 -0.87491393 0.10090317
CFO -2.1270702 -0.33973965 -1.4657509 -2.2719715 -0.59942764 -0.92334414 0.14245798 0.30511814 0.13628799 -0.108124 1.0844829 1.079411 0.015386207 0.20742567 -0.07500747 0.20112197 0.749808 0.27654108 -0.08230067 -0.20792218
CMBR 1.0415995 0.47371164 0.3817342 -0.6301607 -0.3517261 0.68581635 -0.2240838 0.06633317 -0.3179092 -0.15810263 -0.26839298 -0.45450592 1.2002981 -0.38370645 -0.099526115 0.11246361 0.5153865 0.29585218 1.1451466 -1.1638113
CST 0.24446073 1.0701947 0.13465387 -1.1650939 0.0046353713 -0.6717622 -0.06773039 0.5657061 -0.5419526 0.39548993 0.31304356 -0.21599576 0.29388008 0.2648098 0.14714245 0.6174072 -0.18629773 -0.09833783 0.23910175 -0.14310966
C -0.8851099 0.4993923 -0.23068176 -1.6447939 0.34139517 -1.2976756 -0.6286595 -0.029347895 0.5761234 0.10523269 0.8548123 0.51292723 0.9600966 -0.2749241 0.21991171 -0.06902139 -0.24950202 0.060155854 -0.47552505 0.30064556
Ca -1.1304866 -1.608358 -0.7948228 -0.58209157 0.8788817 -1.4954153 -0.69417727 -0.48963788 0.033196658 -0.62895113 -0.12561917 0.9849684 1.4651189 -1.0429437 -0.23457977 0.6223183 -0.29524714 -0.12172593 0.6930037 -0.06325573
Cadra 1.4754355 -0.17820302 0.69902897 -1.2556003 0.66275245 -0.06282759 -0.027935207 -0.16116522 -0.5862468 -0.3979537 0.38993853 0.794363 0.09592909 0.78792083 0.28654763 0.1542026 0.07600741 0.25217745 0.6367637 0.5712735
Caesalpinia 0.9734556 0.12308586 0.6382412 -1.5113935 1.690664 0.7054137 -0.42461693 -0.1970986 -1.8372493 -0.73377 0.39812568 1.4457266 -0.25825357 0.92153233 -1.1130129 0.6231984 -0.52090704 0.13672249 0.1763762 0.6978961
Calamintha 2.3032668 -0.37380445 0.20015697 -1.5436931 1.0411339 0.26491362 -0.13322571 -0.71431553 -0.5259038 -0.6850008 0.62232137 0.9810564 0.30227277 -0.15465125 -1.013949 0.38332978 -0.41532615 -0.35246736 0.36877185 1.3796978
Caledonia -1.7021667 -0.5024364 -0.14854588 -2.4560611 0.70804924 0.5507314 0.760874 0.20970668 0.44257852 0.042255376 -0.21705411 -0.078049466 0.6112302 -0.29770413 -0.23088811 0.49932745 -0.67109483 -0.4049037 -0.4182503 0.4865045
Cali -2.4120784 -1.2950813 0.76356775 -1.2745675 0.580888 -0.65768814 0.15895429 -0.15463527 -0.2610293 -0.6138217 0.29369313 0.11065492 0.7667416 -0.09269293 -0.4688285 0.7105421 -0.6231569 -0.8271491 0.18329088 -0.10890367
Caligula -0.5150589 -1.3027405 -0.48353267 -0.022256527 0.7874025 -0.50738597 -0.92761487 0.45880902 0.13125908 1.1843022 0.19063489 -0.2903719 0.23717928 0.2116856 0.79118305 -0.05521837 -0.81734633 0.084374525 -0.26309788 0.15263388
Calliphoridae 2.1863544 0.06490674 0.44653544 -1.2696342 1.3540345 0.4084144 0.060174342 -0.020917078 -1.594772 -0.71878135 0.05598364 1.5544448 0.49456933 0.7431861 0.8486813 0.65531 0.10918846 0.18702893 0.5918864 0.85876137
Caloosahatchee 0.51295805 -0.34549284 0.5679722 -1.974276 0.639463 1.0039743 1.0465808 0.47279045 1.0239987 -0.63201475 -0.1049964 -0.2639976 0.9301236 -0.02446376 0.44129735 0.47185737 -0.41572675 0.30926335 0.059131656 0.71509683
Cambria -1.1854848 -0.72727054 0.57466024 -1.6679453 -0.2411781 -0.50861067 -0.021710394 0.16876616 0.85848427 0.13578004 -0.18838128 -0.063082814 0.27304938 0.62240565 -0.08889904 0.11707568 -0.15089743 -0.43393853 0.25985348 0.45297727
Cambrian 0.5454055 0.8598896 0.38357207 -0.29075876 0.3333157 0.9187369 -0.36223528 0.41878012 0.40186244 -0.71199334 -0.5163935 0.53539044 0.82282454 -0.00026702776 0.66379225 -0.37956017 0.81918955 -0.20396537 0.23976299 -0.4099567
Cambridge -3.121379 -0.59433264 -0.53047776 -2.4225142 0.2608539 -0.3050457 -0.5866241 -0.6887825 1.6367612 0.41236082 0.4386158 -0.01886999 0.005761982 0.18069519 0.73796433 -0.12514868 0.3081097 -0.34772727 -0.27456474 -0.4107237
Camlan 1.724227 -0.6128051 0.13638149 -0.8627568 0.524521 0.09129756 -0.15596673 -0.1900011 -0.16925871 0.1430887 -0.6818382 -0.03941859 0.99267966 0.35440236 -0.06292868 0.51749986 1.0714742 0.74328357 0.4162682 1.119883
Campeche -0.22364825 -0.22929779 0.47026688 -1.9054658 0.25858676 0.674388 0.57354146 -0.13242796 0.71812254 -0.09793201 -0.30647364 -0.80294734 1.2142925 -0.89035213 -0.03203756 0.39235944 -1.2698483 -0.50734115 -0.18829654 0.1936226
Canaan -1.7287158 -0.9964473 -0.5271446 -1.3119724 0.7150695 0.8648483 0.14541249 0.26227066 1.1441653 1.6532891 -0.39864156 0.2033455 0.6341979 -0.27636012 -0.026407283 0.6472874 -0.24189895 -0.4765041 -0.27587554 0.2150085
Canaanite 0.16296844 -0.74354756 -0.7135694 0.19297323 1.3055097 1.3580709 -0.5944367 0.035062987 -0.2440261 2.167921 -0.3836187 -0.25686413 0.30179283 -0.32681254 0.42596003 0.39397165 -0.8178333 -0.7232995 -0.7178448 0.7914181
Canaries -0.8753772 -0.98227143 0.61095154 -1.4322602 0.607287 0.48128012 0.6780208 -0.014566733 0.9027503 -0.37804466 0.20435092 -0.078209646 0.74170446 -0.43343493 -0.07444493 1.0753894 0.17141023 -0.54098105 -1.254144 0.14187846
Cancer -2.423504 1.0388855 -0.42609116 -1.487623 1.978188 -1.4348062 -0.42759246 -0.15158406 1.7929105 -0.012001783 0.33727208 0.24356933 -0.09594059 -0.1896402 0.31983417 1.2023304 -0.5327897 0.8745839 0.9126373 -0.5653962
Canetti 0.60063094 -0.8146196 -0.17181456 -1.2488571 0.10536554 -0.34730104 -0.9374882 -0.061752025 0.7661626 0.4936385 0.92948496 -0.60466546 0.94734615 0.024089398 0.5062448 0.18056521 -0.18231414 0.07057254 0.0064442456 0.26532683
Capek 0.4413477 -0.8256404 -0.07795271 -0.9128017 0.1496979 -0.71444875 -0.93034637 -0.15312628 0.46146455 0.37427247 0.353646 -0.6140234 0.6130312 0.24281655 1.5127426 0.4235193 -0.375484 0.47769907 0.44741327 -0.13994081
Capone -1.4245759 -1.2608463 -0.111378215 -0.9683373 0.51659906 -0.91893315 -0.19425267 0.51415527 -0.23865822 0.1916872 0.87798613 -0.79290694 0.15469193 0.45244017 0.30034593 -0.6036256 -0.5235246 0.18947808 0.15285766 0.060180556
Capra -0.02475973 -0.08096071 -0.03151658 -0.11059531 0.0051291524 -0.12035185 0.13576144 0.047467344 0.08227569 -0.10755049 -0.16980472 0.042102773 0.0040133875 0.030131036 -0.089539155 -0.015243344 -0.076175995 0.04981827 0.018895643 -0.047218174
Capricornus 0.8036799 -0.69763124 0.36958382 -0.5723888 0.77669936 0.8346959 -0.5000717 0.33195847 -0.07559479 0.7723519 0.0592119 0.1783482 0.662124 -0.8329501 0.009376671 0.5320898 -0.06785007 0.4322029 -0.54528385 0.24649093
Captain_Bob 2.0900464 -0.37889656 0.79429865 -0.59344876 -0.7456913 0.7566625 -0.7461915 -0.30702442 0.21205862 0.26497778 0.062013943 -0.6975792 1.8258053 0.06602272 -0.24504185 -0.5571806 0.23212807 2.23694 0.38864782 0.23531601
Carafate 1.3357368 -0.3721621 0.7685909 -0.5571145 -0.12046806 -0.5400118 0.5618293 0.41326115 0.027442275 0.8032523 -0.16008599 0.12658745 0.66001034 -0.113614984 -0.54317284 -0.25403923 -0.56381655 -0.2741159 -0.41722107 0.7906144
Carangidae 2.2625086 -0.12492394 0.51921415 -1.5530324 0.73900247 0.051259752 -0.27062312 -1.0341439 -1.1032051 -0.98348194 -0.1885349 2.5865042 0.35107023 1.0087266 0.13227959 -0.09067804 1.0762925 -0.39888054 -0.17347209 1.0573014
Carcharias 0.5438846 -0.17423223 0.65439683 -0.9324366 0.34575567 0.17100714 -0.63356 0.13143438 -1.3847567 -0.29324588 -0.796361 0.9923824 -0.19678098 0.6197224 0.6545443 1.4208839 -0.8754251 0.60776335 -0.60817176 1.1903334
Cardura -0.21815017 -0.17571008 0.22497642 -0.15852462 -0.32442155 -0.79605633 0.17617069 0.16501293 0.16121106 0.41204053 0.4098423 0.26873654 0.3497774 -0.22736554 -1.2127484 0.22361363 -1.3627185 -0.31620774 -0.72034794 0.7453459
Carlsbad -2.0519967 -0.5016483 0.25403222 -2.2546577 0.025670758 -0.267308 0.48199108 -0.30636737 0.9279185 -0.47828203 -0.14036745 -0.22721574 0.7507741 0.3705314 0.19080608 0.19009975 -0.4128357 -0.6916776 0.3873099 -0.114694454
Carnot 0.03423684 0.196309 -0.7083309 -1.1312362 -0.5395427 -0.41396242 -0.41660136 0.21478765 0.67720616 1.2017033 0.38765395 -1.5215919 0.9154291 0.47965062 0.759607 0.3480012 0.08595249 -0.7135141 0.069445334 -0.37250376
Carpinus 1.8764199 -0.119279355 0.81268567 -1.2757496 0.91710895 0.58468163 -0.32014886 -0.524258 -0.6228473 -1.0151017 0.60911894 0.93331116 0.030742103 -0.14196528 -0.24085465 0.507269 -0.28303114 0.2109204 -0.5666669 1.5863897
Carpodacus 1.7012792 -0.06639655 0.4380693 -1.5901064 1.2622783 0.3102432 -0.43291438 -0.37425932 -0.86753917 -0.3946479 -0.407353 1.5609795 -0.13817173 0.3551249 0.097657435 0.12706351 -0.06933845 -0.27217466 0.2177594 1.0195714
Carter -3.3428214 -1.3972332 -0.6865249 -1.315925 0.6536765 -1.0623093 -0.6846798 1.01709 0.50692964 -0.025849367 1.2899243 -0.034481537 0.3700805 0.73829913 0.17446224 0.33971566 0.13662279 0.3593327 0.55853605 0.22427571
Cartesian -0.6037525 1.2377386 -0.7768027 -0.5488734 -0.839574 0.8514324 -1.8805025 -0.29674855 0.39552352 0.35792878 0.42472148 -0.35067874 0.65534496 -0.69856083 0.44731453 0.22163588 0.027752958 -1.2910725 0.44568998 0.31959838
Cartwright 0.15007778 0.02744852 -0.027712224 -0.13513021 -0.038941592 0.090154015 -0.041684914 -0.035547838 0.082512714 -0.1606647 -0.1340052 0.013354841 0.005671631 0.1692174 -0.0127193 0.14307263 0.11871561 -0.08960635 -0.035565782 0.04875436
Caruso -1.6426862 -1.0105104 0.024502175 -1.4401684 0.28073722 -0.9290816 -1.0171254 0.11639048 0.6759913 -0.39606798 1.0834336 -0.16834952 0.0954613 0.23042126 0.22019157 -0.09055156 0.3740725 0.46686965 -0.13867155 0.26002106
Carya 1.3796585 0.013961349 0.969645 -1.6932784 1.5345479 0.7683121 -0.12393728 -0.8026808 -0.97962886 -0.2917056 0.42099866 1.3601862 0.51703346 0.2603764 0.4774801 1.1061709 -0.43681058 -0.60703003 -0.26402757 0.989204
Caryophyllaceae -0.3080497 -0.049543437 0.06101317 -0.085454084 0.0018665392 0.0024685333 0.08903641 0.0092672715 -0.1147802 -0.05587495 0.09179702 0.04650138 -0.03537375 0.10441351 0.14427021 0.037493914 -0.036541067 -0.05376333 0.111908965 0.00994485
Casablanca -1.9191127 -0.9931145 0.38186494 -1.9527222 0.1708527 0.09814415 -0.37459445 -0.05898488 0.88662666 0.11820745 0.7496303 -0.40652952 0.42746392 -0.48839325 -0.5450363 -0.05177007 -1.4823157 -0.18895173 0.088241234 0.26758227
Cassiope 2.0335422 -0.37083122 0.32546568 -1.1721461 0.6490474 0.38305292 0.06554915 -0.48032463 -0.7620043 0.019880466 -0.6040906 0.97312707 0.17429094 0.55440664 -0.23421004 0.28770745 -0.5189668 0.50203437 0.34605438 0.32279897
Castile -0.2508965 0.0474995 -0.10428925 0.32301268 0.32690832 0.15864664 0.13656043 -0.19512689 0.124007635 0.82123977 0.37324882 -0.08423532 -0.19509205 0.32174173 0.005066829 0.029725289 -0.05406841 0.25800616 0.0097179925 0.37663046
Castilla -0.05058199 0.16614555 0.0029466122 -0.407732 -0.31367937 -0.17461962 -0.19849783 0.120575204 -0.0680589 -0.81141096 -0.39286795 0.12463015 0.14867668 -0.2945915 -0.020090878 0.118771076 0.1856109 -0.31486255 -0.02146642 -0.4146915
Castries 0.16522051 -0.78475827 0.37295783 -1.6192212 -0.13195446 -0.09449796 0.56437224 0.11649792 0.8888253 0.3357303 -0.032306895 -0.76076305 0.63604236 -0.66758424 0.49597648 0.4090961 -0.99086887 -0.64255977 -0.6619342 -0.20834644
Castro -2.413925 -1.342554 -0.9348801 -1.1617299 0.6307111 -0.49827033 -0.3650507 1.0441118 0.2061492 0.005860737 0.7707726 -0.2227954 0.14205885 -0.030882427 0.03611563 0.40977144 -0.76014924 -0.04340322 0.7967673 -0.07044109
Casuarius 1.9651977 -0.5712155 0.07003765 -1.1676227 0.8401658 1.0790367 -0.54680306 -0.06807541 -0.45943022 -0.6911975 -0.5149361 1.3602645 0.5143622 -0.2556716 0.550215 -0.47639704 -0.46519035 0.105524845 -0.47784936 1.0384489
Catapres 0.8565641 -0.54857177 0.38351578 -0.28639752 -0.1673282 -0.7369564 -0.10861142 0.115945786 0.014217657 0.7708885 0.37342498 0.45558897 0.51468074 -0.3328133 -1.437412 0.11701868 -1.7667178 0.44429106 -1.0897979 1.0758756
Catha 1.273716 -0.08271805 0.4869982 -0.9383303 1.432616 0.36638957 0.1418014 -0.12416379 -0.60602814 -0.21259391 0.36361095 0.7199761 0.7403147 0.55581075 -0.31959403 0.3757168 -0.33133158 0.30774668 -0.22633398 0.5415533
Catharanthus 2.0737252 0.9111017 0.7925293 -1.0317622 1.708542 0.22710428 -0.43596286 -0.1149217 -1.0206804 -0.7238752 0.41247696 0.99271697 -0.042781837 0.93363404 -0.8726428 -0.182766 -0.9206436 -0.13491215 0.5144682 0.53370297
Cather -0.75578064 -1.1291474 -0.10881519 -0.9657147 0.53413683 0.041438565 -0.8454583 0.06945658 1.6846889 0.23574512 0.44374967 -0.36721507 -0.054233026 -0.16186126 1.8446823 -0.068117134 -0.08482594 0.17146334 0.12151398 0.7069337
Catholic -0.8773587 -0.26044765 -0.3808605 -0.6124515 -0.04017683 -0.061122704 0.0112648355 0.06430978 0.4910386 0.15613665 0.32523867 0.0038398616 -0.32006222 0.026093388 0.28026462 -0.60820735 0.28966495 -0.33248863 -0.06916624 0.05118272
Catholicism 0.8432882 0.2736378 -0.219454 0.66798747 0.04769162 0.45359284 -0.35949567 -0.41314435 -0.12812606 0.03366462 0.2514041 -0.56849766 0.098022684 -0.17997871 0.5146746 0.166634 -0.16897318 -0.14267524 0.14395674 0.2790872
Catholicos 0.9549802 -0.47327155 -0.8788538 -1.2290555 0.2786014 -0.3270544 -0.7413449 0.6599534 0.8170507 2.149033 -0.008344665 0.45514375 -0.0054827305 -0.287557 -0.25777695 0.79102975 -0.42973718 -0.19986102 -0.007869712 0.22738662
Catskills -0.39100155 0.14955488 -0.041315727 -0.08738822 0.10554589 0.060003426 -0.016996212 -0.030444779 -0.012244953 -0.029156769 0.17782252 0.13251472 0.04289473 0.11165926 0.048772216 0.1531946 -0.0110816015 -0.12670922 -0.061915144 -0.080869205
Cattell 0.03040158 -0.010414493 -0.62752783 -0.89023614 0.17169493 -0.5391336 -0.528364 0.012606043 0.52102417 0.42540312 0.8584301 -0.5436916 0.09819493 -0.021717532 1.5358611 0.23311429 0.7485708 0.41678792 -0.06939254 -0.19084015
Cayuga -0.7999129 -0.46293855 0.14419203 -2.0674047 0.34552923 0.080552764 0.71476954 0.08536405 0.84060425 0.38821548 0.32903448 -0.19369364 0.26885292 -0.36937535 0.32400155 0.36606506 0.11993888 -0.41181007 -0.4639381 0.45975778
Ce 0.8666948 -1.3225445 -0.8808456 -1.2405056 0.5373706 -0.45014122 -1.069504 -0.51535016 0.3797122 0.14670913 -0.30665073 0.4657483 0.554441 -0.8051294 -0.35857248 0.14482027 -0.2940702 0.5880394 0.037040044 -0.6648215
Cebu -1.9252428 -0.6945836 0.18448022 -2.232981 0.11108187 0.27262178 0.58980536 -0.18738009 0.7682341 0.14059564 -0.020446112 0.2087825 0.029115042 -0.6929084 -0.7510324 0.776705 -1.0444927 -0.7859869 -0.13672867 -0.46744308
Cebuano 0.04596854 -0.9979287 -0.2136007 -0.56376654 0.033937458 -0.015796822 -0.17632566 -0.86808693 0.20335147 0.31712663 0.29363418 -0.056714527 -0.19971964 -0.6383599 -0.070107676 0.5724554 -0.38652954 -0.3571354 -1.3087605 0.2581715
Cecropia 0.018306492 -0.013928539 0.12682182 0.13830277 -0.074802406 -0.044600405 0.13824297 -0.14004622 -0.027000539 -0.10200159 -0.12380792 0.22197993 -0.017832886 -0.009288203 -0.061669428 0.17334102 -0.019820286 0.05539 -0.16822854 -0.11766446
Cedrus 1.2640121 0.18008015 0.28450346 -1.4473542 1.1173931 1.1777773 -0.33145973 0.019426353 -0.33182994 0.026218329 0.39483207 0.9878652 0.46253785 0.16108035 -0.42352748 0.9020445 -0.6615599 -0.24854666 -0.60151863 1.0564803
Ceftin 0.67465025 0.5601807 0.13108578 -0.41421828 0.7621789 -1.5385027 0.8007245 -0.5196166 0.26199725 0.45579472 -0.18598184 0.22833143 0.4068734 -0.20401105 -1.1023802 0.4944509 -0.8666258 0.51477206 -1.0584506 1.3496705
Celastrus 1.8924708 0.056808483 0.022007324 -1.0393014 1.1555523 1.2639091 -0.27177343 -0.58535504 -1.1303649 -0.5761497 0.35103366 1.3976694 0.39433074 0.7114831 -1.1512227 0.23932588 -0.10715357 0.7615489 -0.2700372 1.956329
Cenchrus 0.2363453 0.15969522 -0.24094145 -0.5111085 -0.119697176 0.14383315 0.20394024 0.11201238 -0.26130116 -0.19015425 -0.058675863 0.34214047 0.0719398 0.13614832 -0.37045008 0.009410868 0.6308227 0.05395699 0.24188113 0.26650715
Centaur -0.26352036 -0.21624495 -0.083406076 0.095927894 -0.64017546 -0.07587678 -0.19582264 -0.17868455 0.28901756 0.29758415 0.16966516 -0.47452605 0.30408186 0.5255407 0.30724734 0.27501607 -0.18298894 0.0007706315 -0.72786164 0.19580877
Centaurus 0.25804704 0.046995748 0.013325192 -0.1564581 0.5404537 -0.009208363 0.13361336 0.19739711 -0.06420167 -0.39017695 -0.28158417 0.3935097 -0.29782176 -0.5336146 -0.36608097 -0.34808028 0.13538153 -0.024318568 0.60693246 -0.16639876
Centranthus 1.9140495 -0.04879817 0.77265567 -1.1756504 1.3508637 0.34772125 -0.07069897 -0.13510337 -0.7897018 0.32385713 0.37551007 1.5052418 -0.13630019 0.4076954 -0.31454223 1.4388965 -0.53768754 0.7913423 0.23454477 1.1040858
Centropus 2.2588704 -0.10505732 0.40950692 -1.1642516 0.8754972 0.19198631 -0.5826782 0.097213104 -1.3226898 -0.50994116 -0.19624661 1.1930763 0.070966616 0.13291399 -1.2560778 0.6224148 0.39451358 0.83482134 0.36363235 0.9038311
Cephalotaxus 2.3006122 0.022624817 0.09398704 -1.6978962 0.7552083 0.31557834 -0.20809945 -0.19951932 -1.3804889 -0.7920277 0.76377994 1.6494244 -0.057964038 1.1517437 -0.35863844 0.50298315 -0.010082361 0.3983988 -0.11571915 0.8927474
Cerambycidae 1.3243062 -0.32016802 0.65754455 -1.7439806 1.0162965 0.9012246 -0.27196825 -0.17302804 -1.1455858 -0.9661604 0.27033696 1.8839507 0.2630727 0.69196403 0.49867648 -0.22076535 -0.079445146 -0.19065405 -0.88447005 1.0775567
Ceratophyllum 1.8796486 0.21857426 0.7166979 -1.2012919 0.8007057 0.8824388 -0.085578255 -0.36397272 -0.80238426 -1.1632639 0.59175605 1.0803499 0.7323362 0.83445305 -0.22877754 0.29294506 0.048861478 0.0057805353 0.5805249 0.95466197
Cercopithecidae 2.4054902 0.03118289 0.06562898 -1.5833106 1.7802225 0.95349276 -0.9674065 -0.06852095 -1.3256954 -0.23974162 0.20030254 2.1263547 0.274656 1.1233263 -0.30490258 -0.38134637 0.35086116 -0.44027722 0.83569515 0.7801737
Ceres -1.5199556 -0.27437338 0.07668905 -1.3798426 0.7206692 0.6924184 -0.15617804 -0.13701352 0.8070624 1.0286157 0.25936094 0.47506428 0.6599459 -0.20811999 0.16749333 0.1670181 -0.21190326 -0.29131705 -0.31765023 -0.47597665
Cestoda 1.1830039 -0.14716445 0.36684138 -0.6685394 0.9486399 -0.26643464 -0.30745673 0.33215702 -1.0300564 -1.1662546 -0.24516341 1.2274605 0.8347509 0.3551113 0.09059262 -0.11742128 -0.221831 -0.4640465 0.6227686 0.2995981
Cetorhinus -0.10507766 0.11074214 0.09453926 -0.055405762 0.15385498 0.060494613 -0.056245003 -0.1368389 -0.058569767 0.019535176 -0.12786877 0.2641102 0.022898886 -0.016209848 -0.07647359 0.17796831 0.09714797 -0.030239746 -0.13502605 -0.07250949
Cetus 0.13109711 -0.06911519 0.25854245 -0.7697901 -0.28172666 0.35708338 -0.4937322 0.46457782 -0.24783817 0.65652525 -0.19991566 -0.33970127 0.8281224 -0.08769877 0.8270647 0.35676926 -0.56874096 0.36153585 -0.3554271 -0.4685741
Cezanne -0.78719085 -0.70676285 0.1878513 -0.9597607 0.41572863 0.2152409 -0.907354 -0.9769695 1.6139083 0.49429327 0.56509215 -0.19736837 -0.0054780943 -0.22376291 0.95901304 0.25072458 -0.5854737 0.4662472 -0.19800201 0.15509553
Chaetognatha 2.4534562 0.13775024 0.20694341 -1.4982826 0.8644409 0.6640517 -0.91817945 1.0496109 -1.761224 -1.2521186 -0.16050576 1.3058279 0.41328162 0.14909844 0.3186588 0.5977357 0.46413377 0.6538378 0.12038866 0.51808345
Chaga 0.6837861 -0.012195883 0.31934333 -1.019454 1.5124938 0.40130875 0.3402274 -1.0656122 -0.7265039 0.16945906 0.64552975 -0.28588197 0.9920941 -0.063471794 0.15862392 0.5622485 -0.36490026 0.9456613 -0.75142497 0.8903931
Chagall -0.6979764 -1.180325 0.26732025 -0.9767157 0.29150864 0.24511853 -1.4686204 -0.73512477 1.5192846 1.0044395 0.52700174 -0.5121036 -0.086537294 -0.10920609 0.7081299 -0.08784104 -0.92380047 1.0192884 0.56955737 0.08531084
Chagatai 1.5539832 -0.42068395 -0.07192782 -0.8862869 0.10829504 -0.0009479399 -0.7391658 0.33130285 -0.068351336 0.63492143 0.6201759 0.042506173 0.05325701 -0.009212742 0.06453022 0.9668591 -0.80376804 0.19388726 -0.19993457 0.68873185
Chaldea 1.2012944 -0.74443454 -0.66361123 -0.04644969 0.63675135 0.9753613 0.029397558 0.026064005 0.41964716 2.0724409 -0.63663185 0.08267482 0.50202155 -0.13716857 -0.110649616 0.7073022 -0.49307853 0.23800036 0.089530945 0.27759287
Chalons 0.8892149 -1.0780065 -0.04091409 -1.2160387 0.044341914 0.30141044 0.072321735 0.11719172 0.7434102 1.0176708 -0.13890982 -0.05918969 0.83952695 -0.3960879 -0.047378823 0.71210027 -0.59862876 -0.043043084 -0.002379744 0.43987447
Chamaecyparis 1.5625795 0.07229726 0.22155014 -1.9032605 1.6145052 0.8839796 0.16539514 -0.4673589 -1.2987338 -0.38302281 1.1083517 1.3559651 -0.3011745 -0.3224703 0.2794289 0.48705813 0.0061237765 -0.64878625 -2.9878274e-05 1.5114851
Chamberlain -2.1486025 -1.2247295 -0.63335675 -1.420094 0.31287178 -0.8631543 -0.6135798 0.74677896 0.7024537 0.4960895 0.9521821 -0.36034676 0.07851807 0.36859646 0.78868824 0.43669504 0.6349101 0.033686273 -0.17138161 0.7120598
Champlain -1.5740875 -0.61202693 -0.02267473 -2.0689328 0.28481844 0.5614931 0.54609126 0.090377025 1.6493098 0.39420038 -0.19518885 -0.27962428 0.7490659 -0.50553805 0.5699087 0.23097971 0.0010954097 -0.07374981 -0.26613894 0.04545245
Chancellorsville -0.21286961 -0.62163806 -0.15287371 -1.3672853 0.30544305 0.11386951 0.16057414 1.4261788 0.7280976 0.72074074 -0.09735964 -0.65210795 0.5524642 -0.513548 -0.11142229 0.97637665 0.08701324 0.83424765 0.14796709 0.36558926
Chandler -2.8344777 -1.0743483 -0.07816264 -1.7064577 0.174088 -1.0911539 -0.33977953 0.19334207 0.71168727 -0.20775142 0.82425374 0.30455217 0.46891546 0.7533895 0.2834242 0.4308442 0.35262823 -0.04867989 0.29993588 0.8052501
Chanukah -0.95705104 -0.07970634 0.059027724 0.05972792 -0.0020999836 0.14378518 -0.16851565 -0.28235295 0.25511917 0.31073955 0.123086676 0.03443387 -0.055750336 -0.16327377 -0.19080137 0.21822673 -0.05696003 0.006257147 0.13714646 -0.18105263
Chanukkah 0.93138343 0.08093549 -0.06839304 -0.054224025 0.00082394935 -0.14908096 0.1693112 0.2891857 -0.24859011 -0.30800122 -0.12587929 -0.032174606 0.054243285 0.16598722 0.19544622 -0.2135897 0.065078266 -0.0061540175 -0.1443822 0.18092579
Characidae 1.4384887 -0.09275033 0.39331874 -1.3218561 1.1279474 0.64059347 0.25910142 -0.7908769 -1.0503479 -0.25632513 0.23448849 2.3275406 0.28179914 1.1075441 0.73638296 0.48093456 -0.7318925 -0.94466275 -0.2292514 1.0438087
Charcot 0.36360788 0.528526 -0.40618354 -1.0618839 1.2358863 -0.81759053 -0.94972354 0.62172985 1.1678401 -0.16155447 -0.56309295 -1.0606186 -0.6089831 -0.25124612 1.5844333 0.6263703 -0.15681727 0.0065745567 0.38963836 0.91028345
Charina 1.2422211 -0.20835339 0.5318228 -1.1388849 0.6321928 -0.21033043 -0.18601386 0.033362743 -0.29255018 -0.18320934 0.08809103 0.35684076 -0.44781885 0.54331344 1.0927398 0.88120943 -0.24388789 -0.0348861 0.13644946 0.083555
Charlottetown -0.70835805 -0.40164554 0.0033397742 -2.5717971 -0.15002586 -0.27232876 0.49196148 -0.007590538 1.4258385 -0.0053896373 0.20855978 -0.26586312 0.2941114 -0.031391084 -0.022685423 0.11298977 -0.5987156 -0.528408 -0.03494112 -0.23148762
Charybdis 0.4159237 -0.67250264 0.10262789 -1.5548034e-07 0.3163626 0.7597288 -0.18811539 0.2582061 -0.6657863 0.4561355 -0.8391257 -0.35021284 1.0663899 -0.52249575 0.2761114 0.7772007 -0.5276766 -0.023757832 -0.4276886 0.6145819
Chimaera 0.032736845 -0.41706187 0.5051586 -0.9957409 0.26235703 0.44355062 -0.53078043 0.077398516 -0.270903 0.70184076 -0.40927967 -0.21703912 0.9833735 -0.03104722 -0.09140594 0.86354315 -0.7051109 0.42714077 -1.0710908 0.24440853
Chisinau -0.39894575 -0.6473835 -0.60025793 -1.6788299 -0.3915362 -0.11488303 0.3247081 0.07220917 1.0005555 0.39680824 0.033920992 -0.46073195 0.28805813 -1.5167575 -0.38498545 0.5917578 -1.8856288 -0.62754524 0.027958816 -0.60914594
Chlorophyceae 1.0450877 -0.4300342 0.6749934 -0.56548494 0.61116505 0.43374732 0.20907155 0.2615305 -1.0401225 -0.18743476 0.25161615 1.1344824 1.2160313 0.56809455 -0.37294593 -0.078689806 -0.21538201 -0.19797924 0.60564816 0.27723405
Chuang-tzu 1.6104184 -0.39417815 0.22100803 -0.74461406 0.061887175 0.09312392 -0.65319854 -0.036374938 -0.045356877 0.42649785 -0.46785408 0.3763688 -0.005027596 0.8218135 1.3979536 0.65301085 0.7732671 -0.20020118 0.15641521 0.47707734
Chuvash 1.3779415 0.09307417 -0.0895039 -0.8970922 0.5955849 0.43888727 -0.4558329 -0.051499702 0.23095495 0.4465017 0.2973982 -0.28772834 -0.24417607 -0.23294705 0.3552545 0.7475369 -0.6673263 0.112780996 -0.4858466 0.22317773
Ci 1.5987846 0.37262902 -0.50727594 -0.9797216 -0.03372518 -1.0877895 -0.71855295 -0.39768884 -0.0025573072 0.8309882 0.7536554 -0.3280027 1.49382 0.18505219 -0.5749142 0.1371419 -0.12083754 -0.2771618 -0.11748097 -0.13014545
Cicadidae 1.731485 -0.24429742 0.26947767 -1.4376441 0.4534777 0.4465353 -0.6019264 -0.8807918 -0.8444339 -1.1165621 0.22316942 2.0904171 0.28187197 0.25325307 -0.1599433 -0.10807234 0.19284026 -0.014676638 0.6658733 1.1734302
Clarksburg -0.5953787 -0.555687 0.063461535 -2.0346074 -0.15173712 -0.44737238 0.6015934 0.017095966 1.0097742 0.25018817 0.10779914 -0.32621995 0.38154992 -0.06700322 0.36944062 -0.00084262714 -0.009993363 -0.16180122 0.2840914 -0.09351367
Claviceps 2.2703688 1.0539773 0.32908386 -0.64520353 1.9387292 0.19804394 0.26444754 -0.25768378 -0.56845033 -0.24875507 0.43324137 1.1675956 0.24716878 0.7897688 -0.16710073 0.093667895 -0.11885977 0.08415931 0.4608194 0.75814867
Cleopatra -2.0640697 -1.2489307 0.37165028 -0.46522072 1.1513705 0.043173783 -0.87070507 -0.15825444 0.80007315 1.2402807 0.5100763 -0.16258907 -0.06669727 0.6763488 -0.1326345 0.21580042 -1.200488 0.75137293 -0.25548196 0.15759113
Clinton -0.035397418 0.0018868517 -0.00040385028 0.008214156 0.01256166 0.00423619 0.0119767375 -0.0065051354 0.005407932 0.0053896597 -0.0038348553 0.00016645307 0.0053032595 -0.0025411618 -0.00030203178 -0.009327624 -0.001059572 -0.0056613903 0.006614437 -0.0010106878
Clioquinol 3.0880585 -0.61202157 0.5893684 -0.5266206 0.8376778 -0.033164736 -0.06671858 -0.0313397 0.35327268 -0.11319675 -0.6143798 -0.09672092 0.2694699 -0.5969818 -0.59207636 0.4187908 -0.4427894 0.19875799 0.52780855 0.6436101
Clitoria 1.5569925 -0.012805421 0.4778606 -1.3395034 1.0742458 0.030832602 -0.11859485 -0.48555407 -1.0628922 -0.8584701 0.39920896 1.5751705 0.24410273 0.68876237 -0.12465676 0.47053984 0.23606674 0.56584084 0.36536065 0.69590414
Clive -2.1226313 -1.4640547 -0.4841651 -1.2355757 0.321671 -0.857167 -0.86873245 0.3724698 0.65842277 -0.1678564 0.83221805 0.029656462 0.49427027 0.4547653 0.43297318 -0.3268394 0.36456177 0.661419 -0.074849784 0.35373497
Clytemnestra 1.0069174 -0.62891364 -0.59891087 0.033244714 0.49775618 -0.5448247 -0.9535268 0.28747243 0.1521386 1.4616363 0.113543496 0.03210231 0.6377464 0.6866853 0.15138109 -0.13949461 -0.7839191 0.005867441 0.17694053 0.12598813
Cnicus 2.3072588 -0.36491123 0.33245146 -1.2211691 0.9323579 0.5076169 0.37141123 -0.29983595 -0.6568081 0.1462246 0.25647995 1.1394295 -0.321581 1.0009425 -1.1991729 0.9757757 0.7246433 -0.5567476 -0.7552351 1.3442824
Cnidaria 0.047526907 -0.070483655 -0.11697452 0.1604909 -0.010655786 -0.19792695 -0.009224649 -0.11182707 -0.06383924 0.29360864 0.06599778 0.10475801 -0.013154699 0.042236913 0.1091669 0.03255326 0.08393189 -0.0061259917 0.107718624 0.06449831
Cnossus 1.8202987 -0.38532218 0.3226227 -0.8507654 -0.0874074 0.29604125 -0.8439657 -0.9346096 0.0026740609 -0.03505217 -0.040640507 0.3760732 0.45055816 0.3943732 -0.4959839 0.48577693 0.31271175 -0.1827979 0.7035747 0.17554352
Cnut 0.6672432 -1.1269405 -0.32867485 -0.5239256 0.24847195 -0.22102776 -0.46274868 0.71424335 -0.19484355 1.5485181 0.0375495 0.11322225 -0.10265394 -0.15525603 0.6591103 0.7265078 0.3496603 -0.0016537565 -0.19917254 -0.29284668
Co -0.7465933 -1.6958927 -1.2171624 -2.8055673 0.6495229 -0.7119643 0.07335652 -0.12875922 0.98489124 0.20687917 0.30695784 0.5544095 0.14250545 -0.3512586 0.37681714 0.42684647 -0.030637953 0.0064281514 0.13636419 0.25407076
Coahuila -0.10471674 -0.38937506 -0.17049946 -1.8826075 0.59185874 0.48764974 0.7138218 0.5901797 -0.35865048 0.07561852 -0.067017294 -0.0038122653 0.12530449 -0.54207695 0.14102755 0.21828742 -0.990901 -0.25182515 -0.12887844 0.14291295
Cocopa 1.7653632 -0.61024415 0.1840305 -1.2794765 -0.02554918 0.44922388 0.19687486 -0.27123296 -0.4181695 -0.12484408 0.10394795 0.24087517 -0.10302309 0.11944612 0.09287938 0.9423421 -0.49246806 -0.25736666 0.77751917 0.25804117
Cola -0.3160994 0.07524384 -0.006353481 -0.07287591 -0.019103957 0.011347417 -0.075145066 -0.09087019 0.094845556 0.07717039 0.110725954 0.098357975 0.060633834 0.03718938 0.01162598 0.12195622 -0.0019698564 -0.029268013 -0.012623409 -0.15018648
Colaptes 2.0277717 -0.43497595 0.38312468 -1.1470419 0.9283578 1.2200803 -0.8070478 -0.38204408 -1.3027743 -0.68959856 0.8384819 1.3241627 0.057330627 0.42884502 -0.38970968 0.21295135 0.4139767 0.12673885 0.08250603 0.92573404
Colchis 0.9541244 -1.0846647 0.17854227 -0.80518174 1.1134665 0.6836854 0.08443926 0.2583741 0.46387413 0.967133 -0.14482072 -0.2235937 0.22096321 0.084803104 -0.33338618 0.5536665 -0.9477272 0.3221066 -0.90759385 0.6908474
Coleridge -0.75251335 -1.0021375 -0.8482985 -0.75237024 0.8092255 0.102424085 -1.318897 -0.16511236 1.6097287 1.1906439 0.5317259 -0.3368893 0.29503214 -0.038268607 0.62533987 -0.14310332 0.39204696 0.12837209 -0.12461869 1.1638048
Colocasia -0.29251295 0.26279113 0.5846246 -0.18371531 0.39153275 -0.18189822 -0.013958856 -0.35296905 0.12845059 0.014885451 0.23363495 0.0545878 -0.22395518 -1.2701293 0.4947273 0.50200856 -0.21720421 0.41338018 -0.43434164 0.036239546
Colombian -2.1730647 -0.4753409 -0.67078644 -1.337823 0.606545 0.5217413 0.5866927 0.1972617 -0.4248982 -0.61325395 1.0853069 -0.27903306 -0.423628 0.1119872 -0.15120238 -0.05061436 -1.1704229 0.59415877 -0.2715984 -0.4105511
Colony -2.0836594 -0.3947383 -0.29631475 -2.556882 0.7595791 0.37624684 -0.009297161 -0.080331296 0.99086386 0.58943284 0.026500775 -0.06682058 0.86140317 -0.20742588 0.59288406 0.2021242 -0.44026935 -0.46181405 0.003593718 -0.23653454
Compositae -0.5791107 0.16208051 -0.08295426 -0.074936934 0.018003134 -0.0111757675 0.03265842 -0.021738954 -0.008977459 0.071879104 0.14613089 -0.005765799 -0.0132221 0.018849166 -0.023199597 0.07600386 0.063049234 0.008414509 -0.107076876 -0.03403058
Conakry -0.104480624 0.063307054 0.11872175 0.13200882 0.104888625 0.012603728 -0.05110766 -0.0029449381 -0.1793846 0.020020988 -0.027944593 0.09886202 -0.064745225 -0.045671515 -0.02845349 0.081577 0.019414313 0.09761688 0.081124924 -0.0009151699
Condorcet 0.5238707 -0.24951136 -0.9853409 -0.80610335 -0.6234319 -0.45830983 -0.76802754 -0.37331814 0.09823028 0.89531565 0.62906104 -0.34264526 0.3786069 0.04998662 1.0581821 0.15406325 0.90473425 -0.40693748 -0.0046025133 -0.16760841
Confederacy -1.421752 -0.9044612 -1.392386 -1.0799856 0.80260426 1.0328631 0.2442509 1.0124594 0.028303249 1.3290858 0.46028468 -0.32330334 -0.16402817 -0.027831294 0.19384882 0.8568525 -0.82923687 0.26444247 -0.024452824 -0.47861338
Confederate -0.63763225 -0.2740997 -0.456593 -1.3326795 0.76300323 1.3264922 0.8917141 1.8464402 0.23374255 0.6096282 0.31799707 -0.14789394 -0.4852262 -0.6663112 0.4972741 0.09888564 -0.5688767 0.65231645 0.35302743 0.69793147
Confucian 0.022830548 -0.487735 -1.6434823 0.16901296 0.5341229 1.2923918 -1.3395878 -0.8617652 0.32044062 0.980691 0.55071145 -0.31903177 -0.8890843 -0.0975047 0.43866625 0.7273558 -0.52287126 -1.0488385 0.14013934 0.33908156
Confucius -1.2908031 -1.2723985 -0.8668365 -0.39835206 0.8691496 0.4788472 -0.9314723 -0.82008106 0.5457726 1.8813136 0.31452486 -0.027436296 0.020031523 -0.24680196 0.6491115 0.95535064 -0.2548374 -0.4715742 0.14025405 0.11368772
Congreve 0.18293262 -1.0875928 -0.18196258 -0.24702771 0.0042297095 -0.325506 -0.79050547 0.22799926 0.6518408 0.9679087 0.31819278 -0.60722834 0.23241885 0.5653709 0.6136464 0.26962945 0.24069284 0.9220889 -0.5251605 -0.11364147
Connecticut -3.3615851 -0.6238179 -0.79837847 -2.163112 0.62251204 -0.23499654 0.49525768 0.13611364 0.6645563 -0.42211336 0.17379282 0.19979692 -0.54176605 -0.16999978 0.25010008 -0.014887708 0.46254626 -0.02491147 -0.054547638 0.43741846
Conoy 1.2276462 -0.11212024 0.23336579 -1.2510906 0.56246674 -0.14973462 0.28354296 0.02306592 0.12389087 0.41856986 0.22312939 0.115205914 0.72021145 0.09498983 0.4434941 0.5308009 -0.83243376 0.16213994 -0.043037042 0.55097866
Conservative -2.2189612 -0.6384765 -2.804654 -0.7277186 0.6211263 0.22786401 0.17295326 0.13318221 -0.37956932 -0.14157906 1.6853169 -0.37925068 -0.46593383 -0.41869104 -0.117125854 0.493767 -0.7463586 -0.75554776 0.40131348 -0.11151892
Constantine -0.2627855 0.19094352 -0.33117443 -0.1919744 -0.134184 0.02244861 -0.119420335 0.03354661 -0.01998778 0.08900497 0.0629227 -0.18305205 -0.083583765 -0.049092848 0.065641984 0.0660204 0.030887477 0.076473124 -0.16537118 -0.061354775
Continent -1.7117052 -0.72527206 -0.51463926 -1.0095255 0.70549697 1.1401993 0.305895 0.08506535 0.64476573 0.58254504 -0.012583963 -0.15681824 0.68554705 -0.726592 0.034599993 0.7668369 -0.6388011 0.20635647 -0.6522292 0.15394013
Contopus 1.9890844 -0.4338153 0.5636782 -1.5138857 0.45262572 0.8168364 -0.25151682 -0.22833695 -1.323623 -0.83004653 -0.10549581 1.228565 0.19283758 1.0118358 -0.5251494 0.048749704 -0.33075994 0.18803585 0.6014466 1.5142717
Coosa -0.68647003 -0.40420258 0.23567489 -2.057524 0.22038887 0.23730712 0.53111804 0.6723182 0.609748 0.05887967 0.24817818 -0.33446774 0.42878386 0.0028202222 0.36630014 0.4177683 -0.2606414 -0.3620493 -0.67876667 0.12712254
Copernican 2.705143 -0.12197339 -0.8471927 -0.116314374 -0.06013022 0.4513403 -1.0503621 0.36781657 0.046840884 1.4815606 0.47416076 -1.511063 0.20643324 -0.214601 1.2076193 0.97795504 0.08440956 -0.8560792 0.96224964 -0.98679155
Coprinus 1.676152 0.45184267 0.843372 -1.0169187 1.7783552 -0.16721325 -0.4134007 0.08072223 -1.556996 -0.8549432 0.7493457 1.8395473 -0.29726672 0.6678435 0.06660581 -0.30309895 0.41198167 -0.5710561 -0.1513786 -0.1161606
Coptis 1.6533222 -0.0942374 0.29256612 -0.8406907 1.253397 0.30490986 0.45884654 -0.9711417 -0.8297712 -0.19768709 1.0024947 0.7882411 0.19749773 0.7394295 -0.7941979 1.1043292 -0.5254975 0.028019972 0.1361344 1.6451968
Cora -1.570346 -0.45082036 0.0037775335 -0.23434414 0.55428874 -0.6756336 -0.07439566 0.048817787 0.5383152 -0.21574678 0.5120951 0.28623673 -0.042939093 0.52638036 0.2927311 -0.2706039 0.34112513 0.12315269 0.030028641 0.26991123
Corchorus 2.5493371 -0.015775546 0.49266145 -1.2518003 1.0768566 1.0119401 0.14955993 -0.25945213 -1.4057937 -0.5678361 0.8119201 1.6257154 -0.16403957 0.6476316 -0.6824524 -0.11824993 0.0046494617 -0.1163298 0.15032607 0.7653011
Cordarone 0.8832757 1.2471418 -0.08171803 -0.5649286 0.65124345 -1.6866778 0.8630145 -0.3160124 0.5638995 0.6353113 -0.24285163 -0.43607435 0.25412312 -0.39202923 -1.3123833 0.19449781 -1.281829 0.7796662 -0.9578474 1.4266593
Corday 0.6291261 -0.69872236 -0.29436263 -0.65691525 0.50094306 -1.4870682 -0.37042946 0.3315063 0.8988578 0.33516875 0.7811767 -0.51610625 0.49911427 0.71182823 0.54992324 0.26508984 -1.0914105 0.5879532 0.429857 -0.49720603
Coriandrum 2.1322894 0.481279 0.20219173 -1.3667718 1.4307581 0.42441288 0.33566415 -0.6218737 -0.89306694 0.50578445 0.8963468 1.4231172 0.18505666 0.6461042 -0.93785745 0.93180984 0.34193826 -0.3785841 0.12758274 0.907923
Corinthian -0.82415557 -0.83102787 0.06048521 -0.9476084 0.4632308 1.27635 -0.5145145 0.5384913 1.1839199 1.21524 0.56351656 0.33356786 -1.043188 -0.4704256 -0.39178193 0.13100417 -0.013507843 -1.3994366 -0.6336514 0.4934322
Cork -2.51016 -0.74936306 0.50741976 -1.9810925 -0.096577756 -0.025077352 0.1748835 0.025537556 1.4455353 0.13047463 0.7555987 -0.40577793 0.0014966803 0.06391046 0.23212117 0.56989115 -0.1831721 -0.637169 -0.27519175 0.48515573
Cornhusker 1.7946526 -0.4942834 -0.011700057 -0.7849393 -0.45889136 -1.5314412 0.37524053 0.44307357 -0.09873134 -0.3336976 0.5220034 -0.27270633 0.10179024 -0.370263 -0.48566535 0.654836 0.08362851 -0.2987261 0.113640144 -0.24622627
Cornishman 1.1634731 -1.1938043 0.35926414 -0.59063053 -0.09411929 -0.8566555 -0.07930719 -0.17888749 0.3233652 0.7214025 0.17461032 -0.7902159 0.23748711 -0.23122509 0.8851076 -0.2987928 0.20297371 0.010590779 -0.89455444 0.2359991
Cornus 0.8819316 0.1954672 1.0255364 -1.5793433 1.9289523 1.2828424 -0.1645919 -0.4059858 -0.9718927 -0.39132184 0.58400255 1.7137407 -0.25367266 -0.36788267 -0.18205257 0.8817208 -0.6214015 -0.23698288 -1.1058704 0.8222225
Cornwall -2.8869147 -0.9456693 0.027189286 -2.0357485 0.27052224 0.5100045 0.27977467 -0.50723857 1.3521005 0.33014318 -0.2146172 -0.10415305 0.2793794 -0.116294675 0.27827388 -0.0074930172 -0.01836497 -0.43169937 -0.38606504 0.5749315
Cornwallis -0.2897822 -1.0656635 -0.7041174 -1.270483 0.2267333 0.4363831 0.05993904 1.2528107 0.68213415 1.0688313 0.21103919 -0.28410125 0.7244392 -0.361747 0.51399666 0.37739053 -0.21834725 0.30017954 -0.6377802 0.13444284
Corse 0.55402726 0.16514915 0.10162088 0.055092484 -0.14188679 -0.51156676 -0.4231142 0.18361948 -0.25761145 -0.071958706 0.23279282 0.1561133 -0.24426864 0.17615515 0.090186715 0.2648429 0.2864936 0.18145557 0.007582077 -0.25539434
Corsica -0.1163868 -0.07029494 0.022156794 -0.09499827 0.35230786 0.380038 0.30050948 -0.2537878 0.34599108 0.06982435 -0.3043102 -0.26806778 0.19390784 -0.2072186 0.021772075 -0.14716914 -0.23697688 -0.18199822 0.04117074 0.107066125
Corticium 2.2175903 0.70528346 1.3830513 -0.14203617 1.6170064 -0.6641652 -0.18187033 -0.3789022 -0.5711999 -0.2976639 0.3029071 2.1197913 0.6604328 1.0886973 -0.11464697 1.055702 0.34179318 -2.098047 2.4586513 -0.16057509
Corydalis 0.002399198 -0.009014404 0.0054837693 -0.00069726154 -0.0016460404 0.0008394712 0.0032233065 0.014915211 -0.002229782 -0.000913012 0.009425393 -0.011147662 0.0038768873 0.004014274 0.0095334 0.0007057457 -0.0059369197 -0.0020079797 -0.0025162247 0.0017341647
Cossack -0.37767744 -1.1448089 -0.21218048 -0.6616205 0.34949002 0.7148766 -0.22934644 0.80305314 0.068844505 0.8518027 0.122851126 -0.5932695 0.056615807 -0.31009182 0.13680485 0.27669954 -1.0534759 0.46486583 -1.2937121 -0.011736065
Cotopaxi 0.10686413 -0.49748865 0.38125154 -1.378413 0.11716647 0.49185395 0.1408989 0.5736883 1.1258585 0.19996762 -0.8696265 -0.46188444 0.746288 -0.5919045 -0.16798145 0.08129017 -0.65970564 -0.84881026 -0.72714174 -0.22613752
Coumadin -0.63159305 1.7985904 -0.03992329 0.011107904 0.77508986 -2.2942274 0.92528844 -1.0776902 0.5787347 0.8343578 -0.09221036 -0.2322586 0.19924685 -0.27832273 -0.43557522 0.8758067 -1.5409787 0.2900691 -0.93435675 1.1508967
Cowper -0.30459878 -0.47098452 -0.24300897 -0.64110094 1.1573817 -0.68500483 -0.76342005 0.37291104 1.2051307 1.1124805 0.4906683 0.050654735 0.115639016 -0.13024206 0.42865106 -0.16596465 0.22686994 0.09681926 -0.356876 0.6460147
Cox-1 2.6635065 0.5562847 0.3398359 0.94269764 0.27379692 0.3998571 0.20222771 -0.20686251 -0.46500576 -0.031294417 -0.37430248 -0.02560206 -0.016136145 0.35029566 -0.3233955 0.12872764 -0.12123949 -0.335177 0.10656632 0.08321421
Cox -2.575726 -0.41368857 -0.29792526 -0.91690004 -0.1863208 -0.3592839 -0.13220303 0.19099562 0.3484031 0.13801056 0.35702223 -0.024882339 0.023007324 -0.33599317 0.34071046 -0.0215712 0.10857959 0.276766 -0.24096115 -0.21472494
Cr 0.79642624 -0.20374109 -1.1809996 -1.5046002 0.9439448 -0.7515103 -0.17324331 -0.053234648 0.60474664 0.20059781 0.35564154 0.23390916 0.7294261 -0.71285343 -0.37061962 0.6073486 0.13997053 -0.18012732 -0.15873614 0.32926345
Crab -1.2578559 -0.44417003 1.5779309 -1.4826031 1.0574529 0.60189986 0.35674056 -0.73112077 0.32156962 0.017546179 1.0863372 0.35134545 1.3688571 -0.8692484 1.1537604 0.95893824 0.4325983 0.13506044 0.032862853 -0.013260075
Crangon 2.1988993 0.23406209 0.63273805 -1.4144076 1.3652066 0.63942593 0.49485776 -0.20524564 -1.2153568 -0.644325 0.43513885 1.0173315 0.36568594 0.66601896 0.22832817 0.8824915 0.24905147 0.44305018 0.10347658 0.81763476
Craspedia 1.7508053 -0.45275146 0.7147822 -0.6734801 0.51015604 -0.18699773 -0.12020333 0.040743258 -1.0776285 -0.31036168 0.5873355 1.2940189 -0.03033989 0.37069237 -0.85996264 0.5830704 -0.39914238 0.35860798 -0.08737098 -0.19205733
Crataegus 1.226078 0.36964965 0.27965373 -1.5334449 1.6742492 0.23462106 -0.2724699 -0.87326735 -0.8903263 0.09602403 0.783991 0.86570436 0.073894 0.45494285 -0.5632865 0.74057066 -0.19878457 0.49575278 -1.6684314 1.6659881
Crax 1.8104593 -0.6377157 0.41434446 -1.2969806 0.6296194 0.14823136 0.09522291 -0.49398676 -0.5166386 -0.0014802272 -0.2029895 0.14025599 0.10611172 0.45469987 -0.020165611 0.58112156 -0.04515261 -0.039805885 0.14061268 1.195259
Creation -2.6966205 -0.42348307 -0.7132229 -1.3292098 -0.21786466 1.046228 -1.3945528 -1.2426282 0.4059513 1.4987271 0.53152615 0.22418652 0.6916927 0.44031385 0.03412602 0.8391125 -0.15601417 0.558579 0.9701944 -0.23811607
Creator 0.1645067 -0.1030349 -0.7416529 0.45975325 0.43860483 0.53119916 -0.4031592 0.2207295 -0.06341834 0.073373124 -0.29515997 0.45779598 0.12154499 0.34626377 0.07859723 0.0025492562 0.11882672 -0.054055795 0.12845479 -0.04526545
Creon 0.29145473 -0.26609597 -0.6809623 -0.002085621 0.74478704 -0.7287056 -0.3894994 0.22475812 0.24198662 2.0881488 -0.047438987 -0.22674234 0.59183824 0.30376154 -0.25890407 0.18149196 -1.383217 -0.28989866 -0.71136993 0.5204619
Crepis 2.1332972 -0.04042708 0.39753962 -1.3209183 1.2352518 0.32768267 -0.5586963 -0.4155871 -1.7177385 -0.67467123 0.17977415 1.5607162 0.02715612 0.72670054 0.2599776 0.8853273 0.010924078 -0.19221555 -0.21386622 0.7419959
Cretaceous -0.6142278 0.90148556 0.64977556 -1.3524305 1.7550875 2.396347 -0.35835534 0.8112502 0.07341839 -1.1076655 0.1358895 0.260348 1.0448135 -0.38640213 1.131783 -0.3398625 0.33435297 -0.025069457 -0.3135394 0.022924798
Cretan 1.2425137 -0.5407237 0.75039005 0.338971 0.4267217 0.9493631 -0.18581729 -0.6164339 0.40012443 0.44755498 -0.5302169 -0.29908243 0.025642028 -0.0013681273 0.21893731 0.059958402 -0.04938287 -0.15929078 -0.29702944 0.96278566
Crete -1.7304134 -0.7230238 0.010686529 -1.6927191 0.8864638 1.4587871 0.033314366 -0.44245234 1.0814533 0.63663083 -0.6237772 -0.1179693 0.8470494 -0.34486294 -0.020255586 0.88272625 -1.1481228 -0.7807899 -0.34249058 0.25775838
Crockett -1.5022495 -1.1206365 0.1665906 -1.9093003 0.31925905 -0.67057925 -0.46928087 0.6952109 0.38282773 -0.10275613 0.5619967 -0.23886368 0.18131687 0.587484 0.4108891 0.21673736 0.07754669 0.30225503 -0.4687265 0.493301
Cromwell -1.5131053 -0.14592335 -0.35854578 -0.2677898 0.462078 -0.05950246 -0.33195806 0.23003127 0.30406043 0.41892982 0.33756074 0.21557017 0.05323641 0.37122026 -0.030533977 -0.017166026 0.23797797 -0.287763 0.09036733 0.07422923
Cromwellian 1.3006468 0.2873647 -0.18282203 0.6813582 0.022286426 0.28812182 0.10551669 -0.280632 -0.32083884 -0.124622 -0.24248949 -0.54444027 -0.4899739 -0.42937598 -0.39696276 -0.2595196 0.027513191 -0.07742376 0.2734492 0.061899442
Crotalidae 1.8924448 0.11424861 -0.3648236 -0.97191566 1.318106 0.9683251 0.47540846 -0.5354948 -1.4210688 -0.22125304 -0.35724956 0.4640169 -0.10834687 1.4586328 -0.48647738 0.17847985 0.063996665 -0.7324981 0.5680668 1.9161174
Cs 0.7628241 -0.79433095 -1.2868173 -0.8861057 -0.088636674 -0.5954619 -0.60491496 -0.32136765 -0.07082543 -0.0020921754 -0.16076706 0.6443363 0.8130303 -0.88024473 -0.18311226 0.90112734 0.21661867 0.10433086 0.017680792 -0.59050584
Ctenocephalides 0.088999264 -0.09889731 0.032129057 -0.1484618 -0.00753444 -0.04041668 -0.14550093 0.17849477 -0.052098777 0.02880557 -0.1273616 0.058172014 -0.055510316 0.08977219 0.03658406 0.035632547 0.040630545 0.03643598 0.026215123 0.05073506
Culebra 0.033005677 -0.5175972 0.6209728 -1.3324082 0.14313766 0.22659288 0.59995854 0.20202222 0.84748495 -0.32671168 -0.5961511 -0.6081701 0.60727715 -0.6394305 0.48718435 0.51535773 -0.982355 -0.6793386 -0.1863273 0.29994926
Curacao -1.1133685 -0.5588217 0.50349176 -1.6112285 0.18446036 0.08696253 0.787852 -0.9581497 0.7150265 0.17257279 0.6857865 -0.6270955 0.51686543 -0.6491992 -0.09183225 0.3500116 -0.9691057 -0.5375129 -0.33995548 -0.21472494
Curie -0.031586334 -0.12816593 0.07398802 -0.032759327 0.013334617 -0.11388449 -0.1047583 -0.078179255 0.14463237 0.04413682 0.067853995 0.045024447 0.12892619 -0.07156061 0.017835565 -0.018950721 -0.008478675 -0.0014546671 0.098806836 -0.0071121384
Custer -1.6093589 -1.2614672 -0.09007769 -1.8824604 0.6203799 -0.26432878 0.071894966 0.94038624 0.5678834 0.37552673 0.07331585 -0.16826846 0.5115274 0.06228398 0.3225155 0.25882238 -0.1598391 0.33450893 -0.19962929 0.5568296
Cuvier 0.7167477 -0.08768069 -0.25721154 -1.1855034 1.2282306 0.66813016 -0.99843216 0.3025199 0.35440186 0.48959488 0.08853201 0.35774028 0.49956158 0.11583977 1.9110286 -0.040183213 0.6346928 -0.21470705 -1.0312791 0.22779222
Cuzco -0.23958516 -0.5433191 0.41499525 -1.5367327 0.39379358 0.95664454 0.19819117 -0.17958161 1.125517 0.53065693 -0.41921997 -0.18667905 0.46912262 -0.85624874 -0.1262804 0.28937584 -1.3625754 -0.98406696 -0.12661979 0.3635643
Cyclades 0.22079875 0.035153065 0.67933106 -1.4364411 0.2427918 1.2332121 -0.43513903 -0.2900627 0.71510476 0.3531464 -0.33716956 0.07884521 0.54591036 -1.1379933 -0.73695827 0.44128734 -1.675911 -0.844204 -1.277243 0.31481922
Cydonia 0.31674728 -0.01639632 0.49059424 -1.2533026 0.9889017 1.014747 -1.1857218 -0.18552531 0.37928802 0.41409558 0.16330811 -0.2590036 1.1896693 -1.0997653 0.19594282 0.76925427 -0.55329317 0.76780176 -0.43934074 -0.036828514
Cynewulf 1.5705098 -0.8530537 -0.2904591 -0.5241378 0.1813288 -0.053662222 -0.84535533 -0.17557204 0.2905868 1.1537776 0.079407714 -0.17112842 0.4134336 -0.29310384 0.2481572 0.40753028 0.7583589 -0.48201776 -0.22405177 0.43702033
Cyprus -3.0462804 -0.5930253 -0.628722 -1.9760281 0.47984886 1.0612615 0.9694763 -0.41458178 0.62769234 0.74745524 0.09619811 0.198937 -0.023020089 -0.6196642 -0.77469385 1.1544491 -1.3103586 -0.22717923 -0.29572305 0.024732765
Cyril -1.776191 -1.4381025 -0.6068422 -1.0688721 0.631813 -0.791813 -1.2666367 0.27805814 0.7740722 1.2872449 0.5502941 -0.012495299 0.34727222 0.23405202 0.4839201 0.08983435 -0.02115798 0.22632673 -0.47424066 0.6131775
Cytisus 1.8760118 -0.040699158 0.73316985 -1.4104255 1.2015742 0.5959309 -0.17241573 -0.40425456 -1.3366777 -0.63066214 0.8190504 1.2598492 -0.19572785 0.5664451 0.10922141 0.028290393 -0.08481129 0.15623847 -0.18027517 1.539503
DDS -1.348202 0.47256812 -0.29229957 -2.234302 -0.38085625 -1.1423459 -1.0882914 -0.02564781 0.6135878 0.35521954 0.5911147 0.46936342 0.45469505 0.19076504 0.7707863 0.41102654 -0.011123129 0.57580256 0.117750816 0.6250448
DOS -2.2588227 0.5218655 -0.4056202 -0.9669626 -1.4947201 -0.22460297 -0.94163984 -0.30709293 -1.4376324 0.62439126 0.3617745 0.80748326 1.1706163 -1.0703211 0.27968884 0.058902774 -0.9743447 0.60382366 -0.6178558 0.74904084
Daba 0.7148945 -0.7888112 0.0671685 -1.4248567 0.09892149 0.15383059 -0.39386186 0.10679265 0.51043284 0.45098704 -0.04738199 -0.47503138 0.73383486 -0.30659676 -0.022542 0.5952924 -0.68870974 -0.72344905 -0.3852017 0.35490012
Dactylis 0.06154329 -0.09310109 0.07446287 -0.11768559 0.21510673 0.19043264 -0.28972256 -0.024676219 0.39423752 0.2463796 -0.17511658 -0.4925109 0.06555962 0.47002083 -0.50315124 -0.10245371 0.20715141 -0.5375549 0.33352813 -0.12766053
Daedalus -0.8330016 -0.9493659 0.16772644 -0.85718125 -0.25510332 0.42186314 -1.2485672 0.07734227 0.35778815 1.1458241 -0.17429312 -0.49445316 1.0894269 0.2201306 0.88768244 0.20685129 0.020556265 0.603278 -0.5538922 -0.07739861
Dahomey 0.73422694 -0.6647574 -0.3551747 -1.3431889 0.70911855 0.7035976 0.0072079333 0.0008145206 0.042235233 1.1360723 0.0014816395 -0.5621691 0.20095503 -0.2218832 0.030797305 0.9429139 -1.5279498 0.35491964 -0.9737959 0.13638723
Danau 1.1481475 -0.24603307 0.5020678 -1.8852324 0.29301104 -0.010773481 -0.07418823 -0.16330577 1.0031644 0.095864885 -0.337912 -0.54781127 1.2086954 -0.61953855 -0.29590175 0.5471151 -0.5553742 -0.6213036 0.1790414 -0.011900147
Dari -0.76325166 -0.6994626 -0.42197627 -1.4018229 0.23320146 -0.11816182 -0.59483916 -0.535666 0.032106824 0.7972389 0.6849239 0.3412002 0.47959292 -1.1004245 0.56036687 0.31211394 -1.0110617 0.03142217 -1.0484301 -0.2290515
Darling -2.3561494 -1.3324708 0.36915007 -1.4873295 0.51396763 -0.5054339 -0.1962465 0.25074667 0.65615934 -0.15676752 0.58584607 0.22796157 0.5160352 0.2336235 -0.064752586 0.25431785 -0.3682938 0.009393266 0.25428766 -0.010573346
Dartmouth -2.1570485 -0.5929335 -0.7236236 -2.180682 0.12793519 -0.42509606 -0.06027471 0.12423833 1.2534132 -0.15817384 0.43582153 0.0048626554 0.20143077 0.0001617576 0.591975 0.32331815 0.59227014 -0.49115112 -0.3084634 -0.24050047
Dawes -1.3498129 -1.0643793 -0.3875296 -1.7325523 -0.0080559505 -0.5768845 -0.656223 0.5631649 0.5837338 0.04758126 0.39912474 0.06338896 0.49189687 0.47558424 0.31165653 0.010397278 0.28569266 0.29422793 -0.6749967 0.31964314
Dec -3.615166 0.43289068 0.5713457 -1.9673408 -0.016068064 -1.151212 -0.951351 0.43815878 -0.09135231 0.95761937 0.27074742 -0.35485372 0.85678136 0.091097265 -0.25011283 0.04631291 -0.30754438 -0.14628153 0.31665376 -0.1780973
Decatur -2.2634437 -0.7973841 -0.14128916 -2.3269124 0.2464359 -0.88915765 0.44364193 0.15302333 1.0369635 0.0014822618 -0.084122494 0.13278426 0.3188788 0.2924154 0.16196233 0.16608536 -0.01708867 -0.7149076 0.4094063 0.418372
Delphinus 1.1983573 -0.042807158 0.26836815 -1.6507766 0.3841749 0.32840693 -0.784478 0.023592314 -0.23384355 0.01583674 -0.69242 1.2043166 0.3731152 -0.35803363 0.3992753 0.6220447 -0.53635144 0.09800791 -0.65229267 0.5418936
Demogorgon 1.507753 -0.6339032 -0.03907067 -0.6536683 0.40530613 0.00015414633 -0.44199973 -0.3024515 -0.21930635 0.92382306 0.03893813 -0.15096328 0.9430102 -0.37987578 -0.24675196 0.694041 -0.40203154 0.10740624 0.09866604 0.20252763
Dendrolagus 1.5716722 -0.32699072 0.6152892 -1.4590226 1.3077084 0.87549394 -0.5218888 -0.3607177 -1.394158 -0.59143806 0.33621788 1.6513247 0.23053677 0.44781294 0.6885918 0.5185982 -0.3714861 0.10256204 -0.12327093 1.1842685
Deneb 0.3849063 -0.36722875 0.6721034 -1.2164383 0.024748119 0.19603412 -0.71223736 0.2891019 -0.16948664 0.7169231 0.1450061 0.010727662 0.739339 -0.71389246 0.16084816 0.65137404 -0.80374056 0.19787583 -0.49911723 -0.92664886
Denebola 1.5503031 -0.27807343 0.29799026 -1.062146 -0.0066200774 -0.05270981 -0.535753 0.86655796 -0.30288473 -0.070115276 -0.1610812 0.75038713 0.09865875 -0.32761467 -0.4106589 0.36245376 0.17793722 0.2647321 -0.6366682 0.054202296
Descurainia 2.1173017 -0.64535576 0.577205 -1.6844373 1.4216609 -0.0047213887 -0.30889842 -0.5187303 -1.5954719 -0.5769368 0.22346514 1.5041183 0.25956145 0.5099226 -0.52127194 0.7165932 0.08842008 -0.00645483 0.40904 2.0190995
Despoina 1.8079033 0.008370183 -0.32425898 0.4256982 -0.24408774 0.286746 0.3777633 0.159001 -0.14487247 -0.28132945 -0.34968582 0.22040215 -0.045475278 -0.22655897 -0.29833707 -0.18166786 0.19549526 -0.115472294 0.3722205 0.11371334
Desyrel -0.004839876 0.0066585755 0.0029898195 -0.00910939 0.004597902 0.0063790083 0.0056427717 -0.0057380167 0.0032627906 -0.00076206634 -0.0043818546 0.013952502 -0.004657861 -0.0038645756 0.0008791873 -0.00012159561 0.005029269 0.0043338505 -0.0027464628 -0.0018000478
Devanagari 1.9868311 0.8758709 0.13067378 -0.65516675 0.6374375 0.42818892 -0.306447 0.053232737 0.0364336 0.90325934 0.56883794 0.5716751 0.23439361 -0.647654 -0.5651101 0.5028033 -0.75502414 -0.45835212 -0.60669917 0.5108885
Dhaka -1.8586308 -0.27213967 -0.5053881 -1.7208412 -0.059692293 -0.007519031 1.0208437 0.36388865 0.796974 0.28684732 -0.16754317 -0.68918747 0.33899477 -0.731733 -0.29580367 0.3218884 -1.1309974 -0.37312144 0.358932 -0.69079906
Dicentra 1.6924901 0.04399375 0.67128915 -0.94920594 1.8440899 0.30217266 -0.09024577 0.13852227 -0.62418264 -0.53029203 0.20432524 1.0381107 -0.7379872 -0.14488216 -0.37162364 1.5626317 -0.36564308 0.701376 -0.5387905 0.67893106
Dickens -0.7634521 -0.43160436 -0.13473952 -0.56051105 0.12550081 -0.69292325 -0.1979488 -0.11125296 0.37326574 0.5665229 0.09513835 0.16768628 0.35200128 0.12766153 0.5615174 -0.07645339 0.17156482 -0.19255415 0.09872236 0.3257508
Dickensian 1.154279 -0.19873494 -0.033304285 0.8573001 -0.6124306 0.11563175 0.78109705 -0.17336953 -0.16509917 -0.23456797 -0.5582539 -1.0106089 -0.05779642 -0.4979219 -0.20628382 -0.74492973 -0.3859125 -0.34582657 -0.24745575 0.013677411
Dickinson -2.2671564 -0.636366 -0.2554129 -1.5746425 0.39249486 -0.8141068 -1.0135 0.29442516 1.2200491 0.38329002 0.81646717 -0.26092023 0.43926552 0.7244723 0.457284 -0.09911417 0.67038435 0.3463299 0.33894992 0.5406655
Dieffenbachia -0.16353306 0.2815671 -0.16407894 0.48167792 -0.2513911 -0.6432374 0.13858254 0.20011841 0.40818116 0.5511016 0.13600288 -0.12320234 -0.33769438 0.533285 0.23378411 -0.6832406 -0.5377766 -0.52782 -0.084166825 -0.031515136
Digitaria -0.7806095 -0.051325403 -0.24241576 -0.20349336 -0.56861866 -0.3067119 -0.1890397 -0.07743013 0.09470255 -0.15784712 -0.37358662 -0.18001653 0.043248974 -0.10035254 0.5228258 0.20757993 -0.5996168 0.13794264 -0.1409455 -0.72490907
Dilantin 0.32357877 1.507698 -0.23244777 0.16371013 0.97492766 -2.6050234 0.39899984 -0.43339804 0.4714591 0.90072125 -0.023404477 -0.9763754 0.17568648 -0.319337 -0.5982909 0.77974224 -1.4593108 0.33340162 -0.7758953 1.5504447
Diogenes -0.7171439 -1.1620182 -0.053908244 -0.32813495 0.38538766 -0.28031933 -0.8329631 -0.4296589 0.41632915 1.7407563 0.13061714 -0.340107 0.34031436 -0.15678199 1.2661067 -0.071675315 -0.16960035 0.2879968 -0.79453623 0.57506615
Dionysus -0.6036522 -0.99708474 -0.14337924 -0.07344297 1.5174277 0.5977739 -1.4242417 -0.3729016 0.6149438 1.8305483 -0.23798892 0.24767277 0.5599281 0.41111985 -0.12735648 0.38783833 -0.80146605 -0.28147426 0.07459446 0.42167643
Diophantus 1.2380059 -0.34142694 -0.010781445 -0.3843027 0.49598122 0.23234653 -0.7662673 -0.44786668 0.36205283 1.3291671 0.61038244 -0.29783815 0.3732406 -0.3481878 0.84885746 -0.30687484 0.80868876 -0.08175835 0.5694703 -0.007717618
Diospyros 1.7956424 0.1140034 0.47473615 -1.2193266 1.6322206 0.7506137 -0.24110177 -1.010536 -1.6890771 0.001656181 0.0713505 1.7267038 -0.22311956 0.06844441 0.21803783 0.9413339 -0.38891935 0.13999957 -0.83195275 0.8296855
Diplopoda 1.2477665 -0.25143218 0.4984044 -1.06294 0.75146264 0.023347003 0.2381305 0.0170465 -0.56486624 -0.7249602 0.12613341 0.9266648 0.38616377 0.1973592 -0.013987326 0.45554304 -0.48092714 -0.560864 0.20692936 0.8349172
Dipper 0.12462402 0.010652122 0.019642908 -0.048431613 -0.15164454 -0.106974766 -0.08799751 0.10300744 0.11610298 0.021467337 0.10027513 -0.035593633 0.028356649 0.05613248 -0.06565219 0.044479944 0.04863798 -0.013227799 -0.034279026 -0.03758166
Dippers 0.16312371 -0.73055786 0.5286342 -0.6022971 -0.10202036 -0.003533164 0.30629304 -0.40372416 -0.506969 0.09112626 1.0363309 -0.17974283 1.1499609 -0.45690706 0.771756 0.97314507 0.04132692 -0.77195036 0.12891607 -0.2859239
Dnieper 0.33951807 -0.4765716 -0.00037873434 -1.0059234 0.07222767 1.0893903 0.32192776 0.84879595 0.7230663 0.29891792 -0.2052235 -0.33930355 1.0328074 -1.0580299 0.50775975 0.53178006 -0.910694 -0.11370758 -0.38581395 0.15338506
DoD 0.1178409 0.157574 -0.035687957 -0.23541868 0.026895126 0.11199201 0.0280652 0.17902969 -0.08325857 -0.0443733 -0.09446607 -0.2406544 -0.0030741207 0.020726034 0.06281092 0.105095066 -0.011269907 -0.024742268 -0.14957994 -0.09222818
Dodgson 0.59060043 -0.929214 -0.82489204 -0.4315555 0.3205109 -0.8506229 -1.4002056 -0.28238794 0.7657398 0.43761703 0.68809134 -0.4076739 0.45414245 0.48597455 1.5765561 -0.79741234 0.6423748 0.115031704 -0.12984411 -0.016671168
Dominicus -0.074085504 -0.1964016 -0.17769308 -0.099993855 0.19002976 -0.17743558 -0.010203764 0.31828722 0.06978767 0.14134185 0.42265904 -0.27943447 0.35623166 0.50334126 0.25612792 -0.17220187 -0.5651573 -0.061206643 -0.0061173 0.079865694
Domino -2.4752922 -0.21817371 0.4449707 -1.473072 -0.2584046 -0.69085693 -0.7071608 -0.6144944 -0.20505582 0.26886573 0.8210387 0.3158002 0.8931624 0.28840056 -0.07066758 0.15423685 -0.5598408 0.35567513 0.27940726 -0.09030114
Donkin 0.39381728 -0.6274338 0.04075208 -1.4502835 -0.048503898 -0.46485814 -0.27188125 0.32775822 0.6848445 0.23980711 0.47655797 -0.62555426 0.31016248 -0.20776562 0.78266954 0.11252443 0.3034994 0.34861127 -0.4176145 0.175746
Doomsday 2.6660757 0.2667614 -0.40473545 -0.28936705 -0.26349232 0.32735276 -1.2803086 0.5883613 -1.3994422 0.7314582 0.51704204 -0.86491966 1.2974317 0.49799722 0.7797036 0.619227 -0.8125038 0.86252457 0.0643772 0.50175184
Douglas -3.183374 -0.8157073 -0.29292935 -2.2025485 0.52799124 -0.39219257 -0.5478458 0.5869551 0.90743554 0.00126521 0.99576133 -0.00096898794 0.1697467 0.6348465 0.39391834 0.07828026 0.41679582 -0.016096976 0.08088989 0.8782571
Dowding 0.15556511 0.1405468 0.017778983 -0.06369958 -0.27324447 0.57674384 0.01370274 -0.089841984 0.07062009 0.08955867 0.0335185 -0.12379074 0.023004219 0.46677673 0.17157818 0.33605406 -0.14336401 0.020257737 -0.27537513 0.029520389
Dowdy -0.2376794 -0.077702604 0.09381243 -0.21732546 0.24553192 -0.4654334 -0.120163195 0.16998371 -0.010753891 -0.13222179 -0.09340733 0.20098509 -0.019557593 -0.36252892 -0.21650776 -0.27893266 0.1170153 -0.113206215 0.16373587 -0.026402248
Draco 0.06687114 -0.04517129 -0.010615549 0.22517145 0.06403062 -0.0055551366 -0.073738314 0.07152032 -0.08945398 -0.105851494 0.11319121 0.09448791 -0.11651925 -0.07159353 0.047257353 0.11318621 -0.031477258 0.14790733 0.10123249 -0.012419718
Dresden -1.9303218 -0.9412268 0.069805846 -1.7982036 -0.04615441 0.16969281 -0.48519972 -0.004972946 1.1792142 0.6321978 0.5412733 -0.819905 0.68064785 -0.43884993 0.08867822 -0.20300564 -0.82441396 0.3959811 0.08963744 -0.17042409
Druse 0.55230665 -1.0578195 -0.16881795 -0.92847115 0.41208175 0.74671274 -0.3750182 -0.32730517 0.15668198 0.76257414 0.6299877 0.14002074 0.38765126 0.5522479 0.82920915 0.18034652 -0.5214877 -0.21681635 -0.3006938 -0.5111609
Dryopteris 1.9721903 -0.08991381 0.45157838 -1.4645698 1.3492728 1.0253364 -0.37754685 -0.5318861 -1.344491 -0.88392496 0.620314 1.5550498 -0.46639374 0.4306077 0.27256876 0.78153825 -0.028964981 -0.4984528 -0.5084174 1.6474482
Dumuzi 1.494757 -0.7526324 0.051087968 0.0409187 0.94428116 -0.10430712 -0.25389764 -0.06060802 -0.16395187 1.41478 -0.765664 0.49952373 0.5660449 0.5684947 0.2612925 -0.3649396 0.38494384 -0.110196576 0.35893342 0.08857167
Dunkard 0.85955745 -0.44121388 0.20564593 -1.0186229 0.3197698 0.58978003 0.76033664 0.84369797 -0.4987098 0.17197368 0.33426666 -0.47159496 1.1171334 0.53682154 0.7143127 0.3809361 0.64173687 -0.21415108 0.22546335 0.2314569
Durabolin 0.36549568 -1.0667698 0.08646481 -0.5597266 -0.56784564 0.25884134 0.0011324247 -0.38737634 0.2623658 0.36738834 0.46786624 0.5467537 0.28411025 -0.15508446 0.04859213 0.014936808 -0.49529517 -0.1635001 0.19200423 0.4232245
Durant -1.8651482 -1.2023689 -0.21116811 -1.3900497 -0.0679538 -0.7908971 -0.39944142 0.7389025 0.1952871 -0.02613391 1.0083827 -0.06534649 0.5773607 0.5372762 -0.048620235 1.1343945 0.5035051 -0.35738268 -0.2039666 0.38272858
Dylan -2.8881783 -1.6449466 -0.027899595 -0.40944868 0.58483315 -1.2779999 -1.6022279 0.068434924 0.7765509 -0.40142265 0.9826669 -0.1055717 0.68448174 0.3377302 -0.14735045 -0.13711499 0.39972824 0.42006275 0.4517812 0.21379173
E.P.A. 0.08644773 0.07220247 -0.7028216 -1.1147821 -0.7376609 -0.104224205 1.0957779 0.2364624 -0.16100205 -0.1648925 0.6269071 -0.35724407 0.35452256 0.36491695 0.658163 -0.119427696 -0.40108377 1.0553151 -0.06927598 0.15230952
ED -2.3933694 1.3136791 -0.62112474 -0.7206461 0.045854297 -1.7060074 -0.32061353 -0.0009239961 0.82291687 0.17823201 -0.35121432 0.20564416 -0.2138797 -0.21565752 -0.3296418 0.5913578 -0.25196004 0.18259344 -0.03714563 0.51589555
EE 0.03622888 0.5575 0.35571867 -1.0418875 0.21965057 -1.1395152 -0.44716656 0.35921055 -0.24552114 0.7841231 1.0207169 0.6100599 0.75822306 -0.76227593 -0.12675025 0.6460831 -0.4809928 -0.13873522 -0.82680243 -0.74219346
ELF 1.4825103 1.083802 0.6672654 0.010377418 0.19661239 -0.46030977 -0.6667833 0.072686955 -0.89187104 0.116427325 0.8493427 -0.7414109 0.48316762 -0.27665865 -0.3098679 0.1450774 -1.1060864 0.43317246 -0.38645947 -0.06565375
ELN 0.32968763 0.02853822 0.14870644 -0.13387513 0.016755652 -0.042194255 -0.08176086 0.014652887 -0.14191543 0.06338316 -0.11315422 -0.047219925 -0.017650379 0.0011820728 -0.067462645 -0.0061490345 -0.11107783 0.016161025 -0.11500721 0.035601135
EL -1.8197167 1.0532229 0.5194955 -1.4893448 -0.8519432 -0.39967918 -1.5233572 0.19192272 0.19803241 0.99215 0.51037705 -0.16814019 0.51739824 -0.24094746 -0.42193305 0.3549943 -0.64686555 -0.26546672 -0.22431545 0.12286317
EMG -1.537991 1.718837 0.40201688 -0.73913425 -0.53137964 -0.8819949 -1.1293199 0.6497443 0.7253999 0.2877401 -0.22234967 -0.31788307 0.02876704 -0.68036616 0.115212984 0.9857006 -0.10571767 0.83556676 -0.65342623 0.12017377
EPROM 2.9377418 0.93495977 -0.03979278 0.0035606553 -0.43919906 -0.5241157 -0.30345413 0.4974736 0.18545985 0.3240219 0.8369848 -0.46583647 0.9316814 0.00915671 0.9348937 0.19906475 -0.44559234 -0.06998794 -0.6108909 -0.9129548
EST 0.61926734 0.22485873 -0.002237259 -1.6690638 0.42820987 -0.7732407 0.022105096 0.14880756 -1.0316539 -0.034570694 0.62760204 0.2956918 0.7553239 0.036732033 -0.034401707 0.40142623 -0.61797464 -0.043850217 -0.3567594 -0.35345834
Eadwig 1.3075478 -0.9132871 -0.06872984 -0.597503 0.23623511 -0.40618622 0.17926177 0.52975214 0.047538247 1.4553868 -0.45858 0.10456309 -0.29608896 0.32580903 0.44007468 0.022814332 0.61084974 -0.06241154 -0.22258951 0.5187435
Eames -1.4462143 -0.9395674 0.46348006 -1.1570735 -0.56793815 -0.390382 -1.1903206 -0.15302524 1.2119917 0.033622492 1.0383679 -0.50471073 -0.14368996 0.7923047 1.358867 -0.16725446 -0.9152041 -0.117102996 0.58572423 0.15567529
Earth -2.1391745 -0.36310527 -0.08268188 -0.30724713 0.2150707 1.0011438 -0.40453783 0.23350365 0.32708722 1.2300782 0.16830838 0.13633044 2.3177333 0.67736006 0.48677605 0.3895027 -0.51373076 1.1063919 0.46460292 -0.31115267
Ecclesiastes -0.806455 -0.8615173 -0.13569705 0.7783463 0.7766436 0.36438245 -0.9655292 -0.7009967 0.5018116 2.3134024 -0.16681863 0.032265116 0.6062833 -0.22264144 0.49892506 1.2461163 1.1669034 -0.09251184 -0.17527165 1.1440051
Edirne 0.45806125 -0.38829237 0.15347348 -1.3140829 0.33641967 0.12554784 0.1307188 0.02684266 0.5198077 0.8558347 0.43234706 -0.5571185 0.27894145 -0.97045505 -0.40477082 1.0084229 -1.3476189 -0.39566055 0.12544952 -0.13719562
Eichmann -0.27399865 -0.6984133 -1.1216087 -0.6056427 -0.081757516 -0.5424184 -0.53198767 0.48776525 0.028974365 1.3179044 0.55690074 -0.330489 0.033982717 0.19855408 1.3048556 -0.6668957 -0.8394346 1.0297611 0.39358428 0.21304959
Eiffel -2.131088 -1.11791 0.96095896 -1.1947935 -0.7290162 0.6112807 -0.7841394 -0.24798739 1.2213739 0.4574718 0.034849726 -0.40389127 0.47003546 -0.6955494 -0.0074895653 -0.40318203 -1.0355462 -0.44433004 0.77369046 -0.33063903
Einsteinian 1.1045517 -0.07819141 -0.5167604 0.81074154 -0.6719945 0.23393242 -1.3236393 -0.49438667 -0.0023523318 0.30910993 0.011740179 -1.1924678 0.3003395 -0.2667168 0.53873634 0.56527364 0.7153787 -0.53354704 0.7094402 -0.5428693
Eisenstaedt 0.7526186 -0.8454654 0.22796385 -1.0429349 -0.0442496 -0.79804075 -0.85591286 0.13809943 0.5487293 0.42879623 0.052993085 -0.072711654 -0.29951727 0.4343617 0.8977081 -0.08740026 -0.69516635 1.0626484 0.74073446 0.1443993
Elbe -0.24767643 -0.67034996 0.30821988 -1.8526134 0.35094097 1.0618187 0.38146853 0.49420196 1.4551358 0.5041079 -0.49482542 -0.36008358 1.0322422 -0.89010173 0.2836588 0.47116053 -0.9460532 -0.37949917 -0.2707489 0.107384175
Elephas 1.350592 0.20355983 0.7073615 -1.1695904 1.2715088 0.48293728 -0.80424726 0.18399392 -0.704635 -0.3456716 -0.32637787 1.3269079 -0.08699827 0.06974873 0.93532485 0.7600862 -0.6780239 -0.44768032 -0.39988256 0.62218827
Energy -3.782207 0.60377306 -0.6711272 -2.4566903 -0.9129978 0.51945376 0.38229802 0.23017086 0.39260933 0.4311787 0.95960814 -0.22581345 1.0668977 0.777285 -0.25973827 1.1447566 0.056007992 0.74428344 0.060432248 -0.17334734
Englishwoman 0.45034316 -1.1728389 -0.3140826 0.3673476 0.59697735 -0.43641075 -0.3788074 0.044228286 0.99905366 0.03219386 0.19265573 -0.2764898 -0.17458284 0.55001384 0.68812954 -0.9503018 -0.4089413 0.37027317 -0.9150234 0.07566631
Enkidu 0.68357915 -1.1129428 0.030412134 0.19687667 0.84153134 0.21574867 -0.39560974 -0.0103750285 0.08783237 1.3276912 -0.7439864 0.053670943 1.3449942 0.5388036 0.77958083 0.5983771 -0.21281283 -0.11345144 -0.25806436 0.4155126
Epicurus 0.4308079 -0.4733784 -0.77994704 0.1444056 0.4495418 0.41649225 -1.2037439 -0.99776113 0.49537975 1.6585636 -0.038769573 -0.07872789 0.77310103 0.5977339 0.9639744 0.78194934 0.58834547 -1.200282 0.09356763 0.25391322
Epilobium 1.5168954 0.36203519 1.006093 -1.3375292 1.9396348 0.35803327 -0.39204353 -0.6043 -1.012125 -0.91492355 0.47410366 1.4488453 0.09611477 0.6687181 -0.887619 0.9728394 -0.2864388 0.6958751 -0.3342182 1.0494359
Epstein -1.7516891 -0.2858385 -1.0333182 -1.2760597 0.88922644 -1.2961261 -0.94000775 0.31470075 0.58605886 -0.19844182 1.0842005 0.13006598 0.06339857 0.23983285 0.8598351 0.40823582 0.29186296 0.6884302 0.514786 -0.3418116
Eragrostis 0.048237182 -0.123231806 -0.23610458 -0.35007936 0.24296325 0.4311352 -0.5350962 -0.09896917 -0.10039162 -0.0011610884 0.032753885 0.14191568 -0.079115674 -0.16204853 -0.5934346 0.18721183 0.052052137 0.34611776 -0.31514484 -0.0030841588
Eranthis 1.895582 -0.31127563 0.51748246 -1.1182504 0.7089474 0.46390465 -0.03220549 -0.22686523 -0.98315513 -0.11122781 0.3425257 1.489069 -0.20453934 0.4931147 -0.06772315 0.60786337 0.0650527 0.8373916 0.06695477 0.74732536
Erato 0.36554903 -0.86871684 0.040936813 -1.385358 -0.15031923 -0.40285817 -0.46197614 -0.08985134 0.9092132 0.5762287 0.38152644 0.119544394 0.00041311342 -0.56291497 -0.3867669 0.29906508 -1.0183351 0.58442277 -0.2939555 0.13430473
Erin -2.7854748 -1.4936492 0.2575079 -1.0191102 0.6510069 -1.561462 -0.8385481 0.0010353428 0.8396076 -0.29397953 0.7914496 0.55317473 0.56152695 0.7139475 0.079841815 0.25220433 0.19044806 -0.0023597195 0.8742891 0.05828484
Eritrean -0.7597473 -0.7933696 -1.1766981 -1.1996304 0.70682824 0.7643329 0.121153116 0.46025184 -0.25041315 0.61336523 0.4456089 -0.39084908 -0.17267989 -0.6899874 -0.3754243 0.7246254 -1.2822253 -0.5088878 -0.2554935 -0.56468064
Erysiphe 1.9576056 1.0336345 0.36420977 -0.9804478 1.0746233 0.64906335 0.7341654 -0.018450461 -0.9377264 -0.66372633 0.7752356 1.2275798 0.2760081 0.9228206 -0.0023575977 0.19413416 0.045544367 -0.6317727 1.0963986 1.1797078
Esaki 1.06999 0.19645981 0.6445908 -0.8315398 0.06418762 -0.51880383 -0.6819822 0.05478126 0.07126853 0.13181746 0.8663869 0.22994655 0.6021756 0.5211917 0.8644868 0.059594575 0.06364944 0.47113827 1.0347066 -0.73037463
Eschrichtius 1.3388925 -0.5642826 0.11670073 -1.4129516 1.2248751 0.63880855 -0.059858482 0.53550303 -1.3778718 -1.4444594 0.28865337 2.201785 0.052499868 0.40746707 0.47112644 0.017703298 -0.06410617 0.28806585 0.5626234 0.86164504
Essen -1.0918963 -0.46514994 0.11023504 -2.1463368 0.029208967 -0.32731962 -0.09922127 -0.27095875 0.99669486 0.4097463 0.30126414 -0.41095194 0.4252386 -0.34951994 -0.05256843 0.4959349 -0.9479291 0.25421047 -0.25861722 -0.008499151
Estonian -1.9377273 -0.4622294 -0.6556074 -1.3537949 -0.009742738 0.66895676 -0.34188613 -0.52468 0.15042101 0.23331776 0.52251583 -0.34855303 -0.32109314 -0.9240683 0.17638724 0.38687658 -0.6722694 0.22160211 -0.7883968 -0.5951976
Etruscan -0.61773294 -0.41315573 0.26732424 -0.87367904 1.0671519 1.8758514 -1.060914 -0.34478542 1.0202872 1.1264397 0.018571297 -0.1756261 -0.46185744 -0.6308966 0.3493573 0.13234428 -0.9436934 -0.092145555 -0.5825552 0.90395516
Eumeces 1.9080352 0.039996527 0.390826 -1.55893 1.0115751 0.4163747 -0.3854787 -0.08822441 -1.336572 -0.5564955 0.37675494 1.2483422 -0.15118682 0.96630347 0.4535169 0.37126067 0.18064328 -0.40285492 0.15831564 1.1596874
Eumenides 1.3178922 -0.5752219 0.0977193 -0.37421477 0.27460018 -0.044312585 -0.44234383 0.22516473 0.4468049 1.0471712 -0.19989873 0.4038066 0.07001153 0.25469333 -0.39228693 0.2908244 -0.43963102 -0.020785227 -0.09988606 0.7222491
Euphorbia 0.83392364 0.5877312 0.918822 -0.97180724 1.910368 0.86827075 -0.04945054 -0.92686254 -1.1221082 -0.37881356 0.8307034 1.1233575 -0.2590897 -0.19378981 0.2836071 0.39261204 -1.0759721 0.5433003 -1.1805016 0.8769875
Eurasiatic 2.0840352 0.16237491 0.05104387 -1.5115869 0.6920218 0.52125615 -0.7274923 0.29797992 -0.7174248 -0.22461678 0.7785768 1.4442385 -0.19656864 0.41207153 0.42794695 -0.009746012 0.16898835 -0.534708 0.62070787 1.2809886
Eurocentrism 2.0909574 -0.37735218 0.43383765 -1.2677103 0.3959049 0.20668311 -0.90162313 -0.098202586 -0.077436455 -0.09865079 0.43426147 -0.4940991 0.34306726 -0.50546193 0.7557449 0.8345451 -0.84162617 -0.111702554 0.6544164 -0.21484298
Europa -2.030494 -0.23027705 0.3162118 -1.8080703 0.011332321 0.36346465 -0.63160515 0.17743473 0.83602166 0.23871873 0.39816338 -0.33918688 0.8757128 -0.6241823 -0.9853389 1.0726659 -0.81609696 0.2567453 -0.43082803 -0.42953286
European -2.3684514 0.40671244 -0.5717423 -0.15746284 -0.400955 0.69776386 0.2954452 0.019436099 -0.0066590565 -0.65010905 0.3609955 0.03242944 -0.8906627 0.24960074 -0.028763164 0.46379265 -0.19633912 0.5067366 -0.06804466 -0.28872728
Europeanization 0.90135735 0.17836429 -1.1257328 -0.3504201 -0.26664072 0.6629068 -0.2188961 -0.48027307 -0.35838452 -0.41898337 0.44911057 -1.156628 -0.1140595 -0.6769192 0.6177351 0.825168 -0.5027893 -0.45894343 0.68289864 -0.77691483
Everest -2.0199292 -0.55765206 0.04524985 -1.7223593 -0.02281712 0.19005479 -0.49846262 0.26485023 0.92503506 0.12323277 -0.404602 -0.27580824 0.65966403 -0.15984058 -0.25931454 0.57873493 -0.36601514 -0.11527485 0.03054136 -0.2524769
Ezekiel -1.6501696 -1.0516491 -0.23256703 -0.102438234 1.2763524 0.5378248 -0.67642766 0.0633812 0.6606758 2.7793717 0.39523843 -0.037109025 0.7349024 -0.32481292 0.46061 0.80759466 0.6260959 0.005021614 0.1702705 0.6810694
Ezo 1.2271487 -0.7865009 0.41541323 -1.5189008 0.86154556 0.7673454 0.2640738 0.16154006 -0.031164203 0.17829667 0.121383525 -0.121090256 -0.16187428 -0.37053728 0.3626659 1.4485296 -1.1588652 0.3372305 0.18178329 0.4794371
FAR -1.8132071 0.29632536 -0.60941344 -0.6005453 -0.9309532 -0.41937995 0.23653373 -0.2999784 -0.49148127 0.020196686 0.2267414 0.6977181 0.5786581 -0.32971364 -0.2299424 0.33473808 0.1399085 -0.37848425 0.08711555 0.4313865
FBI -3.4769418 -0.65547353 -1.6924243 -1.1215773 -0.14244978 -0.77041423 -0.04301919 1.4617451 -0.9384092 -0.33880934 0.7916452 0.17650987 -0.3412282 0.32992214 0.49085328 -1.4392189 -0.6105213 1.1856507 1.2331991 0.62539214
FHA -1.2272848 0.9294763 -0.51664144 -1.1794024 -0.79664487 -0.46458504 1.0807104 -0.18088138 0.30604833 -0.45854515 0.8434588 0.38905767 0.10520971 -0.59700406 -0.25808683 0.24528451 0.26117006 -0.78745824 -0.3177659 0.1896395
FHLMC 2.7018723 0.6680136 -1.2338881 -1.174172 -1.0620046 -0.48316982 -0.2719776 -0.08549578 -1.0878326 0.024363946 1.5103467 0.4407081 0.03466437 0.57718146 -0.33684793 0.15120092 -0.18806373 0.8440529 -0.10270577 -0.17281571
FPS -2.2103214 0.32326803 0.176612 -0.1398771 -1.3395817 -0.3141569 -0.87081623 0.1666838 -0.8720461 -0.4465402 0.0794559 -0.10679053 1.5186507 -0.51380444 -0.8028936 1.0268184 -0.03298958 0.48044187 -1.039977 0.023761911
FRG -0.053503916 0.22244741 -0.5335771 -1.7466933 -0.37405348 -0.1365058 -0.0011444438 0.2595026 -0.14195268 0.19346681 0.45651367 -0.3361242 0.25919157 -0.2709502 0.3499024 0.6734915 -0.9053676 -0.7722792 -0.1953674 -0.6684982
Fabaceae 1.2587551 0.8094996 0.6311806 -1.9424438 2.4705288 1.057297 -0.21524067 -0.8677935 -1.4702755 -0.7076235 1.007446 2.619416 0.07562952 0.631882 0.20929208 0.0907249 -0.3192289 -0.90906787 -0.603294 0.8710757
Fafnir 0.88427275 -0.7028568 0.79947543 -0.2908223 0.025806485 -0.38104883 -0.26036626 0.65759766 -0.18649343 1.4052517 -0.46610093 -0.4645838 0.8090945 0.49797812 0.64304644 0.76445687 -0.026068352 0.4833474 -1.0940902 0.19753608
Fagaceae 0.0059719686 -0.013296994 0.009320209 -0.017402748 -0.00022365498 0.09405822 -0.02540623 0.010236147 0.041198183 -0.0412905 -0.104598336 -0.038455594 0.006208233 0.004945029 0.06829118 -0.04708612 0.0064105717 -0.006699812 -0.03775855 0.046183378
Faisal -1.3874388 -0.9464165 -1.1081014 -1.5260321 0.21738467 -0.51889217 -0.13242587 0.63015664 0.12019889 0.73132974 0.81494796 -0.13045746 0.0037747438 -0.496635 0.24817961 0.4364639 -0.37550566 -0.1919026 0.12003288 -0.45420325
Faisalabad -0.50456786 -0.13942525 -0.38376075 -1.7783628 -0.13044141 -0.21746339 0.48674333 0.45234123 0.5705611 0.78189427 0.349653 -0.6558962 0.5838586 -0.46184438 -0.15364268 0.4023113 -0.6675597 -0.51122844 0.22154297 -0.12558416
Fargo -2.775765 -0.73566717 -0.6025874 -2.2071657 -0.5335981 -0.5352269 0.3507413 0.44974154 0.52666837 -0.14833438 0.531398 0.26281402 -0.03094883 0.15342815 -0.40015617 -0.16287045 0.2085948 -0.26888907 0.5474215 0.20025866
Farrell -2.402998 -1.2848487 -0.4744801 -1.4684823 0.20733383 -1.3241302 -0.9667804 0.5701856 0.5634161 -0.4536011 1.0661643 0.13244697 0.23321757 0.519037 0.1615329 0.31379044 0.40295932 0.18597716 0.15005767 0.18807206
Fatherhood -0.7915741 -0.46145773 -0.8717018 -0.59544814 0.5968264 -0.2908536 -0.72818017 -0.8707506 0.22411788 0.47457415 0.44678017 -0.031276666 0.109140635 0.74556255 0.24232769 1.0308884 0.32283688 -0.800773 0.93104416 -0.29091215
Faulkner -1.9294957 -1.2632138 -0.6090469 -1.4213471 0.43303904 -0.7749904 -1.1121538 0.25638562 0.9447503 0.054613434 0.763223 -0.28049815 0.2063107 0.05068762 0.89984876 -0.065586485 0.43616194 0.37148404 0.30955797 0.6768192
Fauntleroy 2.1637692 0.17112063 -0.06738127 -0.93734586 -0.28868976 0.49173054 0.13257277 0.049018767 0.68006957 -0.20627137 0.7308564 -0.42505005 0.3197049 -0.58553267 0.42966706 0.034417886 -0.70079696 -0.17909087 0.29342583 0.45835775
Fauve 1.0561996 -0.608963 0.415448 -0.8202906 0.022388725 -0.3223862 -1.2094699 -0.39263767 1.0199715 0.024389079 -0.039755724 -0.6179136 -0.1628382 -0.61556846 0.28076684 0.9067154 -0.46014628 0.46648416 -0.7837605 0.13377689
Fayetteville -2.1440248 -0.81710464 -0.19464995 -2.5325663 0.0651967 -0.5735832 0.44367218 0.25730935 1.0532076 -0.3748422 0.04372787 0.24556616 0.31591386 0.12238413 -0.008155013 0.19367824 0.0016476649 -0.75897473 0.5501338 0.15843861
Feb -3.7726848 0.47775105 0.4748326 -1.7138326 0.06735309 -1.0463097 -1.0037756 0.4923519 -0.049724817 0.7363629 0.47565746 -0.48199233 0.72100705 0.21295674 -0.15654218 0.0063463124 -0.23376998 -0.06760323 0.35364524 -0.17235361
Feldene -0.24587385 -0.19456102 0.006633795 -0.20254408 -0.044213973 -0.30636567 0.3571341 -0.10657792 0.04598596 -0.25367013 -0.08717978 0.12103294 0.16485064 -0.45924106 0.3029281 0.19626065 -0.0768179 0.2316882 -0.27795556 0.30804157
Fielding -1.5535666 -1.0739726 -0.8683331 -0.960725 0.14869432 -1.0172074 -1.2969897 0.12188936 0.6785259 -0.008231812 1.034164 0.18061215 0.34884748 0.36770496 1.0102551 0.17474897 0.9853597 0.17086631 -0.10054487 0.3891826
Fillmore -1.8119376 -0.83028054 -0.06413715 -2.0345786 0.24756451 -0.651587 -0.25376487 0.14717028 1.0718635 0.09581542 0.49122402 -0.2964565 0.27730906 -0.030584833 -0.44936132 -0.1114268 -0.31045064 -0.36916995 0.07122726 0.0796803
Finnish -2.1668947 -0.3879165 -0.3268692 -1.5003977 0.2197522 0.4718069 -0.4363884 -0.92167753 0.19500932 -0.33387685 0.38539454 -0.59441996 -0.08605338 -0.63440716 -0.14770609 0.17542244 -0.25179267 0.4666682 -0.71156985 0.117470935
Fish -2.9230812 -0.010727754 1.1293923 -1.9669666 1.1584802 0.22818328 0.5176812 -0.88032943 0.4428482 -0.27821445 0.8364293 0.7351999 1.3443625 -0.21202186 0.97421527 0.9109377 0.37273747 0.32390055 -0.26086137 0.8353333
Fistulina 2.201623 0.47621647 0.65074843 -1.2103387 1.1525877 -0.31779018 0.25484797 -0.6803159 -0.7929481 -0.2485258 0.45113093 1.8783009 0.6042638 0.27544326 -0.19743711 0.092149384 0.7479883 -1.9682789 2.0527577 0.08485446
Fitzgerald -0.0030226065 0.009017604 -0.0062628137 -0.0028351508 0.00025189767 0.0066501754 0.0016816062 -0.0081549175 0.0020424621 -0.0040369034 -0.0012941534 -0.0046517146 -0.0012016463 -0.0032951122 -0.0007318882 -0.0033806602 -0.0001883566 0.0004789577 0.0042473953 -0.003692095
Fletcher -2.360858 -0.8811561 -0.52222323 -1.6929377 0.27178487 -0.98458844 -0.61720616 0.8258616 0.83818257 -0.19317974 0.7116878 0.13671637 0.2266791 0.69754225 0.39789963 0.30136335 0.9123142 0.20213372 -0.026710112 0.52893263
Flinders -1.3451484 -0.8138273 -0.05323623 -2.1349099 0.14044873 0.23025467 -0.18040566 0.1503167 1.3795996 -0.09040387 -0.60006005 -0.1314088 0.51755387 -0.8315255 1.1675873 0.21249881 -0.08244531 -0.22311449 -0.6299596 0.41209072
Flint -2.6587818 -0.8230995 -0.05424902 -2.1248996 0.35782003 -0.25027078 -0.058716424 0.55768234 0.62376857 -0.14985766 0.329546 -0.14448497 0.30001342 0.47037357 0.29199284 0.023586256 0.26808003 0.20902826 0.20062067 0.40715924
Floreal 1.3213149 -0.30347943 0.19488357 -1.1780437 -0.1899068 -0.71824056 -0.13535902 0.16169964 1.0581222 0.04661757 -0.1297948 -0.42483127 0.3621786 -0.0442296 0.46689764 0.13883288 -0.21734542 0.11555163 0.2859739 0.0749099
Florence -2.8392477 -1.465202 0.11322968 -2.0264742 0.8934396 -0.20239186 -0.40104643 -0.21904993 2.0140855 0.3352654 0.4834083 -0.0012608053 0.010665023 0.144004 0.023490584 -0.3570787 -0.3431387 -0.27527723 0.61308265 0.3334546
Florida -4.2542195 -0.53294563 -0.35617796 -2.340571 0.616145 0.0514765 0.85705876 0.12090911 0.3599881 -0.98933935 0.10271594 0.46420288 -0.025000934 0.3630374 0.2565675 0.33035746 0.54172444 -0.1933955 0.21944633 0.37152672
Foeniculum 1.7875756 0.52366424 0.4520892 -0.8265449 1.9906803 0.4958968 0.30648825 -0.9306597 -1.0677289 0.106577635 1.8467366 1.4638338 -0.07478088 0.92101425 -0.8457077 0.5109755 0.3126663 0.27372745 -0.32086042 1.8013803
Fomorian 1.683441 -0.8999841 -0.06931303 -0.3149905 0.48127478 0.10886929 0.34630635 0.15660577 -0.47770154 0.35813272 -0.69230926 0.061433643 -0.061575867 0.34029487 -0.19250104 0.32962614 -0.09346771 0.113086835 -0.18933663 -0.020649819
Fonteyn 0.7426979 -0.98136735 -0.0801091 -1.0161399 0.17748325 -0.64838135 -0.78182757 -0.24321868 1.1082803 0.07841004 0.616181 -0.20511565 0.40445557 0.7085567 0.94176865 0.020150814 -0.2019601 0.30207738 0.17208403 -0.3875452
Ford -0.13857795 0.019240934 -0.04162939 -0.123359345 -0.03556263 0.026635371 0.09853209 0.15013018 0.085481 -0.123998925 0.07647146 0.01194578 -0.0033654654 0.095791735 -0.019244296 0.023735821 -0.051889606 -0.0993829 0.034325443 0.047240824
Forseti 1.246405 -0.9213958 -0.3274168 -0.6747445 -0.17221758 0.26489756 -0.27822357 -0.3289318 -0.07344091 0.8601795 -0.2288489 -0.6459523 0.888505 0.5147076 -0.29339 0.47723833 -0.2220249 0.2871473 -0.5690246 0.3849476
Fortaz 2.3488057 0.19451459 0.095490605 -0.83312964 0.20160852 -0.7058592 0.075910546 -0.34607565 -0.30019122 0.5859124 0.019595142 -0.10114667 -0.3136579 0.10410667 -1.4075246 0.4233979 -0.796946 0.6818487 0.16047567 1.1522304
Francisella 0.07766028 0.102958485 0.04884524 0.021967245 0.08533335 -0.06341628 -0.21413518 -0.08610569 0.051451053 0.023056613 -0.046475008 0.13605179 -0.010592742 -0.07136006 0.02650976 0.013384578 0.031762257 -0.0064229546 0.096540794 -0.0007484216
Freemason 0.69814724 -0.77191275 -1.3097969 -0.94740224 0.6942684 -0.0100987265 -0.47371417 -0.38753876 -0.028381664 1.3809739 0.22887516 -0.74613386 -0.48119256 0.029042196 0.41499886 -0.38377303 -0.6132329 -0.2936728 -0.08567584 0.31038138
Freetown -0.7592003 -0.71999556 -0.22211719 -2.2400723 -0.016919868 0.14771527 0.8339353 0.72542346 0.9096903 0.25524634 -0.12148052 -0.5007695 0.41935998 -0.75626904 0.19895707 0.18734972 -1.0265338 -0.18010768 -0.22714336 -0.44163552
Freud -2.0908992 -0.53126794 -0.9930634 0.4341288 0.5575018 -0.48622397 -1.8465394 -0.7183454 0.95340097 0.6999479 0.7892341 -0.7770848 -0.32239923 0.44742224 2.0693672 0.21966562 -0.03270484 -0.4176332 0.7756327 0.8325757
Freudian -0.10904317 -0.42057836 -1.112208 0.7385324 -0.032576215 -0.39950892 -1.3123811 -0.7154662 0.19051176 -0.9347507 0.9321027 -1.0756934 -0.10432194 -0.8975335 1.0216267 0.25660113 0.016244372 -0.41181508 1.3122331 0.959639
Frick -1.0559452 -0.7017557 -0.34249744 -1.700526 0.082355455 -0.67759764 -0.4027538 -0.025312828 0.9210274 0.46993956 0.6486174 -0.62007076 0.14708795 0.35912466 0.9408963 -0.24930502 0.18316256 0.3312606 0.39877 0.08017059
Frisbee 0.054912243 -0.9413365 0.19569972 -0.60012996 0.7077326 -0.404662 0.20872247 -0.44541812 0.36759531 -0.5044607 0.1382775 -0.22325496 0.7034492 0.74090785 0.4931667 0.93172175 0.30070603 -0.49346462 0.07921591 -0.08962737
Fructidor 1.3013606 0.062195122 0.35308433 -1.0094026 0.090534516 0.40674517 0.52402735 0.43268976 -0.5716256 0.687933 1.0488304 0.6592415 -0.47708774 0.29816487 -0.8641613 -0.22758551 0.1123408 0.67892706 0.29203153 -0.48788247
Frunze 1.5577123 -0.46406698 -0.21936499 -1.8067577 0.06743636 -0.036277585 0.24835233 0.5265554 0.31345853 0.02205254 -0.08715283 -0.08620364 -0.040991113 0.103964075 0.4109253 0.17751905 -0.9278744 0.17768556 -0.19043958 -0.13771318
Gansu -0.33876792 -0.018704187 0.031605806 -1.5081105 0.65234166 0.86700815 0.8079431 0.44229403 0.30582562 0.16637394 -0.31986192 -0.5691772 0.44068038 -0.6392694 0.36415064 0.38303375 -0.9595988 0.20778345 0.017368972 -0.16509596
Gdansk -1.0458986 -0.75584775 -0.095515564 -1.971466 -0.06622927 0.22260273 0.057223175 -0.065479144 1.2711508 0.4908402 -0.18384796 -0.87346053 0.8757876 -0.7752924 -0.24701868 0.48897162 -1.032668 -0.21713363 -0.6545024 -0.4302271
Geisel -0.36024335 -1.030552 -0.18085395 -1.1723017 0.61289614 -1.047627 -0.77837116 -0.19737388 0.5165901 0.1718889 0.5257381 0.06441143 -0.14307852 0.10082053 1.7335997 -0.187347 -0.079640545 0.92427075 0.308389 -0.5283474
Genesis -2.9395056 -0.23020387 -0.30718353 -0.57511693 0.24845858 0.69745404 -1.6054751 -0.4211942 0.3709897 1.7706543 0.29194093 0.33356726 0.95811206 0.43710798 -0.10041845 1.029616 0.14098886 -0.14672323 -0.029343918 0.46062765
Genovese -0.18072523 -0.8884175 -0.07018851 -1.1940434 1.0664979 -0.21542735 -0.2312587 -0.036890347 -0.038676623 -0.050937347 1.2694936 -0.03627401 -0.22243498 -0.10715759 0.44927675 -0.20099543 -0.362276 0.008596386 0.10593583 0.22119172
Gent -1.1017619 -1.0880959 0.21400318 -1.5544089 -0.28713512 -0.92978704 -0.570964 -0.016073948 1.1754646 0.34989336 0.1880462 -0.3121583 -0.015777012 -0.122333914 0.2621889 0.11047415 -0.5736641 0.054363728 -0.890536 -0.15857296
Geomys 1.7390792 -0.32728973 0.7471931 -1.538102 0.63522935 0.2622965 -0.28462675 0.086531445 -1.2706245 -1.0269287 -0.44911823 1.7108326 -0.1397236 0.81669 0.033444524 0.8570701 0.021620985 0.21947263 0.22109948 0.33774847
Gibbon -1.0198116 -1.0761986 -0.35141733 -1.1588044 0.59051055 -0.06546527 -0.9919678 0.28887844 0.7007896 0.4747165 0.15319876 0.14024197 0.3928884 -0.3919483 1.3401022 0.3832231 -0.08949527 -0.13890715 -0.74376374 0.5733372
Gulo 1.2592903 -0.46110627 0.42634153 -1.1682482 0.6182703 -0.19594587 -0.39047515 -0.32364014 -1.1041992 0.014267111 -0.3960516 0.13435574 0.47655705 0.666033 0.7133643 0.27356112 -0.24559824 -0.4397978 -0.7233014 0.40606555
Gurkha 0.75226724 -0.40386933 -0.21810243 -1.0248022 0.40787807 -0.22283882 -0.52375156 -0.10112652 0.079053655 0.6930038 0.19564158 -0.25631273 -0.2009765 -0.58675855 -0.23100638 0.4938869 -0.9177917 0.38965818 -0.6716458 -0.0779563
Guthrie -2.0578837 -1.0319921 -0.50437653 -1.7128067 0.6362948 -0.6193927 -0.8566877 0.2938812 1.1307466 -0.19038476 0.8359517 0.023056412 0.45676023 0.12014605 0.11883332 0.1519644 0.5733804 0.32211536 0.11687806 0.23816645
Gwyn -0.9729609 -1.2954917 -0.11703291 -1.0715773 0.28065202 -0.6411565 -0.8511741 0.17994976 1.0425956 0.66316026 0.36521766 -0.0688234 0.67298764 0.31853187 0.34427947 -0.07385031 0.21308245 -0.14184695 -0.46713442 0.069180734
Gypaetus 2.3444228 -0.42147338 0.15984523 -0.79155594 0.84302574 0.05979874 0.05844299 -0.57861966 -1.0571351 -0.08758 -0.66350174 1.1669443 -0.303449 -0.576654 -0.22620124 0.1672741 0.00064620073 0.61789584 -0.1669325 0.33828864
H.I. 0.026883125 0.083139434 0.085885905 -0.057209652 -0.062181316 0.08382785 -0.24962212 -0.024470733 -0.015787391 0.08174289 0.04772968 -0.29124868 -0.09624618 -0.011940336 0.19676879 0.045222342 0.08323903 0.029757569 -0.033330776 -0.039740987
HDL -1.0500824 2.4759629 -0.10548838 0.32680523 0.101718366 -0.98330015 -0.25809833 -0.6488999 0.4962005 0.7763602 0.29417175 -0.42178306 1.0191587 -0.20494805 -0.0063243676 0.19950816 -0.47978738 -0.6287146 -1.2990204 0.12555408
HTTP -0.6783656 1.1065339 0.69036484 -0.88713276 -1.5742854 -0.7104704 -0.60631835 -0.6303061 -0.687984 0.03994482 0.6154198 1.20717 1.5588429 -1.0082618 0.6102436 -0.80763996 -0.8052702 1.7447087 -0.51275873 0.8046732
HUJI 1.2003866 -0.08382742 0.09902008 -1.053272 -0.05945684 -0.16895972 -0.12785427 0.10852285 -0.26716354 0.6843933 0.5118876 0.19322121 0.019604048 0.006670241 -0.19016124 0.6123245 -0.5982557 0.43943667 1.1738191 -0.64447767
