8157 10
10-membered 1.8858935 0.70997584 0.5384606 -0.020518888 -0.2477104 0.026667368 -0.67224455 0.043839417 -0.2833503 0.06926382
American -2.131343 -0.653135 -1.1825982 -0.49266747 0.038414665 -0.18234496 0.06328477 0.113701925 -0.07682002 -0.78970164
Anaprox 0.016331779 -0.46486777 0.09995945 -0.2521701 -0.19740619 0.14561658 -0.1517109 0.028995853 0.013928701 0.546289
Aqua-Lung 1.8167557 0.12604026 -0.57707953 -0.35514215 -0.06867311 0.091214426 -0.2293224 0.49117425 -0.23432046 0.9585274
Aquitania 0.52189803 -0.9706981 0.24336122 -1.7755665 0.16142112 0.5275919 0.24132729 0.06948779 0.5659032 0.6213864
Arafat -1.5564928 -1.0699264 -1.6341486 -0.21953109 0.5699997 -0.097951986 0.57048136 1.3228344 0.110656865 1.5193563
BA -2.6709907 0.06464981 -0.2583501 -1.895181 -0.3182835 -1.0118308 -0.3849938 -0.063616045 0.94960964 0.18667044
Bahrein 0.8590492 -0.31302148 -0.0190491 -1.1761506 0.2499411 -0.1097027 0.45473772 0.1240492 -0.090555176 0.13670112
Bath -2.9075882 -0.67859346 1.0105381 -1.7498584 -0.15236267 -0.46741635 0.29455954 -0.9757003 2.071596 0.88215303
Bavaria -1.9994599 -0.93828636 0.04495498 -1.7224553 0.6870436 0.90267974 0.022043066 -0.02776361 0.9645651 0.82846904
Baycol 0.77931446 0.84501654 -0.46038598 -0.930468 0.55479616 -1.1399853 0.8985984 -0.30657804 0.17519186 0.2330487
Bayesian -0.99050903 1.7836658 -1.1822891 -0.38616848 -0.97110116 0.2832701 -1.6378684 -0.87676704 -0.24997036 -0.36600018
Baykal 1.150312 -0.40181124 -0.15007819 -1.3008426 -0.014554267 0.073662356 0.20023628 0.6245943 0.42899066 0.0697951
Beaumont -2.4063864 -0.8865102 -0.0007085449 -2.3123252 0.3168354 -1.1306441 0.13795069 0.13116539 1.5131484 0.2870598
Beethoven -1.6196026 -0.8712892 0.099307515 -0.87345093 0.46146035 -0.16380927 -1.1763564 0.040412076 1.4148978 1.1002591
Begoniaceae 1.8779216 -0.038071826 0.5686812 -1.6683792 0.62411284 0.4810816 -0.1272709 -0.32141766 -0.50091136 -0.71798867
Belgian -1.1281899 -0.43160495 0.58678764 -0.11611372 -0.31048572 -0.43129364 0.6143867 -0.22154628 0.21198697 -0.273558
Bell -3.387466 -0.51186043 0.024272246 -1.6422244 0.080005236 -0.63428843 -1.042061 0.40923724 0.5509576 0.38848573
Bemisia 1.4247475 0.40959868 0.60064846 -0.88847 0.98088527 0.27226463 -0.13229696 -0.5186437 -1.4561607 -0.71139795
Benadryl -1.0679168 0.9935244 0.5974031 0.4288485 0.9374715 -2.5408113 1.0161788 -0.39742896 0.21290034 0.59115833
Berkshire -2.5753746 -0.49070904 0.07803051 -2.1660628 0.11829404 -0.27582386 0.6443461 -0.37101603 0.86903965 -0.13273558
Bernstein -2.3089416 -0.7010007 -1.0849541 -1.2815875 0.35337391 -0.9879189 -1.3360511 0.04932143 1.2054259 -0.13719577
Bertillon 1.2937841 -0.08711429 -0.2686482 -0.550816 0.25559852 -0.6182549 -0.14190635 -0.5523629 0.3681496 0.38589805
Betelgeuse 0.3850482 0.21821056 0.6848142 -0.5420782 0.38427672 0.2525111 -0.8074773 1.1030442 -0.0525207 0.4309837
Bethe 0.42710242 -0.0940573 -0.29555985 -0.79436433 -0.30517578 0.017866867 -1.2942909 -0.15318213 0.6087813 0.8240131
Bidens 0.6547773 -0.49442133 0.1303001 -1.0125026 1.0869174 -0.017971193 0.50480705 -0.28871435 -0.72945446 -0.24839507
Bihar -2.1412244 -0.021481276 -1.1183066 -1.0619028 0.634267 0.7861085 0.5345938 0.50300753 0.03470883 0.87132066
Blackpool -2.060881 -1.0109648 0.25723216 -1.7954848 -0.09633471 -0.56977135 -0.14089534 0.2240326 1.1999829 -0.31941676
Blarina 1.9270226 -0.20847343 0.3619548 -1.2195325 0.85826427 0.21257153 -0.30424035 -0.09814898 -1.3908352 -1.5081729
Bluebeard 0.42116794 -1.3185798 0.32355848 -0.6853596 0.4200284 -0.32538867 -0.9468543 -0.0023240522 0.37404808 0.71910596
Bluegrass -1.9969507 -0.8312079 0.44888616 -2.1068513 0.3804182 -0.23186351 -0.269094 -0.41452155 1.0249463 -0.6030176
Boche 1.8367544 -0.13882782 -0.18585137 0.17911248 -0.4054442 -0.4920411 0.2755418 0.36305225 0.4772254 0.36687946
Bodhisattva -0.14712767 -0.67743677 -0.520592 0.17553507 0.82337195 0.59177595 -1.0743431 -0.097796984 1.0318587 1.7418796
Bodoni 0.9798771 0.013348545 0.37408808 -1.8482996 0.50775576 0.0419358 -0.558023 -0.21610907 0.6861674 1.079318
Boell -0.279036 0.24800123 -0.0008518582 -0.21223119 -0.011883523 0.015559764 0.041562676 -0.026992379 -0.12157322 0.020543281
Boltonia 2.304796 -0.32715276 -0.40329954 -1.4611032 0.26651785 -0.03413598 0.3892952 -0.27290723 -0.7778913 -0.51110876
Boltzmann 0.096766986 0.6741707 -0.57718533 -0.31045857 -0.40613264 0.0151489945 -1.5505867 -0.016642366 0.2031863 0.8522716
Bombax 1.566529 -0.1715855 0.5030308 -1.0779167 0.82996076 0.31383824 -0.41073224 -0.6286243 -1.0043597 -0.36204404
Bontemps 0.8450825 -1.2619864 -0.10382689 -1.0414355 0.4775182 -0.6388492 -0.28052625 0.28401253 0.72571874 0.3076868
Borago 1.3237023 0.27592987 0.61979836 -1.3531082 1.1548231 0.35813412 0.43196392 -0.0914087 -0.8416202 0.0104265055
Boswellia 0.69969296 1.1446699 0.70362467 -0.7565964 2.0058026 0.798349 0.23780277 0.31233883 -0.7290365 0.22320516
Bourgogne -0.43937683 -0.3077262 0.8419716 -1.2283894 0.59032613 -0.58680296 -0.07113952 -0.6975071 1.024254 0.3806656
Bowditch -0.27646136 -0.89381355 -0.15127334 -1.29263 -0.12697998 -0.5911777 -0.67935526 0.5178463 1.0123153 0.072818056
Boyne -0.66766477 -0.97113013 0.31264892 -1.9507442 0.2182159 0.15384378 0.44364017 0.117170244 1.5721182 0.45309934
Bradbury -1.8925037 -0.8906666 -0.44822884 -1.3298755 0.3322447 -0.42028558 -1.2310627 -0.13165864 1.1205312 0.021876251
Braga -1.2316684 -0.9452671 -0.26060733 -1.686302 0.15911195 -0.47578338 -0.49286613 0.36022857 1.2145573 0.3744901
Braque 0.18631878 -0.43754306 -0.01789662 -0.8896495 0.14114639 0.0018012032 -0.9368283 -0.7681107 1.3176941 0.018501513
Brasil 0.623437 -0.16266537 0.3462173 -0.19276562 -0.37316248 -0.6210953 -0.5395176 -0.31150025 0.053145703 0.2984056
Brassica 0.19467969 1.2899655 0.46721205 -1.1410862 2.0641012 0.8547045 0.00518458 -0.86134255 -1.1287841 -0.3710061
Brazil -1.0124186 0.16259418 -0.3113054 0.113931365 0.3443235 0.50180215 0.5071001 0.2855676 -0.07393778 -0.28050157
Brazos -1.0167017 -0.459781 0.1398607 -2.000314 0.018701104 0.054217506 0.75279915 0.4102423 0.90778744 0.35944775
Bremen -1.8735904 -0.7604851 0.010939497 -2.2154534 0.0027985906 -0.18537016 -0.09987165 0.56339264 0.9491 0.26534933
Bremerhaven -0.78145176 -0.14004579 0.3749463 -1.4293818 -0.22739874 -0.18664776 0.45705873 0.4370381 0.903065 0.028473616
Brisbane -2.4798708 -0.9913068 0.007119073 -2.3707712 -0.35127643 -0.25782746 0.44640443 -0.23045176 1.490859 -0.47900185
Bruckner -0.4297542 -0.73473835 -0.53086376 -0.8984686 0.36293185 -0.2715797 -1.5098196 0.09362387 1.5867822 0.26225162
Brumaire 1.2436621 -0.88864696 -0.2174556 -1.1958625 -0.06580313 -0.34458667 -0.08937737 -0.0071410607 0.10667794 1.1369932
Bruno -2.6546555 -1.2836194 0.10836714 -1.2982757 0.31289354 -1.0571362 -1.1460332 0.2202443 0.45417282 -0.063541606
Bultmann 0.5262474 -0.4989899 -1.1496094 0.030055415 0.20922884 -0.16585337 -1.3992908 -0.19260642 0.32538515 1.23615
Bunche -0.36237994 -0.622793 -0.32427073 -0.9135304 -0.13546468 -0.66086596 -0.62834 0.48191503 0.57705355 0.21723492
Burbage -0.34702238 -0.9702142 -0.04484155 -1.0613786 0.39322734 -0.42128754 -0.6278753 0.81263155 0.7992884 0.5382779
Burbank -0.26319426 0.057087038 0.024228595 0.015666032 -0.004904992 0.07080298 0.14009255 -0.1533568 -0.008224123 0.0048574484
Burger -2.3190844 -1.3565866 0.569935 -1.7047037 0.36390984 -1.1849481 0.28332567 -0.9928352 -0.04761896 0.1705432
Bushman -0.33112842 0.19488011 -0.37159175 -0.41425413 0.7626848 0.008659594 -0.46199915 -0.5458171 0.5608782 0.052954633
Butler -2.7874439 -1.4744248 -0.49644703 -1.9625186 0.25809544 -0.69063693 -0.46765685 0.36108977 0.9393223 0.016225891
CDC -0.97193706 1.2815143 -0.6631761 -0.98677135 0.7831148 -0.85960674 0.57659394 -0.15592897 0.18542379 -0.8144452
CD -1.0608736 -1.0980535 0.99327224 -0.8975094 0.5678514 -0.6470375 -1.554643 -0.44031662 1.324459 -0.39916873
CFO -2.1270702 -0.33973965 -1.4657509 -2.2719715 -0.59942764 -0.92334414 0.14245798 0.30511814 0.13628799 -0.108124
CMBR 1.0415995 0.47371164 0.3817342 -0.6301607 -0.3517261 0.68581635 -0.2240838 0.06633317 -0.3179092 -0.15810263
CST 0.24446073 1.0701947 0.13465387 -1.1650939 0.0046353713 -0.6717622 -0.06773039 0.5657061 -0.5419526 0.39548993
C -0.8851099 0.4993923 -0.23068176 -1.6447939 0.34139517 -1.2976756 -0.6286595 -0.029347895 0.5761234 0.10523269
Ca -1.1304866 -1.608358 -0.7948228 -0.58209157 0.8788817 -1.4954153 -0.69417727 -0.48963788 0.033196658 -0.62895113
Cadra 1.4754355 -0.17820302 0.69902897 -1.2556003 0.66275245 -0.06282759 -0.027935207 -0.16116522 -0.5862468 -0.3979537
Caesalpinia 0.9734556 0.12308586 0.6382412 -1.5113935 1.690664 0.7054137 -0.42461693 -0.1970986 -1.8372493 -0.73377
Calamintha 2.3032668 -0.37380445 0.20015697 -1.5436931 1.0411339 0.26491362 -0.13322571 -0.71431553 -0.5259038 -0.6850008
Caledonia -1.7021667 -0.5024364 -0.14854588 -2.4560611 0.70804924 0.5507314 0.760874 0.20970668 0.44257852 0.042255376
Cali -2.4120784 -1.2950813 0.76356775 -1.2745675 0.580888 -0.65768814 0.15895429 -0.15463527 -0.2610293 -0.6138217
Caligula -0.5150589 -1.3027405 -0.48353267 -0.022256527 0.7874025 -0.50738597 -0.92761487 0.45880902 0.13125908 1.1843022
Calliphoridae 2.1863544 0.06490674 0.44653544 -1.2696342 1.3540345 0.4084144 0.060174342 -0.020917078 -1.594772 -0.71878135
Caloosahatchee 0.51295805 -0.34549284 0.5679722 -1.974276 0.639463 1.0039743 1.0465808 0.47279045 1.0239987 -0.63201475
Cambria -1.1854848 -0.72727054 0.57466024 -1.6679453 -0.2411781 -0.50861067 -0.021710394 0.16876616 0.85848427 0.13578004
Cambrian 0.5454055 0.8598896 0.38357207 -0.29075876 0.3333157 0.9187369 -0.36223528 0.41878012 0.40186244 -0.71199334
Cambridge -3.121379 -0.59433264 -0.53047776 -2.4225142 0.2608539 -0.3050457 -0.5866241 -0.6887825 1.6367612 0.41236082
Camlan 1.724227 -0.6128051 0.13638149 -0.8627568 0.524521 0.09129756 -0.15596673 -0.1900011 -0.16925871 0.1430887
Campeche -0.22364825 -0.22929779 0.47026688 -1.9054658 0.25858676 0.674388 0.57354146 -0.13242796 0.71812254 -0.09793201
Canaan -1.7287158 -0.9964473 -0.5271446 -1.3119724 0.7150695 0.8648483 0.14541249 0.26227066 1.1441653 1.6532891
Canaanite 0.16296844 -0.74354756 -0.7135694 0.19297323 1.3055097 1.3580709 -0.5944367 0.035062987 -0.2440261 2.167921
Canaries -0.8753772 -0.98227143 0.61095154 -1.4322602 0.607287 0.48128012 0.6780208 -0.014566733 0.9027503 -0.37804466
Cancer -2.423504 1.0388855 -0.42609116 -1.487623 1.978188 -1.4348062 -0.42759246 -0.15158406 1.7929105 -0.012001783
Canetti 0.60063094 -0.8146196 -0.17181456 -1.2488571 0.10536554 -0.34730104 -0.9374882 -0.061752025 0.7661626 0.4936385
Capek 0.4413477 -0.8256404 -0.07795271 -0.9128017 0.1496979 -0.71444875 -0.93034637 -0.15312628 0.46146455 0.37427247
Capone -1.4245759 -1.2608463 -0.111378215 -0.9683373 0.51659906 -0.91893315 -0.19425267 0.51415527 -0.23865822 0.1916872
Capra -0.02475973 -0.08096071 -0.03151658 -0.11059531 0.0051291524 -0.12035185 0.13576144 0.047467344 0.08227569 -0.10755049
Capricornus 0.8036799 -0.69763124 0.36958382 -0.5723888 0.77669936 0.8346959 -0.5000717 0.33195847 -0.07559479 0.7723519
Captain_Bob 2.0900464 -0.37889656 0.79429865 -0.59344876 -0.7456913 0.7566625 -0.7461915 -0.30702442 0.21205862 0.26497778
Carafate 1.3357368 -0.3721621 0.7685909 -0.5571145 -0.12046806 -0.5400118 0.5618293 0.41326115 0.027442275 0.8032523
Carangidae 2.2625086 -0.12492394 0.51921415 -1.5530324 0.73900247 0.051259752 -0.27062312 -1.0341439 -1.1032051 -0.98348194
Carcharias 0.5438846 -0.17423223 0.65439683 -0.9324366 0.34575567 0.17100714 -0.63356 0.13143438 -1.3847567 -0.29324588
Cardura -0.21815017 -0.17571008 0.22497642 -0.15852462 -0.32442155 -0.79605633 0.17617069 0.16501293 0.16121106 0.41204053
Carlsbad -2.0519967 -0.5016483 0.25403222 -2.2546577 0.025670758 -0.267308 0.48199108 -0.30636737 0.9279185 -0.47828203
Carnot 0.03423684 0.196309 -0.7083309 -1.1312362 -0.5395427 -0.41396242 -0.41660136 0.21478765 0.67720616 1.2017033
Carpinus 1.8764199 -0.119279355 0.81268567 -1.2757496 0.91710895 0.58468163 -0.32014886 -0.524258 -0.6228473 -1.0151017
Carpodacus 1.7012792 -0.06639655 0.4380693 -1.5901064 1.2622783 0.3102432 -0.43291438 -0.37425932 -0.86753917 -0.3946479
Carter -3.3428214 -1.3972332 -0.6865249 -1.315925 0.6536765 -1.0623093 -0.6846798 1.01709 0.50692964 -0.025849367
Cartesian -0.6037525 1.2377386 -0.7768027 -0.5488734 -0.839574 0.8514324 -1.8805025 -0.29674855 0.39552352 0.35792878
Cartwright 0.15007778 0.02744852 -0.027712224 -0.13513021 -0.038941592 0.090154015 -0.041684914 -0.035547838 0.082512714 -0.1606647
Caruso -1.6426862 -1.0105104 0.024502175 -1.4401684 0.28073722 -0.9290816 -1.0171254 0.11639048 0.6759913 -0.39606798
Carya 1.3796585 0.013961349 0.969645 -1.6932784 1.5345479 0.7683121 -0.12393728 -0.8026808 -0.97962886 -0.2917056
Caryophyllaceae -0.3080497 -0.049543437 0.06101317 -0.085454084 0.0018665392 0.0024685333 0.08903641 0.0092672715 -0.1147802 -0.05587495
Casablanca -1.9191127 -0.9931145 0.38186494 -1.9527222 0.1708527 0.09814415 -0.37459445 -0.05898488 0.88662666 0.11820745
Cassiope 2.0335422 -0.37083122 0.32546568 -1.1721461 0.6490474 0.38305292 0.06554915 -0.48032463 -0.7620043 0.019880466
Castile -0.2508965 0.0474995 -0.10428925 0.32301268 0.32690832 0.15864664 0.13656043 -0.19512689 0.124007635 0.82123977
Castilla -0.05058199 0.16614555 0.0029466122 -0.407732 -0.31367937 -0.17461962 -0.19849783 0.120575204 -0.0680589 -0.81141096
Castries 0.16522051 -0.78475827 0.37295783 -1.6192212 -0.13195446 -0.09449796 0.56437224 0.11649792 0.8888253 0.3357303
Castro -2.413925 -1.342554 -0.9348801 -1.1617299 0.6307111 -0.49827033 -0.3650507 1.0441118 0.2061492 0.005860737
Casuarius 1.9651977 -0.5712155 0.07003765 -1.1676227 0.8401658 1.0790367 -0.54680306 -0.06807541 -0.45943022 -0.6911975
Catapres 0.8565641 -0.54857177 0.38351578 -0.28639752 -0.1673282 -0.7369564 -0.10861142 0.115945786 0.014217657 0.7708885
Catha 1.273716 -0.08271805 0.4869982 -0.9383303 1.432616 0.36638957 0.1418014 -0.12416379 -0.60602814 -0.21259391
Catharanthus 2.0737252 0.9111017 0.7925293 -1.0317622 1.708542 0.22710428 -0.43596286 -0.1149217 -1.0206804 -0.7238752
Cather -0.75578064 -1.1291474 -0.10881519 -0.9657147 0.53413683 0.041438565 -0.8454583 0.06945658 1.6846889 0.23574512
Catholic -0.8773587 -0.26044765 -0.3808605 -0.6124515 -0.04017683 -0.061122704 0.0112648355 0.06430978 0.4910386 0.15613665
Catholicism 0.8432882 0.2736378 -0.219454 0.66798747 0.04769162 0.45359284 -0.35949567 -0.41314435 -0.12812606 0.03366462
Catholicos 0.9549802 -0.47327155 -0.8788538 -1.2290555 0.2786014 -0.3270544 -0.7413449 0.6599534 0.8170507 2.149033
Catskills -0.39100155 0.14955488 -0.041315727 -0.08738822 0.10554589 0.060003426 -0.016996212 -0.030444779 -0.012244953 -0.029156769
Cattell 0.03040158 -0.010414493 -0.62752783 -0.89023614 0.17169493 -0.5391336 -0.528364 0.012606043 0.52102417 0.42540312
Cayuga -0.7999129 -0.46293855 0.14419203 -2.0674047 0.34552923 0.080552764 0.71476954 0.08536405 0.84060425 0.38821548
Ce 0.8666948 -1.3225445 -0.8808456 -1.2405056 0.5373706 -0.45014122 -1.069504 -0.51535016 0.3797122 0.14670913
Cebu -1.9252428 -0.6945836 0.18448022 -2.232981 0.11108187 0.27262178 0.58980536 -0.18738009 0.7682341 0.14059564
Cebuano 0.04596854 -0.9979287 -0.2136007 -0.56376654 0.033937458 -0.015796822 -0.17632566 -0.86808693 0.20335147 0.31712663
Cecropia 0.018306492 -0.013928539 0.12682182 0.13830277 -0.074802406 -0.044600405 0.13824297 -0.14004622 -0.027000539 -0.10200159
Cedrus 1.2640121 0.18008015 0.28450346 -1.4473542 1.1173931 1.1777773 -0.33145973 0.019426353 -0.33182994 0.026218329
Ceftin 0.67465025 0.5601807 0.13108578 -0.41421828 0.7621789 -1.5385027 0.8007245 -0.5196166 0.26199725 0.45579472
Celastrus 1.8924708 0.056808483 0.022007324 -1.0393014 1.1555523 1.2639091 -0.27177343 -0.58535504 -1.1303649 -0.5761497
Cenchrus 0.2363453 0.15969522 -0.24094145 -0.5111085 -0.119697176 0.14383315 0.20394024 0.11201238 -0.26130116 -0.19015425
Centaur -0.26352036 -0.21624495 -0.083406076 0.095927894 -0.64017546 -0.07587678 -0.19582264 -0.17868455 0.28901756 0.29758415
Centaurus 0.25804704 0.046995748 0.013325192 -0.1564581 0.5404537 -0.009208363 0.13361336 0.19739711 -0.06420167 -0.39017695
Centranthus 1.9140495 -0.04879817 0.77265567 -1.1756504 1.3508637 0.34772125 -0.07069897 -0.13510337 -0.7897018 0.32385713
Centropus 2.2588704 -0.10505732 0.40950692 -1.1642516 0.8754972 0.19198631 -0.5826782 0.097213104 -1.3226898 -0.50994116
Cephalotaxus 2.3006122 0.022624817 0.09398704 -1.6978962 0.7552083 0.31557834 -0.20809945 -0.19951932 -1.3804889 -0.7920277
Cerambycidae 1.3243062 -0.32016802 0.65754455 -1.7439806 1.0162965 0.9012246 -0.27196825 -0.17302804 -1.1455858 -0.9661604
Ceratophyllum 1.8796486 0.21857426 0.7166979 -1.2012919 0.8007057 0.8824388 -0.085578255 -0.36397272 -0.80238426 -1.1632639
Cercopithecidae 2.4054902 0.03118289 0.06562898 -1.5833106 1.7802225 0.95349276 -0.9674065 -0.06852095 -1.3256954 -0.23974162
Ceres -1.5199556 -0.27437338 0.07668905 -1.3798426 0.7206692 0.6924184 -0.15617804 -0.13701352 0.8070624 1.0286157
Cestoda 1.1830039 -0.14716445 0.36684138 -0.6685394 0.9486399 -0.26643464 -0.30745673 0.33215702 -1.0300564 -1.1662546
Cetorhinus -0.10507766 0.11074214 0.09453926 -0.055405762 0.15385498 0.060494613 -0.056245003 -0.1368389 -0.058569767 0.019535176
Cetus 0.13109711 -0.06911519 0.25854245 -0.7697901 -0.28172666 0.35708338 -0.4937322 0.46457782 -0.24783817 0.65652525
Cezanne -0.78719085 -0.70676285 0.1878513 -0.9597607 0.41572863 0.2152409 -0.907354 -0.9769695 1.6139083 0.49429327
Chaetognatha 2.4534562 0.13775024 0.20694341 -1.4982826 0.8644409 0.6640517 -0.91817945 1.0496109 -1.761224 -1.2521186
Chaga 0.6837861 -0.012195883 0.31934333 -1.019454 1.5124938 0.40130875 0.3402274 -1.0656122 -0.7265039 0.16945906
Chagall -0.6979764 -1.180325 0.26732025 -0.9767157 0.29150864 0.24511853 -1.4686204 -0.73512477 1.5192846 1.0044395
Chagatai 1.5539832 -0.42068395 -0.07192782 -0.8862869 0.10829504 -0.0009479399 -0.7391658 0.33130285 -0.068351336 0.63492143
Chaldea 1.2012944 -0.74443454 -0.66361123 -0.04644969 0.63675135 0.9753613 0.029397558 0.026064005 0.41964716 2.0724409
Chalons 0.8892149 -1.0780065 -0.04091409 -1.2160387 0.044341914 0.30141044 0.072321735 0.11719172 0.7434102 1.0176708
Chamaecyparis 1.5625795 0.07229726 0.22155014 -1.9032605 1.6145052 0.8839796 0.16539514 -0.4673589 -1.2987338 -0.38302281
Chamberlain -2.1486025 -1.2247295 -0.63335675 -1.420094 0.31287178 -0.8631543 -0.6135798 0.74677896 0.7024537 0.4960895
Champlain -1.5740875 -0.61202693 -0.02267473 -2.0689328 0.28481844 0.5614931 0.54609126 0.090377025 1.6493098 0.39420038
Chancellorsville -0.21286961 -0.62163806 -0.15287371 -1.3672853 0.30544305 0.11386951 0.16057414 1.4261788 0.7280976 0.72074074
Chandler -2.8344777 -1.0743483 -0.07816264 -1.7064577 0.174088 -1.0911539 -0.33977953 0.19334207 0.71168727 -0.20775142
Chanukah -0.95705104 -0.07970634 0.059027724 0.05972792 -0.0020999836 0.14378518 -0.16851565 -0.28235295 0.25511917 0.31073955
Chanukkah 0.93138343 0.08093549 -0.06839304 -0.054224025 0.00082394935 -0.14908096 0.1693112 0.2891857 -0.24859011 -0.30800122
Characidae 1.4384887 -0.09275033 0.39331874 -1.3218561 1.1279474 0.64059347 0.25910142 -0.7908769 -1.0503479 -0.25632513
Charcot 0.36360788 0.528526 -0.40618354 -1.0618839 1.2358863 -0.81759053 -0.94972354 0.62172985 1.1678401 -0.16155447
Charina 1.2422211 -0.20835339 0.5318228 -1.1388849 0.6321928 -0.21033043 -0.18601386 0.033362743 -0.29255018 -0.18320934
Charlottetown -0.70835805 -0.40164554 0.0033397742 -2.5717971 -0.15002586 -0.27232876 0.49196148 -0.007590538 1.4258385 -0.0053896373
Charybdis 0.4159237 -0.67250264 0.10262789 -1.5548034e-07 0.3163626 0.7597288 -0.18811539 0.2582061 -0.6657863 0.4561355
Chimaera 0.032736845 -0.41706187 0.5051586 -0.9957409 0.26235703 0.44355062 -0.53078043 0.077398516 -0.270903 0.70184076
Chisinau -0.39894575 -0.6473835 -0.60025793 -1.6788299 -0.3915362 -0.11488303 0.3247081 0.07220917 1.0005555 0.39680824
Chlorophyceae 1.0450877 -0.4300342 0.6749934 -0.56548494 0.61116505 0.43374732 0.20907155 0.2615305 -1.0401225 -0.18743476
Chuang-tzu 1.6104184 -0.39417815 0.22100803 -0.74461406 0.061887175 0.09312392 -0.65319854 -0.036374938 -0.045356877 0.42649785
Chuvash 1.3779415 0.09307417 -0.0895039 -0.8970922 0.5955849 0.43888727 -0.4558329 -0.051499702 0.23095495 0.4465017
Ci 1.5987846 0.37262902 -0.50727594 -0.9797216 -0.03372518 -1.0877895 -0.71855295 -0.39768884 -0.0025573072 0.8309882
Cicadidae 1.731485 -0.24429742 0.26947767 -1.4376441 0.4534777 0.4465353 -0.6019264 -0.8807918 -0.8444339 -1.1165621
Clarksburg -0.5953787 -0.555687 0.063461535 -2.0346074 -0.15173712 -0.44737238 0.6015934 0.017095966 1.0097742 0.25018817
Claviceps 2.2703688 1.0539773 0.32908386 -0.64520353 1.9387292 0.19804394 0.26444754 -0.25768378 -0.56845033 -0.24875507
Cleopatra -2.0640697 -1.2489307 0.37165028 -0.46522072 1.1513705 0.043173783 -0.87070507 -0.15825444 0.80007315 1.2402807
Clinton -0.035397418 0.0018868517 -0.00040385028 0.008214156 0.01256166 0.00423619 0.0119767375 -0.0065051354 0.005407932 0.0053896597
Clioquinol 3.0880585 -0.61202157 0.5893684 -0.5266206 0.8376778 -0.033164736 -0.06671858 -0.0313397 0.35327268 -0.11319675
Clitoria 1.5569925 -0.012805421 0.4778606 -1.3395034 1.0742458 0.030832602 -0.11859485 -0.48555407 -1.0628922 -0.8584701
Clive -2.1226313 -1.4640547 -0.4841651 -1.2355757 0.321671 -0.857167 -0.86873245 0.3724698 0.65842277 -0.1678564
Clytemnestra 1.0069174 -0.62891364 -0.59891087 0.033244714 0.49775618 -0.5448247 -0.9535268 0.28747243 0.1521386 1.4616363
Cnicus 2.3072588 -0.36491123 0.33245146 -1.2211691 0.9323579 0.5076169 0.37141123 -0.29983595 -0.6568081 0.1462246
Cnidaria 0.047526907 -0.070483655 -0.11697452 0.1604909 -0.010655786 -0.19792695 -0.009224649 -0.11182707 -0.06383924 0.29360864
Cnossus 1.8202987 -0.38532218 0.3226227 -0.8507654 -0.0874074 0.29604125 -0.8439657 -0.9346096 0.0026740609 -0.03505217
Cnut 0.6672432 -1.1269405 -0.32867485 -0.5239256 0.24847195 -0.22102776 -0.46274868 0.71424335 -0.19484355 1.5485181
Co -0.7465933 -1.6958927 -1.2171624 -2.8055673 0.6495229 -0.7119643 0.07335652 -0.12875922 0.98489124 0.20687917
Coahuila -0.10471674 -0.38937506 -0.17049946 -1.8826075 0.59185874 0.48764974 0.7138218 0.5901797 -0.35865048 0.07561852
Cocopa 1.7653632 -0.61024415 0.1840305 -1.2794765 -0.02554918 0.44922388 0.19687486 -0.27123296 -0.4181695 -0.12484408
Cola -0.3160994 0.07524384 -0.006353481 -0.07287591 -0.019103957 0.011347417 -0.075145066 -0.09087019 0.094845556 0.07717039
Colaptes 2.0277717 -0.43497595 0.38312468 -1.1470419 0.9283578 1.2200803 -0.8070478 -0.38204408 -1.3027743 -0.68959856
Colchis 0.9541244 -1.0846647 0.17854227 -0.80518174 1.1134665 0.6836854 0.08443926 0.2583741 0.46387413 0.967133
Coleridge -0.75251335 -1.0021375 -0.8482985 -0.75237024 0.8092255 0.102424085 -1.318897 -0.16511236 1.6097287 1.1906439
Colocasia -0.29251295 0.26279113 0.5846246 -0.18371531 0.39153275 -0.18189822 -0.013958856 -0.35296905 0.12845059 0.014885451
Colombian -2.1730647 -0.4753409 -0.67078644 -1.337823 0.606545 0.5217413 0.5866927 0.1972617 -0.4248982 -0.61325395
Colony -2.0836594 -0.3947383 -0.29631475 -2.556882 0.7595791 0.37624684 -0.009297161 -0.080331296 0.99086386 0.58943284
Compositae -0.5791107 0.16208051 -0.08295426 -0.074936934 0.018003134 -0.0111757675 0.03265842 -0.021738954 -0.008977459 0.071879104
Conakry -0.104480624 0.063307054 0.11872175 0.13200882 0.104888625 0.012603728 -0.05110766 -0.0029449381 -0.1793846 0.020020988
Condorcet 0.5238707 -0.24951136 -0.9853409 -0.80610335 -0.6234319 -0.45830983 -0.76802754 -0.37331814 0.09823028 0.89531565
Confederacy -1.421752 -0.9044612 -1.392386 -1.0799856 0.80260426 1.0328631 0.2442509 1.0124594 0.028303249 1.3290858
Confederate -0.63763225 -0.2740997 -0.456593 -1.3326795 0.76300323 1.3264922 0.8917141 1.8464402 0.23374255 0.6096282
Confucian 0.022830548 -0.487735 -1.6434823 0.16901296 0.5341229 1.2923918 -1.3395878 -0.8617652 0.32044062 0.980691
Confucius -1.2908031 -1.2723985 -0.8668365 -0.39835206 0.8691496 0.4788472 -0.9314723 -0.82008106 0.5457726 1.8813136
Congreve 0.18293262 -1.0875928 -0.18196258 -0.24702771 0.0042297095 -0.325506 -0.79050547 0.22799926 0.6518408 0.9679087
Connecticut -3.3615851 -0.6238179 -0.79837847 -2.163112 0.62251204 -0.23499654 0.49525768 0.13611364 0.6645563 -0.42211336
Conoy 1.2276462 -0.11212024 0.23336579 -1.2510906 0.56246674 -0.14973462 0.28354296 0.02306592 0.12389087 0.41856986
Conservative -2.2189612 -0.6384765 -2.804654 -0.7277186 0.6211263 0.22786401 0.17295326 0.13318221 -0.37956932 -0.14157906
Constantine -0.2627855 0.19094352 -0.33117443 -0.1919744 -0.134184 0.02244861 -0.119420335 0.03354661 -0.01998778 0.08900497
Continent -1.7117052 -0.72527206 -0.51463926 -1.0095255 0.70549697 1.1401993 0.305895 0.08506535 0.64476573 0.58254504
Contopus 1.9890844 -0.4338153 0.5636782 -1.5138857 0.45262572 0.8168364 -0.25151682 -0.22833695 -1.323623 -0.83004653
Coosa -0.68647003 -0.40420258 0.23567489 -2.057524 0.22038887 0.23730712 0.53111804 0.6723182 0.609748 0.05887967
Copernican 2.705143 -0.12197339 -0.8471927 -0.116314374 -0.06013022 0.4513403 -1.0503621 0.36781657 0.046840884 1.4815606
Coprinus 1.676152 0.45184267 0.843372 -1.0169187 1.7783552 -0.16721325 -0.4134007 0.08072223 -1.556996 -0.8549432
Coptis 1.6533222 -0.0942374 0.29256612 -0.8406907 1.253397 0.30490986 0.45884654 -0.9711417 -0.8297712 -0.19768709
Cora -1.570346 -0.45082036 0.0037775335 -0.23434414 0.55428874 -0.6756336 -0.07439566 0.048817787 0.5383152 -0.21574678
Corchorus 2.5493371 -0.015775546 0.49266145 -1.2518003 1.0768566 1.0119401 0.14955993 -0.25945213 -1.4057937 -0.5678361
Cordarone 0.8832757 1.2471418 -0.08171803 -0.5649286 0.65124345 -1.6866778 0.8630145 -0.3160124 0.5638995 0.6353113
Corday 0.6291261 -0.69872236 -0.29436263 -0.65691525 0.50094306 -1.4870682 -0.37042946 0.3315063 0.8988578 0.33516875
Coriandrum 2.1322894 0.481279 0.20219173 -1.3667718 1.4307581 0.42441288 0.33566415 -0.6218737 -0.89306694 0.50578445
Corinthian -0.82415557 -0.83102787 0.06048521 -0.9476084 0.4632308 1.27635 -0.5145145 0.5384913 1.1839199 1.21524
Cork -2.51016 -0.74936306 0.50741976 -1.9810925 -0.096577756 -0.025077352 0.1748835 0.025537556 1.4455353 0.13047463
Cornhusker 1.7946526 -0.4942834 -0.011700057 -0.7849393 -0.45889136 -1.5314412 0.37524053 0.44307357 -0.09873134 -0.3336976
Cornishman 1.1634731 -1.1938043 0.35926414 -0.59063053 -0.09411929 -0.8566555 -0.07930719 -0.17888749 0.3233652 0.7214025
Cornus 0.8819316 0.1954672 1.0255364 -1.5793433 1.9289523 1.2828424 -0.1645919 -0.4059858 -0.9718927 -0.39132184
Cornwall -2.8869147 -0.9456693 0.027189286 -2.0357485 0.27052224 0.5100045 0.27977467 -0.50723857 1.3521005 0.33014318
Cornwallis -0.2897822 -1.0656635 -0.7041174 -1.270483 0.2267333 0.4363831 0.05993904 1.2528107 0.68213415 1.0688313
Corse 0.55402726 0.16514915 0.10162088 0.055092484 -0.14188679 -0.51156676 -0.4231142 0.18361948 -0.25761145 -0.071958706
Corsica -0.1163868 -0.07029494 0.022156794 -0.09499827 0.35230786 0.380038 0.30050948 -0.2537878 0.34599108 0.06982435
Corticium 2.2175903 0.70528346 1.3830513 -0.14203617 1.6170064 -0.6641652 -0.18187033 -0.3789022 -0.5711999 -0.2976639
Corydalis 0.002399198 -0.009014404 0.0054837693 -0.00069726154 -0.0016460404 0.0008394712 0.0032233065 0.014915211 -0.002229782 -0.000913012
Cossack -0.37767744 -1.1448089 -0.21218048 -0.6616205 0.34949002 0.7148766 -0.22934644 0.80305314 0.068844505 0.8518027
Cotopaxi 0.10686413 -0.49748865 0.38125154 -1.378413 0.11716647 0.49185395 0.1408989 0.5736883 1.1258585 0.19996762
Coumadin -0.63159305 1.7985904 -0.03992329 0.011107904 0.77508986 -2.2942274 0.92528844 -1.0776902 0.5787347 0.8343578
Cowper -0.30459878 -0.47098452 -0.24300897 -0.64110094 1.1573817 -0.68500483 -0.76342005 0.37291104 1.2051307 1.1124805
Cox-1 2.6635065 0.5562847 0.3398359 0.94269764 0.27379692 0.3998571 0.20222771 -0.20686251 -0.46500576 -0.031294417
Cox -2.575726 -0.41368857 -0.29792526 -0.91690004 -0.1863208 -0.3592839 -0.13220303 0.19099562 0.3484031 0.13801056
Cr 0.79642624 -0.20374109 -1.1809996 -1.5046002 0.9439448 -0.7515103 -0.17324331 -0.053234648 0.60474664 0.20059781
Crab -1.2578559 -0.44417003 1.5779309 -1.4826031 1.0574529 0.60189986 0.35674056 -0.73112077 0.32156962 0.017546179
Crangon 2.1988993 0.23406209 0.63273805 -1.4144076 1.3652066 0.63942593 0.49485776 -0.20524564 -1.2153568 -0.644325
Craspedia 1.7508053 -0.45275146 0.7147822 -0.6734801 0.51015604 -0.18699773 -0.12020333 0.040743258 -1.0776285 -0.31036168
Crataegus 1.226078 0.36964965 0.27965373 -1.5334449 1.6742492 0.23462106 -0.2724699 -0.87326735 -0.8903263 0.09602403
Crax 1.8104593 -0.6377157 0.41434446 -1.2969806 0.6296194 0.14823136 0.09522291 -0.49398676 -0.5166386 -0.0014802272
Creation -2.6966205 -0.42348307 -0.7132229 -1.3292098 -0.21786466 1.046228 -1.3945528 -1.2426282 0.4059513 1.4987271
Creator 0.1645067 -0.1030349 -0.7416529 0.45975325 0.43860483 0.53119916 -0.4031592 0.2207295 -0.06341834 0.073373124
Creon 0.29145473 -0.26609597 -0.6809623 -0.002085621 0.74478704 -0.7287056 -0.3894994 0.22475812 0.24198662 2.0881488
Crepis 2.1332972 -0.04042708 0.39753962 -1.3209183 1.2352518 0.32768267 -0.5586963 -0.4155871 -1.7177385 -0.67467123
Cretaceous -0.6142278 0.90148556 0.64977556 -1.3524305 1.7550875 2.396347 -0.35835534 0.8112502 0.07341839 -1.1076655
Cretan 1.2425137 -0.5407237 0.75039005 0.338971 0.4267217 0.9493631 -0.18581729 -0.6164339 0.40012443 0.44755498
Crete -1.7304134 -0.7230238 0.010686529 -1.6927191 0.8864638 1.4587871 0.033314366 -0.44245234 1.0814533 0.63663083
Crockett -1.5022495 -1.1206365 0.1665906 -1.9093003 0.31925905 -0.67057925 -0.46928087 0.6952109 0.38282773 -0.10275613
Cromwell -1.5131053 -0.14592335 -0.35854578 -0.2677898 0.462078 -0.05950246 -0.33195806 0.23003127 0.30406043 0.41892982
Cromwellian 1.3006468 0.2873647 -0.18282203 0.6813582 0.022286426 0.28812182 0.10551669 -0.280632 -0.32083884 -0.124622
Crotalidae 1.8924448 0.11424861 -0.3648236 -0.97191566 1.318106 0.9683251 0.47540846 -0.5354948 -1.4210688 -0.22125304
Cs 0.7628241 -0.79433095 -1.2868173 -0.8861057 -0.088636674 -0.5954619 -0.60491496 -0.32136765 -0.07082543 -0.0020921754
Ctenocephalides 0.088999264 -0.09889731 0.032129057 -0.1484618 -0.00753444 -0.04041668 -0.14550093 0.17849477 -0.052098777 0.02880557
Culebra 0.033005677 -0.5175972 0.6209728 -1.3324082 0.14313766 0.22659288 0.59995854 0.20202222 0.84748495 -0.32671168
Curacao -1.1133685 -0.5588217 0.50349176 -1.6112285 0.18446036 0.08696253 0.787852 -0.9581497 0.7150265 0.17257279
Curie -0.031586334 -0.12816593 0.07398802 -0.032759327 0.013334617 -0.11388449 -0.1047583 -0.078179255 0.14463237 0.04413682
Custer -1.6093589 -1.2614672 -0.09007769 -1.8824604 0.6203799 -0.26432878 0.071894966 0.94038624 0.5678834 0.37552673
Cuvier 0.7167477 -0.08768069 -0.25721154 -1.1855034 1.2282306 0.66813016 -0.99843216 0.3025199 0.35440186 0.48959488
Cuzco -0.23958516 -0.5433191 0.41499525 -1.5367327 0.39379358 0.95664454 0.19819117 -0.17958161 1.125517 0.53065693
Cyclades 0.22079875 0.035153065 0.67933106 -1.4364411 0.2427918 1.2332121 -0.43513903 -0.2900627 0.71510476 0.3531464
Cydonia 0.31674728 -0.01639632 0.49059424 -1.2533026 0.9889017 1.014747 -1.1857218 -0.18552531 0.37928802 0.41409558
Cynewulf 1.5705098 -0.8530537 -0.2904591 -0.5241378 0.1813288 -0.053662222 -0.84535533 -0.17557204 0.2905868 1.1537776
Cyprus -3.0462804 -0.5930253 -0.628722 -1.9760281 0.47984886 1.0612615 0.9694763 -0.41458178 0.62769234 0.74745524
Cyril -1.776191 -1.4381025 -0.6068422 -1.0688721 0.631813 -0.791813 -1.2666367 0.27805814 0.7740722 1.2872449
Cytisus 1.8760118 -0.040699158 0.73316985 -1.4104255 1.2015742 0.5959309 -0.17241573 -0.40425456 -1.3366777 -0.63066214
DDS -1.348202 0.47256812 -0.29229957 -2.234302 -0.38085625 -1.1423459 -1.0882914 -0.02564781 0.6135878 0.35521954
DOS -2.2588227 0.5218655 -0.4056202 -0.9669626 -1.4947201 -0.22460297 -0.94163984 -0.30709293 -1.4376324 0.62439126
Daba 0.7148945 -0.7888112 0.0671685 -1.4248567 0.09892149 0.15383059 -0.39386186 0.10679265 0.51043284 0.45098704
Dactylis 0.06154329 -0.09310109 0.07446287 -0.11768559 0.21510673 0.19043264 -0.28972256 -0.024676219 0.39423752 0.2463796
Daedalus -0.8330016 -0.9493659 0.16772644 -0.85718125 -0.25510332 0.42186314 -1.2485672 0.07734227 0.35778815 1.1458241
Dahomey 0.73422694 -0.6647574 -0.3551747 -1.3431889 0.70911855 0.7035976 0.0072079333 0.0008145206 0.042235233 1.1360723
Danau 1.1481475 -0.24603307 0.5020678 -1.8852324 0.29301104 -0.010773481 -0.07418823 -0.16330577 1.0031644 0.095864885
Dari -0.76325166 -0.6994626 -0.42197627 -1.4018229 0.23320146 -0.11816182 -0.59483916 -0.535666 0.032106824 0.7972389
Darling -2.3561494 -1.3324708 0.36915007 -1.4873295 0.51396763 -0.5054339 -0.1962465 0.25074667 0.65615934 -0.15676752
Dartmouth -2.1570485 -0.5929335 -0.7236236 -2.180682 0.12793519 -0.42509606 -0.06027471 0.12423833 1.2534132 -0.15817384
Dawes -1.3498129 -1.0643793 -0.3875296 -1.7325523 -0.0080559505 -0.5768845 -0.656223 0.5631649 0.5837338 0.04758126
Dec -3.615166 0.43289068 0.5713457 -1.9673408 -0.016068064 -1.151212 -0.951351 0.43815878 -0.09135231 0.95761937
Decatur -2.2634437 -0.7973841 -0.14128916 -2.3269124 0.2464359 -0.88915765 0.44364193 0.15302333 1.0369635 0.0014822618
Delphinus 1.1983573 -0.042807158 0.26836815 -1.6507766 0.3841749 0.32840693 -0.784478 0.023592314 -0.23384355 0.01583674
Demogorgon 1.507753 -0.6339032 -0.03907067 -0.6536683 0.40530613 0.00015414633 -0.44199973 -0.3024515 -0.21930635 0.92382306
Dendrolagus 1.5716722 -0.32699072 0.6152892 -1.4590226 1.3077084 0.87549394 -0.5218888 -0.3607177 -1.394158 -0.59143806
Deneb 0.3849063 -0.36722875 0.6721034 -1.2164383 0.024748119 0.19603412 -0.71223736 0.2891019 -0.16948664 0.7169231
Denebola 1.5503031 -0.27807343 0.29799026 -1.062146 -0.0066200774 -0.05270981 -0.535753 0.86655796 -0.30288473 -0.070115276
Descurainia 2.1173017 -0.64535576 0.577205 -1.6844373 1.4216609 -0.0047213887 -0.30889842 -0.5187303 -1.5954719 -0.5769368
Despoina 1.8079033 0.008370183 -0.32425898 0.4256982 -0.24408774 0.286746 0.3777633 0.159001 -0.14487247 -0.28132945
Desyrel -0.004839876 0.0066585755 0.0029898195 -0.00910939 0.004597902 0.0063790083 0.0056427717 -0.0057380167 0.0032627906 -0.00076206634
Devanagari 1.9868311 0.8758709 0.13067378 -0.65516675 0.6374375 0.42818892 -0.306447 0.053232737 0.0364336 0.90325934
Dhaka -1.8586308 -0.27213967 -0.5053881 -1.7208412 -0.059692293 -0.007519031 1.0208437 0.36388865 0.796974 0.28684732
Dicentra 1.6924901 0.04399375 0.67128915 -0.94920594 1.8440899 0.30217266 -0.09024577 0.13852227 -0.62418264 -0.53029203
Dickens -0.7634521 -0.43160436 -0.13473952 -0.56051105 0.12550081 -0.69292325 -0.1979488 -0.11125296 0.37326574 0.5665229
Dickensian 1.154279 -0.19873494 -0.033304285 0.8573001 -0.6124306 0.11563175 0.78109705 -0.17336953 -0.16509917 -0.23456797
Dickinson -2.2671564 -0.636366 -0.2554129 -1.5746425 0.39249486 -0.8141068 -1.0135 0.29442516 1.2200491 0.38329002
Dieffenbachia -0.16353306 0.2815671 -0.16407894 0.48167792 -0.2513911 -0.6432374 0.13858254 0.20011841 0.40818116 0.5511016
Digitaria -0.7806095 -0.051325403 -0.24241576 -0.20349336 -0.56861866 -0.3067119 -0.1890397 -0.07743013 0.09470255 -0.15784712
Dilantin 0.32357877 1.507698 -0.23244777 0.16371013 0.97492766 -2.6050234 0.39899984 -0.43339804 0.4714591 0.90072125
Diogenes -0.7171439 -1.1620182 -0.053908244 -0.32813495 0.38538766 -0.28031933 -0.8329631 -0.4296589 0.41632915 1.7407563
Dionysus -0.6036522 -0.99708474 -0.14337924 -0.07344297 1.5174277 0.5977739 -1.4242417 -0.3729016 0.6149438 1.8305483
Diophantus 1.2380059 -0.34142694 -0.010781445 -0.3843027 0.49598122 0.23234653 -0.7662673 -0.44786668 0.36205283 1.3291671
Diospyros 1.7956424 0.1140034 0.47473615 -1.2193266 1.6322206 0.7506137 -0.24110177 -1.010536 -1.6890771 0.001656181
Diplopoda 1.2477665 -0.25143218 0.4984044 -1.06294 0.75146264 0.023347003 0.2381305 0.0170465 -0.56486624 -0.7249602
Dipper 0.12462402 0.010652122 0.019642908 -0.048431613 -0.15164454 -0.106974766 -0.08799751 0.10300744 0.11610298 0.021467337
Dippers 0.16312371 -0.73055786 0.5286342 -0.6022971 -0.10202036 -0.003533164 0.30629304 -0.40372416 -0.506969 0.09112626
Dnieper 0.33951807 -0.4765716 -0.00037873434 -1.0059234 0.07222767 1.0893903 0.32192776 0.84879595 0.7230663 0.29891792
DoD 0.1178409 0.157574 -0.035687957 -0.23541868 0.026895126 0.11199201 0.0280652 0.17902969 -0.08325857 -0.0443733
Dodgson 0.59060043 -0.929214 -0.82489204 -0.4315555 0.3205109 -0.8506229 -1.4002056 -0.28238794 0.7657398 0.43761703
Dominicus -0.074085504 -0.1964016 -0.17769308 -0.099993855 0.19002976 -0.17743558 -0.010203764 0.31828722 0.06978767 0.14134185
Domino -2.4752922 -0.21817371 0.4449707 -1.473072 -0.2584046 -0.69085693 -0.7071608 -0.6144944 -0.20505582 0.26886573
Donkin 0.39381728 -0.6274338 0.04075208 -1.4502835 -0.048503898 -0.46485814 -0.27188125 0.32775822 0.6848445 0.23980711
Doomsday 2.6660757 0.2667614 -0.40473545 -0.28936705 -0.26349232 0.32735276 -1.2803086 0.5883613 -1.3994422 0.7314582
Douglas -3.183374 -0.8157073 -0.29292935 -2.2025485 0.52799124 -0.39219257 -0.5478458 0.5869551 0.90743554 0.00126521
Dowding 0.15556511 0.1405468 0.017778983 -0.06369958 -0.27324447 0.57674384 0.01370274 -0.089841984 0.07062009 0.08955867
Dowdy -0.2376794 -0.077702604 0.09381243 -0.21732546 0.24553192 -0.4654334 -0.120163195 0.16998371 -0.010753891 -0.13222179
Draco 0.06687114 -0.04517129 -0.010615549 0.22517145 0.06403062 -0.0055551366 -0.073738314 0.07152032 -0.08945398 -0.105851494
Dresden -1.9303218 -0.9412268 0.069805846 -1.7982036 -0.04615441 0.16969281 -0.48519972 -0.004972946 1.1792142 0.6321978
Druse 0.55230665 -1.0578195 -0.16881795 -0.92847115 0.41208175 0.74671274 -0.3750182 -0.32730517 0.15668198 0.76257414
Dryopteris 1.9721903 -0.08991381 0.45157838 -1.4645698 1.3492728 1.0253364 -0.37754685 -0.5318861 -1.344491 -0.88392496
Dumuzi 1.494757 -0.7526324 0.051087968 0.0409187 0.94428116 -0.10430712 -0.25389764 -0.06060802 -0.16395187 1.41478
Dunkard 0.85955745 -0.44121388 0.20564593 -1.0186229 0.3197698 0.58978003 0.76033664 0.84369797 -0.4987098 0.17197368
Durabolin 0.36549568 -1.0667698 0.08646481 -0.5597266 -0.56784564 0.25884134 0.0011324247 -0.38737634 0.2623658 0.36738834
Durant -1.8651482 -1.2023689 -0.21116811 -1.3900497 -0.0679538 -0.7908971 -0.39944142 0.7389025 0.1952871 -0.02613391
Dylan -2.8881783 -1.6449466 -0.027899595 -0.40944868 0.58483315 -1.2779999 -1.6022279 0.068434924 0.7765509 -0.40142265
E.P.A. 0.08644773 0.07220247 -0.7028216 -1.1147821 -0.7376609 -0.104224205 1.0957779 0.2364624 -0.16100205 -0.1648925
ED -2.3933694 1.3136791 -0.62112474 -0.7206461 0.045854297 -1.7060074 -0.32061353 -0.0009239961 0.82291687 0.17823201
EE 0.03622888 0.5575 0.35571867 -1.0418875 0.21965057 -1.1395152 -0.44716656 0.35921055 -0.24552114 0.7841231
ELF 1.4825103 1.083802 0.6672654 0.010377418 0.19661239 -0.46030977 -0.6667833 0.072686955 -0.89187104 0.116427325
ELN 0.32968763 0.02853822 0.14870644 -0.13387513 0.016755652 -0.042194255 -0.08176086 0.014652887 -0.14191543 0.06338316
EL -1.8197167 1.0532229 0.5194955 -1.4893448 -0.8519432 -0.39967918 -1.5233572 0.19192272 0.19803241 0.99215
EMG -1.537991 1.718837 0.40201688 -0.73913425 -0.53137964 -0.8819949 -1.1293199 0.6497443 0.7253999 0.2877401
EPROM 2.9377418 0.93495977 -0.03979278 0.0035606553 -0.43919906 -0.5241157 -0.30345413 0.4974736 0.18545985 0.3240219
EST 0.61926734 0.22485873 -0.002237259 -1.6690638 0.42820987 -0.7732407 0.022105096 0.14880756 -1.0316539 -0.034570694
Eadwig 1.3075478 -0.9132871 -0.06872984 -0.597503 0.23623511 -0.40618622 0.17926177 0.52975214 0.047538247 1.4553868
Eames -1.4462143 -0.9395674 0.46348006 -1.1570735 -0.56793815 -0.390382 -1.1903206 -0.15302524 1.2119917 0.033622492
Earth -2.1391745 -0.36310527 -0.08268188 -0.30724713 0.2150707 1.0011438 -0.40453783 0.23350365 0.32708722 1.2300782
Ecclesiastes -0.806455 -0.8615173 -0.13569705 0.7783463 0.7766436 0.36438245 -0.9655292 -0.7009967 0.5018116 2.3134024
Edirne 0.45806125 -0.38829237 0.15347348 -1.3140829 0.33641967 0.12554784 0.1307188 0.02684266 0.5198077 0.8558347
Eichmann -0.27399865 -0.6984133 -1.1216087 -0.6056427 -0.081757516 -0.5424184 -0.53198767 0.48776525 0.028974365 1.3179044
Eiffel -2.131088 -1.11791 0.96095896 -1.1947935 -0.7290162 0.6112807 -0.7841394 -0.24798739 1.2213739 0.4574718
Einsteinian 1.1045517 -0.07819141 -0.5167604 0.81074154 -0.6719945 0.23393242 -1.3236393 -0.49438667 -0.0023523318 0.30910993
Eisenstaedt 0.7526186 -0.8454654 0.22796385 -1.0429349 -0.0442496 -0.79804075 -0.85591286 0.13809943 0.5487293 0.42879623
Elbe -0.24767643 -0.67034996 0.30821988 -1.8526134 0.35094097 1.0618187 0.38146853 0.49420196 1.4551358 0.5041079
Elephas 1.350592 0.20355983 0.7073615 -1.1695904 1.2715088 0.48293728 -0.80424726 0.18399392 -0.704635 -0.3456716
Energy -3.782207 0.60377306 -0.6711272 -2.4566903 -0.9129978 0.51945376 0.38229802 0.23017086 0.39260933 0.4311787
Englishwoman 0.45034316 -1.1728389 -0.3140826 0.3673476 0.59697735 -0.43641075 -0.3788074 0.044228286 0.99905366 0.03219386
Enkidu 0.68357915 -1.1129428 0.030412134 0.19687667 0.84153134 0.21574867 -0.39560974 -0.0103750285 0.08783237 1.3276912
Epicurus 0.4308079 -0.4733784 -0.77994704 0.1444056 0.4495418 0.41649225 -1.2037439 -0.99776113 0.49537975 1.6585636
Epilobium 1.5168954 0.36203519 1.006093 -1.3375292 1.9396348 0.35803327 -0.39204353 -0.6043 -1.012125 -0.91492355
Epstein -1.7516891 -0.2858385 -1.0333182 -1.2760597 0.88922644 -1.2961261 -0.94000775 0.31470075 0.58605886 -0.19844182
Eragrostis 0.048237182 -0.123231806 -0.23610458 -0.35007936 0.24296325 0.4311352 -0.5350962 -0.09896917 -0.10039162 -0.0011610884
Eranthis 1.895582 -0.31127563 0.51748246 -1.1182504 0.7089474 0.46390465 -0.03220549 -0.22686523 -0.98315513 -0.11122781
Erato 0.36554903 -0.86871684 0.040936813 -1.385358 -0.15031923 -0.40285817 -0.46197614 -0.08985134 0.9092132 0.5762287
Erin -2.7854748 -1.4936492 0.2575079 -1.0191102 0.6510069 -1.561462 -0.8385481 0.0010353428 0.8396076 -0.29397953
Eritrean -0.7597473 -0.7933696 -1.1766981 -1.1996304 0.70682824 0.7643329 0.121153116 0.46025184 -0.25041315 0.61336523
Erysiphe 1.9576056 1.0336345 0.36420977 -0.9804478 1.0746233 0.64906335 0.7341654 -0.018450461 -0.9377264 -0.66372633
Esaki 1.06999 0.19645981 0.6445908 -0.8315398 0.06418762 -0.51880383 -0.6819822 0.05478126 0.07126853 0.13181746
Eschrichtius 1.3388925 -0.5642826 0.11670073 -1.4129516 1.2248751 0.63880855 -0.059858482 0.53550303 -1.3778718 -1.4444594
Essen -1.0918963 -0.46514994 0.11023504 -2.1463368 0.029208967 -0.32731962 -0.09922127 -0.27095875 0.99669486 0.4097463
Estonian -1.9377273 -0.4622294 -0.6556074 -1.3537949 -0.009742738 0.66895676 -0.34188613 -0.52468 0.15042101 0.23331776
Etruscan -0.61773294 -0.41315573 0.26732424 -0.87367904 1.0671519 1.8758514 -1.060914 -0.34478542 1.0202872 1.1264397
Eumeces 1.9080352 0.039996527 0.390826 -1.55893 1.0115751 0.4163747 -0.3854787 -0.08822441 -1.336572 -0.5564955
Eumenides 1.3178922 -0.5752219 0.0977193 -0.37421477 0.27460018 -0.044312585 -0.44234383 0.22516473 0.4468049 1.0471712
Euphorbia 0.83392364 0.5877312 0.918822 -0.97180724 1.910368 0.86827075 -0.04945054 -0.92686254 -1.1221082 -0.37881356
Eurasiatic 2.0840352 0.16237491 0.05104387 -1.5115869 0.6920218 0.52125615 -0.7274923 0.29797992 -0.7174248 -0.22461678
Eurocentrism 2.0909574 -0.37735218 0.43383765 -1.2677103 0.3959049 0.20668311 -0.90162313 -0.098202586 -0.077436455 -0.09865079
Europa -2.030494 -0.23027705 0.3162118 -1.8080703 0.011332321 0.36346465 -0.63160515 0.17743473 0.83602166 0.23871873
European -2.3684514 0.40671244 -0.5717423 -0.15746284 -0.400955 0.69776386 0.2954452 0.019436099 -0.0066590565 -0.65010905
Europeanization 0.90135735 0.17836429 -1.1257328 -0.3504201 -0.26664072 0.6629068 -0.2188961 -0.48027307 -0.35838452 -0.41898337
Everest -2.0199292 -0.55765206 0.04524985 -1.7223593 -0.02281712 0.19005479 -0.49846262 0.26485023 0.92503506 0.12323277
Ezekiel -1.6501696 -1.0516491 -0.23256703 -0.102438234 1.2763524 0.5378248 -0.67642766 0.0633812 0.6606758 2.7793717
Ezo 1.2271487 -0.7865009 0.41541323 -1.5189008 0.86154556 0.7673454 0.2640738 0.16154006 -0.031164203 0.17829667
FAR -1.8132071 0.29632536 -0.60941344 -0.6005453 -0.9309532 -0.41937995 0.23653373 -0.2999784 -0.49148127 0.020196686
FBI -3.4769418 -0.65547353 -1.6924243 -1.1215773 -0.14244978 -0.77041423 -0.04301919 1.4617451 -0.9384092 -0.33880934
FHA -1.2272848 0.9294763 -0.51664144 -1.1794024 -0.79664487 -0.46458504 1.0807104 -0.18088138 0.30604833 -0.45854515
FHLMC 2.7018723 0.6680136 -1.2338881 -1.174172 -1.0620046 -0.48316982 -0.2719776 -0.08549578 -1.0878326 0.024363946
FPS -2.2103214 0.32326803 0.176612 -0.1398771 -1.3395817 -0.3141569 -0.87081623 0.1666838 -0.8720461 -0.4465402
FRG -0.053503916 0.22244741 -0.5335771 -1.7466933 -0.37405348 -0.1365058 -0.0011444438 0.2595026 -0.14195268 0.19346681
Fabaceae 1.2587551 0.8094996 0.6311806 -1.9424438 2.4705288 1.057297 -0.21524067 -0.8677935 -1.4702755 -0.7076235
Fafnir 0.88427275 -0.7028568 0.79947543 -0.2908223 0.025806485 -0.38104883 -0.26036626 0.65759766 -0.18649343 1.4052517
Fagaceae 0.0059719686 -0.013296994 0.009320209 -0.017402748 -0.00022365498 0.09405822 -0.02540623 0.010236147 0.041198183 -0.0412905
Faisal -1.3874388 -0.9464165 -1.1081014 -1.5260321 0.21738467 -0.51889217 -0.13242587 0.63015664 0.12019889 0.73132974
Faisalabad -0.50456786 -0.13942525 -0.38376075 -1.7783628 -0.13044141 -0.21746339 0.48674333 0.45234123 0.5705611 0.78189427
Fargo -2.775765 -0.73566717 -0.6025874 -2.2071657 -0.5335981 -0.5352269 0.3507413 0.44974154 0.52666837 -0.14833438
Farrell -2.402998 -1.2848487 -0.4744801 -1.4684823 0.20733383 -1.3241302 -0.9667804 0.5701856 0.5634161 -0.4536011
Fatherhood -0.7915741 -0.46145773 -0.8717018 -0.59544814 0.5968264 -0.2908536 -0.72818017 -0.8707506 0.22411788 0.47457415
Faulkner -1.9294957 -1.2632138 -0.6090469 -1.4213471 0.43303904 -0.7749904 -1.1121538 0.25638562 0.9447503 0.054613434
Fauntleroy 2.1637692 0.17112063 -0.06738127 -0.93734586 -0.28868976 0.49173054 0.13257277 0.049018767 0.68006957 -0.20627137
Fauve 1.0561996 -0.608963 0.415448 -0.8202906 0.022388725 -0.3223862 -1.2094699 -0.39263767 1.0199715 0.024389079
Fayetteville -2.1440248 -0.81710464 -0.19464995 -2.5325663 0.0651967 -0.5735832 0.44367218 0.25730935 1.0532076 -0.3748422
Feb -3.7726848 0.47775105 0.4748326 -1.7138326 0.06735309 -1.0463097 -1.0037756 0.4923519 -0.049724817 0.7363629
Feldene -0.24587385 -0.19456102 0.006633795 -0.20254408 -0.044213973 -0.30636567 0.3571341 -0.10657792 0.04598596 -0.25367013
Fielding -1.5535666 -1.0739726 -0.8683331 -0.960725 0.14869432 -1.0172074 -1.2969897 0.12188936 0.6785259 -0.008231812
Fillmore -1.8119376 -0.83028054 -0.06413715 -2.0345786 0.24756451 -0.651587 -0.25376487 0.14717028 1.0718635 0.09581542
Finnish -2.1668947 -0.3879165 -0.3268692 -1.5003977 0.2197522 0.4718069 -0.4363884 -0.92167753 0.19500932 -0.33387685
Fish -2.9230812 -0.010727754 1.1293923 -1.9669666 1.1584802 0.22818328 0.5176812 -0.88032943 0.4428482 -0.27821445
Fistulina 2.201623 0.47621647 0.65074843 -1.2103387 1.1525877 -0.31779018 0.25484797 -0.6803159 -0.7929481 -0.2485258
Fitzgerald -0.0030226065 0.009017604 -0.0062628137 -0.0028351508 0.00025189767 0.0066501754 0.0016816062 -0.0081549175 0.0020424621 -0.0040369034
Fletcher -2.360858 -0.8811561 -0.52222323 -1.6929377 0.27178487 -0.98458844 -0.61720616 0.8258616 0.83818257 -0.19317974
Flinders -1.3451484 -0.8138273 -0.05323623 -2.1349099 0.14044873 0.23025467 -0.18040566 0.1503167 1.3795996 -0.09040387
Flint -2.6587818 -0.8230995 -0.05424902 -2.1248996 0.35782003 -0.25027078 -0.058716424 0.55768234 0.62376857 -0.14985766
Floreal 1.3213149 -0.30347943 0.19488357 -1.1780437 -0.1899068 -0.71824056 -0.13535902 0.16169964 1.0581222 0.04661757
Florence -2.8392477 -1.465202 0.11322968 -2.0264742 0.8934396 -0.20239186 -0.40104643 -0.21904993 2.0140855 0.3352654
Florida -4.2542195 -0.53294563 -0.35617796 -2.340571 0.616145 0.0514765 0.85705876 0.12090911 0.3599881 -0.98933935
Foeniculum 1.7875756 0.52366424 0.4520892 -0.8265449 1.9906803 0.4958968 0.30648825 -0.9306597 -1.0677289 0.106577635
Fomorian 1.683441 -0.8999841 -0.06931303 -0.3149905 0.48127478 0.10886929 0.34630635 0.15660577 -0.47770154 0.35813272
Fonteyn 0.7426979 -0.98136735 -0.0801091 -1.0161399 0.17748325 -0.64838135 -0.78182757 -0.24321868 1.1082803 0.07841004
Ford -0.13857795 0.019240934 -0.04162939 -0.123359345 -0.03556263 0.026635371 0.09853209 0.15013018 0.085481 -0.123998925
Forseti 1.246405 -0.9213958 -0.3274168 -0.6747445 -0.17221758 0.26489756 -0.27822357 -0.3289318 -0.07344091 0.8601795
Fortaz 2.3488057 0.19451459 0.095490605 -0.83312964 0.20160852 -0.7058592 0.075910546 -0.34607565 -0.30019122 0.5859124
Francisella 0.07766028 0.102958485 0.04884524 0.021967245 0.08533335 -0.06341628 -0.21413518 -0.08610569 0.051451053 0.023056613
Freemason 0.69814724 -0.77191275 -1.3097969 -0.94740224 0.6942684 -0.0100987265 -0.47371417 -0.38753876 -0.028381664 1.3809739
Freetown -0.7592003 -0.71999556 -0.22211719 -2.2400723 -0.016919868 0.14771527 0.8339353 0.72542346 0.9096903 0.25524634
Freud -2.0908992 -0.53126794 -0.9930634 0.4341288 0.5575018 -0.48622397 -1.8465394 -0.7183454 0.95340097 0.6999479
Freudian -0.10904317 -0.42057836 -1.112208 0.7385324 -0.032576215 -0.39950892 -1.3123811 -0.7154662 0.19051176 -0.9347507
Frick -1.0559452 -0.7017557 -0.34249744 -1.700526 0.082355455 -0.67759764 -0.4027538 -0.025312828 0.9210274 0.46993956
Frisbee 0.054912243 -0.9413365 0.19569972 -0.60012996 0.7077326 -0.404662 0.20872247 -0.44541812 0.36759531 -0.5044607
Fructidor 1.3013606 0.062195122 0.35308433 -1.0094026 0.090534516 0.40674517 0.52402735 0.43268976 -0.5716256 0.687933
Frunze 1.5577123 -0.46406698 -0.21936499 -1.8067577 0.06743636 -0.036277585 0.24835233 0.5265554 0.31345853 0.02205254
Gansu -0.33876792 -0.018704187 0.031605806 -1.5081105 0.65234166 0.86700815 0.8079431 0.44229403 0.30582562 0.16637394
Gdansk -1.0458986 -0.75584775 -0.095515564 -1.971466 -0.06622927 0.22260273 0.057223175 -0.065479144 1.2711508 0.4908402
Geisel -0.36024335 -1.030552 -0.18085395 -1.1723017 0.61289614 -1.047627 -0.77837116 -0.19737388 0.5165901 0.1718889
Genesis -2.9395056 -0.23020387 -0.30718353 -0.57511693 0.24845858 0.69745404 -1.6054751 -0.4211942 0.3709897 1.7706543
Genovese -0.18072523 -0.8884175 -0.07018851 -1.1940434 1.0664979 -0.21542735 -0.2312587 -0.036890347 -0.038676623 -0.050937347
Gent -1.1017619 -1.0880959 0.21400318 -1.5544089 -0.28713512 -0.92978704 -0.570964 -0.016073948 1.1754646 0.34989336
Geomys 1.7390792 -0.32728973 0.7471931 -1.538102 0.63522935 0.2622965 -0.28462675 0.086531445 -1.2706245 -1.0269287
Gibbon -1.0198116 -1.0761986 -0.35141733 -1.1588044 0.59051055 -0.06546527 -0.9919678 0.28887844 0.7007896 0.4747165
Gulo 1.2592903 -0.46110627 0.42634153 -1.1682482 0.6182703 -0.19594587 -0.39047515 -0.32364014 -1.1041992 0.014267111
Gurkha 0.75226724 -0.40386933 -0.21810243 -1.0248022 0.40787807 -0.22283882 -0.52375156 -0.10112652 0.079053655 0.6930038
Guthrie -2.0578837 -1.0319921 -0.50437653 -1.7128067 0.6362948 -0.6193927 -0.8566877 0.2938812 1.1307466 -0.19038476
Gwyn -0.9729609 -1.2954917 -0.11703291 -1.0715773 0.28065202 -0.6411565 -0.8511741 0.17994976 1.0425956 0.66316026
Gypaetus 2.3444228 -0.42147338 0.15984523 -0.79155594 0.84302574 0.05979874 0.05844299 -0.57861966 -1.0571351 -0.08758
H.I. 0.026883125 0.083139434 0.085885905 -0.057209652 -0.062181316 0.08382785 -0.24962212 -0.024470733 -0.015787391 0.08174289
HDL -1.0500824 2.4759629 -0.10548838 0.32680523 0.101718366 -0.98330015 -0.25809833 -0.6488999 0.4962005 0.7763602
HTTP -0.6783656 1.1065339 0.69036484 -0.88713276 -1.5742854 -0.7104704 -0.60631835 -0.6303061 -0.687984 0.03994482
HUJI 1.2003866 -0.08382742 0.09902008 -1.053272 -0.05945684 -0.16895972 -0.12785427 0.10852285 -0.26716354 0.6843933
Haber -0.6672309 -0.04812202 -0.20520857 -1.3656884 0.44460747 -1.0288224 -0.80326885 -0.09624983 0.40572265 0.59581405
Haftarah 0.8338526 -0.05870943 0.010744103 -0.7074684 -0.4024731 -0.42397782 -1.0539699 0.005177945 0.10887352 1.4652098
Haman -0.51458764 -1.3981622 0.07668776 0.0774206 0.60337746 0.040408414 -0.1625411 0.47605836 0.20740606 2.7353773
Hamelin -0.24175566 -0.855882 0.15778014 -1.2030271 0.73120475 -0.2959275 -0.6292389 0.13159832 0.769348 0.15263608
Hammarskjold 0.7868327 -0.76124835 -0.26573157 -0.71231115 -0.050153647 -0.12643853 -0.0071287225 0.42254865 0.65739304 0.87800723
Handy -2.237361 -0.377103 1.019014 -1.5160544 -1.0135281 -0.91305673 -0.46327332 -0.388868 0.2956684 0.3534136
Hargeisa 0.008852236 -0.6529294 -0.4508728 -1.1765044 -0.024640244 -0.050881486 0.89140254 0.35738063 0.6495394 0.47026184
Hart -3.1181629 -1.2802677 -0.24545065 -1.620238 0.51287246 -1.1516782 -1.0961615 0.8224167 0.7986328 -0.1342439
Harvard -0.021593506 0.0029778397 -0.0051551512 0.012144797 0.0014954091 -0.007415335 -0.009168757 -0.011148293 0.0062087015 0.006608124
Hasid 1.1235654 -1.2026832 0.22542606 -0.021404287 0.11721362 -0.3658048 -0.6306552 0.2263082 0.07304863 1.0432113
Hathaway -2.016528 -1.3880523 -0.1995019 -1.0381718 0.3885282 -1.109983 -0.46838903 0.3661413 0.47754377 -0.43926907
Havana -2.298474 -1.2430751 0.26202938 -1.8542649 0.5735734 0.19174269 0.3976897 0.089812085 1.1950401 -0.2735488
Hawkins 0.004713263 -0.00417403 -0.0015156127 -0.009175759 0.0016957086 0.0014241234 0.0011979764 0.014169679 0.01037697 -0.0049074646
Haworth -0.9767426 -0.8745859 -0.08183563 -1.7481596 -0.10601237 -0.45281437 -0.26859313 -0.34556508 1.4106948 -0.023469433
Hayes -2.6660445 -1.1440208 -0.24950826 -2.0284984 0.42740726 -1.0107104 -0.94321114 0.605363 0.5664258 -0.13357492
Hb 0.059859905 2.0218666 0.16015685 -0.6648641 1.193281 -0.69477904 -0.8231078 0.354382 0.5126115 0.94824237
Hegelian 0.15383129 0.0011049355 -1.6862627 0.26230043 -0.19966142 0.55852425 -1.096011 -0.5651696 0.54684514 0.177855
Heidegger -0.7654004 -0.71152234 -1.768404 0.08064764 0.019677475 0.53619057 -1.9287314 -0.66215295 0.8431539 1.1215521
Helenium 1.3919384 -0.19382647 0.6288173 -1.6927439 1.5005494 0.3653892 0.018776705 -0.20607777 -0.75833267 -0.564733
Hell 0.15599887 0.15564586 -0.108403616 0.008885231 -0.10351514 -0.013661873 0.034072746 -0.07935038 0.21359986 0.17045538
Heller -1.8792783 -0.6871408 -0.7493906 -1.5260625 0.1447081 -0.9333893 -0.7569544 0.27476442 0.3873038 0.19340459
Helvetian 2.2729368 -0.8901111 -0.2504763 -0.78964984 0.10259028 0.5252537 0.23653166 -0.066972405 0.15951517 0.32164225
Hepworth -0.5453069 -1.0002701 -0.3128322 -1.172512 -0.0010289379 -0.44214278 -0.5785111 -0.041769367 1.2632535 0.4609577
Heracleum 1.3563445 0.15732293 0.64856887 -1.5136795 0.9926299 0.4834801 -0.17549604 -0.71914136 -1.6758204 -0.22347058
Here -3.8762047 -0.5915032 0.5155527 -0.74637926 -0.14615633 -0.50262946 -0.6744453 -0.7906352 0.3141728 0.2605527
Hereford -0.7004942 -0.40458402 -0.2988258 -2.5277119 0.025107436 -0.11843989 -0.4297215 0.33646953 1.8607453 0.2578898
Hertha -0.21585983 -0.62115043 0.049789272 -1.1933569 0.113452315 -0.7432966 -0.32077098 0.34989208 0.5345051 0.43424255
Hertzian 1.5413675 0.5743163 0.35699877 -0.30779025 -0.6216797 0.3132907 -1.0724019 0.10070797 0.16216089 -0.8159756
Heteroptera -0.48923805 0.11037901 0.37863907 -0.30392438 0.358862 0.37936077 -0.320306 -0.35708845 -0.6261289 -0.4585967
Hexamita -0.0044110687 -0.0006233623 0.0031268387 0.0028760908 -0.00011171003 -0.00032275985 -0.0025375728 0.00013716808 -0.0003994244 -0.00075484614
Hindu -2.7568474 -0.06011852 -0.7487088 -0.4003714 0.85387903 1.2667305 -0.33700675 0.14885136 -0.062933125 0.5253848
Hindustan -1.3874985 -0.2787286 -0.83113456 -1.3851061 -0.2595511 0.0017893786 0.46019018 0.33116135 -0.08201813 0.9900322
Hirschfeld -0.46769038 -0.88476086 -0.54698104 -1.1074984 0.0461726 -0.71691066 -1.0076277 0.30869249 0.7327236 0.17512366
Hirschsprung 1.2727983 1.2444661 -0.30963132 -0.55553824 1.3111755 -0.8604274 -0.792141 0.5543159 0.66055256 -0.006002507
Hispaniolan 2.2745426 0.27651832 0.49545306 -1.2261547 1.1338958 0.8505758 -0.25042722 0.27782214 -0.9685085 -1.1868286
Hominidae 1.4848547 0.16004793 -0.92782027 -0.8443674 0.7980436 1.0026665 -0.7195656 -0.25389868 -0.7350992 0.3262722
Hominoidea 0.9559296 -0.15063545 0.47757718 -0.7937294 0.73020285 0.028061599 -0.10602572 0.1550576 -0.50261635 -0.181013
Hong_Kong 1.8578831 -0.32181042 -0.059107706 -1.0066044 0.24536091 0.15873466 -0.24192515 -0.1047599 -0.3604049 0.14146122
Hopkins -0.26815215 0.10221032 -0.22637829 -0.14702037 -0.08141696 -0.05398284 -0.011812116 0.096835695 0.2183209 0.040873867
Howard -3.2845507 -1.3060547 -0.73486936 -1.7568663 0.43212277 -1.0790792 -0.83066744 0.9561315 0.54748666 -0.24338931
Hualapai 0.545644 -0.68210596 0.033551898 -1.6561011 0.26792622 0.615408 0.5722128 -0.50081563 0.042153798 -0.05376044
Hubble -1.7608383 0.25150567 0.09007374 -1.1001295 -0.59013224 0.8024309 -1.4411161 0.6076656 0.70983523 0.14681056
Hudsonia 1.8767242 -0.38101947 0.3237295 -1.461784 0.82130444 0.10378731 -0.09954951 -0.31141403 -0.8683019 -0.6555464
Hun -0.3374735 -0.59372514 -0.68686724 -0.2482164 0.6437017 -0.19449696 0.07513044 0.39444858 -0.18259847 0.6935556
Hunan -0.34838185 0.0046493337 0.21159405 -0.091591775 0.04336744 -0.039146315 0.12751593 0.0053889686 0.025899649 -0.08989001
Huntington 0.14137697 0.021174062 -0.052954104 0.08120157 -0.11835351 0.05071797 0.09256865 -0.07088192 0.10745589 0.06463224
Hupa 1.2360684 -0.8350987 0.3362264 -1.2824377 0.67348546 0.24012384 -0.18786216 -0.3631772 -0.29409724 0.64445263
HydroDIURIL 2.223298 -0.11135624 0.17047891 -0.8269449 0.19746004 -1.0978053 0.75134957 -0.27426517 -0.4552821 0.44755322
Hydrus 1.2844012 -0.25232255 0.28526762 -1.2508225 -0.36188284 0.19340195 -0.73881227 -0.009564727 0.32431507 0.1923284
I.D. 0.46192044 0.0031481795 -0.113440864 -0.7694132 -0.16515131 -0.5463452 0.15571028 0.64379454 0.005898741 0.08529096
IC -2.2505453 1.7952125 0.25195527 -1.0678328 -0.9202437 -0.7855249 -0.49586684 0.7201468 0.4135839 1.0318607
IDA -1.0298697 1.0226973 -1.0375636 -1.4833438 -0.46387154 -0.60467833 -0.032012925 0.080512896 0.37360075 0.42118233
IDDM 0.7819797 1.7436044 -0.8079914 -0.24967952 2.0513668 -1.1650906 -0.10209196 -0.117285535 0.7864373 -0.022045007
ID -0.36031005 0.12988774 -0.3759566 -1.2302549 0.06002453 -0.21959218 -0.5513447 0.06881116 -0.26602435 0.26343402
IL -0.2308065 -0.06643716 0.049829625 0.20717068 -0.01581953 -0.04008272 -0.20324796 -0.12920785 0.12901284 0.021431882
IOP 0.74261075 2.4187987 0.014113001 -1.6111571 0.019512093 -1.0330707 -0.74530697 0.31247124 1.0361894 0.30470824
IR -2.0885098 1.1882744 0.6263541 -0.28318873 -0.8333806 -0.12932058 -0.9945664 0.24981827 0.12744461 0.3037187
IVP -0.054974627 1.0028692 -0.118032046 -1.1383101 0.24855997 -1.2411916 -0.5416279 -0.23863272 0.41287202 0.98095095
IV -1.2652254 1.0654461 -0.06510114 -1.6414744 0.8508839 -0.8697571 -0.49550697 0.6718604 0.6404327 1.2245647
I -1.9862194 -1.5278149 0.64593375 0.7329447 -0.1946853 -0.97455865 0.52675146 0.06612447 0.62403816 -0.20323436
Iapetus 0.17846271 -0.26426762 0.8249002 -0.42178357 0.57993156 1.0724455 -1.2613872 1.1216136 0.60853946 0.12211338
Ibert 1.1235335 -0.92387855 0.20502995 -1.0811368 -0.27129185 -0.36513275 -0.49878702 -0.10055946 0.8291715 0.49236387
Idaho -0.79720306 -0.8813278 -0.64255387 -2.1588387 1.4640632 0.21233442 1.5242941 0.2461658 0.7103171 -0.8016255
Ido -0.24514826 -0.69845486 -0.45416117 -0.69435453 -0.24077839 -0.7180111 -0.5552169 -0.6222777 0.25978965 0.84747684
IgD 1.2906542 1.1575503 0.35719502 -0.23511547 1.1310122 -0.35348544 -0.76907635 -0.27676806 -0.34836805 0.26298904
IgM -0.0010567614 2.8394308 -0.02663335 0.18696228 1.7014608 -0.7345634 -0.7857653 0.04411532 0.22085811 0.2772248
Igigi 0.5242496 -1.0690099 0.19076304 -0.33324045 -0.28534135 -0.48497185 0.56372565 -0.5069064 0.23104072 0.66445875
Ilmen 2.015513 -0.11483921 0.25804216 -0.9688521 0.20253754 0.8086184 0.3446467 0.44778103 0.4500549 0.08034375
Indian -1.691136 -0.6532681 -0.10403855 -1.878356 0.43833405 1.377824 0.70133805 -0.6674435 -0.23820335 -0.02216614
Indiana -3.415492 -0.6138836 -0.47033334 -2.432496 0.5110782 -0.26300144 0.19658016 0.053304054 0.28237116 -0.34346458
Indo-Aryan 0.7528265 0.38172734 -0.97267526 -1.1215386 1.017074 1.6119503 -1.6285954 0.081599995 -0.21035735 0.29273155
Indochina -1.1467383 -0.2349999 -0.5809037 -1.6691924 0.5089665 1.0402749 0.66422945 -0.032791223 0.4749226 -0.122389056
Infusoria 1.1968176 -0.13252287 0.40554667 -0.11452054 0.5403988 -0.24956517 0.3675189 -0.5153437 -0.025062699 -0.2522197
Inger -0.6185938 -1.0330819 -0.105651654 -1.17778 0.5230548 -0.7546764 -0.7735186 -0.23442781 0.94822276 0.34737074
Insectivora 0.3334575 -0.0006141821 -0.29568383 0.34029657 0.26911652 0.03158569 -0.12717535 0.21189743 -0.17481062 0.297405
Ionic 1.0892557 1.0371088 2.1142666 -0.98285323 -0.08801283 0.7413282 -0.36010882 0.29116613 1.2490786 0.3219296
Ipomoea 1.0223528 0.03554512 0.6976767 -1.1298395 1.8879422 0.76113254 -0.101098865 -1.0748992 -0.81208134 0.07598842
Iraki 2.289326 -0.08653395 1.3314977 -0.15461124 -0.20021515 -0.3625276 -0.3211723 -0.7883075 0.57999533 0.024774352
Iraq -3.4522064 -0.5596229 -0.92869234 -0.1323211 0.32176393 0.6165632 -0.022267852 1.1135222 -0.26237884 0.32715514
Irish -1.6906334 -0.8251237 -0.1643046 -1.4288566 0.2028724 -0.63266706 -0.92495626 -0.16792901 0.6331714 -0.3332433
Ironsides 0.28409526 -0.12617235 0.5380818 -0.3492915 -0.48444664 -0.17022514 0.23109785 0.027372751 -0.009877752 -0.31200206
Isere 0.83380437 -0.6447662 3.5529873e-05 -1.1542486 -0.28964826 -0.39482772 0.059825417 -0.29138014 0.7779703 0.66736436
Ismailism 1.7426064 -0.11651071 -0.24772021 -0.71568364 0.3858508 0.07830955 -0.48193747 -0.1809386 0.12633225 0.6306027
Israel -4.2510295 -0.94299346 -2.2329664 -0.084093176 0.52683854 1.172031 0.47978747 0.8679506 -0.17884013 2.0999439
Italic -0.24719095 0.14426734 -0.06769501 -1.8581758 0.32457232 0.6380151 -1.5179496 -0.19940451 0.26582953 1.179005
JRA -0.060054842 0.7333226 -0.37432083 -1.0139766 0.5505247 -1.3773721 -0.24358645 0.57401985 0.6826192 -0.21494298
Jackson -0.011571487 0.013139668 -0.005207444 -0.005280528 -0.0065693646 0.0033477757 -0.004808618 0.0030860412 0.00041724512 0.0045835455
Jacobite 1.4190711 -0.35538638 -0.44818038 -0.79217637 0.90954816 0.76713604 0.22298932 1.0842478 0.7492478 1.2764665
Jamaican -2.6511703 -1.2564461 0.17089638 -0.7040533 0.99986887 0.02603237 0.33677554 -0.84027994 0.034193072 -0.72927684
Jamesian 1.3041021 -0.6452061 -0.5858613 0.29100636 -0.44801012 0.32125235 -1.2433399 -0.52048576 0.3625251 -0.06635413
Jamison 0.61421543 -0.0043521198 0.26574916 -0.17629553 0.05235022 0.09858354 -0.0027343337 -0.018031335 -0.14150885 -0.23677815
Janissary 2.511081 -0.26510602 -0.23831697 -0.5374848 0.12026807 -0.02800716 -0.8500635 -0.0942415 0.21775655 0.31126928
January -4.221254 -0.48197857 -0.3415592 -2.1882014 0.3764029 -0.8600672 0.23005152 0.42122284 0.4520106 0.67654294
Japanese -4.106622 -0.44095346 -0.020195074 -0.5785721 0.22024244 0.79236746 -0.3675573 -0.7253566 -0.24008185 -0.48744762
Japheth 1.0199332 -0.97461736 -0.44964048 -0.31548184 0.7799945 0.5430721 0.0040414804 0.17531651 0.252815 2.1674347
Jarrell -0.2662313 -0.68381387 -0.2587147 -1.6786814 0.32160032 -0.8886109 -0.74345034 0.029231217 0.88932264 0.17176141
Javanese -0.7721828 -0.838411 0.18349195 -0.37923378 0.6484843 1.2943938 -0.70369935 -1.2002475 0.4890128 0.56164294
Jay -3.5308926 -1.3984693 -0.014310507 -1.5456537 0.57781136 -1.0664899 -1.1671433 0.566661 0.009866317 -0.44506323
Jenner -1.5925412 -1.13603 -0.023223035 -0.99031734 1.0363749 -1.4385983 -0.3742964 0.3058959 0.5289065 -0.26761815
Jerusalem -3.2427576 -1.4114202 -0.89968556 -0.6487792 1.1371853 1.3817018 0.10203043 0.35511062 0.9901186 2.915983
Jesuitical 1.8012424 -0.60424525 -0.4448405 0.32595178 -0.5707991 0.11422211 -0.14919959 -0.18921782 -0.08716537 0.047328927
Jew -1.5892748 -1.6026248 -1.1856279 0.68327796 1.2083179 0.34503838 -0.38784176 -0.0013829017 -0.22796883 1.9801875
Jnr 1.0880128 0.07623244 -0.4189724 -1.2150874 -0.29384232 -0.34041765 -0.40855527 0.2178185 0.19775675 -0.48161852
Jocasta 0.33579075 -0.92694193 -0.2192056 -0.13624847 0.16404136 -0.5731264 -0.981552 -0.062047683 0.39587384 1.1409031
Johore 0.31265908 -0.6362459 -0.025833962 -1.3953274 -0.09480377 0.276653 0.8695014 0.36360797 0.25685695 0.6053807
Joliet -1.2721205 -0.049312875 -0.24735118 -0.2722672 -0.26520976 -0.32493722 0.3278823 -0.120166376 0.23560797 -0.075083174
Jolliet 1.6019902 0.0011743398 0.12546834 0.3266402 0.29067472 0.44264823 -0.36954275 0.06789617 -0.14308538 0.017266817
Jonah -0.6267977 0.010611669 -0.2469189 0.10433024 0.09062586 -0.047270227 -0.014273505 -0.04045804 0.19843152 0.08676748
Jonesboro -1.1604899 -0.6754509 -0.14744839 -1.9827838 0.09622614 -0.87814724 0.32814223 0.34880662 1.0609459 0.03687749
Jonson -0.680149 -1.0398432 -0.7018425 -0.59707415 0.20587385 -0.81415015 -1.3070135 -0.3140406 1.4837872 1.0823958
Joshua -2.8291252 -1.2868084 -0.32974467 -1.2997876 1.0979599 -0.4040644 -0.90573806 0.40828863 0.90312284 1.0554601
Jr -0.60613185 0.4246252 -0.3425785 -1.8971587 0.09335819 -0.74551314 -1.1604526 0.21318148 0.19533998 -0.03446796
Judaic -1.4027402 -0.37721646 -1.3666235 -0.38888648 0.37943304 1.3806261 -0.8941499 -1.2657268 0.9456336 1.2065619
Jussieu 1.0504103 -0.22352104 0.22694603 -1.227715 0.9340826 -0.3257591 -0.06777111 -0.089384004 0.007824522 0.7887819
Jynx 0.35323426 -0.6683668 0.58478206 -0.07854708 0.19565828 -0.67160636 -0.49809447 0.13719837 -0.446855 -0.17994529
K.E. 0.17505045 -0.16934781 -0.2296919 -1.634733 0.35767406 -0.40231705 -0.84354913 0.0046975208 0.15264395 0.2927456
K -0.1390479 -0.15459049 0.040713135 -0.5788981 0.5031888 -1.05309 -1.0190068 -0.032838967 0.4493855 -0.061147716
Kabala 0.9344783 0.02700934 0.16159782 -0.32831466 -0.015661456 -0.15555127 0.5691169 0.49723142 -0.08454431 -0.09157055
Kabbalah -0.9326295 0.072145246 -0.42582116 0.25117737 0.005370573 0.09443386 -0.49846467 -0.36101317 0.07563518 0.13791889
Kabbalism 2.8360991 -0.08884949 1.3908716 -1.3082703 -0.086706124 -0.14974068 0.037695512 -0.08554053 0.39340904 0.23742887
Kahoolawe 1.0492201 -0.31375104 -0.1126817 -1.3499196 0.27108788 0.77246815 0.46270406 0.14012972 -0.005627539 -0.08818905
Kalashnikov -0.058196448 -0.09708017 0.26271418 -0.23694439 0.050078753 -0.010215664 -0.01908329 -0.046338845 0.07061521 -0.20685722
Kalka 0.521873 -0.5934213 0.23344311 -1.439068 -0.32483354 0.1948463 -0.2350654 0.74408233 0.79189295 0.74039316
Kampuchean 1.3749497 -0.47916198 -0.07444452 -0.28456965 -0.27457204 0.8851866 0.3677605 0.59196687 -0.5585227 -0.31011745
Kanarese 1.7092882 -0.7661316 -0.33933705 -0.5260525 -0.18458958 0.075422876 0.064636126 -0.20080593 0.27867132 0.03036552
Kandinsky -0.5307356 -0.553109 -0.2714553 -0.57498217 -0.15820484 0.24379185 -1.660706 -0.7066188 1.7120155 0.7196444
Kandy -1.2231588 -0.89102745 0.43897888 -1.4950132 0.46444148 0.041597683 0.04262813 -0.3578581 1.0861586 0.5170985
Kansa 2.0160105 -0.12011277 0.23625006 0.75605166 0.37477037 0.10590679 -0.3057393 0.016841814 -0.2939652 0.9169669
Kansas -2.028414 0.13155831 -0.25077763 -0.7669158 -0.38072163 -0.10067536 0.31101677 -0.02443946 0.30051154 -0.91442
Karelia -0.45507127 -0.37241635 -0.15440083 -1.4328578 0.31793812 0.8053384 0.46301615 -0.17188768 0.64018947 0.42594805
Karen -3.2790267 -1.2396622 -0.07640422 -1.3117874 0.7217405 -1.2058032 -0.9917408 -0.10453032 0.9684512 -0.13729158
Katmandu -0.16749005 -0.8320087 0.022473853 -1.1480377 -0.031157695 -0.011608753 0.28008592 -0.091955744 1.0449368 0.52129817
Kaunas -0.5389599 -0.457588 -0.15382001 -1.9475288 0.24893697 -0.1496361 0.06290483 -0.14699218 1.0575612 0.5597148
Kekule 1.4621688 -0.08298148 0.5766316 -0.7642045 0.057063814 -0.024920003 -0.44485036 0.11531589 0.037651308 0.122250676
Kelantan -0.7797978 -0.78366375 -0.45695552 -1.4014138 0.27366042 0.29943335 0.66549873 0.09965294 -0.06961672 0.612576
Kennelly -0.21692643 -0.6700545 -0.2827797 -1.2910484 -0.19572498 -0.955807 -0.556725 0.34318978 0.37590882 0.26019073
Kent -3.178545 -0.9975813 -0.17913902 -2.2547698 0.6422227 -0.53197247 -0.37550852 0.07050148 0.8840245 -0.09978368
Kenyata -0.16620064 0.15646066 -0.061765317 -0.19634736 -0.03674586 -0.11669921 0.0021525407 0.053248584 0.0533205 0.07470015
Kerensky 0.9755349 -0.77688783 -1.0458529 -0.70100945 0.33521897 -0.11875193 -0.122009285 1.1470929 0.052614704 1.0603732
Ki -2.5002747 -0.3012323 0.026909081 -1.1098903 0.38721374 -0.41212183 -1.1950032 -0.1338796 0.40046892 1.3970586
Kickapoo -0.49880633 -0.75016093 0.062421836 -1.8014176 0.45391777 -0.045654908 0.8227265 -0.0071110935 0.30164617 0.18810627
Kilroy -0.22021687 -0.8314342 -0.21978222 -1.0776253 -0.17770658 -0.80157566 -0.6356543 0.44118086 -0.012050834 0.19505166
Kissinger -1.3659047 -1.1239933 -1.6911678 -0.644545 0.27307758 -0.87346154 -0.52589023 0.71462697 -0.016066222 0.6341695
Kivu -0.31552663 -0.13671993 -0.2821039 -1.4846077 0.61744 0.997656 1.1504998 0.89926344 0.27114096 -0.057826977
Klaipeda 0.5183726 -0.52806944 0.12579371 -1.9217596 -0.3703245 0.21266347 0.44918972 -0.40040356 1.182994 0.43109027
Klansman 0.565054 -1.3725305 -0.21935475 -0.36675692 0.21269464 -0.8859273 -0.27438933 1.1883401 -0.40390953 0.6714331
Klaproth 1.4668288 -0.07778928 -0.051509127 -1.2590468 0.4591569 -0.015338614 -0.29957166 -0.36066663 -0.047211073 0.6922368
Kobenhavn 0.7445673 0.010539571 0.1862227 -1.1462553 0.01311847 -0.58675975 0.23402847 -0.63092524 0.23624547 0.46485317
Kogia 1.6581341 -0.12944098 0.8922014 -1.4245385 1.1544272 0.31463787 -0.23872183 0.09452422 -1.7567323 -0.5738998
Kokka 2.2094908 0.5388849 1.6522017 -1.295439 -0.50646824 -0.59777224 0.28129718 -0.11169104 0.0032306102 -1.3671572
Kongo -0.5097167 -0.8593903 -0.05737459 -1.1256168 0.24028486 -0.02413961 -0.703771 0.67776704 -0.36092475 0.6869694
Konoe 0.85105246 -0.75475746 -0.14539997 -0.6876557 0.25085682 -0.37028217 0.19388711 0.04684764 0.31540495 0.69247687
Korbut 1.2303855 -0.36030403 0.41040504 -0.77405393 -0.35716483 -0.6123497 -0.58221 0.19751507 0.18896335 1.117812e-05
Korda 0.042004723 -0.808888 -0.07342017 -1.3652865 0.08264856 -0.6243259 -0.67182654 0.42808568 0.131655 -0.39867592
Kore -0.24151075 0.4173486 0.29630885 -0.18206553 -0.31144226 0.38833258 -0.29690078 -0.21051203 -0.38466018 0.5004511
Kotar 0.9487543 -0.73468155 0.08794239 -1.3070965 0.22321776 0.007451514 0.007941945 -0.18231744 0.5729311 -0.2135784
Koweit 1.702472 -0.23787709 0.60175055 0.5389492 -0.025447084 -0.5202631 -0.15344933 -0.2162246 0.36966422 -0.2142188
Kremlin -1.2934138 -1.0861212 -1.0317211 -0.69075906 -0.023047946 0.8581341 0.017719472 1.1468183 0.25199544 0.4900263
Krishna -2.4832933 -0.8425238 -0.7767356 -0.015659887 0.97872126 0.7548552 -0.9680934 -0.3408378 0.84417367 1.7705312
Kroto 0.5584047 -0.5858477 0.15537585 -1.1209027 0.12303352 -0.2665872 0.115582444 -0.25131705 0.2732522 0.37018943
Kurdistan -0.5896983 -0.556776 -2.4957159 -1.577347 0.9017068 0.787389 -0.05990788 0.63181967 -0.24348612 0.8070305
Kuroshio 0.12557639 -0.07480101 0.30463114 0.21017301 -0.04937709 0.12971842 -0.018035436 -0.13422345 -0.043892425 0.0027282154
Kursk 0.057886895 -0.5103059 0.09106477 -1.420885 -0.059250347 0.729412 -0.15825161 1.1465687 0.2260638 0.469003
Kuwaiti -1.3336473 -0.243351 -0.8115496 -0.021744097 0.13641796 0.15161374 0.4875282 0.12938012 -0.18743129 0.04247011
Kwa 0.11393907 -0.808206 0.11899766 -1.2994542 0.52070403 0.013169435 -0.138099 -0.46753773 0.43067357 0.49418983
Kyushu -0.91088116 0.16547267 0.3237447 -1.7297004 0.2770449 0.8820112 0.57632357 0.2808792 0.5354803 0.046356
L'Enfant -0.5301706 -1.1826034 -0.29969817 -1.6019729 -0.60252154 0.43306765 -0.5009947 0.5201848 0.8112669 0.6443852
LBJ -0.8143547 0.071841456 -0.17827371 -0.07769553 0.06410758 -0.067317046 0.1847405 -0.22469081 0.14803952 0.12044677
LDL -0.94704276 3.0831769 0.0223516 0.860668 1.2947849 -1.1522489 0.5925865 -0.17000875 0.50916797 0.6527755
LED -3.3736258 1.3426968 1.9270966 -0.9695041 -2.3129146 0.53529364 -0.9389478 0.101438105 0.7905702 0.59851766
LOX 1.1821588 -0.49319315 0.29043582 -0.7132012 0.24768446 -1.2003125 -0.46706778 0.27934262 0.30537918 0.340595
LPN 0.5263952 1.599523 0.005120819 -2.013049 -0.3057416 -0.65144485 -0.5422075 -0.21670583 0.7749508 -0.14453863
La. -2.2569425 -0.78912145 -0.019175667 -2.410195 0.58893675 -0.11104205 0.8597415 1.0406082 0.15606914 -0.03653053
Labanotation 1.5080483 -0.25345483 -0.3329222 -1.0197631 -0.4679935 -0.46834373 -1.1804417 -0.37143034 0.2459618 0.32163277
Labridae 1.1783099 0.33359742 0.5369596 -1.2807826 1.0323359 0.7012446 -0.7528097 -0.6615999 -0.9471271 -0.62265617
Lacertidae 1.8126465 -0.34948903 0.5707899 -1.9588149 1.1466397 0.64660424 -0.5389625 0.091487214 -1.4713018 -1.4996231
Lagenaria 2.20613 0.060067628 0.6535853 -0.9709608 1.0813322 0.1521607 0.12672043 -0.5934952 -1.0865127 -0.6248103
Lallans 1.7101333 -0.07577777 0.047885995 -0.683978 0.04837244 0.19803573 -0.6101076 -0.1957739 0.2542707 -0.35777706
Lamiaceae 1.0987079 0.70910513 0.39879677 -1.5243334 2.0084074 1.0577792 -0.031461284 -1.068995 -1.0028822 -0.30623028
Lancelot -0.86147106 -1.2366966 0.32195184 -0.4550736 0.48097348 -0.42848694 -0.9932711 0.17846861 0.6390167 1.5545555
Lander -1.336248 -0.53585696 0.12418232 -2.2267041 -0.07810535 -0.19855048 -0.51586854 0.5802038 0.8790492 0.03467934
Langtry 0.32991034 -1.1097237 0.2986296 -1.4310142 0.42189723 -0.94880766 0.023217188 -0.23985946 1.1851728 0.50440395
Laridae 1.0167379 0.35226852 -0.08518365 0.28144753 -0.078781314 0.19900583 0.0665874 0.046750896 -0.51002765 -0.07579806
Larousse -0.037176024 -0.82149637 0.07737437 -1.0905746 0.33676234 -0.42475152 -0.560479 -0.7851215 0.29201365 0.7817939
Lascar 1.1360536 -0.8132881 0.18770447 -0.9264933 0.14192942 -0.31514382 0.23473918 0.43574747 0.44115946 0.25716522
Lashkar-e-Tayyiba 1.5119736 -0.064890094 0.1442705 -0.8613555 -0.05112384 -0.35681194 0.51888955 0.49880606 -0.85281223 -0.23272271
Lecythidaceae 0.686725 -0.27330393 0.08881018 0.2076013 -0.036263306 0.059970718 -0.61417013 0.39596555 -0.39466786 -0.66478527
Lee 0.117121294 -0.12428696 -0.0018949832 0.25350893 0.037221607 0.07453933 -0.055736717 0.009703786 0.092135645 0.0731342
Leeds -3.2210748 -0.97596765 -0.28802845 -2.098165 -0.12931952 -0.76679903 0.030947097 -0.1509963 1.1635331 -0.05438099
Leiden -0.92478347 0.3915168 -0.4303603 -1.7968901 0.9983312 -0.61260253 -0.7098152 -0.47079748 1.4920574 1.0868434
Lemnos 0.5435901 -0.70087606 0.2118123 -1.0003958 0.45243418 0.35772696 0.17443682 0.07794482 0.8157069 1.055585
Lens -2.3993037 0.70087385 0.823108 -1.6366179 -0.7462043 -0.44346702 -1.5792097 0.11015342 0.41155332 0.44366997
Leon -2.8719034 -1.5303472 -0.19961262 -1.9591249 0.6175859 -0.8523904 -0.8000092 0.80531645 0.6193988 0.23620045
Leonard -3.1738298 -1.4896957 -0.44887885 -1.6656991 0.550112 -1.1106528 -1.102669 0.34959248 0.99316883 0.31945425
Lepidium 1.5217924 0.80891937 -0.005862923 -1.1225748 1.7886994 0.898226 -0.03259525 -0.83690673 -1.1631933 -0.81639344
Leymus 0.39508697 0.25512064 -0.3124557 -0.5187528 0.028493756 0.080161214 -0.22473173 0.31962988 -0.37621763 -0.31014484
Libya -3.3936105 -0.86566556 -1.9803987 -0.82545745 0.39789623 1.083141 1.0084677 1.728428 -0.71395844 0.54248554
Lichtenstein -0.50554436 -0.55929613 -0.3306735 -1.1984993 0.43950173 -0.5602263 -1.0856428 -0.31521797 1.078329 -0.0051906332
Liederkranz 2.8815298 -0.8210844 -1.1708503 -1.620589 0.07379619 0.3408609 -1.2508758 0.5107402 0.5928638 -0.40358692
Lietuva 1.1203966 -0.36899 0.19706748 -1.0727637 -0.061966192 -0.5203014 -0.18024065 -0.35769752 -0.003426092 0.3061542
Liguria -0.21308556 -0.49805892 0.5472565 -1.2925384 0.4990455 0.8140406 0.18553966 -0.710549 1.0555173 0.27560088
Linaceae 0.136707 0.56079817 -0.166638 0.042863797 -0.0042832573 0.120717704 0.6601091 -0.3504157 -0.020486066 0.60994333
Linaria 1.4240824 -0.14054464 0.82226056 -1.3735327 1.2518318 0.30250606 0.12593813 -0.74077517 -1.1149632 -0.3262842
Lippmann -0.096216306 -0.44540617 -0.116191 -0.37409925 0.056471337 -0.7291658 -0.8777458 -0.5362507 0.6476622 0.5889106
Litany 0.13918746 -0.63834256 -0.16396363 -0.6800758 0.81699234 0.11112634 -0.7179438 0.0039388086 0.50363743 1.4888468
Livingstone -1.9356053 -1.271895 -0.72072417 -1.7779896 0.65399903 -0.23467998 -0.0928025 0.47335225 0.77605367 0.2863417
Lobachevsky 1.1294768 -0.34013134 -0.5799781 -0.6400361 -0.21654597 -0.49387807 -1.135081 -0.06849832 0.9966174 0.4512903
Lobata 0.28196064 -0.2575165 -0.08590743 0.06920688 -0.47984833 -0.37843496 0.42418933 0.16483304 0.83553463 0.21021408
Loestrin 0.9231501 0.626756 0.119012676 -0.9892884 0.35435304 -1.3123983 0.11197224 -0.56527245 0.3930723 1.2292688
Londoner -0.6194886 -1.2481314 -0.16722627 -0.34312353 0.2383119 -0.90197754 -0.22551149 0.14061764 0.67351663 -0.3757714
Lorenz -1.2259698 -0.28895402 -0.28403783 -1.4294925 0.095401324 -0.4722356 -1.5456742 0.025187535 0.55524516 0.23361278
Lot -2.736945 -0.7361633 0.7771395 -1.6861604 -0.19078726 -0.10319881 -0.016785882 -0.31290942 0.98757845 0.87645394
Lota -0.295545 -0.14269078 0.018084776 -0.032809183 0.15389244 0.07850805 -0.03894832 -0.026656464 0.0031342714 -0.093121074
Louis -3.2518659 -1.3454305 -0.20636602 -1.6075934 0.48109558 -0.74317867 -0.5244679 0.0922243 1.4410739 0.21163051
Louisianian 3.1778202 -0.54008424 0.07714201 0.16280742 -0.3538799 -0.4741367 0.14781404 -0.09640071 0.20267403 -0.15542911
Lubbock -2.2883775 -0.7593828 -0.20654163 -2.2457492 0.28081247 -0.8584694 0.7532444 0.27562392 0.77536654 -0.26460105
Lubumbashi 0.3474257 -0.51426244 0.032884732 -1.5049397 -0.38413543 0.02442616 0.5837841 0.5892887 0.26626348 0.21073835
Lucretius 0.65979576 -0.29767692 -0.65564394 -0.09701073 0.82361346 0.42776883 -1.7150321 -0.70650446 0.64238703 1.6258941
Lufkin -1.2100345 -0.6070919 0.053141374 -1.8697773 -0.2672479 -1.0810963 0.1807469 0.25181597 0.42189273 0.28741643
Lugh 0.70480114 -1.0334117 0.14106628 -0.45564315 0.86722106 0.15977341 -0.60671234 0.16769989 0.15270549 1.6314552
Lugosi -0.5841582 -1.049781 0.06546905 -0.3097224 0.414971 -0.8584913 -1.4523565 0.15490541 0.32385772 0.16404423
Lusaka -0.920853 -0.369655 -0.67714876 -1.9057703 0.036338717 -0.21211335 0.9603656 0.25248784 1.0829842 0.3583036
Lushun 1.4209812 -0.96946174 -0.064959906 -1.3598269 0.031636346 0.16318433 0.28239405 0.5162428 -0.21727511 -0.30361682
Luta 0.6485719 -0.65444636 0.066585466 -1.1066179 0.24469353 -0.35981175 -0.87115836 0.25632793 -0.11680714 0.54906005
Luzon -1.2123377 0.037329204 -0.06662369 -1.932164 0.67061317 1.1266602 0.5305252 0.8800205 0.3035373 -0.085180566
Lycaena 1.791674 0.0155585585 0.85529643 -0.9579105 0.6307439 0.3732718 -0.7361322 -0.04268098 -1.3170538 -0.6614484
Lycium 0.851184 -0.038329158 0.07067312 -0.16694483 0.063794866 -0.06407831 -0.12421488 0.090001024 -0.022198217 0.047238473
Lycopus -0.06595494 -0.07620999 -0.10533507 0.013798112 0.018726405 0.03981013 -0.0132334735 0.09547854 -0.015415485 -0.0048431046
Lycosidae 1.353679 -0.13781518 0.6589319 -1.5587634 1.6235459 0.14462265 -0.47756246 -0.22890583 -1.5143689 -0.800349
Lydian 0.26679784 -0.2376635 -0.058034286 -0.8166563 0.23796685 0.5405189 -1.0263628 0.051939238 0.37315172 1.2924173
Lysol -0.43733898 0.02500398 0.49098027 -0.22627358 -0.36380684 -0.96149516 0.90348905 -0.7863543 0.010053393 1.0719882
Lythrum 1.3182663 0.10919595 0.42892298 -1.4249268 1.0446638 0.6884888 -0.34994406 -0.11544012 -1.5959666 -0.3749658
M-1 -0.685745 0.2724995 -0.43105578 -1.6484523 -0.58567035 -0.4777428 -0.12495835 0.7881466 -0.401959 0.5857508
M.M. -0.3123906 -0.6010937 -0.5807478 -1.6284622 0.38511884 -0.9166709 -0.6628035 -0.0045022545 0.71590036 0.38306713
MA -3.0007823 0.42782122 -0.22201431 -2.392186 -0.07413358 -0.82181686 -0.46163717 -0.11780843 0.9818909 0.058311395
MDiv 0.31786993 0.12149547 -0.61650187 -1.053761 -0.021712834 -0.52231735 -0.3141083 -0.052561067 0.2731635 0.5934508
MKO 0.35853398 -0.123566635 -0.7405391 -1.0102398 0.4317631 0.093245104 0.23438503 0.7250281 -0.8170216 0.4297507
MMPI 0.5390293 0.6575961 -0.7127189 -1.1290246 0.1595915 -0.5544193 -0.079446755 -0.3767464 0.008131768 -0.3057662
MPS 2.6248872 -0.24437532 0.8003869 -1.4971555 0.83276314 -0.99747384 0.30767223 0.10102368 0.958737 -0.032909665
MP -0.40188116 0.4458634 0.46735588 -0.6857477 -0.034654535 -0.7170276 -1.1235293 0.049206663 0.13775803 0.079404905
MRI -2.6631246 2.487319 -0.28957054 -0.25817597 -0.058892895 -1.6947606 -1.2275674 1.0542959 1.6266737 -0.28720725
MRTA 1.1753219 -0.09748073 -0.5569517 -1.6919748 -0.09068744 0.15189812 0.11714622 0.45671228 0.2090487 0.41484192
MSc -1.7694415 0.5891727 -1.3077115 -2.347725 -0.46041754 -0.8599655 -0.5925765 -0.5113114 0.96561277 0.2587478
Macaca 0.3160754 0.06658848 0.11917489 -0.5277026 1.463884 -0.0023776705 -0.9703657 0.18249 -1.0550637 -0.7018893
Macedonian 0.18951264 -0.461102 -0.6338011 -0.026449833 0.038180128 0.4037754 -0.395699 0.39931935 -0.4248335 1.253912
Machiavelli -0.91746706 -1.341562 -1.4564852 -0.008462298 0.05952749 0.0069174734 -1.6562247 -0.6679907 0.42489037 1.4419937
Madeiras 1.0847764 -0.44189212 0.37222314 -1.0775226 -0.23137155 0.09299916 0.6082553 -0.24794474 0.5786914 -0.36261547
Mafia -1.549569 -0.6383566 -0.20808816 -0.9009508 -0.1766219 -0.58880043 -0.49539372 0.1382729 -0.47174808 0.17586422
Magi -0.857314 -0.85514545 -0.060325786 -0.7326506 1.1593599 0.29963407 -1.5403984 -0.5567605 0.686222 2.3442912
Magyar 0.5955919 -0.2396697 0.113568924 -0.22653317 -0.16774273 -0.5462902 -0.39384818 0.16130142 -0.590446 0.6807093
Magyarorszag 1.2773472 -0.6159586 0.0074349856 -0.6049522 -0.12875003 -0.18392834 -0.20224942 -0.12273665 -0.74499494 0.35776353
Maia -0.09921589 -0.02794847 0.13502555 0.0370843 0.09957903 -0.026869955 -0.057983447 -0.073080935 -0.2047251 -0.0019065876
Maidu 1.0179803 -0.56923676 -0.20061488 -1.5602381 0.4935145 0.3822993 -0.2137172 0.22597808 0.15925223 -0.302438
Maimonides -0.7786762 -0.4220724 -1.2345991 -0.32940373 0.87605166 -0.17637533 -1.5982949 -0.68861806 1.0571815 2.3728323
Maker -0.08914549 0.03947464 0.6166959 -0.24230917 -0.4811774 -0.72755295 0.45560375 -0.21005343 0.118061855 -0.053784028
Makin -1.2078906 -0.9847405 0.5461249 -1.0643281 0.14624916 -0.68753767 -0.17960523 0.1291857 -0.0821246 0.045828667
Malachi -0.9676879 -1.324766 -0.38761622 -0.40202835 0.7666507 -0.24632472 -0.83201456 0.46957374 0.22289018 2.2184176
Malacosoma 1.7072814 -0.23081182 0.7763145 -1.3329983 1.0024228 0.62760115 -0.31989703 -0.46219626 -1.5453384 -0.49832657
Marat -0.101750046 -1.4715654 -0.21078268 -0.7581994 0.29284635 -0.7989087 -0.5460182 0.7036346 0.33316323 0.611251
Marplan 1.5911139 0.7721234 -0.18451852 -0.56274587 0.82731706 -1.0490443 0.22236076 -0.51879203 0.5486333 0.39139193
Mars -3.3039052 -0.25400737 0.103572585 -1.0572377 0.44297317 0.7595685 -0.96832526 0.5417609 0.6476378 0.21162312
Medan -0.6444869 -0.6176555 0.0786402 -1.8510671 0.17220256 -0.09160787 0.46184084 0.09063189 0.65717304 0.6551548
Mexico -3.7952414 -0.6132459 -0.55437046 -2.1630254 0.97166616 0.88942575 1.1026908 0.22633797 0.22386056 -0.4684469
Moban 2.2486687 -0.12781851 0.008731509 -1.2495867 0.5141311 -0.1915505 0.13919692 -0.76787525 -0.3645493 0.20638324
Monterey -2.1596794 -0.4087815 0.67088175 -2.3679967 0.39564028 0.4909018 0.88352877 -0.7455911 1.30907 -0.5810331
Munchausen 0.10069446 -0.4490148 -0.5400436 -0.1462978 0.42221823 -1.2375182 -1.1847154 -0.12571444 0.15219718 0.040999
Nanna -0.2894026 -1.3347614 0.5856165 -0.51500314 0.6488152 -0.76189166 -0.6012806 -0.60507196 0.6853096 0.96755695
Nobel -2.7556205 -0.5258748 -1.5741215 -1.1115819 0.5842194 -0.6577213 -0.8909829 -0.087548405 0.52076167 0.973613
OPEC -1.8009752 0.18623696 -1.1881247 -0.5908726 -0.25765833 0.2908543 1.3475994 1.3062264 -1.020228 0.2627839
Palestinian -3.046113 -0.64492935 -2.5012207 -0.14157705 0.50816375 1.028592 0.58005196 1.0864986 -0.49392936 0.94014394
Pomo 0.122755505 -1.1540654 0.14118752 -1.2171693 0.31241256 0.73347944 -0.3244152 -0.35063836 0.13804244 -0.079996325
Rittenhouse -0.6160767 -1.0417314 0.45613015 -1.6874098 -0.2725241 -0.51424015 -0.07592949 -0.6374856 1.3588517 0.35472608
Saudi -3.3431122 -0.34559035 -1.6597265 -1.2194065 0.48564932 0.44292283 0.8981973 0.7883531 -0.6167171 0.6381506
Sceloporus 1.3373873 0.06659055 0.57548356 -1.5953187 1.037731 1.0075579 -0.808675 -0.14824599 -1.4068089 -1.0218316
Scorpaenidae 1.7161093 0.43365392 0.06330534 -1.4131066 1.3940494 0.5270571 -0.87776846 -0.11555493 -1.5539914 -0.8565856
Shiah 2.2931442 0.18502986 0.7363082 -0.6056329 0.00556691 -0.63376105 0.19460565 0.52577686 0.18513407 -0.4177893
Sills 0.48601562 -0.06340367 0.08246711 -0.02443312 0.007043847 0.046589527 -0.07630013 0.12330016 -0.05540275 -0.06017333
Skagerak 0.7220305 -0.5742668 0.030855041 -1.6430765 -0.50348824 0.60147226 0.65854543 -0.46975178 0.48983684 -0.5104724
South_America 1.9564724 -0.83760697 -0.37936154 -0.0938163 0.35108888 -0.8417487 -0.520518 -0.05971325 0.20236352 -0.3997198
Sully -1.5395097 -1.504908 0.2996369 -1.0059724 0.23249647 -1.0959063 -0.36248803 0.5723708 0.8062738 0.35253966
Talwin 1.3375643 -0.2650262 0.14603657 -0.8846258 -0.084413 -1.1724497 -0.123367324 -0.029734023 0.2184916 0.3077642
Volta -1.3508531 -0.50425845 0.0851641 -1.554397 0.12986332 0.32128635 -0.88030416 0.31857696 0.62590367 0.5049031
Wednesday -4.110492 -1.0567027 -0.2601789 -2.1838043 0.61185676 -0.78346 0.61794925 1.2351102 0.49561456 0.055599343
Wykeham 0.5480698 -0.7694437 -0.02240732 -1.5075915 -0.037294097 -0.26866534 -0.055554036 0.37905812 0.785171 0.73391443
Wylie -1.54593 -0.8714496 -0.03739276 -2.0581522 0.51293874 -1.0039651 -0.23662375 -0.056756362 0.6561704 0.12836848
Xmas -2.7042966 -1.2792081 1.1975437 -0.7479725 -0.20381384 -0.752387 0.030831221 -0.9106965 0.13255636 0.108573444
Yale -2.525087 -0.43628806 -1.2026156 -1.7367879 0.3029351 -0.7587147 -0.7942392 0.19467925 0.901199 -0.119026214
Yellowstone -2.3784814 -0.17131777 0.3944042 -1.8550664 0.9120675 0.9498301 0.7280844 0.2714623 0.7034263 -0.6824223
Yiddish -1.631358 -1.22853 -0.7232147 -0.37199804 0.6620915 0.020937022 -1.1923152 -1.1558421 0.45013005 0.66924953
Ypres -0.026748765 -0.760541 0.27558535 -1.5458069 0.3981984 0.3958104 0.15792626 1.0170528 1.0086554 1.164262
Yucatan -1.7301314 -0.32120678 0.61621815 -1.4901888 1.0655223 1.3961719 0.3818899 -0.19165704 0.71379185 -0.30132872
Yucateco 1.0945417 -0.47188053 0.1061477 -0.6416275 0.23701937 0.46025142 -0.18190713 -0.45518112 -0.36435205 0.16505295
Zambia -0.9351924 0.34715042 0.17011367 -0.749112 0.15919161 0.59258366 0.3506874 0.004668279 -0.025055846 -0.012831453
Zambian 0.25517842 0.21753676 0.33427927 -0.034835182 0.08317526 0.24417323 0.042732496 -0.20053339 -0.22746345 -0.24423034
Zamboni -0.19576852 0.16586117 -0.38092467 -0.3374296 0.8879701 -0.8895317 -0.8514011 0.39558476 0.8493691 0.07798346
Zangwill 0.5035249 -0.5949449 -0.25645977 -0.6146656 0.1443932 -0.39805984 -0.3779825 -0.0531624 0.44814947 0.48661703
Zanzibar -1.4298813 -0.73066306 0.15560623 -1.7646638 0.8363264 1.0060487 0.41361952 -0.4879798 0.7352397 0.2104811
Zend -0.9688755 0.42180082 -0.24912125 -1.2871104 -1.4237128 -0.2365005 -0.811322 -0.7876326 -0.19392872 1.2922151
Ziegler -1.5775242 -0.41305062 -0.664152 -1.5126377 0.162812 -0.9325691 -0.64141864 0.20340663 0.47219238 0.19345205
Zinzendorf 1.055431 -0.6678632 -0.12493182 -0.5401758 0.5486621 0.029248085 -0.0935578 -0.1694694 1.0954813 1.3908638
Zionism 0.78359956 -0.9072056 -1.7695698 0.51259214 0.7301804 0.38458744 -0.7129493 -0.7506014 -0.96843827 1.5208352
Zoroaster 0.117219016 -0.8190543 -0.49710423 -0.652724 0.9189542 0.91060245 -1.0727309 -0.22028859 0.12927452 2.4493015
Zr 2.5629218 0.31677783 -0.745269 -0.653188 0.73408234 0.24717163 -0.9363599 0.022218823 0.03369386 -0.21484062
Zu -0.8201814 -0.7932301 0.36218196 -1.0823786 0.22203912 -0.3743923 -0.8809292 -0.31698468 -0.0067461664 0.81112903
aardwolf 1.6464763 0.06682064 0.8089551 -0.5930099 0.8764277 0.20615138 -0.31889555 -0.15654866 -1.0329393 -0.7144886
aba 0.81620055 0.0688199 -1.7158717 -0.9778408 0.24615578 -0.9475538 -0.3063612 -0.74267477 -1.2204474 0.587684
abalone -1.0291033 0.5102101 1.8271726 0.0059110206 0.4931151 1.1988748 0.8421058 -0.58603555 -1.0333564 -0.09710223
abandon -1.2122496 -0.8829167 -1.7845919 0.43354 -0.10865965 0.5080867 0.28966588 0.27507785 -0.5254697 0.07036657
abandoned -3.583294 -1.0136493 -0.90169454 -0.08283656 0.4127882 1.2761755 1.0379655 0.88184637 0.0527475 0.06456893
abase 2.0497954 0.36985275 -0.16570976 0.6552365 -0.38411245 -0.13733023 0.21519558 -0.68935364 0.62068176 1.1808628
abash 1.8541079 -0.36152777 0.432722 0.5047253 0.57369775 -0.23542644 0.03447524 -0.20555504 0.57391447 -0.034337606
abashed 0.6398045 -0.92040384 -0.6499286 1.8728776 -0.7194595 -0.55290794 0.2589547 0.42268017 1.0277144 0.58834034
abashment 1.5496982 -0.48427793 -0.2617115 0.41580698 -0.16111565 -0.46355295 1.0669569 -0.5311036 0.19117434 -0.176571
abatis 1.5841763 -0.063257754 0.4409565 -0.34846625 -0.83857614 0.8728697 0.3050585 0.6909659 -0.24232692 0.5107706
abdomen 0.041945647 1.5326059 1.2419857 1.2942618 1.060322 -0.85771686 -0.7168556 2.197815 0.66972226 -0.08627486
abele 2.8639169 -0.28451237 -1.7008668 0.020693142 -0.44427934 -1.1651353 -0.16488911 -0.17462628 -0.16367874 0.15250072
abidance 2.3134189 -0.006996052 -0.5033011 0.52088124 -0.5976786 -0.2071591 0.72364277 -0.9722169 -0.20510128 0.1489368
ability -1.4362923 0.4552351 -0.0946626 0.5222545 -0.22978383 -0.20915511 0.3579729 0.18470557 -0.27858287 -0.13284652
abiogenesis -0.8413173 0.09000463 -0.13456945 0.0013461459 -0.13249232 0.030416874 0.21803072 -0.030156001 -0.16169831 0.024535349
ablaut 1.1327578 0.20365094 -0.11814836 -0.19267741 -0.17342007 -0.38011762 -0.8616091 0.023600627 -0.106541075 -0.6368017
abnormal -0.8813468 3.0049763 0.43133348 -0.201485 0.94605196 -0.45804825 -0.18261975 0.6488809 0.53480667 -0.36354524
abominate 1.1371561 -0.60895663 -0.601803 1.1095861 -0.42050225 -0.04757235 0.5589625 -0.50270844 0.229315 0.7466877
abortive 0.63694406 0.39056274 -0.2635916 -0.3024374 0.56768167 0.033249218 0.2265466 0.07447152 0.44900256 0.22241381
about-face -0.79704 -0.55576986 -0.9448683 -0.064397596 -0.00735315 -0.06936514 0.0012065715 0.09797025 0.20218332 -0.69043916
above -0.89505464 0.22567809 0.19840021 0.4626845 -0.2801009 0.624443 -0.060076687 -0.03189122 0.6314896 -0.053810973
abrasion -1.3801764 2.1767626 1.3759729 1.1632786 -1.0437714 0.28421566 0.36331993 1.0369284 0.5970895 -0.23546483
abroad -3.7201252 -0.43655303 -1.9043838 -0.42399994 -0.19644937 0.3910052 1.283401 -0.3832625 0.3784871 0.30720624
abrogate 0.053453892 0.41354522 -2.2324867 0.5917744 -0.19926968 0.10189684 0.8555497 -0.31832615 -0.3862908 1.3075672
abscission 1.58845 1.684778 0.2755355 0.29589558 1.008556 0.30483088 -0.41854095 0.29548922 -0.04851385 -0.10775419
absence -0.33537608 0.53059834 -1.279315 0.16275677 1.0350469 0.19548266 -0.7232928 0.8267515 0.7787248 -0.0092245415
absenteeism 1.2283965 0.7006189 -1.4200673 -0.194657 0.29958633 -0.7905741 0.6710855 0.0914423 0.22967856 -0.7503714
absolutistic 2.6195693 0.07196672 -0.71649235 0.36978835 -0.29849383 0.23128638 -0.15100855 -0.098744385 0.09290747 0.0036222376
absorb 1.0855265 1.499906 0.297491 1.3383423 0.11724668 1.1997434 0.40987304 0.16816618 0.5474493 0.19137813
absorbance 2.1097243 1.5641767 0.60995126 -0.038225744 0.5007218 -0.385931 -0.47643155 0.41708535 0.17773667 0.96027935
absorbency 0.34627372 -1.0568323 0.39067876 0.12034647 -0.62539405 -0.29584897 0.36087868 -0.40099373 0.03942332 0.28866467
abstainer 2.0429292 0.21100904 -0.38339338 0.3971121 -0.054967444 -0.48818684 0.5095645 -0.44894525 0.08435485 0.3614073
abstemious 0.11280333 0.027645262 0.26009423 -0.05205326 0.012171145 -0.009500085 0.0040891804 -0.004532513 -0.022770628 -0.121963516
abulia -0.27186543 -0.019394262 -0.017914344 0.02834484 -0.030497482 0.06302999 0.02321279 0.073231064 0.070588395 -0.05172383
abundance -0.47916865 0.14061068 0.7443503 0.5075695 1.1603051 1.545823 0.080563515 -0.833614 1.012679 -0.9578622
abuse -1.0556879 0.9487664 -2.0359287 0.14804557 1.0934277 -1.0460106 0.19289376 -0.0974243 -0.70435506 -0.24642672
acanthosis 1.4032968 -0.09423689 0.3862441 -0.02794683 -0.5897038 0.20476644 -0.16257976 0.18899168 0.1629548 -0.4202956
acanthus 1.067389 0.04230212 0.44913113 -0.26683685 -0.7692357 1.523539 -1.0286002 1.455653 0.6390307 0.4014257
accept 0.07864887 -0.03457295 -0.7963138 -0.5250847 -0.74122036 -0.14782953 -0.11664448 -0.06104472 -0.39505556 0.84337574
access -1.9210285 0.9967927 -0.11928859 -1.1180202 -0.74865973 0.41287673 0.42250258 -0.62915677 0.10505469 -0.24812683
accessory -1.5219232 0.30348578 0.11317126 -0.20673192 -0.68089426 -0.021013575 -0.46970013 -0.7344033 -0.112035565 -0.1364155
accidence 1.6049882 0.080488436 -0.1152724 0.10485185 -0.31575346 -0.24557878 -0.22944376 -0.5185574 -0.2267154 -0.06914375
accident -1.6322972 -0.21657348 0.21665348 -0.9801784 1.0086423 -1.1679217 0.8590027 0.32421216 0.23694602 -0.10416954
acclimate -0.7381958 0.12848541 -0.23953906 0.9745187 -0.63914585 0.019785034 1.3084406 -0.4411044 0.9746862 -1.03875
acclivity 3.1066773 -0.48978204 0.5110992 -0.36585897 -0.38697258 0.29550713 -0.3666251 -0.57734644 0.2098789 0.17487772
accommodatingly 1.2195215 -0.07593298 0.8397922 -0.7681767 -0.053817727 0.024163686 -0.087785624 0.3814979 0.10647205 -0.2943978
accommodation -0.3136873 -0.5835629 0.3334284 -1.4952701 -0.23490563 0.2622772 1.207695 -0.8655797 1.6726694 -0.46930978
accomplish -1.2154258 0.30610776 -0.7583105 0.5981149 -0.862194 0.15746537 -0.2566555 -0.3110678 0.3279586 0.100861475
accomplishment 1.2395841 -0.51546603 -0.17450057 1.0018132 0.39894557 -0.013051757 -0.27083024 -0.39070818 0.055302083 -0.1712273
accordant 0.75591063 0.14210221 -0.5641729 0.8208751 -1.4268272 -0.008013821 0.14620045 -0.8461038 0.5511076 0.71336186
account 0.46661565 0.2780808 -0.28879455 0.087268904 -0.60839546 0.32446197 0.35885847 0.04133473 0.12766959 0.8368454
accountancy -1.2172071 0.47096604 -0.29606438 -0.65633076 -1.04344 -0.42828223 0.1179099 -0.65345466 -0.10059481 -0.043740198
accoutred 1.8615861 -0.9943298 -0.063166425 0.45517024 -0.9690534 0.16756739 0.5238474 0.41834673 0.5136573 0.72307986
accumulate 0.15158258 1.2160002 -0.7405339 1.1759058 0.24376634 -0.088682845 0.90490687 0.37758234 0.40827984 0.010933817
accumulation 0.29528612 1.8565055 -0.5203606 1.2280407 0.7498813 0.039684378 0.75355375 0.8269861 0.72798824 0.19767927
accurately -3.481342 1.4028084 -1.0452101 0.7069073 -1.4659294 0.2685722 -0.5669534 0.08256087 0.38062304 0.29277068
acebutolol 1.8707292 0.95517814 0.05396293 -0.07378817 0.6575715 -1.5084016 0.3931211 -0.23706286 -0.014198324 0.10451875
acellular 0.26104754 0.3827752 -0.043991994 -0.34619105 -0.18658939 -0.91854715 0.0751427 0.5001287 0.32120478 0.21682476
acerate 2.6324484 0.4061386 -0.023604667 -0.5317122 -0.22774254 0.432294 0.36505997 -0.5621817 -0.053183373 -0.66216445
acetamide 1.2678252 1.2343919 0.21952358 -0.35511583 0.5281239 -0.3693917 0.25271133 -0.5588683 -0.3599905 0.5860576
acetanilide 0.46042147 -0.08873409 -0.066124246 -0.035724405 0.09429766 0.122700654 -0.111848265 0.111003056 -0.014467937 0.035939097
acetylcholine 0.15946016 3.4316883 -0.017276198 0.7973584 1.3612497 -1.1378866 -0.6325625 -0.047363155 0.40668684 0.032800578
acetylenic 1.6477513 1.4868343 -0.08298698 -0.036648117 0.17910194 -0.37188318 -0.004269653 -0.33804297 -0.016409064 -0.106283076
achievability 3.0183027 0.091001086 -0.46792272 0.021105103 -0.4712596 -0.05263545 0.7952148 -0.5297945 0.28068963 -0.5541725
achievable -2.3054051 1.2326761 -0.97492576 0.7154341 -1.5387712 0.2444152 0.4119026 -0.7877017 0.30594084 -0.2859999
achieve -2.2148757 1.5849155 -0.72594523 0.33622298 -0.75192624 0.4814898 -0.32643878 -0.05399096 0.6993413 -0.13118929
acidic -1.1659257 3.0497844 0.8189348 0.96313167 0.7880096 0.59968495 0.7482169 -0.078338884 0.3390635 -0.41772512
acidify 1.1953506 1.1944897 0.08719047 0.2789298 0.28254256 -0.34104136 1.0604181 -0.5347797 0.38385427 0.05635485
ackee 1.2681793 0.0078575695 0.9154653 0.19975787 1.0121948 -0.10759838 1.3393233 -1.3182483 -1.1367644 -0.0033832006
acknowledge -0.87477595 -0.025446685 -1.277516 -0.06519933 -0.08355757 0.15976948 -0.22992253 -0.0044049164 0.076658845 0.09911357
acknowledged -3.1258023 -0.45865825 -2.2815034 -0.278483 0.031406477 -0.060157508 0.013622512 0.30110347 0.42466426 0.32212833
acknowledgement 0.44596392 0.12167364 -0.5001348 0.3924299 -0.22235382 0.12362432 -0.08562224 -0.18190305 -0.19595999 -0.013965996
acme 0.525529 -0.040896393 0.47522023 0.358361 -0.5843795 -0.34122273 0.48864836 -1.4655381 -1.3505186 -0.024385082
acned 0.9772018 0.25801325 -0.13357183 -0.5972611 0.042650707 0.19488277 0.11236412 -0.22680698 0.16598043 0.27991763
acneiform 2.0380406 1.1333572 -0.15105635 0.26041344 0.6568057 -0.73215216 0.3692986 0.3004479 0.30716255 -0.8759753
acorn -0.4827079 -0.39523417 1.0644826 0.21450981 0.07114676 0.7565245 0.014287337 -0.04035079 -1.3360206 0.34134656
acoustic -2.3931649 -0.49629277 1.6187083 -0.17113099 -0.87944716 0.7932269 -1.5910228 0.70225537 0.9756223 -0.9343385
acoustics 0.2569989 -0.47312403 1.0821995 -0.078397974 -0.7452251 0.43716097 0.4396002 -0.25472453 1.1358765 -0.08492349
acquiescence 1.7010472 -0.68569994 -1.8823706 1.8213662 0.35673478 0.339567 0.17903566 0.98214924 -0.50351286 0.5880166
acquire 0.69180715 0.3749508 -0.87351096 -0.44829208 -0.7031731 0.19585264 0.4074209 -0.23419131 0.9941136 0.03284159
acquirement 2.9530125 -0.12182436 0.0791893 0.40927508 -0.41752803 -0.21472335 0.4745423 -0.63737684 0.18010221 0.45491698
acquisition 0.70490396 0.7523434 -0.6118936 -1.5554982 -0.4563388 0.008934215 0.10279739 0.23404509 -0.60606784 0.044701852
acquisitiveness 1.6384648 -0.43431556 -0.90373427 1.2249501 -0.8342218 0.42765883 -0.065785624 -0.71065927 -0.51795286 -0.19686048
acre -2.8636518 0.39624387 1.1732144 -1.4839638 0.086083904 1.4074011 1.8664774 -0.6208508 0.7485443 0.031398382
acrobatic -1.4863486 -0.8681494 0.47112548 0.7252678 -0.5521221 0.3441045 -1.1458582 0.3897247 0.102202184 -1.7199488
acromegaly 0.84067965 1.8321995 -0.2510763 0.38045025 1.5387433 -1.9540997 -0.33074313 0.01493218 0.7853729 -0.25189173
acrophobic 1.6784647 -0.74352366 -0.15191475 0.35797483 -0.39930406 -0.7616868 0.044561658 0.48881844 0.24508128 -0.9045465
acrostic 0.14940682 -0.11467311 0.25468403 0.3062768 0.24272256 0.14465903 -1.5681441 -1.0292257 -0.13511553 0.95198405
acrylate 0.8826822 1.8338075 -0.12060246 -0.855028 -0.3428581 -0.6552584 -0.9298427 0.4380349 -0.35141286 0.6226367
acrylic -1.529129 1.1459413 0.9104627 -0.009023644 -0.49948972 0.2812878 -0.33609748 -0.4289978 0.37623587 0.031388436
actinide 2.2404392 1.1956955 0.7959123 -0.24640347 -0.16454075 0.6331019 -0.27104515 -0.34347376 -0.049590442 0.13171357
action -0.27177826 -0.6836053 0.028872602 0.16116592 -0.10316025 -0.7479843 -0.5983071 0.17116383 -0.7612628 -0.3546262
activeness 1.5301414 0.23899427 -0.17348799 0.26612985 -0.6421012 -0.08585956 0.045761857 -0.6661151 0.55355483 -0.1474136
activist -2.2817528 -1.02244 -1.8989677 -1.5264827 0.5633215 -0.33424804 -0.16334748 0.17710385 -0.5349156 0.14976534
activity -0.5747212 0.98719114 -0.12465572 -0.57345974 0.9135023 -0.06945754 -0.4154742 -0.30924273 -0.14260226 -0.57745457
actor -1.3844494 -1.3040408 -0.84528476 -0.13862932 0.86011606 -0.94832456 -1.4564676 0.3350884 0.3169013 -0.7669329
actress -1.9979191 -1.4241103 -0.22904417 -0.19016653 1.312819 -1.3241584 -0.86861175 0.12570886 0.5446849 -1.0156063
actuality 0.94269675 0.39499712 0.39238945 1.0080748 -0.5442738 0.13785474 0.66132736 -0.031902846 -0.04094219 -0.05976838
actualization 1.7434314 0.41673404 0.2898714 1.4623052 -0.29210448 0.6591431 0.040875778 -0.9043708 0.8474766 -0.5905359
actually -3.6039011 -0.24434893 -0.4014766 0.4332444 0.18204935 -0.61459315 0.099981174 -0.042512186 -0.07242081 0.15830553
actuated -1.0913053 1.6765971 0.16494228 0.8026654 -2.2382286 0.2064762 -0.8303837 1.7445482 0.17673263 1.3180264
