8157 10
10-membered -1.3054178 -0.08315903 -0.059860278 0.25115997 0.06304909 0.012935107 0.066783376 0.035443734 -0.15145735 0.11591526
American 0.95751286 0.075675756 -0.07598324 0.85519284 0.6663301 0.60971993 0.44147897 0.39686292 0.053499293 0.23070271
Anaprox -2.6183364 0.04233483 0.8492343 0.22254272 0.9688584 -0.7603069 -0.5536599 0.36959094 -0.8544159 -0.30908892
Aqua-Lung -0.6869534 0.69596076 0.23484345 1.0458554 -0.3705543 -0.2280793 0.004639139 0.42066324 -0.24042213 -0.4217713
Aquitania -1.3142842 -0.11301759 0.16040252 0.1371906 0.03423619 -0.07380223 0.047963265 -0.08065407 -0.11653243 -0.0016652868
Arafat -0.7378752 -0.09597786 -0.016045326 -0.05139965 0.09714818 0.06765282 -0.12102765 0.08795248 0.044266164 0.030844348
BA -1.0881733 0.084616564 0.051578797 0.124398604 0.07802285 0.03235663 0.012678135 0.13509555 -0.03994666 0.06848454
Bahrein -1.2006333 -0.05827101 -0.009729359 0.21351199 0.020172358 -0.0154945655 -0.04929785 0.014007232 -0.0905576 -0.007454351
Bath -0.96546793 -0.017182784 0.119606145 0.21193671 0.117477156 0.12764776 0.084811896 0.072570525 -0.033960313 -0.0048800805
Bavaria -1.2576302 0.024518363 0.1043413 0.2386575 -0.0165792 0.07454233 0.086516604 0.024477463 -0.059674695 0.07710144
Baycol -0.9162999 0.037491858 0.045102254 0.24137941 -0.07010921 -0.0077431723 0.10805947 0.03767635 -0.14349101 0.04063137
Bayesian -1.1828485 -0.01345241 0.073686615 0.22921214 0.013749291 0.005170438 0.06362197 0.0801581 -0.04467284 0.05170635
Baykal -0.9794982 -0.05324021 0.0016513453 0.099801764 0.051365666 0.07050519 0.049168196 0.04900188 -0.06204067 0.11812762
Beaumont -1.457209 -0.3065524 0.08560696 0.06304944 -0.08782814 0.09072848 0.014990027 0.090667956 -0.07037418 -0.011457224
Beethoven -0.57796794 -0.6506183 -0.22993785 -0.12628746 -0.08189807 1.0398384 -0.20195326 0.20360713 -0.1024216 -0.094820626
Begoniaceae -1.3071115 -0.086333245 -0.007126993 0.11087524 -0.015895369 -0.046258923 0.062807895 0.039842866 -0.078489505 0.07501078
Belgian 0.3714743 -0.08512863 0.058600895 1.0453581 0.6457077 0.6587399 0.6709595 0.14292647 -0.25141057 0.3817812
Bell -1.1559639 0.044249635 -0.09361235 0.36366475 0.16437079 -0.022116741 0.07543985 0.0032347557 -0.07991192 0.033001646
Bemisia -1.3826537 -0.057541564 0.12207862 0.17164533 0.013332172 0.04261343 0.06346005 -0.06940821 -0.1202636 0.07397906
Benadryl -1.4059464 -0.014117145 0.039146923 0.22701375 -0.050616868 0.09907632 0.032667346 -0.01117744 -0.085161224 0.20202437
Berkshire -1.2374531 -0.18462175 0.12284831 0.25667742 -0.0010210794 0.091777995 0.06781819 -0.06573408 -0.17783238 0.11353147
Bernstein -1.2455238 -0.0019078135 0.15004523 0.11532423 -0.124246486 0.012432323 -0.031819355 0.026610058 -0.11079609 0.0656696
Bertillon -1.0128092 0.019303543 -0.011529193 0.14645554 -0.07170326 0.060552724 0.040146995 0.023338156 -0.07664698 0.026837423
Betelgeuse -1.0441705 -0.05414816 -0.1659501 0.08641606 0.053665515 0.011575543 0.042069692 0.04888598 0.032374 -0.029032491
Bethe -1.1516604 0.018856715 -0.006451896 0.28729686 0.16603288 -0.051834177 0.07509214 -0.026190918 -0.09229531 0.041827638
Bidens -1.1513822 -0.025871618 0.10833741 0.13608906 0.023293735 0.030107878 -0.10798592 0.1121143 -0.21336846 0.25617254
Bihar -1.4069093 -0.007482121 -0.034560293 0.23192985 0.027865237 -0.006086267 0.09971834 0.10738904 -0.058334038 0.11470884
Blackpool -1.0344354 -0.01035999 -0.04987299 0.19996832 0.07150774 -0.023687871 0.12507355 -0.11914108 -0.08859017 0.05242998
Blarina -1.0917724 -0.021101901 0.047652446 0.15306865 0.087873824 -0.032708768 0.036907587 0.05890037 -0.08394894 0.009915192
Bluebeard -0.75498384 -0.08559099 0.05949241 0.111593254 0.054940768 0.038829044 0.008972092 0.052985862 -0.071487695 -0.02530379
Bluegrass -1.284251 -0.10234224 0.036220353 0.138666 0.0012891829 -0.05205 0.16463567 -0.005498318 -0.1367359 0.03378301
Boche -0.2585225 0.23733409 -0.7338807 1.0472339 -0.052738167 0.034715436 -0.049778696 0.8211168 -0.13715644 -0.16904376
Bodhisattva -1.0075651 -0.09449727 0.10608796 0.06430608 -0.032154974 -0.00614204 -0.035417285 0.07854737 -0.11391413 0.059199747
Bodoni -0.60574156 -0.29204628 -0.63696474 0.08699101 -0.22366601 0.3128465 -0.53580457 -0.13801119 -0.07416046 -0.30865505
Boell -3.0494418 0.11735689 -0.45893064 1.118589 -0.1065677 0.15652779 0.054205943 -0.10977403 0.17762958 0.08876267
Boltonia -0.81097287 0.07719707 0.053520653 0.109802745 0.026284374 0.045500897 0.048556335 0.10894789 -0.025048494 0.08135889
Boltzmann -1.1838038 0.0657012 0.21819898 0.22374581 0.023967149 0.04711062 0.17760469 -0.09618967 -0.106430575 -0.031845752
Bombax -1.0454633 -0.06395677 0.09444464 0.19266373 0.0048197946 0.020716058 0.07275634 0.0014127038 -0.08013501 0.01753226
Bontemps -1.2230694 -0.0738107 0.15329883 0.23909922 -0.009092447 0.029739518 0.101716556 0.0755858 -0.078084886 0.17719732
Borago -1.2862095 -0.09556521 0.1639987 0.09703043 -0.07094693 0.093923055 -0.08924165 -0.011517521 -0.09700657 0.12131523
Boswellia -1.107834 -0.026359174 0.05747912 0.08084843 0.0053487536 0.1471697 0.004490593 0.08083382 -0.00834339 0.000102096434
Bourgogne -1.0637985 -0.023818381 0.088969655 0.1608741 0.047903366 -0.0016885356 0.11878659 0.051670957 -0.04858346 0.053239446
Bowditch -1.426633 -0.08409769 0.10754784 0.15520567 -0.16408709 0.08117984 -0.016695863 -0.004755365 -0.08394901 0.17530839
Boyne -0.9392006 -0.09166337 0.0059852847 0.084125 -0.062722236 0.071221 0.00041328798 0.11171413 -0.14292365 0.12054337
Bradbury -1.4802954 -0.054664742 -0.15224884 0.13934422 -0.040083442 -0.038183726 0.049775794 -0.027263183 0.07314379 -0.065029345
Braga -1.282756 -0.029664136 0.029611023 0.16130453 0.030347072 0.012274587 -0.051725592 0.1592467 -0.106563285 0.03135261
Braque -1.0858852 -0.06882726 -0.033844035 0.015256226 -0.016444795 -0.017849922 -0.0876514 0.10037318 -0.014162158 0.021558331
Brasil 1.2225022 0.027960885 0.14193808 1.4751865 0.7363327 0.27318633 1.01833 -0.040116314 -0.6488697 0.9031165
Brassica -1.2086786 -0.060833905 0.03032965 0.15981336 0.037872855 0.003944184 0.041140623 0.0906558 -0.07579271 0.04522752
Brazil 1.2255324 0.021224689 0.13424036 1.4810349 0.76046395 0.28104165 1.034576 -0.0558577 -0.64507365 0.87781894
Brazos -1.1288962 -0.07449628 0.08764293 0.15700878 -0.021755738 0.051098038 0.08956699 0.05060894 -0.19518965 0.115217656
Bremen -1.2092788 -0.02984522 0.18359116 0.45754316 0.09080043 0.077917315 0.25810754 -0.115593694 -0.20932338 0.00257202
Bremerhaven -1.9026865 -0.23966706 0.062740445 0.450882 -0.021122681 -0.00094704865 0.27465597 -0.23219943 -0.23331323 -0.09413699
Brisbane -0.5487834 -0.044559147 0.049430154 0.010220316 0.03250443 -0.032593403 -0.015272204 0.18144287 -0.10113924 0.109856814
Bruckner -0.9253771 -0.037394173 -0.0019177126 0.18362625 0.027699322 0.10048063 -0.10976285 -0.09381776 -0.036320426 0.05742724
Brumaire -0.9928674 -0.004210895 0.077359624 0.064003795 0.079429775 0.054466162 0.09475662 0.07291432 -0.030751292 0.027800867
Bruno -1.0812049 -0.099294126 0.07915894 0.12111208 -0.15081435 -0.041993503 0.11495412 0.13835333 -0.07256725 0.028200585
Bultmann -1.442358 0.08983077 0.14581433 0.24742208 -0.032702517 0.0071648215 0.060168207 -0.12725042 -0.13784012 0.079074994
Bunche -1.7969323 -0.14653677 -0.041447483 0.58531076 -0.011335825 -0.026469095 0.5212554 -0.17223816 -0.21551183 -0.039013676
Burbage -1.4984529 -0.15177284 -0.04800244 0.3947951 -0.032952122 0.0706122 0.28461885 -0.30842745 -0.23272648 -0.14103231
Burbank 0.40688136 0.18991867 -0.027756298 1.9909767 0.2953575 -0.25899437 0.8155613 0.3980247 -0.94723046 -0.08149817
Burger -0.60049397 -0.018732656 0.19911699 -0.1411657 -0.0009703835 -0.0008003517 -0.101522125 0.27951646 0.032127447 0.11427402
Bushman -0.8037916 0.13373677 -0.75928724 1.2504537 -0.12645641 0.016424943 0.13473396 0.6256084 -0.24879473 -0.23781843
Butler -0.94106615 0.13456957 0.13302182 0.015715178 0.03231761 0.12303816 -0.23075022 0.20551084 0.020850953 0.17569712
CDC 0.42809293 -0.43030328 0.24165428 0.63383967 -0.030526914 -0.3557202 -0.17884971 0.105611496 0.48537576 -0.04852704
CD 1.6672364 -0.3854913 1.4161417 0.5292019 -0.47374895 -0.65333027 -0.7108946 -0.6993475 0.43082768 -0.014880695
CFO -1.2156698 0.043304145 0.029541206 0.035765715 -0.03441495 0.03401099 -0.07388459 0.02342869 -0.07821146 0.065440856
CMBR -1.2701033 -0.11619679 0.06496162 0.12694563 0.035963114 0.14736333 -0.11024656 0.017380517 -0.052351367 0.02966789
CST 1.0628635 -0.58692896 -0.15322264 1.044945 -0.2583789 0.3978351 0.46243784 0.11307277 -0.6279331 0.31982577
C 1.5777333 0.8999272 0.97696644 -0.43333325 0.12749244 0.26991415 -0.10620844 0.28444725 0.0724 0.48042056
Ca 0.9370928 1.6392477 1.5824677 -0.1654547 0.01867142 0.08385132 -0.82720685 0.040450923 -0.5825083 -0.33841568
Cadra -1.3752943 -0.081480175 -0.0037369707 0.23941968 -0.15395406 -0.009574125 0.14872088 -0.02597185 -0.10582586 0.1567515
Caesalpinia -2.0679328 -0.18390864 0.034816913 0.36364684 -0.079860784 0.03928037 0.28798285 -0.22295281 -0.28701162 -0.012739747
Calamintha -1.0172982 -0.06315918 -0.0014658679 0.070202775 -0.06732066 -0.08557538 0.06649578 0.054322213 -0.038643856 0.18539213
Caledonia -1.3898355 -0.12858556 -0.17211416 0.12417125 0.008178557 0.10622296 -0.038220778 0.0029165882 -0.024051324 0.067687966
Cali -1.2714158 -0.05918416 0.11531887 0.3471583 0.04125342 -0.048843138 0.13229938 -0.10050223 -0.19330694 -0.12215749
Caligula -1.1025114 0.006465177 0.048480634 0.2790758 0.21945398 -0.0112091955 0.18009442 0.019088453 -0.039194956 -0.1557058
Calliphoridae -0.88556343 -0.06478055 0.051621526 0.22837794 0.14403905 0.026952662 0.043102384 0.081399634 -0.12016932 -0.12766325
Caloosahatchee -1.2531251 -0.10299914 0.15360808 0.0029070084 -0.2676135 -0.15302128 -0.17929128 0.23912203 -0.05219585 0.14672728
Cambria -0.89600915 -0.09052346 0.1641266 0.3739558 0.2842139 0.21207835 0.3732392 -0.20003131 -0.32010347 0.1684002
Cambrian 0.07692625 -0.18226425 0.010589517 1.1591723 0.6016557 0.55688775 0.7339466 0.08374804 -0.39870676 0.47201684
Cambridge -1.2252707 -0.14358196 -0.061887152 0.04217663 -0.02598542 -0.028581953 -0.120690204 0.15849514 -0.0028760107 0.1416824
Camlan -1.2044185 -0.025521995 0.17593302 0.20485474 -0.1187173 0.0018906911 0.107236385 0.101049095 -0.19193988 0.14368878
Campeche -1.2416883 -0.07502446 0.028052233 0.04257603 -0.05648 -0.06946391 0.094095364 0.09066236 -0.060217563 0.067451395
Canaan -1.197976 -0.019986844 -0.10050144 0.21886978 0.44563848 0.093258984 0.046097558 -0.029711539 0.056307103 0.008219497
Canaanite -1.0496145 0.020603811 0.05966214 0.14408101 0.06654766 0.02877774 0.1572247 0.044250377 0.005501166 -0.0027779918
Canaries -1.1789589 -0.23020847 0.17555895 -0.088229805 -0.20757425 0.025123844 -0.09649084 0.20577608 -0.18685909 0.16767634
Cancer -0.1866714 -0.13548486 -0.21707131 0.5149401 0.20669383 -0.011874272 -0.5229218 0.32029563 0.18860823 -0.0928956
Canetti -1.2004199 -0.08755395 0.17159201 0.011246208 0.036185224 0.07293021 -0.055116937 0.06658489 -0.015136187 0.01313591
Capek -1.284032 -0.06264608 0.072874874 0.116662964 -0.098282374 0.108213656 -0.013539615 0.0003358965 -0.09665088 0.13580541
Capone -1.1419168 -0.120002985 -0.0009707995 0.15685087 0.071090125 0.09657119 -0.009915262 -0.0046960344 -0.081854545 0.049935438
Capra -0.8212099 -0.06276261 -0.36467528 0.92177796 0.6600775 1.276334 0.022326622 0.54472077 -0.60358506 0.82184285
Capricornus -1.3616033 -0.03689122 0.1139547 0.15251811 -0.1423634 0.12717596 0.061028335 0.024976728 -0.07712333 0.07386949
Captain_Bob -1.325571 -0.07359167 0.16863243 0.021353073 -0.057304267 0.11667038 -0.13182203 0.087254636 -0.08905057 0.06173341
Carafate -0.83279 -0.27793917 1.0911969 -0.21860492 1.1352293 0.06888732 -0.46930653 0.20697804 -0.23945437 -0.9444273
Carangidae -0.82774866 -0.0427643 0.09544054 0.16121447 -0.019678349 0.011114213 0.11501564 0.06565595 -0.08561112 0.08059887
Carcharias -1.3158362 0.060469802 0.07477782 0.19391412 -0.019137993 0.009381352 0.11087912 0.14353901 -0.07098099 0.06336184
Cardura -2.072703 -0.18462546 1.0854175 -0.13756624 1.0719095 -0.18841963 -0.21288966 0.37072608 -0.21262236 -0.94259846
Carlsbad -1.3393985 0.072313234 0.13637751 0.21198368 0.07265442 -0.00077748706 0.15754025 0.0017894689 -0.10937476 0.02494682
Carnot -1.1902411 -0.066331185 0.021948608 0.11659764 -0.12526485 -0.0033623804 0.0342169 -0.011475268 -0.15387431 0.13902558
Carpinus -0.9978842 -0.08747049 0.17410707 0.13636266 -0.0038039044 0.07885859 0.06866472 -0.061077323 -0.11881809 0.077267215
Carpodacus -1.1141288 -0.072052 -0.04105609 0.10967342 -0.04878144 0.063570134 0.018568816 0.12863286 -0.054710336 0.046959147
Carter -1.0744207 0.010311112 0.05087614 0.16484827 -0.0063390485 0.050126817 0.015649112 0.019713994 -0.08966993 0.05335197
Cartesian -1.2500713 -0.033837553 -0.35438755 0.16502322 -0.15603535 0.130418 -0.493336 0.17010292 0.32771027 0.12646341
Cartwright 0.3196333 -0.49677885 -0.63824224 1.7121586 0.28152058 -0.034777172 -0.22418992 0.48957777 -0.75496334 0.31030455
Caruso -1.4292995 -0.11361159 -0.030490093 0.071331315 -0.073761426 -0.17530183 0.14133224 0.051305056 -0.021765199 0.047101215
Carya -1.0740473 -0.16833101 0.01700793 0.061047696 -0.03648548 0.015065758 -0.1176905 0.07048913 -0.15289521 0.04881683
Caryophyllaceae -3.476245 0.37306765 0.6786848 0.822171 1.2160282 0.53307444 0.98139167 -0.13643679 0.45983523 1.68703
Casablanca -1.1551349 -0.0017079263 -0.017877515 0.24219231 0.06504003 -0.04497148 0.15538831 -0.051511884 -0.05538124 0.04122906
Cassiope -1.0424433 -0.09638182 0.009253964 0.089212626 0.013882638 0.046312083 0.029621985 -0.021350482 -0.12370384 0.12576209
Castile -0.70680225 0.34499678 0.020014398 1.2993876 0.5162121 0.11951898 0.94379437 0.09233511 0.010609144 0.17714584
Castilla -0.70019525 0.3456355 0.017185455 1.2994096 0.5169836 0.12110772 0.94386834 0.0876308 0.011273554 0.1753132
Castries -1.2181411 -0.14888605 -0.0917418 0.12568596 0.13046876 0.038102873 0.03264062 0.01817325 -0.03678961 0.033942398
Castro -0.86245835 0.025497103 -0.001063209 0.13319597 0.06209864 0.0038004667 0.13084894 -0.059820376 -0.08208162 -0.0610144
Casuarius -1.2072116 0.009409256 -0.03563437 0.31988388 0.20304607 0.0020082921 0.14392628 0.040338185 -0.11952366 -0.030470006
Catapres -1.7375911 -0.15779547 1.1304564 -0.14175843 1.113611 -0.11111599 -0.30713698 0.3532579 -0.2899632 -0.9539464
Catha -1.2574921 -0.015232664 0.030896802 0.15232886 -0.037671316 0.059669506 0.070706695 0.03033645 -0.07777442 0.093021706
Catharanthus -1.1782976 -0.09073497 -0.12933598 0.20332082 -0.02504983 -0.088938385 0.13047583 -0.05194752 -0.09951228 0.11501603
Cather -1.366461 -0.022757722 0.013798516 0.2605608 0.11038183 0.074135184 -0.088985234 0.012701567 -0.044667955 0.06725857
Catholic 1.5471411 -1.8060427 -0.7473279 0.84721017 0.78167737 0.6893876 0.9051691 0.46832132 0.98996556 1.0774761
Catholicism 1.5491604 -1.8073275 -0.74838054 0.8459731 0.77941155 0.68732965 0.90705436 0.46664506 0.9899608 1.0790391
Catholicos -1.0345688 -0.045392543 0.03471607 0.1797373 0.07768801 0.096884035 0.09001379 -0.032934897 -0.11875538 -0.032914508
Catskills -0.77609164 0.30141196 -1.0014807 0.9531061 -0.10458827 0.039298143 1.5121832 0.31071788 -0.5584099 -0.5427503
Cattell -1.5153275 -0.03879107 0.03857402 0.14187676 -0.032155186 0.05435099 0.08407105 0.07710265 -0.13103455 0.19792467
Cayuga -0.8317845 -0.08640735 0.04312171 0.17170273 0.024817245 -0.033904802 0.17420867 0.025390899 -0.14701445 0.02471994
Ce 1.036219 1.657338 1.5965977 -0.20554754 0.01338882 0.08085842 -0.86546427 0.08520665 -0.56834525 -0.30945566
Cebu -1.038941 0.04559399 0.005347509 0.13492838 -0.041079517 -0.073589005 0.0871192 0.02875041 -0.17338893 0.011472033
Cebuano -1.3418313 -0.04807523 0.27115318 0.1977068 0.10367416 0.13068368 -0.026905999 -0.017896716 -0.10531856 0.07911315
Cecropia -2.564015 0.56573045 -0.04204738 0.89714396 0.61051 0.09958146 0.83600414 0.34192008 -0.03671279 1.1840742
Cedrus -1.0809716 0.10196319 0.06475434 0.29395148 0.20528279 0.047340058 0.13735482 -0.10108937 -0.17007042 0.021936119
Ceftin -1.2180096 -0.11024115 0.05151464 0.11031917 0.104608305 0.071385786 -0.0004930994 0.14804594 0.031163592 -0.03864703
Celastrus -1.0838771 -0.112321354 -0.031404555 0.21506937 0.20526761 0.065271035 0.034285054 -0.033964153 -0.037263524 -0.050899785
Cenchrus -3.151776 0.5995953 0.08687576 0.56830025 0.8800717 0.1769215 0.5595903 0.0064399294 -0.08252413 1.5748106
Centaur -0.72678417 0.5617873 0.33346683 1.2896231 -0.20047742 -0.16892466 -0.029810365 1.3129442 -0.6628683 0.61056274
Centaurus -0.72675407 0.55924064 0.33247146 1.2880752 -0.20379181 -0.16989487 -0.029367084 1.3134289 -0.6629051 0.6125251
Centranthus -1.2105175 -0.075307034 -0.010003391 0.07075468 -0.016762143 0.07937092 -0.053475328 0.0084076 0.073636204 0.073182225
Centropus -0.9872941 -0.037350547 0.09169163 0.3020519 0.018502856 -0.0026220796 0.16143051 -0.037362948 -0.09016605 0.06786317
Cephalotaxus -1.0223069 -0.018490558 0.0168737 0.1413263 0.033536933 -0.04425358 0.069318004 0.043995526 0.005448956 0.023480104
Cerambycidae -1.376584 -0.034783747 0.25146553 0.14958249 -0.048215985 0.07182563 0.020735135 0.09750449 -0.23261832 0.15129068
Ceratophyllum -1.148152 -0.22828257 0.10649315 0.09873988 -0.018117962 -0.019833257 0.023006734 0.013456806 -0.1616082 0.034482464
Cercopithecidae -0.6195303 0.026007712 -0.008273867 0.24721462 0.064952634 -0.0586574 0.23047318 0.044707816 -0.11159633 -0.005921318
Ceres -1.5336051 -0.044811048 0.17125528 0.1338811 -0.09774628 -0.00655468 0.13125652 0.03786157 -0.055647995 0.06718574
Cestoda -1.9502615 -0.29717112 0.9182893 0.6858897 -0.00412269 0.42859516 0.3277021 -0.124206536 0.14567666 0.3612327
Cetorhinus -3.137868 0.27324364 0.35799223 1.1953365 0.039422333 -0.45915672 0.48787728 0.5195175 0.115630075 1.1515418
Cetus -1.4639999 -0.039017167 0.17231168 0.08184077 0.009003263 -0.0019124731 -0.048561756 0.12615943 -0.14462133 0.07730379
Cezanne -1.4593481 -0.14746796 0.048627183 0.15941904 -0.0155202765 -0.034624428 0.029126002 -0.0014995249 -0.06428149 0.037169773
Chaetognatha -0.97127026 -0.07498152 0.07568815 0.03856531 -0.0018495499 0.011875959 -0.08002693 0.06593944 -0.09974341 0.020116884
Chaga -1.133723 -0.023576899 0.06738672 0.07038228 -0.08808333 -0.02882132 0.077667594 0.045113057 -0.06398787 0.043198425
Chagall -1.1871973 -0.14508557 -0.07674909 0.14111857 -0.0048595043 -0.01920797 0.05253004 -0.074189916 -0.03962723 -0.036092497
Chagatai -1.1509906 -0.15796198 -0.02535207 0.073843054 -0.002708301 -0.0026581786 -0.006917919 0.059023537 -0.08370928 0.0429857
Chaldea -1.1913942 0.039584734 0.017131664 0.2321638 0.03614318 0.03333814 0.126124 -0.02600835 -0.07593592 0.01733861
Chalons -1.2775618 0.06648394 0.019038359 0.26589882 0.004060634 -0.045570113 0.091947876 0.08601255 -0.17882515 0.054197807
Chamaecyparis -1.1004951 0.06280936 -0.06802241 0.19449554 -0.03636261 0.023685297 0.07298286 0.019571828 -0.09620062 0.040756423
Chamberlain -1.246024 -0.07834457 0.00074681663 0.04406436 -0.05584272 -0.026124557 0.021940866 0.03432834 0.005654968 0.050026167
Champlain -1.2177458 0.10474148 0.13430348 0.19369236 0.09767216 0.053065404 0.04603461 0.1338302 0.033791702 0.027430193
Chancellorsville -1.3627062 -0.091623954 0.061900456 0.033253394 0.019236386 0.05483643 0.051158883 0.016057169 -0.1303219 0.052334823
Chandler -1.3086374 -0.07902926 0.04104572 0.22135745 -0.025286848 0.100274816 0.07561908 0.033949416 -0.08439678 0.14817686
Chanukah -0.9207165 0.01786935 -0.39812613 0.63092124 0.69960713 0.6697123 0.43825552 -0.6602512 -0.41370884 1.1127563
Chanukkah -0.9205852 0.018249735 -0.39813092 0.6307687 0.6996933 0.6698332 0.43807778 -0.6598869 -0.41377532 1.1128244
Characidae -1.2872685 -0.031412903 -0.03025638 0.15116222 -0.021715054 0.071667746 -0.08896014 0.028011587 -0.030423736 0.053483203
Charcot -1.2485816 -0.1104237 -0.067952655 0.06543229 -0.043878283 -0.0058490643 0.071089014 0.011283582 -0.111483425 0.109510735
Charina -1.2700819 -0.04097442 0.06887222 0.13660859 0.011949471 0.049238242 -0.06307262 -0.024643203 -0.08289245 -0.017731294
Charlottetown -0.75015974 -0.11167631 -0.21529873 0.04132113 0.015619797 -0.05920756 0.10156869 0.060385305 -0.07090227 0.04790925
Charybdis -1.2059555 -0.059891045 0.00274537 0.23426057 0.115249604 0.07829591 0.0282297 0.0059786025 -0.09684959 0.016029384
Chimaera -1.5341495 0.015294292 0.07274763 0.0978587 -0.04778352 0.012694326 -0.013008601 0.061587144 -0.13001245 0.13217096
Chisinau -1.0286925 -0.0839341 0.058735803 0.13181636 0.14532632 0.06721203 -0.008328325 -0.004160135 -0.03780899 -0.062342074
Chlorophyceae -1.9291476 -0.29384422 0.9230867 0.6808963 -0.0030997188 0.42870855 0.32503447 -0.11839118 0.14521828 0.36038905
Chuang-tzu -1.2063078 -0.0047207098 0.047829714 0.11783649 -0.018639999 0.074210055 0.040516105 0.10828582 -0.078101285 0.022407519
Chuvash -0.99914634 -0.07257306 0.031008912 0.25108323 0.11762997 0.0074760886 0.038900748 0.053408213 -0.07722232 0.067274064
Ci 1.4889852 1.0622642 0.19777988 0.31981704 -0.24913707 0.56904995 0.32070774 0.13508652 -0.066681415 0.009665622
Cicadidae -1.3325211 -0.04689287 0.07219589 0.11654808 0.020184366 -0.06663009 0.11762748 -0.07672943 -0.023508826 0.056814685
Clarksburg -1.015345 -0.15235692 0.08225004 0.1676496 0.045210674 0.014621374 0.09917586 0.0862212 -0.10781835 0.09744872
Claviceps -0.98210764 0.011702596 0.11128964 0.23648903 0.049518287 -0.077313535 0.05887543 0.012106557 -0.14028516 -0.05017989
Cleopatra -1.4505821 0.050966885 0.093638726 0.2403397 -0.1249644 0.013667292 0.08951397 -0.059296753 -0.16625585 0.10824467
Clinton 2.3430178 -1.3138157 -0.936004 0.9730811 0.49006838 -0.7806013 0.15782447 0.48915043 -0.22192934 0.40366763
Clioquinol -0.10940997 -0.4318266 1.1514049 0.59774095 0.5281608 -0.18618993 -0.7093083 0.15044822 -0.030755466 -0.37842232
Clitoria -1.3271147 -0.08764082 -0.074919164 0.13832822 -0.0057177763 -0.0806194 0.1668801 0.035685975 -0.06472566 0.07399961
Clive -1.0308952 -0.01672629 -0.045811817 0.20943856 0.10017006 -0.00030557057 0.03512104 -0.011387208 -0.03333526 -0.05267671
Clytemnestra -1.1384046 0.0338684 -0.02014582 0.25416583 0.025948731 -0.06969814 0.105111025 -0.0611876 -0.15953839 0.0003523338
Cnicus -1.1001762 -0.002118407 -0.10738097 0.1409064 0.049675997 0.02861745 -0.0632517 0.06117279 -0.029255934 -0.01784818
Cnidaria -2.5066745 0.57504845 1.1753186 0.47648776 1.1077334 0.31952238 0.62287706 0.8955511 -0.6228084 1.3253609
Cnossus -1.343121 0.041758083 0.05179443 0.23825823 0.0035285198 -0.056726284 0.20581587 0.12333812 -0.13439372 0.13080302
Cnut -1.2837882 -0.07864574 0.15183836 0.19781846 -0.009122697 0.057411667 -0.047181077 0.09505088 -0.08851544 0.008655759
Co 1.047126 1.66123 1.5982511 -0.20962416 0.014642215 0.08188065 -0.8708213 0.08999269 -0.5669698 -0.3077432
Coahuila -1.1589713 -0.08193866 0.060561877 0.2247352 0.015868664 -0.016631568 0.06488045 -0.007745132 -0.2372016 0.025256895
Cocopa -1.0252129 -0.108356826 -0.029094681 0.051907316 0.0034034478 -0.03900459 -0.006399309 -0.05668284 -0.034766596 -0.11542606
Cola 0.55176175 0.80341834 -0.1192616 1.0644034 1.2103971 0.010492987 0.18147923 -0.95341915 -0.7669784 0.47467458
Colaptes -1.0293394 -0.11090752 0.013375929 0.09822552 -0.04189704 0.020039741 0.117779195 0.115051396 0.003785705 0.062276393
Colchis -1.2408375 -0.011538046 0.1892527 0.25765738 0.02150634 0.0233845 0.11324518 0.045020513 -0.24265178 0.07271798
Coleridge -1.1395185 0.0020572124 0.006201291 0.0642773 0.002836417 0.014121954 -0.0008849314 0.028215561 -0.09782374 -0.025418568
Colocasia -3.1453464 0.6012 0.08863345 0.5656283 0.8783036 0.176713 0.5561519 0.009708577 -0.08283872 1.5769057
Colombian -0.9503191 0.047006223 -0.08019451 0.18030418 0.12019748 -0.01175361 0.091614686 0.006116869 0.028547507 -0.05327902
Colony -1.0228212 -0.06201385 -0.10530678 0.036354553 0.003285592 0.039166898 0.06051871 0.10556007 0.043294508 -0.013884868
Compositae -3.2497914 0.66975605 0.85969424 0.9055945 1.7650007 0.36444247 0.8951365 -0.13860938 -0.5363427 2.0337367
Conakry -1.2563249 -0.19989638 -0.08916559 1.3998578 -0.25579217 -0.9006904 1.134747 0.285957 -0.8729635 -0.0973962
Condorcet -1.1320319 -0.04312008 0.13033107 0.14535657 0.012627708 0.04749732 0.07930031 -0.035484172 -0.008253229 0.043041993
Confederacy -1.2319223 -0.066054404 -0.10573807 0.080867395 -0.04516845 0.053266954 -0.0112959985 -0.04633646 0.029290624 0.035561282
Confederate 0.3564583 -0.28160375 -0.86502934 1.0428028 0.1623529 0.18774247 -0.6485672 0.20923351 0.078865014 -0.10178694
Confucian -0.7433112 -0.052297674 0.09624636 0.17870405 0.034688327 0.10889658 0.0950307 0.02252421 -0.09272227 0.020186383
Confucius -1.2415104 -0.10040341 0.070449665 0.25543934 -0.073150806 0.059141863 0.0573367 -0.038562115 -0.083944224 0.09085296
Congreve -1.4267999 0.013238714 0.06647872 0.28855973 -0.011701193 -0.12838641 0.10752514 0.034759972 -0.14413397 -0.009073124
Connecticut -1.1070132 0.055232722 0.16412438 0.22866333 -0.005498583 -0.016578792 0.14925724 -0.012658453 -0.2070452 0.08538172
Conoy -1.3690383 -0.13899265 -0.032280482 0.28326488 0.09232847 -0.02670784 0.067799136 -0.05113313 -0.11013845 0.038903058
Conservative -0.5271757 0.8259782 -0.3729566 0.62675273 -0.31109422 -0.35387996 -0.63611835 0.6882682 -0.011736145 0.19045435
Constantine 0.25479153 -0.65276873 -0.907741 1.525264 0.29755136 0.34647182 0.6587289 0.7935193 0.39154607 0.89936715
Continent -1.3822294 -0.15869124 0.32257476 0.19563693 -0.052868888 0.14280713 0.101970755 -0.09553096 -0.18807459 0.12729235
Contopus -1.3751304 -0.0049950234 0.017206354 0.19640554 -0.025614293 0.16061279 0.011016035 -0.12688725 -0.08460988 0.07935825
Coosa -1.5154324 -0.117829576 0.0850062 0.086332016 -0.006209392 0.013838572 0.011697392 0.12700768 -0.040462464 0.08080276
Copernican 1.2488887 -0.624781 -0.12555845 0.15118694 -0.042779684 0.60503787 0.21708421 -0.05007654 -0.4629144 0.014150239
Coprinus -1.183196 -0.15171471 -0.058430225 -0.033353195 0.0022328272 0.11000205 -0.068774916 -0.006790264 -0.025633967 0.039351184
Coptis -1.1865666 0.013117832 0.23414409 0.2077428 -0.03977695 0.097328536 -0.05315138 0.033880714 -0.116683565 -0.00754132
Cora -1.1990018 0.10023514 -0.5229528 1.066196 0.2455874 -0.012979646 0.082853675 0.33549076 -0.07232291 0.40111697
Corchorus -0.92418873 -0.020926364 -0.0006451485 0.212171 0.17812651 0.107789285 0.1887147 -0.05242859 -0.07256751 0.01020767
Cordarone -1.2220393 -0.02027176 -0.045504294 0.08261795 -0.034706958 0.080801986 -0.072750725 0.062444814 -0.07486646 0.042256508
Corday -1.1137141 -0.06774362 0.16677998 0.13216543 0.032512672 0.05999442 0.020459708 0.05224274 -0.06806666 0.03863861
Coriandrum -0.91023016 0.08349055 0.039361734 0.17622772 -0.017354492 0.09018413 0.027329024 -0.057012204 0.045454994 -0.022098577
Corinthian -1.0453988 -0.013530727 0.0848482 0.08591111 -0.078538924 0.12863031 -0.05749205 0.027049927 -0.11440706 0.04014179
Cork -1.1287019 0.03355242 -0.04784294 0.22922626 0.06943691 -0.08173495 0.16120085 0.036338795 -0.136147 0.09645633
Cornhusker 0.39921725 0.10726208 0.014948873 0.8769795 0.5147143 0.4724769 0.54405576 0.34208465 0.06659573 0.19374283
Cornishman -0.9210542 0.013718403 0.050144423 0.14169654 0.053037822 -0.05191185 0.11599165 0.081723906 -0.11031283 0.0064650527
Cornus -1.2161617 -0.19242088 0.025243267 0.07966777 0.07280232 0.1267744 -0.065595016 0.032098796 -0.1377785 0.093577676
Cornwall -1.2934468 -0.06234697 -0.07071944 0.15478349 0.037508268 -0.09652787 0.13654985 0.049283028 -0.16247751 0.050873984
Cornwallis -1.0091202 0.07626403 -0.0016097171 0.262984 0.02592454 -0.17888713 0.26214567 0.08202419 -0.111903295 0.0114644505
Corse -0.239471 0.3011591 -0.04801426 1.5349109 -0.2022175 -0.050051596 1.0435975 0.102401614 -0.12693948 0.22370909
Corsica -0.23933466 0.3010435 -0.04777526 1.5348094 -0.20239627 -0.05002062 1.0435408 0.102304794 -0.12718408 0.22359775
Corticium -1.0474446 -0.08602054 0.21690002 0.060906406 -0.0051795333 0.19358094 -0.1803688 0.07366574 0.0006618642 -0.0017592367
Corydalis -2.9366386 0.71545607 0.32274306 0.59547794 1.4154699 0.3362543 0.6971851 -0.2419504 -0.21397382 1.3026241
Cossack -1.1264609 0.08106959 -0.038372807 0.28185022 0.015502578 0.025528982 -0.001532794 -0.029568229 -0.05668377 -0.07777432
Cotopaxi -1.2313809 -0.054183424 -0.005102971 0.16762024 0.10404529 -0.034913883 0.014728162 0.049078837 -0.02227451 0.10248616
Coumadin -1.2303305 0.05308564 0.009114454 0.26186156 0.15987547 0.005855243 0.110692136 0.072662175 -0.013440234 0.030185476
Cowper -1.233928 -0.059001125 -0.04580081 0.20957853 0.058798842 -0.05743673 0.041487157 0.022599243 -0.13471426 0.09971062
Cox-1 -0.9423677 -0.28637305 -0.02899933 0.8450467 0.36577636 -0.032897823 -0.20509844 0.5459907 -0.2968679 0.22869042
Cox -0.94197 -0.28628984 -0.029020617 0.8450618 0.3658435 -0.032918673 -0.20506074 0.54598165 -0.29685855 0.22869402
Cr 1.0352468 1.6591929 1.595576 -0.20660833 0.015118782 0.082432225 -0.86897343 0.086123705 -0.56656414 -0.3082487
Crab -0.3144671 -0.14297739 -0.2814172 0.5148075 0.21099113 -0.004443841 -0.5649688 0.30787045 0.2400789 -0.044377003
Crangon -1.1178188 -0.011578389 0.011387673 0.105425 -0.07057779 -0.05976453 0.115809895 -0.043350317 -0.016596451 -0.011950866
Craspedia -1.3040277 -0.08118777 0.3156745 0.16187888 -0.01563627 0.08539329 0.0581074 -0.063875884 -0.10893647 0.08670093
Crataegus -1.3090873 -0.24253877 -0.08767216 -0.025413388 0.00057792617 -0.026924 -0.022558598 0.040699042 -0.0058420515 -0.030163616
Crax -1.1272805 -0.104921125 0.22678594 -0.008857569 -0.07566529 0.06376328 -0.038661115 0.08879796 -0.11611449 0.063217595
Creation -1.217163 -0.006237694 0.20124337 0.11493974 -0.116672546 0.028351381 -0.009699382 0.18296376 -0.11373068 0.14441523
Creator 1.5694524 -0.38468853 -0.09028482 1.5219058 0.15354386 0.5331481 -0.5037515 -0.5457774 -0.36651784 0.866165
Creon -0.9345252 -0.11314146 -0.031505823 0.17152736 0.10688564 0.047828056 0.024843393 -0.08934031 -0.034289967 -0.01395402
Crepis -0.9462198 0.021861237 0.07580882 0.217837 -0.0020457874 -0.0074677947 0.047006674 0.034986228 -0.14791405 0.024607943
Cretaceous -1.2220898 -0.09288385 0.08821191 0.13563609 -0.11297873 0.010454576 0.09119756 0.039494403 -0.13876377 0.057350125
Cretan 0.35055676 -0.09434596 0.035812147 1.045277 0.6598029 0.65891623 0.6759507 0.14710216 -0.2375633 0.38551298
Crete -1.0447693 -0.035998616 -0.07873759 0.20974837 0.21192251 -0.032321587 0.07305233 0.017496984 -0.051991004 -0.15324728
Crockett -1.0191046 -0.11180721 -0.11087341 0.20346639 0.11752537 -0.029249975 0.08458 0.078642994 -0.03347984 0.0006081879
Cromwell -1.0738231 -0.5283877 -0.479091 1.4696053 -0.05802358 -0.36881384 0.3836313 0.25539866 0.29061636 -0.2158054
Cromwellian -0.9788216 -0.4837584 -0.4479866 1.3741331 -0.022955472 -0.34151146 0.3509511 0.24396399 0.28174052 -0.21095385
Crotalidae -1.3561308 0.07270887 -0.03122453 0.36334503 0.1140552 -0.06851107 0.12485641 0.013023483 -0.02999087 -0.03319091
Cs 1.045263 1.6600828 1.5962692 -0.20814864 0.01737259 0.08252102 -0.8681523 0.08752255 -0.5665179 -0.31096193
Ctenocephalides -3.1665568 0.6079767 0.63424826 0.7345454 1.3486878 -0.4676416 0.6065025 0.5407228 -0.2048185 0.9910895
Culebra -1.0796424 -0.014977259 0.020843804 0.24190567 0.19633114 0.013886203 0.03890355 0.040897455 -0.2078734 -0.002778263
Curacao -0.93355024 -0.0054595787 0.02887096 0.21602765 0.005101963 -0.03104272 0.14611453 0.03843241 -0.17637263 0.07177245
Curie -0.2426457 -0.29237077 1.0888213 1.1112874 0.33713484 0.53241926 0.025605794 0.57154816 -0.84365827 -0.30362707
Custer -1.1409255 -0.21614176 0.07606538 0.12434993 -0.006738093 0.034756295 0.038247712 0.010208525 -0.15193038 0.060101405
Cuvier -0.97975856 -0.007892718 -0.049385153 0.14357933 0.035697956 0.06687594 0.021985099 0.08291302 0.024517784 -0.060575668
Cuzco -0.74276924 -0.08607534 -0.11547393 0.16435975 0.17975503 0.09136746 0.10350646 -0.012236596 -0.08801805 -0.02861366
Cyclades -0.86777633 -0.08574583 -0.08503509 0.1323519 0.10189435 0.024033936 0.032010388 0.054180186 -0.049178883 -0.057104092
Cydonia -1.053804 -0.16847415 0.0366301 0.012866604 -0.061467025 0.05032259 -0.09256314 0.06411343 0.0073960344 -0.06802449
Cynewulf -1.0094472 -0.04876621 -0.06733333 0.22355472 0.06793936 -0.11038189 0.17739369 -0.107292384 -0.062092483 -0.007665219
Cyprus -1.3080562 -0.11611797 0.14803815 0.09445969 -0.05751238 -0.020407483 0.018478869 0.08947055 -0.16159762 0.09097574
Cyril -1.2194474 -0.07396632 0.12619658 0.27361336 0.11912877 0.089320496 0.058665432 -0.056652 -0.0006280276 0.02677423
Cytisus -1.3446532 -0.010565869 0.015027504 0.018969793 -0.041631844 0.05787937 -0.035541806 0.058499306 -0.035618167 -0.0048135575
DDS -0.9195584 -0.16162378 0.08634014 -0.017143553 -0.03464431 0.03292893 -0.06332055 -0.0008186665 -0.071562216 -0.050392017
DOS -1.4359074 -0.0019739089 0.19606856 0.1407436 -0.06445622 0.033996057 0.07886389 0.04647454 -0.081670396 0.04612981
Daba -1.2122515 -0.06523704 0.09457157 0.01885794 -0.016443564 0.04111843 -0.10565878 0.17622586 -0.060082134 0.019474223
Dactylis -3.1501188 0.60065556 0.08706757 0.56730616 0.8791884 0.17689204 0.5574027 0.007868092 -0.08249274 1.5761756
Daedalus -1.269017 -0.07210182 0.1381648 0.16227703 -0.045137983 -0.0004986876 0.009210943 0.09485054 -0.09489347 0.07981591
Dahomey -1.0641778 -0.06690386 0.107114494 0.18590486 0.06968427 0.06409103 0.0662201 0.014522906 -0.08845578 -0.026823228
Danau -0.8839129 0.04636264 0.02986789 0.16141637 0.029135603 -0.031254333 -0.052016973 0.08258632 -0.027572922 -0.028829481
Dari -1.3322558 0.01516988 0.097653225 0.04039068 -0.103752024 -0.059401285 -0.054072082 0.07938789 -0.061224606 0.03648295
Darling -0.97548187 -0.1283017 -0.15415525 0.10542965 -0.033853747 -0.005388136 0.029131033 -0.0611942 -0.093029566 -0.03385739
Dartmouth -1.0438387 0.06293562 0.049730342 0.2462627 0.062974066 0.14777048 -0.012450767 0.046244625 -0.03295664 0.003272289
Dawes -1.3432606 0.027075952 0.0424603 0.19602968 0.052629735 -0.043936696 0.021765944 0.121455565 -0.038132 0.04151653
Dec -1.1166339 -0.10880197 0.10249425 0.13273515 0.014858999 0.13146412 0.022046199 0.0208351 -0.107132845 0.075007014
Decatur -1.3249562 0.01129717 0.18005031 0.19797333 -0.016105251 0.064348176 0.09940909 0.030029146 -0.2188875 0.10396055
Delphinus -0.9737318 0.04367788 0.026788997 0.26022667 0.15604854 0.13330849 0.03347614 -0.13010417 -0.10323846 0.0033438946
Demogorgon -0.8450744 0.0010875331 -0.135023 0.115010306 -0.06514255 -0.075639986 0.064022854 0.08444874 -0.033843774 0.008582011
Dendrolagus -1.1363612 -0.098690845 0.005912826 0.04838847 0.05842488 0.024260623 0.04232082 -0.053349357 -0.050951954 -0.091377795
Deneb -1.1479313 -0.05698604 0.0024511104 0.14868873 0.11738262 0.10327757 -0.01193651 0.07716082 -0.034238756 0.055893894
Denebola -1.0846231 0.05857546 0.09371322 0.15422656 -0.025252769 0.09938234 0.07268384 -0.01346881 -0.09451004 0.14702478
Descurainia -1.2517262 0.070673 0.13737383 0.18322718 -0.036821924 -0.016415626 0.025574688 0.01567148 -0.13591123 0.017291158
Despoina -1.1982423 0.0999585 -0.52283067 1.0660026 0.24550392 -0.013039672 0.08318695 0.33534348 -0.07251464 0.40093732
Desyrel -2.0478604 -0.26412335 0.6969755 0.29074588 1.0365741 -0.8044356 -0.6409333 0.1563347 -0.86787814 -0.5901803
Devanagari 0.3332888 -0.48076823 -0.13331304 0.8903997 -0.2927991 0.9440494 -0.904207 -0.43311954 -0.043774575 0.8857369
Dhaka -1.1436957 -0.113482766 -0.06922625 0.16111036 0.15180005 0.006008099 0.09029271 0.113801666 0.020025216 0.057265326
Dicentra -0.98473656 0.05022194 -0.010929029 0.19538961 -0.015540124 -0.000810973 0.09557879 0.066385046 -0.05477383 0.0682902
Dickens 0.039406426 -0.6455668 -1.1662724 0.4387261 -0.112527415 1.7631339 0.15870512 0.02679591 -0.2514297 0.14404254
Dickensian 0.039288994 -0.6458075 -1.1670692 0.43866462 -0.11191703 1.7632619 0.15873237 0.026679914 -0.25087655 0.14398177
Dickinson -1.0868653 -0.06567742 0.15443915 0.17674568 0.03176904 0.055472203 0.06544784 0.012837547 -0.10941344 0.005772791
Dieffenbachia -3.136779 0.6026347 0.08873065 0.56262743 0.8798971 0.17693314 0.5541704 0.012744122 -0.08105275 1.577385
Digitaria -3.141914 0.60142773 0.08787997 0.5648991 0.8800939 0.17706865 0.556382 0.010154281 -0.08200192 1.5759393
Dilantin -1.0430646 0.0063986126 -0.004135089 0.18402635 -0.013914681 -0.051098097 0.14657529 -0.13222605 -0.16058743 -0.03280969
Diogenes -1.4757333 -0.18449919 0.15044028 0.013419146 -0.21441472 -0.12217753 0.07419106 0.15512474 -0.0444182 0.08252981
Dionysus -1.2642888 0.016141824 -0.0031716218 0.044606272 -0.04761906 0.018177804 -0.018021066 0.052023087 -0.018134505 0.038957432
Diophantus -1.177462 -0.0070478334 0.1491323 0.24819022 0.110433236 -0.033741564 0.019195031 -0.047251184 -0.16186683 0.0058198874
Diospyros -1.107658 0.006375383 0.04634423 0.10954963 -0.038787577 -0.0011031997 0.07030082 0.02546048 -0.14210075 0.043674346
Diplopoda -1.928071 -0.2937375 0.9225524 0.6801824 -0.0025334149 0.42891562 0.32429627 -0.11850631 0.14547415 0.36058518
Dipper -0.41032943 1.013164 -0.33518657 1.1051059 -0.1247388 0.05302695 0.5020192 0.5397651 -0.72274965 1.2220895
Dippers -1.1476063 -0.085591614 0.08727843 0.28402472 0.15934114 0.07140072 0.09388727 -0.002928068 -0.19205421 0.059188116
Dnieper -1.4219787 0.012535646 0.112578996 0.22472467 -0.109584145 -0.04645026 0.21453395 0.14172703 -0.09021547 0.15315387
DoD 1.0519162 -1.3980757 1.1096711 1.0950909 0.04046628 -0.7270189 -0.17456159 -0.77207756 -0.6066005 0.4911123
Dodgson -0.92010474 0.0531986 0.034335576 0.24587502 0.09472953 0.032698337 0.03922655 0.06388473 -0.13543834 -0.016356418
Dominicus -1.9966983 -0.25314024 -0.05253457 1.0932455 -0.33687997 -0.068232626 0.76971227 -0.29440287 0.24648274 0.5236219
Domino -1.4431759 -0.12865192 0.09120764 0.12832054 -0.057059743 -0.00103858 0.009494068 0.042941913 -0.12862912 0.17872807
Donkin -1.2355145 -0.040308855 0.06960154 0.16061 0.092179514 -0.028033689 0.16305032 0.04260973 -0.06685387 0.06355509
Doomsday 3.02993 -0.14186518 -0.8968527 0.8561106 0.44647995 -0.047590237 1.1824591 0.5698364 -0.72015697 0.2944001
Douglas -1.1185256 -0.10803892 -0.13334717 0.2702082 0.11587886 0.06974642 0.09977551 -0.00037123705 -0.21737766 0.03856261
Dowding -1.4906343 -0.29358038 -0.41934347 1.3035029 0.36881274 -0.28013092 0.12208744 0.1945688 -0.4475026 -0.047868334
Dowdy -1.4906566 -0.29359856 -0.4192545 1.3034858 0.3687535 -0.28012732 0.122108474 0.19451226 -0.44752464 -0.047865566
Draco 0.46242794 0.21382758 -1.4520568 0.21880357 -0.26711756 -0.30390516 -0.26535758 0.99631786 -0.304163 0.8545224
Dresden -1.0357356 -0.11051441 -0.06871504 0.17493826 0.0006015621 0.039576888 0.07506184 -0.030841429 -0.120740674 0.048117153
Druse -1.338318 -0.20176263 -0.018288916 -0.08371009 -0.13695158 -0.02855526 -0.12585796 0.102270156 -0.074106745 -0.019104624
Dryopteris -0.9793627 -0.026415367 0.21833043 0.18185282 0.078758374 -0.0036333122 0.05097965 0.09643475 -0.13343626 -0.012986147
Dumuzi -0.9963214 0.13134813 0.032482687 0.19045202 0.10244141 0.06493246 0.10767447 -0.022334173 -0.13765298 0.0010834102
Dunkard -1.3907483 0.07059165 0.05282132 0.25259838 0.15212978 0.047750033 0.03596661 0.07445393 -0.07088688 0.087495446
Durabolin -1.9419087 -0.3143457 1.240328 -0.41821533 0.9861013 -0.077266425 -0.5276375 0.42953253 -0.7248711 -0.38737863
Durant -0.9705945 0.020776415 -0.042560894 0.14493237 -0.11153817 0.04260145 0.13517854 0.031620868 -0.13956001 0.06442225
Dylan -1.1596444 0.017480422 0.0863493 0.24422961 0.007857432 -0.13606042 0.105639875 0.034190733 -0.07375395 -0.013944372
E.P.A. -0.98271286 -0.020056369 0.059812807 0.24267726 0.0666644 0.020985024 0.1459541 0.03645637 0.0155858565 0.0075225565
ED -1.1726445 0.00892104 0.121758126 -0.034459326 0.050366048 0.12071323 -0.051602952 0.0673908 -0.077800356 0.09485925
EE 1.132889 -0.43992355 0.7971894 0.7302699 -0.4577032 0.50400764 0.005968795 -0.250157 -0.14465748 -0.86210686
ELF 1.7857833 -0.6482948 0.12854749 0.8817834 -0.66149265 -0.08482714 0.49353385 -0.04854644 -0.37554744 0.15112957
ELN -1.0757594 -0.5776159 0.8009324 1.2237382 0.43234944 -0.17492755 -0.027399492 0.08200913 -0.8655717 0.14745972
EL -0.8187348 -0.010073852 -0.093932554 0.14684552 0.04872893 -0.03220146 0.19128425 -0.079987854 0.026430428 -0.069385886
EMG -1.4346282 -0.25863138 0.032213043 -0.059403233 -0.1321822 0.11978362 -0.13798521 0.038362034 -0.07314884 0.04305059
EPROM 1.9215233 0.3374121 0.5168282 0.9511365 -0.75755364 0.3195079 -0.4852713 -0.35386202 0.024175772 -0.21073598
EST 2.2473474 -0.34463513 -0.069159955 0.5888295 -0.19091822 0.4096461 0.017340079 0.5930629 -0.4109814 0.55012125
Eadwig -1.3926606 -0.14903834 -0.0158375 0.1026314 -0.026809677 0.06557208 0.12153661 0.02054446 -0.05246349 0.084514484
Eames -1.280852 -0.014361971 0.06841593 0.08041886 -0.047910687 0.017788569 0.024986159 0.031818658 -0.05778622 0.045625094
Earth 0.6622067 -0.15428518 0.4550133 0.2494841 -0.309281 0.65147895 0.93268144 0.68759465 -0.18761612 0.057880558
Ecclesiastes -1.2567023 -0.13911417 0.04998236 0.10063768 -0.04705416 0.010499121 0.09755695 -0.010462299 -0.06850352 -0.06581386
Edirne -1.1930914 -0.14361951 0.018975673 0.072614364 -0.024651501 -0.0058099306 0.1278393 0.046192177 -0.14451578 0.18638317
Eichmann -0.8714819 0.023666754 -0.07731263 0.19081631 0.003103919 0.04255392 0.032007482 0.10956767 0.02905223 0.037698023
Eiffel -1.3695828 0.016548831 0.13190895 0.12439044 0.118390255 0.13063268 -0.007909518 0.06830355 -0.047371726 0.11312514
Einsteinian -1.0279367 0.005894288 0.054021418 0.23072965 -0.03767478 0.008795056 0.12772325 -0.0014732749 -0.15558429 0.06484054
Eisenstaedt -1.0867286 -0.16258085 -0.081617534 0.12623793 0.06813946 0.004779201 0.020478547 -0.009344338 -0.09607471 0.060277913
Elbe -1.0181185 -0.003237725 0.19162746 -0.0060426616 -0.036019303 0.010644438 0.016278852 0.096601784 -0.056787916 -0.035469268
Elephas -1.0021908 -0.0750099 0.020518277 0.12034189 0.027678465 0.065011896 -0.04759695 0.007921253 -0.010311533 -0.03797402
Energy -1.1515073 -0.031507123 0.09125495 0.15738636 0.051268104 0.07930728 -0.0092283245 -0.030913634 -0.1565042 -0.0028140647
Englishwoman -1.2312359 -0.08361065 0.031229233 0.33418944 -0.05278768 -0.099917814 0.13205348 -0.04058082 -0.106674515 0.040700883
Enkidu -0.89539033 -0.018954653 0.008192821 0.20191568 0.042876936 0.057929497 0.0728584 -0.043217298 -0.112047024 0.004051806
Epicurus -1.0610837 -0.09039372 -0.069700874 0.18757345 0.11717056 -0.053789176 0.16394918 0.0517333 -0.04744681 0.040499322
Epilobium -1.281474 -0.19706504 -0.009696488 0.033943035 -0.017685117 -0.02613234 0.008454044 0.0007802559 -0.16013248 0.067733616
Epstein -0.9612625 -0.058060136 -0.03957088 0.13774817 -0.067974254 0.061556414 -0.10810263 0.012856204 -0.009127506 0.0329414
Eragrostis -3.1475456 0.6004021 0.08768145 0.5670078 0.8797493 0.1769168 0.55821943 0.007894026 -0.08284672 1.5752444
Eranthis -0.98986197 -0.13198774 -0.09055314 0.17410289 0.02120318 -0.13369966 0.10092165 -0.066670984 -0.06536523 -0.06359372
Erato -1.3108058 -0.099917896 -0.040683042 0.023153162 0.015062455 0.18881954 -0.15130691 0.075245775 -0.042839978 -0.011879141
Erin -1.0700148 0.03380512 0.14575677 0.22982047 0.043320097 -0.010890743 0.13563333 -0.005480592 -0.1368701 0.00074449746
Eritrean -0.88764673 0.00248126 0.027971892 0.07418367 0.0095055625 -0.02787891 0.026006462 0.06823912 -0.034785904 -0.07299561
Erysiphe -1.3505688 -0.093248986 -0.035034344 0.14528081 0.046959624 -0.040383335 0.02529752 0.03925398 -0.063468605 0.04012822
Esaki -1.256909 -0.101315394 -0.0038739212 0.18811956 0.056759663 -0.035029557 0.052655656 0.048781905 -0.072776265 0.06316495
Eschrichtius -1.3434817 -0.08612574 0.19378576 0.11606555 0.04796929 0.1628957 -0.07895466 -0.05148777 -0.113598764 0.05383359
Essen -1.0037291 -0.065165564 0.05813472 0.0729862 0.05779234 0.071173415 -0.052951053 0.10926886 -0.03431506 -0.020553797
Estonian -1.2718569 -0.11559615 0.06759026 0.29484063 0.15624183 -0.05091882 0.16131924 -0.027956756 -0.12624756 0.042754963
Etruscan -1.1028312 -0.07503261 -0.0012844485 0.15661329 0.12821394 0.059133414 0.08905241 0.024322523 -0.052606575 0.033878963
Eumeces -1.1829106 0.040515002 0.046347644 0.10133876 0.014801314 0.1004506 0.0065964917 0.06133181 -0.11412524 0.0444632
Eumenides -1.2748544 -0.10189348 0.16429949 0.06902979 -0.098436855 0.0111958 0.06585501 0.085112 -0.10605951 0.03159518
Euphorbia -0.94156533 -0.03418203 0.0207789 0.084357865 0.06454432 -0.06965184 0.1524017 0.07391867 -0.074606046 -0.028154032
Eurasiatic -1.1456864 -0.11442405 -0.08996057 0.26599005 -0.02652944 -0.010327436 0.07303412 0.08417919 -0.03914869 0.11406878
Eurocentrism -0.25340465 -1.6989036 0.036459796 -1.2480845 -0.015984604 0.26903114 -0.1339842 -0.010073671 1.1331831 -0.09339966
Europa -0.9665985 -0.05698231 0.068600185 0.22802629 -0.010681487 -0.08213571 0.06691179 0.009211663 -0.15748507 0.09579262
European 0.26606888 -0.18535155 -0.053464856 1.189897 0.66590315 0.56402856 0.72339433 0.10489061 -0.34116703 0.42856464
Europeanization -1.2699424 -0.15164743 0.04832582 0.031508 -0.016197179 0.09236253 0.0024763988 0.09050398 -0.00027683185 0.04257228
Everest -0.9841788 -0.006489741 -0.06408422 0.21534307 0.1515948 -0.014981368 0.13089064 0.0007187339 -0.042352963 -0.021421153
Ezekiel -1.013002 -0.017653406 0.007960875 0.20509624 -0.003058177 -0.016639862 0.058544096 0.010419538 -0.065746464 0.038370084
Ezo -1.0438341 -0.016619535 0.08067082 0.14908832 0.064734645 0.04358619 0.07308018 -0.07500908 -0.10149349 -0.0210102
FAR -0.9060099 -0.108418934 -0.03161377 0.06909444 -0.04972191 -0.033970036 0.08639717 0.024243722 -0.12783763 0.0084215
FBI -1.5044708 -0.06643669 0.04893465 0.14204432 0.115952946 -0.03841802 -0.005755118 0.13510147 -0.055352133 0.06822183
FHA -0.28436375 -0.43866026 0.22472726 0.71395 -0.053145066 -0.3143255 -0.08782086 0.021548957 0.42715275 -0.10259341
FHLMC 0.744905 1.0257581 -0.18312907 0.09136303 0.29927707 -0.10787713 0.62551814 0.0655924 0.110133104 -0.58079475
FPS -1.105787 -0.071730115 -0.00054855144 0.17862321 0.11797939 0.08341753 0.0915069 0.03349156 -0.0050621293 -0.023468345
FRG -1.0269191 -0.04714756 0.0075175753 0.104344904 -0.052880205 -0.06429795 0.11456665 0.024439191 -0.12883084 0.006108127
Fabaceae -1.1854944 -0.08795301 0.14055854 0.120212145 0.04630458 0.025202079 -0.022988146 0.060863018 -0.10223206 -0.015969047
Fafnir -0.9329312 -0.086636536 -0.0014788015 0.16069748 0.017269757 -0.03065101 0.1594914 -0.09528981 -0.018886201 0.040247455
Fagaceae -2.9656684 0.53823274 0.78384084 1.1432742 1.4945769 0.517229 1.4354509 -0.10471204 0.14291668 1.8917634
Faisal -1.1236398 0.04080806 -0.08472825 0.10232083 -0.0009792554 0.06626619 -0.13787957 0.19608852 -0.0005442791 -0.013185499
Faisalabad -1.0839566 0.0340213 -0.05595765 0.20849395 0.16179761 0.056395035 0.011954603 0.072291814 0.030904459 -0.0026416217
Fargo -1.3379388 0.047181834 0.17391773 0.22310363 0.014391461 -0.053680655 0.093921356 0.13456231 -0.20172332 0.10079422
Farrell -1.1475207 -0.11367696 -0.05950492 0.060988173 0.04023182 -0.005562997 0.057139497 -0.10440563 -0.058038972 -0.019487163
Fatherhood -1.364277 -0.06918918 0.015897699 0.20473409 -0.029804185 0.0311154 0.027074387 0.09249649 -0.077278055 0.1292911
Faulkner -1.1178237 -0.07580252 0.14540993 0.07297448 -0.026698207 0.07080923 -0.01633527 -0.0006920748 -0.10664826 0.055257287
Fauntleroy 0.883386 0.4219405 -1.3456843 1.1250073 0.55701774 -0.17230034 -0.3844125 0.7694056 0.058660354 -0.31217235
Fauve -0.93594354 0.0011346634 -0.12838309 0.21062484 0.0033973968 -0.05227111 0.09258823 -0.027075129 -0.095781066 0.050106943
Fayetteville -1.0401312 -0.10696944 0.15485209 0.1625242 0.017086526 0.0623208 0.05757951 -0.028587215 -0.11875293 -0.083041124
Feb -1.2972285 0.112992056 0.14313689 0.31810454 -0.039597355 -0.00734905 -0.0038029493 0.06530707 -0.1787146 0.15048267
Feldene -2.4912624 0.030962083 0.8402932 0.22144468 1.0598333 -0.7460074 -0.48620862 0.34666908 -0.8486258 -0.41238382
Fielding -1.1773046 0.041050214 0.0027269586 0.3145276 0.03821009 -0.08012794 0.101028115 0.0117454035 -0.09327606 0.09137264
Fillmore -1.266624 -0.0111614475 -0.16016005 0.13125412 -0.027720798 0.12856297 0.05084 0.058730163 -0.05116273 0.043541268
Finnish -0.72581893 -0.09125933 0.063779056 0.08252317 0.11259668 0.026480265 0.008076381 0.08961428 -0.057741847 -0.05568021
Fish -0.6788136 -0.119774364 -0.26890358 0.5105711 0.2021567 -0.026385333 -0.54585236 0.25977966 0.26810044 -0.053951
Fistulina -1.1348029 -0.047245447 -0.07706027 -0.060667004 -0.05215135 0.13614294 -0.098870076 0.13784008 0.05044467 0.031500753
Fitzgerald 1.1995214 -0.8774869 -0.8089683 1.6302637 0.21934125 0.58384323 -0.08794952 0.6671147 -0.72362226 0.37221572
Fletcher -1.0397899 -0.070956424 -0.12725092 0.31684026 0.056693614 0.016763965 0.10491834 0.048895914 -0.063314825 0.10610566
Flinders -1.2231123 -0.06825525 0.11594694 0.07682108 0.0028565016 0.0036945213 0.15299058 0.07098363 -0.02854107 0.04805656
Flint -1.3948823 -0.011038272 -0.04953118 0.10744269 -0.008612307 0.021940336 0.04510033 -0.013605016 0.05042491 -0.027306382
Floreal -1.0572299 -0.0034710965 0.07356513 0.25970903 0.045587655 -0.017345808 0.1181779 -0.040296476 -0.0970411 0.07217552
Florence -1.1131927 0.03827639 0.1270528 0.19381405 0.02452106 0.023489844 -0.0055954787 -0.04534529 -0.08553927 0.06521586
Florida -1.2341387 -0.10911106 -0.051874574 0.18451169 0.022557419 0.11158029 0.018754007 0.00037055375 -0.048790496 0.046646956
Foeniculum -1.0172873 -0.04267294 0.0052045304 0.22812036 0.035788372 0.05459783 0.033279147 0.041626196 -0.057457007 -0.0051763407
Fomorian -1.2736467 -0.037102725 0.2569523 0.17931703 -0.06312712 -0.0002768468 0.064705096 0.020513183 -0.13901742 0.09187622
Fonteyn -0.9324134 -0.04241721 0.024155691 0.087898575 -0.074713245 0.025599642 0.1334712 0.10876676 -0.057933524 0.016086783
Ford 2.27191 -0.17043258 -0.45581874 1.8144569 -0.16377841 0.03246112 -0.19850758 0.45315242 -0.87074083 0.10076093
Forseti -1.2105507 0.0862624 0.074062474 0.23574753 0.07797569 0.038978662 0.02158055 0.06988771 -0.07747784 0.035387546
Fortaz -0.9305752 -0.1211131 -0.0077999546 0.1596568 0.06492989 0.031971626 0.06699868 0.061025526 -0.051440347 0.06946641
Francisella -2.8431 -0.039428838 1.1989241 0.38631105 0.6529343 -0.22090638 0.48430908 1.1826186 -0.3723844 0.26605904
Freemason 0.14790568 0.3790608 -0.6037267 0.86597365 -0.13214299 -0.005643442 -0.7035654 0.4195807 0.072780445 0.016258314
Freetown -1.0825744 -0.10386421 -0.08898984 0.034437884 0.03965899 0.024209647 0.010350316 0.050669614 -0.06518133 -0.02173584
Freud -1.3262178 -0.3100305 0.106732555 0.28451604 -0.24020147 0.19390519 0.013309435 0.23540501 -0.14086571 0.33705872
Freudian -0.33703223 -0.113735154 -0.36270297 0.2745625 -0.19473119 0.21801555 -0.5584204 0.39091474 0.29484537 0.1900584
Frick -1.1888266 -0.023394708 -0.05122373 0.14644217 -0.0130438255 -0.09816936 0.14056796 0.007214205 -0.12694938 0.0093638245
Frisbee 0.52761066 0.8917421 0.123778224 0.58174473 -0.98200125 -0.11914917 -0.64637744 0.16395266 -0.431737 0.6574155
Fructidor -1.553006 -0.053119045 0.15164815 0.20919684 0.02027435 0.1112008 -0.026610771 0.022197342 -0.110521294 0.06315655
Frunze -0.91943324 -0.045088816 0.022703636 0.14531042 0.06931663 0.036146667 0.042543553 0.16018179 -0.09802522 0.031510312
Gansu -0.9602062 -0.03872343 -0.031236956 0.35635623 0.057679676 0.04452742 0.1277168 -0.016065337 -0.113145195 0.14775424
Gdansk -1.2710217 -0.033267923 -0.034098808 0.15268272 -0.10970378 0.010494735 0.06462876 0.043648697 -0.08867889 0.071948946
Geisel -1.2446655 -0.09404665 0.15674369 0.06517762 -0.05461626 0.05629108 0.02945637 0.05483079 -0.027307509 -0.05346666
Genesis -1.2299445 -0.06309356 0.07631713 0.28889605 0.0111539485 0.023191387 0.08769139 0.0498858 -0.027165541 0.05884489
Genovese -0.73533565 -0.06260308 -0.08835856 0.19625218 0.15200113 0.07434116 -0.056450278 0.07260775 -0.09381818 -0.026064904
Gent -1.0559583 0.07337406 0.048500825 0.20718624 -0.00037629702 0.0275561 0.065048635 0.090006664 -0.00915558 0.014176154
Geomys -1.2154018 0.020720504 0.15691243 0.15721914 0.008916916 0.12212841 -0.067790225 0.040537473 -0.070494495 0.09844947
Gibbon -1.3041215 0.024275716 0.1691444 0.21019383 0.0046488247 0.051071778 0.1213741 0.07305769 -0.13218004 0.13683859
Gulo -1.1741611 -0.108964615 -0.13653092 0.09639049 -0.04074274 -0.02815463 0.100770034 -0.039600328 -0.04971485 0.031101733
Gurkha 0.30879778 0.26428658 -0.2950056 0.87081563 0.17914748 -0.5259399 0.28797498 0.055222623 -0.026485363 -0.29498497
Guthrie -1.191298 -0.03201616 -0.009065244 0.107921265 0.027081542 0.039361335 -0.08503707 -0.019040521 -0.11360166 -0.02638264
Gwyn -1.4125842 -0.13956323 0.085070476 0.19126049 0.16708055 0.0877774 -0.00010895007 0.06790952 -0.056167334 -0.022005998
Gypaetus -0.93082106 0.042041507 0.10381116 0.12156367 -0.03370429 0.061798014 0.005376238 -0.058447808 -0.10035607 0.054992363
H.I. -1.9378687 -0.12042138 -0.4900293 1.4697698 0.3279194 -0.3761261 0.21565005 0.20134738 -0.5140821 0.31718197
HDL -1.0522823 -0.061991397 0.15181921 0.14507115 0.07316434 -0.0076900125 0.019299192 -0.014126262 -0.20785272 -0.02886201
HTTP 0.4329033 -1.0339366 0.6737107 0.116665915 -0.37475216 -0.19495629 0.054875847 -0.07592872 0.47314864 0.55605984
HUJI -1.2578449 0.022030983 0.038467016 0.14651167 0.061071027 0.13752443 -0.008131456 0.10995758 0.034352086 0.02490456
Haber -0.9898236 -0.06802794 0.14305365 0.17768754 -0.027600981 -0.056654267 0.15557547 0.07603205 -0.13986877 -0.033533294
Haftarah -1.3381159 -0.17463928 0.048938446 0.14298865 0.07968866 0.037238512 0.0062561813 0.042086154 0.0076565747 0.056226406
Haman -1.3174193 -0.19997355 0.03240958 0.059357315 -0.13771936 0.07665676 0.01631995 -0.06780275 -0.10545698 0.11018485
Hamelin -1.1713725 0.011944743 0.025372595 0.1790204 -0.013406287 0.045846324 0.059475515 0.016441142 -0.09661453 0.07764086
Hammarskjold -1.0712659 -0.042997975 0.09154859 0.20933928 0.0092062 -0.03873166 0.064859666 0.20139395 -0.13142484 0.06171013
Handy -1.3739078 -0.01045955 0.1916812 0.13976163 0.039999556 0.037039224 -0.015130964 0.009555942 -0.07217791 0.05045422
Hargeisa -1.2992994 -0.024583872 0.013417025 0.20467076 -0.0012142521 -0.04852985 0.037585948 0.023906188 -0.18378308 0.026261104
Hart -1.3280207 -0.11931356 0.20351443 0.19724078 -0.028759824 0.056526188 0.15077186 -0.109458014 -0.080111325 0.09735348
Harvard 1.7477773 -0.9414517 -0.0050694337 1.7707326 0.88417447 0.63484997 0.019849323 0.38844463 -0.9539795 -0.11531447
Hasid -1.2873527 0.0018575382 0.11679241 0.08321223 0.034852747 -0.05873861 0.0064118854 0.1515981 -0.053544607 0.07833232
Hathaway -1.1184815 -0.046170674 0.20002735 0.24658193 0.05482839 0.10011936 0.12203593 -0.015291844 -0.1426517 0.070067376
Havana -1.1075923 -0.06505051 0.17032683 0.080715545 -0.142992 -0.0448691 -0.023604117 0.0029039413 -0.17011318 0.009550856
Hawkins 1.1430353 -0.49489903 -0.6821266 1.9452063 0.18123075 0.14466885 -0.08894924 0.9193566 -0.65336186 0.41471162
Haworth -1.0693808 -0.024054969 0.068698905 0.12129737 0.10173517 0.099051066 -0.040735677 0.021582052 -0.075584985 -0.055331696
Hayes -1.0761354 -0.02085159 0.051858105 0.100636624 0.031176947 -0.029032882 0.05500429 0.12149719 -0.066166446 0.059657734
Hb -0.7834447 0.03533134 0.064726815 0.22372217 0.052814685 0.056125324 0.06773254 -0.0051735695 -0.06667257 -0.001016921
Hegelian -1.2448469 -0.033286348 -0.3541965 0.16122591 -0.15664256 0.1306149 -0.49719745 0.17344287 0.3300688 0.12985322
Heidegger -1.2132627 -0.07099469 0.12762842 0.15339176 0.066344 0.062359225 -0.023066908 0.09355217 -0.10009598 0.0052664992
Helenium -1.4063975 -0.001276678 0.100364774 0.19722691 0.037336472 0.06938632 0.017611774 0.0027702132 -0.06295228 0.09441687
Hell 2.106571 -0.22862688 -1.4314106 0.5708079 0.43022338 -0.23464054 0.26029512 1.2482108 -0.28200787 1.1141753
Heller -1.1369675 -0.25154293 0.15535215 0.022323292 0.033410635 0.13913648 -0.13436908 0.11475056 -0.10389597 0.047266122
Helvetian -0.7773665 -0.012048343 0.0075037866 0.17388645 0.043026563 -0.0046776305 0.10951012 0.042127833 -0.035100624 0.007158729
Hepworth -1.4079355 0.13573855 0.13038944 0.28148484 -0.034758966 0.07774122 0.050222103 0.048268043 -0.12737682 0.08705948
Heracleum -1.198436 -0.10033919 -0.039973747 0.039071478 -0.034404803 0.057268437 -0.04546737 0.0033971453 -0.1151637 0.0113762235
Here -1.0748904 -0.17618516 -0.022739703 0.082089186 0.054282457 0.08614407 -0.05570314 0.07931112 -0.0003652727 -0.07725362
Hereford 0.0021955636 0.5719622 -0.3900946 -0.13953422 1.1098081 -0.40451366 -0.20376511 -0.07289029 0.26762384 0.087814026
Hertha -1.2758119 0.024178714 0.08750748 0.14341144 -0.06355436 -0.049959835 0.20091552 0.15634136 -0.07188526 0.068150066
Hertzian -1.1670027 -0.043479256 -0.031846073 0.07430295 0.008259853 -0.0076140817 0.06601728 0.11231212 -0.0069029015 0.04251085
Heteroptera -2.993171 0.12780046 0.42432225 0.86027306 0.76422215 0.052393172 0.45241618 0.14188868 -0.20325007 1.1286416
Hexamita -3.5024867 0.29357064 0.18945192 0.14452219 0.10278253 -0.4495607 -2.8998593e-05 0.50911105 0.17649324 0.83919823
Hindu -1.1327934 -0.59377486 -0.7455778 0.7952739 0.27010545 0.47598395 0.17205662 0.26269513 0.7927974 0.027487047
Hindustan -1.0425398 0.06649198 -0.07479641 0.19557938 0.10400825 -0.0011956791 0.1678783 0.039053276 -0.10274934 -0.0031951796
Hirschfeld -1.2874879 0.035107516 0.113079906 0.17866133 -0.032487262 0.077283725 0.026965477 0.046065677 -0.07222241 0.04415107
Hirschsprung -0.98343587 0.033281185 -0.008106599 0.2385483 0.1964302 -3.3004784e-05 0.0962784 0.0027441145 -0.070478335 -0.107487865
Hispaniolan -0.57159907 0.00027430497 -0.1381853 0.2835129 0.134634 -0.03866939 0.16833787 0.0044472464 -0.018953828 0.026517646
Hominidae -1.0986975 0.009005978 0.055304974 0.1915966 0.076036304 0.106439196 -0.09701749 0.13194765 -0.09871572 0.049553677
Hominoidea -1.9441794 -0.29772034 0.91754025 0.68553287 0.0009799068 0.42992353 0.32997248 -0.1251562 0.146158 0.35614136
Hong_Kong -1.2661357 -0.15072915 0.044511598 -0.1379882 -0.101885565 0.042980257 -0.16456929 0.04373728 -0.067514606 0.010506363
Hopkins 1.1407356 -0.50058794 -0.2346002 1.6667205 0.6522755 0.53268635 -0.122752525 1.3875191 -0.868213 -0.2215096
Howard -0.930428 -0.06492833 -0.06360375 0.103702486 0.18728574 0.13660862 -0.020757746 -0.10365709 -0.03863499 0.0052795596
Hualapai -0.95401996 0.0030986248 0.046236724 0.11695345 0.07384056 -0.027130967 0.06759405 0.06686661 -0.04017826 -0.051098403
Hubble -1.1473174 -0.08076038 0.09347137 0.14194183 -0.004557345 0.011528025 0.036113005 0.11667762 -0.0831782 0.043329492
Hudsonia -0.96592903 0.11196227 0.07692412 0.29115644 0.17323448 0.029623764 0.07904952 -0.017586552 -0.1742658 0.115733534
Hun -0.14214273 0.25588164 -0.7149291 1.0172485 -0.05155079 0.030119887 -0.066345915 0.8603292 -0.13604693 -0.16532436
Hunan -0.41100782 0.101799026 0.2731921 1.3201386 0.7567787 0.30691618 0.7989647 -0.041557916 -0.4504019 -0.016584136
Huntington 1.1675901 -0.3014073 0.37166733 1.8790774 0.7375873 0.27356687 0.81787753 1.1745725 -1.0000095 -0.036666915
Hupa -1.2348424 0.05241266 0.2041769 0.09299087 -0.16340356 0.1097631 -0.041024696 0.104481675 -0.13643795 0.059547406
HydroDIURIL -1.1466094 0.04594416 0.011558556 0.22972816 -0.069882736 -0.045554493 0.14719188 0.087324664 -0.0408585 0.07970741
Hydrus -1.1520253 0.027327169 -0.08501815 0.20154275 0.1116733 -0.030335043 -0.040934615 0.11289509 -0.065609954 0.040847424
I.D. 1.2243668 0.35296774 0.54062337 0.7178293 -0.39353776 0.2532878 -0.8419499 -0.5153461 0.080611475 0.41959375
IC -0.7111541 -0.6493473 0.018519206 0.32989773 -0.22657582 0.16106145 -0.18770692 -0.0350451 0.054690752 -0.0996245
IDA -1.0677735 0.060352523 0.19337527 0.2541459 0.013492662 0.107118726 0.1072621 0.05738815 -0.09074108 0.036391787
IDDM -1.2008058 -0.0026603616 -0.07308027 0.16463213 -0.025211034 -0.010573463 -0.008529106 -0.0906361 -0.05849431 -0.0013518515
ID 2.1042714 0.42556688 0.6518462 0.6663942 -0.16278543 0.15363881 -0.96632326 -0.43612382 0.032650758 0.37552604
IL 1.4407216 -0.040781405 0.83654827 2.370346 0.68432266 -0.4528874 0.486723 0.5127086 -1.3162639 -0.39237195
IOP 0.32472533 -0.7854705 -0.4326264 -0.7558834 -0.06601574 -0.36766624 0.009455006 0.21346949 0.03844245 -0.019808406
IR -0.5290232 -0.58810616 0.9251263 0.8222859 -0.19417994 -0.31638125 -0.11460565 0.17690055 -0.08473113 -0.07994513
IVP -1.0575798 -0.15488778 0.031611986 0.07808353 0.065649465 0.017313654 0.092604786 -0.025765907 -0.034920827 0.04692987
IV 0.65063006 -0.1024439 0.01680243 0.1732926 -0.0023761564 0.35043955 -0.21548244 0.15539156 -0.14763698 0.4638304
I 1.4968451 -0.4699641 0.73130995 0.20506498 0.3131426 0.5147646 -0.3823641 0.27963525 -0.28207475 0.72341365
Iapetus -1.5610698 -0.13708028 0.07096511 -0.03627982 -0.06387346 0.032262843 0.08549738 0.051993355 0.018281613 -0.01676425
Ibert -0.97711766 -0.07859914 -0.0021342454 0.15404736 0.10276492 0.019749904 0.042709343 0.051486462 -0.086913906 -0.03626438
Idaho 1.5324918 0.3554367 0.5693797 0.695029 -0.30806178 0.21996218 -0.8658314 -0.47572818 0.07483354 0.38291118
Ido -0.93793744 -0.010998927 -0.070779346 0.12562881 -0.023005797 0.03361585 0.01767085 0.031689793 -0.07730193 0.10487572
IgD -1.4146177 -0.123912096 0.1624943 0.082944304 -0.045656905 0.11893102 -0.121281594 0.058567833 -0.16632138 0.030553443
IgM -1.2080309 0.060354486 0.18490094 0.18434706 -0.030476889 -0.052477293 -0.08807491 0.13065687 -0.10796246 -0.044558823
Igigi -1.377234 -0.022514148 0.13394567 0.23020351 0.0020148843 0.03586668 0.044101443 -0.017357893 -0.083704814 0.013347876
Ilmen -1.0596681 -0.015876839 -0.13771419 0.16457526 0.06698819 0.035904586 0.02016257 0.10170261 -0.08096983 -0.0075252447
Indian 1.1565832 -0.3779071 -0.30502692 0.043138113 0.41987595 0.23638566 -0.06716193 0.5839058 0.2568665 -0.009284991
Indiana -0.9022463 -0.06781936 -0.06299844 0.16923071 0.076072745 -0.07040825 0.13940711 0.02841099 -0.058364596 -0.03511964
Indo-Aryan -1.228111 -0.01403645 -0.050263345 -0.02885963 -0.059340905 0.013691188 -0.0010221959 0.051266283 -0.055619184 0.0039925072
Indochina -1.1940962 -0.046665367 0.038914975 0.19225496 -0.039048705 -0.0517881 0.10965949 0.07312382 -0.0770395 0.028943205
Infusoria -1.9479507 -0.29757115 0.92067885 0.68688786 -0.0043834015 0.42870983 0.3294705 -0.12495104 0.14277469 0.35903355
Inger -1.5600021 0.03875802 0.02543812 0.10660134 -0.008744374 0.0073601194 -0.07642724 -0.04876764 -0.018769208 -0.060050827
Insectivora -2.9532964 0.2414583 0.42630368 0.8360286 0.8142989 0.038939223 0.43383646 0.13804919 -0.22776148 1.0242842
Ionic 1.0589799 -1.169627 0.077928975 0.45480213 -0.018528046 0.06174369 0.20889084 -0.31177554 0.29233125 0.76402485
Ipomoea -1.3027538 -0.03366016 -0.0077000014 0.07252252 -0.045146517 -0.08728761 -0.002675004 0.044865064 -0.15414132 0.066361316
Iraki -0.6930436 -0.95132726 0.25492677 0.26099762 0.5163091 -1.1999505 0.4526506 0.24077573 -0.08773711 0.04903975
Iraq -0.69208217 -0.9509129 0.2551326 0.26058215 0.5162979 -1.1999197 0.45203072 0.24137832 -0.08743389 0.04935394
Irish 0.7935885 0.011918113 -0.39482343 -0.12159628 0.8809499 -0.1560096 1.1703618 -0.13621657 0.6555913 -0.19712807
Ironsides -1.072995 -0.5282992 -0.4790949 1.4692726 -0.058079723 -0.3689329 0.38340756 0.25588968 0.2907545 -0.2154208
Isere -0.98509055 -0.0747828 0.029312914 0.1517536 0.050140887 -0.124436595 0.2623985 -0.010191107 -0.11232002 0.0353295
Ismailism -1.1211156 -0.018924793 0.011499214 0.025936227 -0.06973379 0.0619478 -0.091772884 -0.00667803 0.0014567703 -0.008487469
Israel -1.2505401 -0.05756037 0.021139758 0.26986447 -0.027046133 0.020472828 0.18794172 0.03710096 -0.09424712 0.13714044
Italic -1.3360925 -0.03584118 -0.14211904 0.2724728 0.01159207 -0.0031858932 -0.038391944 0.0064182896 -0.14571331 0.09038163
JRA -0.9698545 -0.19085181 0.04324406 0.13996938 0.10406781 -0.020360503 0.105682 -0.020123698 -0.097208396 0.01898511
Jackson 2.3146718 -0.36734983 -0.8504888 1.7435882 0.70438814 0.09132445 0.11672558 1.1477334 -0.89878505 0.46849537
Jacobite 0.36554173 -0.27863613 -0.8654426 1.0371358 0.16202904 0.18833308 -0.6562715 0.21468684 0.082829185 -0.09659694
Jamaican -1.3990868 -0.024593268 0.1738936 0.22480497 -0.029867323 0.0631116 0.0320425 0.0042285374 -0.09045223 0.0043283063
Jamesian -1.4837477 -0.15284579 0.09003297 0.025864694 -0.049935523 0.038966134 -0.028359702 0.07365427 -0.091289505 0.0005290815
Jamison 1.009821 -0.29805994 -0.61106527 1.2415543 0.41939655 -0.15617111 0.024923915 0.29278928 -0.49303988 0.09467382
Janissary 0.30917683 0.26430672 -0.2954704 0.8709803 0.17896554 -0.52604926 0.28815857 0.056024324 -0.026671184 -0.29468748
January -1.3016005 -0.03881972 -0.13938247 0.20548148 -0.0036008488 -0.0761666 0.07310842 0.030316746 -0.055775557 0.038563877
Japanese -1.3324342 0.012104362 0.021306196 0.17206417 -0.018012669 0.010811511 0.007943797 -0.019346487 0.005137901 -0.005701856
Japheth -0.7364784 -0.011057109 -0.03478248 0.10071903 0.0879903 0.023010677 0.044363223 0.10996067 -0.06822488 -0.0781311
Jarrell -0.9218003 0.035571907 -0.13987589 0.23219599 0.08135999 -0.09081945 0.029147133 0.07552354 -0.04399338 -0.032717172
Javanese -1.1911706 -0.10091905 0.1708444 0.12536168 -0.056424465 0.024684982 0.11985397 0.039168462 -0.100869045 0.093754925
Jay -1.2243791 -0.14361165 -0.033513673 0.10023663 0.099263035 -0.0217074 -0.025310954 -0.05537819 -0.087501794 0.04397759
Jenner -1.3685068 -0.05406235 0.11921661 0.17498627 0.0027103038 0.025314094 0.016914373 0.08183981 -0.1203607 0.07771914
Jerusalem -1.1920117 -0.15127796 0.035201218 0.06960712 0.068480894 0.010996908 0.1516636 -0.021525225 0.01787872 -0.03249139
Jesuitical -1.2382711 -0.08326611 0.028979985 0.21220867 0.06895316 0.06746251 -0.023353893 0.021831486 -0.028426977 -0.010264245
Jew -0.17153673 -0.16285273 -0.29837123 0.5323926 0.21981426 0.008257875 -0.55998135 0.32389536 0.22536394 -0.047505975
Jnr 0.7410444 0.41113156 -1.3448861 1.1132578 0.5897808 -0.19227815 -0.35810113 0.87704843 0.06343339 -0.31202427
Jocasta -1.4582494 0.014218217 -0.1262664 0.2872164 0.02565846 -0.06375426 0.044516962 0.08184829 -0.087026104 0.105783105
Johore -1.2629255 -0.12562886 0.0048552137 0.113041416 -0.002422324 -0.08918455 0.11198614 0.083181545 -0.023688264 0.031380888
Joliet -1.1209284 0.038320426 0.03927582 1.78361 -0.005170827 -0.42393273 0.65440226 0.34201145 -0.7586708 0.10853938
Jolliet -1.1205785 0.038311 0.039199587 1.7835913 -0.005085377 -0.42389432 0.6544641 0.3420719 -0.7586334 0.10849938
Jonah 0.19285223 -0.2629153 -1.369265 1.0190794 0.7315565 0.23356171 -0.25344828 0.71632916 -0.51636064 0.83868206
Jonesboro -1.0727413 -0.08369011 0.082140125 0.1506812 0.10260306 0.11392296 0.06614866 0.0585768 -0.18183741 0.047205634
Jonson -1.4829367 -0.011693199 -0.045003302 0.08461004 -0.10305629 0.07211824 -0.035980836 0.003241007 0.014508005 0.098612815
Joshua -0.9874685 -0.026983313 -0.07135986 0.2104251 -0.021792075 -0.008383164 0.06745737 0.05036285 -0.070226155 0.08774433
Jr 0.753656 0.41251078 -1.3402519 1.1103314 0.58904165 -0.19291858 -0.35909396 0.88008744 0.062060162 -0.31209347
Judaic -1.8627936 -0.01152647 -0.23246376 0.47901666 0.05783494 -0.0736167 -0.48391497 0.10943623 0.3082814 -0.073625565
Jussieu -1.0652934 -0.13682494 -0.011543568 0.114246584 -0.0780966 0.015277815 0.03753771 0.0078683235 -0.068078764 0.055966098
Jynx -1.1131067 -0.08172254 -0.021703128 0.09245905 0.049149677 -0.01940116 0.1653256 0.020199653 -0.035715587 0.009813083
K.E. -1.5144341 -0.14969288 0.08639122 0.11590091 -0.04185311 0.026341805 -0.014725648 0.015934942 -0.054957606 -0.0044417973
K 1.9102002 0.55660325 1.137887 0.68765384 0.2189357 0.1382086 0.044809442 0.3335596 -0.6788343 0.26443973
Kabala -0.9554189 -0.6050296 0.018487308 1.0021154 -0.038189135 1.4875767 0.35038307 -0.3432357 0.025257835 0.95049804
Kabbalah -0.9556605 -0.60504735 0.018501593 1.0021361 -0.03825918 1.4875785 0.3503563 -0.34329954 0.025242748 0.95052344
Kabbalism -0.2016588 -1.7866206 -0.010890074 -0.38038203 0.3156597 0.7518569 0.22200428 -0.33830783 1.5948101 0.17275235
Kahoolawe -0.87550294 -0.105925694 -0.031055026 0.07121777 0.033534016 0.085259706 -0.057068042 -0.028800441 -0.025989737 0.015222603
Kalashnikov -0.729472 0.11302967 -0.25580668 0.96615696 -0.19407687 -0.40923977 -0.67547643 -0.36458185 -0.033230554 0.4567468
Kalka -1.1057426 -0.010685543 0.10782931 0.1219098 -0.060775124 -0.03476154 0.061932974 0.08698999 -0.12328909 0.02925553
Kampuchean -1.0846448 0.0007812759 0.085751295 0.3048538 0.050705776 0.031135548 0.12270636 -0.12524877 -0.15557867 0.08465016
Kanarese -1.2604363 0.0113695385 0.07510278 0.2191306 0.020351555 -0.037966423 0.052953534 0.07244999 -0.13650809 0.044653583
Kandinsky -1.3841988 -0.0014595416 -0.027343085 0.17540202 -0.0144208 0.006195194 0.10466548 0.03296911 -0.1805627 0.09553366
Kandy -1.3209097 0.08826959 -0.16667181 0.18588349 0.016511425 -0.10933211 0.08955816 0.125919 -0.03005115 0.061720893
Kansa 0.2844381 -0.20015578 -0.42162547 1.4809375 0.6943675 -0.4349259 0.59992075 0.79997575 -0.21333167 0.18258771
Kansas 0.28007746 -0.20161445 -0.42272106 1.4831954 0.6948487 -0.43541825 0.6020263 0.79939556 -0.21371473 0.18245289
Karelia -1.2741868 0.004931064 0.08991303 0.31011263 0.060021676 0.048622545 0.09574262 0.09364159 -0.105133615 0.057939954
Karen -1.0700831 -0.03183848 -0.06646232 0.173254 0.09461076 -0.016550599 0.06516548 -0.022774873 -0.092314675 -0.034718864
Katmandu -1.1045637 0.014273542 -0.12699656 0.21849503 0.1330895 -0.0358955 0.11487136 0.07120033 -0.049948145 0.017711
Kaunas -1.0456868 -0.056393784 -0.019439401 0.12112124 -0.08834773 -0.08142349 0.1321446 -0.009689351 -0.14686896 0.09727124
Kekule -0.8753968 -0.14965324 -0.016379792 0.04230061 0.062318746 0.0423847 -0.0219828 -0.009146877 -0.115479715 -0.044431947
Kelantan -1.3080155 -0.05779196 0.047116812 0.14728135 0.028988928 0.0938882 0.01873218 0.041349713 -0.15550269 0.109563805
Kennelly -1.4010583 -0.040832534 0.035826594 0.048412938 0.04214535 -0.0008030255 0.03452896 -0.0009905521 -0.11730607 -0.03087701
Kent -1.0529296 -0.0053895847 0.059869822 0.26348695 -0.033058792 0.0038643968 0.08863587 -0.054621756 -0.08775037 -0.049091242
Kenyata -3.1924708 0.101439625 -0.21856794 0.71263653 -0.30094346 -0.37801337 -0.031030674 -0.09484134 -0.5506143 0.037817616
Kerensky -0.94700146 -0.056062836 0.04314862 0.05660962 0.022818023 -0.016375301 0.036801104 0.06770254 -0.03821769 0.025713058
Ki -1.5473635 -0.19206999 0.07095483 0.006393076 -0.0615255 0.016178302 -0.015149079 -0.021491246 -0.11630057 0.0198242
Kickapoo -1.4020625 -0.1408737 -0.029881388 0.012494505 -0.07293544 0.046693563 -0.061597135 0.06035041 -0.05294029 0.048368152
Kilroy -0.92649364 -0.0039916495 -0.16092558 0.24490453 0.10885263 0.00060031976 0.14248891 0.03104014 -0.077104725 0.010934887
Kissinger -0.996219 0.120688856 0.10087335 0.22991234 0.1137054 0.0177598 0.16775084 0.013287506 0.0057816245 -0.032139413
Kivu -1.0502018 -0.07118393 0.07174684 0.105871186 -0.03991583 0.06991213 -0.0035120863 0.06793758 -0.058412418 0.028246965
Klaipeda -0.78961635 0.04870245 -0.01936349 0.051144175 0.056527402 0.022004355 -0.084131666 0.036100797 -0.07219382 -0.024574371
Klansman -1.0990553 -0.03144713 0.07057269 0.120674744 0.051761203 0.02933004 0.07345361 0.067045525 -0.02138405 -0.018001402
Klaproth -1.0139123 0.0160319 -0.037739635 0.20904294 0.08285605 0.09420679 -0.035272446 0.035021074 -0.06986115 0.018818403
Kobenhavn -1.0996047 -0.02261453 -0.08767834 0.11212718 -0.055452738 0.0015914042 0.19252962 0.031548504 0.004118958 0.027183162
Kogia -1.4017351 -0.16711237 0.06968322 0.22915104 -0.03108066 0.040693793 -0.0271157 -0.06843825 -0.09813976 0.050752316
Kokka 0.3541454 -1.0332099 -0.50860184 0.9205471 0.07365521 0.5627029 0.64248645 -0.20191312 1.198851 0.6402147
Kongo -1.1899992 -0.069031954 0.055975925 0.19827363 -0.0020312185 0.012425629 0.127231 0.10895658 -0.0929899 0.10236354
Konoe -1.4570187 -0.14714095 0.02678336 0.09903724 -0.111021034 0.008125184 -0.023809131 0.08355382 -0.10724666 0.09342239
Korbut -1.0078398 -0.024850827 -0.0011227852 0.15649314 -0.016502662 -0.08277971 0.19142383 -0.008531095 -0.070807435 0.0025690596
Korda -0.96052366 0.08703831 0.03591706 0.38375926 0.1051509 -0.00078218675 0.089229636 0.016661879 -0.06528474 -0.055743825
Kore -1.1996987 0.10004944 -0.5230182 1.0664185 0.24553655 -0.013251364 0.08331876 0.3347715 -0.07247378 0.40080228
Kotar -1.299642 -0.049358476 0.04626423 0.14969337 0.02673476 0.07037228 0.013194657 0.023003018 -0.10196062 0.043749712
Koweit -1.1484653 -0.22975485 0.34103635 0.9417872 0.22442925 -0.73653144 0.28850904 0.09764316 -0.13095617 -0.1847122
Kremlin -0.68659705 -0.12318495 -0.06281237 0.1211495 0.10433813 -0.046470832 0.06376789 0.013381193 -0.043016188 -0.06397768
Krishna -1.2139541 -0.07309239 -0.095142625 0.2353776 -0.009101711 -0.09460612 0.07309839 -0.007897283 -0.104305625 0.009438062
Kroto -1.5826386 -0.11964819 0.117710546 0.15679535 -0.033880062 0.0061161895 0.03169867 -0.020007506 -0.13400175 0.08261841
Kurdistan -0.1882264 1.2627132 0.089621775 -0.122483335 -0.07422464 -0.35577783 -0.08497705 -0.20855096 0.26074278 0.13902737
Kuroshio -2.011178 0.2654549 0.8288456 0.7133414 -0.555633 -0.4214492 1.5489333 0.68344337 -0.96272993 0.013003934
Kursk -0.88692796 -0.06332099 0.03580093 0.17868467 0.036071453 -0.03362872 0.10642138 0.052058365 -0.12479987 -0.023631934
Kuwaiti -1.1526616 -0.23054476 0.3407132 0.9431381 0.22386134 -0.7366676 0.28970212 0.096282884 -0.13165036 -0.18516892
Kwa -1.0843011 -0.03707573 0.16027226 0.20410725 -0.015191421 -0.016783472 0.11971235 0.108855195 -0.07982468 0.02173198
Kyushu -1.183694 -0.06345297 -0.103057824 0.16464286 0.024420405 0.0045805196 -0.016433505 0.073378116 -0.1287357 0.031966157
L'Enfant -1.5449132 -0.073970824 0.15559843 0.07606657 -0.08834319 -0.014659894 0.038179584 0.059810184 -0.08676746 0.065298796
LBJ -0.40122685 -0.4744842 -0.8710531 0.8998048 -0.17360227 -0.6924862 0.21182132 0.6485143 -0.19977774 0.4994134
LDL -0.83948296 -0.08513475 0.08675974 0.13902488 0.097634695 0.0892444 0.060716823 -0.0006988037 0.00017816598 0.07782286
LED -1.1769558 -0.16184841 0.13821766 0.1489374 -0.03664799 0.0636378 -0.044513386 -0.03711173 -0.117937826 0.09980934
LOX 0.048407424 0.744476 1.5161121 -0.73635185 0.36237854 -0.07540923 0.09793458 0.32468352 -0.5627803 -0.56740797
LPN 0.59777015 -0.69819057 -0.9989452 0.08535547 0.21441977 -0.8005232 -0.012666314 -0.23423879 -0.07837584 -0.3195996
La. -1.5545079 -0.08364115 -0.0065050973 0.07344874 0.087226115 0.14482567 -0.07274878 0.10131621 -0.008640971 0.04544312
Labanotation -1.2248845 -0.13441317 0.039637208 0.06983751 0.097034566 0.11457521 -0.13723019 0.106052704 -0.060627464 0.049929492
Labridae -1.6281022 -0.10431136 0.26134178 0.2605456 0.096465625 0.040276065 0.0045350366 -0.0026322883 -0.19451682 0.05919825
Lacertidae -1.2323542 -0.1423273 -0.04320331 0.038526088 0.023074327 0.016164484 0.04695864 0.017704716 -0.018123453 -0.047419243
Lagenaria -0.98237526 -0.0031421073 -0.041664112 0.24951263 -0.008424468 -0.023281744 0.07905799 0.013209682 -0.093176484 0.0007097433
Lallans -1.2791988 -0.09565709 0.02557783 0.11961252 0.027741175 -0.012459798 0.04852869 0.07908935 -0.14864524 0.116733484
Lamiaceae -1.2920179 -0.052101977 0.27226868 0.295929 0.0974289 0.008030809 0.13448864 -0.01763882 -0.18741961 0.024600584
Lancelot -1.1352746 -0.11124108 0.0682832 0.17695558 0.053071957 -0.046588898 0.053609498 0.063036144 -0.09367689 0.051072117
Lander -1.0024598 -0.16541277 -0.11000662 0.037121825 0.048393525 0.16891842 -0.14120972 0.0846752 -0.037386212 0.02637918
Langtry -1.2011498 -0.13109662 -0.02328541 0.14969535 0.11423216 0.022577908 0.092395954 0.031749547 -0.023853308 0.067853935
Laridae -1.8423175 0.70824564 0.2236815 1.7049755 0.3148624 0.07079153 1.3253655 0.041739285 -0.2747184 1.1522615
Larousse -1.4817632 0.06619972 0.2167172 0.2987595 0.03403811 0.099291936 0.009600223 -0.032553516 -0.121506974 0.039938513
Lascar -1.1538839 -0.05629028 0.12117662 -0.04993636 -0.02388884 0.052166987 -0.038257062 0.10608059 -0.06201177 0.03872265
Lashkar-e-Tayyiba -1.2322468 -0.14592513 -0.010781521 0.17684412 -0.072028406 -0.03215801 0.023379952 0.0724442 -0.119444616 0.066052586
Lecythidaceae -2.6079078 0.43953708 0.6366545 1.4134002 1.0396677 -0.25763783 0.9699898 -0.1841957 -0.035493124 0.7574686
Lee 2.394054 -0.24685416 -0.74375886 1.989377 0.61931854 0.19917141 -0.2692349 0.80810094 -0.9619322 0.5571028
Leeds -1.3893508 -0.116439156 -0.039908286 0.06855541 -0.020736463 -0.06179298 0.16721226 0.0034119305 -0.09268741 0.032823022
Leiden -0.9939699 0.02725705 0.06783933 0.0972611 -0.09596932 0.010507122 0.023319218 0.06530369 -0.06763062 0.058501262
Lemnos -1.3919297 -0.11782905 -0.019970965 0.19820598 -0.04390953 0.05074889 0.0146986 -0.024050502 -0.16746883 0.13264048
Lens -1.1185924 -0.019359708 0.13535522 0.18855682 0.048876118 0.02823738 0.10731687 0.028282762 -0.0676963 -0.0070463307
Leon -1.1392596 -0.032967724 0.12477143 0.120930485 -0.06771061 0.024770916 0.03467333 0.021297863 -0.058640607 0.037603043
Leonard -1.3489937 -0.1493743 0.15109685 0.040629946 -0.081837945 0.05412728 0.020815756 0.073642254 -0.13047177 0.053947065
Lepidium -1.0263743 -0.011732112 -0.18879598 0.2547793 0.16502917 -0.057611167 0.18560146 0.06316418 -0.08060768 -0.0009783752
Leymus -3.151427 0.59986794 0.087122485 0.5682192 0.87937313 0.17692302 0.5590312 0.006723202 -0.083236106 1.5749449
Libya -1.630914 -0.0297949 0.28483835 0.31181988 0.029374698 0.043307394 0.06997053 -0.01743915 -0.15291873 0.1402323
Lichtenstein -0.74704367 0.019623319 0.057467345 0.19661228 0.12057431 0.017292148 0.04089333 0.05077632 -0.09759469 0.04856177
Liederkranz 0.35856602 1.3461307 -0.07037235 -0.55272347 1.136524 -0.6524842 -0.22359033 -0.517802 0.009561696 -0.039886825
Lietuva -0.9722925 0.15001225 0.04844095 0.27748543 0.11180936 0.006332128 0.22801024 0.0012941011 -0.15042308 0.045531873
Liguria -0.9531807 -0.0041874778 0.13340838 0.18705808 0.18363446 0.016134711 0.16434187 -0.008081051 -0.08632372 0.0029928067
Linaceae -3.1266701 0.568248 0.7596269 1.3911934 1.013634 -0.28888938 0.9824566 -0.25286648 -0.069415644 0.75106347
Linaria -1.3710451 -0.042447932 0.14933674 0.14368227 0.023341306 0.11842977 0.06500376 0.11391173 -0.13258748 0.066560775
Lippmann -0.85437787 0.08092157 0.1640029 0.29475787 0.08425359 -0.036896158 0.2070413 -0.014655124 -0.13558775 0.019166527
Litany -1.1661993 -0.014247945 -0.009128858 0.19772922 0.111137815 0.013759012 -0.048422426 0.06219878 -0.12375521 0.104857996
Livingstone -1.3319803 -0.12893216 0.04616964 0.022585342 -0.0689226 0.14715207 -0.1650123 0.046510193 -0.002288422 -0.013862754
Lobachevsky -1.267383 0.08908668 0.049667917 0.30784622 -0.073251136 -0.09736493 0.20482129 -0.0038684376 -0.10608497 0.024731483
Lobata -2.994884 0.12739545 0.423688 0.86003286 0.76343507 0.052342713 0.4515244 0.14177331 -0.2026532 1.130358
Loestrin -1.2292391 -0.12643738 0.011929625 0.04079185 -0.056632362 0.051285714 -0.04744998 -0.008739613 -0.047851384 0.017415684
Londoner -1.0599716 -0.053823985 -0.05324775 0.13515335 -0.057336923 0.0767997 0.024332704 0.13692404 -0.04037383 0.08077503
Lorenz -1.1500409 -0.041317515 0.026094988 0.061754562 -0.09494588 0.05317955 -0.053151287 0.07803585 -0.07346664 0.041341066
Lot -1.3219186 -0.11084608 0.06696422 0.10413136 -0.027150242 0.02404781 0.02853134 0.020764913 -0.06970915 0.002425862
Lota -2.262406 0.14174308 -0.14240836 1.0910834 0.4576291 -0.40324062 0.3967635 -0.13059169 -0.49710044 0.042525582
Louis -0.8530173 0.012164834 0.1554261 0.29108396 0.074317366 -0.051555093 0.105242856 0.0035622274 -0.12297733 -0.038174953
Louisianian 0.40163988 0.1093304 0.014199719 0.8738889 0.51535904 0.47342512 0.5394698 0.34484416 0.06940462 0.1961747
Lubbock -1.1261095 -0.18312643 -0.070885375 0.022717956 -0.047185022 0.07048456 0.05176812 -0.04459337 -0.05245803 0.111422434
Lubumbashi -1.340937 -0.051438652 0.12047591 0.20783666 0.019298956 0.20398891 0.037803125 0.015781136 -0.06305512 0.13955046
Lucretius -0.9979867 -0.08820872 -0.13455983 0.04057334 0.031152701 0.009421962 0.04908887 -0.06612245 -0.037516925 0.0038597134
Lufkin -1.2254366 -0.029765278 -0.09734296 0.13716011 0.09130908 -0.07210409 0.07798611 0.08754433 0.009088568 -0.045728482
Lugh -0.9879114 -0.10391271 -0.036590803 0.15761684 0.0072542704 -0.020516485 0.025535231 -0.03380682 -0.16776517 -0.026182473
Lugosi -1.1409141 -0.10180481 -0.11757214 0.122242846 0.10344087 -0.009773644 0.02590424 0.066325605 -0.10105186 0.014904885
Lusaka -1.1567411 0.03863306 0.073390946 0.1703697 0.10312985 0.032723855 0.045663495 0.052565474 0.00394768 -0.015153752
Lushun -1.3209674 -0.06107118 0.04728063 0.24951477 0.075781435 -0.004934455 0.1090868 0.045324337 -0.15813789 0.06325295
Luta -1.1028864 0.10242423 0.028823644 0.27443522 0.057886757 -0.05374123 0.17428678 -0.00013791588 -0.089866094 -0.015648393
Luzon -1.3782269 0.008692204 -0.08154961 0.15547188 0.0096364 -0.08772516 0.11927868 0.07941565 -0.07156679 0.025413906
Lycaena -1.2361823 0.010164234 0.049407266 0.27813816 0.050193906 0.06080185 0.27499545 -0.008881621 -0.18091208 0.1387172
Lycium -1.9973617 0.47830707 1.0550033 0.33772397 2.0116622 0.8313836 0.89101505 -0.81605315 -0.59573036 1.3162978
Lycopus -3.4446013 0.7169045 0.3467323 1.0099858 1.1524199 -0.289063 0.21109425 -0.18287246 -0.20948258 0.87628347
Lycosidae -1.2250779 -0.096895404 0.012447218 0.0428126 -0.00051179 0.036902703 -0.013542285 -0.028036686 -0.10315962 0.0903416
Lydian -1.1211771 0.017926091 -0.01584006 0.096854165 0.11417841 0.103012696 0.09564709 -0.0026066194 0.0867382 -0.045625977
Lysol -1.1406364 -0.021669047 -0.06957147 0.16937087 0.07896133 0.012935941 -0.017527306 0.07114745 -0.05384098 -0.034477692
Lythrum -1.3590002 -0.038694415 -0.008004524 0.07636898 -0.12695292 0.10308167 0.06398095 0.06372812 -0.04493847 0.12671702
M-1 -0.9676845 0.022859223 -0.02174072 0.051615935 0.0018577729 -0.0022014258 0.024593564 0.08149212 0.05109947 0.039044153
M.M. -1.001619 -0.03861707 0.14792186 0.26184013 0.15232047 0.08636503 0.069618866 -0.016397413 -0.1212022 -0.021116123
MA -1.0491624 0.07359312 -0.122141734 0.26328108 0.11427506 -0.08620372 0.19286719 0.08266586 -0.009120306 0.058389273
MDiv -1.3890182 -0.04558754 0.09202001 0.10404794 0.0015419932 0.027528744 0.08980318 0.0034306059 -0.14128958 0.048297066
MKO -1.2166287 -0.09863457 0.031933397 0.055892296 -0.024426559 -0.08336862 0.08403486 0.022597445 -0.12433424 0.1092084
MMPI -0.9532123 -0.041940074 -0.017767038 0.047950692 0.04391576 0.010765715 0.0045872354 0.05965525 -0.08318633 -0.070499085
MPS 2.904785 -1.3661506 1.7378659 0.22362061 -0.20187017 0.14823756 -0.34579512 -0.1777821 -0.26427066 0.15961973
MP 1.520918 -0.78111 -0.18438978 1.5093995 0.2339387 -1.3093582 0.08209858 0.62371576 0.77974683 -0.6858207
MRI -1.2963694 -0.115342125 0.09621952 0.16673604 0.066132315 0.03619858 0.116329946 -0.0631081 -0.09757456 0.09914786
MRTA -0.9629836 -0.13022874 -0.021830086 0.15426917 0.054311793 -0.044858687 0.040006254 0.090521224 -0.12298841 0.032282583
MSc -1.3855294 0.0050895186 -0.062843435 0.09712106 0.026752645 0.0029625439 0.039768044 0.02658035 -0.030401137 0.035383224
Macaca -1.2211437 -0.011704868 0.0978786 0.21279822 0.02807934 -0.023930714 0.20207098 0.0016114108 -0.09270524 0.06643929
Macedonian 0.32346994 -0.09929082 0.031605642 1.0537595 0.6605713 0.65944016 0.6831573 0.1365686 -0.23847577 0.38192374
Machiavelli -1.1876261 -0.015135489 0.04428551 0.26115587 -0.015082078 -0.030380674 0.02441857 0.012359307 -0.10812447 0.041202154
Madeiras -1.5272837 -0.11177283 0.024424188 0.12230007 -0.010150295 0.038123 0.10529011 0.049589675 0.011636275 0.05523564
Mafia -0.33267125 -0.37415078 -0.33715448 0.61844456 0.6968374 -0.09484354 0.30699033 0.32743752 0.24687998 0.32687646
Magi -0.93857896 -0.033780918 0.0757927 0.18992002 0.031617153 0.04736937 0.07676043 -0.13746852 -0.14915405 0.079680674
Magyar -0.039715122 -0.18400647 0.013226339 1.1411487 0.6319769 0.6130756 0.73196214 0.078066446 -0.3216535 0.41908225
Magyarorszag -1.4792162 -0.058302935 0.21818098 0.30437383 0.1385104 0.12470624 0.26387158 -0.17884582 -0.20237888 0.18326955
Maia -0.08160076 -0.042043827 -0.8184017 1.1470331 0.106817655 0.2026397 -0.01679847 0.57613045 -0.6695158 0.25321168
Maidu -0.7702725 -0.035569344 -0.12099673 0.18311511 0.12583426 -0.022589497 0.057131514 -0.01805483 -0.0880534 0.063120775
Maimonides -1.4087244 -0.06628775 0.08230328 0.25980633 0.008538364 -0.054477654 0.12712574 -0.03212867 -0.09404858 0.04155732
Maker 1.5694691 -0.38465223 -0.09029419 1.5219839 0.15349643 0.5331943 -0.50375044 -0.5457823 -0.36652038 0.8661764
Makin -1.2495747 2.1843698e-05 -0.04771955 0.16153029 -0.047167797 -0.14075154 0.08502241 0.033639763 -0.08988964 0.09678911
Malachi -0.9085769 -0.038812563 -0.00868431 0.09755174 0.08335535 0.097225025 0.09052312 -0.017328154 0.018515542 -0.039903022
Malacosoma -1.2349948 -0.04207224 -0.018591573 0.14484885 -0.07107588 0.06372642 0.07033464 0.1389748 -0.1373499 0.13116433
Marat -0.7627099 0.026037417 0.028293382 0.19272588 0.12628396 0.1482088 -0.010678629 0.103565946 -0.091254145 0.12396041
Marplan -1.0393348 -0.05290257 -0.06179506 0.1463354 0.02838097 0.050474197 0.03488645 0.008779163 -0.07155808 0.019306943
Mars -1.2326524 -0.09437457 -0.005715174 0.15708542 -0.04678512 0.07725016 0.027371498 0.07770722 -0.12059249 0.10470843
Medan -1.1455299 -0.07164227 0.09329003 0.13307545 -0.0035190466 0.047095012 0.0065070493 0.09394186 -0.11355634 0.0035942777
Mexico -0.96604073 -0.0731836 -0.012095574 0.08848413 0.0074566607 0.03928306 0.00083761977 0.10939168 -0.048477385 0.062611245
Moban -1.0130746 0.047057994 -0.0106592085 -0.007110044 -0.04743138 -0.034882404 -0.02821888 0.034014896 -0.019180274 0.01509191
Monterey -0.77956235 -0.008634999 -0.14920668 0.123053394 -0.017229427 -0.05431605 0.0143084 0.13050029 -0.11962066 0.0054228595
Munchausen -1.2026261 0.00051815755 0.019211598 0.31603837 0.025481518 0.01162443 0.111303195 0.026279623 -0.14477818 0.059031393
Nanna -1.141316 -0.0363093 0.04133421 0.08345533 0.017247 0.07421557 -0.09181279 0.029233275 -0.07718428 0.027324844
Nobel -1.2722383 -0.094768964 0.12391289 0.15061674 0.15159638 0.043562897 0.029307768 -0.0057170317 -0.103464 0.004590191
OPEC -1.1425219 -0.10612792 -0.11398445 0.14239122 -0.017084893 -0.018063305 0.0797747 -0.05530022 -0.09638788 0.09674811
Palestinian -0.86170214 -0.019278914 -0.0105714165 0.22921945 -0.043817192 -0.043314844 0.11164685 -0.017285913 -0.016544295 -0.058617827
Pomo -1.4577876 -0.023926025 0.1834125 0.16666675 0.04878444 0.10557082 0.004389805 0.022339232 -0.17376678 0.097231016
Rittenhouse -1.0744232 -0.035988744 0.029122334 0.12429308 0.06499046 0.06697968 0.09137016 -0.018850384 -0.07069542 -0.016732844
Saudi -1.0822122 -0.07621287 -0.0395957 0.14735831 -0.055924743 -0.048949935 0.18337539 0.007530455 -0.091121174 0.0692386
Sceloporus -1.3481141 -0.0071031414 0.17903738 0.23926193 0.0041714017 -0.022225153 0.09627506 0.006485393 -0.11339445 0.007253638
Scorpaenidae -1.2312611 -0.027677387 0.019668128 0.18124361 -0.023770418 -0.027998617 0.19757338 0.09680277 -0.074731454 0.12728883
Shiah -0.12109796 -1.2079555 -0.4504717 0.7656342 0.07347979 0.4104155 0.54380935 -0.31969312 1.1875969 0.50876725
Sills -0.28447694 -0.3882203 -0.36650687 1.5530909 -0.33939648 0.42118055 -0.036835622 0.4440022 -0.7491468 -0.12881108
Skagerak -1.1979866 -0.16585323 -0.01511282 0.11784516 0.015831469 -0.03964433 0.08801875 -0.009410839 -0.07528992 -0.041553617
South_America -0.5929406 -0.2630135 0.6843998 0.3821833 0.12949857 0.28147426 0.18706614 -0.43005425 -0.10715356 0.0573066
Sully -1.1885108 -0.066816166 -0.050130595 0.12827867 -0.031104278 0.0496525 0.012715932 0.076235324 -0.057474025 0.040072206
Talwin -1.2811823 -0.18011709 0.058568995 0.119734496 0.00037050594 -0.027401535 0.004836309 0.024461878 -0.14889152 0.04601837
Volta -1.238383 -0.024274109 0.034944218 0.18950088 -0.012477293 0.033049695 0.0597984 -0.06354563 -0.069207326 0.09581355
Wednesday -0.9991114 -0.103798404 -0.11147381 0.020908333 0.0024874506 0.0107952645 0.003602429 0.11479109 -0.010219758 -0.011608572
Wykeham -1.4001598 -0.18782647 0.08955979 0.15110354 0.07124144 0.025107635 0.071423925 -0.0044057877 -0.03266009 0.02065853
Wylie -1.158401 -0.075343534 -0.034408327 0.107539296 -0.1173343 -0.02765263 0.068366595 -0.046501264 -0.19488007 0.04484199
Xmas -1.275255 0.008619713 0.13066149 0.1259749 0.1087781 0.14164822 0.012766359 0.11799022 -0.07322004 0.051202785
Yale -0.9205356 -0.07447651 -0.055545673 0.21351086 0.10735768 0.096327364 0.074979015 -0.03882978 0.005002534 0.024473524
Yellowstone -1.2220832 -0.122486435 0.098101154 0.17969023 -0.01525054 0.04320747 -0.07503345 0.022984074 -0.18512326 0.075065754
Yiddish -1.3399417 -0.015348024 0.057371 0.07491706 -0.035519954 0.047663607 0.02592298 0.0019325847 -0.044721857 0.06964598
Ypres -0.8616106 0.04049109 0.032004602 0.10774124 -0.105348885 -0.0913228 0.17206949 0.10461743 -0.14686301 -0.006937329
Yucatan -1.502556 -0.007987256 0.0052168304 0.2602881 0.0095465295 0.015562477 0.099894404 -0.055136174 -0.120161645 0.131433
Yucateco -1.0762665 -0.11744628 0.11479564 0.10965673 -0.13380581 -0.09941039 0.07161878 0.11550306 -0.0566706 -0.016078316
Zambia 0.17062795 -0.8858824 -0.117230445 1.2394954 0.69791764 -0.28886533 0.74837416 0.2620693 -0.26948208 -0.08134897
Zambian 0.17092305 -0.88595676 -0.11748813 1.2394398 0.6982791 -0.2888595 0.7484433 0.26209337 -0.26941255 -0.081578806
Zamboni -0.50216126 0.58043474 0.06237218 0.81658226 -0.40218198 -0.5241209 -0.5120363 -0.4594195 -0.18365459 -0.5903523
Zangwill -1.3300803 -0.08627603 0.031436145 0.09733009 -0.011611448 -0.04511462 0.045603935 -0.021463288 0.009303471 -0.07458786
Zanzibar -0.99282146 -0.041665167 0.09796703 0.15748872 0.05022519 0.03208868 -0.085973956 0.09935931 -0.124358594 0.06802478
Zend -1.1137241 -0.022363367 -0.051121414 0.10344725 0.026964588 0.07704268 0.05131983 0.01711825 -0.068070054 0.04393623
Ziegler -1.3228083 0.106599756 0.10268327 0.25513098 -0.044486057 0.13173984 0.014900854 0.07175614 -0.12239527 0.12932704
Zinzendorf -1.5213375 -0.099925585 0.049823213 0.070964634 0.056039963 0.034108713 0.0012323821 0.006143199 0.016900199 0.05812562
Zionism 1.2819488 -0.46829262 0.36439514 0.17765895 -0.47731894 -0.022397168 0.41040215 0.7810797 0.64141005 -0.07221083
Zoroaster -1.4132155 0.05260405 0.043595187 0.18063691 0.0062922793 0.08013694 -0.024650404 -0.032817617 -0.119337186 0.07443688
Zr 1.0307492 1.6577563 1.5941426 -0.2040534 0.01668454 0.08219794 -0.8648912 0.08267134 -0.567178 -0.31183735
Zu -1.1850582 -0.00055705593 -0.0022260249 0.12115492 0.00027051615 0.031420216 0.02273407 0.08266828 -0.11893231 0.15741727
aardwolf -1.0367963 -0.009774164 0.06389812 0.1458346 0.009370863 0.0705668 -0.0460967 0.0030991097 -0.041675065 0.005835904
aba 0.21708079 2.0833657 0.1758303 -0.09894339 -0.6658315 0.36375725 -0.60974294 -0.75788265 0.9581817 -0.21840338
abalone -1.1355999 0.05513659 0.017253347 0.17610647 0.07393346 0.0086442055 0.009355073 0.13620836 -0.09460042 0.11232207
abandon 0.731938 0.12851553 -0.3275334 -0.55745184 0.12319318 -0.4346042 0.33883506 -0.101818085 -0.12796077 0.05625281
abandoned -1.2720373 0.02403469 -0.03288399 0.19527726 0.013232483 0.01223696 -0.0028799227 0.05172834 -0.082315564 0.11598166
abase 0.27285445 -0.45210648 -0.6319246 -0.27565888 -0.15555201 -1.0252731 -0.0069354223 0.19417496 -0.0895622 0.48785666
abash -0.45877492 -0.7811924 -0.1286867 -0.21743114 -0.4056898 -1.545956 -0.122293085 -0.76997143 0.24803829 0.47889006
abashed -0.98965627 -0.027506912 0.056557324 0.22389095 0.08613796 0.009359155 0.07501044 0.09233026 -0.06975189 0.021790627
abashment -1.5847244 -0.098152205 0.08766775 0.018694557 -0.037684567 0.15746747 -0.09563808 -0.005191636 -0.15778556 0.22151628
abatis -1.1684418 -0.032654315 -0.088386826 0.053015698 -0.07810002 0.010765375 -0.0021612444 0.11967016 -0.07009679 0.035711493
abdomen 1.1853924 0.22232813 0.19158034 -0.7714008 0.22293736 -0.31485993 0.1529733 -0.15237217 0.050158672 -0.06993139
abele -0.059545796 1.894414 0.20708473 0.2721101 0.18305984 0.2816492 0.78695655 -0.3672455 0.5669389 0.3943378
abidance -0.24585776 -0.25112855 0.18902065 0.60885286 -0.67576337 0.39364117 0.36585847 0.2523043 0.38092074 0.25571606
ability 1.8158438 -1.3957989 0.99964845 -0.18145998 -0.39497983 0.863739 -0.14047311 -0.08819109 -0.0020499772 -0.4338775
abiogenesis -2.2613745 -0.9533737 0.91349536 -0.5185083 0.43707728 0.934715 0.007585284 -0.21146655 -0.25476974 0.88173026
ablaut -1.6242424 -0.1466529 0.88600767 -0.3449443 -0.18318653 0.34632474 0.3487258 -0.19161682 0.3774991 0.021452049
abnormal 0.5083048 -1.2212598 -0.5237865 -1.7491317 0.1985851 0.41596815 -0.70216084 0.59053206 -0.1285233 -0.2832235
abominate -1.3388343 0.0023401072 0.08194116 0.2320295 -0.05594554 -0.030171685 0.066796966 0.08055963 -0.112838864 0.13356149
abortive 0.12655525 -1.0366119 -0.3485507 -0.3394602 0.38711688 -0.5831341 0.05897192 0.38018057 -0.15037075 0.3493979
about-face -1.1605927 -0.24309926 0.21858075 -0.7520833 -0.6810662 -1.0148865 0.02402746 -0.48196778 -0.3648569 0.39907688
above 2.2490733 -0.010167504 0.51687187 0.36723378 -0.28442726 0.0824131 -0.2376966 0.09563905 0.18460889 0.68819475
abrasion -0.9630582 -0.1393647 0.03475146 0.024454614 0.11291479 0.04973176 -0.058467966 0.038046878 -0.037935857 -0.07844087
abroad -1.1910615 -0.091520265 -0.13444825 0.033358086 0.050264128 -0.0026082878 0.0121023925 0.046793044 -0.028751366 0.00895183
abrogate -1.1080974 -0.114338115 0.034871835 0.1486946 -0.08295518 -0.036683097 0.12414238 0.04632011 -0.13587473 0.10109403
abscission -1.1763563 -0.093202315 -0.023238637 0.13677973 0.042574435 -0.07485082 0.04680519 -0.03178632 -0.09900319 -0.005698749
absence 1.9992183 -0.34040937 0.6769757 -0.62351424 0.52472574 -0.33754504 -0.1284894 -0.108540885 0.46498543 0.16146429
absenteeism 1.1050109 -0.4530108 0.64256936 -0.54608595 0.33612093 -0.37972006 -0.02990185 -0.22713141 0.4675924 0.22188245
absolutistic -0.8986544 -0.008359846 -0.0904472 0.08569129 -0.03967408 0.021132162 0.06122877 -0.11253849 -0.029116433 -0.033385098
absorb 3.177034 0.023576386 -0.11113356 -0.21038729 0.26867825 -1.2358755 0.18023117 -0.63317007 -0.8643394 -0.31883332
absorbance 1.2959169 -0.2565415 1.6220685 -0.6944801 -0.7207331 0.83516604 0.11520845 -0.056167323 0.2872791 0.010573968
absorbency -0.29356512 0.7794609 2.6381688 -1.6995697 -0.32872692 0.29779375 -0.6135225 0.091140956 -0.06577306 -1.1814507
abstainer -0.6522337 -0.115986854 -0.2683358 0.50226617 0.20472606 -0.025588665 -0.5524997 0.268826 0.27191955 -0.051163737
abstemious -2.327522 -1.0080235 -0.91573125 -0.49433532 0.03823095 0.3574791 -0.07354138 -0.79941607 -0.019406244 -0.5444283
abulia -3.3914835 -0.42365015 0.1119766 -0.032530114 0.31073686 -0.24726544 -0.27451512 0.19694012 0.4502085 0.12244919
abundance 1.5685161 -0.5955209 0.67527044 -0.45022985 0.32828543 0.3359945 0.52369773 -0.52232736 0.28128505 -0.14453329
abuse 1.7271037 0.21410148 -0.556329 -0.09548658 0.26965758 -0.31395677 0.07398804 0.2655072 1.0407866 0.055442642
acanthosis -1.2399637 -0.19881439 1.0758016 -0.84162945 1.3042063 0.026683925 -0.36507294 1.4408102 -0.24963695 -0.119411014
acanthus -0.6823852 1.4903053 0.11890465 -0.09051147 1.5261632 0.20358376 0.44307098 -0.47780475 0.3901111 0.57631165
accept 3.006139 -0.9028736 -0.40788084 -0.69509166 0.5163385 -0.7151268 -0.05680829 -0.5668682 -0.4977968 0.7160738
access 1.6620026 -0.6497571 0.4202943 0.36769298 -0.7252485 -0.40944654 -0.06067417 -0.3793831 -0.19959658 -0.08207419
accessory 0.51308495 1.5998157 0.36386365 -0.4268858 -0.69900465 0.27452704 -0.54556626 -0.11506212 -0.016324613 -0.27193555
accidence -1.2604216 0.010393847 -0.013395079 0.19812791 0.03105953 0.10582157 -0.042056456 0.07498626 -0.100700706 0.15582275
accident 1.3806957 -0.6767154 0.33680332 -0.39132652 -0.4662926 -0.43195775 -0.05772911 0.7117834 0.083024524 0.63379866
acclimate -1.1814957 0.021805856 0.13838838 0.2583628 -0.04457006 -0.035207335 0.11700851 -0.03026508 -0.063545346 0.040241707
acclivity 0.59799004 -0.0745404 0.21061637 -0.6788228 -0.47190002 -0.66635174 0.69982207 0.6307198 0.15141286 0.05559149
accommodatingly -1.6958066 -1.186658 -0.5397389 -0.3606166 -0.39056882 -0.60447854 -0.29185542 -1.1057 -0.2698241 -0.7280112
accommodation 2.2800434 -0.43270463 0.7974601 0.40831146 0.017382843 0.29219344 0.4601606 -0.10555426 0.7515198 -0.6557194
accomplish 1.3425019 -0.76479584 -0.005627039 -0.42826977 0.040698428 -0.5268669 0.24963033 -0.43187734 -0.59577036 0.3607367
accomplishment 3.2224169 -1.2062496 0.29469943 0.43960062 -0.37931198 0.11966699 0.5777813 -0.19412328 -0.061346732 -0.2997077
accordant -1.0787427 -0.113955446 0.014996542 0.12926427 0.13752712 0.032247696 0.046732135 0.029657273 -0.06908472 0.0033545995
account 3.4608364 -1.2194941 0.6881459 0.81183 0.80729246 0.69535196 -0.53422284 -0.27369797 -0.265631 0.37886652
accountancy -0.5068019 -0.3384443 0.36093834 0.86751896 0.0042735147 0.17354997 0.4813923 -0.19450378 0.43760273 -0.3888319
accoutred -1.0460069 0.02819866 0.17641418 0.08437452 0.07450376 0.08171324 -0.009509817 0.054229736 -0.032158956 -0.053902593
accumulate 1.6069806 0.4022875 0.69947124 0.02449603 0.07555472 -0.29471904 0.26998705 -0.729585 -0.19686991 -0.4039971
accumulation 1.7234184 0.063166596 1.3169662 -0.050911844 0.18436918 0.6631017 0.35582533 -0.26008254 -0.032063276 0.15317106
accurately -1.2234777 -0.100474775 -0.025031114 0.099125795 -0.120243095 -0.030229136 0.082051225 0.03135828 -0.09457584 0.001100521
acebutolol -1.0572363 -0.05250786 -0.04043065 0.1264722 0.008943578 0.0013397558 0.057417717 0.093633525 -0.042530783 0.08634206
acellular -1.8305075 0.35407245 1.4150982 -0.7919674 0.76669866 0.6171213 0.34797582 0.6297119 -1.1392663 0.1096391
acerate -0.30486012 0.071248055 -0.3371115 0.019370047 0.15646628 0.16143806 -0.48987752 -0.34709877 -0.05844829 0.3655544
acetamide -1.270308 -0.038970135 0.15646577 0.063321084 0.009437704 0.0052718306 -0.0042256564 0.040520933 -0.13218062 -0.027708668
acetanilide -2.5785453 0.047686335 1.0830622 -0.17299026 0.7225236 -0.3020644 -0.20598666 -0.33144173 -0.1871359 -0.5455432
acetylcholine -1.0073141 -0.013397218 0.08226698 0.32066664 0.19533 -0.022736805 0.18762147 -0.008036552 -0.04723114 -0.02098256
acetylenic -1.0438689 -0.05310434 -0.026020246 0.14360754 0.0051836004 -0.055734094 0.005188391 0.12479566 -0.16230783 -0.050241344
achievability 0.6525098 -0.42848855 0.48839816 -0.059170213 -0.37435842 0.2891604 -0.051093455 -0.3208352 0.23368432 0.2989804
achievable -0.9962508 -0.08381449 0.12585218 0.043108393 -0.041382067 0.0058176625 0.045581333 0.045945685 -0.03414055 0.038008947
achieve 0.9396442 -0.755092 -0.2418038 -0.28881165 -0.04837462 -0.41611788 0.2631321 -0.6401981 -0.5518803 0.31844428
acidic -0.29890138 0.2592809 -0.75350416 -0.81481737 0.93570447 0.14929526 0.2263901 -0.36640903 -0.4000818 -0.24829456
acidify -0.62080425 0.14323676 -0.36177278 -0.9345021 0.2202941 -0.29166654 0.25560996 -0.46095264 -0.48637986 -0.0019737373
ackee -0.9748218 -0.05629781 0.10417244 0.24139658 0.07374211 0.024913494 0.11500037 0.06319228 -0.024287881 -0.0408778
acknowledge 1.3588319 -1.4276643 -0.676271 -0.4398666 0.12841295 -0.6851677 -0.06456586 -0.7035192 -0.27862662 0.7823244
acknowledged -1.1337874 -0.06905138 -0.026106339 0.18902233 -0.030454833 -0.015952855 0.19296476 0.019561121 -0.04200148 0.030563932
acknowledgement 1.8471956 -1.4427298 0.29990306 0.42877147 -0.24846815 0.12940954 -0.12547904 -0.49001506 0.40609807 0.30176356
