8157 20
10-membered -1.3054178 -0.08315903 -0.059860278 0.25115997 0.06304909 0.012935107 0.066783376 0.035443734 -0.15145735 0.11591526 0.15708916 -0.023819989 -0.006091384 -0.035909917 -0.00569014 0.08555416 0.076646455 0.09079767 0.016532507 0.020007055
American 0.95751286 0.075675756 -0.07598324 0.85519284 0.6663301 0.60971993 0.44147897 0.39686292 0.053499293 0.23070271 0.42802662 0.5232273 0.09101011 0.12268609 0.027648028 -0.14639114 -0.19433403 0.13554373 -0.17070916 -0.10449642
Anaprox -2.6183364 0.04233483 0.8492343 0.22254272 0.9688584 -0.7603069 -0.5536599 0.36959094 -0.8544159 -0.30908892 -0.035144955 -0.96690786 -1.1529378 0.3470598 0.24526455 -0.17636657 0.21445128 -0.6061001 0.8292928 1.2861202
Aqua-Lung -0.6869534 0.69596076 0.23484345 1.0458554 -0.3705543 -0.2280793 0.004639139 0.42066324 -0.24042213 -0.4217713 -0.97451574 -0.3474341 0.43772256 0.8128064 -0.5080355 -0.40787542 -0.51344883 -0.6925516 0.14543656 -0.59639597
Aquitania -1.3142842 -0.11301759 0.16040252 0.1371906 0.03423619 -0.07380223 0.047963265 -0.08065407 -0.11653243 -0.0016652868 0.0059355553 0.054379445 0.07020222 0.10813512 -0.037765652 0.111252554 0.056067117 -0.014451574 -0.078550555 0.042680416
Arafat -0.7378752 -0.09597786 -0.016045326 -0.05139965 0.09714818 0.06765282 -0.12102765 0.08795248 0.044266164 0.030844348 0.07413047 0.034695946 -0.112443134 0.004865487 -8.311563e-05 -0.04521204 0.009913479 -0.021688566 -0.013661591 0.07116101
BA -1.0881733 0.084616564 0.051578797 0.124398604 0.07802285 0.03235663 0.012678135 0.13509555 -0.03994666 0.06848454 -0.02535926 0.10900055 -0.073450476 0.013044693 -0.050663162 0.026865015 0.09922773 0.004577252 -0.004741909 0.04067976
Bahrein -1.2006333 -0.05827101 -0.009729359 0.21351199 0.020172358 -0.0154945655 -0.04929785 0.014007232 -0.0905576 -0.007454351 0.017827112 0.03684585 -0.17854832 -0.0062101153 0.01888659 -0.069981776 0.068231374 -0.04482093 -0.06896783 0.046728726
Bath -0.96546793 -0.017182784 0.119606145 0.21193671 0.117477156 0.12764776 0.084811896 0.072570525 -0.033960313 -0.0048800805 0.001203531 0.009958531 -0.1179966 0.06341562 0.016811138 -0.08646752 0.020270165 -0.061555997 -0.11476034 0.047366
Bavaria -1.2576302 0.024518363 0.1043413 0.2386575 -0.0165792 0.07454233 0.086516604 0.024477463 -0.059674695 0.07710144 -0.051261928 0.09684272 -0.16005191 0.003512234 0.028108746 -0.15626867 -0.011035117 -0.008112327 -0.12904224 0.08169376
Baycol -0.9162999 0.037491858 0.045102254 0.24137941 -0.07010921 -0.0077431723 0.10805947 0.03767635 -0.14349101 0.04063137 0.12156729 0.097942136 -0.08480721 0.037850395 0.026629096 -0.09332987 0.018223422 0.06056387 0.0481716 0.047640037
Bayesian -1.1828485 -0.01345241 0.073686615 0.22921214 0.013749291 0.005170438 0.06362197 0.0801581 -0.04467284 0.05170635 0.0081935385 0.08547442 -0.09934699 0.050649732 -0.054824412 -0.034628667 -0.0028440559 -0.04109983 0.017266592 0.017968914
Baykal -0.9794982 -0.05324021 0.0016513453 0.099801764 0.051365666 0.07050519 0.049168196 0.04900188 -0.06204067 0.11812762 0.09205738 0.04821134 0.02795116 0.11836363 -0.028496277 -0.10511494 -0.01139031 0.00535765 -0.013893031 -0.018770227
Beaumont -1.457209 -0.3065524 0.08560696 0.06304944 -0.08782814 0.09072848 0.014990027 0.090667956 -0.07037418 -0.011457224 0.006744088 0.04478499 -0.038104385 0.034317482 -0.08052673 0.17077026 -0.017711593 0.03333571 -0.07860588 -0.016622819
Beethoven -0.57796794 -0.6506183 -0.22993785 -0.12628746 -0.08189807 1.0398384 -0.20195326 0.20360713 -0.1024216 -0.094820626 -0.8187908 -0.5601136 -0.025623808 0.24431153 -0.20783049 0.56908464 -0.11790894 -0.19752973 0.17246918 -0.4217524
Begoniaceae -1.3071115 -0.086333245 -0.007126993 0.11087524 -0.015895369 -0.046258923 0.062807895 0.039842866 -0.078489505 0.07501078 0.11818123 0.08138805 -0.10858043 0.01908816 -0.01830172 -0.016962904 -0.017097553 0.036688272 0.04647695 0.03234997
Belgian 0.3714743 -0.08512863 0.058600895 1.0453581 0.6457077 0.6587399 0.6709595 0.14292647 -0.25141057 0.3817812 0.4966747 0.5777549 -0.15526025 0.32608443 -0.14475708 0.07676966 -0.07419246 0.18788047 -0.22885287 0.06829477
Bell -1.1559639 0.044249635 -0.09361235 0.36366475 0.16437079 -0.022116741 0.07543985 0.0032347557 -0.07991192 0.033001646 -0.002326255 0.034122195 -0.040655665 0.08339441 -0.014491669 0.0033745265 0.13187101 -0.01316196 0.0025423653 0.051394746
Bemisia -1.3826537 -0.057541564 0.12207862 0.17164533 0.013332172 0.04261343 0.06346005 -0.06940821 -0.1202636 0.07397906 0.055161096 0.0332543 0.13967012 0.12329923 0.05768814 0.08595357 -0.009448472 -0.09767997 -0.038823213 0.017532948
Benadryl -1.4059464 -0.014117145 0.039146923 0.22701375 -0.050616868 0.09907632 0.032667346 -0.01117744 -0.085161224 0.20202437 0.06833519 0.010830962 -0.060653735 0.046509255 -0.034734137 -0.11426951 -0.018381855 0.0371676 0.041370615 0.002421396
Berkshire -1.2374531 -0.18462175 0.12284831 0.25667742 -0.0010210794 0.091777995 0.06781819 -0.06573408 -0.17783238 0.11353147 0.021560118 0.07176493 -0.13582012 0.05702066 -0.017978674 0.040223394 -0.054992955 0.009291284 0.019353133 0.004924607
Bernstein -1.2455238 -0.0019078135 0.15004523 0.11532423 -0.124246486 0.012432323 -0.031819355 0.026610058 -0.11079609 0.0656696 0.08217924 0.04801275 0.04494073 0.04435073 -0.0019308573 -0.037853763 0.082569025 0.045054406 0.016638773 -0.0048618754
Bertillon -1.0128092 0.019303543 -0.011529193 0.14645554 -0.07170326 0.060552724 0.040146995 0.023338156 -0.07664698 0.026837423 0.08601767 0.08983667 0.011339039 0.053981904 -0.0015925665 0.029599337 0.038405888 0.07436487 -0.014419743 0.0017482354
Betelgeuse -1.0441705 -0.05414816 -0.1659501 0.08641606 0.053665515 0.011575543 0.042069692 0.04888598 0.032374 -0.029032491 0.04905043 0.012235657 -0.16701776 -0.01538004 -0.03577907 0.048604272 0.05808848 0.00058362476 -0.008533318 0.03879602
Bethe -1.1516604 0.018856715 -0.006451896 0.28729686 0.16603288 -0.051834177 0.07509214 -0.026190918 -0.09229531 0.041827638 -0.05642564 0.099743225 -0.21814585 0.036248617 -0.03583551 -0.04360736 0.084767185 -0.034603536 -0.033505034 0.013286408
Bidens -1.1513822 -0.025871618 0.10833741 0.13608906 0.023293735 0.030107878 -0.10798592 0.1121143 -0.21336846 0.25617254 0.10079291 0.06613059 -0.2487984 0.012238453 0.042179182 -0.11775589 0.030384151 0.026654784 0.14912176 0.011685055
Bihar -1.4069093 -0.007482121 -0.034560293 0.23192985 0.027865237 -0.006086267 0.09971834 0.10738904 -0.058334038 0.11470884 0.04286071 0.036947638 -0.09345739 0.012853368 -0.045630183 -0.06951607 -0.0046475427 0.01215862 -0.049917594 0.032980535
Blackpool -1.0344354 -0.01035999 -0.04987299 0.19996832 0.07150774 -0.023687871 0.12507355 -0.11914108 -0.08859017 0.05242998 0.0025054652 0.031544913 -0.2554249 0.026266586 0.04203634 -0.080601774 0.010980922 -0.0066272523 0.056164388 -0.0015329899
Blarina -1.0917724 -0.021101901 0.047652446 0.15306865 0.087873824 -0.032708768 0.036907587 0.05890037 -0.08394894 0.009915192 0.13157658 0.07903042 -0.14905918 -0.002066315 -0.039999533 0.1461622 -0.030777706 -0.061114416 0.043282755 0.0013066533
Bluebeard -0.75498384 -0.08559099 0.05949241 0.111593254 0.054940768 0.038829044 0.008972092 0.052985862 -0.071487695 -0.02530379 0.04531397 0.136315 -0.023991823 0.016004642 -0.032753464 0.01764538 0.027624983 -0.0048503284 -0.02657645 0.075193755
Bluegrass -1.284251 -0.10234224 0.036220353 0.138666 0.0012891829 -0.05205 0.16463567 -0.005498318 -0.1367359 0.03378301 0.11022318 0.059868153 -0.046348147 0.031148858 0.00870791 0.0034108032 0.04626836 -0.0019099975 -0.05885523 0.047823627
Boche -0.2585225 0.23733409 -0.7338807 1.0472339 -0.052738167 0.034715436 -0.049778696 0.8211168 -0.13715644 -0.16904376 -0.2936995 0.60583425 0.5523859 0.064253666 -0.2165445 -0.246444 -0.029613473 -0.07766433 -0.48187977 0.15445411
Bodhisattva -1.0075651 -0.09449727 0.10608796 0.06430608 -0.032154974 -0.00614204 -0.035417285 0.07854737 -0.11391413 0.059199747 0.09707394 0.11281823 0.0025959858 0.05322302 -0.03655227 0.0037638857 0.07869709 0.041119922 -0.0068242936 0.08224555
Bodoni -0.60574156 -0.29204628 -0.63696474 0.08699101 -0.22366601 0.3128465 -0.53580457 -0.13801119 -0.07416046 -0.30865505 0.1536035 0.3141021 0.4112985 0.08265051 0.24047457 0.046352755 0.122140855 0.00049503223 0.0041882284 -0.13477816
Boell -3.0494418 0.11735689 -0.45893064 1.118589 -0.1065677 0.15652779 0.054205943 -0.10977403 0.17762958 0.08876267 0.11545508 0.6152355 -0.79275185 -0.1265645 -0.093440324 0.30407423 -0.33232406 -0.91991043 -0.88241345 -0.68697447
Boltonia -0.81097287 0.07719707 0.053520653 0.109802745 0.026284374 0.045500897 0.048556335 0.10894789 -0.025048494 0.08135889 0.07860544 0.08799295 -0.093836136 0.060773898 -0.02158151 -0.16619049 0.017714053 -0.0069793123 0.041672084 0.080774
Boltzmann -1.1838038 0.0657012 0.21819898 0.22374581 0.023967149 0.04711062 0.17760469 -0.09618967 -0.106430575 -0.031845752 0.09375644 0.0096989265 0.10249654 0.13675237 0.051332798 -0.015121228 0.047271222 0.0031940686 -0.041692954 0.043524157
Bombax -1.0454633 -0.06395677 0.09444464 0.19266373 0.0048197946 0.020716058 0.07275634 0.0014127038 -0.08013501 0.01753226 0.020871706 0.19225277 -0.12849252 0.081496894 -0.022846475 0.011975901 0.023221653 -0.057954773 0.02963413 0.014773642
Bontemps -1.2230694 -0.0738107 0.15329883 0.23909922 -0.009092447 0.029739518 0.101716556 0.0755858 -0.078084886 0.17719732 0.04499436 0.08895836 -0.11456129 0.027152564 0.025779484 -0.12354833 0.04878237 0.06575501 0.06269297 0.09944077
Borago -1.2862095 -0.09556521 0.1639987 0.09703043 -0.07094693 0.093923055 -0.08924165 -0.011517521 -0.09700657 0.12131523 0.008287324 0.09705683 -0.07584518 0.06429363 -0.0056134774 -0.08778844 0.043849904 0.07434849 0.03990027 -0.034213867
Boswellia -1.107834 -0.026359174 0.05747912 0.08084843 0.0053487536 0.1471697 0.004490593 0.08083382 -0.00834339 0.000102096434 0.042778045 -0.003580082 -0.12979753 0.053768802 -0.03188151 -0.051584736 0.038752142 0.033353854 0.044832814 0.06917377
Bourgogne -1.0637985 -0.023818381 0.088969655 0.1608741 0.047903366 -0.0016885356 0.11878659 0.051670957 -0.04858346 0.053239446 0.080754235 0.030586228 0.09673688 0.040373284 -0.0197695 -0.046142314 0.047791928 5.3938875e-05 -0.04886719 0.062938824
Bowditch -1.426633 -0.08409769 0.10754784 0.15520567 -0.16408709 0.08117984 -0.016695863 -0.004755365 -0.08394901 0.17530839 0.08284852 0.018192638 -0.11838695 0.023397584 -0.036365125 -0.03314983 0.026514784 0.032904517 0.121959694 0.015338666
Boyne -0.9392006 -0.09166337 0.0059852847 0.084125 -0.062722236 0.071221 0.00041328798 0.11171413 -0.14292365 0.12054337 0.18477228 -0.008368459 -0.07289645 0.049197283 0.0087319305 -0.032599434 -0.0507705 0.10153484 0.077200145 0.0438626
Bradbury -1.4802954 -0.054664742 -0.15224884 0.13934422 -0.040083442 -0.038183726 0.049775794 -0.027263183 0.07314379 -0.065029345 -0.006602402 0.074620426 -0.11050384 0.0038698218 -0.06810857 0.15840389 0.117037736 0.043259777 -0.075409874 0.030451424
Braga -1.282756 -0.029664136 0.029611023 0.16130453 0.030347072 0.012274587 -0.051725592 0.1592467 -0.106563285 0.03135261 -0.02845507 0.048727192 -0.05148621 0.04392461 -0.07107691 -0.02521221 -0.00047478112 -0.015191668 -0.020550564 0.036623027
Braque -1.0858852 -0.06882726 -0.033844035 0.015256226 -0.016444795 -0.017849922 -0.0876514 0.10037318 -0.014162158 0.021558331 -0.04374879 0.06532945 -0.18787998 -0.028984986 -0.0113826385 0.09636617 0.06228529 -0.011273044 -0.09700493 0.022639237
Brasil 1.2225022 0.027960885 0.14193808 1.4751865 0.7363327 0.27318633 1.01833 -0.040116314 -0.6488697 0.9031165 0.44733438 0.4371606 -0.3646621 1.0565912 -0.25284714 -0.09684586 0.07932039 -0.6631415 -0.13997081 0.14183629
Brassica -1.2086786 -0.060833905 0.03032965 0.15981336 0.037872855 0.003944184 0.041140623 0.0906558 -0.07579271 0.04522752 0.009860533 -0.033951536 -0.14225258 0.10734563 -0.06614851 -0.081254065 0.08067185 -0.014605518 0.030195398 0.077982634
Brazil 1.2255324 0.021224689 0.13424036 1.4810349 0.76046395 0.28104165 1.034576 -0.0558577 -0.64507365 0.87781894 0.45475414 0.44410172 -0.36327264 1.0589174 -0.2564696 -0.09978035 0.07534438 -0.6692329 -0.14910443 0.1392362
Brazos -1.1288962 -0.07449628 0.08764293 0.15700878 -0.021755738 0.051098038 0.08956699 0.05060894 -0.19518965 0.115217656 0.023243027 -0.04118681 -0.13955033 -0.009011199 0.04157389 -0.08595629 0.0289578 -0.010956272 0.0059216116 0.10631168
Bremen -1.2092788 -0.02984522 0.18359116 0.45754316 0.09080043 0.077917315 0.25810754 -0.115593694 -0.20932338 0.00257202 0.078208156 0.006229907 -0.01007006 0.07974283 -0.017295051 -0.110065274 0.0022099023 0.0609486 -0.010068692 0.056302514
Bremerhaven -1.9026865 -0.23966706 0.062740445 0.450882 -0.021122681 -0.00094704865 0.27465597 -0.23219943 -0.23331323 -0.09413699 0.14259258 -0.13887377 0.03265822 0.047332685 0.0009457897 0.10393484 -0.038917094 0.03733805 -0.06027565 -0.012449869
Brisbane -0.5487834 -0.044559147 0.049430154 0.010220316 0.03250443 -0.032593403 -0.015272204 0.18144287 -0.10113924 0.109856814 0.09195753 0.058741685 -0.054537404 0.06921084 0.064449474 0.0017087327 0.011998857 0.029704208 -0.03462158 0.09821007
Bruckner -0.9253771 -0.037394173 -0.0019177126 0.18362625 0.027699322 0.10048063 -0.10976285 -0.09381776 -0.036320426 0.05742724 -0.013933356 0.16168563 -0.08285836 0.063470244 -0.024566444 -0.029474802 -0.0021191938 0.025040165 0.052003633 0.09345271
Brumaire -0.9928674 -0.004210895 0.077359624 0.064003795 0.079429775 0.054466162 0.09475662 0.07291432 -0.030751292 0.027800867 0.048736144 0.100199506 -0.01635139 0.042992033 0.05349025 -0.016440392 -0.10591635 -0.0050763576 -0.02611509 -0.023525186
Bruno -1.0812049 -0.099294126 0.07915894 0.12111208 -0.15081435 -0.041993503 0.11495412 0.13835333 -0.07256725 0.028200585 0.102211684 0.111788265 -0.06802095 0.06575535 -0.007826751 0.013279457 0.07273183 0.079438895 -0.026271757 0.020875465
Bultmann -1.442358 0.08983077 0.14581433 0.24742208 -0.032702517 0.0071648215 0.060168207 -0.12725042 -0.13784012 0.079074994 0.04950579 0.072436415 0.00641539 0.015921397 0.024038685 -0.09253283 0.06868507 -0.02599511 -0.008764632 0.0010531183
Bunche -1.7969323 -0.14653677 -0.041447483 0.58531076 -0.011335825 -0.026469095 0.5212554 -0.17223816 -0.21551183 -0.039013676 0.17916632 -0.16802877 0.11259994 0.05181563 -0.0761565 0.057037856 0.002597334 0.0042744176 -0.09649106 0.049638703
Burbage -1.4984529 -0.15177284 -0.04800244 0.3947951 -0.032952122 0.0706122 0.28461885 -0.30842745 -0.23272648 -0.14103231 0.16161346 -0.1732158 0.104881965 0.025214387 -0.026774228 0.062896214 0.08237689 0.008528752 -0.081604786 0.042840037
Burbank 0.40688136 0.18991867 -0.027756298 1.9909767 0.2953575 -0.25899437 0.8155613 0.3980247 -0.94723046 -0.08149817 0.10340247 -0.10133992 -1.144707 0.11976226 0.02431675 0.17804466 0.34522328 -0.57694 0.07570245 -0.25121167
Burger -0.60049397 -0.018732656 0.19911699 -0.1411657 -0.0009703835 -0.0008003517 -0.101522125 0.27951646 0.032127447 0.11427402 0.009040547 0.11356232 -0.024592591 0.1808671 0.040365174 -0.022154411 -0.060751915 0.054252215 0.028874177 0.077941634
Bushman -0.8037916 0.13373677 -0.75928724 1.2504537 -0.12645641 0.016424943 0.13473396 0.6256084 -0.24879473 -0.23781843 -0.23792051 0.48398554 0.60786533 0.03214101 -0.22908615 -0.19925348 -0.022482924 -0.09213591 -0.505253 0.13779421
Butler -0.94106615 0.13456957 0.13302182 0.015715178 0.03231761 0.12303816 -0.23075022 0.20551084 0.020850953 0.17569712 -0.024598677 0.12265609 -0.27238032 -0.0085725365 0.023753885 -0.08656727 0.081825055 0.0034956262 -0.01614536 0.06828112
CDC 0.42809293 -0.43030328 0.24165428 0.63383967 -0.030526914 -0.3557202 -0.17884971 0.105611496 0.48537576 -0.04852704 0.05992389 -0.10615096 -0.18426935 -0.054414596 0.097312115 -0.061654653 -0.17558694 0.03563319 -0.19276461 -0.27304867
CD 1.6672364 -0.3854913 1.4161417 0.5292019 -0.47374895 -0.65333027 -0.7108946 -0.6993475 0.43082768 -0.014880695 -0.0053693936 0.32781667 -0.60143214 -0.46719518 -0.13982563 -0.53064567 0.675887 0.22614211 0.57546514 -0.48757058
CFO -1.2156698 0.043304145 0.029541206 0.035765715 -0.03441495 0.03401099 -0.07388459 0.02342869 -0.07821146 0.065440856 -0.019064944 0.035825875 -0.09776378 0.075797 0.018041354 0.084262446 0.009740052 0.061780356 0.031552922 0.022438692
CMBR -1.2701033 -0.11619679 0.06496162 0.12694563 0.035963114 0.14736333 -0.11024656 0.017380517 -0.052351367 0.02966789 0.014178192 0.021526251 -0.14070283 0.030322952 -0.046626184 -0.0030216703 0.012415328 0.06926754 0.011443849 0.02605563
CST 1.0628635 -0.58692896 -0.15322264 1.044945 -0.2583789 0.3978351 0.46243784 0.11307277 -0.6279331 0.31982577 -0.38592288 -0.7661295 -0.5659529 -0.052422363 0.1019228 -0.027892807 0.4642352 0.19124086 -0.10186688 0.17726147
C 1.5777333 0.8999272 0.97696644 -0.43333325 0.12749244 0.26991415 -0.10620844 0.28444725 0.0724 0.48042056 -0.4463858 0.89326704 -0.44022617 0.19174826 0.59125334 0.23252878 0.00954628 0.16486755 -0.3153251 0.37964207
Ca 0.9370928 1.6392477 1.5824677 -0.1654547 0.01867142 0.08385132 -0.82720685 0.040450923 -0.5825083 -0.33841568 -0.22184974 1.6900517 -0.9245639 0.38709125 0.29309043 -0.22092147 -0.35458934 0.22215155 0.5011647 0.5373804
Cadra -1.3752943 -0.081480175 -0.0037369707 0.23941968 -0.15395406 -0.009574125 0.14872088 -0.02597185 -0.10582586 0.1567515 0.06291867 0.015698425 -0.09150994 0.102594085 -0.02616401 0.077161804 0.019999057 0.06346439 0.087652594 -0.043984387
Caesalpinia -2.0679328 -0.18390864 0.034816913 0.36364684 -0.079860784 0.03928037 0.28798285 -0.22295281 -0.28701162 -0.012739747 0.117450595 -0.11790218 0.0037088247 0.05715787 -0.081428215 0.056229718 -0.017066054 0.038221773 -0.018409636 -0.059067853
Calamintha -1.0172982 -0.06315918 -0.0014658679 0.070202775 -0.06732066 -0.08557538 0.06649578 0.054322213 -0.038643856 0.18539213 0.10135729 0.11873927 -0.03015256 0.12449349 0.0038734567 -0.048570126 -0.017129153 0.039832797 0.16585037 0.016763087
Caledonia -1.3898355 -0.12858556 -0.17211416 0.12417125 0.008178557 0.10622296 -0.038220778 0.0029165882 -0.024051324 0.067687966 0.02687507 -0.043792624 -0.18429174 -0.01793888 -0.09304663 0.06610811 0.056810867 0.081531696 -0.04840717 -0.0009901181
Cali -1.2714158 -0.05918416 0.11531887 0.3471583 0.04125342 -0.048843138 0.13229938 -0.10050223 -0.19330694 -0.12215749 0.105039656 0.061259102 -0.08552736 0.035550427 -0.034736402 0.03534256 0.040076606 -0.029488252 0.0234011 0.0009517899
Caligula -1.1025114 0.006465177 0.048480634 0.2790758 0.21945398 -0.0112091955 0.18009442 0.019088453 -0.039194956 -0.1557058 -0.048890576 0.1684772 -0.05970208 0.05337851 -0.07028314 0.04867747 0.10183818 -0.0771229 -0.14661135 0.061969012
Calliphoridae -0.88556343 -0.06478055 0.051621526 0.22837794 0.14403905 0.026952662 0.043102384 0.081399634 -0.12016932 -0.12766325 0.031735186 0.15077578 -0.20132554 0.08525107 -0.034132317 -0.07622372 0.05750384 -0.0075608892 -0.00536035 -0.0022851545
Caloosahatchee -1.2531251 -0.10299914 0.15360808 0.0029070084 -0.2676135 -0.15302128 -0.17929128 0.23912203 -0.05219585 0.14672728 0.10527576 0.09064425 -0.00842176 -0.004215501 -0.05795599 0.18277304 -0.025643857 0.12674691 0.017616099 0.013818089
Cambria -0.89600915 -0.09052346 0.1641266 0.3739558 0.2842139 0.21207835 0.3732392 -0.20003131 -0.32010347 0.1684002 0.113546975 0.26676717 -0.24103688 0.31960234 -0.16272898 0.118818544 0.0883886 0.12633052 -0.19858822 0.11728698
Cambrian 0.07692625 -0.18226425 0.010589517 1.1591723 0.6016557 0.55688775 0.7339466 0.08374804 -0.39870676 0.47201684 0.47279504 0.6849662 -0.28284115 0.47475055 -0.35147843 0.24636893 0.055232424 0.20277591 -0.24885266 0.12644842
Cambridge -1.2252707 -0.14358196 -0.061887152 0.04217663 -0.02598542 -0.028581953 -0.120690204 0.15849514 -0.0028760107 0.1416824 -0.08849768 0.045634195 -0.19027741 -0.018459167 -0.020076364 0.062809534 0.07247193 0.058023475 0.0010533591 0.052938156
Camlan -1.2044185 -0.025521995 0.17593302 0.20485474 -0.1187173 0.0018906911 0.107236385 0.101049095 -0.19193988 0.14368878 0.14935395 -0.02927128 -0.101688564 -0.036032453 -0.022636289 0.0011177389 -0.0149932 -0.006450279 0.0025165088 0.025831299
Campeche -1.2416883 -0.07502446 0.028052233 0.04257603 -0.05648 -0.06946391 0.094095364 0.09066236 -0.060217563 0.067451395 0.14334847 0.10315035 -0.1632317 -0.057850145 -0.06742383 0.033261087 -0.008783731 0.03827987 -0.013934261 -0.050713267
Canaan -1.197976 -0.019986844 -0.10050144 0.21886978 0.44563848 0.093258984 0.046097558 -0.029711539 0.056307103 0.008219497 0.1007196 0.046062436 -0.21387026 0.10318063 0.0038376804 -0.14454748 0.095612794 0.033913687 -0.023354487 -0.023619369
Canaanite -1.0496145 0.020603811 0.05966214 0.14408101 0.06654766 0.02877774 0.1572247 0.044250377 0.005501166 -0.0027779918 0.08658582 0.056381013 -0.15096828 0.036524314 0.008059288 0.014749895 -0.029043749 0.020113267 -0.023700109 0.034188885
Canaries -1.1789589 -0.23020847 0.17555895 -0.088229805 -0.20757425 0.025123844 -0.09649084 0.20577608 -0.18685909 0.16767634 0.15038936 0.08559111 0.043237418 -0.00020763603 -0.078505345 -0.030075574 0.0030873185 0.016195882 0.0761443 0.034420267
Cancer -0.1866714 -0.13548486 -0.21707131 0.5149401 0.20669383 -0.011874272 -0.5229218 0.32029563 0.18860823 -0.0928956 0.0009201039 0.26502812 0.45912236 -0.06537855 0.22366953 -0.18552683 -0.055813953 0.104824804 -0.11387273 -0.11844512
Canetti -1.2004199 -0.08755395 0.17159201 0.011246208 0.036185224 0.07293021 -0.055116937 0.06658489 -0.015136187 0.01313591 0.0065239198 0.0025930777 0.007244893 0.10093014 -0.0059151137 0.056867283 0.031104835 0.0755432 -0.058854505 0.07834307
Capek -1.284032 -0.06264608 0.072874874 0.116662964 -0.098282374 0.108213656 -0.013539615 0.0003358965 -0.09665088 0.13580541 0.032699883 0.10032628 -0.0060282107 0.04804015 -0.02675341 0.0018440866 0.05751518 0.023060752 -0.049227484 0.022750927
Capone -1.1419168 -0.120002985 -0.0009707995 0.15685087 0.071090125 0.09657119 -0.009915262 -0.0046960344 -0.081854545 0.049935438 0.14270179 0.04203654 -0.13140273 0.059326652 -0.07250972 0.016531887 0.029733116 -0.016053135 0.12644185 0.018008046
Capra -0.8212099 -0.06276261 -0.36467528 0.92177796 0.6600775 1.276334 0.022326622 0.54472077 -0.60358506 0.82184285 -0.11327745 0.80523026 -0.40266827 0.8093036 -0.24432151 -0.039637357 0.068626404 -0.39467165 -0.6113283 0.07701909
Capricornus -1.3616033 -0.03689122 0.1139547 0.15251811 -0.1423634 0.12717596 0.061028335 0.024976728 -0.07712333 0.07386949 0.06519759 0.03902292 -0.08661315 0.051072802 0.008428676 -0.09376011 0.03753363 0.008128674 0.020275418 0.038979847
Captain_Bob -1.325571 -0.07359167 0.16863243 0.021353073 -0.057304267 0.11667038 -0.13182203 0.087254636 -0.08905057 0.06173341 0.10872119 0.030581279 -0.06007968 0.000110482666 -0.016547997 0.052651472 0.025581528 0.09658304 -0.023264125 0.034846038
Carafate -0.83279 -0.27793917 1.0911969 -0.21860492 1.1352293 0.06888732 -0.46930653 0.20697804 -0.23945437 -0.9444273 -0.17944591 -1.027223 -0.579588 -0.05941896 0.017703243 0.373064 -0.32134527 -0.77489424 0.13825661 0.553745
Carangidae -0.82774866 -0.0427643 0.09544054 0.16121447 -0.019678349 0.011114213 0.11501564 0.06565595 -0.08561112 0.08059887 0.11925307 0.08411667 -0.045473576 0.071281165 0.013071485 -0.06747043 0.024261061 0.0033191084 0.08111885 0.008904468
Carcharias -1.3158362 0.060469802 0.07477782 0.19391412 -0.019137993 0.009381352 0.11087912 0.14353901 -0.07098099 0.06336184 0.04738762 -0.048828516 -0.09809003 0.031342637 0.03194352 0.06075695 0.025137827 -0.03576033 0.014863917 -0.0048279697
Cardura -2.072703 -0.18462546 1.0854175 -0.13756624 1.0719095 -0.18841963 -0.21288966 0.37072608 -0.21262236 -0.94259846 0.19885708 -1.1811475 -0.3254186 -0.34929377 0.09179757 0.14426407 -0.11826955 -0.75821555 0.051162142 0.9308408
Carlsbad -1.3393985 0.072313234 0.13637751 0.21198368 0.07265442 -0.00077748706 0.15754025 0.0017894689 -0.10937476 0.02494682 0.07259289 0.03428696 -0.07317075 0.04853225 -0.010412368 -0.07788145 0.0029392045 0.05663065 -0.03589262 0.03641645
Carnot -1.1902411 -0.066331185 0.021948608 0.11659764 -0.12526485 -0.0033623804 0.0342169 -0.011475268 -0.15387431 0.13902558 0.08705514 0.05686878 -0.1693131 -0.03111817 0.01985792 -0.08581723 0.07840726 -0.0565183 0.05830484 0.00031767198
Carpinus -0.9978842 -0.08747049 0.17410707 0.13636266 -0.0038039044 0.07885859 0.06866472 -0.061077323 -0.11881809 0.077267215 0.09663307 0.12938088 0.013336499 0.04574701 0.0037437542 -0.070557624 -0.027316362 0.016942697 0.08570645 0.037485905
Carpodacus -1.1141288 -0.072052 -0.04105609 0.10967342 -0.04878144 0.063570134 0.018568816 0.12863286 -0.054710336 0.046959147 0.082794234 0.08982113 0.030929705 0.039100446 -0.060986683 0.07994985 -0.004798452 0.041495584 -0.038769845 0.02324857
Carter -1.0744207 0.010311112 0.05087614 0.16484827 -0.0063390485 0.050126817 0.015649112 0.019713994 -0.08966993 0.05335197 0.046121087 0.030451477 -0.017229255 0.057004754 -0.026333453 0.0010616428 -0.0064572534 -0.01632063 0.09509822 0.028891692
Cartesian -1.2500713 -0.033837553 -0.35438755 0.16502322 -0.15603535 0.130418 -0.493336 0.17010292 0.32771027 0.12646341 -0.010617558 0.2584902 0.471753 -0.12935117 0.23364492 -0.24310817 -0.2970998 0.3972592 -0.2229543 0.043420147
Cartwright 0.3196333 -0.49677885 -0.63824224 1.7121586 0.28152058 -0.034777172 -0.22418992 0.48957777 -0.75496334 0.31030455 0.56187004 0.31426346 -1.1052115 0.29604515 0.14014532 0.26654878 -0.19907886 -0.40201095 -0.42752025 -0.03693077
Caruso -1.4292995 -0.11361159 -0.030490093 0.071331315 -0.073761426 -0.17530183 0.14133224 0.051305056 -0.021765199 0.047101215 0.10938709 0.14885195 0.0007497008 0.08632815 -0.034958635 -0.024796426 0.0012179059 0.03301309 -0.022590507 -0.0066381493
Carya -1.0740473 -0.16833101 0.01700793 0.061047696 -0.03648548 0.015065758 -0.1176905 0.07048913 -0.15289521 0.04881683 0.010665098 0.048534486 0.05299488 0.03721293 0.042410266 0.13811296 0.064931236 0.06796711 -0.012532402 0.04321784
Caryophyllaceae -3.476245 0.37306765 0.6786848 0.822171 1.2160282 0.53307444 0.98139167 -0.13643679 0.45983523 1.68703 0.44985586 -0.41393188 0.18987216 0.46071807 -0.08893002 -1.0612795 -0.7628827 -0.452491 1.5950489 -0.7473276
Casablanca -1.1551349 -0.0017079263 -0.017877515 0.24219231 0.06504003 -0.04497148 0.15538831 -0.051511884 -0.05538124 0.04122906 -0.023944145 0.03409896 0.005269796 0.0814524 -0.028667359 -0.008419233 0.038037434 -0.0076984414 -0.04387393 0.07735057
Cassiope -1.0424433 -0.09638182 0.009253964 0.089212626 0.013882638 0.046312083 0.029621985 -0.021350482 -0.12370384 0.12576209 0.091731645 0.033251453 -0.09492094 0.08063082 -0.039389513 -0.0019520812 -0.015362654 0.04815492 0.10375029 -0.026656609
Castile -0.70680225 0.34499678 0.020014398 1.2993876 0.5162121 0.11951898 0.94379437 0.09233511 0.010609144 0.17714584 0.5810185 1.2492542 -1.0868516 0.9943533 0.001526842 0.022946065 -0.08664592 0.2123902 -0.71801776 0.06064981
Castilla -0.70019525 0.3456355 0.017185455 1.2994096 0.5169836 0.12110772 0.94386834 0.0876308 0.011273554 0.1753132 0.5803995 1.2507744 -1.0862052 0.9963239 0.0019504755 0.022597961 -0.086840644 0.21127123 -0.716779 0.061899055
Castries -1.2181411 -0.14888605 -0.0917418 0.12568596 0.13046876 0.038102873 0.03264062 0.01817325 -0.03678961 0.033942398 0.02825571 -0.030434636 -0.070831515 0.03796345 0.008391535 0.03534775 0.011591739 0.00041482842 -0.056209896 0.039607707
Castro -0.86245835 0.025497103 -0.001063209 0.13319597 0.06209864 0.0038004667 0.13084894 -0.059820376 -0.08208162 -0.0610144 0.072407335 0.0954952 0.05371673 0.11016268 -0.050915364 -0.027421193 0.08737392 -0.025774486 -0.057659958 0.030440226
Casuarius -1.2072116 0.009409256 -0.03563437 0.31988388 0.20304607 0.0020082921 0.14392628 0.040338185 -0.11952366 -0.030470006 0.018274019 -0.018448858 -0.08345885 0.014591942 -0.040082086 0.019995274 -0.007571445 -0.012659267 -0.041097034 -0.02401978
Catapres -1.7375911 -0.15779547 1.1304564 -0.14175843 1.113611 -0.11111599 -0.30713698 0.3532579 -0.2899632 -0.9539464 0.13722846 -1.2259145 -0.42406577 -0.31764847 0.10454492 0.19712816 -0.16393535 -0.7906171 0.102386445 0.8956599
Catha -1.2574921 -0.015232664 0.030896802 0.15232886 -0.037671316 0.059669506 0.070706695 0.03033645 -0.07777442 0.093021706 -0.054606866 -0.015819967 -0.18212397 -0.032936934 0.063473575 0.016732013 0.03824746 -0.0142363785 -0.010857885 0.06731451
Catharanthus -1.1782976 -0.09073497 -0.12933598 0.20332082 -0.02504983 -0.088938385 0.13047583 -0.05194752 -0.09951228 0.11501603 0.18385623 0.06783964 -0.10862313 -0.0030715987 -0.031774893 -0.07767928 -0.026660975 -0.0052913693 0.07824431 -0.0041322913
Cather -1.366461 -0.022757722 0.013798516 0.2605608 0.11038183 0.074135184 -0.088985234 0.012701567 -0.044667955 0.06725857 -0.016874634 0.035944365 -0.09205872 0.010552101 -0.07312015 0.04794755 0.042439155 0.0026824647 -0.013596491 -0.041653853
Catholic 1.5471411 -1.8060427 -0.7473279 0.84721017 0.78167737 0.6893876 0.9051691 0.46832132 0.98996556 1.0774761 0.8736181 0.98083556 -1.3312426 0.68789035 -0.3086695 0.28854597 -1.4566728 0.5317327 -0.51382464 0.6001543
Catholicism 1.5491604 -1.8073275 -0.74838054 0.8459731 0.77941155 0.68732965 0.90705436 0.46664506 0.9899608 1.0790391 0.8720095 0.9820543 -1.3327845 0.68892413 -0.30717435 0.2886406 -1.4574146 0.5318315 -0.51263916 0.6015964
Catholicos -1.0345688 -0.045392543 0.03471607 0.1797373 0.07768801 0.096884035 0.09001379 -0.032934897 -0.11875538 -0.032914508 0.045551542 0.086272284 -0.06642237 0.06216951 -0.01142691 -0.03301742 0.005245697 0.018661588 -0.08408788 0.006576745
Catskills -0.77609164 0.30141196 -1.0014807 0.9531061 -0.10458827 0.039298143 1.5121832 0.31071788 -0.5584099 -0.5427503 -0.595391 0.24951248 -0.09178752 -0.11883551 -0.5565763 -0.01465453 0.33938384 0.18082032 -0.3649922 0.2516704
Cattell -1.5153275 -0.03879107 0.03857402 0.14187676 -0.032155186 0.05435099 0.08407105 0.07710265 -0.13103455 0.19792467 0.03268963 0.03505728 -0.171305 0.018149374 -0.02755043 -0.09764281 0.04402293 -0.013489401 0.05886171 0.030015083
Cayuga -0.8317845 -0.08640735 0.04312171 0.17170273 0.024817245 -0.033904802 0.17420867 0.025390899 -0.14701445 0.02471994 0.14083122 0.087334104 -0.036756903 -0.0064624054 0.009547619 0.032729477 -0.049429443 -0.017730024 0.01778269 0.034432814
Ce 1.036219 1.657338 1.5965977 -0.20554754 0.01338882 0.08085842 -0.86546427 0.08520665 -0.56834525 -0.30945566 -0.23472059 1.7098138 -0.93034554 0.3909726 0.30008197 -0.22607064 -0.35663623 0.22812638 0.51097643 0.5437238
Cebu -1.038941 0.04559399 0.005347509 0.13492838 -0.041079517 -0.073589005 0.0871192 0.02875041 -0.17338893 0.011472033 0.064500004 0.053257447 -0.054076273 0.033590622 0.0104030855 -0.05788235 0.025588216 -0.029023575 0.04092596 0.024091268
Cebuano -1.3418313 -0.04807523 0.27115318 0.1977068 0.10367416 0.13068368 -0.026905999 -0.017896716 -0.10531856 0.07911315 0.0199244 -0.0043808063 -0.07578369 0.070089445 0.013235217 -0.07622967 0.015410219 -0.0286644 -0.03817223 0.042430814
Cecropia -2.564015 0.56573045 -0.04204738 0.89714396 0.61051 0.09958146 0.83600414 0.34192008 -0.03671279 1.1840742 0.54727477 -0.16734004 0.9765088 -0.7185195 0.6385426 -0.67012894 0.31593078 -1.0036001 1.233613 -0.46478558
Cedrus -1.0809716 0.10196319 0.06475434 0.29395148 0.20528279 0.047340058 0.13735482 -0.10108937 -0.17007042 0.021936119 0.015065147 0.054275904 -0.12728623 0.052302584 0.015779763 -0.04257475 0.04067377 -0.15159778 -0.009649189 -0.0017423425
Ceftin -1.2180096 -0.11024115 0.05151464 0.11031917 0.104608305 0.071385786 -0.0004930994 0.14804594 0.031163592 -0.03864703 -0.009671588 0.020350749 -0.14626722 0.049483933 -0.071271636 0.08597945 0.020406814 0.027681572 -0.08854525 0.028135248
Celastrus -1.0838771 -0.112321354 -0.031404555 0.21506937 0.20526761 0.065271035 0.034285054 -0.033964153 -0.037263524 -0.050899785 -0.031810373 -0.0069272825 -0.16359428 0.06011968 0.036698595 0.09601303 0.0961395 -0.009802786 -0.15243398 0.079558924
Cenchrus -3.151776 0.5995953 0.08687576 0.56830025 0.8800717 0.1769215 0.5595903 0.0064399294 -0.08252413 1.5748106 0.36713952 -0.33789486 0.6251261 -0.06754713 0.5727518 -0.5296186 0.18672258 -0.8908639 0.7705999 -0.5504652
Centaur -0.72678417 0.5617873 0.33346683 1.2896231 -0.20047742 -0.16892466 -0.029810365 1.3129442 -0.6628683 0.61056274 -0.1403656 0.891057 -0.1832041 0.35050005 -0.046979196 -0.5903502 0.3937254 0.038893647 0.12454023 0.2445396
Centaurus -0.72675407 0.55924064 0.33247146 1.2880752 -0.20379181 -0.16989487 -0.029367084 1.3134289 -0.6629051 0.6125251 -0.14039959 0.89097863 -0.1812816 0.3507832 -0.045851067 -0.58822215 0.3928448 0.040261406 0.12532158 0.2460907
Centranthus -1.2105175 -0.075307034 -0.010003391 0.07075468 -0.016762143 0.07937092 -0.053475328 0.0084076 0.073636204 0.073182225 -0.011992323 0.07026928 -0.11465655 0.08036842 0.0119817 -0.0131327305 0.05994344 0.10013117 -0.039770473 0.076328725
Centropus -0.9872941 -0.037350547 0.09169163 0.3020519 0.018502856 -0.0026220796 0.16143051 -0.037362948 -0.09016605 0.06786317 0.103795506 0.10405434 -0.04885281 0.061027158 -0.0225874 0.038606074 0.0057010013 -0.0016155685 0.005451109 0.016362438
Cephalotaxus -1.0223069 -0.018490558 0.0168737 0.1413263 0.033536933 -0.04425358 0.069318004 0.043995526 0.005448956 0.023480104 0.011447016 0.09139038 -0.13452235 0.048483245 -0.0023034832 -0.080860905 0.08295989 0.04610708 0.015546123 0.034985643
Cerambycidae -1.376584 -0.034783747 0.25146553 0.14958249 -0.048215985 0.07182563 0.020735135 0.09750449 -0.23261832 0.15129068 0.14147298 0.037529062 0.017530961 0.06802344 0.02129399 -0.05192299 0.004789551 -0.01627202 -0.010734579 0.059602235
Ceratophyllum -1.148152 -0.22828257 0.10649315 0.09873988 -0.018117962 -0.019833257 0.023006734 0.013456806 -0.1616082 0.034482464 0.09998073 0.102307886 -0.08274675 0.058649715 0.0036386778 0.016558744 -0.0027970106 -0.0017675125 -0.0026371537 0.025081161
Cercopithecidae -0.6195303 0.026007712 -0.008273867 0.24721462 0.064952634 -0.0586574 0.23047318 0.044707816 -0.11159633 -0.005921318 0.13202882 0.1231916 -0.12207533 0.10013201 0.04046096 -0.056077264 0.043283135 -0.03705266 0.05968019 0.06677543
Ceres -1.5336051 -0.044811048 0.17125528 0.1338811 -0.09774628 -0.00655468 0.13125652 0.03786157 -0.055647995 0.06718574 -0.066378884 0.10473804 -0.08030587 0.07601645 -0.035895027 0.0071144337 -0.02099678 -0.008871464 -0.06251869 -0.0074037598
Cestoda -1.9502615 -0.29717112 0.9182893 0.6858897 -0.00412269 0.42859516 0.3277021 -0.124206536 0.14567666 0.3612327 0.16418588 -0.21185179 0.002944396 0.13206857 -0.4315455 0.084302634 -0.39012825 0.36716855 0.1971694 0.04703107
Cetorhinus -3.137868 0.27324364 0.35799223 1.1953365 0.039422333 -0.45915672 0.48787728 0.5195175 0.115630075 1.1515418 -0.5186812 -0.3456148 0.47278887 -0.31492236 0.3915186 -0.48625806 0.10493314 0.65673465 0.838571 -0.9692332
Cetus -1.4639999 -0.039017167 0.17231168 0.08184077 0.009003263 -0.0019124731 -0.048561756 0.12615943 -0.14462133 0.07730379 0.088797376 -0.0058902563 -0.09050842 -0.0122857 -0.021815982 0.01718802 0.065041736 0.035262108 0.038172502 0.060248204
Cezanne -1.4593481 -0.14746796 0.048627183 0.15941904 -0.0155202765 -0.034624428 0.029126002 -0.0014995249 -0.06428149 0.037169773 -0.03958531 0.082983725 -0.14016426 -0.003685475 -0.059000112 0.06950294 0.06218132 0.03109777 -0.05756027 -0.005836637
Chaetognatha -0.97127026 -0.07498152 0.07568815 0.03856531 -0.0018495499 0.011875959 -0.08002693 0.06593944 -0.09974341 0.020116884 0.08831451 0.0037391866 -0.093864344 0.0016447533 -0.038362417 0.022223774 -0.018488685 0.023575302 0.032004748 0.01702084
Chaga -1.133723 -0.023576899 0.06738672 0.07038228 -0.08808333 -0.02882132 0.077667594 0.045113057 -0.06398787 0.043198425 0.100968935 0.009006863 -0.018064903 0.048995394 0.013918838 -0.0021649033 0.017408416 0.02011789 -0.00912533 0.049993746
Chagall -1.1871973 -0.14508557 -0.07674909 0.14111857 -0.0048595043 -0.01920797 0.05253004 -0.074189916 -0.03962723 -0.036092497 0.11106624 0.041148327 0.0054620155 -0.0027118572 -0.03798056 0.13346106 0.053769045 -0.024680424 0.03723851 0.017251594
Chagatai -1.1509906 -0.15796198 -0.02535207 0.073843054 -0.002708301 -0.0026581786 -0.006917919 0.059023537 -0.08370928 0.0429857 0.044516563 0.06274448 -0.123193026 0.03479419 -0.002385648 0.07726086 -0.025592506 0.015504509 0.012804334 -0.054747287
Chaldea -1.1913942 0.039584734 0.017131664 0.2321638 0.03614318 0.03333814 0.126124 -0.02600835 -0.07593592 0.01733861 0.07767412 0.020454846 -0.010387601 0.0805345 -0.036125086 -0.098505124 0.016623292 -0.06280321 0.030992199 -0.007919078
Chalons -1.2775618 0.06648394 0.019038359 0.26589882 0.004060634 -0.045570113 0.091947876 0.08601255 -0.17882515 0.054197807 0.10662691 0.066821516 -0.091161564 -0.018216264 -0.09626542 0.0154426545 0.09122133 0.004280576 -0.033161335 0.019058019
Chamaecyparis -1.1004951 0.06280936 -0.06802241 0.19449554 -0.03636261 0.023685297 0.07298286 0.019571828 -0.09620062 0.040756423 0.028010748 0.0646975 0.0055939895 0.047621127 -0.052254025 -0.07285161 0.008012085 -0.027277471 0.010119769 0.02197789
Chamberlain -1.246024 -0.07834457 0.00074681663 0.04406436 -0.05584272 -0.026124557 0.021940866 0.03432834 0.005654968 0.050026167 0.01704787 0.13668491 -0.12321443 0.018222945 -0.0004512989 -0.058265842 0.032928027 -0.033277296 0.021837266 0.057784483
Champlain -1.2177458 0.10474148 0.13430348 0.19369236 0.09767216 0.053065404 0.04603461 0.1338302 0.033791702 0.027430193 0.0053828647 0.028207596 -0.008799609 0.099077985 -0.04656227 0.03660284 -0.02291911 -0.03890026 -0.057700127 0.036433626
Chancellorsville -1.3627062 -0.091623954 0.061900456 0.033253394 0.019236386 0.05483643 0.051158883 0.016057169 -0.1303219 0.052334823 0.08795573 0.011065504 -0.14283882 0.056772333 0.038055297 -0.052266225 0.02049839 -0.0032202122 0.020258427 0.029813293
Chandler -1.3086374 -0.07902926 0.04104572 0.22135745 -0.025286848 0.100274816 0.07561908 0.033949416 -0.08439678 0.14817686 -0.011051021 0.038128216 -0.13764815 -0.03775086 -0.016191589 -0.029886309 0.048272625 -0.040125474 -0.03700657 0.026566608
Chanukah -0.9207165 0.01786935 -0.39812613 0.63092124 0.69960713 0.6697123 0.43825552 -0.6602512 -0.41370884 1.1127563 -1.3246819 -0.10825833 -1.7458725 1.0413419 -0.5241028 -0.55783796 0.4476575 0.26701507 0.66115147 -0.06024336
Chanukkah -0.9205852 0.018249735 -0.39813092 0.6307687 0.6996933 0.6698332 0.43807778 -0.6598869 -0.41377532 1.1128244 -1.3249084 -0.10817624 -1.746495 1.0413256 -0.52423936 -0.5584419 0.44767562 0.2670722 0.6614001 -0.06016029
Characidae -1.2872685 -0.031412903 -0.03025638 0.15116222 -0.021715054 0.071667746 -0.08896014 0.028011587 -0.030423736 0.053483203 -0.046384383 0.018269658 -0.062959865 0.016154636 -0.030881174 0.002640066 0.077803686 0.012966338 -0.019914545 0.062019162
Charcot -1.2485816 -0.1104237 -0.067952655 0.06543229 -0.043878283 -0.0058490643 0.071089014 0.011283582 -0.111483425 0.109510735 0.051006764 0.023805482 -0.13269727 -0.0071453233 0.04425374 0.05000251 -0.03587591 -0.0026400625 -0.01606385 -0.017313825
Charina -1.2700819 -0.04097442 0.06887222 0.13660859 0.011949471 0.049238242 -0.06307262 -0.024643203 -0.08289245 -0.017731294 0.02035129 0.14281105 -0.09161621 0.046672724 -0.06830717 0.0017200699 0.047122464 0.03291496 0.07059544 -0.027463127
Charlottetown -0.75015974 -0.11167631 -0.21529873 0.04132113 0.015619797 -0.05920756 0.10156869 0.060385305 -0.07090227 0.04790925 0.14976557 0.08931884 -0.044073083 0.062597126 -0.040331714 0.046400916 0.06359426 0.1022949 0.031975336 0.06938926
Charybdis -1.2059555 -0.059891045 0.00274537 0.23426057 0.115249604 0.07829591 0.0282297 0.0059786025 -0.09684959 0.016029384 -0.0017749195 0.08892551 -0.1504939 0.0698855 -0.107946485 -0.04872204 0.05705368 0.0037097936 -0.03307437 -0.013326897
Chimaera -1.5341495 0.015294292 0.07274763 0.0978587 -0.04778352 0.012694326 -0.013008601 0.061587144 -0.13001245 0.13217096 0.024194703 0.02119814 -0.15981956 0.0131002 -0.052168157 -0.117236905 0.053181034 -0.04156072 0.022980038 0.005152518
Chisinau -1.0286925 -0.0839341 0.058735803 0.13181636 0.14532632 0.06721203 -0.008328325 -0.004160135 -0.03780899 -0.062342074 0.014679856 0.04311712 -0.07597315 0.09399344 -0.047251806 0.0003139747 0.059125945 -0.10235679 0.0078781815 0.06974004
Chlorophyceae -1.9291476 -0.29384422 0.9230867 0.6808963 -0.0030997188 0.42870855 0.32503447 -0.11839118 0.14521828 0.36038905 0.16439565 -0.20927927 0.004244615 0.1306515 -0.4299131 0.08217297 -0.39017713 0.36603928 0.19629025 0.048824195
Chuang-tzu -1.2063078 -0.0047207098 0.047829714 0.11783649 -0.018639999 0.074210055 0.040516105 0.10828582 -0.078101285 0.022407519 0.026535558 0.045707062 -0.070711575 0.021284493 -0.020614475 0.07680321 0.0725489 0.04917288 -0.09242202 0.058945294
Chuvash -0.99914634 -0.07257306 0.031008912 0.25108323 0.11762997 0.0074760886 0.038900748 0.053408213 -0.07722232 0.067274064 -0.048908696 0.066016816 -0.07094694 0.045157183 -0.03646813 -0.10022495 -0.016768374 -0.000722433 -0.071079895 0.057992037
Ci 1.4889852 1.0622642 0.19777988 0.31981704 -0.24913707 0.56904995 0.32070774 0.13508652 -0.066681415 0.009665622 0.69543725 0.29496244 -0.6311803 -0.119389445 -0.12512144 -0.90189445 -0.074991435 -0.20996979 -0.17622785 0.54078
Cicadidae -1.3325211 -0.04689287 0.07219589 0.11654808 0.020184366 -0.06663009 0.11762748 -0.07672943 -0.023508826 0.056814685 0.018483987 0.07231245 -0.068590604 0.0996467 -0.0014463012 -0.1423076 0.028613528 -0.0009324482 0.0717196 -0.07804297
Clarksburg -1.015345 -0.15235692 0.08225004 0.1676496 0.045210674 0.014621374 0.09917586 0.0862212 -0.10781835 0.09744872 0.12647678 0.08106499 -0.19454348 0.011895786 -0.060084734 0.005862882 0.003546 -0.00011078243 0.046626315 0.031019902
Claviceps -0.98210764 0.011702596 0.11128964 0.23648903 0.049518287 -0.077313535 0.05887543 0.012106557 -0.14028516 -0.05017989 0.0791285 0.038284916 -0.020494727 0.019190736 -9.671674e-06 0.14157774 -0.007631424 0.033097424 -0.027067266 -0.023639051
Cleopatra -1.4505821 0.050966885 0.093638726 0.2403397 -0.1249644 0.013667292 0.08951397 -0.059296753 -0.16625585 0.10824467 0.12077055 0.045895506 -0.077908665 -0.020982217 -0.016140621 0.012727023 -0.02417042 -0.01236614 0.024124948 -0.010572444
Clinton 2.3430178 -1.3138157 -0.936004 0.9730811 0.49006838 -0.7806013 0.15782447 0.48915043 -0.22192934 0.40366763 0.855173 0.8071859 -1.2148725 0.17035589 -0.24204056 0.97517383 0.40758651 -0.6339805 0.10968126 -0.021640556
Clioquinol -0.10940997 -0.4318266 1.1514049 0.59774095 0.5281608 -0.18618993 -0.7093083 0.15044822 -0.030755466 -0.37842232 0.020551488 0.560699 -0.07363307 -0.40794265 0.12199991 -0.29380432 0.07785091 -0.09366576 0.32913807 -0.24805157
Clitoria -1.3271147 -0.08764082 -0.074919164 0.13832822 -0.0057177763 -0.0806194 0.1668801 0.035685975 -0.06472566 0.07399961 0.029155212 0.06367193 -0.19982967 -0.039126273 -0.07715516 0.038690284 0.03049022 -0.014538512 -0.039689 -0.038795717
Clive -1.0308952 -0.01672629 -0.045811817 0.20943856 0.10017006 -0.00030557057 0.03512104 -0.011387208 -0.03333526 -0.05267671 0.0035167574 0.04222086 -0.13009202 0.0413645 0.011115893 -0.08088301 0.037096392 -0.044296328 0.01652422 0.01999515
Clytemnestra -1.1384046 0.0338684 -0.02014582 0.25416583 0.025948731 -0.06969814 0.105111025 -0.0611876 -0.15953839 0.0003523338 0.011913699 0.11577546 -0.08890877 0.0362293 0.011917664 0.023118837 0.04189411 -0.03361981 -0.056949418 0.0342786
Cnicus -1.1001762 -0.002118407 -0.10738097 0.1409064 0.049675997 0.02861745 -0.0632517 0.06117279 -0.029255934 -0.01784818 0.105165906 0.03383387 -0.17009011 -0.024528578 -0.04760661 0.12328607 0.11232483 0.048300244 0.0018774404 0.020173559
Cnidaria -2.5066745 0.57504845 1.1753186 0.47648776 1.1077334 0.31952238 0.62287706 0.8955511 -0.6228084 1.3253609 0.782094 -0.6595038 1.0259961 -0.076383606 -0.6971413 -0.64352864 -0.77435195 0.9268722 1.3604351 -0.6079137
Cnossus -1.343121 0.041758083 0.05179443 0.23825823 0.0035285198 -0.056726284 0.20581587 0.12333812 -0.13439372 0.13080302 0.101403 -0.051294982 -0.17424585 0.0071959626 -0.014932987 -0.021485025 0.04050787 -0.007890462 0.034167144 0.02301241
Cnut -1.2837882 -0.07864574 0.15183836 0.19781846 -0.009122697 0.057411667 -0.047181077 0.09505088 -0.08851544 0.008655759 0.08478887 -0.013136967 -0.07555948 0.100847036 -0.03441769 -0.027078507 0.007944696 0.10309134 -0.012504033 -0.013932867
Co 1.047126 1.66123 1.5982511 -0.20962416 0.014642215 0.08188065 -0.8708213 0.08999269 -0.5669698 -0.3077432 -0.23604874 1.7109736 -0.93163645 0.39090478 0.29961312 -0.22831562 -0.35610577 0.22766937 0.51170456 0.543998
Coahuila -1.1589713 -0.08193866 0.060561877 0.2247352 0.015868664 -0.016631568 0.06488045 -0.007745132 -0.2372016 0.025256895 0.09543048 0.12810351 -0.042866755 -0.031188393 -0.042019345 -0.024052942 0.023942115 0.017231518 -0.056406975 0.060678065
Cocopa -1.0252129 -0.108356826 -0.029094681 0.051907316 0.0034034478 -0.03900459 -0.006399309 -0.05668284 -0.034766596 -0.11542606 -0.004114635 0.08777644 -0.067997195 0.07287276 -0.06899631 0.063878104 -0.022099411 -0.0032703853 0.0014495439 -0.025710674
Cola 0.55176175 0.80341834 -0.1192616 1.0644034 1.2103971 0.010492987 0.18147923 -0.95341915 -0.7669784 0.47467458 -0.7715752 0.94424105 -0.81056964 0.6483657 -0.10827299 1.0185924 0.3312331 -0.20055157 0.5364705 0.7421067
Colaptes -1.0293394 -0.11090752 0.013375929 0.09822552 -0.04189704 0.020039741 0.117779195 0.115051396 0.003785705 0.062276393 0.04459844 0.17103758 -0.12853329 0.048147082 0.044651985 -0.03714241 0.032648586 -0.015313008 0.0005630865 0.076856054
Colchis -1.2408375 -0.011538046 0.1892527 0.25765738 0.02150634 0.0233845 0.11324518 0.045020513 -0.24265178 0.07271798 0.09555413 0.06309954 0.015196894 0.12100181 -0.018844683 -0.04588999 -0.012411455 0.09526203 0.0120479325 -0.007637834
Coleridge -1.1395185 0.0020572124 0.006201291 0.0642773 0.002836417 0.014121954 -0.0008849314 0.028215561 -0.09782374 -0.025418568 0.03571548 0.004161506 -0.045233548 0.06664766 0.008238125 -0.012694543 0.068539396 0.050721508 -0.03256961 0.011520291
Colocasia -3.1453464 0.6012 0.08863345 0.5656283 0.8783036 0.176713 0.5561519 0.009708577 -0.08283872 1.5769057 0.366353 -0.33833382 0.62507826 -0.0683152 0.5729556 -0.53028417 0.18699804 -0.89088243 0.7713282 -0.5500324
Colombian -0.9503191 0.047006223 -0.08019451 0.18030418 0.12019748 -0.01175361 0.091614686 0.006116869 0.028547507 -0.05327902 0.009866993 0.014495964 0.010909728 0.096109875 -0.052944936 0.040184204 0.060326647 -0.03079344 0.010468956 0.05370636
Colony -1.0228212 -0.06201385 -0.10530678 0.036354553 0.003285592 0.039166898 0.06051871 0.10556007 0.043294508 -0.013884868 0.032903492 0.13164255 -0.030436125 0.08060421 -0.05793404 0.10119208 0.04140121 0.023783801 -0.010428128 0.0010683156
Compositae -3.2497914 0.66975605 0.85969424 0.9055945 1.7650007 0.36444247 0.8951365 -0.13860938 -0.5363427 2.0337367 0.9074452 -0.67932194 -0.13065904 -0.40578386 0.35262156 -1.5136223 -0.425537 -1.0506238 1.6374801 0.1419524
Conakry -1.2563249 -0.19989638 -0.08916559 1.3998578 -0.25579217 -0.9006904 1.134747 0.285957 -0.8729635 -0.0973962 -0.13787344 0.61897486 -0.8074455 0.023868551 -0.67223954 0.0547415 0.3347036 -0.63574344 -0.5396645 0.59410626
Condorcet -1.1320319 -0.04312008 0.13033107 0.14535657 0.012627708 0.04749732 0.07930031 -0.035484172 -0.008253229 0.043041993 -0.0063520055 0.023482587 -0.1093801 0.008571034 0.024839189 0.012021127 0.037320826 -0.02366304 -0.11525929 0.06509964
Confederacy -1.2319223 -0.066054404 -0.10573807 0.080867395 -0.04516845 0.053266954 -0.0112959985 -0.04633646 0.029290624 0.035561282 0.037574735 0.08803374 -0.11731415 0.07785333 -0.06603855 -0.018215517 0.08671741 -0.038140006 0.09353165 -0.018074902
Confederate 0.3564583 -0.28160375 -0.86502934 1.0428028 0.1623529 0.18774247 -0.6485672 0.20923351 0.078865014 -0.10178694 0.12518096 0.37784478 0.086379096 0.27365163 0.4226804 -0.32525295 -0.18652377 -0.027633952 -0.111039065 -0.16328195
Confucian -0.7433112 -0.052297674 0.09624636 0.17870405 0.034688327 0.10889658 0.0950307 0.02252421 -0.09272227 0.020186383 0.060367893 0.08645432 0.0030400655 0.14681792 -0.012384035 -0.048685323 0.018169599 0.066181436 -0.030838031 0.12638329
Confucius -1.2415104 -0.10040341 0.070449665 0.25543934 -0.073150806 0.059141863 0.0573367 -0.038562115 -0.083944224 0.09085296 0.13303621 0.051708166 0.16262394 0.08691026 0.005514986 -0.0056291223 -0.0449956 0.018143043 0.018032532 0.052924085
Congreve -1.4267999 0.013238714 0.06647872 0.28855973 -0.011701193 -0.12838641 0.10752514 0.034759972 -0.14413397 -0.009073124 0.082468085 0.033484206 -0.10591976 -0.01500463 -0.068263285 0.0758058 0.066690676 0.017354654 -0.083191164 -0.035606705
Connecticut -1.1070132 0.055232722 0.16412438 0.22866333 -0.005498583 -0.016578792 0.14925724 -0.012658453 -0.2070452 0.08538172 0.012971536 0.047377083 0.05366444 0.103398874 -0.006002614 -0.09763471 -0.0026071563 -0.037436537 0.0014932387 -0.04301179
Conoy -1.3690383 -0.13899265 -0.032280482 0.28326488 0.09232847 -0.02670784 0.067799136 -0.05113313 -0.11013845 0.038903058 -0.011748347 0.15173621 -0.19526412 0.016639162 -0.06734173 0.01107869 0.090248264 -0.029349804 0.0453424 0.024228001
Conservative -0.5271757 0.8259782 -0.3729566 0.62675273 -0.31109422 -0.35387996 -0.63611835 0.6882682 -0.011736145 0.19045435 0.22871171 -0.03667922 0.3005262 0.41589436 0.17453979 0.4914435 -0.043036837 0.2781535 0.07791264 -0.11027757
Constantine 0.25479153 -0.65276873 -0.907741 1.525264 0.29755136 0.34647182 0.6587289 0.7935193 0.39154607 0.89936715 0.5885331 1.1180102 -1.7803314 0.55018365 0.19656894 -0.20811702 -0.4224125 0.23078322 -0.373308 0.017713003
Continent -1.3822294 -0.15869124 0.32257476 0.19563693 -0.052868888 0.14280713 0.101970755 -0.09553096 -0.18807459 0.12729235 0.074794754 0.08618895 0.03688401 0.106528424 -0.0078289425 -0.050534334 -0.073505424 -0.02258598 -0.014512109 -0.030165762
Contopus -1.3751304 -0.0049950234 0.017206354 0.19640554 -0.025614293 0.16061279 0.011016035 -0.12688725 -0.08460988 0.07935825 -0.040010117 -0.0077741253 -0.21446237 0.04448534 0.009754576 0.040564533 -0.011004123 0.021958854 -0.05615328 -0.002591008
Coosa -1.5154324 -0.117829576 0.0850062 0.086332016 -0.006209392 0.013838572 0.011697392 0.12700768 -0.040462464 0.08080276 -0.02803124 0.014549496 -0.1321564 0.0030053072 -0.038571313 0.0028007696 0.10556758 0.013729963 -0.07520104 0.03887991
Copernican 1.2488887 -0.624781 -0.12555845 0.15118694 -0.042779684 0.60503787 0.21708421 -0.05007654 -0.4629144 0.014150239 0.16649331 -0.0053653484 -0.024913514 -0.05847883 0.07926393 0.09171852 0.20989142 0.021122435 -0.039642178 -0.14212136
Coprinus -1.183196 -0.15171471 -0.058430225 -0.033353195 0.0022328272 0.11000205 -0.068774916 -0.006790264 -0.025633967 0.039351184 0.020164408 0.02510452 -0.11326648 0.064592674 -0.047551822 0.06067242 -0.015790466 0.027843777 -0.033872582 0.004393814
Coptis -1.1865666 0.013117832 0.23414409 0.2077428 -0.03977695 0.097328536 -0.05315138 0.033880714 -0.116683565 -0.00754132 0.044143118 0.106708065 -0.15556195 0.06722969 -0.025291085 -0.06890996 0.019744284 0.037246145 0.060913317 0.0016723023
Cora -1.1990018 0.10023514 -0.5229528 1.066196 0.2455874 -0.012979646 0.082853675 0.33549076 -0.07232291 0.40111697 0.07598543 0.10218884 -0.6887834 0.4483245 0.009667021 -0.3037625 -0.1688721 0.25068676 0.05242833 0.08511087
Corchorus -0.92418873 -0.020926364 -0.0006451485 0.212171 0.17812651 0.107789285 0.1887147 -0.05242859 -0.07256751 0.01020767 0.017094912 0.008593833 -0.04614445 0.10732708 0.035425708 -0.006869304 -0.06214841 -0.051868897 -0.083901905 0.03758126
Cordarone -1.2220393 -0.02027176 -0.045504294 0.08261795 -0.034706958 0.080801986 -0.072750725 0.062444814 -0.07486646 0.042256508 0.027161842 0.01291108 -0.15764253 0.029823164 0.0074504386 -0.0058171893 0.050190784 0.03776535 -0.011511298 0.09991269
Corday -1.1137141 -0.06774362 0.16677998 0.13216543 0.032512672 0.05999442 0.020459708 0.05224274 -0.06806666 0.03863861 0.14686263 0.11839064 -0.09719237 0.0005653192 0.0031918858 0.068682276 -0.031315364 -0.0014787669 0.06471525 -0.036522906
Coriandrum -0.91023016 0.08349055 0.039361734 0.17622772 -0.017354492 0.09018413 0.027329024 -0.057012204 0.045454994 -0.022098577 0.0077923876 0.025739271 0.0881915 0.10749766 0.03339826 -0.04945191 0.031598613 -0.048601497 -0.08237468 0.10574062
Corinthian -1.0453988 -0.013530727 0.0848482 0.08591111 -0.078538924 0.12863031 -0.05749205 0.027049927 -0.11440706 0.04014179 0.012756098 -0.0014809321 0.0038814107 0.0019375399 0.01352986 -0.003634783 0.00036693027 -0.017589897 -0.00010193317 0.071358144
Cork -1.1287019 0.03355242 -0.04784294 0.22922626 0.06943691 -0.08173495 0.16120085 0.036338795 -0.136147 0.09645633 0.029423032 0.028192207 0.012639563 0.06035475 0.007961506 0.046232395 0.0813882 0.040586647 -0.029099967 0.09242242
Cornhusker 0.39921725 0.10726208 0.014948873 0.8769795 0.5147143 0.4724769 0.54405576 0.34208465 0.06659573 0.19374283 0.29889953 0.5387909 0.23400599 0.05944368 0.018485809 -0.11598383 -0.21429607 0.13214143 -0.19169793 -0.13399987
Cornishman -0.9210542 0.013718403 0.050144423 0.14169654 0.053037822 -0.05191185 0.11599165 0.081723906 -0.11031283 0.0064650527 0.109368235 0.06657052 -0.1027909 0.07047725 -0.04171459 0.031760216 -0.057640832 0.0030696094 0.012348951 0.016823165
Cornus -1.2161617 -0.19242088 0.025243267 0.07966777 0.07280232 0.1267744 -0.065595016 0.032098796 -0.1377785 0.093577676 -0.04078862 0.09798155 -0.23384911 -0.023432815 -0.009889934 0.006274304 -0.03309522 0.0032771232 -0.026016295 0.04614723
Cornwall -1.2934468 -0.06234697 -0.07071944 0.15478349 0.037508268 -0.09652787 0.13654985 0.049283028 -0.16247751 0.050873984 0.110672645 0.029920492 -0.11703059 0.02862651 -0.045386303 0.0025188508 0.07517364 -0.01762267 -0.036467697 -0.026918957
Cornwallis -1.0091202 0.07626403 -0.0016097171 0.262984 0.02592454 -0.17888713 0.26214567 0.08202419 -0.111903295 0.0114644505 0.15371981 0.08099553 -0.067318544 0.08762556 -0.022950327 0.031216133 0.049019273 -0.0006931292 0.10369522 0.011499433
Corse -0.239471 0.3011591 -0.04801426 1.5349109 -0.2022175 -0.050051596 1.0435975 0.102401614 -0.12693948 0.22370909 0.44017172 0.47874597 -0.7846917 0.82970977 -0.17326868 0.07205217 0.5686842 -0.56128037 0.2439534 0.2306425
Corsica -0.23933466 0.3010435 -0.04777526 1.5348094 -0.20239627 -0.05002062 1.0435408 0.102304794 -0.12718408 0.22359775 0.4401563 0.47870833 -0.7848338 0.8295569 -0.17329751 0.0720119 0.5686861 -0.56134486 0.2437848 0.23052944
Corticium -1.0474446 -0.08602054 0.21690002 0.060906406 -0.0051795333 0.19358094 -0.1803688 0.07366574 0.0006618642 -0.0017592367 0.07141659 -0.031544596 -0.07832241 0.077718295 -0.0074279127 -0.038675603 0.029200325 0.058874264 -0.07024907 0.07136847
Corydalis -2.9366386 0.71545607 0.32274306 0.59547794 1.4154699 0.3362543 0.6971851 -0.2419504 -0.21397382 1.3026241 0.8200866 -0.49811745 -0.08487024 0.41343766 1.1787171 -0.46644986 0.09620915 -1.1754855 0.5804028 -0.70535034
Cossack -1.1264609 0.08106959 -0.038372807 0.28185022 0.015502578 0.025528982 -0.001532794 -0.029568229 -0.05668377 -0.07777432 -0.027810019 0.09662643 0.031273007 0.04990305 -0.09027303 -0.0014222991 0.01861741 0.01369995 0.027757233 0.0020468028
Cotopaxi -1.2313809 -0.054183424 -0.005102971 0.16762024 0.10404529 -0.034913883 0.014728162 0.049078837 -0.02227451 0.10248616 0.059127193 0.060655974 -0.18974079 0.0009526108 -0.017101534 0.021952149 0.058056183 0.017291097 0.1050233 0.028989771
Coumadin -1.2303305 0.05308564 0.009114454 0.26186156 0.15987547 0.005855243 0.110692136 0.072662175 -0.013440234 0.030185476 -0.022642666 0.039655946 -0.11713399 -0.06718303 -0.058167294 0.060683444 0.017400678 -0.04505887 -0.05036985 0.043993022
Cowper -1.233928 -0.059001125 -0.04580081 0.20957853 0.058798842 -0.05743673 0.041487157 0.022599243 -0.13471426 0.09971062 0.12133894 -0.033374406 -0.050068207 0.025287794 0.0063851005 0.07102497 0.03147117 -0.02573458 0.05924694 -0.007992936
Cox-1 -0.9423677 -0.28637305 -0.02899933 0.8450467 0.36577636 -0.032897823 -0.20509844 0.5459907 -0.2968679 0.22869042 0.16134459 -0.062759094 -0.5985984 0.5389243 0.11218987 0.33391616 0.4188977 -0.07450761 0.7109399 -0.41304004
Cox -0.94197 -0.28628984 -0.029020617 0.8450618 0.3658435 -0.032918673 -0.20506074 0.54598165 -0.29685855 0.22869402 0.1614038 -0.06281935 -0.5987228 0.5388998 0.11224108 0.33388367 0.4189129 -0.0745162 0.71096426 -0.41296646
Cr 1.0352468 1.6591929 1.595576 -0.20660833 0.015118782 0.082432225 -0.86897343 0.086123705 -0.56656414 -0.3082487 -0.2358155 1.7097834 -0.9317203 0.3918804 0.29865533 -0.22740787 -0.35618395 0.22798938 0.512092 0.5427841
Crab -0.3144671 -0.14297739 -0.2814172 0.5148075 0.21099113 -0.004443841 -0.5649688 0.30787045 0.2400789 -0.044377003 -0.029566806 0.2732323 0.42439303 -0.027028712 0.20468844 -0.17303754 -0.056663692 0.13073178 -0.08207771 -0.14009613
Crangon -1.1178188 -0.011578389 0.011387673 0.105425 -0.07057779 -0.05976453 0.115809895 -0.043350317 -0.016596451 -0.011950866 0.111114696 0.12367184 0.036379226 0.09310632 -0.00024720677 0.06392975 0.06538233 -0.02774793 0.008258804 -0.026993426
Craspedia -1.3040277 -0.08118777 0.3156745 0.16187888 -0.01563627 0.08539329 0.0581074 -0.063875884 -0.10893647 0.08670093 0.06178342 0.071895234 -0.069837674 0.12842071 0.006117572 -0.060238756 -0.09515436 -0.011832865 0.07205453 -0.060685504
Crataegus -1.3090873 -0.24253877 -0.08767216 -0.025413388 0.00057792617 -0.026924 -0.022558598 0.040699042 -0.0058420515 -0.030163616 0.12420486 -0.011128006 -0.18988085 -0.08152809 -0.0003478009 0.12882392 0.00749349 -0.029447356 -0.05105739 0.02223713
Crax -1.1272805 -0.104921125 0.22678594 -0.008857569 -0.07566529 0.06376328 -0.038661115 0.08879796 -0.11611449 0.063217595 0.13259631 0.07544359 -0.017862514 0.022293018 0.0363785 -0.0051885424 0.0711058 0.056121666 -0.06646234 0.061770536
Creation -1.217163 -0.006237694 0.20124337 0.11493974 -0.116672546 0.028351381 -0.009699382 0.18296376 -0.11373068 0.14441523 0.049910877 0.056476235 0.039254088 0.071533166 0.036122877 -0.12984146 0.04876104 0.027762996 0.021465462 0.10505243
Creator 1.5694524 -0.38468853 -0.09028482 1.5219058 0.15354386 0.5331481 -0.5037515 -0.5457774 -0.36651784 0.866165 -0.6442598 0.7761313 -0.78006226 0.57251465 0.67135996 -1.0157112 -0.19759701 0.068881385 -0.08461334 -0.6423319
Creon -0.9345252 -0.11314146 -0.031505823 0.17152736 0.10688564 0.047828056 0.024843393 -0.08934031 -0.034289967 -0.01395402 0.008572326 0.013410538 -0.116514556 0.102140285 -0.015822085 -0.037071873 -0.008078825 -0.072505035 0.046343047 0.008931222
Crepis -0.9462198 0.021861237 0.07580882 0.217837 -0.0020457874 -0.0074677947 0.047006674 0.034986228 -0.14791405 0.024607943 0.058901336 0.111035384 -0.11463466 0.07084009 -0.03768963 -0.07141057 0.04980803 -0.0699933 0.028655598 -0.0070292517
Cretaceous -1.2220898 -0.09288385 0.08821191 0.13563609 -0.11297873 0.010454576 0.09119756 0.039494403 -0.13876377 0.057350125 0.10407235 0.041877743 -0.0220965 0.045310315 -0.02898246 -0.04857746 0.009539896 0.010774509 -0.060298998 0.04014048
Cretan 0.35055676 -0.09434596 0.035812147 1.045277 0.6598029 0.65891623 0.6759507 0.14710216 -0.2375633 0.38551298 0.49201944 0.5948112 -0.16494828 0.3337332 -0.15027502 0.07926468 -0.07333964 0.19381574 -0.23014729 0.063492134
Crete -1.0447693 -0.035998616 -0.07873759 0.20974837 0.21192251 -0.032321587 0.07305233 0.017496984 -0.051991004 -0.15324728 0.11023705 0.079147406 -0.16340499 -0.06016167 -0.047210906 0.18139984 0.08221559 0.021191774 -0.12187053 -0.008634974
Crockett -1.0191046 -0.11180721 -0.11087341 0.20346639 0.11752537 -0.029249975 0.08458 0.078642994 -0.03347984 0.0006081879 0.08093497 0.07484812 -0.15014414 0.0053621475 -0.0230601 0.08753164 0.025671687 0.03196724 -0.037139323 -0.028788427
Cromwell -1.0738231 -0.5283877 -0.479091 1.4696053 -0.05802358 -0.36881384 0.3836313 0.25539866 0.29061636 -0.2158054 0.059084933 0.7893793 -0.8842111 0.16721126 -0.16855979 0.5552713 -0.03372832 -0.3961904 -0.16942328 0.10304276
Cromwellian -0.9788216 -0.4837584 -0.4479866 1.3741331 -0.022955472 -0.34151146 0.3509511 0.24396399 0.28174052 -0.21095385 0.05509674 0.7456988 -0.83793557 0.15989281 -0.15745844 0.51453906 -0.035856597 -0.37688527 -0.16479872 0.09747558
Crotalidae -1.3561308 0.07270887 -0.03122453 0.36334503 0.1140552 -0.06851107 0.12485641 0.013023483 -0.02999087 -0.03319091 0.017113158 0.11804508 -0.05202942 0.06740435 -0.12310809 -0.045279443 0.020311251 -0.05854578 0.045528654 -0.055362236
Cs 1.045263 1.6600828 1.5962692 -0.20814864 0.01737259 0.08252102 -0.8681523 0.08752255 -0.5665179 -0.31096193 -0.23497504 1.7116449 -0.93173313 0.39128715 0.29926467 -0.22825035 -0.35624927 0.22723731 0.51049453 0.5435154
Ctenocephalides -3.1665568 0.6079767 0.63424826 0.7345454 1.3486878 -0.4676416 0.6065025 0.5407228 -0.2048185 0.9910895 0.15433823 -0.6002126 0.10352997 -0.88039094 -0.073840424 -0.61574596 0.014680168 -0.43654606 1.8700085 0.18695894
Culebra -1.0796424 -0.014977259 0.020843804 0.24190567 0.19633114 0.013886203 0.03890355 0.040897455 -0.2078734 -0.002778263 -0.012477652 -0.0046747946 -0.08137464 0.0084647 -0.010796385 0.054210916 0.071160756 -0.078231245 -0.18024829 0.10123242
Curacao -0.93355024 -0.0054595787 0.02887096 0.21602765 0.005101963 -0.03104272 0.14611453 0.03843241 -0.17637263 0.07177245 0.071966626 0.1220096 0.03426302 0.06612464 0.0016763182 -0.05133716 0.018902425 -0.019896798 -0.06536306 0.027964696
Curie -0.2426457 -0.29237077 1.0888213 1.1112874 0.33713484 0.53241926 0.025605794 0.57154816 -0.84365827 -0.30362707 -0.21669996 1.0614184 -1.0597187 0.9248941 0.2839861 -0.59724826 -0.17578349 -0.44074273 -0.33889297 0.5225999
Custer -1.1409255 -0.21614176 0.07606538 0.12434993 -0.006738093 0.034756295 0.038247712 0.010208525 -0.15193038 0.060101405 0.02771101 0.067458965 -0.05904322 0.0009775137 -0.06210724 0.04993876 -0.07204533 0.028236303 -0.014407461 0.025093757
Cuvier -0.97975856 -0.007892718 -0.049385153 0.14357933 0.035697956 0.06687594 0.021985099 0.08291302 0.024517784 -0.060575668 -0.012399669 -0.041087795 -0.1168888 0.039500985 -0.06964774 0.048426326 0.0007261903 -0.0033610312 -0.06873872 0.017687613
Cuzco -0.74276924 -0.08607534 -0.11547393 0.16435975 0.17975503 0.09136746 0.10350646 -0.012236596 -0.08801805 -0.02861366 -0.01641433 0.041087184 -0.14682823 0.027789915 0.042385507 0.082708746 -0.009824929 0.017440232 -0.13483194 0.074459344
Cyclades -0.86777633 -0.08574583 -0.08503509 0.1323519 0.10189435 0.024033936 0.032010388 0.054180186 -0.049178883 -0.057104092 0.11145703 0.027873099 -0.19980177 0.018718367 -0.0068161003 0.05477917 0.030466037 0.073363185 0.015492798 0.04959115
Cydonia -1.053804 -0.16847415 0.0366301 0.012866604 -0.061467025 0.05032259 -0.09256314 0.06411343 0.0073960344 -0.06802449 0.029086832 0.15175746 -0.022920968 0.06375704 -0.09327614 0.046376377 0.066107854 0.093337424 0.07076804 -0.031918064
Cynewulf -1.0094472 -0.04876621 -0.06733333 0.22355472 0.06793936 -0.11038189 0.17739369 -0.107292384 -0.062092483 -0.007665219 0.07654393 0.14937125 -0.058693208 0.06037663 0.042478077 0.095827 -0.010626039 -0.019764 0.064762376 0.0067132153
Cyprus -1.3080562 -0.11611797 0.14803815 0.09445969 -0.05751238 -0.020407483 0.018478869 0.08947055 -0.16159762 0.09097574 0.10155691 0.025190452 -0.09660689 -0.064868785 0.020387908 0.14342761 0.010327434 0.0946983 -0.00045586858 -0.017457074
Cyril -1.2194474 -0.07396632 0.12619658 0.27361336 0.11912877 0.089320496 0.058665432 -0.056652 -0.0006280276 0.02677423 -0.049376495 0.15831669 -0.054397862 0.13447542 -0.109475955 0.017730178 0.023971433 0.022476152 -0.039336026 0.002558504
Cytisus -1.3446532 -0.010565869 0.015027504 0.018969793 -0.041631844 0.05787937 -0.035541806 0.058499306 -0.035618167 -0.0048135575 0.04854966 -0.0116805015 -0.06404316 0.0652765 0.0019083311 0.01949906 0.06836038 -0.014055097 0.009852537 0.06120478
DDS -0.9195584 -0.16162378 0.08634014 -0.017143553 -0.03464431 0.03292893 -0.06332055 -0.0008186665 -0.071562216 -0.050392017 0.06472479 0.14185716 -0.053716242 0.09930487 -0.03666679 -0.02993755 0.015875695 -0.008098569 0.03487336 0.060814414
DOS -1.4359074 -0.0019739089 0.19606856 0.1407436 -0.06445622 0.033996057 0.07886389 0.04647454 -0.081670396 0.04612981 0.037195902 0.113199405 -0.07199007 0.049712446 0.009548628 -0.095614776 0.03157009 0.034507297 -0.07921883 0.09029941
Daba -1.2122515 -0.06523704 0.09457157 0.01885794 -0.016443564 0.04111843 -0.10565878 0.17622586 -0.060082134 0.019474223 0.119406395 0.039830454 -0.08430596 -0.0065244515 -0.035683814 -0.01299915 0.07509433 0.07088684 0.014607276 0.0024919778
Dactylis -3.1501188 0.60065556 0.08706757 0.56730616 0.8791884 0.17689204 0.5574027 0.007868092 -0.08249274 1.5761756 0.36644748 -0.3384454 0.62464446 -0.06779445 0.5724294 -0.52999294 0.18710794 -0.8907412 0.7711059 -0.5504637
Daedalus -1.269017 -0.07210182 0.1381648 0.16227703 -0.045137983 -0.0004986876 0.009210943 0.09485054 -0.09489347 0.07981591 0.09511733 0.0063446187 -0.2050604 -0.041659303 -0.028184906 -0.045987412 0.041955955 0.0518156 0.016198426 0.07999956
Dahomey -1.0641778 -0.06690386 0.107114494 0.18590486 0.06968427 0.06409103 0.0662201 0.014522906 -0.08845578 -0.026823228 0.07924919 -0.012786383 -0.022453763 0.047120627 -0.02546432 0.004383449 -0.09059839 -0.024838772 -0.04203237 -0.049982797
Danau -0.8839129 0.04636264 0.02986789 0.16141637 0.029135603 -0.031254333 -0.052016973 0.08258632 -0.027572922 -0.028829481 0.12663756 0.0353072 0.050240714 0.03391444 0.01887995 0.042283203 0.118223794 0.046103593 0.008538277 0.061109815
Dari -1.3322558 0.01516988 0.097653225 0.04039068 -0.103752024 -0.059401285 -0.054072082 0.07938789 -0.061224606 0.03648295 0.035359226 -0.032958027 -0.2352154 0.010948739 -0.001287062 0.008542887 0.049772616 -0.000777841 0.04017095 -0.0032940102
Darling -0.97548187 -0.1283017 -0.15415525 0.10542965 -0.033853747 -0.005388136 0.029131033 -0.0611942 -0.093029566 -0.03385739 0.05958701 0.00081818353 -0.081363246 0.014560777 0.035231568 0.086080484 0.012030103 -0.0029030293 -0.0069844285 0.03262466
Dartmouth -1.0438387 0.06293562 0.049730342 0.2462627 0.062974066 0.14777048 -0.012450767 0.046244625 -0.03295664 0.003272289 -0.0037091174 -0.0030970532 -0.06685427 0.060182057 -0.019551149 -0.097045794 0.06426357 -0.04133968 0.012929057 0.13485566
Dawes -1.3432606 0.027075952 0.0424603 0.19602968 0.052629735 -0.043936696 0.021765944 0.121455565 -0.038132 0.04151653 0.06357361 -0.04910968 -0.0720329 0.033934813 -0.0775372 0.06972517 0.1246424 0.025855435 -0.030323302 0.0016968313
Dec -1.1166339 -0.10880197 0.10249425 0.13273515 0.014858999 0.13146412 0.022046199 0.0208351 -0.107132845 0.075007014 0.053848438 0.1266935 -0.049664345 0.049645375 -0.023374295 -0.00913235 -0.036809064 0.010479093 0.009489527 0.0058600865
Decatur -1.3249562 0.01129717 0.18005031 0.19797333 -0.016105251 0.064348176 0.09940909 0.030029146 -0.2188875 0.10396055 0.037703637 0.02746178 -0.061193038 0.04277493 0.026650872 0.01142049 0.024763076 0.0360342 -0.003202819 0.08417051
Delphinus -0.9737318 0.04367788 0.026788997 0.26022667 0.15604854 0.13330849 0.03347614 -0.13010417 -0.10323846 0.0033438946 -0.060312398 0.02471306 -0.13514629 0.14295061 -0.014643516 -0.09446041 0.033687636 -0.02451311 -0.008731047 0.10111714
Demogorgon -0.8450744 0.0010875331 -0.135023 0.115010306 -0.06514255 -0.075639986 0.064022854 0.08444874 -0.033843774 0.008582011 0.1015236 0.09445458 -0.08090527 0.10493658 -0.031965967 -0.07499696 0.05370381 -0.0028744182 0.04946596 0.07673414
Dendrolagus -1.1363612 -0.098690845 0.005912826 0.04838847 0.05842488 0.024260623 0.04232082 -0.053349357 -0.050951954 -0.091377795 0.07226629 0.11062984 -0.17216292 0.031328574 -0.08841443 0.09407029 -0.0058151525 -0.03479924 0.00040681145 -0.012632534
Deneb -1.1479313 -0.05698604 0.0024511104 0.14868873 0.11738262 0.10327757 -0.01193651 0.07716082 -0.034238756 0.055893894 0.034955595 -0.060501173 -0.078748934 -0.014681604 -0.048707113 0.031124309 0.005651452 -0.010975478 -0.07857592 0.03422903
Denebola -1.0846231 0.05857546 0.09371322 0.15422656 -0.025252769 0.09938234 0.07268384 -0.01346881 -0.09451004 0.14702478 0.097771086 0.013881822 -0.043793656 0.008948117 0.025591142 -0.09073061 -0.0597939 0.01229335 0.007891446 0.013833626
Descurainia -1.2517262 0.070673 0.13737383 0.18322718 -0.036821924 -0.016415626 0.025574688 0.01567148 -0.13591123 0.017291158 0.061325427 -0.04937744 -0.1349241 0.020416562 0.057447467 0.050725427 0.081198126 -0.044484887 0.010778453 0.08156585
Despoina -1.1982423 0.0999585 -0.52283067 1.0660026 0.24550392 -0.013039672 0.08318695 0.33534348 -0.07251464 0.40093732 0.07606898 0.102468304 -0.68866867 0.44830644 0.009833773 -0.3038673 -0.16928776 0.25065228 0.052425586 0.08519569
Desyrel -2.0478604 -0.26412335 0.6969755 0.29074588 1.0365741 -0.8044356 -0.6409333 0.1563347 -0.86787814 -0.5901803 -0.34222648 -1.3004017 -1.5296503 0.13577 -0.040745724 -0.5588118 0.49794036 -0.5907183 0.4752663 1.4194489
Devanagari 0.3332888 -0.48076823 -0.13331304 0.8903997 -0.2927991 0.9440494 -0.904207 -0.43311954 -0.043774575 0.8857369 -0.47491115 -0.50141144 -0.3760882 -0.28722596 -0.70155054 0.5764527 -0.08716611 -0.09234656 -0.42970625 -0.06384492
Dhaka -1.1436957 -0.113482766 -0.06922625 0.16111036 0.15180005 0.006008099 0.09029271 0.113801666 0.020025216 0.057265326 0.035648614 0.055060137 -0.2240396 -0.035473876 -1.0487438e-05 0.04222007 0.012478895 -0.003679913 -0.06362044 0.041589726
Dicentra -0.98473656 0.05022194 -0.010929029 0.19538961 -0.015540124 -0.000810973 0.09557879 0.066385046 -0.05477383 0.0682902 0.13361154 0.080685265 -0.04222877 0.092584275 0.0014539772 -0.024810055 0.023801848 -0.007230282 0.025989465 0.039837316
Dickens 0.039406426 -0.6455668 -1.1662724 0.4387261 -0.112527415 1.7631339 0.15870512 0.02679591 -0.2514297 0.14404254 -0.10690786 0.22137672 -0.5844955 0.050284255 -0.5601058 0.31869674 0.38736856 -0.12725784 -0.13212892 -0.36339086
Dickensian 0.039288994 -0.6458075 -1.1670692 0.43866462 -0.11191703 1.7632619 0.15873237 0.026679914 -0.25087655 0.14398177 -0.107058704 0.22186784 -0.5847504 0.05061657 -0.56033194 0.3187051 0.38730857 -0.12719202 -0.13212809 -0.3635905
Dickinson -1.0868653 -0.06567742 0.15443915 0.17674568 0.03176904 0.055472203 0.06544784 0.012837547 -0.10941344 0.005772791 0.084105656 0.120887846 -0.08647149 0.029290989 -0.0025111665 -0.042724326 0.02386905 0.074662216 -0.0049298513 0.036127042
Dieffenbachia -3.136779 0.6026347 0.08873065 0.56262743 0.8798971 0.17693314 0.5541704 0.012744122 -0.08105275 1.577385 0.36565778 -0.33573958 0.62429076 -0.06780835 0.5731854 -0.5312026 0.18676792 -0.8907401 0.7714097 -0.54962754
Digitaria -3.141914 0.60142773 0.08787997 0.5648991 0.8800939 0.17706865 0.556382 0.010154281 -0.08200192 1.5759393 0.36633354 -0.33678523 0.62477046 -0.067991786 0.57282394 -0.5308252 0.18671033 -0.8910888 0.7708676 -0.5499394
Dilantin -1.0430646 0.0063986126 -0.004135089 0.18402635 -0.013914681 -0.051098097 0.14657529 -0.13222605 -0.16058743 -0.03280969 0.15477796 0.12413113 0.041711316 0.029263003 0.051905245 0.031972222 -0.0022528719 -0.040798772 0.026962662 0.048649833
Diogenes -1.4757333 -0.18449919 0.15044028 0.013419146 -0.21441472 -0.12217753 0.07419106 0.15512474 -0.0444182 0.08252981 0.1058963 0.12871462 -0.044044454 0.042876337 -0.033570718 -0.020811189 -0.0017409597 0.026335025 0.043119736 0.021112394
Dionysus -1.2642888 0.016141824 -0.0031716218 0.044606272 -0.04761906 0.018177804 -0.018021066 0.052023087 -0.018134505 0.038957432 0.07949943 0.00014382486 -0.0353633 0.09938758 0.00047641303 0.024823496 0.07057556 0.036653772 -0.021731224 -0.023265539
Diophantus -1.177462 -0.0070478334 0.1491323 0.24819022 0.110433236 -0.033741564 0.019195031 -0.047251184 -0.16186683 0.0058198874 0.041469246 0.00733388 0.021656407 0.10504963 0.0032346412 -0.00643105 0.06445581 -0.052005228 -0.03852403 -0.0016309742
Diospyros -1.107658 0.006375383 0.04634423 0.10954963 -0.038787577 -0.0011031997 0.07030082 0.02546048 -0.14210075 0.043674346 0.106178604 0.074805975 -0.026224218 -0.0046492307 0.044127185 0.09221021 0.013006782 -0.01043694 0.0036000407 0.06263208
Diplopoda -1.928071 -0.2937375 0.9225524 0.6801824 -0.0025334149 0.42891562 0.32429627 -0.11850631 0.14547415 0.36058518 0.1640611 -0.20865364 0.0039353073 0.13106418 -0.4301591 0.08180391 -0.39065975 0.36585522 0.19681436 0.048656948
Dipper -0.41032943 1.013164 -0.33518657 1.1051059 -0.1247388 0.05302695 0.5020192 0.5397651 -0.72274965 1.2220895 -0.6610805 0.2653195 -0.13223092 0.5272027 0.4812245 0.22318803 -0.014709781 0.31636488 -0.12501884 0.18196985
Dippers -1.1476063 -0.085591614 0.08727843 0.28402472 0.15934114 0.07140072 0.09388727 -0.002928068 -0.19205421 0.059188116 0.09095451 0.056608755 -0.10717994 0.038426593 -0.02654834 -0.051554915 -0.013535378 -0.0015947297 0.024014372 0.018970566
Dnieper -1.4219787 0.012535646 0.112578996 0.22472467 -0.109584145 -0.04645026 0.21453395 0.14172703 -0.09021547 0.15315387 0.057415064 0.10239188 -0.23674944 -0.030106463 0.012735974 -0.069213614 -0.04064223 0.040152665 0.020636141 0.0328715
DoD 1.0519162 -1.3980757 1.1096711 1.0950909 0.04046628 -0.7270189 -0.17456159 -0.77207756 -0.6066005 0.4911123 0.68265665 0.011889516 -0.15985103 -0.44952 -0.64056724 -0.22084066 0.18442772 -0.8452926 0.24200952 -0.8449037
Dodgson -0.92010474 0.0531986 0.034335576 0.24587502 0.09472953 0.032698337 0.03922655 0.06388473 -0.13543834 -0.016356418 0.11736 -0.0009826357 -0.01240554 0.08300036 -0.00939743 -0.038107093 0.09104547 0.018866574 -0.011277328 0.03176589
Dominicus -1.9966983 -0.25314024 -0.05253457 1.0932455 -0.33687997 -0.068232626 0.76971227 -0.29440287 0.24648274 0.5236219 -0.54577327 0.14884906 -0.728782 0.25584635 -0.10653255 0.05427891 0.580869 0.92460734 -0.4544996 -0.03288009
Domino -1.4431759 -0.12865192 0.09120764 0.12832054 -0.057059743 -0.00103858 0.009494068 0.042941913 -0.12862912 0.17872807 0.03221474 0.014832332 -0.0582151 0.007815919 -0.055260923 -0.011083438 0.05826813 0.012694253 0.016469633 -0.014327489
Donkin -1.2355145 -0.040308855 0.06960154 0.16061 0.092179514 -0.028033689 0.16305032 0.04260973 -0.06685387 0.06355509 0.10032184 0.040711757 -0.16177969 0.038291954 -0.0059338026 0.0039179744 0.032203514 0.007361135 0.011468816 0.041842923
Doomsday 3.02993 -0.14186518 -0.8968527 0.8561106 0.44647995 -0.047590237 1.1824591 0.5698364 -0.72015697 0.2944001 -0.51379424 -0.32190734 -1.1460255 0.32883525 -0.3265031 -0.30145684 0.9019015 0.19643033 -0.1665755 0.12573329
Douglas -1.1185256 -0.10803892 -0.13334717 0.2702082 0.11587886 0.06974642 0.09977551 -0.00037123705 -0.21737766 0.03856261 0.07672669 0.0012654406 -0.033301957 -0.016994737 -0.029127102 0.055336166 -0.0068288413 0.00961752 -0.0844951 0.059402395
Dowding -1.4906343 -0.29358038 -0.41934347 1.3035029 0.36881274 -0.28013092 0.12208744 0.1945688 -0.4475026 -0.047868334 0.053119034 0.42316 -0.37628955 0.38994065 -0.2425597 -0.012647883 -0.12404541 -0.6590168 -0.39159656 -0.32589385
Dowdy -1.4906566 -0.29359856 -0.4192545 1.3034858 0.3687535 -0.28012732 0.122108474 0.19451226 -0.44752464 -0.047865566 0.053121943 0.4231489 -0.37632027 0.3899634 -0.24249065 -0.012636975 -0.124070145 -0.65899944 -0.39151892 -0.32586783
Draco 0.46242794 0.21382758 -1.4520568 0.21880357 -0.26711756 -0.30390516 -0.26535758 0.99631786 -0.304163 0.8545224 0.19998638 0.25627548 -0.62086374 -0.29278696 0.6700021 -0.15757224 -0.49528903 -0.24937925 0.54453135 -0.0888526
Dresden -1.0357356 -0.11051441 -0.06871504 0.17493826 0.0006015621 0.039576888 0.07506184 -0.030841429 -0.120740674 0.048117153 0.050115056 0.16648124 -0.15403047 0.014540776 -0.07625111 -0.06436721 -0.012696144 -0.0076586907 0.025885502 -0.0031911663
Druse -1.338318 -0.20176263 -0.018288916 -0.08371009 -0.13695158 -0.02855526 -0.12585796 0.102270156 -0.074106745 -0.019104624 0.04660616 0.06097322 -0.12273565 -0.025627578 -0.085936025 0.11950741 0.06656815 0.01457726 -0.02347979 0.046938274
Dryopteris -0.9793627 -0.026415367 0.21833043 0.18185282 0.078758374 -0.0036333122 0.05097965 0.09643475 -0.13343626 -0.012986147 0.030519137 -0.059333425 -0.105592646 0.0553578 0.05470396 0.07044591 0.04754105 0.03429071 -0.065223955 0.021894945
Dumuzi -0.9963214 0.13134813 0.032482687 0.19045202 0.10244141 0.06493246 0.10767447 -0.022334173 -0.13765298 0.0010834102 0.046638887 0.09152244 0.07058368 0.0921094 -0.0070237285 -0.0013243244 0.028436352 0.061575633 -0.12880988 0.036519457
Dunkard -1.3907483 0.07059165 0.05282132 0.25259838 0.15212978 0.047750033 0.03596661 0.07445393 -0.07088688 0.087495446 0.016607424 0.0041408506 -0.22006428 -0.017502893 -0.063846946 -0.076211326 0.14106153 0.00082266424 -0.024373122 0.013612082
Durabolin -1.9419087 -0.3143457 1.240328 -0.41821533 0.9861013 -0.077266425 -0.5276375 0.42953253 -0.7248711 -0.38737863 0.3792761 -0.65675217 -0.6390999 0.54352653 -0.07972997 -0.20617622 0.22816484 0.23527354 0.9688459 1.1976544
Durant -0.9705945 0.020776415 -0.042560894 0.14493237 -0.11153817 0.04260145 0.13517854 0.031620868 -0.13956001 0.06442225 0.15145169 -0.006200626 -0.10889549 0.06566746 0.016982932 -0.060257275 0.033875756 -0.018349651 -0.0076655624 0.015065963
Dylan -1.1596444 0.017480422 0.0863493 0.24422961 0.007857432 -0.13606042 0.105639875 0.034190733 -0.07375395 -0.013944372 0.034348387 0.07857618 -0.12920585 0.039039705 0.003524813 0.025958305 -0.0058252155 -0.024027284 0.0011511297 0.0039145965
E.P.A. -0.98271286 -0.020056369 0.059812807 0.24267726 0.0666644 0.020985024 0.1459541 0.03645637 0.0155858565 0.0075225565 0.018531024 0.11305227 -0.13972646 0.08711978 0.007501 0.06211653 -0.042018093 -0.012100875 -0.0103259785 0.015741736
ED -1.1726445 0.00892104 0.121758126 -0.034459326 0.050366048 0.12071323 -0.051602952 0.0673908 -0.077800356 0.09485925 0.075042196 -0.047282554 -0.15671866 -0.007982124 0.07738862 -0.076986656 0.020677406 0.019059721 -0.011028593 0.008298364
EE 1.132889 -0.43992355 0.7971894 0.7302699 -0.4577032 0.50400764 0.005968795 -0.250157 -0.14465748 -0.86210686 -0.39468357 -0.68199 0.24035381 -0.21560001 -0.40476662 0.065701075 -0.686072 -0.4961762 -0.18431792 0.12725636
ELF 1.7857833 -0.6482948 0.12854749 0.8817834 -0.66149265 -0.08482714 0.49353385 -0.04854644 -0.37554744 0.15112957 -0.14011194 -0.29398558 0.02215079 -0.42867565 0.035898253 -0.18657115 -0.47895864 -0.1196515 0.02014882 -0.123598665
ELN -1.0757594 -0.5776159 0.8009324 1.2237382 0.43234944 -0.17492755 -0.027399492 0.08200913 -0.8655717 0.14745972 0.19447862 0.45782283 -0.19678132 -0.08606244 -0.42445815 -0.19998239 -0.4760206 -0.7082078 0.5929884 -0.5415928
EL -0.8187348 -0.010073852 -0.093932554 0.14684552 0.04872893 -0.03220146 0.19128425 -0.079987854 0.026430428 -0.069385886 0.03851334 0.16139813 -0.12639254 0.16003402 0.016025843 0.0025290295 -0.014389663 -0.071792945 0.05183389 0.050089534
EMG -1.4346282 -0.25863138 0.032213043 -0.059403233 -0.1321822 0.11978362 -0.13798521 0.038362034 -0.07314884 0.04305059 0.123109125 0.051207878 -0.17949715 -0.00845586 -0.038438555 0.0521478 -0.03932763 0.0537446 0.016563784 -0.002196144
EPROM 1.9215233 0.3374121 0.5168282 0.9511365 -0.75755364 0.3195079 -0.4852713 -0.35386202 0.024175772 -0.21073598 -0.6738248 0.1897122 -0.32675135 -1.1186286 -0.0010337041 -0.70677406 0.38738468 0.18137299 0.9124364 -0.2388866
EST 2.2473474 -0.34463513 -0.069159955 0.5888295 -0.19091822 0.4096461 0.017340079 0.5930629 -0.4109814 0.55012125 -0.5306664 -0.5131394 -0.67717165 0.0073678466 0.14334749 -0.12520501 0.45451337 0.2396314 -0.022602046 0.2299428
Eadwig -1.3926606 -0.14903834 -0.0158375 0.1026314 -0.026809677 0.06557208 0.12153661 0.02054446 -0.05246349 0.084514484 -0.0100002 0.06773401 0.045692176 0.075593114 -0.069859125 0.03835796 -0.016772762 0.021336768 -0.009132841 0.0040637236
Eames -1.280852 -0.014361971 0.06841593 0.08041886 -0.047910687 0.017788569 0.024986159 0.031818658 -0.05778622 0.045625094 0.048641328 -0.005129095 -0.18493874 0.004460913 0.044707723 -0.03142747 0.035093624 0.005596638 -0.05431965 0.06361999
Earth 0.6622067 -0.15428518 0.4550133 0.2494841 -0.309281 0.65147895 0.93268144 0.68759465 -0.18761612 0.057880558 0.21665749 0.3286371 0.43232104 0.46968728 -0.099342994 0.023983419 -0.22728468 0.094742835 -0.29898039 0.4008447
Ecclesiastes -1.2567023 -0.13911417 0.04998236 0.10063768 -0.04705416 0.010499121 0.09755695 -0.010462299 -0.06850352 -0.06581386 0.0573537 0.09541051 -0.071684524 0.10645915 -0.032439418 0.017440647 -0.035274457 0.013946429 0.05783192 0.024156976
Edirne -1.1930914 -0.14361951 0.018975673 0.072614364 -0.024651501 -0.0058099306 0.1278393 0.046192177 -0.14451578 0.18638317 0.09170736 0.060121104 -0.15808368 0.00273561 0.0211028 -0.024158953 0.040377036 0.048124768 0.0007956692 0.0628626
Eichmann -0.8714819 0.023666754 -0.07731263 0.19081631 0.003103919 0.04255392 0.032007482 0.10956767 0.02905223 0.037698023 0.01020586 0.043988857 -0.013603898 0.09872309 -0.10286792 0.041637927 0.09982963 -0.01870983 -0.012422241 0.0645922
Eiffel -1.3695828 0.016548831 0.13190895 0.12439044 0.118390255 0.13063268 -0.007909518 0.06830355 -0.047371726 0.11312514 0.016131591 0.06793232 -0.19848642 0.04337584 -0.026783662 -0.16193089 0.080040425 0.019637786 0.0031307866 0.040216446
Einsteinian -1.0279367 0.005894288 0.054021418 0.23072965 -0.03767478 0.008795056 0.12772325 -0.0014732749 -0.15558429 0.06484054 0.10400665 0.051421646 -0.061573446 0.058626022 0.041342996 -0.19479655 0.037580814 -0.07605878 0.085093364 0.0018107347
Eisenstaedt -1.0867286 -0.16258085 -0.081617534 0.12623793 0.06813946 0.004779201 0.020478547 -0.009344338 -0.09607471 0.060277913 0.021219129 0.1038438 -0.17378509 0.03888414 0.02460416 0.09678921 0.0039351867 0.008555663 -0.06191176 0.04431004
Elbe -1.0181185 -0.003237725 0.19162746 -0.0060426616 -0.036019303 0.010644438 0.016278852 0.096601784 -0.056787916 -0.035469268 0.11134713 0.06757745 -0.15161143 0.039123215 0.009073757 0.10662817 0.008571105 0.0007121702 -0.003303574 0.031930767
Elephas -1.0021908 -0.0750099 0.020518277 0.12034189 0.027678465 0.065011896 -0.04759695 0.007921253 -0.010311533 -0.03797402 0.046775136 0.06938088 0.05037483 0.06989592 -0.04686765 0.07337916 0.10079904 0.022798048 -0.079405256 0.01595927
Energy -1.1515073 -0.031507123 0.09125495 0.15738636 0.051268104 0.07930728 -0.0092283245 -0.030913634 -0.1565042 -0.0028140647 0.035561677 0.042847075 -0.044833135 0.11948904 -0.042422984 -0.0419485 0.050297618 0.014508656 0.040639117 -0.00044353266
Englishwoman -1.2312359 -0.08361065 0.031229233 0.33418944 -0.05278768 -0.099917814 0.13205348 -0.04058082 -0.106674515 0.040700883 0.042850506 0.20267984 -0.0028012244 0.085993655 -0.03262111 -0.009204833 0.00023225015 0.009912584 -0.02686897 -0.023675324
Enkidu -0.89539033 -0.018954653 0.008192821 0.20191568 0.042876936 0.057929497 0.0728584 -0.043217298 -0.112047024 0.004051806 0.052247714 -0.0035338483 -0.13074093 0.063364364 0.031885196 0.041284807 0.03867148 -0.00021400474 -0.018719625 0.046188742
Epicurus -1.0610837 -0.09039372 -0.069700874 0.18757345 0.11717056 -0.053789176 0.16394918 0.0517333 -0.04744681 0.040499322 0.029954145 0.15320213 -0.25546023 0.058296114 -0.042338084 -0.00696923 0.009274814 -0.0596522 0.05928574 0.01906918
Epilobium -1.281474 -0.19706504 -0.009696488 0.033943035 -0.017685117 -0.02613234 0.008454044 0.0007802559 -0.16013248 0.067733616 0.0705635 0.08205188 -0.053137008 0.02536204 -0.04605835 -0.013223062 -0.01630846 -0.016470144 0.042138025 0.026992012
Epstein -0.9612625 -0.058060136 -0.03957088 0.13774817 -0.067974254 0.061556414 -0.10810263 0.012856204 -0.009127506 0.0329414 0.013031289 0.04893722 -0.070199534 0.05023523 -0.053776655 0.0371743 -0.0040024663 0.04553888 0.07189293 0.03556563
Eragrostis -3.1475456 0.6004021 0.08768145 0.5670078 0.8797493 0.1769168 0.55821943 0.007894026 -0.08284672 1.5752444 0.36691186 -0.3379883 0.6251607 -0.068095855 0.57270145 -0.53026134 0.18674241 -0.89124465 0.77074456 -0.55021733
Eranthis -0.98986197 -0.13198774 -0.09055314 0.17410289 0.02120318 -0.13369966 0.10092165 -0.066670984 -0.06536523 -0.06359372 0.16214108 0.11950344 0.046399143 0.0830948 -0.057156585 0.014295765 0.028931221 -0.03389051 0.020490663 0.0036901315
Erato -1.3108058 -0.099917896 -0.040683042 0.023153162 0.015062455 0.18881954 -0.15130691 0.075245775 -0.042839978 -0.011879141 0.049894385 -0.0664923 -0.16941077 -0.061547987 -0.025890766 0.06081711 0.08965023 0.04875902 -0.002427981 0.0035355089
Erin -1.0700148 0.03380512 0.14575677 0.22982047 0.043320097 -0.010890743 0.13563333 -0.005480592 -0.1368701 0.00074449746 0.08664861 0.06376301 0.06910718 0.037081297 -0.007844328 -0.113787726 0.052785452 0.03490332 -0.031449135 0.009828837
Eritrean -0.88764673 0.00248126 0.027971892 0.07418367 0.0095055625 -0.02787891 0.026006462 0.06823912 -0.034785904 -0.07299561 0.08904035 0.11426594 -0.094112605 0.079055905 -0.04387983 0.008733199 0.009577319 0.02502513 0.07867339 -0.006509306
Erysiphe -1.3505688 -0.093248986 -0.035034344 0.14528081 0.046959624 -0.040383335 0.02529752 0.03925398 -0.063468605 0.04012822 0.008722911 0.0549368 -0.097029425 0.019433204 0.0032346924 0.11642823 0.06169443 0.02182811 -0.034085236 0.032143284
Esaki -1.256909 -0.101315394 -0.0038739212 0.18811956 0.056759663 -0.035029557 0.052655656 0.048781905 -0.072776265 0.06316495 0.034384266 0.05680239 -0.056133427 0.08012123 0.01266621 -0.017733024 0.0679047 -0.049826976 -0.05019769 0.08540932
Eschrichtius -1.3434817 -0.08612574 0.19378576 0.11606555 0.04796929 0.1628957 -0.07895466 -0.05148777 -0.113598764 0.05383359 0.017274523 -0.012631635 -0.116113655 0.044358265 0.0021979979 -0.14356756 0.094865836 0.049286034 0.027085446 0.0687642
Essen -1.0037291 -0.065165564 0.05813472 0.0729862 0.05779234 0.071173415 -0.052951053 0.10926886 -0.03431506 -0.020553797 0.0834409 0.04576323 0.041152675 0.092811085 -0.043470465 0.06247654 0.037010852 0.07930235 -0.057688873 0.015407213
Estonian -1.2718569 -0.11559615 0.06759026 0.29484063 0.15624183 -0.05091882 0.16131924 -0.027956756 -0.12624756 0.042754963 0.047411084 0.079010524 -0.13778204 0.013673774 -0.026475346 -0.02154599 0.021197535 -0.058182206 -0.065114826 0.04017973
Etruscan -1.1028312 -0.07503261 -0.0012844485 0.15661329 0.12821394 0.059133414 0.08905241 0.024322523 -0.052606575 0.033878963 -0.0020809574 -0.0080942 -0.16644809 -0.0011678977 0.035996918 0.0137756625 0.0058126906 -0.0030007744 -0.059993267 0.080588594
Eumeces -1.1829106 0.040515002 0.046347644 0.10133876 0.014801314 0.1004506 0.0065964917 0.06133181 -0.11412524 0.0444632 0.07718512 -0.020367486 -0.060711905 0.07988239 -0.025195533 -0.099359944 0.0011918057 0.05198261 0.009420678 0.060752045
Eumenides -1.2748544 -0.10189348 0.16429949 0.06902979 -0.098436855 0.0111958 0.06585501 0.085112 -0.10605951 0.03159518 0.036499105 0.07092015 -0.15150362 0.040601715 -0.015610202 -0.031623777 0.038266826 0.07338483 0.009960181 0.0049363472
Euphorbia -0.94156533 -0.03418203 0.0207789 0.084357865 0.06454432 -0.06965184 0.1524017 0.07391867 -0.074606046 -0.028154032 0.011902883 0.06743791 -0.1433169 0.015798785 -0.040155724 -0.041550886 -0.03500034 -0.03979546 -0.04312502 0.039957087
Eurasiatic -1.1456864 -0.11442405 -0.08996057 0.26599005 -0.02652944 -0.010327436 0.07303412 0.08417919 -0.03914869 0.11406878 -0.06134718 0.12292079 0.0013718744 0.047037125 -0.09535053 0.049552593 0.039276045 -0.0059307404 -0.096440956 0.06071784
Eurocentrism -0.25340465 -1.6989036 0.036459796 -1.2480845 -0.015984604 0.26903114 -0.1339842 -0.010073671 1.1331831 -0.09339966 -0.07040424 0.19462994 0.24630569 0.015135858 0.09270879 0.3319238 -0.21747367 -0.3028053 0.027828429 0.7752316
Europa -0.9665985 -0.05698231 0.068600185 0.22802629 -0.010681487 -0.08213571 0.06691179 0.009211663 -0.15748507 0.09579262 0.1298567 0.06834299 0.04506267 0.0378779 0.0076491744 0.009180701 -0.016551143 -0.030934349 0.004752621 0.033277377
European 0.26606888 -0.18535155 -0.053464856 1.189897 0.66590315 0.56402856 0.72339433 0.10489061 -0.34116703 0.42856464 0.49089015 0.7092197 -0.26625136 0.46464387 -0.3621091 0.24308553 0.041988168 0.1786892 -0.24872828 0.1003527
Europeanization -1.2699424 -0.15164743 0.04832582 0.031508 -0.016197179 0.09236253 0.0024763988 0.09050398 -0.00027683185 0.04257228 0.02079194 0.03207746 -0.13393554 -0.0007119165 0.020765698 0.046387333 0.021986872 0.043304723 -0.07404266 0.078090966
Everest -0.9841788 -0.006489741 -0.06408422 0.21534307 0.1515948 -0.014981368 0.13089064 0.0007187339 -0.042352963 -0.021421153 0.04762288 0.061229326 -0.16105653 0.006444556 -0.038988627 0.018732585 0.044628724 -0.04582157 -0.06951225 -0.011849711
Ezekiel -1.013002 -0.017653406 0.007960875 0.20509624 -0.003058177 -0.016639862 0.058544096 0.010419538 -0.065746464 0.038370084 0.16976966 0.04125425 0.104558066 0.10341947 -0.05314227 0.08024131 -0.006757118 -0.030634653 0.00491077 -0.05821755
Ezo -1.0438341 -0.016619535 0.08067082 0.14908832 0.064734645 0.04358619 0.07308018 -0.07500908 -0.10149349 -0.0210102 -0.0036595888 0.11552531 -0.094633356 0.05701857 -0.0103775095 -0.010007067 -0.025742121 0.008686819 -0.027285894 0.040434096
FAR -0.9060099 -0.108418934 -0.03161377 0.06909444 -0.04972191 -0.033970036 0.08639717 0.024243722 -0.12783763 0.0084215 0.1792574 0.18467203 0.002053099 0.040894553 -0.048005786 -0.010756805 0.021303708 0.009869733 0.021405334 -0.021272853
FBI -1.5044708 -0.06643669 0.04893465 0.14204432 0.115952946 -0.03841802 -0.005755118 0.13510147 -0.055352133 0.06822183 -0.024583867 -0.07241058 -0.09659553 -0.007279682 -0.025026202 0.008049169 0.029370861 -0.049034405 -0.07786521 0.06130901
FHA -0.28436375 -0.43866026 0.22472726 0.71395 -0.053145066 -0.3143255 -0.08782086 0.021548957 0.42715275 -0.10259341 -0.013093073 -0.13778976 -0.1036044 3.1187446e-05 0.03863458 -0.008252164 -0.14951438 0.009598993 -0.21820939 -0.2814751
FHLMC 0.744905 1.0257581 -0.18312907 0.09136303 0.29927707 -0.10787713 0.62551814 0.0655924 0.110133104 -0.58079475 -0.12248058 -0.3728429 -0.17298323 -0.08275387 0.19442724 -0.072829045 -0.037244327 0.69735044 0.062425002 -0.163052
FPS -1.105787 -0.071730115 -0.00054855144 0.17862321 0.11797939 0.08341753 0.0915069 0.03349156 -0.0050621293 -0.023468345 -0.013449586 0.029397676 -0.10529649 -0.00060598383 0.008870805 -0.011970104 0.00453293 -0.03952871 -0.086716786 0.04347098
FRG -1.0269191 -0.04714756 0.0075175753 0.104344904 -0.052880205 -0.06429795 0.11456665 0.024439191 -0.12883084 0.006108127 0.081014305 0.007881098 0.06856201 0.031404305 -0.004427042 -0.0005355871 0.028946474 -0.00011595557 -0.0672301 0.013930611
Fabaceae -1.1854944 -0.08795301 0.14055854 0.120212145 0.04630458 0.025202079 -0.022988146 0.060863018 -0.10223206 -0.015969047 0.011761014 0.04114175 -0.07609391 0.08065953 0.024718566 -0.034909565 0.10915933 0.008982452 -0.05170056 -0.0076486818
Fafnir -0.9329312 -0.086636536 -0.0014788015 0.16069748 0.017269757 -0.03065101 0.1594914 -0.09528981 -0.018886201 0.040247455 0.11123492 0.21028055 -0.19149303 0.038997643 -0.0077819894 -0.032680895 -0.029076833 -0.109003045 0.08259921 0.049463663
Fagaceae -2.9656684 0.53823274 0.78384084 1.1432742 1.4945769 0.517229 1.4354509 -0.10471204 0.14291668 1.8917634 0.53681815 -0.60051274 -0.3541047 -0.93938875 0.4178694 -0.27441615 -0.72977513 -0.7652821 2.118474 -0.16050737
Faisal -1.1236398 0.04080806 -0.08472825 0.10232083 -0.0009792554 0.06626619 -0.13787957 0.19608852 -0.0005442791 -0.013185499 0.02816487 0.046596993 -0.10246359 -0.05742276 -0.028019825 0.023166226 0.1687263 0.05746957 -0.073934995 0.092596665
Faisalabad -1.0839566 0.0340213 -0.05595765 0.20849395 0.16179761 0.056395035 0.011954603 0.072291814 0.030904459 -0.0026416217 -0.028731994 0.013659799 -0.098694764 0.06144239 -0.02728446 0.020412184 -0.015329918 -0.0037270247 -0.0732133 0.036718577
Fargo -1.3379388 0.047181834 0.17391773 0.22310363 0.014391461 -0.053680655 0.093921356 0.13456231 -0.20172332 0.10079422 0.08350587 0.025576564 -0.13310555 0.054005187 0.03143948 0.025452979 0.01218187 0.011695909 0.026751926 -0.03552161
Farrell -1.1475207 -0.11367696 -0.05950492 0.060988173 0.04023182 -0.005562997 0.057139497 -0.10440563 -0.058038972 -0.019487163 0.057222944 0.13702376 -0.074268825 0.06755634 -0.041292362 -0.045315858 0.0035617426 -0.020539757 0.016879052 -0.0016581138
Fatherhood -1.364277 -0.06918918 0.015897699 0.20473409 -0.029804185 0.0311154 0.027074387 0.09249649 -0.077278055 0.1292911 -9.0766366e-07 0.12673576 -0.13849126 0.002546881 -0.016949082 -0.026839145 0.05579818 0.08497128 -0.00061725074 0.044683374
Faulkner -1.1178237 -0.07580252 0.14540993 0.07297448 -0.026698207 0.07080923 -0.01633527 -0.0006920748 -0.10664826 0.055257287 0.024025545 0.07031654 -0.10684772 0.051320467 -0.0031398404 0.014419766 0.0042744125 -0.0018018427 -0.050905153 0.09379952
Fauntleroy 0.883386 0.4219405 -1.3456843 1.1250073 0.55701774 -0.17230034 -0.3844125 0.7694056 0.058660354 -0.31217235 0.26665697 0.14802635 -0.1675369 0.38791257 0.28483772 -0.32174838 0.026274402 0.02476771 -0.32530725 0.19578265
Fauve -0.93594354 0.0011346634 -0.12838309 0.21062484 0.0033973968 -0.05227111 0.09258823 -0.027075129 -0.095781066 0.050106943 0.055028573 0.17983934 -0.11646195 -0.026636291 -0.028559493 -0.11076843 -0.0031144263 -0.07108128 0.044311393 0.02098322
Fayetteville -1.0401312 -0.10696944 0.15485209 0.1625242 0.017086526 0.0623208 0.05757951 -0.028587215 -0.11875293 -0.083041124 0.03844653 0.050490957 -0.114489794 0.12655549 0.03446727 -0.013286161 -0.0046542776 0.030660689 -0.021440366 -1.6647986e-05
Feb -1.2972285 0.112992056 0.14313689 0.31810454 -0.039597355 -0.00734905 -0.0038029493 0.06530707 -0.1787146 0.15048267 0.01462555 0.016587468 -0.0034617016 0.09581955 0.020016326 -0.11840441 0.083154455 0.06059784 -0.007428313 0.065683156
Feldene -2.4912624 0.030962083 0.8402932 0.22144468 1.0598333 -0.7460074 -0.48620862 0.34666908 -0.8486258 -0.41238382 -0.006224289 -0.9144802 -1.1480973 0.34444806 0.24705283 -0.19409317 0.20222695 -0.63015276 0.7835642 1.2914575
Fielding -1.1773046 0.041050214 0.0027269586 0.3145276 0.03821009 -0.08012794 0.101028115 0.0117454035 -0.09327606 0.09137264 0.14973958 0.004544454 -0.041192822 0.027626345 -0.0682228 0.0034910685 0.10632812 -0.020629562 0.06824703 -0.036590267
Fillmore -1.266624 -0.0111614475 -0.16016005 0.13125412 -0.027720798 0.12856297 0.05084 0.058730163 -0.05116273 0.043541268 -0.016435046 -0.016944876 -0.07187012 -0.014305519 -0.014096832 -0.007350569 0.034539398 -0.015876813 -0.1001565 0.07804067
Finnish -0.72581893 -0.09125933 0.063779056 0.08252317 0.11259668 0.026480265 0.008076381 0.08961428 -0.057741847 -0.05568021 0.21776088 0.09198763 -0.029842569 0.059447482 -0.024189014 0.051532086 -0.016725644 0.056826957 0.036401067 0.033237252
Fish -0.6788136 -0.119774364 -0.26890358 0.5105711 0.2021567 -0.026385333 -0.54585236 0.25977966 0.26810044 -0.053951 -0.06703535 0.25547376 0.45875558 -0.023316266 0.18445338 -0.13816664 -0.032718647 0.14911637 -0.097886555 -0.10497402
Fistulina -1.1348029 -0.047245447 -0.07706027 -0.060667004 -0.05215135 0.13614294 -0.098870076 0.13784008 0.05044467 0.031500753 0.086008176 0.052695196 -0.19250834 -0.04773165 0.017346717 0.056690495 0.12533775 0.07602399 -0.05223899 0.05978623
Fitzgerald 1.1995214 -0.8774869 -0.8089683 1.6302637 0.21934125 0.58384323 -0.08794952 0.6671147 -0.72362226 0.37221572 0.10099936 0.3131896 -1.4763585 0.7050094 -0.15790223 0.37286258 0.23843473 -0.47492704 -0.41400656 -0.030617714
Fletcher -1.0397899 -0.070956424 -0.12725092 0.31684026 0.056693614 0.016763965 0.10491834 0.048895914 -0.063314825 0.10610566 0.0038628443 0.019189198 -0.20540266 0.03893816 -0.017388428 0.069744065 -0.055101138 -0.0057701743 -0.01968856 0.010090174
Flinders -1.2231123 -0.06825525 0.11594694 0.07682108 0.0028565016 0.0036945213 0.15299058 0.07098363 -0.02854107 0.04805656 0.010138662 0.013467216 -0.20043764 0.033471808 0.056695715 0.007889988 0.04803723 0.0019055 -0.049701165 0.07876087
Flint -1.3948823 -0.011038272 -0.04953118 0.10744269 -0.008612307 0.021940336 0.04510033 -0.013605016 0.05042491 -0.027306382 0.019910945 0.0901228 -0.1495701 0.05100453 0.011857868 0.12435554 0.048126392 0.08227919 -0.02272491 0.019528888
Floreal -1.0572299 -0.0034710965 0.07356513 0.25970903 0.045587655 -0.017345808 0.1181779 -0.040296476 -0.0970411 0.07217552 0.101094015 0.13502127 -0.025173517 0.064993 -0.043530595 -0.13064715 0.029519243 0.017200992 0.09828871 -0.001766345
Florence -1.1131927 0.03827639 0.1270528 0.19381405 0.02452106 0.023489844 -0.0055954787 -0.04534529 -0.08553927 0.06521586 -0.051037256 0.0072604455 0.012506188 -0.006046828 0.012030115 -0.03377859 0.08351395 -0.121703535 -0.007562987 0.063032255
Florida -1.2341387 -0.10911106 -0.051874574 0.18451169 0.022557419 0.11158029 0.018754007 0.00037055375 -0.048790496 0.046646956 -0.019253671 0.017581906 -0.056633547 0.002024981 -0.016552072 0.027943209 0.092380725 -0.027034225 -0.051868618 0.047317766
Foeniculum -1.0172873 -0.04267294 0.0052045304 0.22812036 0.035788372 0.05459783 0.033279147 0.041626196 -0.057457007 -0.0051763407 0.01587865 0.08010414 -0.1733397 0.0113779325 -0.016691135 0.03681858 0.057259325 0.012229666 -0.0032915417 0.09610143
Fomorian -1.2736467 -0.037102725 0.2569523 0.17931703 -0.06312712 -0.0002768468 0.064705096 0.020513183 -0.13901742 0.09187622 0.10140803 0.11115201 -0.10275941 0.030307675 0.022422766 -0.022065282 0.023041833 -0.023135487 0.04570021 0.038698543
Fonteyn -0.9324134 -0.04241721 0.024155691 0.087898575 -0.074713245 0.025599642 0.1334712 0.10876676 -0.057933524 0.016086783 0.05526145 0.07448823 -0.06868507 0.063744016 0.06608175 -0.0092315925 0.0137245245 0.0006735182 -0.044135924 0.12502152
Ford 2.27191 -0.17043258 -0.45581874 1.8144569 -0.16377841 0.03246112 -0.19850758 0.45315242 -0.87074083 0.10076093 0.25456542 1.0823519 -0.739006 0.5954107 0.09194117 0.17566696 0.8186759 -1.0206666 0.30111247 0.015233578
Forseti -1.2105507 0.0862624 0.074062474 0.23574753 0.07797569 0.038978662 0.02158055 0.06988771 -0.07747784 0.035387546 -0.055324364 0.01284719 -0.19925909 -0.05066798 -0.0005789274 -0.052659243 0.048058543 0.0037609779 -0.082565665 0.062019315
Fortaz -0.9305752 -0.1211131 -0.0077999546 0.1596568 0.06492989 0.031971626 0.06699868 0.061025526 -0.051440347 0.06946641 0.039444413 0.094017245 -0.031708993 0.053999104 -0.033258926 0.044893745 0.09771091 0.018530149 -0.043237813 0.04370057
Francisella -2.8431 -0.039428838 1.1989241 0.38631105 0.6529343 -0.22090638 0.48430908 1.1826186 -0.3723844 0.26605904 0.34668583 0.029097024 0.74582356 -0.4061863 -0.010823842 -0.6295524 -0.3584442 0.12946942 1.6311809 -0.8398735
Freemason 0.14790568 0.3790608 -0.6037267 0.86597365 -0.13214299 -0.005643442 -0.7035654 0.4195807 0.072780445 0.016258314 0.17621522 0.1308963 0.15978289 0.29606608 0.3911245 0.04129801 -0.073407635 0.18747012 0.00043591438 -0.24175957
Freetown -1.0825744 -0.10386421 -0.08898984 0.034437884 0.03965899 0.024209647 0.010350316 0.050669614 -0.06518133 -0.02173584 0.005678048 0.11426987 -0.14715843 0.01070403 -0.044777453 0.097516805 0.050305516 0.041525017 -0.07976391 -0.0004362184
Freud -1.3262178 -0.3100305 0.106732555 0.28451604 -0.24020147 0.19390519 0.013309435 0.23540501 -0.14086571 0.33705872 -0.1550261 0.16409081 0.0015214111 -0.12762028 0.098946296 -0.025896827 -0.15918325 0.08730817 -0.22580738 0.025107114
Freudian -0.33703223 -0.113735154 -0.36270297 0.2745625 -0.19473119 0.21801555 -0.5584204 0.39091474 0.29484537 0.1900584 0.08893226 0.37915686 0.47673675 -0.15754008 0.3456183 -0.3513598 -0.4135773 0.39954305 -0.14937972 -0.036938895
Frick -1.1888266 -0.023394708 -0.05122373 0.14644217 -0.0130438255 -0.09816936 0.14056796 0.007214205 -0.12694938 0.0093638245 0.12253043 0.10785806 -0.079286575 0.036406368 -0.0128272595 -0.061347723 0.022899507 -0.031419724 0.023670191 0.00842457
