8157 40
10-membered -1.3054178 -0.08315903 -0.059860278 0.25115997 0.06304909 0.012935107 0.066783376 0.035443734 -0.15145735 0.11591526 0.15708916 -0.023819989 -0.006091384 -0.035909917 -0.00569014 0.08555416 0.076646455 0.09079767 0.016532507 0.020007055 0.12075017 -0.06257564 0.014096102 -0.0625226 0.10750658 0.012638351 -0.0002135116 -0.020724084 -0.017029658 0.11409072 0.015238365 0.018221926 -0.020553526 0.08745343 0.01991412 0.053310636 0.016224239 0.008882378 -0.014572346 -0.049989168
American 0.95751286 0.075675756 -0.07598324 0.85519284 0.6663301 0.60971993 0.44147897 0.39686292 0.053499293 0.23070271 0.42802662 0.5232273 0.09101011 0.12268609 0.027648028 -0.14639114 -0.19433403 0.13554373 -0.17070916 -0.10449642 0.3393934 -0.1964895 -0.15028551 0.119561434 0.19512379 -0.2110256 0.2908698 0.30987605 0.2380136 0.070529535 -0.18746532 -0.24980944 0.23611926 0.09677113 -0.2763213 -0.23896693 -0.30741185 0.13435866 -0.21248344 0.36359602
Anaprox -2.6183364 0.04233483 0.8492343 0.22254272 0.9688584 -0.7603069 -0.5536599 0.36959094 -0.8544159 -0.30908892 -0.035144955 -0.96690786 -1.1529378 0.3470598 0.24526455 -0.17636657 0.21445128 -0.6061001 0.8292928 1.2861202 -0.8828544 -0.07560564 1.2242974 -0.86496866 0.8314893 0.899193 -0.045924693 0.61007166 -0.15003085 -0.18699381 1.2106113 0.53448886 1.6408798 -0.1429743 -0.3630839 -0.20835838 -0.06228938 0.12407919 -0.6280283 0.31837586
Aqua-Lung -0.6869534 0.69596076 0.23484345 1.0458554 -0.3705543 -0.2280793 0.004639139 0.42066324 -0.24042213 -0.4217713 -0.97451574 -0.3474341 0.43772256 0.8128064 -0.5080355 -0.40787542 -0.51344883 -0.6925516 0.14543656 -0.59639597 -0.23314932 0.68564796 1.0098472 0.22815101 1.9937631 0.64440536 -0.30858123 0.27705052 -1.4513974 0.34303385 0.18096876 -0.63988733 -0.28508857 0.92511857 0.10158199 0.48041302 -0.92790323 -0.4296893 -0.5256773 0.05090387
Aquitania -1.3142842 -0.11301759 0.16040252 0.1371906 0.03423619 -0.07380223 0.047963265 -0.08065407 -0.11653243 -0.0016652868 0.0059355553 0.054379445 0.07020222 0.10813512 -0.037765652 0.111252554 0.056067117 -0.014451574 -0.078550555 0.042680416 0.059557904 -0.19484478 -0.08185369 -0.08301463 0.016106103 -0.08898091 0.039364457 -0.020658718 0.06099859 -0.0061646784 -0.009115198 0.086888984 0.04584021 -0.023802927 -0.015398526 0.010000963 0.06936588 0.09645227 -0.06528555 -0.041141976
Arafat -0.7378752 -0.09597786 -0.016045326 -0.05139965 0.09714818 0.06765282 -0.12102765 0.08795248 0.044266164 0.030844348 0.07413047 0.034695946 -0.112443134 0.004865487 -8.311563e-05 -0.04521204 0.009913479 -0.021688566 -0.013661591 0.07116101 -0.006400137 0.00053130795 -0.11706364 0.061382048 0.016724639 0.031156944 -0.024040822 0.035895724 0.024619237 -0.071387425 0.059407774 -0.019598594 -0.042383756 0.009154893 -0.026906604 -0.03297199 0.016917441 -0.079973996 0.025930073 0.054137606
BA -1.0881733 0.084616564 0.051578797 0.124398604 0.07802285 0.03235663 0.012678135 0.13509555 -0.03994666 0.06848454 -0.02535926 0.10900055 -0.073450476 0.013044693 -0.050663162 0.026865015 0.09922773 0.004577252 -0.004741909 0.04067976 0.054013673 -0.08225143 -0.097002536 -0.06132918 0.019757079 0.06321324 0.005522437 0.051101327 -0.020755488 0.07405527 -0.030142559 0.029268814 -0.014157072 -0.051812205 0.04518321 -0.05356418 0.035396017 -0.02458314 -0.057917632 -0.000873946
Bahrein -1.2006333 -0.05827101 -0.009729359 0.21351199 0.020172358 -0.0154945655 -0.04929785 0.014007232 -0.0905576 -0.007454351 0.017827112 0.03684585 -0.17854832 -0.0062101153 0.01888659 -0.069981776 0.068231374 -0.04482093 -0.06896783 0.046728726 0.07561274 -0.025673827 -0.059550207 -0.018780481 0.048572827 0.0358158 0.014173332 -0.029846286 0.03787045 0.058670152 0.0053804726 -0.06418465 0.010453216 -0.043919805 0.02938077 0.00929055 0.11612655 -0.047786117 0.01722902 0.01484702
Bath -0.96546793 -0.017182784 0.119606145 0.21193671 0.117477156 0.12764776 0.084811896 0.072570525 -0.033960313 -0.0048800805 0.001203531 0.009958531 -0.1179966 0.06341562 0.016811138 -0.08646752 0.020270165 -0.061555997 -0.11476034 0.047366 0.027859539 -0.09661479 0.0008573649 0.050093688 0.03988528 -0.06780524 0.07407731 0.03539478 -0.034060817 0.051553562 -0.075350985 -0.043394193 -0.013762156 -0.022088839 0.040798213 -0.0061401622 -0.037536982 -0.04756962 -0.037475288 -0.010418193
Bavaria -1.2576302 0.024518363 0.1043413 0.2386575 -0.0165792 0.07454233 0.086516604 0.024477463 -0.059674695 0.07710144 -0.051261928 0.09684272 -0.16005191 0.003512234 0.028108746 -0.15626867 -0.011035117 -0.008112327 -0.12904224 0.08169376 0.08957632 -0.10191631 -0.08089422 -0.015519531 -0.01543396 0.031025197 0.077148356 0.037908815 -0.031310793 0.0009660603 -0.10149763 0.045322977 0.06901314 -0.06361212 -0.021338196 0.028270526 -0.06241736 0.00093022664 -0.012888367 0.018832345
Baycol -0.9162999 0.037491858 0.045102254 0.24137941 -0.07010921 -0.0077431723 0.10805947 0.03767635 -0.14349101 0.04063137 0.12156729 0.097942136 -0.08480721 0.037850395 0.026629096 -0.09332987 0.018223422 0.06056387 0.0481716 0.047640037 0.09180239 0.005013399 -0.0001734395 0.030770332 0.10178484 0.055154633 -0.012252014 -0.0061619566 -0.058121547 -0.11809217 0.011315742 0.054945987 -0.018846298 -0.030796152 -0.014268804 0.010092614 -0.017914938 0.007845343 -0.0035871286 -0.005686732
Bayesian -1.1828485 -0.01345241 0.073686615 0.22921214 0.013749291 0.005170438 0.06362197 0.0801581 -0.04467284 0.05170635 0.0081935385 0.08547442 -0.09934699 0.050649732 -0.054824412 -0.034628667 -0.0028440559 -0.04109983 0.017266592 0.017968914 0.06341785 -0.07452605 -0.0123413205 -0.061867043 0.06554795 0.024484377 -0.02233852 -0.0160387 -0.05918866 -0.049373332 -0.07912766 -0.024577955 -0.08936214 -0.030687025 -0.010915079 -0.039516065 -0.015967365 0.049264356 0.053380344 0.014166526
Baykal -0.9794982 -0.05324021 0.0016513453 0.099801764 0.051365666 0.07050519 0.049168196 0.04900188 -0.06204067 0.11812762 0.09205738 0.04821134 0.02795116 0.11836363 -0.028496277 -0.10511494 -0.01139031 0.00535765 -0.013893031 -0.018770227 0.12112428 -0.0054107024 -0.100970306 0.035081845 -0.01884965 -0.09979656 -0.007904686 0.08897723 -0.050249808 -0.003690744 -0.028949663 -0.05621937 0.03492989 -0.040362902 0.009708654 0.09274714 -0.02910997 -0.0030215879 0.07195241 -0.007734167
Beaumont -1.457209 -0.3065524 0.08560696 0.06304944 -0.08782814 0.09072848 0.014990027 0.090667956 -0.07037418 -0.011457224 0.006744088 0.04478499 -0.038104385 0.034317482 -0.08052673 0.17077026 -0.017711593 0.03333571 -0.07860588 -0.016622819 0.0501549 -0.08184198 -0.07182249 -0.07320192 4.8790705e-05 -0.026288213 -0.0022835766 0.07341916 0.012020081 0.14055109 -0.013879648 0.032180045 -0.008175833 -0.08000205 0.052446414 -0.06452448 0.05878836 0.054555 -0.0114656985 -0.027588494
Beethoven -0.57796794 -0.6506183 -0.22993785 -0.12628746 -0.08189807 1.0398384 -0.20195326 0.20360713 -0.1024216 -0.094820626 -0.8187908 -0.5601136 -0.025623808 0.24431153 -0.20783049 0.56908464 -0.11790894 -0.19752973 0.17246918 -0.4217524 -0.1218039 -0.25917572 0.38926548 0.58462614 -0.030245615 -0.17509931 0.078647345 0.14325736 0.18222578 0.01040534 -0.01154537 -0.30436683 0.34029293 -0.19297299 -0.0973098 0.24851097 0.37946633 0.22109525 -0.37446585 -0.02498808
Begoniaceae -1.3071115 -0.086333245 -0.007126993 0.11087524 -0.015895369 -0.046258923 0.062807895 0.039842866 -0.078489505 0.07501078 0.11818123 0.08138805 -0.10858043 0.01908816 -0.01830172 -0.016962904 -0.017097553 0.036688272 0.04647695 0.03234997 0.09990223 -0.06614642 0.008818931 -0.02969226 0.06543593 0.036835417 0.049256064 0.014040334 0.012015865 -0.034460653 -0.044585053 0.06442844 -0.029006056 0.058331154 -0.022601947 0.039377358 -0.021458916 -0.0087339 0.011753225 0.024998536
Belgian 0.3714743 -0.08512863 0.058600895 1.0453581 0.6457077 0.6587399 0.6709595 0.14292647 -0.25141057 0.3817812 0.4966747 0.5777549 -0.15526025 0.32608443 -0.14475708 0.07676966 -0.07419246 0.18788047 -0.22885287 0.06829477 0.5827711 -0.27840137 -0.18634686 0.16695389 0.43801177 -0.43926543 0.6050035 0.31740117 0.16817749 0.17380369 -0.15070938 -0.24993327 0.32512212 0.28104407 -0.45690393 -0.4867073 -0.31738555 0.17975634 -0.2617149 0.36705387
Bell -1.1559639 0.044249635 -0.09361235 0.36366475 0.16437079 -0.022116741 0.07543985 0.0032347557 -0.07991192 0.033001646 -0.002326255 0.034122195 -0.040655665 0.08339441 -0.014491669 0.0033745265 0.13187101 -0.01316196 0.0025423653 0.051394746 0.09040395 -0.15351164 -0.026086615 -0.0617458 0.13772702 0.046341274 -0.0035117625 -0.004329816 -0.00022893255 0.106877096 -0.058212165 -0.030610034 0.0025741796 -0.02086855 0.00029686387 0.03665905 0.06444202 0.009883666 -0.032235116 -0.038204856
Bemisia -1.3826537 -0.057541564 0.12207862 0.17164533 0.013332172 0.04261343 0.06346005 -0.06940821 -0.1202636 0.07397906 0.055161096 0.0332543 0.13967012 0.12329923 0.05768814 0.08595357 -0.009448472 -0.09767997 -0.038823213 0.017532948 0.05087281 -0.10204168 -0.08603066 -0.041277032 0.020751381 -0.06869707 -0.10300411 0.041909028 0.04136969 -0.06876527 -0.13671345 -0.052979626 0.007627107 -0.07470124 -0.0024791788 0.026066117 0.01866552 0.030269982 -0.027570179 0.122594975
Benadryl -1.4059464 -0.014117145 0.039146923 0.22701375 -0.050616868 0.09907632 0.032667346 -0.01117744 -0.085161224 0.20202437 0.06833519 0.010830962 -0.060653735 0.046509255 -0.034734137 -0.11426951 -0.018381855 0.0371676 0.041370615 0.002421396 0.06495108 -0.047429483 -0.02155708 -0.017615136 0.05126166 0.01006996 -0.026260667 0.042402744 -0.03343083 -0.040403526 -0.078559466 0.01085859 -0.00453282 -0.016487416 0.0069121546 0.00047220805 -0.061336245 0.04699195 0.06500781 0.037600886
Berkshire -1.2374531 -0.18462175 0.12284831 0.25667742 -0.0010210794 0.091777995 0.06781819 -0.06573408 -0.17783238 0.11353147 0.021560118 0.07176493 -0.13582012 0.05702066 -0.017978674 0.040223394 -0.054992955 0.009291284 0.019353133 0.004924607 0.042556435 -0.03070325 0.00080968864 -0.078988545 0.038235445 0.051836602 -0.0039569354 -0.09269248 0.027565125 -0.027948257 -0.066481136 -0.02043168 -0.096420266 -0.015179508 0.01654443 0.051539987 -0.06133095 0.0701314 0.056724582 0.1440606
Bernstein -1.2455238 -0.0019078135 0.15004523 0.11532423 -0.124246486 0.012432323 -0.031819355 0.026610058 -0.11079609 0.0656696 0.08217924 0.04801275 0.04494073 0.04435073 -0.0019308573 -0.037853763 0.082569025 0.045054406 0.016638773 -0.0048618754 0.00494052 -0.034019783 0.005288291 0.010575746 0.10255686 -0.014582458 0.05287826 -0.07610635 -0.022588165 -0.030836314 -0.024370896 -0.03450094 -0.045476682 0.021271689 0.0002130054 0.0037962184 -0.0011532119 -0.011374844 0.0135295065 -0.064581625
Bertillon -1.0128092 0.019303543 -0.011529193 0.14645554 -0.07170326 0.060552724 0.040146995 0.023338156 -0.07664698 0.026837423 0.08601767 0.08983667 0.011339039 0.053981904 -0.0015925665 0.029599337 0.038405888 0.07436487 -0.014419743 0.0017482354 0.0379229 -0.09599513 0.06803965 -0.033935294 0.075830765 -0.040699486 -0.033949383 -0.05299114 -0.07331641 0.026353374 0.020312143 0.024459152 -0.037000902 0.035120804 0.019576645 0.0062462725 -0.058184363 -0.029634934 -0.047824357 0.0055125523
Betelgeuse -1.0441705 -0.05414816 -0.1659501 0.08641606 0.053665515 0.011575543 0.042069692 0.04888598 0.032374 -0.029032491 0.04905043 0.012235657 -0.16701776 -0.01538004 -0.03577907 0.048604272 0.05808848 0.00058362476 -0.008533318 0.03879602 0.029816387 0.008427874 0.038521536 -0.051355507 0.081132695 0.037510816 -0.0053295954 -0.011279686 -0.019100819 -0.023425186 -0.0014282054 -0.057946973 -0.034464493 -0.029380405 0.029866155 0.026679002 0.05293148 -0.020126013 -0.056455247 -0.020047352
Bethe -1.1516604 0.018856715 -0.006451896 0.28729686 0.16603288 -0.051834177 0.07509214 -0.026190918 -0.09229531 0.041827638 -0.05642564 0.099743225 -0.21814585 0.036248617 -0.03583551 -0.04360736 0.084767185 -0.034603536 -0.033505034 0.013286408 0.05305156 -0.1572374 -0.04490502 -0.09006027 -0.023945337 0.053931873 0.053908613 -0.0130669335 -0.036206648 -0.008069329 -0.061851613 0.015288268 -0.05291831 -0.033283077 0.007449372 -0.013219738 0.07284731 0.051259954 -0.032498665 0.031531837
Bidens -1.1513822 -0.025871618 0.10833741 0.13608906 0.023293735 0.030107878 -0.10798592 0.1121143 -0.21336846 0.25617254 0.10079291 0.06613059 -0.2487984 0.012238453 0.042179182 -0.11775589 0.030384151 0.026654784 0.14912176 0.011685055 0.065077625 0.024306392 -0.037580986 -0.023770688 -0.049434297 0.096608154 0.026018592 0.020220231 -0.08070111 -0.032015312 -0.004513231 -0.087626845 -0.18055631 0.070364125 -0.031601682 -0.024187949 -0.034143884 -0.07238371 0.12383804 0.14899692
Bihar -1.4069093 -0.007482121 -0.034560293 0.23192985 0.027865237 -0.006086267 0.09971834 0.10738904 -0.058334038 0.11470884 0.04286071 0.036947638 -0.09345739 0.012853368 -0.045630183 -0.06951607 -0.0046475427 0.01215862 -0.049917594 0.032980535 0.075936206 -0.06864502 -0.024042163 -0.054826036 0.024439588 0.0033197384 0.040199168 0.041897453 -0.039642826 0.05602608 -0.05579055 -0.03362077 0.024976375 0.0050555677 -0.013697654 0.0012734617 0.00944189 0.036177944 0.02089351 0.009670401
Blackpool -1.0344354 -0.01035999 -0.04987299 0.19996832 0.07150774 -0.023687871 0.12507355 -0.11914108 -0.08859017 0.05242998 0.0025054652 0.031544913 -0.2554249 0.026266586 0.04203634 -0.080601774 0.010980922 -0.0066272523 0.056164388 -0.0015329899 0.01424754 0.03317412 0.04235138 -0.028176853 0.061883133 0.09018869 0.022111148 -0.035314284 0.007808456 -0.1086391 -0.015142106 0.016680673 -0.05959821 -0.035345897 -0.022999307 -0.006154708 0.045076314 -0.021024853 -0.056398556 0.06532548
Blarina -1.0917724 -0.021101901 0.047652446 0.15306865 0.087873824 -0.032708768 0.036907587 0.05890037 -0.08394894 0.009915192 0.13157658 0.07903042 -0.14905918 -0.002066315 -0.039999533 0.1461622 -0.030777706 -0.061114416 0.043282755 0.0013066533 0.070266746 0.0004233693 0.06274271 -0.093563475 0.07910197 0.0041336706 0.018166244 -0.061575066 0.07825976 0.0057124617 0.0031228133 -0.11770344 -0.08799322 0.02909338 0.10524597 -0.00279023 0.06559298 0.016195945 -0.012320046 0.054379445
Bluebeard -0.75498384 -0.08559099 0.05949241 0.111593254 0.054940768 0.038829044 0.008972092 0.052985862 -0.071487695 -0.02530379 0.04531397 0.136315 -0.023991823 0.016004642 -0.032753464 0.01764538 0.027624983 -0.0048503284 -0.02657645 0.075193755 -0.017560896 -0.023847673 -0.009224631 -0.019757604 0.0873559 -0.01194583 0.017178394 -0.03147164 -0.007826092 0.020416114 0.022589127 0.0046315948 -0.040518258 -0.0630673 0.03864224 -0.010280222 0.009493006 -0.037759956 0.0021424084 -0.022754142
Bluegrass -1.284251 -0.10234224 0.036220353 0.138666 0.0012891829 -0.05205 0.16463567 -0.005498318 -0.1367359 0.03378301 0.11022318 0.059868153 -0.046348147 0.031148858 0.00870791 0.0034108032 0.04626836 -0.0019099975 -0.05885523 0.047823627 0.06158712 -0.024979828 -0.06306048 -0.07710357 0.07697498 -0.035592463 0.047861196 -0.036950696 0.070296906 0.03843069 0.0057667852 -0.0019667537 0.015418948 0.021297354 0.05201741 0.042459097 0.05514655 -0.0025048738 -0.014740277 -0.043819953
Boche -0.2585225 0.23733409 -0.7338807 1.0472339 -0.052738167 0.034715436 -0.049778696 0.8211168 -0.13715644 -0.16904376 -0.2936995 0.60583425 0.5523859 0.064253666 -0.2165445 -0.246444 -0.029613473 -0.07766433 -0.48187977 0.15445411 0.22872995 -0.06663954 0.030708797 -0.19687366 0.41155028 -0.021979364 0.26975086 -0.47127873 0.70893764 0.04024687 0.34208843 -0.00014285097 0.1070762 -0.17670941 -0.2093302 -0.48533526 -0.110439725 -0.02536158 -0.074851155 -0.17010963
Bodhisattva -1.0075651 -0.09449727 0.10608796 0.06430608 -0.032154974 -0.00614204 -0.035417285 0.07854737 -0.11391413 0.059199747 0.09707394 0.11281823 0.0025959858 0.05322302 -0.03655227 0.0037638857 0.07869709 0.041119922 -0.0068242936 0.08224555 0.037906952 -0.02840573 -0.055207707 -0.026244137 0.032955326 -0.039192274 0.0014269509 -0.027509948 0.008186523 0.008552275 -0.021243244 0.023931943 -0.0043758354 -0.03290375 0.036108326 0.004372463 0.02818655 -0.0224245 -0.0037258868 0.0054462804
Bodoni -0.60574156 -0.29204628 -0.63696474 0.08699101 -0.22366601 0.3128465 -0.53580457 -0.13801119 -0.07416046 -0.30865505 0.1536035 0.3141021 0.4112985 0.08265051 0.24047457 0.046352755 0.122140855 0.00049503223 0.0041882284 -0.13477816 -0.1531794 0.19300623 -0.1960849 -0.08802945 -0.03472519 -0.0041662194 0.10557126 0.37807235 0.05967802 -0.13148339 -0.001870319 -0.20362669 -0.1049346 0.14854452 -0.15373024 -0.36703193 0.07752151 -0.049578495 0.07482322 -0.09084062
Boell -3.0494418 0.11735689 -0.45893064 1.118589 -0.1065677 0.15652779 0.054205943 -0.10977403 0.17762958 0.08876267 0.11545508 0.6152355 -0.79275185 -0.1265645 -0.093440324 0.30407423 -0.33232406 -0.91991043 -0.88241345 -0.68697447 0.9379134 -0.14101289 0.064373955 -0.521109 0.107085295 0.35547325 -0.09202138 0.85119814 -0.35252544 -0.41966924 -0.48801512 0.41730013 0.05732348 0.53287643 0.8202103 -0.62582654 0.28508407 0.28350636 0.59053755 -0.10727931
Boltonia -0.81097287 0.07719707 0.053520653 0.109802745 0.026284374 0.045500897 0.048556335 0.10894789 -0.025048494 0.08135889 0.07860544 0.08799295 -0.093836136 0.060773898 -0.02158151 -0.16619049 0.017714053 -0.0069793123 0.041672084 0.080774 0.057547756 0.0043626074 -0.019016415 0.045131773 0.032541886 -0.006719082 0.0649431 0.0089769075 -0.047455534 -0.07873174 -0.008236341 -0.032968774 0.017358914 -0.012171158 0.027920375 0.023212515 -0.07159947 -0.07507503 0.000100031284 0.02236403
Boltzmann -1.1838038 0.0657012 0.21819898 0.22374581 0.023967149 0.04711062 0.17760469 -0.09618967 -0.106430575 -0.031845752 0.09375644 0.0096989265 0.10249654 0.13675237 0.051332798 -0.015121228 0.047271222 0.0031940686 -0.041692954 0.043524157 0.010234755 -0.047748417 -0.018982576 -0.018134322 0.0741354 -0.054528035 -0.022517888 -0.028872197 0.041526888 -0.00619928 -0.044876426 -0.022104474 -0.011632027 -0.095343195 0.004500959 -0.01994315 -0.012215989 -0.017474713 -0.051371325 -0.053957153
Bombax -1.0454633 -0.06395677 0.09444464 0.19266373 0.0048197946 0.020716058 0.07275634 0.0014127038 -0.08013501 0.01753226 0.020871706 0.19225277 -0.12849252 0.081496894 -0.022846475 0.011975901 0.023221653 -0.057954773 0.02963413 0.014773642 0.050529882 -0.1776493 -0.011479006 -0.06828985 0.10271376 -0.018004365 -0.0011064645 -0.013757699 -0.11457831 0.034889292 -0.07624649 0.05439916 -0.12653404 -0.047801115 0.034705207 0.031377595 -0.0263895 0.023236092 -0.024849927 0.034932166
Bontemps -1.2230694 -0.0738107 0.15329883 0.23909922 -0.009092447 0.029739518 0.101716556 0.0755858 -0.078084886 0.17719732 0.04499436 0.08895836 -0.11456129 0.027152564 0.025779484 -0.12354833 0.04878237 0.06575501 0.06269297 0.09944077 0.052276533 0.027386906 -0.056192532 -0.021662295 0.12640956 0.033314597 0.052714534 -0.034598593 -0.022907512 -0.0070691723 -0.00559668 0.051758684 -0.012909195 0.032476176 -0.0055135773 -0.0135008395 -0.024521824 -0.031911273 0.0033868493 0.07006224
Borago -1.2862095 -0.09556521 0.1639987 0.09703043 -0.07094693 0.093923055 -0.08924165 -0.011517521 -0.09700657 0.12131523 0.008287324 0.09705683 -0.07584518 0.06429363 -0.0056134774 -0.08778844 0.043849904 0.07434849 0.03990027 -0.034213867 0.033210736 -0.06799496 -0.08121073 0.021505317 0.027617332 0.07213744 0.043616086 0.07638119 -0.01591025 0.007267375 -0.058233265 0.073340096 -0.00858388 -0.05599558 -0.00311717 -0.07385792 0.0012912645 -0.007387314 0.023409816 0.05178783
Boswellia -1.107834 -0.026359174 0.05747912 0.08084843 0.0053487536 0.1471697 0.004490593 0.08083382 -0.00834339 0.000102096434 0.042778045 -0.003580082 -0.12979753 0.053768802 -0.03188151 -0.051584736 0.038752142 0.033353854 0.044832814 0.06917377 -0.028844563 0.029081302 0.025316061 -0.06416961 0.045713443 0.04643082 -0.0010544455 -0.0727394 -0.018658452 -0.014875996 0.02358155 -0.019374859 -0.06285892 -0.0006837574 -0.023510804 -0.06873921 -0.09001172 -0.014661683 0.036381833 0.10383294
Bourgogne -1.0637985 -0.023818381 0.088969655 0.1608741 0.047903366 -0.0016885356 0.11878659 0.051670957 -0.04858346 0.053239446 0.080754235 0.030586228 0.09673688 0.040373284 -0.0197695 -0.046142314 0.047791928 5.3938875e-05 -0.04886719 0.062938824 -0.0021674852 -0.0635592 -0.025632191 -0.02733002 0.09123944 -0.07719329 0.015031985 0.018852416 0.012288499 -0.04809135 -0.011628561 -0.019461805 0.031829745 -0.021650294 0.036915515 0.03211111 0.008879599 -0.015203775 -0.012331385 -0.030565117
Bowditch -1.426633 -0.08409769 0.10754784 0.15520567 -0.16408709 0.08117984 -0.016695863 -0.004755365 -0.08394901 0.17530839 0.08284852 0.018192638 -0.11838695 0.023397584 -0.036365125 -0.03314983 0.026514784 0.032904517 0.121959694 0.015338666 0.09865704 0.10770165 -0.02181569 0.08297807 0.09796868 0.05251263 -0.005587276 -0.05233903 -0.065909594 -0.0151943 -0.009804608 -0.036437012 -0.11529831 -0.014359735 -0.029530544 -0.001505793 -0.014714556 -0.026685532 0.045349136 0.083887994
Boyne -0.9392006 -0.09166337 0.0059852847 0.084125 -0.062722236 0.071221 0.00041328798 0.11171413 -0.14292365 0.12054337 0.18477228 -0.008368459 -0.07289645 0.049197283 0.0087319305 -0.032599434 -0.0507705 0.10153484 0.077200145 0.0438626 0.0467485 0.11903866 -0.066623956 0.06376907 0.07108379 -0.018704437 0.021807862 -0.011717057 0.048118215 -0.055327024 0.04779809 -0.048287313 -0.028405437 0.024157925 0.0771647 -0.017362796 0.062089976 -0.018951591 0.003957615 0.013758165
Bradbury -1.4802954 -0.054664742 -0.15224884 0.13934422 -0.040083442 -0.038183726 0.049775794 -0.027263183 0.07314379 -0.065029345 -0.006602402 0.074620426 -0.11050384 0.0038698218 -0.06810857 0.15840389 0.117037736 0.043259777 -0.075409874 0.030451424 0.13062088 -0.1320046 -0.025561681 -0.09453777 0.050786253 0.08132558 -0.023788929 -0.0038380083 -0.04270379 0.047323965 -0.02158975 0.07885342 0.008543799 0.004049974 -0.047503166 0.0023972832 0.00025926108 0.001217994 -0.045559336 0.026173376
Braga -1.282756 -0.029664136 0.029611023 0.16130453 0.030347072 0.012274587 -0.051725592 0.1592467 -0.106563285 0.03135261 -0.02845507 0.048727192 -0.05148621 0.04392461 -0.07107691 -0.02521221 -0.00047478112 -0.015191668 -0.020550564 0.036623027 0.09054923 -0.014335591 -0.093184866 -0.03253654 0.009187735 -0.041037567 0.066986404 -0.02071884 -0.032452542 0.07090468 0.052475076 0.00028104673 0.010396413 0.03659862 0.040318802 -0.07787966 0.10226117 0.013997409 -0.020541904 -0.03542448
Braque -1.0858852 -0.06882726 -0.033844035 0.015256226 -0.016444795 -0.017849922 -0.0876514 0.10037318 -0.014162158 0.021558331 -0.04374879 0.06532945 -0.18787998 -0.028984986 -0.0113826385 0.09636617 0.06228529 -0.011273044 -0.09700493 0.022639237 0.017157733 0.005260051 -0.019500649 -0.05614418 0.03179127 0.051759064 0.018419234 -0.028077098 -0.0132215265 -0.018992763 -0.025368042 -0.059863478 -0.06914091 -0.06370143 0.0078703575 -0.011099409 0.09523326 -0.049326178 -0.019710306 0.09862933
Brasil 1.2225022 0.027960885 0.14193808 1.4751865 0.7363327 0.27318633 1.01833 -0.040116314 -0.6488697 0.9031165 0.44733438 0.4371606 -0.3646621 1.0565912 -0.25284714 -0.09684586 0.07932039 -0.6631415 -0.13997081 0.14183629 0.7017978 -1.1256101 0.11546145 -0.08304614 0.04236158 -0.774315 0.8254154 -0.30369425 0.1481987 -0.096159615 -1.2344048 0.38594222 -0.031912014 -0.14828931 -0.13129188 -0.07180871 -0.65306515 -0.29498538 0.071509436 0.46315032
Brassica -1.2086786 -0.060833905 0.03032965 0.15981336 0.037872855 0.003944184 0.041140623 0.0906558 -0.07579271 0.04522752 0.009860533 -0.033951536 -0.14225258 0.10734563 -0.06614851 -0.081254065 0.08067185 -0.014605518 0.030195398 0.077982634 0.06375501 -0.03925083 -0.024708686 -0.00023324696 0.11573207 0.045903955 0.08424359 -0.052696776 -0.06732974 -0.009578399 0.038173698 -0.020815779 -0.041462984 0.019547518 -0.013168718 -0.06556119 0.017183183 0.02659731 0.03510256 -0.07797431
Brazil 1.2255324 0.021224689 0.13424036 1.4810349 0.76046395 0.28104165 1.034576 -0.0558577 -0.64507365 0.87781894 0.45475414 0.44410172 -0.36327264 1.0589174 -0.2564696 -0.09978035 0.07534438 -0.6692329 -0.14910443 0.1392362 0.7054242 -1.1404163 0.1179587 -0.0957865 0.04260098 -0.78701705 0.81637913 -0.302986 0.15850589 -0.08387484 -1.2323701 0.40242165 -0.024554498 -0.15080012 -0.13876078 -0.066247754 -0.65713024 -0.29007536 0.07181286 0.4551001
Brazos -1.1288962 -0.07449628 0.08764293 0.15700878 -0.021755738 0.051098038 0.08956699 0.05060894 -0.19518965 0.115217656 0.023243027 -0.04118681 -0.13955033 -0.009011199 0.04157389 -0.08595629 0.0289578 -0.010956272 0.0059216116 0.10631168 -0.007303066 -0.023806619 -0.05679983 0.00722575 0.090582855 -0.0034566254 0.048216816 -0.019314973 -0.0027285554 -0.010960522 0.0015655357 0.033741828 -0.040664133 0.0009777863 0.0067778076 -0.037149526 -0.03437461 -0.027730407 0.0010843382 0.06332618
Bremen -1.2092788 -0.02984522 0.18359116 0.45754316 0.09080043 0.077917315 0.25810754 -0.115593694 -0.20932338 0.00257202 0.078208156 0.006229907 -0.01007006 0.07974283 -0.017295051 -0.110065274 0.0022099023 0.0609486 -0.010068692 0.056302514 0.099529006 -0.053233095 0.0051569687 -0.0010251184 0.141619 -0.0548399 0.076991536 -0.088039584 0.049629994 0.035542473 -0.009357914 0.08389688 0.049133457 0.03482254 -0.016088156 0.021476563 -0.008370985 0.06998021 -0.009455842 -0.09640214
Bremerhaven -1.9026865 -0.23966706 0.062740445 0.450882 -0.021122681 -0.00094704865 0.27465597 -0.23219943 -0.23331323 -0.09413699 0.14259258 -0.13887377 0.03265822 0.047332685 0.0009457897 0.10393484 -0.038917094 0.03733805 -0.06027565 -0.012449869 0.17782524 -0.18109098 0.010052017 -0.11957955 0.1275465 -0.08295076 -0.03299366 -0.04455648 0.028691888 0.13725889 0.020806324 0.1601035 0.05775819 0.0996632 -0.07999972 0.028768525 -0.024137793 0.14911056 0.014751671 -0.099334426
Brisbane -0.5487834 -0.044559147 0.049430154 0.010220316 0.03250443 -0.032593403 -0.015272204 0.18144287 -0.10113924 0.109856814 0.09195753 0.058741685 -0.054537404 0.06921084 0.064449474 0.0017087327 0.011998857 0.029704208 -0.03462158 0.09821007 0.0042122626 0.047212087 -0.08871524 0.021714993 0.0052516577 0.023713883 0.013469516 0.07046238 0.035944104 -0.08301021 -0.015760025 -0.06410311 0.00021634724 -0.06067549 0.0859735 0.00044555817 0.10251048 -0.055739243 -0.011334412 0.04303373
Bruckner -0.9253771 -0.037394173 -0.0019177126 0.18362625 0.027699322 0.10048063 -0.10976285 -0.09381776 -0.036320426 0.05742724 -0.013933356 0.16168563 -0.08285836 0.063470244 -0.024566444 -0.029474802 -0.0021191938 0.025040165 0.052003633 0.09345271 0.022069557 0.051184826 0.042111654 0.011186035 0.040924247 0.047868013 0.041872542 -0.07419079 -0.010660345 -0.08713941 -0.0018004074 -0.0022107875 -0.029377298 -0.0091609005 0.015607872 0.02309974 0.053892843 0.03135037 0.0425421 0.09160396
Brumaire -0.9928674 -0.004210895 0.077359624 0.064003795 0.079429775 0.054466162 0.09475662 0.07291432 -0.030751292 0.027800867 0.048736144 0.100199506 -0.01635139 0.042992033 0.05349025 -0.016440392 -0.10591635 -0.0050763576 -0.02611509 -0.023525186 0.06370141 -0.017901646 0.001490333 -0.035030253 -0.046531755 -0.07877796 0.023101054 0.11878681 0.03420117 -0.08235865 -0.07595812 -0.013216852 0.024620088 -0.017520556 0.00011048134 -0.05339145 -0.029043041 0.008363288 -0.018495435 0.1315045
Bruno -1.0812049 -0.099294126 0.07915894 0.12111208 -0.15081435 -0.041993503 0.11495412 0.13835333 -0.07256725 0.028200585 0.102211684 0.111788265 -0.06802095 0.06575535 -0.007826751 0.013279457 0.07273183 0.079438895 -0.026271757 0.020875465 0.031101272 -0.020964189 -0.09758371 -0.0035713436 0.07616597 -0.020698437 -0.0044053216 -0.0038250485 0.045220837 -0.0022888721 -0.006478975 0.047720272 0.033730377 -0.06030128 0.08844829 0.036166962 3.7930287e-05 -0.020467162 -0.024623383 0.023057861
Bultmann -1.442358 0.08983077 0.14581433 0.24742208 -0.032702517 0.0071648215 0.060168207 -0.12725042 -0.13784012 0.079074994 0.04950579 0.072436415 0.00641539 0.015921397 0.024038685 -0.09253283 0.06868507 -0.02599511 -0.008764632 0.0010531183 0.11428311 -0.097738735 0.021433983 -0.03789784 0.02270501 0.010471964 -0.009711804 -0.0073515703 -0.038287632 -0.019560255 -0.004120669 0.07460749 0.02514914 0.0074184285 -0.061084464 0.004888165 -0.034291442 -0.0054301773 0.010894239 0.08750822
Bunche -1.7969323 -0.14653677 -0.041447483 0.58531076 -0.011335825 -0.026469095 0.5212554 -0.17223816 -0.21551183 -0.039013676 0.17916632 -0.16802877 0.11259994 0.05181563 -0.0761565 0.057037856 0.002597334 0.0042744176 -0.09649106 0.049638703 0.17789255 -0.2208727 -0.031617373 -0.10653617 0.17756246 -0.13209283 -0.013043259 -0.053423036 0.023127958 0.14318378 -0.09706027 0.11576057 0.11001536 0.09858543 -0.018179026 0.15026326 -0.01660837 0.14389332 -0.0068914224 -0.21330248
Burbage -1.4984529 -0.15177284 -0.04800244 0.3947951 -0.032952122 0.0706122 0.28461885 -0.30842745 -0.23272648 -0.14103231 0.16161346 -0.1732158 0.104881965 0.025214387 -0.026774228 0.062896214 0.08237689 0.008528752 -0.081604786 0.042840037 0.06537599 -0.09674674 -0.06667467 -0.02469595 0.21413758 -0.08178859 -0.046756376 -0.10896073 0.0123642245 0.1495484 0.04524407 0.1198931 0.0022585639 0.015029308 -0.037773892 0.043932147 -0.01944616 0.10217522 0.028416574 -0.28720704
Burbank 0.40688136 0.18991867 -0.027756298 1.9909767 0.2953575 -0.25899437 0.8155613 0.3980247 -0.94723046 -0.08149817 0.10340247 -0.10133992 -1.144707 0.11976226 0.02431675 0.17804466 0.34522328 -0.57694 0.07570245 -0.25121167 0.89847034 -0.9634162 -0.66456985 -0.75967836 -0.53766966 0.22270188 0.13947079 0.26973307 -0.52960867 0.35515407 0.07247491 -0.028150918 -1.198737 -0.27382657 -0.2110507 -0.2742705 -0.09968701 -0.07971613 -0.50258255 0.13886555
Burger -0.60049397 -0.018732656 0.19911699 -0.1411657 -0.0009703835 -0.0008003517 -0.101522125 0.27951646 0.032127447 0.11427402 0.009040547 0.11356232 -0.024592591 0.1808671 0.040365174 -0.022154411 -0.060751915 0.054252215 0.028874177 0.077941634 -0.0033638617 0.028662968 -0.10702637 0.07820603 0.0007493972 -0.066570856 0.088715896 0.07608993 -0.011811789 -0.10887302 -0.020249315 -0.08843311 -0.087424405 -0.061913177 0.0780119 -0.06920169 0.03144999 -0.1864787 -0.072640665 0.06459331
Bushman -0.8037916 0.13373677 -0.75928724 1.2504537 -0.12645641 0.016424943 0.13473396 0.6256084 -0.24879473 -0.23781843 -0.23792051 0.48398554 0.60786533 0.03214101 -0.22908615 -0.19925348 -0.022482924 -0.09213591 -0.505253 0.13779421 0.30465624 -0.16860335 0.036485396 -0.25399742 0.49908748 -0.04478045 0.23805343 -0.5371098 0.70368314 0.17591447 0.35660344 0.10373437 0.13495126 -0.12350286 -0.2520956 -0.45025054 -0.12642178 0.058310226 -0.080847554 -0.29209366
Butler -0.94106615 0.13456957 0.13302182 0.015715178 0.03231761 0.12303816 -0.23075022 0.20551084 0.020850953 0.17569712 -0.024598677 0.12265609 -0.27238032 -0.0085725365 0.023753885 -0.08656727 0.081825055 0.0034956262 -0.01614536 0.06828112 0.011857943 0.04964767 0.07731907 -0.0066387993 -0.044381283 0.13212961 0.10613426 -0.03711385 -0.05275225 -0.08062109 -0.05907599 -0.14416619 -0.13854577 0.008711765 0.023445051 -0.116721645 -0.015367432 -0.119927235 0.0010910995 0.18925746
CDC 0.42809293 -0.43030328 0.24165428 0.63383967 -0.030526914 -0.3557202 -0.17884971 0.105611496 0.48537576 -0.04852704 0.05992389 -0.10615096 -0.18426935 -0.054414596 0.097312115 -0.061654653 -0.17558694 0.03563319 -0.19276461 -0.27304867 0.055037566 0.369943 -0.052846823 0.030331315 0.19366391 -0.17841376 -0.04759337 0.05749716 -0.21687803 -0.24716492 -0.32277504 0.0681678 -0.18506625 -0.14607665 0.10243863 -0.02291443 -0.052111443 0.06572788 0.39014536 -0.1723835
CD 1.6672364 -0.3854913 1.4161417 0.5292019 -0.47374895 -0.65333027 -0.7108946 -0.6993475 0.43082768 -0.014880695 -0.0053693936 0.32781667 -0.60143214 -0.46719518 -0.13982563 -0.53064567 0.675887 0.22614211 0.57546514 -0.48757058 0.10183276 0.11208218 -0.17055033 0.017575769 0.105938345 -0.021736093 0.0012272821 -0.21430856 0.00040462497 0.010686353 0.01128903 -0.018002074 0.39602092 -0.05368599 -0.12323803 0.11820913 -0.115659535 -0.23955946 -0.40047285 -0.42111158
CFO -1.2156698 0.043304145 0.029541206 0.035765715 -0.03441495 0.03401099 -0.07388459 0.02342869 -0.07821146 0.065440856 -0.019064944 0.035825875 -0.09776378 0.075797 0.018041354 0.084262446 0.009740052 0.061780356 0.031552922 0.022438692 0.037647195 0.009150706 -0.05874446 -0.035858214 0.01134069 0.014627161 0.0918246 -0.0021027958 0.024327068 -0.086418234 -0.030505903 -0.08673189 -0.08836333 -0.041924983 -0.019089105 -0.084494874 0.08829107 0.012758475 -0.041617174 0.05783697
CMBR -1.2701033 -0.11619679 0.06496162 0.12694563 0.035963114 0.14736333 -0.11024656 0.017380517 -0.052351367 0.02966789 0.014178192 0.021526251 -0.14070283 0.030322952 -0.046626184 -0.0030216703 0.012415328 0.06926754 0.011443849 0.02605563 0.0782429 -0.10372632 -0.10219067 -0.015972856 0.012367331 0.042868484 0.06280291 0.012279702 0.028863009 0.046634886 -0.055027228 0.019918067 -0.032710835 0.040253054 -0.026658852 -0.022538874 0.012025685 0.02768593 0.042122856 0.0641652
CST 1.0628635 -0.58692896 -0.15322264 1.044945 -0.2583789 0.3978351 0.46243784 0.11307277 -0.6279331 0.31982577 -0.38592288 -0.7661295 -0.5659529 -0.052422363 0.1019228 -0.027892807 0.4642352 0.19124086 -0.10186688 0.17726147 0.23108564 -0.15789801 -0.46877146 -0.014007913 0.18394627 0.015622369 -0.26784414 -0.44625023 0.33670324 -0.102287985 0.04299442 0.025747288 -0.26748314 -0.020266302 -0.4545095 0.50288606 -0.31201765 0.107828155 -0.15230578 -0.45156068
C 1.5777333 0.8999272 0.97696644 -0.43333325 0.12749244 0.26991415 -0.10620844 0.28444725 0.0724 0.48042056 -0.4463858 0.89326704 -0.44022617 0.19174826 0.59125334 0.23252878 0.00954628 0.16486755 -0.3153251 0.37964207 -0.036492072 0.025767587 0.23882335 0.13826706 0.15757501 -0.3823813 0.18141817 -0.37493622 -0.052768957 -0.30011538 -0.06915465 0.17573246 -0.24748486 0.30870518 -0.0045438893 -0.012281232 0.24184683 -0.42155963 -0.21131632 0.16611123
Ca 0.9370928 1.6392477 1.5824677 -0.1654547 0.01867142 0.08385132 -0.82720685 0.040450923 -0.5825083 -0.33841568 -0.22184974 1.6900517 -0.9245639 0.38709125 0.29309043 -0.22092147 -0.35458934 0.22215155 0.5011647 0.5373804 0.28584543 -0.26491135 0.25561008 -0.006047552 0.22561185 -0.40292558 -0.2365944 -0.3667585 0.18699567 0.25607067 0.093843214 -0.056707937 -0.29975682 0.7044484 -0.018050421 0.03309649 0.27359128 0.2922453 -0.64533764 -0.30425125
Cadra -1.3752943 -0.081480175 -0.0037369707 0.23941968 -0.15395406 -0.009574125 0.14872088 -0.02597185 -0.10582586 0.1567515 0.06291867 0.015698425 -0.09150994 0.102594085 -0.02616401 0.077161804 0.019999057 0.06346439 0.087652594 -0.043984387 0.14708194 0.044936813 -0.040593438 0.037028722 0.03173871 0.073050074 -0.0019025324 -0.015558202 0.006900917 -0.081876546 -0.079502635 -0.037150558 -0.050157003 -0.033311367 -0.021285241 -0.04280668 0.017964736 0.041866165 -0.030643014 -0.009911982
Caesalpinia -2.0679328 -0.18390864 0.034816913 0.36364684 -0.079860784 0.03928037 0.28798285 -0.22295281 -0.28701162 -0.012739747 0.117450595 -0.11790218 0.0037088247 0.05715787 -0.081428215 0.056229718 -0.017066054 0.038221773 -0.018409636 -0.059067853 0.20919281 -0.14713357 -0.02854179 -0.11346073 0.1043955 -0.03229245 -0.06178688 -0.07234851 0.05974797 0.2017772 -0.012737963 0.17351755 0.06970066 0.08601969 -0.10980215 -0.023379294 0.003813342 0.14323056 -0.043922335 -0.1794462
Calamintha -1.0172982 -0.06315918 -0.0014658679 0.070202775 -0.06732066 -0.08557538 0.06649578 0.054322213 -0.038643856 0.18539213 0.10135729 0.11873927 -0.03015256 0.12449349 0.0038734567 -0.048570126 -0.017129153 0.039832797 0.16585037 0.016763087 0.03628485 0.12794238 -0.07908847 0.12330168 0.06938288 0.050445806 0.018286716 0.0070894454 -0.029003758 -0.19913526 -0.0030114048 -0.14422704 -0.04926357 -0.028694954 0.045500644 0.03204268 0.021069331 -0.038086582 -0.015782373 0.04943588
Caledonia -1.3898355 -0.12858556 -0.17211416 0.12417125 0.008178557 0.10622296 -0.038220778 0.0029165882 -0.024051324 0.067687966 0.02687507 -0.043792624 -0.18429174 -0.01793888 -0.09304663 0.06610811 0.056810867 0.081531696 -0.04840717 -0.0009901181 0.0699763 -0.041585077 -0.09407923 -0.046806306 0.073674425 0.07572184 -0.061942082 -0.041651532 0.02150735 0.1325955 0.009146206 0.010524668 0.024239957 0.033480406 -0.045364644 0.006578918 0.059507914 0.04520961 -0.012539761 0.012686525
Cali -1.2714158 -0.05918416 0.11531887 0.3471583 0.04125342 -0.048843138 0.13229938 -0.10050223 -0.19330694 -0.12215749 0.105039656 0.061259102 -0.08552736 0.035550427 -0.034736402 0.03534256 0.040076606 -0.029488252 0.0234011 0.0009517899 0.028707668 -0.16376135 0.020743603 -0.13616033 0.08211307 -0.010659005 0.015265491 -0.1114997 0.08012271 0.108530104 0.055948544 0.032853868 -0.04994042 -0.0177617 0.048253514 -0.0073425835 0.0036021778 0.017160151 0.051946994 -0.08443585
Caligula -1.1025114 0.006465177 0.048480634 0.2790758 0.21945398 -0.0112091955 0.18009442 0.019088453 -0.039194956 -0.1557058 -0.048890576 0.1684772 -0.05970208 0.05337851 -0.07028314 0.04867747 0.10183818 -0.0771229 -0.14661135 0.061969012 0.059661843 -0.25930387 0.022649871 -0.18272275 0.122469455 -0.06136246 0.10234352 0.0010257832 0.013604415 0.15308245 -0.049754042 0.1204761 0.029129682 -0.052984066 0.06379201 0.03727423 0.06160316 -0.03133117 -0.012658822 -0.14191212
Calliphoridae -0.88556343 -0.06478055 0.051621526 0.22837794 0.14403905 0.026952662 0.043102384 0.081399634 -0.12016932 -0.12766325 0.031735186 0.15077578 -0.20132554 0.08525107 -0.034132317 -0.07622372 0.05750384 -0.0075608892 -0.00536035 -0.0022851545 0.016159246 -0.042090803 0.020350125 -0.053798933 0.007213829 0.017024145 0.04300663 -0.019111555 0.035126287 0.032266084 0.009896558 0.014662074 -0.065765075 -0.08471697 0.04164154 -0.0018115345 -0.030680753 -0.025230596 0.0918793 -0.06386252
Caloosahatchee -1.2531251 -0.10299914 0.15360808 0.0029070084 -0.2676135 -0.15302128 -0.17929128 0.23912203 -0.05219585 0.14672728 0.10527576 0.09064425 -0.00842176 -0.004215501 -0.05795599 0.18277304 -0.025643857 0.12674691 0.017616099 0.013818089 0.023195783 -0.02230137 -0.040356867 -0.050450973 0.033334956 -0.026770342 0.07642049 0.07211574 -0.08236128 -0.011178385 0.056923304 -0.07754852 -0.10427302 0.044604927 0.12315172 0.041459914 0.09692069 -0.088565946 0.014617743 0.004626151
Cambria -0.89600915 -0.09052346 0.1641266 0.3739558 0.2842139 0.21207835 0.3732392 -0.20003131 -0.32010347 0.1684002 0.113546975 0.26676717 -0.24103688 0.31960234 -0.16272898 0.118818544 0.0883886 0.12633052 -0.19858822 0.11728698 0.2538907 -0.16633987 -0.046153903 0.08880152 0.33530492 -0.31393597 0.32605883 0.102893606 0.058472425 0.03959938 -0.010080973 0.0018850112 0.10515652 0.11112068 -0.25037798 -0.23735824 -0.11223553 0.045380678 -0.060995378 0.0092052985
Cambrian 0.07692625 -0.18226425 0.010589517 1.1591723 0.6016557 0.55688775 0.7339466 0.08374804 -0.39870676 0.47201684 0.47279504 0.6849662 -0.28284115 0.47475055 -0.35147843 0.24636893 0.055232424 0.20277591 -0.24885266 0.12644842 0.72909063 -0.26549712 -0.2436728 0.23105596 0.63145256 -0.58829594 0.768715 0.3290523 0.09972948 0.19746757 -0.0716342 -0.23939791 0.34377867 0.3762242 -0.61355644 -0.66976297 -0.24841292 0.16815238 -0.2849592 0.3765389
Cambridge -1.2252707 -0.14358196 -0.061887152 0.04217663 -0.02598542 -0.028581953 -0.120690204 0.15849514 -0.0028760107 0.1416824 -0.08849768 0.045634195 -0.19027741 -0.018459167 -0.020076364 0.062809534 0.07247193 0.058023475 0.0010533591 0.052938156 0.020768013 0.09288181 -0.13076116 -0.013513496 0.028495543 0.09518711 0.013593303 0.06011524 -0.013923502 0.028607707 0.058868665 0.0466634 -0.023473304 -0.05284743 0.036104318 -0.0869695 0.08743235 -0.018103197 -0.017344905 0.091933444
Camlan -1.2044185 -0.025521995 0.17593302 0.20485474 -0.1187173 0.0018906911 0.107236385 0.101049095 -0.19193988 0.14368878 0.14935395 -0.02927128 -0.101688564 -0.036032453 -0.022636289 0.0011177389 -0.0149932 -0.006450279 0.0025165088 0.025831299 0.076929584 -0.09619167 0.03929511 -0.059194103 0.11526631 -0.06642717 0.06299457 -0.05073768 -0.01829228 0.027571984 -0.06415488 0.0044055698 -0.07397206 0.095074855 0.113366604 -0.044584285 -0.034895036 0.0020970171 -0.022631487 -0.0012495057
Campeche -1.2416883 -0.07502446 0.028052233 0.04257603 -0.05648 -0.06946391 0.094095364 0.09066236 -0.060217563 0.067451395 0.14334847 0.10315035 -0.1632317 -0.057850145 -0.06742383 0.033261087 -0.008783731 0.03827987 -0.013934261 -0.050713267 0.07346712 -0.029885778 -0.021773916 -0.087626755 -0.042847566 0.0024155367 -0.036335487 0.029103005 0.0144540835 -0.0109775625 0.02817856 0.036830544 0.00362837 0.0031972136 0.014637078 0.07201371 0.0077166166 0.054520577 -0.02268014 0.0480884
Canaan -1.197976 -0.019986844 -0.10050144 0.21886978 0.44563848 0.093258984 0.046097558 -0.029711539 0.056307103 0.008219497 0.1007196 0.046062436 -0.21387026 0.10318063 0.0038376804 -0.14454748 0.095612794 0.033913687 -0.023354487 -0.023619369 0.10212047 -0.018210951 -0.115873925 -0.06582926 0.033985738 -0.015333287 -0.093865715 0.04204432 -0.008762406 0.04606704 0.057121422 0.0935671 -0.011930268 -0.032318663 -0.20113578 -0.038672507 -0.012962903 -0.040495783 -0.011648636 0.0926931
Canaanite -1.0496145 0.020603811 0.05966214 0.14408101 0.06654766 0.02877774 0.1572247 0.044250377 0.005501166 -0.0027779918 0.08658582 0.056381013 -0.15096828 0.036524314 0.008059288 0.014749895 -0.029043749 0.020113267 -0.023700109 0.034188885 0.042867687 -0.049245425 -0.027795648 0.013620376 0.013071678 -0.015572206 0.017511345 -0.0105887195 -0.018009331 -0.031722426 -0.02382482 -0.004402636 -0.046105564 -0.0049320534 0.021628052 0.009644146 -0.07105694 -0.026713079 -0.08487483 0.031047791
Canaries -1.1789589 -0.23020847 0.17555895 -0.088229805 -0.20757425 0.025123844 -0.09649084 0.20577608 -0.18685909 0.16767634 0.15038936 0.08559111 0.043237418 -0.00020763603 -0.078505345 -0.030075574 0.0030873185 0.016195882 0.0761443 0.034420267 0.06612389 0.012795117 -0.03236725 0.004135851 0.008660892 -0.08034192 0.054701176 0.033031847 -0.038756233 -0.0038103336 -0.005902479 0.010883078 -0.069916844 0.07383693 0.016142169 0.019313162 -0.028952703 0.023506854 0.12622657 0.03775596
Cancer -0.1866714 -0.13548486 -0.21707131 0.5149401 0.20669383 -0.011874272 -0.5229218 0.32029563 0.18860823 -0.0928956 0.0009201039 0.26502812 0.45912236 -0.06537855 0.22366953 -0.18552683 -0.055813953 0.104824804 -0.11387273 -0.11844512 -0.06843194 0.0005859618 -0.1474761 -0.01885347 0.02649457 0.13027504 -0.0049810377 0.19821043 0.07384239 -0.0013501955 -0.137654 0.04178524 -0.011566109 0.03246311 -0.020774398 -0.03686933 -0.1533637 -0.06455375 0.0040764865 0.008616904
Canetti -1.2004199 -0.08755395 0.17159201 0.011246208 0.036185224 0.07293021 -0.055116937 0.06658489 -0.015136187 0.01313591 0.0065239198 0.0025930777 0.007244893 0.10093014 -0.0059151137 0.056867283 0.031104835 0.0755432 -0.058854505 0.07834307 -0.0036976375 -0.08331216 -0.059568472 0.00376718 0.018031087 -0.070553824 0.07876589 0.06480969 0.0065929 -0.030356793 -0.0037753417 -0.008417042 -0.022477744 -0.03432159 -0.039800547 -0.058086034 0.020134524 0.009085852 -0.060884308 0.019951135
Capek -1.284032 -0.06264608 0.072874874 0.116662964 -0.098282374 0.108213656 -0.013539615 0.0003358965 -0.09665088 0.13580541 0.032699883 0.10032628 -0.0060282107 0.04804015 -0.02675341 0.0018440866 0.05751518 0.023060752 -0.049227484 0.022750927 0.032567024 -0.01800827 -0.058189705 0.013351546 0.051271137 0.0012589698 0.017719585 0.006458439 0.019216472 -0.01009254 -0.10321493 0.051862177 0.002660199 -0.090333626 0.057958916 -0.008637784 0.013684571 -0.029740695 -0.03076282 0.015465851
Capone -1.1419168 -0.120002985 -0.0009707995 0.15685087 0.071090125 0.09657119 -0.009915262 -0.0046960344 -0.081854545 0.049935438 0.14270179 0.04203654 -0.13140273 0.059326652 -0.07250972 0.016531887 0.029733116 -0.016053135 0.12644185 0.018008046 0.019882515 0.048708614 0.054331712 -0.075395234 0.09771602 0.045247532 -0.08131154 -0.051338524 -0.01958006 0.04429142 0.017566422 -0.088915214 -0.14526093 0.018983452 -0.007141936 -0.05908472 0.006869977 0.0020581882 0.10400587 0.04393615
Capra -0.8212099 -0.06276261 -0.36467528 0.92177796 0.6600775 1.276334 0.022326622 0.54472077 -0.60358506 0.82184285 -0.11327745 0.80523026 -0.40266827 0.8093036 -0.24432151 -0.039637357 0.068626404 -0.39467165 -0.6113283 0.07701909 0.9128987 -1.1333754 -0.41984567 -0.5178848 0.53226036 0.5158705 -0.5291895 0.30540627 0.38402742 -0.0451041 0.10605713 0.011040053 -0.65904355 -0.5243852 -0.047055073 -0.6298108 0.62937164 0.8823462 1.0670785 0.12059373
Capricornus -1.3616033 -0.03689122 0.1139547 0.15251811 -0.1423634 0.12717596 0.061028335 0.024976728 -0.07712333 0.07386949 0.06519759 0.03902292 -0.08661315 0.051072802 0.008428676 -0.09376011 0.03753363 0.008128674 0.020275418 0.038979847 0.06754106 -0.017051775 -0.015828956 0.010223993 0.0479422 0.06465435 0.019782875 -0.033170894 -0.027094828 0.0022706261 -0.08464661 0.022770535 -0.009089749 0.0020009219 0.018488757 -0.019381402 -0.037439507 -0.06940628 0.013094184 -0.038472857
Captain_Bob -1.325571 -0.07359167 0.16863243 0.021353073 -0.057304267 0.11667038 -0.13182203 0.087254636 -0.08905057 0.06173341 0.10872119 0.030581279 -0.06007968 0.000110482666 -0.016547997 0.052651472 0.025581528 0.09658304 -0.023264125 0.034846038 0.013957678 0.0031966162 -0.04138476 -0.045681678 -0.038234442 0.008374906 0.014177035 0.0069418787 0.020099666 0.03514134 0.0027444414 0.021210492 -0.04526527 0.023735654 -0.024238683 -0.0633678 -0.02435799 -0.03030987 0.046108756 0.06442897
Carafate -0.83279 -0.27793917 1.0911969 -0.21860492 1.1352293 0.06888732 -0.46930653 0.20697804 -0.23945437 -0.9444273 -0.17944591 -1.027223 -0.579588 -0.05941896 0.017703243 0.373064 -0.32134527 -0.77489424 0.13825661 0.553745 -0.6516512 -0.089097515 0.6032316 0.078978896 0.26565266 -0.085142165 0.017338054 -0.21773005 -0.19249031 -0.1810552 -0.18819116 -0.07286657 0.5811979 -0.32697698 -0.39780524 -0.11890707 -0.010855092 0.1876916 -0.048487592 0.14532655
Carangidae -0.82774866 -0.0427643 0.09544054 0.16121447 -0.019678349 0.011114213 0.11501564 0.06565595 -0.08561112 0.08059887 0.11925307 0.08411667 -0.045473576 0.071281165 0.013071485 -0.06747043 0.024261061 0.0033191084 0.08111885 0.008904468 0.039977357 -0.006647612 -0.056984756 0.060772948 0.09923866 0.02637836 -0.025939684 0.018350989 -0.025732446 -0.032105893 -0.05356739 -0.015699904 -0.070050366 -0.09120361 0.035921827 -0.032166872 -0.05642037 -0.0344054 -0.0058187186 -0.008624007
Carcharias -1.3158362 0.060469802 0.07477782 0.19391412 -0.019137993 0.009381352 0.11087912 0.14353901 -0.07098099 0.06336184 0.04738762 -0.048828516 -0.09809003 0.031342637 0.03194352 0.06075695 0.025137827 -0.03576033 0.014863917 -0.0048279697 0.05565162 -0.012937012 0.01316765 -0.078351885 0.06389116 -0.019388769 -0.010205104 0.033526756 -0.039620962 0.027933976 -0.07030766 -0.038845986 -0.087891795 -0.030370079 0.06507375 -0.06637578 -0.028207002 0.010336296 -0.045327615 0.08475267
Cardura -2.072703 -0.18462546 1.0854175 -0.13756624 1.0719095 -0.18841963 -0.21288966 0.37072608 -0.21262236 -0.94259846 0.19885708 -1.1811475 -0.3254186 -0.34929377 0.09179757 0.14426407 -0.11826955 -0.75821555 0.051162142 0.9308408 -0.7704046 -0.23298329 0.5495844 -0.06849702 0.3840413 0.04818146 0.08620116 -0.038576305 -0.18645355 -0.44666454 -0.15269327 0.12506452 0.4437474 -0.05745753 -0.43241045 -0.17238797 -0.016453225 0.27112573 -0.18961687 0.18165998
Carlsbad -1.3393985 0.072313234 0.13637751 0.21198368 0.07265442 -0.00077748706 0.15754025 0.0017894689 -0.10937476 0.02494682 0.07259289 0.03428696 -0.07317075 0.04853225 -0.010412368 -0.07788145 0.0029392045 0.05663065 -0.03589262 0.03641645 0.056272533 -0.04303615 -0.025737325 -0.10042679 0.011126942 -0.04664548 0.009309121 -0.0023163825 -0.006160931 -0.06097438 0.006044666 0.08838696 -0.0022506756 -0.023741132 -0.019748008 0.045559287 -0.01978108 -0.0072059096 -0.035212405 0.0026382396
Carnot -1.1902411 -0.066331185 0.021948608 0.11659764 -0.12526485 -0.0033623804 0.0342169 -0.011475268 -0.15387431 0.13902558 0.08705514 0.05686878 -0.1693131 -0.03111817 0.01985792 -0.08581723 0.07840726 -0.0565183 0.05830484 0.00031767198 0.07132356 -0.06587159 0.010246957 0.0024485579 0.047233373 0.13726294 -0.06927109 -0.0471636 -0.00022444918 -0.0074829315 -0.012668764 -0.0024663513 -0.06626553 0.026992023 -0.012273096 -0.03626378 -0.10067108 -0.053354546 0.057810027 0.125176
Carpinus -0.9978842 -0.08747049 0.17410707 0.13636266 -0.0038039044 0.07885859 0.06866472 -0.061077323 -0.11881809 0.077267215 0.09663307 0.12938088 0.013336499 0.04574701 0.0037437542 -0.070557624 -0.027316362 0.016942697 0.08570645 0.037485905 0.0185116 0.0016522672 0.021804446 0.032899696 0.09489045 -0.037540685 -0.020161154 -0.06289838 -0.041278366 -0.08532797 0.020338196 0.0065890276 -0.10344363 -0.022361057 0.004032654 -0.015405496 -0.0054388777 -0.05150663 -0.04252877 0.0026675258
Carpodacus -1.1141288 -0.072052 -0.04105609 0.10967342 -0.04878144 0.063570134 0.018568816 0.12863286 -0.054710336 0.046959147 0.082794234 0.08982113 0.030929705 0.039100446 -0.060986683 0.07994985 -0.004798452 0.041495584 -0.038769845 0.02324857 0.08395243 -0.093043655 -0.11255584 0.015213532 0.072444454 -0.03320866 0.013103651 0.055311117 -0.011238374 0.07618303 -0.06583313 -0.02128807 0.028616618 -0.006631718 0.07044183 0.042630214 -0.002200462 -0.0052287574 -0.003802649 -0.03131854
Carter -1.0744207 0.010311112 0.05087614 0.16484827 -0.0063390485 0.050126817 0.015649112 0.019713994 -0.08966993 0.05335197 0.046121087 0.030451477 -0.017229255 0.057004754 -0.026333453 0.0010616428 -0.0064572534 -0.01632063 0.09509822 0.028891692 0.015562936 0.0074273665 0.004875364 0.035727583 0.11098564 0.031225227 0.01681357 -0.035613712 0.019489566 0.03231213 -0.004118889 -0.07888143 -0.094814464 -0.032717735 0.034971755 -0.054557364 0.0047875494 -0.034021586 -0.029916352 0.0157307
Cartesian -1.2500713 -0.033837553 -0.35438755 0.16502322 -0.15603535 0.130418 -0.493336 0.17010292 0.32771027 0.12646341 -0.010617558 0.2584902 0.471753 -0.12935117 0.23364492 -0.24310817 -0.2970998 0.3972592 -0.2229543 0.043420147 -0.003936573 0.22677103 -0.21588974 0.09568512 0.18251969 0.22806494 0.17888975 -0.047050107 0.05966229 -0.13296734 -0.23754103 0.22567137 0.17988524 0.023314232 -0.428972 -0.34274083 -0.16815396 -0.13951346 0.15885179 0.23135236
Cartwright 0.3196333 -0.49677885 -0.63824224 1.7121586 0.28152058 -0.034777172 -0.22418992 0.48957777 -0.75496334 0.31030455 0.56187004 0.31426346 -1.1052115 0.29604515 0.14014532 0.26654878 -0.19907886 -0.40201095 -0.42752025 -0.03693077 0.79625064 -1.0439937 -0.066682264 -0.6316385 -0.5326687 -0.090406686 -0.27108574 -0.17918223 -0.15719195 0.04493933 -0.0780442 -0.12794665 -0.56387603 -0.41609064 0.27962095 -0.5773646 0.46255836 0.29112005 -0.26742336 -0.056123167
Caruso -1.4292995 -0.11361159 -0.030490093 0.071331315 -0.073761426 -0.17530183 0.14133224 0.051305056 -0.021765199 0.047101215 0.10938709 0.14885195 0.0007497008 0.08632815 -0.034958635 -0.024796426 0.0012179059 0.03301309 -0.022590507 -0.0066381493 0.10677311 -0.019362677 0.015484868 -0.018978165 0.00932289 -0.07242941 0.049584072 0.055707514 -0.03391952 -0.06635511 -0.001219973 0.05975651 -0.0046025007 0.008665829 -0.016199771 0.021055926 -0.0100641 -0.0082709715 -0.013112462 -0.032249678
Carya -1.0740473 -0.16833101 0.01700793 0.061047696 -0.03648548 0.015065758 -0.1176905 0.07048913 -0.15289521 0.04881683 0.010665098 0.048534486 0.05299488 0.03721293 0.042410266 0.13811296 0.064931236 0.06796711 -0.012532402 0.04321784 -0.043079633 -0.11010522 -0.06310053 -0.09274774 0.063069634 -0.05442496 0.033154067 0.0048830155 -0.019996582 0.05483072 0.0433087 0.024602935 -0.05306054 0.010424753 0.07929297 -0.0105813835 0.0018796064 0.031299155 0.04246499 -0.006171634
Caryophyllaceae -3.476245 0.37306765 0.6786848 0.822171 1.2160282 0.53307444 0.98139167 -0.13643679 0.45983523 1.68703 0.44985586 -0.41393188 0.18987216 0.46071807 -0.08893002 -1.0612795 -0.7628827 -0.452491 1.5950489 -0.7473276 1.6849291 -0.17644839 -0.23662826 0.5013362 0.7871524 0.6936574 -0.005846293 -0.7232568 -1.3073721 -0.24308401 -0.18573712 -0.12092933 0.91764116 0.7111076 -0.39168158 0.071557365 0.8221154 -0.66701585 0.759993 -1.038724
Casablanca -1.1551349 -0.0017079263 -0.017877515 0.24219231 0.06504003 -0.04497148 0.15538831 -0.051511884 -0.05538124 0.04122906 -0.023944145 0.03409896 0.005269796 0.0814524 -0.028667359 -0.008419233 0.038037434 -0.0076984414 -0.04387393 0.07735057 0.085193396 -0.08338789 -0.053459037 -0.031976208 0.032963417 -0.017765826 0.0647375 -0.010426581 0.034363735 -0.017961597 -0.051764287 0.03508562 0.06742972 -0.0492411 0.025184967 0.0038886764 0.09877427 0.023981398 -0.05377603 -0.088742144
Cassiope -1.0424433 -0.09638182 0.009253964 0.089212626 0.013882638 0.046312083 0.029621985 -0.021350482 -0.12370384 0.12576209 0.091731645 0.033251453 -0.09492094 0.08063082 -0.039389513 -0.0019520812 -0.015362654 0.04815492 0.10375029 -0.026656609 -0.017665045 -0.012654268 -0.03133787 0.04843208 0.041915633 0.005626103 0.04173646 0.026893353 -0.0029387476 -0.16564174 -0.031037128 -0.029065896 -0.13553245 -0.06226422 0.00083377096 -0.01011565 -0.03149582 0.04236399 0.014053202 0.008828179
Castile -0.70680225 0.34499678 0.020014398 1.2993876 0.5162121 0.11951898 0.94379437 0.09233511 0.010609144 0.17714584 0.5810185 1.2492542 -1.0868516 0.9943533 0.001526842 0.022946065 -0.08664592 0.2123902 -0.71801776 0.06064981 0.3619156 -0.71430874 0.21904743 -0.5245442 0.34270182 -0.018731233 0.95223165 0.5025072 -0.2559994 -0.6197454 -0.63512814 -0.30970553 0.37132904 -0.066147715 -0.6161136 -0.4766789 0.30287385 0.531882 -0.18831843 0.26058856
Castilla -0.70019525 0.3456355 0.017185455 1.2994096 0.5169836 0.12110772 0.94386834 0.0876308 0.011273554 0.1753132 0.5803995 1.2507744 -1.0862052 0.9963239 0.0019504755 0.022597961 -0.086840644 0.21127123 -0.716779 0.061899055 0.36120158 -0.7149692 0.21801952 -0.52333766 0.34174836 -0.018564649 0.95076734 0.5018302 -0.25585237 -0.6213639 -0.6349133 -0.30855116 0.3711627 -0.06869012 -0.6172254 -0.47670045 0.30161273 0.5323504 -0.18862586 0.2610001
Castries -1.2181411 -0.14888605 -0.0917418 0.12568596 0.13046876 0.038102873 0.03264062 0.01817325 -0.03678961 0.033942398 0.02825571 -0.030434636 -0.070831515 0.03796345 0.008391535 0.03534775 0.011591739 0.00041482842 -0.056209896 0.039607707 0.03776352 -0.02651497 -0.07172721 -0.05883749 5.606618e-05 0.00538421 -0.029405687 0.06766696 0.043611012 0.032114998 -0.03728792 -0.020297367 0.019091925 -0.037433825 0.0113503635 0.022450726 0.04373201 -0.029018719 0.015764669 0.013260522
Castro -0.86245835 0.025497103 -0.001063209 0.13319597 0.06209864 0.0038004667 0.13084894 -0.059820376 -0.08208162 -0.0610144 0.072407335 0.0954952 0.05371673 0.11016268 -0.050915364 -0.027421193 0.08737392 -0.025774486 -0.057659958 0.030440226 0.025019417 -0.055016518 -0.12497448 0.04458113 0.013924038 -0.021846743 -0.0019323209 -0.052942805 0.10884786 -0.10661965 0.0016220942 0.02767855 0.061392155 -0.102547996 0.0015386406 0.03588078 0.010297283 0.07196665 0.0017632861 -0.08595563
Casuarius -1.2072116 0.009409256 -0.03563437 0.31988388 0.20304607 0.0020082921 0.14392628 0.040338185 -0.11952366 -0.030470006 0.018274019 -0.018448858 -0.08345885 0.014591942 -0.040082086 0.019995274 -0.007571445 -0.012659267 -0.041097034 -0.02401978 0.10459691 -0.011734755 0.008968636 -0.073342375 0.026607353 -0.050145786 0.0493238 -0.039860155 0.0654975 0.02652225 -0.019923855 -0.05753834 -0.020882022 -0.010736997 0.0014114474 0.018741544 0.077171765 0.029882599 8.436295e-05 -0.08160808
Catapres -1.7375911 -0.15779547 1.1304564 -0.14175843 1.113611 -0.11111599 -0.30713698 0.3532579 -0.2899632 -0.9539464 0.13722846 -1.2259145 -0.42406577 -0.31764847 0.10454492 0.19712816 -0.16393535 -0.7906171 0.102386445 0.8956599 -0.77497894 -0.23932086 0.6078257 -0.027885396 0.3688136 0.05231239 0.06087654 -0.06353673 -0.20204203 -0.3936527 -0.16763456 0.08120191 0.49371582 -0.104711495 -0.4562944 -0.1515382 0.024044842 0.28023228 -0.15762442 0.16751653
Catha -1.2574921 -0.015232664 0.030896802 0.15232886 -0.037671316 0.059669506 0.070706695 0.03033645 -0.07777442 0.093021706 -0.054606866 -0.015819967 -0.18212397 -0.032936934 0.063473575 0.016732013 0.03824746 -0.0142363785 -0.010857885 0.06731451 0.020918569 -0.10285162 -0.04659847 -0.052963745 0.043134183 -0.00079061027 0.056393597 -0.029221505 -0.045102127 0.0018861634 0.014681034 0.04779539 -0.026197718 -0.010564297 -0.012527001 -0.07457582 0.030227818 -0.02171226 -0.11968817 0.113880694
Catharanthus -1.1782976 -0.09073497 -0.12933598 0.20332082 -0.02504983 -0.088938385 0.13047583 -0.05194752 -0.09951228 0.11501603 0.18385623 0.06783964 -0.10862313 -0.0030715987 -0.031774893 -0.07767928 -0.026660975 -0.0052913693 0.07824431 -0.0041322913 0.09272157 0.025920266 0.0024934309 -0.048514538 0.03258801 0.02741551 -0.05689242 0.020410111 -0.009669479 -0.07418188 0.027504027 -0.030994745 -0.024648055 0.020338757 -0.0058287946 0.047262426 0.00060598267 0.0058898767 0.038575534 0.021791559
Cather -1.366461 -0.022757722 0.013798516 0.2605608 0.11038183 0.074135184 -0.088985234 0.012701567 -0.044667955 0.06725857 -0.016874634 0.035944365 -0.09205872 0.010552101 -0.07312015 0.04794755 0.042439155 0.0026824647 -0.013596491 -0.041653853 0.04583953 -0.11248263 0.013666802 -0.091299236 0.032871123 0.008634772 0.020282313 0.00607055 0.007516449 0.04852316 -0.038095187 0.011120826 -0.03154322 0.049866796 -0.05091655 -0.054441247 0.066431515 0.057170585 -0.014161084 0.068142824
Catholic 1.5471411 -1.8060427 -0.7473279 0.84721017 0.78167737 0.6893876 0.9051691 0.46832132 0.98996556 1.0774761 0.8736181 0.98083556 -1.3312426 0.68789035 -0.3086695 0.28854597 -1.4566728 0.5317327 -0.51382464 0.6001543 0.45329976 0.17161764 -0.17080335 0.60118777 0.4920476 -0.47041795 0.76522577 0.29383114 -0.65328735 -1.0920478 -0.05256152 0.3161791 0.09552387 0.7151245 -0.6898247 0.031603634 -0.3515491 0.047605086 0.14692621 -0.30464813
Catholicism 1.5491604 -1.8073275 -0.74838054 0.8459731 0.77941155 0.68732965 0.90705436 0.46664506 0.9899608 1.0790391 0.8720095 0.9820543 -1.3327845 0.68892413 -0.30717435 0.2886406 -1.4574146 0.5318315 -0.51263916 0.6015964 0.4531547 0.1736401 -0.17140742 0.60220575 0.49220645 -0.4696313 0.7669058 0.29363585 -0.65472716 -1.0939285 -0.051997215 0.31645316 0.09537755 0.7130519 -0.68861496 0.031888746 -0.35131574 0.046589542 0.14544705 -0.30410787
Catholicos -1.0345688 -0.045392543 0.03471607 0.1797373 0.07768801 0.096884035 0.09001379 -0.032934897 -0.11875538 -0.032914508 0.045551542 0.086272284 -0.06642237 0.06216951 -0.01142691 -0.03301742 0.005245697 0.018661588 -0.08408788 0.006576745 0.07303633 0.009370582 -0.013951534 -0.016395675 -0.027655559 -0.028973859 0.006723881 -0.017074889 0.049510837 0.037566062 -0.009435613 -0.015610502 0.029715106 -0.053824354 0.03429132 0.057168767 0.01088501 0.019855699 0.07306999 0.0121371485
Catskills -0.77609164 0.30141196 -1.0014807 0.9531061 -0.10458827 0.039298143 1.5121832 0.31071788 -0.5584099 -0.5427503 -0.595391 0.24951248 -0.09178752 -0.11883551 -0.5565763 -0.01465453 0.33938384 0.18082032 -0.3649922 0.2516704 -0.5040924 -1.0178497 0.26459944 -0.37801898 0.38505453 0.09044721 0.67012596 0.6060305 0.66897404 -0.3289935 -0.13308825 -0.09446518 -0.43146467 0.5224068 -0.30962428 0.15803121 0.47861665 0.16140258 -0.2754958 -0.27714065
Cattell -1.5153275 -0.03879107 0.03857402 0.14187676 -0.032155186 0.05435099 0.08407105 0.07710265 -0.13103455 0.19792467 0.03268963 0.03505728 -0.171305 0.018149374 -0.02755043 -0.09764281 0.04402293 -0.013489401 0.05886171 0.030015083 0.10733264 -0.0073001324 0.023572903 -0.034948304 0.04793918 0.0122590745 0.09886048 -0.023282966 -0.03435919 0.0044175126 -0.091744296 -0.011947685 -0.09044398 0.04089714 -0.03967518 -0.030079823 -0.028300833 -0.022836953 0.04625622 0.08798879
Cayuga -0.8317845 -0.08640735 0.04312171 0.17170273 0.024817245 -0.033904802 0.17420867 0.025390899 -0.14701445 0.02471994 0.14083122 0.087334104 -0.036756903 -0.0064624054 0.009547619 0.032729477 -0.049429443 -0.017730024 0.01778269 0.034432814 0.060401015 0.012941438 0.021474661 -0.012811529 0.07692784 -0.035917163 0.03740277 -0.03931826 0.017757867 -0.058025077 0.009218644 -0.00058754155 -0.031950586 -0.0093677705 0.036221642 0.03350909 0.03297225 -0.0066282284 -0.06028897 0.0062744515
Ce 1.036219 1.657338 1.5965977 -0.20554754 0.01338882 0.08085842 -0.86546427 0.08520665 -0.56834525 -0.30945566 -0.23472059 1.7098138 -0.93034554 0.3909726 0.30008197 -0.22607064 -0.35663623 0.22812638 0.51097643 0.5437238 0.27000993 -0.23964517 0.25290132 0.0115379905 0.21039714 -0.39368045 -0.22413632 -0.35483593 0.18218711 0.22384655 0.08987417 -0.08407461 -0.31032738 0.69560236 -0.0043776473 0.025482949 0.27779832 0.2743714 -0.64527255 -0.2793567
Cebu -1.038941 0.04559399 0.005347509 0.13492838 -0.041079517 -0.073589005 0.0871192 0.02875041 -0.17338893 0.011472033 0.064500004 0.053257447 -0.054076273 0.033590622 0.0104030855 -0.05788235 0.025588216 -0.029023575 0.04092596 0.024091268 0.07545338 -0.06776063 0.017207125 0.015836705 0.047368735 -0.047868274 0.031153204 0.013802915 -0.054927725 -0.02343998 0.008677128 0.010829505 -0.017983468 0.025487697 0.046084076 0.03599414 -0.020891003 0.05311747 0.011399395 0.008539331
Cebuano -1.3418313 -0.04807523 0.27115318 0.1977068 0.10367416 0.13068368 -0.026905999 -0.017896716 -0.10531856 0.07911315 0.0199244 -0.0043808063 -0.07578369 0.070089445 0.013235217 -0.07622967 0.015410219 -0.0286644 -0.03817223 0.042430814 0.07998965 0.016129518 -0.030067379 -0.029454611 0.08028548 0.0016423974 -0.0133335665 -0.01228892 0.023962658 0.0028992393 -0.032116503 0.018801764 -0.018224765 -0.020690063 -0.06634312 -0.105203226 -0.0014179832 0.017673643 -0.0035099327 0.11063947
Cecropia -2.564015 0.56573045 -0.04204738 0.89714396 0.61051 0.09958146 0.83600414 0.34192008 -0.03671279 1.1840742 0.54727477 -0.16734004 0.9765088 -0.7185195 0.6385426 -0.67012894 0.31593078 -1.0036001 1.233613 -0.46478558 0.049384642 -0.9701826 -0.06181631 0.045385383 -0.15274443 0.39333898 -0.35973278 -0.2288888 0.050961096 -0.30789158 -0.06680402 -0.024597615 -0.5777484 -0.07796042 0.038328767 -0.17190805 -0.08981967 0.48344636 0.93143785 0.6948241
Cedrus -1.0809716 0.10196319 0.06475434 0.29395148 0.20528279 0.047340058 0.13735482 -0.10108937 -0.17007042 0.021936119 0.015065147 0.054275904 -0.12728623 0.052302584 0.015779763 -0.04257475 0.04067377 -0.15159778 -0.009649189 -0.0017423425 0.02919847 -0.061224915 0.055986367 -0.060434055 0.0687034 0.015661472 -0.018789912 -0.1295721 -0.0066164066 -0.04168875 -0.06882829 -0.095527254 -0.103650056 -0.045254223 -0.028717741 0.04164064 -0.01049216 -0.010797867 0.072268 0.06894575
Ceftin -1.2180096 -0.11024115 0.05151464 0.11031917 0.104608305 0.071385786 -0.0004930994 0.14804594 0.031163592 -0.03864703 -0.009671588 0.020350749 -0.14626722 0.049483933 -0.071271636 0.08597945 0.020406814 0.027681572 -0.08854525 0.028135248 0.059786543 -0.07227374 -0.07474127 -0.059946105 0.04486474 -0.0091414265 0.054580845 0.07616573 0.013557313 0.07272706 -0.059075713 0.018205157 -0.012412938 -0.05142826 0.039703373 -0.044362552 0.062757395 0.022136014 -0.044958126 -0.055755533
Celastrus -1.0838771 -0.112321354 -0.031404555 0.21506937 0.20526761 0.065271035 0.034285054 -0.033964153 -0.037263524 -0.050899785 -0.031810373 -0.0069272825 -0.16359428 0.06011968 0.036698595 0.09601303 0.0961395 -0.009802786 -0.15243398 0.079558924 -0.006792181 -0.054761045 -0.12656587 -0.09636091 0.049221504 -0.0026235632 0.026385197 -0.023608876 0.038068403 0.022390088 0.005499149 -0.059108283 -0.027231708 -0.05801785 0.018950706 -0.00089565647 0.12115909 -0.0031700635 0.024585135 0.013126447
Cenchrus -3.151776 0.5995953 0.08687576 0.56830025 0.8800717 0.1769215 0.5595903 0.0064399294 -0.08252413 1.5748106 0.36713952 -0.33789486 0.6251261 -0.06754713 0.5727518 -0.5296186 0.18672258 -0.8908639 0.7705999 -0.5504652 1.116624 -1.0585096 0.34974158 0.026486004 0.03189445 0.45773536 -0.8472087 -0.081281535 -0.018169569 -0.7749611 -0.18412238 -0.09387375 0.07345658 -0.57435036 -0.19893914 0.13883796 -0.14849973 -0.7300647 -0.38551366 -0.17243673
Centaur -0.72678417 0.5617873 0.33346683 1.2896231 -0.20047742 -0.16892466 -0.029810365 1.3129442 -0.6628683 0.61056274 -0.1403656 0.891057 -0.1832041 0.35050005 -0.046979196 -0.5903502 0.3937254 0.038893647 0.12454023 0.2445396 0.17938599 0.1487966 -0.40870732 -0.51540613 0.47739583 -0.4550586 0.7651395 -0.29045436 -0.2437456 -0.38656685 0.24261098 -0.0378642 -0.6514192 -0.5421762 0.1656946 -0.33843803 0.4176984 0.34524518 0.1180238 0.5939249
Centaurus -0.72675407 0.55924064 0.33247146 1.2880752 -0.20379181 -0.16989487 -0.029367084 1.3134289 -0.6629051 0.6125251 -0.14039959 0.89097863 -0.1812816 0.3507832 -0.045851067 -0.58822215 0.3928448 0.040261406 0.12532158 0.2460907 0.17961757 0.14925039 -0.4096174 -0.51379347 0.4770691 -0.45540744 0.7652611 -0.2898695 -0.24437326 -0.38806847 0.24274541 -0.0370509 -0.6519224 -0.54306316 0.16542879 -0.33869925 0.41701397 0.3449096 0.116831325 0.5939884
Centranthus -1.2105175 -0.075307034 -0.010003391 0.07075468 -0.016762143 0.07937092 -0.053475328 0.0084076 0.073636204 0.073182225 -0.011992323 0.07026928 -0.11465655 0.08036842 0.0119817 -0.0131327305 0.05994344 0.10013117 -0.039770473 0.076328725 0.016080918 -0.034794696 -0.052139327 -0.0069050714 0.1092742 0.0676875 0.03416267 0.10385599 -0.100428894 -0.041378863 -0.046649523 0.081875324 -0.059545193 -0.032420546 -0.048546076 -0.069626346 0.032047745 -0.03565637 -0.037606407 -0.0033100566
Centropus -0.9872941 -0.037350547 0.09169163 0.3020519 0.018502856 -0.0026220796 0.16143051 -0.037362948 -0.09016605 0.06786317 0.103795506 0.10405434 -0.04885281 0.061027158 -0.0225874 0.038606074 0.0057010013 -0.0016155685 0.005451109 0.016362438 0.06868772 -0.048549324 -0.042363696 -0.05428603 0.07349229 0.0070675523 -0.025391985 0.012949508 0.03185836 -0.06277291 0.019727563 0.060196504 -0.020780986 -0.029463997 0.020949295 0.02846369 -0.029723989 0.03547108 0.02076209 0.038243774
Cephalotaxus -1.0223069 -0.018490558 0.0168737 0.1413263 0.033536933 -0.04425358 0.069318004 0.043995526 0.005448956 0.023480104 0.011447016 0.09139038 -0.13452235 0.048483245 -0.0023034832 -0.080860905 0.08295989 0.04610708 0.015546123 0.034985643 0.06752842 -0.078238964 -0.06277741 -0.056881476 0.113321446 0.037641197 0.040600255 0.0043416945 -0.04923402 0.015143513 0.022331579 0.069435865 -0.0095063755 -0.037891097 -0.009925385 0.014235494 0.010511577 -0.07722797 -0.05522647 -0.030633556
Cerambycidae -1.376584 -0.034783747 0.25146553 0.14958249 -0.048215985 0.07182563 0.020735135 0.09750449 -0.23261832 0.15129068 0.14147298 0.037529062 0.017530961 0.06802344 0.02129399 -0.05192299 0.004789551 -0.01627202 -0.010734579 0.059602235 0.11039417 -0.015043992 -0.044564378 0.014886979 0.015275095 -0.034380764 0.011240556 0.0111773135 0.078450955 -0.034000445 -0.066692926 0.02621105 0.001409242 0.008700725 0.0034250717 -0.017319188 -0.038987186 0.06606975 0.040324498 0.071905375
Ceratophyllum -1.148152 -0.22828257 0.10649315 0.09873988 -0.018117962 -0.019833257 0.023006734 0.013456806 -0.1616082 0.034482464 0.09998073 0.102307886 -0.08274675 0.058649715 0.0036386778 0.016558744 -0.0027970106 -0.0017675125 -0.0026371537 0.025081161 0.09127661 -0.048352834 -0.0025098186 -0.01787905 0.056969605 -0.03120734 0.07079283 -0.04239639 0.03169336 -0.015467588 0.0024031543 -0.013500512 -0.070360854 -0.027067643 0.011741821 -0.011015303 0.07788636 -0.009700262 0.021152884 -0.011541396
Cercopithecidae -0.6195303 0.026007712 -0.008273867 0.24721462 0.064952634 -0.0586574 0.23047318 0.044707816 -0.11159633 -0.005921318 0.13202882 0.1231916 -0.12207533 0.10013201 0.04046096 -0.056077264 0.043283135 -0.03705266 0.05968019 0.06677543 0.008267702 0.030949181 -0.022160286 -0.021274706 0.12031518 0.044033796 0.039259076 -0.098951146 -0.011126914 -0.11417526 0.02351048 -0.082816966 -0.11320352 -0.019854173 0.05583648 0.08231154 0.0053336397 -0.020233812 0.08917075 -0.054582052
Ceres -1.5336051 -0.044811048 0.17125528 0.1338811 -0.09774628 -0.00655468 0.13125652 0.03786157 -0.055647995 0.06718574 -0.066378884 0.10473804 -0.08030587 0.07601645 -0.035895027 0.0071144337 -0.02099678 -0.008871464 -0.06251869 -0.0074037598 0.10031747 -0.146916 -0.07051033 -0.07971917 -0.019368358 -0.0055815354 0.08957258 0.051884398 -0.015676871 0.024069238 -0.09661557 0.07334696 0.030463025 -0.02187647 -0.014791791 -0.030596001 -0.021512691 0.043722745 -0.07929805 0.077001855
Cestoda -1.9502615 -0.29717112 0.9182893 0.6858897 -0.00412269 0.42859516 0.3277021 -0.124206536 0.14567666 0.3612327 0.16418588 -0.21185179 0.002944396 0.13206857 -0.4315455 0.084302634 -0.39012825 0.36716855 0.1971694 0.04703107 0.2690955 0.4145814 -0.015858732 0.32586846 0.05232618 -0.34929484 -0.23211034 -0.15271673 -0.2793343 -0.15668459 0.2163417 -0.42274067 0.3952546 0.47600555 -0.38367394 0.06081099 -0.009735797 0.12474714 0.09080275 0.2988456
Cetorhinus -3.137868 0.27324364 0.35799223 1.1953365 0.039422333 -0.45915672 0.48787728 0.5195175 0.115630075 1.1515418 -0.5186812 -0.3456148 0.47278887 -0.31492236 0.3915186 -0.48625806 0.10493314 0.65673465 0.838571 -0.9692332 0.62292206 0.2598458 0.088879675 -0.48795855 1.1813474 0.9027435 -0.8873705 1.2875242 -1.7829534 -1.4889914 -0.7759601 -0.40478945 0.41015178 0.79040813 0.49681208 -0.29752454 -0.28893733 1.9909291 -0.039622065 -0.6022115
Cetus -1.4639999 -0.039017167 0.17231168 0.08184077 0.009003263 -0.0019124731 -0.048561756 0.12615943 -0.14462133 0.07730379 0.088797376 -0.0058902563 -0.09050842 -0.0122857 -0.021815982 0.01718802 0.065041736 0.035262108 0.038172502 0.060248204 0.09229663 0.019085657 -0.055207413 -0.04419 0.044390924 0.023317685 0.052433673 0.014005384 -0.016072322 0.088155225 0.046992548 -0.0259585 -0.06408576 0.035732813 0.006966763 -0.07097192 0.071084104 -0.057854425 0.013524039 -0.0022019418
Cezanne -1.4593481 -0.14746796 0.048627183 0.15941904 -0.0155202765 -0.034624428 0.029126002 -0.0014995249 -0.06428149 0.037169773 -0.03958531 0.082983725 -0.14016426 -0.003685475 -0.059000112 0.06950294 0.06218132 0.03109777 -0.05756027 -0.005836637 0.06537776 -0.08872671 0.019937292 -0.11373941 0.054668106 0.029093077 0.07438471 -0.010611463 -0.042226285 0.06935536 -0.018555634 0.026578654 -0.05560678 -0.0056521 0.045873895 0.0022870146 0.097417854 -0.01489272 -0.039925005 0.039986864
Chaetognatha -0.97127026 -0.07498152 0.07568815 0.03856531 -0.0018495499 0.011875959 -0.08002693 0.06593944 -0.09974341 0.020116884 0.08831451 0.0037391866 -0.093864344 0.0016447533 -0.038362417 0.022223774 -0.018488685 0.023575302 0.032004748 0.01702084 -0.006597385 -0.003355929 -0.050379712 -0.016923718 0.01094188 0.013702505 0.013653479 -0.0007115174 5.2547384e-05 -0.017299064 0.08846885 -0.09621538 -0.12313822 -0.052384876 -0.00574624 -0.057193514 0.056214135 -0.029549617 0.010849224 -0.03170657
Chaga -1.133723 -0.023576899 0.06738672 0.07038228 -0.08808333 -0.02882132 0.077667594 0.045113057 -0.06398787 0.043198425 0.100968935 0.009006863 -0.018064903 0.048995394 0.013918838 -0.0021649033 0.017408416 0.02011789 -0.00912533 0.049993746 0.04669522 -0.015073866 -0.04025798 -0.008060633 0.04569841 -0.040538833 0.047483683 -0.016480695 -0.0067747957 -0.035302702 -0.01536507 0.03116114 0.023071794 -0.0013294687 0.032345526 -0.028432827 0.008003352 -0.0007393393 -0.043109216 -0.042240575
Chagall -1.1871973 -0.14508557 -0.07674909 0.14111857 -0.0048595043 -0.01920797 0.05253004 -0.074189916 -0.03962723 -0.036092497 0.11106624 0.041148327 0.0054620155 -0.0027118572 -0.03798056 0.13346106 0.053769045 -0.024680424 0.03723851 0.017251594 0.050420985 -0.0538931 0.0035381399 -0.122032925 0.054523326 0.0038318504 -0.10111582 -0.054031722 0.00013416538 0.03142518 0.051461373 -0.035828084 -0.06825006 0.007896063 0.04997633 0.0453736 0.07321724 0.042953227 0.013974505 -0.00064924516
Chagatai -1.1509906 -0.15796198 -0.02535207 0.073843054 -0.002708301 -0.0026581786 -0.006917919 0.059023537 -0.08370928 0.0429857 0.044516563 0.06274448 -0.123193026 0.03479419 -0.002385648 0.07726086 -0.025592506 0.015504509 0.012804334 -0.054747287 0.119690046 -0.024184363 -0.009536442 -0.052179564 0.017770803 0.01365746 0.021456404 0.06317068 -0.030756518 -0.030824853 -0.060374375 -0.0020326711 -0.12102687 -0.03148224 -0.001366912 -0.05358833 0.09140433 -0.0067290626 -0.013589814 0.03843403
Chaldea -1.1913942 0.039584734 0.017131664 0.2321638 0.03614318 0.03333814 0.126124 -0.02600835 -0.07593592 0.01733861 0.07767412 0.020454846 -0.010387601 0.0805345 -0.036125086 -0.098505124 0.016623292 -0.06280321 0.030992199 -0.007919078 0.10813008 -0.00932656 0.06043814 0.005387349 0.080650866 -0.025983911 0.0057808575 -0.0021953043 -0.04753433 -0.12670599 -0.030000133 0.021581398 0.029884323 -0.009639737 -0.03425565 -0.024122188 -0.016648166 0.019314662 0.0067459946 -0.007822803
Chalons -1.2775618 0.06648394 0.019038359 0.26589882 0.004060634 -0.045570113 0.091947876 0.08601255 -0.17882515 0.054197807 0.10662691 0.066821516 -0.091161564 -0.018216264 -0.09626542 0.0154426545 0.09122133 0.004280576 -0.033161335 0.019058019 0.10869246 0.012445696 0.0029325502 -0.08378992 0.024493773 0.019717168 0.044164438 -0.077109076 0.051830903 0.006419819 0.013801477 0.01077011 0.0671987 0.047412615 0.010227153 -0.013601058 0.10573907 0.020937366 0.041311413 -0.03266495
Chamaecyparis -1.1004951 0.06280936 -0.06802241 0.19449554 -0.03636261 0.023685297 0.07298286 0.019571828 -0.09620062 0.040756423 0.028010748 0.0646975 0.0055939895 0.047621127 -0.052254025 -0.07285161 0.008012085 -0.027277471 0.010119769 0.02197789 0.068092495 -0.07333531 0.028321413 -0.012010744 0.063786745 0.010206714 0.020848528 -0.043112334 -0.025325298 -0.06481734 -0.05332366 0.016119916 0.057451617 0.0099262195 0.02502736 0.01162278 0.00037753236 0.036293864 -0.011926872 -0.01771485
Chamberlain -1.246024 -0.07834457 0.00074681663 0.04406436 -0.05584272 -0.026124557 0.021940866 0.03432834 0.005654968 0.050026167 0.01704787 0.13668491 -0.12321443 0.018222945 -0.0004512989 -0.058265842 0.032928027 -0.033277296 0.021837266 0.057784483 0.057389185 0.029777708 -0.025086677 0.02913676 0.055946335 0.034478385 -0.0069485973 0.014030078 -0.021529062 0.006851549 -0.0073353257 -0.011627708 -0.016280465 -0.083618954 0.014951369 -0.003848968 0.03458782 -0.08918746 -0.051782634 0.05364367
Champlain -1.2177458 0.10474148 0.13430348 0.19369236 0.09767216 0.053065404 0.04603461 0.1338302 0.033791702 0.027430193 0.0053828647 0.028207596 -0.008799609 0.099077985 -0.04656227 0.03660284 -0.02291911 -0.03890026 -0.057700127 0.036433626 0.06843408 -0.08194392 -0.012901823 -0.048153903 0.10219225 -0.029416703 -0.010770779 0.041796632 -0.06394143 0.029585203 -0.050591014 -0.023746395 -0.00885773 -0.027849182 0.0040630675 -0.092371404 0.026664011 -0.0042246333 -0.08754552 -0.004577051
Chancellorsville -1.3627062 -0.091623954 0.061900456 0.033253394 0.019236386 0.05483643 0.051158883 0.016057169 -0.1303219 0.052334823 0.08795573 0.011065504 -0.14283882 0.056772333 0.038055297 -0.052266225 0.02049839 -0.0032202122 0.020258427 0.029813293 0.047481943 0.01508871 -0.09790388 -0.020079467 -0.021229366 -0.021541415 0.05958427 0.04388333 0.014327967 -0.06490782 0.023483692 -0.003175731 -0.08443863 -0.0039380314 -0.028950263 -0.044780158 -0.018952211 -0.034124553 0.082237646 0.0036400843
Chandler -1.3086374 -0.07902926 0.04104572 0.22135745 -0.025286848 0.100274816 0.07561908 0.033949416 -0.08439678 0.14817686 -0.011051021 0.038128216 -0.13764815 -0.03775086 -0.016191589 -0.029886309 0.048272625 -0.040125474 -0.03700657 0.026566608 0.05291548 -0.091571786 -0.008031581 -0.01850398 0.044943158 0.040178202 0.020575156 -0.0087663615 -0.02492273 0.024260012 -0.039502885 0.04400669 -0.021260373 0.0047121337 0.030407218 -0.04377112 -0.06458845 0.011352756 -0.016199308 0.10017649
Chanukah -0.9207165 0.01786935 -0.39812613 0.63092124 0.69960713 0.6697123 0.43825552 -0.6602512 -0.41370884 1.1127563 -1.3246819 -0.10825833 -1.7458725 1.0413419 -0.5241028 -0.55783796 0.4476575 0.26701507 0.66115147 -0.06024336 -0.100119084 0.31243226 -0.8507645 0.1921257 0.06450899 -0.29794183 0.52538943 0.41167426 -0.3982051 -0.58539855 -0.2666624 0.70747554 -0.9393622 0.7645554 -0.83314246 0.7364271 0.20878851 0.2527574 -0.17507808 -0.93266475
Chanukkah -0.9205852 0.018249735 -0.39813092 0.6307687 0.6996933 0.6698332 0.43807778 -0.6598869 -0.41377532 1.1128244 -1.3249084 -0.10817624 -1.746495 1.0413256 -0.52423936 -0.5584419 0.44767562 0.2670722 0.6614001 -0.06016029 -0.1000804 0.31271085 -0.8505515 0.19226357 0.064429544 -0.2978361 0.52616626 0.41172636 -0.3983205 -0.58565116 -0.26680973 0.7074501 -0.9392959 0.76453114 -0.83307093 0.7365014 0.20900133 0.25253716 -0.17508723 -0.9326138
Characidae -1.2872685 -0.031412903 -0.03025638 0.15116222 -0.021715054 0.071667746 -0.08896014 0.028011587 -0.030423736 0.053483203 -0.046384383 0.018269658 -0.062959865 0.016154636 -0.030881174 0.002640066 0.077803686 0.012966338 -0.019914545 0.062019162 0.0016668442 -0.062418263 -0.019687675 -0.03893017 0.1077104 0.10189045 0.034649584 -0.0055357227 0.011833366 0.014479358 -0.051906962 0.015448239 0.0032297382 -0.03587767 -0.004877342 -0.087271966 0.06637681 0.0018347781 -0.024399683 -0.018546244
Charcot -1.2485816 -0.1104237 -0.067952655 0.06543229 -0.043878283 -0.0058490643 0.071089014 0.011283582 -0.111483425 0.109510735 0.051006764 0.023805482 -0.13269727 -0.0071453233 0.04425374 0.05000251 -0.03587591 -0.0026400625 -0.01606385 -0.017313825 0.060051493 -0.07391069 0.0055496944 -0.08259658 0.021964982 -0.002962686 -0.00034694222 0.060485132 -0.022728652 0.043120317 -0.059905373 -0.029711502 -0.07185181 0.026394637 0.025924727 0.013731158 0.014348578 -0.030173473 -0.0057356628 0.0995556
Charina -1.2700819 -0.04097442 0.06887222 0.13660859 0.011949471 0.049238242 -0.06307262 -0.024643203 -0.08289245 -0.017731294 0.02035129 0.14281105 -0.09161621 0.046672724 -0.06830717 0.0017200699 0.047122464 0.03291496 0.07059544 -0.027463127 0.03850813 0.017776925 -0.00615857 -0.029222079 0.07179795 0.044223193 0.015425655 -0.05588155 0.03287211 -0.03742594 0.059123423 -0.023420788 -0.104884565 -0.045272928 -0.01467054 -0.06330603 0.039822035 -0.028865984 0.05189118 0.028966323
Charlottetown -0.75015974 -0.11167631 -0.21529873 0.04132113 0.015619797 -0.05920756 0.10156869 0.060385305 -0.07090227 0.04790925 0.14976557 0.08931884 -0.044073083 0.062597126 -0.040331714 0.046400916 0.06359426 0.1022949 0.031975336 0.06938926 -0.0022610235 -0.0011790324 -0.008028365 -0.01743518 0.15511656 -0.037345935 0.055777308 -0.03951173 -0.030335357 -0.022406153 0.057023935 0.0820017 0.0043140664 0.030335473 0.030667668 0.034631956 0.030948244 -0.058545377 -0.029259617 -0.12808722
Charybdis -1.2059555 -0.059891045 0.00274537 0.23426057 0.115249604 0.07829591 0.0282297 0.0059786025 -0.09684959 0.016029384 -0.0017749195 0.08892551 -0.1504939 0.0698855 -0.107946485 -0.04872204 0.05705368 0.0037097936 -0.03307437 -0.013326897 0.016842404 -0.13526973 -0.036170866 -0.057839874 0.027109014 0.051182155 0.04623029 -0.008542232 -0.0027563728 0.009932553 -0.045228705 -0.00550725 -0.003301976 0.00071707054 -0.026133455 -0.0024225654 0.041954536 0.038395464 0.05265175 -0.03696423
Chimaera -1.5341495 0.015294292 0.07274763 0.0978587 -0.04778352 0.012694326 -0.013008601 0.061587144 -0.13001245 0.13217096 0.024194703 0.02119814 -0.15981956 0.0131002 -0.052168157 -0.117236905 0.053181034 -0.04156072 0.022980038 0.005152518 0.1482665 -0.07456047 -0.008640381 -0.055201586 -0.00915737 0.06888322 0.0851249 0.0180135 -0.04481802 0.059085142 -0.04262741 0.017800305 -0.00060387753 0.065806784 -0.010952264 -0.044894256 0.016875025 -0.06132169 0.021329308 -0.012533038
Chisinau -1.0286925 -0.0839341 0.058735803 0.13181636 0.14532632 0.06721203 -0.008328325 -0.004160135 -0.03780899 -0.062342074 0.014679856 0.04311712 -0.07597315 0.09399344 -0.047251806 0.0003139747 0.059125945 -0.10235679 0.0078781815 0.06974004 0.016155697 -0.029771201 -0.053625673 0.00089148135 0.029874053 0.04521172 -0.053647242 -0.052826133 -0.0037405042 0.021624507 -0.008172555 -0.04487259 -0.077164926 -0.132045 0.014245153 -0.06184896 0.00056356064 0.002078025 0.039570346 -0.030783117
Chlorophyceae -1.9291476 -0.29384422 0.9230867 0.6808963 -0.0030997188 0.42870855 0.32503447 -0.11839118 0.14521828 0.36038905 0.16439565 -0.20927927 0.004244615 0.1306515 -0.4299131 0.08217297 -0.39017713 0.36603928 0.19629025 0.048824195 0.26630813 0.4150696 -0.0140673295 0.32700276 0.051279183 -0.35042992 -0.2287639 -0.1517493 -0.27863067 -0.15864126 0.21627885 -0.4253509 0.39455518 0.47533888 -0.37955058 0.061265755 -0.0094226645 0.12234566 0.0919407 0.2993015
Chuang-tzu -1.2063078 -0.0047207098 0.047829714 0.11783649 -0.018639999 0.074210055 0.040516105 0.10828582 -0.078101285 0.022407519 0.026535558 0.045707062 -0.070711575 0.021284493 -0.020614475 0.07680321 0.0725489 0.04917288 -0.09242202 0.058945294 0.052493595 -0.0068287402 -0.074090555 -0.053243816 0.02157026 -0.027697843 0.022260189 -0.011898988 -0.023634855 0.024930403 -0.014901823 -0.015543588 -0.04348381 -0.029094346 -0.0200621 0.011886819 -0.0018027773 -0.07821668 -0.025061952 0.03570023
Chuvash -0.99914634 -0.07257306 0.031008912 0.25108323 0.11762997 0.0074760886 0.038900748 0.053408213 -0.07722232 0.067274064 -0.048908696 0.066016816 -0.07094694 0.045157183 -0.03646813 -0.10022495 -0.016768374 -0.000722433 -0.071079895 0.057992037 0.043098737 -0.06894537 0.0336506 -0.06615715 0.081588104 -0.031300426 0.05626981 -0.033193987 -0.009624491 0.00017384414 0.008726445 -0.044730894 0.0021480217 0.0006537208 0.007876203 0.052798565 0.050805647 -0.026255937 0.009463593 0.030241288
Ci 1.4889852 1.0622642 0.19777988 0.31981704 -0.24913707 0.56904995 0.32070774 0.13508652 -0.066681415 0.009665622 0.69543725 0.29496244 -0.6311803 -0.119389445 -0.12512144 -0.90189445 -0.074991435 -0.20996979 -0.17622785 0.54078 -0.06402362 0.39210212 0.19786763 0.33511192 0.15184425 -0.63267976 0.32030323 -0.36007708 0.08686623 0.12621239 0.46316865 -0.3144875 -0.13554323 0.49681717 0.1128507 -0.43721065 0.08402493 0.15254849 -0.15620872 0.21451734
Cicadidae -1.3325211 -0.04689287 0.07219589 0.11654808 0.020184366 -0.06663009 0.11762748 -0.07672943 -0.023508826 0.056814685 0.018483987 0.07231245 -0.068590604 0.0996467 -0.0014463012 -0.1423076 0.028613528 -0.0009324482 0.0717196 -0.07804297 0.09303007 -0.055349372 -0.034887977 -0.03227515 0.019720409 0.02641528 -0.05441156 0.05070416 -0.0449606 -0.099265784 -0.09322947 0.020938426 -0.05094984 -0.116748 -0.039838277 0.0052521345 -0.004110859 -0.015047269 -0.0073119015 0.02760316
Clarksburg -1.015345 -0.15235692 0.08225004 0.1676496 0.045210674 0.014621374 0.09917586 0.0862212 -0.10781835 0.09744872 0.12647678 0.08106499 -0.19454348 0.011895786 -0.060084734 0.005862882 0.003546 -0.00011078243 0.046626315 0.031019902 0.06381307 0.021057546 -0.06572457 -0.04542733 0.101078324 -0.008421081 0.031693388 -0.04132766 0.027356401 -0.008906798 -0.010722764 -0.0034790945 -0.11293699 -0.0047589745 0.029407695 0.030253645 0.061972685 0.0293141 -0.026708711 0.057384886
Claviceps -0.98210764 0.011702596 0.11128964 0.23648903 0.049518287 -0.077313535 0.05887543 0.012106557 -0.14028516 -0.05017989 0.0791285 0.038284916 -0.020494727 0.019190736 -9.671674e-06 0.14157774 -0.007631424 0.033097424 -0.027067266 -0.023639051 0.015022853 -0.12616201 -0.009493158 -0.105011046 0.028254652 -0.0033300717 0.021051422 -0.061276697 0.052442186 -0.053334158 0.0597412 0.011954518 -0.06795061 0.010755449 0.029156664 -0.025764426 0.04966872 0.05234886 -0.030698135 -0.0241138
Cleopatra -1.4505821 0.050966885 0.093638726 0.2403397 -0.1249644 0.013667292 0.08951397 -0.059296753 -0.16625585 0.10824467 0.12077055 0.045895506 -0.077908665 -0.020982217 -0.016140621 0.012727023 -0.02417042 -0.01236614 0.024124948 -0.010572444 0.11848674 -0.058193553 -0.003240999 -0.014027984 0.010677614 0.027562158 -0.048977077 -0.07459919 0.011577922 -0.03616988 -0.09158422 -0.011335968 -0.09331813 -0.006755855 -0.03531119 -0.029341202 -0.03424447 0.017165354 0.0063827173 0.04658488
Clinton 2.3430178 -1.3138157 -0.936004 0.9730811 0.49006838 -0.7806013 0.15782447 0.48915043 -0.22192934 0.40366763 0.855173 0.8071859 -1.2148725 0.17035589 -0.24204056 0.97517383 0.40758651 -0.6339805 0.10968126 -0.021640556 1.0457739 -0.84101295 -0.051691372 -0.46060944 0.031455036 0.03379211 0.14288497 0.950469 0.22607958 -0.060587443 -0.5457236 0.45600742 -0.6877718 -0.24064192 0.5203442 -0.47086614 -0.37953028 -0.3170075 0.31394583 -0.27443644
Clioquinol -0.10940997 -0.4318266 1.1514049 0.59774095 0.5281608 -0.18618993 -0.7093083 0.15044822 -0.030755466 -0.37842232 0.020551488 0.560699 -0.07363307 -0.40794265 0.12199991 -0.29380432 0.07785091 -0.09366576 0.32913807 -0.24805157 -0.2904265 0.29934126 0.39824763 -0.12863111 -0.50823665 0.35892844 -0.12825435 0.46064413 -0.03363621 0.24705946 -0.13170838 -0.02245392 0.28364328 -0.09030679 -0.42646208 -0.046153665 -0.14047796 0.23308912 0.37526077 0.022664845
Clitoria -1.3271147 -0.08764082 -0.074919164 0.13832822 -0.0057177763 -0.0806194 0.1668801 0.035685975 -0.06472566 0.07399961 0.029155212 0.06367193 -0.19982967 -0.039126273 -0.07715516 0.038690284 0.03049022 -0.014538512 -0.039689 -0.038795717 0.059879273 -0.063750595 0.018116526 -0.121810935 -0.008261276 0.04270274 0.041970022 0.007662241 -0.004715983 0.014640931 0.0027925088 0.011757504 -0.030177254 -0.015809374 0.02817717 -0.0694991 0.0024126389 -0.0034347118 -0.009494753 0.026129207
Clive -1.0308952 -0.01672629 -0.045811817 0.20943856 0.10017006 -0.00030557057 0.03512104 -0.011387208 -0.03333526 -0.05267671 0.0035167574 0.04222086 -0.13009202 0.0413645 0.011115893 -0.08088301 0.037096392 -0.044296328 0.01652422 0.01999515 0.039515115 -0.07340866 -0.014514578 -0.08759504 0.10783098 0.1286849 -0.03763929 -0.03585613 -0.0054351515 0.020894757 0.017657688 -0.040017508 -0.012311574 -0.03002076 0.013616534 -0.011786194 0.048469298 -0.03224984 0.00508047 0.026007814
Clytemnestra -1.1384046 0.0338684 -0.02014582 0.25416583 0.025948731 -0.06969814 0.105111025 -0.0611876 -0.15953839 0.0003523338 0.011913699 0.11577546 -0.08890877 0.0362293 0.011917664 0.023118837 0.04189411 -0.03361981 -0.056949418 0.0342786 0.050019506 -0.11526312 -0.03184211 -0.09225569 -0.020873375 0.030756215 0.0033771633 -0.02679697 0.060240053 -0.0640929 -0.025666323 0.04235408 0.036766384 -0.09658938 0.0090318145 -0.007843723 0.07025097 0.06552991 -0.0195047 -0.010661432
Cnicus -1.1001762 -0.002118407 -0.10738097 0.1409064 0.049675997 0.02861745 -0.0632517 0.06117279 -0.029255934 -0.01784818 0.105165906 0.03383387 -0.17009011 -0.024528578 -0.04760661 0.12328607 0.11232483 0.048300244 0.0018774404 0.020173559 0.08015372 0.024736568 -0.00017609322 -0.08061789 0.0446302 0.087977715 -0.038217515 -0.06319259 0.003548317 0.045872763 0.03774759 -0.07338602 -0.08355036 0.045351915 -0.015122592 -0.008751152 0.020998877 0.0018330624 0.038443998 0.10730687
Cnidaria -2.5066745 0.57504845 1.1753186 0.47648776 1.1077334 0.31952238 0.62287706 0.8955511 -0.6228084 1.3253609 0.782094 -0.6595038 1.0259961 -0.076383606 -0.6971413 -0.64352864 -0.77435195 0.9268722 1.3604351 -0.6079137 1.5548489 -0.3427385 -0.052481316 -0.17444292 1.2160615 -0.23975417 -0.30629677 0.50653744 -0.953779 0.18610264 -0.074093685 -0.7872949 1.6937928 0.96899533 -0.2688874 0.4374453 0.60252863 0.09068305 -0.31872344 0.425873
Cnossus -1.343121 0.041758083 0.05179443 0.23825823 0.0035285198 -0.056726284 0.20581587 0.12333812 -0.13439372 0.13080302 0.101403 -0.051294982 -0.17424585 0.0071959626 -0.014932987 -0.021485025 0.04050787 -0.007890462 0.034167144 0.02301241 0.11577475 -0.052768793 -0.061441373 -0.038970716 0.079421595 0.00354268 0.106975555 0.004259152 -0.024027286 0.026251942 -0.10549674 -0.026209755 -0.06334769 0.04075934 0.052215345 -0.028648898 0.0069648735 -0.019245148 -0.028021123 -0.047300663
Cnut -1.2837882 -0.07864574 0.15183836 0.19781846 -0.009122697 0.057411667 -0.047181077 0.09505088 -0.08851544 0.008655759 0.08478887 -0.013136967 -0.07555948 0.100847036 -0.03441769 -0.027078507 0.007944696 0.10309134 -0.012504033 -0.013932867 0.095032655 -0.027164897 0.0037366226 -0.041228026 0.09318712 0.011314996 0.075081065 -0.034938395 0.034872454 0.002995756 -0.03410571 -0.017927496 -0.027063351 0.045766886 0.042713325 -0.040597443 0.046241414 0.015620663 0.0662038 -0.07198661
Co 1.047126 1.66123 1.5982511 -0.20962416 0.014642215 0.08188065 -0.8708213 0.08999269 -0.5669698 -0.3077432 -0.23604874 1.7109736 -0.93163645 0.39090478 0.29961312 -0.22831562 -0.35610577 0.22766937 0.51170456 0.543998 0.26806012 -0.23689912 0.25318524 0.013281867 0.20865184 -0.39261368 -0.22261922 -0.35415328 0.18224098 0.22076689 0.08921118 -0.08764436 -0.31103674 0.69522506 -0.0030216922 0.024415264 0.2782942 0.27283078 -0.6441417 -0.277058
Coahuila -1.1589713 -0.08193866 0.060561877 0.2247352 0.015868664 -0.016631568 0.06488045 -0.007745132 -0.2372016 0.025256895 0.09543048 0.12810351 -0.042866755 -0.031188393 -0.042019345 -0.024052942 0.023942115 0.017231518 -0.056406975 0.060678065 0.02880884 -0.047261167 0.0028820501 -0.07385646 0.030164264 -0.06931162 0.08084534 -0.076325476 0.03237943 0.02590118 0.07529816 0.037270606 0.01992172 0.066096745 -0.0038546599 0.049970128 0.03468262 -0.03132525 0.043161415 0.014266107
Cocopa -1.0252129 -0.108356826 -0.029094681 0.051907316 0.0034034478 -0.03900459 -0.006399309 -0.05668284 -0.034766596 -0.11542606 -0.004114635 0.08777644 -0.067997195 0.07287276 -0.06899631 0.063878104 -0.022099411 -0.0032703853 0.0014495439 -0.025710674 0.04222258 -0.045155577 -0.0067381915 -0.027879056 0.031888127 -0.01018911 0.029317847 -0.025550697 0.06301458 -0.06464349 -0.0065581687 0.0020897386 -0.0446025 -0.07166211 0.0016833828 -0.04586369 0.084993824 0.0421698 -0.02331591 -0.063002765
Cola 0.55176175 0.80341834 -0.1192616 1.0644034 1.2103971 0.010492987 0.18147923 -0.95341915 -0.7669784 0.47467458 -0.7715752 0.94424105 -0.81056964 0.6483657 -0.10827299 1.0185924 0.3312331 -0.20055157 0.5364705 0.7421067 0.660644 -1.2155124 -0.39100742 -0.7106829 0.5216656 -0.44434878 0.81137615 -0.083695464 -0.56923306 0.26925114 -0.8123168 -0.17049654 -0.76423097 0.017934296 -0.156777 -0.425464 -1.524584 0.14601196 0.45032036 0.39267132
Colaptes -1.0293394 -0.11090752 0.013375929 0.09822552 -0.04189704 0.020039741 0.117779195 0.115051396 0.003785705 0.062276393 0.04459844 0.17103758 -0.12853329 0.048147082 0.044651985 -0.03714241 0.032648586 -0.015313008 0.0005630865 0.076856054 0.06641842 0.048906963 -0.089352086 0.06937484 0.09953089 0.02347347 0.009721402 -0.005730463 -0.051421236 -0.038834058 -0.024680987 -0.008901122 -0.02814718 -0.07310228 0.0064065508 0.07117748 -0.020847369 -0.06094282 -0.046534784 0.10851931
Colchis -1.2408375 -0.011538046 0.1892527 0.25765738 0.02150634 0.0233845 0.11324518 0.045020513 -0.24265178 0.07271798 0.09555413 0.06309954 0.015196894 0.12100181 -0.018844683 -0.04588999 -0.012411455 0.09526203 0.0120479325 -0.007637834 0.06776537 0.00091052445 -0.012778231 -0.011829838 0.050237633 -0.105573036 0.053151995 0.0037778586 0.0662773 -0.016668886 -0.066128254 0.029217735 0.0013670332 -0.012370087 0.06959869 0.039308395 0.062169172 0.07801296 0.025823904 -0.065462984
Coleridge -1.1395185 0.0020572124 0.006201291 0.0642773 0.002836417 0.014121954 -0.0008849314 0.028215561 -0.09782374 -0.025418568 0.03571548 0.004161506 -0.045233548 0.06664766 0.008238125 -0.012694543 0.068539396 0.050721508 -0.03256961 0.011520291 -0.0029311609 -0.04394759 0.00770976 -0.046946734 0.01134679 0.02539321 -0.020864906 -0.035643093 -0.0037337176 -0.03196217 0.0053137764 -0.004360222 -0.032121826 -0.0206181 -0.01533582 -0.013262809 -0.015431206 0.059643038 -0.0029990377 0.012777767
Colocasia -3.1453464 0.6012 0.08863345 0.5656283 0.8783036 0.176713 0.5561519 0.009708577 -0.08283872 1.5769057 0.366353 -0.33833382 0.62507826 -0.0683152 0.5729556 -0.53028417 0.18699804 -0.89088243 0.7713282 -0.5500324 1.1151603 -1.0564009 0.34986022 0.028424276 0.031158112 0.45878273 -0.84568465 -0.08083567 -0.018691072 -0.7771775 -0.18421423 -0.09671082 0.07281037 -0.5742735 -0.19727816 0.13810556 -0.14812484 -0.73095137 -0.3848355 -0.17149407
Colombian -0.9503191 0.047006223 -0.08019451 0.18030418 0.12019748 -0.01175361 0.091614686 0.006116869 0.028547507 -0.05327902 0.009866993 0.014495964 0.010909728 0.096109875 -0.052944936 0.040184204 0.060326647 -0.03079344 0.010468956 0.05370636 0.046846334 -0.086075895 -0.020730661 -0.026081659 0.026950324 -0.016388383 -0.03034965 0.049984034 -0.026415516 0.013951393 -0.03406881 -0.049683694 0.011305584 -0.0681952 -0.004362312 -0.04564514 0.04691583 0.045431625 -0.07270507 -0.051416744
Colony -1.0228212 -0.06201385 -0.10530678 0.036354553 0.003285592 0.039166898 0.06051871 0.10556007 0.043294508 -0.013884868 0.032903492 0.13164255 -0.030436125 0.08060421 -0.05793404 0.10119208 0.04140121 0.023783801 -0.010428128 0.0010683156 0.02808642 -0.10536996 -0.014708737 -0.063579865 0.09815923 -0.020114724 -0.0057265935 0.024568312 0.021968013 -0.00876314 -0.10572837 0.055832185 0.026290206 -0.022124736 0.062246654 0.015434843 0.026053531 0.054026276 -0.048126895 -0.04473356
Compositae -3.2497914 0.66975605 0.85969424 0.9055945 1.7650007 0.36444247 0.8951365 -0.13860938 -0.5363427 2.0337367 0.9074452 -0.67932194 -0.13065904 -0.40578386 0.35262156 -1.5136223 -0.425537 -1.0506238 1.6374801 0.1419524 1.2411715 -0.49692884 -0.7790221 1.0622544 0.08654221 -0.061340295 -0.634779 -0.9500554 -0.73596054 -0.40064624 0.28046715 0.08146641 0.979216 0.5360164 -1.0654579 0.48216915 0.77177334 1.1621343 0.40936795 -0.09464375
Conakry -1.2563249 -0.19989638 -0.08916559 1.3998578 -0.25579217 -0.9006904 1.134747 0.285957 -0.8729635 -0.0973962 -0.13787344 0.61897486 -0.8074455 0.023868551 -0.67223954 0.0547415 0.3347036 -0.63574344 -0.5396645 0.59410626 0.76645136 -0.15757209 0.20352176 -0.11674184 0.06586438 -1.0046108 0.9932666 0.40380874 0.54172206 -0.13579756 -0.3606812 0.021375325 0.47697046 -0.56810147 0.31274375 0.32275212 0.47807717 -0.5653507 -0.47414264 0.55288744
Condorcet -1.1320319 -0.04312008 0.13033107 0.14535657 0.012627708 0.04749732 0.07930031 -0.035484172 -0.008253229 0.043041993 -0.0063520055 0.023482587 -0.1093801 0.008571034 0.024839189 0.012021127 0.037320826 -0.02366304 -0.11525929 0.06509964 0.0528315 -0.059283566 -0.06010629 -0.048973914 0.042714644 0.04359601 -0.0190386 0.004789289 0.013371363 0.012876829 -0.041112922 0.026473824 0.0030105207 -0.021275826 0.009109818 -0.027151408 -0.016045567 -0.022200514 -0.060182955 0.11044247
Confederacy -1.2319223 -0.066054404 -0.10573807 0.080867395 -0.04516845 0.053266954 -0.0112959985 -0.04633646 0.029290624 0.035561282 0.037574735 0.08803374 -0.11731415 0.07785333 -0.06603855 -0.018215517 0.08671741 -0.038140006 0.09353165 -0.018074902 0.1194288 -0.037424766 -0.038778033 -0.009045403 0.027355283 0.087035984 -0.028739262 0.005570587 0.009434582 -0.060800828 0.004754006 0.035704147 -0.007462875 -0.058681875 -0.09739416 -0.07416634 -0.009616585 0.059037637 -0.009410696 0.01881192
Confederate 0.3564583 -0.28160375 -0.86502934 1.0428028 0.1623529 0.18774247 -0.6485672 0.20923351 0.078865014 -0.10178694 0.12518096 0.37784478 0.086379096 0.27365163 0.4226804 -0.32525295 -0.18652377 -0.027633952 -0.111039065 -0.16328195 -0.11278528 0.011218992 -0.16887257 0.1306969 -0.12703341 0.27069858 -0.098449856 0.22254413 0.015655158 -0.10431451 0.010703862 0.23561038 0.19487444 0.11863859 -0.1380788 -0.19981407 -0.19883253 -0.03259986 -0.04724413 0.115868025
Confucian -0.7433112 -0.052297674 0.09624636 0.17870405 0.034688327 0.10889658 0.0950307 0.02252421 -0.09272227 0.020186383 0.060367893 0.08645432 0.0030400655 0.14681792 -0.012384035 -0.048685323 0.018169599 0.066181436 -0.030838031 0.12638329 0.04452316 -0.022054326 0.007857255 0.010369843 0.13648717 -0.026191225 0.08381167 -0.07078452 -0.031039529 -0.05585332 -0.030128213 0.021640573 -0.032993983 -0.016518626 0.021396996 0.05382342 -0.060592547 -0.022708168 0.013224818 -0.03466994
Confucius -1.2415104 -0.10040341 0.070449665 0.25543934 -0.073150806 0.059141863 0.0573367 -0.038562115 -0.083944224 0.09085296 0.13303621 0.051708166 0.16262394 0.08691026 0.005514986 -0.0056291223 -0.0449956 0.018143043 0.018032532 0.052924085 0.09598199 -0.021694435 0.0071867066 0.05712343 0.06242379 -0.049008526 -0.056940287 -0.05363005 0.07488201 -0.06355625 -0.036065828 -0.04690215 0.018492594 -0.017949084 -0.01588492 0.045341663 -0.003168728 -0.0023029787 0.015318945 -0.006870423
Congreve -1.4267999 0.013238714 0.06647872 0.28855973 -0.011701193 -0.12838641 0.10752514 0.034759972 -0.14413397 -0.009073124 0.082468085 0.033484206 -0.10591976 -0.01500463 -0.068263285 0.0758058 0.066690676 0.017354654 -0.083191164 -0.035606705 0.09169507 -0.07064898 -0.001152794 -0.15413924 0.10222511 -0.039516676 0.039424624 -0.063155584 0.058512177 0.09550235 -0.012395474 -0.049741708 -0.02135353 0.055082787 0.02699024 -0.02726941 0.15470706 -0.026016014 -0.014872611 -0.04430933
Connecticut -1.1070132 0.055232722 0.16412438 0.22866333 -0.005498583 -0.016578792 0.14925724 -0.012658453 -0.2070452 0.08538172 0.012971536 0.047377083 0.05366444 0.103398874 -0.006002614 -0.09763471 -0.0026071563 -0.037436537 0.0014932387 -0.04301179 0.054549046 -0.037956953 0.0027224557 -0.044219274 0.07827169 -0.12826201 0.025723971 -0.021627013 -0.04565958 -0.05873422 -0.08951164 -0.036083926 -0.04475344 -0.074124105 -0.0038795716 0.024843197 0.013121012 -0.014942418 0.06639709 -0.031120611
Conoy -1.3690383 -0.13899265 -0.032280482 0.28326488 0.09232847 -0.02670784 0.067799136 -0.05113313 -0.11013845 0.038903058 -0.011748347 0.15173621 -0.19526412 0.016639162 -0.06734173 0.01107869 0.090248264 -0.029349804 0.0453424 0.024228001 0.107976 -0.06671659 0.010267119 -0.122964785 0.070062645 0.05954252 0.0255141 -0.077406645 -0.028634902 0.09452931 -0.015835518 0.09841832 -0.04203211 -0.014418923 0.037693474 0.03646412 0.054690428 0.03566442 0.088236585 0.011361605
Conservative -0.5271757 0.8259782 -0.3729566 0.62675273 -0.31109422 -0.35387996 -0.63611835 0.6882682 -0.011736145 0.19045435 0.22871171 -0.03667922 0.3005262 0.41589436 0.17453979 0.4914435 -0.043036837 0.2781535 0.07791264 -0.11027757 0.22394866 0.026992425 0.043655116 -0.04341588 -0.007972617 -0.25391504 -0.07853851 -0.39319676 0.076928966 -0.4728696 0.0564585 0.06418177 0.14863628 0.10573167 -0.30112186 0.013707923 -0.10163198 -0.099960156 0.408964 -0.29831323
Constantine 0.25479153 -0.65276873 -0.907741 1.525264 0.29755136 0.34647182 0.6587289 0.7935193 0.39154607 0.89936715 0.5885331 1.1180102 -1.7803314 0.55018365 0.19656894 -0.20811702 -0.4224125 0.23078322 -0.373308 0.017713003 -0.07373598 -0.13309047 -0.20522569 -0.11094467 0.78589904 -0.09187211 0.25735357 0.095507525 -0.21909562 -1.0880822 0.09631408 -0.21894088 -0.5601495 0.22433797 -0.39490688 -1.0491529 0.10295568 0.5484816 -0.27167368 0.34007397
Continent -1.3822294 -0.15869124 0.32257476 0.19563693 -0.052868888 0.14280713 0.101970755 -0.09553096 -0.18807459 0.12729235 0.074794754 0.08618895 0.03688401 0.106528424 -0.0078289425 -0.050534334 -0.073505424 -0.02258598 -0.014512109 -0.030165762 0.051418796 -0.03776673 -0.04674485 0.03047189 0.012222194 0.00032026318 -0.0018392236 0.022001501 0.1052362 -0.07277939 -0.14986625 0.019223008 0.020976525 -0.056243487 -0.0398925 0.03427075 -0.058789786 0.046376273 0.04395395 0.040715367
Contopus -1.3751304 -0.0049950234 0.017206354 0.19640554 -0.025614293 0.16061279 0.011016035 -0.12688725 -0.08460988 0.07935825 -0.040010117 -0.0077741253 -0.21446237 0.04448534 0.009754576 0.040564533 -0.011004123 0.021958854 -0.05615328 -0.002591008 0.04671426 -0.056274742 -0.016880622 -0.04981917 -0.016825836 0.0709443 0.005064474 -0.078003064 0.037231803 0.02902873 -0.107701965 0.018901832 -0.029170452 0.006109465 0.032290835 -0.036087263 -0.026850145 0.050530713 -0.01461584 0.10914207
