15000 10
10-membered -0.28563628 -0.021898251 -0.0016968817 -0.016595548 -0.0059531126 -0.0145095065 -0.008066784 -0.009563004 -0.0051689344 0.00072866026
Acocanthera_venenata -0.19857514 -0.01958569 0.046634506 0.57882494 0.062425435 -0.16712679 0.6446758 -0.30391765 0.09400018 -0.12731706
American -0.05099675 0.70217806 -0.003540105 -0.021664474 -0.01030306 -0.116169445 0.007558926 -0.031414375 0.021986913 0.053872094
Anaprox -0.28618097 -0.022210008 -0.001702824 -0.017063359 -0.0061618984 -0.014946036 -0.0083342 -0.009831343 -0.0053391927 0.0007498261
Anastatica -0.28563407 -0.021894379 -0.001661538 -0.016584678 -0.0059585366 -0.014451723 -0.008019845 -0.009450295 -0.0050944597 0.00071282167
Aqua-Lung -0.2858168 -0.021999 -0.0016742828 -0.016740164 -0.0060229106 -0.0146099515 -0.008120374 -0.009566021 -0.0051683667 0.0007239303
Aquitania -0.28563407 -0.021894382 -0.0016614415 -0.016583808 -0.0059610256 -0.014449697 -0.008021731 -0.009445636 -0.0050881007 0.000712085
Arab_League -0.28563407 -0.021894382 -0.0016614079 -0.016583612 -0.005963339 -0.014449912 -0.008026285 -0.009444963 -0.0050933696 0.0007099677
Arafat -0.28563407 -0.021894384 -0.0016614937 -0.016583119 -0.005965269 -0.014449642 -0.008030126 -0.009442957 -0.005097763 0.00072052976
Armed_Islamic_Group -0.28563407 -0.021894384 -0.0016614647 -0.016583545 -0.0059618587 -0.01444981 -0.00802301 -0.009445133 -0.005090697 0.00071827794
Arnold_Schonberg -0.28563407 -0.021894384 -0.001661491 -0.016583962 -0.0059614065 -0.014448844 -0.008023346 -0.009442696 -0.005092722 0.0007050272
Arnold_Toynbee -0.28563407 -0.021894384 -0.0016614681 -0.016583856 -0.0059616854 -0.014448961 -0.008023555 -0.009442858 -0.005093193 0.0007123615
Arnoseris_minima -0.2323545 0.061048996 0.017877307 0.66802776 0.5058563 0.0357864 -0.47827578 0.10377176 0.018925443 0.0038431769
Ascomycotina 0.3297763 -0.05103405 -0.077883124 0.018745614 -0.07118291 0.0854074 -0.03497844 0.010793715 0.13190794 -0.049882207
Asio_otus -0.016310133 0.028228976 0.065231025 0.01039984 -0.018975558 0.078357786 0.02068062 0.09142793 0.031256154 0.05454434
BA -0.28563407 -0.021894384 -0.0016614689 -0.01658379 -0.005961635 -0.014449348 -0.008023404 -0.009443941 -0.005092006 0.00071138924
Bahrein -0.28563407 -0.021894384 -0.0016614677 -0.016583791 -0.0059616254 -0.014449323 -0.0080233775 -0.009443831 -0.005092182 0.0007114147
Bath -0.28563407 -0.021894384 -0.00166147 -0.016583785 -0.005961617 -0.014449342 -0.00802344 -0.009443794 -0.005092244 0.00071131747
Batidaceae -0.28563407 -0.021894384 -0.00166147 -0.016583787 -0.0059616207 -0.014449361 -0.008023438 -0.009443881 -0.0050920653 0.00071120536
Battle_of_Bull_Run -0.28563407 -0.021894384 -0.0016614699 -0.016583787 -0.005961623 -0.014449365 -0.008023432 -0.009443914 -0.005092008 0.00071119255
Battle_of_Midway -0.28563407 -0.021894384 -0.0016614699 -0.016583787 -0.005961623 -0.014449365 -0.008023432 -0.009443912 -0.005092011 0.0007111938
Battle_of_Wake -0.28563407 -0.021894384 -0.0016614699 -0.016583787 -0.005961623 -0.014449365 -0.008023432 -0.009443912 -0.005092011 0.0007111938
Bavaria -0.28563407 -0.021894384 -0.0016614699 -0.016583787 -0.005961623 -0.014449365 -0.008023432 -0.009443912 -0.005092011 0.0007111938
Bay_of_Campeche -0.28563407 -0.021894384 -0.0016614699 -0.016583787 -0.005961623 -0.014449365 -0.008023432 -0.009443912 -0.005092011 0.0007111938
Bay_of_Naples -0.28563407 -0.021894384 -0.0016614699 -0.016583787 -0.005961623 -0.014449365 -0.008023432 -0.009443912 -0.005092011 0.0007111938
Baycol -0.28563407 -0.021894384 -0.0016614699 -0.016583787 -0.005961623 -0.014449365 -0.008023432 -0.009443912 -0.0050920104 0.0007111931
Bayesian -0.28563407 -0.021894384 -0.00166147 -0.016583787 -0.005961623 -0.014449365 -0.0080234315 -0.009443912 -0.00509201 0.000711196
Baykal -0.28563407 -0.021894384 -0.00166147 -0.016583787 -0.005961623 -0.014449365 -0.0080234315 -0.009443912 -0.00509201 0.000711196
Beaufort_scale 0.53937733 -0.06730209 0.047920838 0.029118063 -0.06465173 -0.059130125 -0.07038495 -0.13817899 -0.13750273 0.032889698
Beaumont -0.28563407 -0.021894384 -0.00166147 -0.016583787 -0.005961623 -0.014449365 -0.0080234315 -0.009443912 -0.00509201 0.000711196
Beethoven 0.47258088 -0.060434382 -0.049639948 -0.04103621 0.062490057 0.019594615 -0.008830729 0.010325187 -0.12640974 -0.12637144
Begonia_heracleifolia -0.14839023 -0.023020962 0.040547952 0.08209235 0.01552122 0.057335407 0.07976681 -0.015727077 0.23155788 -0.004673997
Begonia_socotrana -0.1483902 -0.023020957 0.04054798 0.08209234 0.015521211 0.05733541 0.07976681 -0.015727052 0.23155786 -0.004674001
Begonia_tuberhybrida -0.28563407 -0.021894384 -0.00166147 -0.016583787 -0.005961623 -0.014449365 -0.0080234315 -0.009443912 -0.00509201 0.000711196
Begoniaceae -0.28563407 -0.021894384 -0.00166147 -0.016583787 -0.005961623 -0.014449365 -0.0080234315 -0.009443912 -0.00509201 0.000711196
Belgian_capital -0.28563407 -0.021894384 -0.00166147 -0.016583787 -0.005961623 -0.014449365 -0.0080234315 -0.009443912 -0.00509201 0.000711196
Belgian_hare 0.23705699 0.17209886 0.034010936 0.07163122 -0.13772972 0.0845843 0.015739402 0.05904065 -0.056159537 -0.069328174
Belgian -0.13418494 0.5677889 -0.002986357 -0.02602186 -0.0027683962 -0.106661186 -0.0019228344 -0.04047522 0.014632649 0.04271083
Bell -0.28563407 -0.021894384 -0.00166147 -0.016583787 -0.005961623 -0.014449365 -0.0080234315 -0.009443912 -0.00509201 0.000711196
Belle_Isle_cress -0.28563407 -0.021894384 -0.00166147 -0.016583787 -0.005961623 -0.014449365 -0.0080234315 -0.009443912 -0.00509201 0.000711196
Bemisia -0.28563407 -0.021894384 -0.00166147 -0.016583787 -0.005961623 -0.014449365 -0.0080234315 -0.009443912 -0.00509201 0.000711196
Benadryl -0.28563407 -0.021894384 -0.00166147 -0.016583787 -0.005961623 -0.014449365 -0.0080234315 -0.009443912 -0.00509201 0.000711196
Benjamin_Henry_Latrobe -0.28563407 -0.021894384 -0.00166147 -0.016583787 -0.005961623 -0.014449365 -0.0080234315 -0.009443912 -0.00509201 0.000711196
Benjamin_Shahn -0.28563407 -0.021894384 -0.00166147 -0.016583787 -0.005961623 -0.014449365 -0.0080234315 -0.009443912 -0.00509201 0.000711196
Benny_Hill -0.28563407 -0.021894384 -0.00166147 -0.016583787 -0.005961623 -0.014449365 -0.0080234315 -0.009443912 -0.00509201 0.000711196
Bering_Standard_Time 0.25669256 0.009985233 -0.03869538 -0.08885622 0.17916256 0.084313974 0.08568483 -0.020857243 0.107524306 0.02421136
Berkshire_Hills -0.28563407 -0.021894384 -0.00166147 -0.016583787 -0.005961623 -0.014449365 -0.0080234315 -0.009443912 -0.00509201 0.000711196
Berkshire -0.28563407 -0.021894384 -0.00166147 -0.016583787 -0.005961623 -0.014449365 -0.0080234315 -0.009443912 -0.00509201 0.000711196
Berlin_airlift -0.28563407 -0.021894384 -0.00166147 -0.016583787 -0.005961623 -0.014449365 -0.0080234315 -0.009443912 -0.00509201 0.000711196
Bermuda_plan -0.28563407 -0.021894384 -0.00166147 -0.016583787 -0.005961623 -0.014449365 -0.0080234315 -0.009443912 -0.00509201 0.000711196
Bermuda_shorts -0.28563407 -0.021894384 -0.00166147 -0.016583787 -0.005961623 -0.014449365 -0.0080234315 -0.009443912 -0.00509201 0.000711196
Bernese_mountain_dog -0.28563407 -0.021894384 -0.00166147 -0.016583787 -0.005961623 -0.014449365 -0.0080234315 -0.009443912 -0.00509201 0.000711196
Bernstein -0.28563407 -0.021894384 -0.00166147 -0.016583787 -0.005961623 -0.014449365 -0.0080234315 -0.009443912 -0.00509201 0.000711196
Bertillon -0.28563407 -0.021894384 -0.00166147 -0.016583787 -0.005961623 -0.014449365 -0.0080234315 -0.009443912 -0.00509201 0.000711196
Betelgeuse -0.28563407 -0.021894384 -0.00166147 -0.016583787 -0.005961623 -0.014449365 -0.0080234315 -0.009443912 -0.00509201 0.000711196
Bethe -0.28563407 -0.021894384 -0.00166147 -0.016583787 -0.005961623 -0.014449365 -0.0080234315 -0.009443912 -0.00509201 0.000711196
Betula_nigra -0.28581682 -0.021999005 -0.0016742566 -0.016740048 -0.006024396 -0.0146108875 -0.008123508 -0.009569154 -0.0051701083 0.0007224435
Beverly_Sills -0.28581682 -0.021999005 -0.0016742568 -0.016740045 -0.0060244063 -0.014610886 -0.008123517 -0.009569129 -0.005170092 0.0007224355
Biblical_Aramaic -0.28563407 -0.021894384 -0.00166147 -0.016583787 -0.005961623 -0.014449365 -0.0080234315 -0.009443912 -0.00509201 0.000711196
Bidens -0.28563407 -0.021894384 -0.00166147 -0.016583787 -0.005961623 -0.014449365 -0.0080234315 -0.009443912 -0.00509201 0.000711196
Bidens_trichosperma -0.28563407 -0.021894384 -0.00166147 -0.016583787 -0.005961623 -0.014449365 -0.0080234315 -0.009443912 -0.00509201 0.000711196
Big_Blue 0.25399795 -0.00613988 0.051943317 0.08314807 -0.19084117 -0.0026330065 -0.009285064 0.15065794 -0.093491055 -0.07971314
Bihar -0.28563407 -0.021894384 -0.00166147 -0.016583787 -0.005961623 -0.014449365 -0.0080234315 -0.009443912 -0.00509201 0.000711196
Bill_Clinton -0.28599903 -0.022104174 -0.001687237 -0.016898602 -0.0060881837 -0.014775344 -0.008225623 -0.009697154 -0.0052502775 0.00073396834
Bill_Gates -0.28563407 -0.021894384 -0.00166147 -0.016583787 -0.005961623 -0.014449365 -0.0080234315 -0.009443912 -0.00509201 0.000711196
Black_Africa -0.28563407 -0.021894384 -0.00166147 -0.016583787 -0.005961623 -0.014449365 -0.0080234315 -0.009443912 -0.00509201 0.000711196
Blackpool -0.28563407 -0.021894384 -0.00166147 -0.016583787 -0.005961623 -0.014449365 -0.0080234315 -0.009443912 -0.00509201 0.000711196
Blarina -0.28563407 -0.021894384 -0.00166147 -0.016583787 -0.005961623 -0.014449365 -0.0080234315 -0.009443912 -0.00509201 0.000711196
Blennius -0.28563407 -0.021894384 -0.00166147 -0.016583787 -0.005961623 -0.014449365 -0.0080234315 -0.009443912 -0.00509201 0.000711196
Blue_Ridge_Mountains -0.28563407 -0.021894384 -0.00166147 -0.016583787 -0.005961623 -0.014449365 -0.0080234315 -0.009443912 -0.005092009 0.00071119575
Bluebeard -0.28563407 -0.021894384 -0.00166147 -0.016583787 -0.005961623 -0.014449365 -0.0080234315 -0.009443912 -0.005092009 0.00071119575
Bluegrass -0.28563407 -0.021894384 -0.00166147 -0.016583787 -0.005961623 -0.014449365 -0.0080234315 -0.009443912 -0.005092009 0.00071119575
Bob_Woodward -0.28563407 -0.021894384 -0.00166147 -0.016583787 -0.005961623 -0.014449365 -0.0080234315 -0.009443912 -0.005092009 0.00071119575
Boche -0.28653634 -0.022419535 -0.001726478 -0.017383099 -0.0062840832 -0.015281574 -0.008541654 -0.010094534 -0.0055013797 0.0007700554
Bodhisattva -0.28563407 -0.021894384 -0.00166147 -0.016583787 -0.005961623 -0.014449365 -0.0080234315 -0.009443912 -0.005092009 0.00071119575
Bodoni 0.16958167 0.71829987 0.03803639 -0.054108113 0.030132446 -0.08137509 0.008585033 -0.063467875 0.0065569915 0.033620737
Boehmenism -0.28563407 -0.021894384 -0.00166147 -0.016583787 -0.005961623 -0.014449365 -0.0080234315 -0.009443912 -0.00509201 0.000711196
Boell -0.28581682 -0.021999005 -0.001674257 -0.01674005 -0.00602438 -0.014610887 -0.008123478 -0.009569144 -0.0051701013 0.0007224443
Bolanci -0.28563407 -0.021894384 -0.00166147 -0.016583787 -0.005961623 -0.014449365 -0.0080234315 -0.009443912 -0.005092009 0.00071119575
Boletus_variipes -0.28563407 -0.021894384 -0.00166147 -0.016583787 -0.005961623 -0.014449365 -0.0080234315 -0.009443912 -0.00509201 0.000711196
Bolshevistic -0.28563407 -0.021894384 -0.00166147 -0.016583787 -0.005961623 -0.014449365 -0.0080234315 -0.009443912 -0.005092009 0.00071119575
Boltonia -0.28563407 -0.021894384 -0.00166147 -0.016583787 -0.005961623 -0.014449365 -0.0080234315 -0.009443912 -0.00509201 0.000711196
Boltzmann -0.28563407 -0.021894384 -0.00166147 -0.016583787 -0.005961623 -0.014449365 -0.0080234315 -0.009443912 -0.005092009 0.00071119575
Bombax_malabarica 0.25698215 -0.014790197 0.046409458 0.1584569 -0.07440324 -0.045818646 0.15446061 0.13477379 0.0050859335 0.49774536
Bombax -0.28563407 -0.021894384 -0.00166147 -0.016583787 -0.005961623 -0.014449365 -0.0080234315 -0.009443912 -0.005092009 0.00071119575
Boniface_VIII -0.28563407 -0.021894384 -0.00166147 -0.016583787 -0.005961623 -0.014449365 -0.0080234315 -0.009443912 -0.005092009 0.00071119575
Bontemps -0.28563407 -0.021894384 -0.00166147 -0.016583787 -0.005961623 -0.014449365 -0.0080234315 -0.009443912 -0.005092009 0.00071119575
Book_of_Baruch -0.28563407 -0.021894384 -0.00166147 -0.016583787 -0.005961623 -0.014449365 -0.0080234315 -0.009443912 -0.005092009 0.00071119575
Book_of_Haggai -0.28563407 -0.021894384 -0.00166147 -0.016583787 -0.005961623 -0.014449365 -0.0080234315 -0.009443912 -0.005092009 0.00071119575
Book_of_Jeremiah -0.28563407 -0.021894384 -0.00166147 -0.016583787 -0.005961623 -0.014449365 -0.0080234315 -0.009443912 -0.005092009 0.00071119575
Book_of_Jonah -0.28581682 -0.021999005 -0.0016742572 -0.01674005 -0.00602438 -0.014610887 -0.008123476 -0.009569144 -0.0051701013 0.00072244334
Book_of_Judith -0.28563407 -0.021894384 -0.00166147 -0.016583787 -0.005961623 -0.014449365 -0.0080234315 -0.009443912 -0.005092009 0.00071119575
Book_of_Psalms 0.31356156 -0.057957523 -0.14212012 0.0024833116 0.12405429 -0.01746521 0.08014792 0.11477276 -0.14851189 0.0710351
Boolean_logic -0.28563407 -0.021894384 -0.00166147 -0.016583787 -0.005961623 -0.014449365 -0.0080234315 -0.009443912 -0.005092009 0.00071119575
Borago_officinalis -0.2323545 0.061049003 0.017877279 0.6680279 0.5058563 0.03578631 -0.47827584 0.10377101 0.018926807 0.0038417624
Borago -0.28563407 -0.021894384 -0.00166147 -0.016583787 -0.005961623 -0.014449365 -0.0080234315 -0.009443912 -0.005092009 0.00071119575
Borassus_flabellifer -0.28563407 -0.021894384 -0.00166147 -0.016583787 -0.005961623 -0.014449365 -0.0080234315 -0.009443912 -0.005092009 0.00071119575
Border_terrier -0.28563407 -0.021894384 -0.00166147 -0.016583787 -0.005961623 -0.014449365 -0.0080234315 -0.009443912 -0.005092009 0.00071119575
Borrelia_burgdorferi -0.28563407 -0.021894384 -0.00166147 -0.016583787 -0.005961623 -0.014449365 -0.0080234315 -0.009443912 -0.005092009 0.00071119575
Bosnia_and_Herzegovina -0.28563407 -0.021894384 -0.00166147 -0.016583787 -0.005961623 -0.014449365 -0.0080234315 -0.009443912 -0.005092009 0.00071119575
Boston_cream_pie 0.35175365 -0.0014169076 0.12849063 0.14643507 -0.2519588 0.092815526 -0.059045147 -0.025778068 -0.13961355 -0.06770546
Boswellia -0.28563407 -0.021894384 -0.00166147 -0.016583787 -0.005961623 -0.014449365 -0.0080234315 -0.009443912 -0.005092009 0.00071119575
Botrychium_matricariifolium -0.28563407 -0.021894384 -0.00166147 -0.016583787 -0.005961623 -0.014449365 -0.0080234315 -0.009443912 -0.005092009 0.00071119575
Bourgogne -0.28563407 -0.021894384 -0.00166147 -0.016583787 -0.005961623 -0.014449365 -0.0080234315 -0.009443912 -0.005092009 0.00071119575
Bowditch -0.28563407 -0.021894384 -0.00166147 -0.016583787 -0.005961623 -0.014449365 -0.0080234315 -0.009443912 -0.005092009 0.00071119575
Boy_Orator_of_the_Platte -0.28563407 -0.021894384 -0.00166147 -0.016583787 -0.005961623 -0.014449365 -0.0080234315 -0.009443912 -0.005092009 0.00071119575
Boyne -0.28563407 -0.021894384 -0.00166147 -0.016583787 -0.005961623 -0.014449365 -0.0080234315 -0.009443912 -0.005092009 0.00071119575
Bradbury -0.28563407 -0.021894384 -0.00166147 -0.016583787 -0.005961623 -0.014449365 -0.0080234315 -0.009443912 -0.005092009 0.00071119575
Bradley_method_of_childbirth -0.28563407 -0.021894384 -0.00166147 -0.016583787 -0.005961623 -0.014449365 -0.0080234315 -0.009443912 -0.005092009 0.00071119575
Braga -0.28563407 -0.021894384 -0.00166147 -0.016583787 -0.005961623 -0.014449365 -0.0080234315 -0.009443912 -0.005092009 0.00071119575
Bram_Stoker -0.28563407 -0.021894384 -0.00166147 -0.016583787 -0.005961623 -0.014449365 -0.0080234315 -0.009443912 -0.005092009 0.00071119575
Branchiobdella -0.28563407 -0.021894384 -0.00166147 -0.016583787 -0.005961623 -0.014449365 -0.0080234315 -0.009443912 -0.005092009 0.00071119575
Branchiostomidae -0.28563407 -0.021894384 -0.00166147 -0.016583787 -0.005961623 -0.014449365 -0.0080234315 -0.009443912 -0.005092009 0.00071119575
Branta_bernicla -0.28563407 -0.021894384 -0.00166147 -0.016583787 -0.005961623 -0.014449365 -0.0080234315 -0.009443912 -0.005092009 0.00071119575
Branta_leucopsis -0.28563407 -0.021894384 -0.00166147 -0.016583787 -0.005961623 -0.014449365 -0.0080234315 -0.009443912 -0.005092009 0.00071119575
Braque -0.28563407 -0.021894384 -0.00166147 -0.016583787 -0.005961623 -0.014449365 -0.0080234315 -0.009443912 -0.005092009 0.00071119575
Brasil -0.28581682 -0.021999005 -0.0016742566 -0.016740046 -0.0060244002 -0.014610885 -0.008123505 -0.009569135 -0.005170075 0.0007224346
Brassica -0.28563407 -0.021894384 -0.00166147 -0.016583787 -0.005961623 -0.014449365 -0.0080234315 -0.009443912 -0.005092009 0.00071119575
Brazil -0.28581682 -0.021999005 -0.0016742566 -0.016740046 -0.0060244002 -0.014610885 -0.008123505 -0.009569135 -0.005170075 0.0007224346
Brazos -0.28563407 -0.021894384 -0.00166147 -0.016583787 -0.005961623 -0.014449365 -0.0080234315 -0.009443912 -0.005092009 0.00071119575
Bremen -0.28563407 -0.021894384 -0.00166147 -0.016583787 -0.005961623 -0.014449365 -0.0080234315 -0.009443912 -0.005092009 0.00071119575
Bremerhaven -0.28563407 -0.021894384 -0.00166147 -0.016583787 -0.005961623 -0.014449365 -0.0080234315 -0.009443912 -0.005092009 0.00071119575
Brisbane -0.28563407 -0.021894384 -0.00166147 -0.016583787 -0.005961623 -0.014449365 -0.0080234315 -0.009443912 -0.005092009 0.00071119575
Brownian_motion 0.5101335 -0.12168082 0.16960244 -0.0691537 0.019309677 -0.11596392 -0.056136966 -0.0159504 0.07929677 -0.098084174
Brownian_movement 0.51013345 -0.121680826 0.16960244 -0.06915371 0.019309629 -0.11596388 -0.05613701 -0.01595034 0.079296745 -0.09808419
Bruckner -0.28563407 -0.021894384 -0.00166147 -0.016583787 -0.005961623 -0.014449365 -0.0080234315 -0.009443912 -0.005092009 0.00071119575
Brugmansia_arborea -0.19857511 -0.019585539 0.046635944 0.5788191 0.062423177 -0.16712216 0.64467674 -0.30391413 0.09400215 -0.12731762
Brumaire -0.28563407 -0.021894384 -0.00166147 -0.016583787 -0.005961623 -0.014449365 -0.0080234315 -0.009443912 -0.005092009 0.00071119575
Bruno -0.28563407 -0.021894384 -0.00166147 -0.016583787 -0.005961623 -0.014449365 -0.0080234315 -0.009443912 -0.005092009 0.00071119575
Brussels_biscuit 0.40323663 -0.04746781 0.15429118 0.024592446 0.04398137 0.040751204 -1.670017e-05 -0.010614512 -0.07205457 0.092602745
Brussels_lace 0.4374314 -0.07496009 0.12217399 0.10526987 -0.07769771 -0.085998975 0.04943616 -0.030745588 -0.09765767 -0.20621301
Bryonia_dioica -0.28581682 -0.021999005 -0.0016742568 -0.01674005 -0.006024375 -0.014610882 -0.008123467 -0.009569149 -0.00517009 0.00072243845
Bucconidae -0.1881908 0.02319092 -0.11304408 0.04791475 -0.12613396 -0.012648252 -0.07668129 0.009493449 0.13816078 -0.03481139
Buchloe_dactyloides 0.41512662 -0.045755003 0.12741776 0.053733803 -0.06822665 0.02676942 -0.0022592882 -0.04749307 -0.12593345 0.10728812
Buckleya_distichophylla -0.28563407 -0.021894384 -0.0016614699 -0.016583787 -0.005961623 -0.014449365 -0.008023431 -0.009443913 -0.005092007 0.00071120204
Bull_Moose_Party 0.40367097 0.3646119 -0.058072947 0.004278974 -0.056747664 -0.13842002 -0.04941294 -0.057595767 0.032618504 -0.09223878
Bultmann -0.28563407 -0.021894384 -0.0016614699 -0.016583787 -0.005961623 -0.014449365 -0.008023431 -0.009443913 -0.005092007 0.00071120204
Bunche -0.28563407 -0.021894384 -0.0016614699 -0.016583787 -0.005961623 -0.014449365 -0.008023431 -0.009443913 -0.005092008 0.0007112023
Burbage -0.28563407 -0.021894384 -0.0016614699 -0.016583787 -0.005961623 -0.014449365 -0.008023431 -0.009443913 -0.005092008 0.0007112023
Burbank -0.28581682 -0.021999005 -0.0016742568 -0.016740045 -0.0060244063 -0.014610886 -0.008123517 -0.00956913 -0.0051700915 0.00072243635
Burger -0.28563407 -0.021894384 -0.0016614699 -0.016583787 -0.005961623 -0.014449365 -0.008023431 -0.009443913 -0.005092008 0.0007112023
Burrill_Bernard_Crohn -0.28563407 -0.021894384 -0.0016614699 -0.016583787 -0.005961623 -0.014449365 -0.008023431 -0.009443913 -0.005092008 0.0007112023
Bushman -0.28654125 -0.022422403 -0.0017268186 -0.017387435 -0.0062858523 -0.015286075 -0.00854448 -0.010098011 -0.0055035995 0.0007703763
Buster_Keaton -0.28581682 -0.021999005 -0.0016742568 -0.016740045 -0.0060244063 -0.014610887 -0.008123516 -0.00956913 -0.005170089 0.00072244304
Butler -0.28563407 -0.021894384 -0.0016614699 -0.016583787 -0.005961623 -0.014449365 -0.008023431 -0.009443913 -0.005092008 0.0007112023
CAT_scanner -0.28563407 -0.021894384 -0.0016614699 -0.016583787 -0.005961623 -0.014449365 -0.008023431 -0.009443913 -0.005092008 0.0007112023
CD4_cell -0.28563407 -0.021894384 -0.0016614699 -0.016583787 -0.005961623 -0.014449365 -0.008023431 -0.009443913 -0.005092008 0.0007112023
CDC 0.35685927 -0.05487473 -0.28009728 -0.025490828 -0.0057537854 0.046566315 0.009140246 0.05862977 0.048797436 -0.059196297
CD 0.2506581 -0.034845524 -0.13003737 -0.01936703 0.05651793 0.08349222 0.04560299 0.10162724 -0.10694432 -0.005981844
CFO -0.28563407 -0.021894384 -0.0016614699 -0.016583787 -0.005961623 -0.014449365 -0.008023431 -0.009443913 -0.005092008 0.0007112023
CMBR -0.28563407 -0.021894384 -0.0016614699 -0.016583787 -0.005961623 -0.014449365 -0.008023431 -0.009443913 -0.005092008 0.0007112023
CNPZ -0.28581682 -0.021999005 -0.0016742568 -0.016740045 -0.0060244063 -0.014610886 -0.008123517 -0.00956913 -0.0051700915 0.0007224362
CN_Tower -0.28563407 -0.021894384 -0.0016614699 -0.016583787 -0.005961623 -0.014449365 -0.008023431 -0.009443913 -0.005092008 0.0007112023
CST 0.25669253 0.00998524 -0.038695395 -0.0888562 0.17916258 0.08431397 0.085684836 -0.020857219 0.10752427 0.024211321
CS_gas -0.28563407 -0.021894384 -0.0016614699 -0.016583787 -0.005961623 -0.014449365 -0.008023431 -0.009443913 -0.005092008 0.0007112023
C_and_W -0.28563407 -0.021894384 -0.0016614699 -0.016583787 -0.005961623 -0.014449365 -0.008023431 -0.009443913 -0.005092008 0.0007112023
C_horizon -0.28563407 -0.021894384 -0.0016614699 -0.016583787 -0.005961623 -0.014449365 -0.008023431 -0.009443913 -0.005092008 0.0007112023
C 0.07765479 0.012674668 0.023695225 0.038836554 -0.03692413 0.18983103 0.025726382 0.034802146 -0.038288236 0.015638497
Ca 0.2081831 -0.023699813 -0.016421368 0.13956575 -0.22664376 0.122609876 -0.04790677 -0.013452133 -0.14754276 -0.04387573
Cadra_cautella -0.28563407 -0.021894384 -0.0016614699 -0.016583787 -0.005961623 -0.014449365 -0.008023431 -0.009443913 -0.005092008 0.0007112023
Cadra -0.28563407 -0.021894384 -0.0016614699 -0.016583787 -0.005961623 -0.014449365 -0.008023431 -0.009443913 -0.005092008 0.0007112023
Caenolestidae -0.28563407 -0.021894384 -0.0016614699 -0.016583787 -0.005961623 -0.014449365 -0.008023431 -0.009443913 -0.005092008 0.0007112023
Caesalpinia -0.28563407 -0.021894384 -0.0016614699 -0.016583787 -0.005961623 -0.014449365 -0.008023431 -0.009443913 -0.005092008 0.0007112023
Caesalpiniaceae -0.28563407 -0.021894384 -0.0016614699 -0.016583787 -0.005961623 -0.014449365 -0.008023431 -0.009443914 -0.005092008 0.00071120256
Cajanus_cajan -0.19857515 -0.019585544 0.04663592 0.5788191 0.06242317 -0.16712219 0.64467674 -0.30391416 0.094002165 -0.12731765
Calamagrostis_acutiflora 0.0024382498 -0.030441722 0.110775836 0.040581554 -0.046740208 0.06824499 0.048419703 0.066798694 -0.055832032 0.097365335
Calamintha -0.28563407 -0.021894384 -0.0016614699 -0.016583787 -0.005961623 -0.014449365 -0.008023431 -0.009443914 -0.005092008 0.00071120256
Caledonia -0.28563407 -0.021894384 -0.0016614699 -0.016583787 -0.005961623 -0.014449365 -0.008023431 -0.009443914 -0.005092008 0.00071120256
Cali -0.28563407 -0.021894384 -0.0016614699 -0.016583787 -0.005961623 -0.014449365 -0.008023431 -0.009443914 -0.005092008 0.00071120256
California_dandelion -0.28581682 -0.021999005 -0.0016742568 -0.016740045 -0.0060244063 -0.014610886 -0.008123517 -0.009569129 -0.005170092 0.0007224355
California_quail -0.28563407 -0.021894384 -0.0016614699 -0.016583787 -0.005961623 -0.014449365 -0.008023431 -0.009443914 -0.005092008 0.00071120256
California_redbud -0.19857515 -0.01958554 0.04663592 0.5788191 0.06242315 -0.16712219 0.6446767 -0.30391416 0.0940021 -0.12731765
California_single-leaf_pinyon -0.28563407 -0.021894384 -0.0016614699 -0.016583787 -0.005961623 -0.014449365 -0.008023431 -0.009443914 -0.005092008 0.00071120256
California_tree_poppy -0.15336211 -0.013977819 0.07193396 0.58249795 0.16384424 -0.06047109 0.3850832 -0.16819568 0.160086 -0.115935855
California_whipsnake -0.28563407 -0.021894384 -0.0016614699 -0.016583787 -0.005961623 -0.014449365 -0.008023431 -0.009443914 -0.005092008 0.00071120256
Caligula -0.28563407 -0.021894384 -0.0016614699 -0.016583787 -0.005961623 -0.014449365 -0.008023431 -0.009443914 -0.005092008 0.00071120256
Caliphate_State -0.28563407 -0.021894384 -0.0016614699 -0.016583787 -0.005961623 -0.014449365 -0.008023431 -0.009443914 -0.005092008 0.00071120256
Calixtus_III -0.28563407 -0.021894384 -0.0016614699 -0.016583787 -0.005961623 -0.014449365 -0.008023431 -0.009443914 -0.005092008 0.00071120256
Calliphoridae -0.28563407 -0.021894384 -0.0016614699 -0.016583787 -0.005961623 -0.014449365 -0.008023431 -0.009443914 -0.005092008 0.00071120256
Caloosahatchee -0.28563407 -0.021894384 -0.0016614699 -0.016583787 -0.005961623 -0.014449365 -0.008023431 -0.009443914 -0.005092008 0.00071120256
Calostoma_lutescens -0.28563407 -0.021894384 -0.0016614699 -0.016583787 -0.005961623 -0.014449365 -0.008023431 -0.009443914 -0.005092008 0.00071120256
Calostomataceae -0.28563407 -0.021894384 -0.0016614699 -0.016583787 -0.005961623 -0.014449365 -0.008023431 -0.009443914 -0.005092008 0.00071120256
Calycophyllum_candidissimum 0.25698224 -0.014790197 0.046409443 0.1584569 -0.074403256 -0.045818653 0.15446055 0.13477375 0.0050858436 0.4977453
Calycophyllum -0.28563407 -0.021894384 -0.0016614699 -0.016583787 -0.005961623 -0.014449365 -0.008023431 -0.0094439145 -0.0050920066 0.00071120216
Calymmatobacterium -0.28581682 -0.021999005 -0.0016742576 -0.016740046 -0.006024385 -0.014610869 -0.008123472 -0.009569132 -0.0051700757 0.0007224354
Cambria -0.28576612 -0.017355012 -0.0017400836 -0.016940707 -0.0060481955 -0.016398078 -0.008072168 -0.010314318 -0.0047659925 0.0018580094
Cambrian -0.2033601 0.35791713 -0.0023698837 -0.022106932 0.002602029 -0.06941236 -0.009683146 -0.03347439 0.004105981 0.023263903
Cambridge -0.28563407 -0.021894384 -0.0016614699 -0.016583787 -0.005961623 -0.014449365 -0.008023431 -0.0094439145 -0.0050920066 0.00071120216
Camellia_japonica -0.28563407 -0.021894384 -0.0016614699 -0.016583787 -0.005961623 -0.014449365 -0.008023431 -0.009443914 -0.005092008 0.00071120256
Cameroon_franc -0.28563407 -0.021894384 -0.0016614699 -0.016583787 -0.005961623 -0.014449365 -0.008023431 -0.0094439145 -0.0050920066 0.00071120216
Camlan -0.28563407 -0.021894384 -0.0016614699 -0.016583787 -0.005961623 -0.014449365 -0.008023431 -0.009443914 -0.005092008 0.00071120256
Campanula_americana -0.28563407 -0.021894384 -0.0016614699 -0.016583787 -0.005961623 -0.014449365 -0.008023431 -0.009443914 -0.005092008 0.00071120256
Campanulales -0.28563407 -0.021894384 -0.0016614699 -0.016583787 -0.005961623 -0.014449365 -0.008023431 -0.009443914 -0.005092008 0.00071120256
Campeche -0.28563407 -0.021894384 -0.0016614699 -0.016583787 -0.005961623 -0.014449365 -0.008023431 -0.009443914 -0.005092008 0.00071120256
Campephilus_principalis -0.28563407 -0.021894384 -0.0016614699 -0.016583787 -0.005961623 -0.014449365 -0.008023431 -0.009443914 -0.005092008 0.00071120256
Campyloneurum_augustifolium -0.28581682 -0.021999005 -0.0016742571 -0.016740046 -0.006024375 -0.014610885 -0.008123465 -0.0095691485 -0.0051700915 0.00072244456
Campylorhynchus -0.28581682 -0.021999005 -0.0016742576 -0.016740046 -0.006024385 -0.014610869 -0.008123472 -0.009569132 -0.0051700757 0.0007224354
Canaan -0.28563407 -0.021894384 -0.0016614699 -0.016583787 -0.005961623 -0.014449365 -0.008023431 -0.0094439145 -0.0050920066 0.00071120216
Canaanite -0.28563407 -0.021894384 -0.0016614699 -0.016583787 -0.005961623 -0.014449365 -0.008023431 -0.0094439145 -0.0050920066 0.00071120216
Canada_wild_rye -0.28563407 -0.021894384 -0.0016614699 -0.016583787 -0.005961623 -0.014449365 -0.008023431 -0.0094439145 -0.0050920066 0.00071120216
Canadian_Security_Intelligence_Service -0.28563407 -0.021894384 -0.0016614699 -0.016583787 -0.005961623 -0.014449365 -0.008023431 -0.0094439145 -0.0050920066 0.00071120216
Canadian_aspen -0.23710573 -0.01621281 0.025068998 0.10005839 -0.06135526 -0.051088776 0.130689 0.04604671 0.005271332 0.33217514
Canaries -0.28563407 -0.021894384 -0.0016614699 -0.016583787 -0.005961623 -0.014449365 -0.008023431 -0.0094439145 -0.0050920066 0.00071120216
Cancer_irroratus -0.28563407 -0.021894384 -0.0016614699 -0.016583787 -0.005961623 -0.014449365 -0.008023431 -0.0094439145 -0.0050920066 0.00071120216
Cancer_magister -0.28563407 -0.021894384 -0.0016614699 -0.016583787 -0.005961623 -0.014449365 -0.008023431 -0.009443914 -0.005092008 0.00071120256
Cancer 0.1307035 0.82060593 0.008575371 -0.059231248 0.029818818 -0.13785715 -0.0036241454 -0.048138976 0.024397507 0.0071053957
Candlemas_Day -0.28581682 -0.021999005 -0.0016742571 -0.016740046 -0.006024391 -0.014610882 -0.008123487 -0.009569118 -0.0051700836 0.0007224412
Canetti -0.28563407 -0.021894384 -0.0016614699 -0.016583787 -0.005961623 -0.014449365 -0.008023431 -0.0094439145 -0.0050920066 0.00071120216
Canis_lupus 0.17763242 0.37180412 0.092697784 0.022119828 -0.068494104 0.11618514 0.01561762 -0.028256336 -2.5744348e-05 0.050875366
Canis_lupus_tundrarum 0.17763236 0.37180412 0.09269778 0.022119818 -0.068494074 0.11618514 0.015617642 -0.028256344 -2.5759598e-05 0.050875336
Canna_indica -0.28563407 -0.021894384 -0.0016614699 -0.016583787 -0.005961624 -0.014449366 -0.008023431 -0.009443915 -0.0050920066 0.00071120466
Cantharellus_clavatus -0.28581682 -0.021999005 -0.0016742568 -0.016740045 -0.006024385 -0.014610884 -0.008123476 -0.009569122 -0.00517007 0.00072243426
Canton_crepe -0.28563407 -0.021894384 -0.0016614699 -0.016583787 -0.005961624 -0.014449366 -0.008023431 -0.009443915 -0.0050920066 0.00071120466
Cape_Canaveral -0.28563407 -0.021894384 -0.0016614699 -0.016583787 -0.005961624 -0.014449366 -0.008023431 -0.009443915 -0.0050920066 0.00071120466
Cape_Flattery -0.28563407 -0.021894384 -0.0016614699 -0.016583787 -0.005961624 -0.014449366 -0.008023431 -0.009443915 -0.0050920066 0.00071120466
Cape_Froward -0.28563407 -0.021894384 -0.0016614699 -0.016583787 -0.005961624 -0.014449366 -0.008023431 -0.009443915 -0.0050920066 0.00071120466
Cape_Girardeau -0.28563407 -0.021894384 -0.0016614699 -0.016583787 -0.005961624 -0.014449366 -0.008023431 -0.009443915 -0.0050920066 0.00071120466
Cape_Horn -0.28563407 -0.021894384 -0.0016614699 -0.016583787 -0.005961624 -0.014449366 -0.008023431 -0.009443915 -0.0050920066 0.00071120466
Cape_Verde_Islands -0.28563407 -0.021894384 -0.0016614699 -0.016583787 -0.005961624 -0.014449366 -0.008023431 -0.009443915 -0.0050920066 0.00071120466
Cape_lobster -0.28563407 -0.021894384 -0.0016614699 -0.016583787 -0.005961624 -0.014449366 -0.008023431 -0.009443915 -0.0050920066 0.00071120466
Cape_of_Good_Hope_Province -0.28563407 -0.021894384 -0.0016614699 -0.016583787 -0.005961624 -0.014449366 -0.008023431 -0.009443915 -0.0050920066 0.00071120466
Capek -0.28563407 -0.021894384 -0.0016614699 -0.016583787 -0.005961624 -0.014449366 -0.008023431 -0.009443915 -0.0050920066 0.00071120466
Capone -0.28563407 -0.021894384 -0.0016614699 -0.016583787 -0.005961624 -0.014449366 -0.008023431 -0.009443915 -0.0050920066 0.00071120466
Capparidaceae -0.28563407 -0.021894384 -0.0016614699 -0.016583787 -0.005961624 -0.014449366 -0.008023431 -0.0094439145 -0.005092008 0.0007112051
Capra_falconeri -0.28563407 -0.021894384 -0.0016614699 -0.016583787 -0.005961624 -0.014449366 -0.008023431 -0.009443915 -0.0050920066 0.00071120466
Capra -0.28581682 -0.021999005 -0.0016742576 -0.016740046 -0.006024385 -0.014610869 -0.008123472 -0.009569132 -0.0051700757 0.00072243565
Caprella -0.28563407 -0.021894384 -0.0016614699 -0.016583787 -0.005961624 -0.014449366 -0.008023431 -0.009443915 -0.0050920066 0.00071120466
Capreolus_capreolus -0.28563407 -0.021894384 -0.0016614699 -0.016583787 -0.005961624 -0.014449366 -0.008023431 -0.009443915 -0.0050920066 0.00071120466
Capricornis -0.28563407 -0.021894384 -0.0016614699 -0.016583787 -0.005961624 -0.014449366 -0.008023431 -0.009443915 -0.0050920066 0.00071120466
Capricornus -0.28563407 -0.021894384 -0.0016614699 -0.016583787 -0.005961624 -0.014449366 -0.008023431 -0.009443915 -0.0050920066 0.00071120466
Caprimulgus_carolinensis -0.28563407 -0.021894384 -0.0016614699 -0.016583787 -0.005961624 -0.014449366 -0.008023431 -0.009443915 -0.0050920066 0.00071120466
Capros_aper -0.28563407 -0.021894384 -0.0016614699 -0.016583787 -0.005961624 -0.014449366 -0.008023431 -0.009443915 -0.0050920066 0.00071120466
Capros -0.28581682 -0.021999005 -0.0016742576 -0.016740046 -0.006024385 -0.014610869 -0.008123472 -0.009569132 -0.0051700757 0.00072243565
Capsicum_annuum_cerasiforme -0.28563407 -0.021894384 -0.0016614699 -0.016583787 -0.005961624 -0.014449366 -0.008023431 -0.009443915 -0.0050920066 0.00071120466
Capsicum_annuum_longum -0.28563407 -0.021894384 -0.0016614699 -0.016583787 -0.005961624 -0.014449366 -0.008023431 -0.009443915 -0.0050920066 0.00071120466
Capsicum_frutescens -0.2858168 -0.021999 -0.001674244 -0.016740039 -0.006024395 -0.01461088 -0.008123476 -0.009569096 -0.0051700324 0.00072242843
Captain_Bligh -0.28563407 -0.021894384 -0.0016614699 -0.016583787 -0.005961624 -0.014449366 -0.008023431 -0.009443915 -0.005092005 0.00071120245
Captain_Bob -0.28563407 -0.021894384 -0.0016614699 -0.016583787 -0.005961624 -0.014449366 -0.008023431 -0.009443915 -0.005092005 0.00071120245
Carafate 0.037359245 -0.02524896 0.027265 0.028411549 0.099108346 0.19917823 0.06408836 0.1917488 -0.19978233 -0.043618087
Carangidae -0.28563407 -0.021894384 -0.0016614699 -0.016583787 -0.005961624 -0.014449366 -0.008023431 -0.009443915 -0.005092005 0.00071120245
Carboniferous_period -0.28563407 -0.021894384 -0.0016614699 -0.016583787 -0.005961624 -0.014449366 -0.008023431 -0.009443915 -0.005092005 0.00071120245
Carcharhinus_leucas -0.28742683 -0.022959897 -0.0017954515 -0.018246293 -0.0066363546 -0.016197441 -0.009118577 -0.0108250845 -0.005972911 0.0008370507
Carcharhinus_plumbeus -0.28742683 -0.022959897 -0.0017954515 -0.018246293 -0.0066363546 -0.016197441 -0.009118577 -0.0108250845 -0.005972911 0.0008370507
Carcharias -0.28563407 -0.021894384 -0.0016614699 -0.016583787 -0.005961624 -0.014449366 -0.008023431 -0.009443915 -0.005092005 0.00071120245
Carcharias_taurus -0.28744632 -0.02297146 -0.0017968665 -0.018264255 -0.0066436743 -0.016216272 -0.009130402 -0.0108398795 -0.005982335 0.0008383813
Cardamine_rotundifolia -0.28563407 -0.021894384 -0.0016614699 -0.016583787 -0.005961624 -0.014449366 -0.008023431 -0.009443915 -0.005092005 0.00071120245
Cardinal_Richelieu -0.28563407 -0.021894384 -0.0016614699 -0.016583787 -0.005961624 -0.014449366 -0.008023431 -0.009443915 -0.005092005 0.00071120245
Cardinalis_cardinalis -0.28563407 -0.021894384 -0.0016614699 -0.016583787 -0.005961624 -0.014449366 -0.008023431 -0.009443915 -0.005092005 0.00071120245
Carduelinae -0.1881908 0.023190925 -0.11304409 0.047914777 -0.12613396 -0.012648263 -0.07668129 0.00949345 0.13816078 -0.034811366
Cardura -0.23277462 -0.029106839 0.01460951 0.008043859 0.05732532 0.11128425 0.020205809 0.09858984 -0.17077573 -0.031140009
Caretta_caretta -0.28563407 -0.021894384 -0.0016614699 -0.016583787 -0.005961624 -0.014449366 -0.008023431 -0.009443915 -0.005092005 0.00071120245
Carib_Indian -0.28563407 -0.021894384 -0.0016614699 -0.016583787 -0.005961624 -0.014449366 -0.008023431 -0.009443915 -0.005092005 0.00071120245
Carl_Anderson -0.28563407 -0.021894384 -0.0016614699 -0.016583787 -0.005961624 -0.014449366 -0.008023431 -0.009443915 -0.005092005 0.00071120245
Carl_Maria_von_Weber -0.28563407 -0.021894384 -0.0016614699 -0.016583787 -0.005961624 -0.014449366 -0.008023431 -0.009443915 -0.005092005 0.00071120245
Carl_Rogers -0.28563407 -0.021894384 -0.0016614699 -0.016583787 -0.005961624 -0.014449366 -0.008023431 -0.009443915 -0.005092005 0.00071120245
Carlina_acaulis -0.2858168 -0.021999 -0.0016742455 -0.016740043 -0.0060244077 -0.014610871 -0.008123502 -0.009569139 -0.0051700776 0.00072243647
Carlsbad -0.28563407 -0.021894384 -0.0016614699 -0.016583787 -0.005961623 -0.014449365 -0.0080234315 -0.009443914 -0.0050920085 0.0007112008
Carnegie_Mellon_University -0.28563407 -0.021894384 -0.0016614699 -0.016583787 -0.005961623 -0.014449365 -0.0080234315 -0.009443914 -0.0050920085 0.0007112008
Carnegiea_gigantea -0.28563407 -0.021894384 -0.0016614699 -0.016583787 -0.005961623 -0.014449365 -0.0080234315 -0.009443914 -0.0050920085 0.0007112008
Carnot -0.28563407 -0.021894384 -0.0016614699 -0.016583787 -0.005961623 -0.014449365 -0.0080234315 -0.009443914 -0.0050920085 0.0007112008
Carolina_chickadee -0.28563407 -0.021894384 -0.0016614699 -0.016583787 -0.005961623 -0.014449365 -0.0080234315 -0.009443914 -0.0050920085 0.0007112008
Carpenteria_californica -0.28563407 -0.021894384 -0.0016614699 -0.016583787 -0.005961623 -0.014449365 -0.0080234315 -0.009443914 -0.0050920085 0.0007112008
Carphophis_amoenus -0.28563407 -0.021894384 -0.0016614699 -0.016583787 -0.005961623 -0.014449365 -0.008023431 -0.009443913 -0.005092008 0.0007112023
Carpinus_betulus -0.28563407 -0.021894384 -0.0016614699 -0.016583787 -0.005961623 -0.014449365 -0.008023431 -0.009443913 -0.005092008 0.0007112023
Carpinus -0.28563407 -0.021894384 -0.0016614699 -0.016583787 -0.005961623 -0.014449365 -0.008023431 -0.009443913 -0.005092007 0.00071120204
Carpodacus -0.28563407 -0.021894384 -0.0016614699 -0.016583787 -0.005961623 -0.014449365 -0.008023431 -0.009443913 -0.005092008 0.0007112023
Carson_McCullers -0.28563407 -0.021894384 -0.0016614699 -0.016583787 -0.005961623 -0.014449365 -0.008023431 -0.009443913 -0.005092007 0.00071120204
Carter -0.28563407 -0.021894384 -0.0016614699 -0.016583787 -0.005961623 -0.014449365 -0.008023431 -0.009443913 -0.005092008 0.0007112023
Cartesian 0.25879362 0.5514857 0.02066314 -0.030587573 0.07360696 -0.09190959 0.0026713999 -0.078397036 0.025958544 0.100505315
Cartesian_plane 0.4956322 -0.071588896 -0.026228698 0.06847046 -0.110432416 0.040549 -0.056582797 -0.06826691 -0.10458891 -0.06776015
Cartesian_product 0.51986283 -0.056921966 -0.11543127 -0.014185128 0.079397775 -0.029795306 0.0046347477 -0.12432131 -0.13753948 0.0075977733
Carthusian_order 0.49847037 -0.10035789 -0.19220115 -0.049312603 0.036028553 -0.06696826 -0.04945656 -0.088821605 0.0062303958 0.094942115
Cartwright -0.28581682 -0.021999005 -0.0016742571 -0.016740046 -0.006024391 -0.014610882 -0.008123487 -0.009569119 -0.005170083 0.00072244206
Caruso -0.28563407 -0.021894384 -0.0016614699 -0.016583787 -0.005961623 -0.014449365 -0.008023431 -0.009443913 -0.005092008 0.0007112023
Carya_aquatica -0.28563407 -0.021894384 -0.0016614699 -0.016583787 -0.005961623 -0.014449365 -0.008023431 -0.009443913 -0.005092008 0.0007112023
Carya -0.28563407 -0.021894384 -0.0016614699 -0.016583787 -0.005961623 -0.014449365 -0.008023431 -0.009443913 -0.005092008 0.0007112023
Carya_tomentosa -0.28618097 -0.022210095 -0.0017003018 -0.017059783 -0.006153237 -0.014943148 -0.008330133 -0.009828273 -0.005332798 0.00074584817
Caryocaraceae -0.28563407 -0.021894384 -0.0016614699 -0.016583787 -0.005961623 -0.014449365 -0.008023431 -0.009443913 -0.005092008 0.0007112023
Caryophyllaceae -0.28581682 -0.021999005 -0.0016742575 -0.016740052 -0.006024365 -0.01461088 -0.008123448 -0.009569132 -0.0051700985 0.0007224398
Caryophyllidae 0.38600832 -0.0035828655 -0.30503246 0.09092678 -0.13590367 0.08024507 -0.09347671 -0.073469415 0.18337503 0.08200689
Casablanca -0.28563407 -0.021894384 -0.0016614699 -0.016583787 -0.005961623 -0.014449365 -0.008023431 -0.009443913 -0.005092008 0.0007112023
Cascade_Mountains -0.28563407 -0.021894384 -0.0016614699 -0.016583787 -0.005961623 -0.014449365 -0.008023431 -0.009443913 -0.005092008 0.0007112023
Caspar_Bartholin -0.28563407 -0.021894384 -0.0016614699 -0.016583787 -0.005961623 -0.014449365 -0.008023431 -0.009443913 -0.005092008 0.0007112023
Cassia_acutifolia -0.2522973 -0.026917655 0.036367405 0.5299215 0.06843659 -0.17330267 0.61227256 -0.31859922 0.09624746 -0.12881595
Cassia_alata -0.2522973 -0.026917659 0.03636744 0.5299215 0.06843659 -0.17330264 0.6122726 -0.31859916 0.0962475 -0.12881589
Cassia_javonica -0.2858168 -0.021999 -0.0016742436 -0.01674004 -0.006024414 -0.014610885 -0.008123519 -0.009569101 -0.005170051 0.00072242075
Cassia_occidentalis -0.27218547 -0.028364737 0.03347763 0.49992353 0.07087834 -0.1683754 0.5885735 -0.31079185 0.09239688 -0.1312758
Cassin's_kingbird -0.28563407 -0.021894384 -0.0016614699 -0.016583787 -0.005961623 -0.014449365 -0.008023431 -0.009443913 -0.005092008 0.0007112023
Cassiope -0.28563407 -0.021894384 -0.0016614699 -0.016583787 -0.005961623 -0.014449365 -0.008023431 -0.009443913 -0.005092008 0.0007112023
Cassite 0.2377613 -0.05050168 -0.09230289 -0.040061783 0.06726512 -0.0024476629 0.07332914 0.19943704 -0.13016786 -0.13182811
Cassius_Clay -0.28563407 -0.021894384 -0.0016614699 -0.016583787 -0.005961623 -0.014449365 -0.008023431 -0.009443913 -0.005092008 0.0007112023
Cassius_Longinus -0.28563407 -0.021894384 -0.0016614699 -0.016583787 -0.005961623 -0.014449365 -0.008023431 -0.009443913 -0.005092007 0.00071120204
Castanea_dentata -0.28563407 -0.021894384 -0.0016614699 -0.016583787 -0.005961623 -0.014449365 -0.008023431 -0.009443913 -0.005092007 0.00071120204
Castanopsis_chrysophylla 0.10616652 -0.0073075336 0.061617162 0.16168323 -0.08155333 -0.02138219 0.17729893 0.18364194 0.032453857 0.5205809
Castile -0.28581682 -0.021999005 -0.001674257 -0.016740046 -0.0060244002 -0.014610887 -0.008123503 -0.009569139 -0.0051700743 0.00072244037
Castilla -0.28581682 -0.021999005 -0.001674257 -0.016740046 -0.0060244002 -0.014610887 -0.008123503 -0.009569139 -0.0051700743 0.00072244037
Castries -0.28563407 -0.021894384 -0.0016614699 -0.016583787 -0.005961623 -0.014449365 -0.008023431 -0.009443913 -0.005092007 0.00071120204
Castro -0.28563407 -0.021894384 -0.0016614699 -0.016583787 -0.005961623 -0.014449365 -0.008023431 -0.009443913 -0.005092008 0.0007112023
Casuarius -0.28563407 -0.021894384 -0.0016614699 -0.016583787 -0.005961623 -0.014449365 -0.008023431 -0.009443913 -0.005092007 0.00071120204
Catalina_cherry -0.28563407 -0.021894384 -0.0016614699 -0.016583787 -0.005961623 -0.014449365 -0.008023431 -0.009443913 -0.005092008 0.0007112023
Catapres -0.19931154 -0.027584584 0.019671578 0.014968304 0.06686908 0.1345261 0.029266538 0.12269448 -0.17868078 -0.037640326
Catha -0.28563407 -0.021894384 -0.0016614699 -0.016583787 -0.005961623 -0.014449365 -0.008023431 -0.009443913 -0.005092008 0.0007112023
Catharanthus -0.28563407 -0.021894384 -0.0016614699 -0.016583787 -0.005961623 -0.014449365 -0.008023431 -0.009443913 -0.005092007 0.00071120204
Cathaya -0.28563407 -0.021894384 -0.0016614699 -0.016583787 -0.005961623 -0.014449365 -0.008023431 -0.009443913 -0.005092007 0.00071120204
Cather -0.28563407 -0.021894384 -0.0016614699 -0.016583787 -0.005961623 -0.014449365 -0.008023431 -0.009443913 -0.005092007 0.00071120204
Catherine_the_Great -0.28563407 -0.021894384 -0.0016614699 -0.016583787 -0.005961623 -0.014449365 -0.008023431 -0.009443913 -0.005092007 0.00071120204
Catholic_Church 0.070106074 0.013148176 -0.28585854 -0.06058524 0.06924281 0.02389015 0.038303945 0.06562744 0.08637987 -0.12554064
Catholic_Reaction_Force -0.28563407 -0.021894384 -0.0016614699 -0.016583787 -0.005961623 -0.014449365 -0.008023431 -0.009443913 -0.005092008 0.0007112023
Catholic -0.28576136 -0.02196716 -0.0016703659 -0.01669234 -0.0060051996 -0.014561495 -0.008092864 -0.009530787 -0.005146137 0.0007189539
Catholic_school -0.28563407 -0.021894384 -0.0016614699 -0.016583787 -0.005961623 -0.014449365 -0.008023431 -0.009443913 -0.005092007 0.00071120204
Catholicism -0.28576136 -0.02196716 -0.0016703655 -0.016692337 -0.0060051987 -0.014561496 -0.0080928635 -0.0095307855 -0.00514614 0.00071894604
Catholicos -0.28563407 -0.021894384 -0.0016614699 -0.016583787 -0.005961623 -0.014449365 -0.008023431 -0.009443913 -0.005092007 0.00071120204
Catoptrophorus -0.28563407 -0.021894384 -0.0016614699 -0.016583787 -0.005961623 -0.014449365 -0.008023431 -0.009443913 -0.005092007 0.00071120204
Catoptrophorus_semipalmatus -0.28563407 -0.021894384 -0.0016614699 -0.016583787 -0.005961623 -0.014449365 -0.008023431 -0.009443913 -0.005092008 0.0007112023
Catskill_Mountains -0.28581682 -0.021999005 -0.001674257 -0.016740046 -0.0060244002 -0.014610886 -0.008123504 -0.009569138 -0.0051700766 0.000722434
Catskills -0.28581682 -0.021999005 -0.001674257 -0.016740046 -0.0060244002 -0.014610886 -0.008123504 -0.009569138 -0.0051700766 0.000722434
Cattell -0.28563407 -0.021894384 -0.0016614699 -0.016583787 -0.005961623 -0.014449365 -0.008023431 -0.009443913 -0.005092007 0.00071120204
Cattleya_citrina -0.28563407 -0.021894384 -0.0016614699 -0.016583787 -0.005961623 -0.014449365 -0.008023431 -0.009443913 -0.005092007 0.00071120204
Caucasian_walnut -0.28563407 -0.021894384 -0.0016614699 -0.016583787 -0.005961623 -0.014449365 -0.008023431 -0.009443913 -0.005092007 0.00071120204
Caulophyllum_thalictrioides -0.24421412 -0.026568934 0.03894995 0.5543841 0.07015975 -0.1771197 0.633224 -0.32557142 0.09908082 -0.13035035
Caulophyllum_thalictroides -0.24421412 -0.026568934 0.038949918 0.5543841 0.0701598 -0.17711966 0.63322407 -0.32557142 0.099080816 -0.13035034
Caviidae -0.28563407 -0.021894384 -0.0016614699 -0.016583787 -0.005961623 -0.014449365 -0.008023431 -0.009443913 -0.005092008 0.0007112023
Cayuga_Lake -0.28563407 -0.021894384 -0.0016614699 -0.016583787 -0.005961623 -0.014449365 -0.008023431 -0.009443913 -0.005092007 0.00071120204
Cayuga -0.28563407 -0.021894384 -0.0016614699 -0.016583787 -0.005961623 -0.014449365 -0.008023431 -0.009443913 -0.005092007 0.00071120204
Ce 0.2081831 -0.023699813 -0.016421368 0.13956575 -0.22664373 0.12260988 -0.04790672 -0.0134521015 -0.14754272 -0.043875713
Cebu_maguey -0.28563407 -0.021894384 -0.0016614699 -0.016583787 -0.005961623 -0.014449365 -0.008023431 -0.009443913 -0.005092008 0.0007112023
Cebu -0.28563407 -0.021894384 -0.0016614699 -0.016583787 -0.005961623 -0.014449365 -0.008023431 -0.009443913 -0.005092008 0.0007112023
Cebuano -0.28563407 -0.021894384 -0.0016614699 -0.016583787 -0.005961623 -0.014449365 -0.008023431 -0.009443913 -0.005092008 0.0007112023
Cecropia -0.28581682 -0.021999005 -0.0016742571 -0.016740046 -0.006024391 -0.014610882 -0.008123487 -0.009569119 -0.005170083 0.00072244206
Cedar_Rapids -0.28563407 -0.021894384 -0.0016614699 -0.016583787 -0.005961623 -0.014449365 -0.008023431 -0.009443913 -0.005092008 0.0007112023
Cedrus -0.28563407 -0.021894384 -0.0016614699 -0.016583787 -0.005961623 -0.014449365 -0.008023431 -0.009443913 -0.005092008 0.0007112023
Cefobid -0.28563407 -0.021894384 -0.0016614699 -0.016583787 -0.005961623 -0.014449365 -0.008023431 -0.009443913 -0.005092008 0.0007112023
Ceftin -0.28563407 -0.021894384 -0.0016614699 -0.016583787 -0.005961623 -0.014449365 -0.008023431 -0.009443913 -0.005092007 0.00071120204
Celastric_articulatus -0.07903961 0.094196044 0.028127877 0.05889576 0.031672858 0.074986205 -0.06040635 0.06015219 0.023970857 -0.123992756
Celastrus -0.28563407 -0.021894384 -0.0016614699 -0.016583787 -0.005961623 -0.014449365 -0.008023431 -0.009443913 -0.005092008 0.0007112023
Celestial_City -0.28563407 -0.021894384 -0.0016614699 -0.016583787 -0.005961623 -0.014449365 -0.008023431 -0.009443913 -0.005092008 0.0007112023
Celtis_australis 0.054954626 -0.0065318155 0.06350361 0.15847236 -0.08495016 -0.019440787 0.17495388 0.18531556 0.03527343 0.51652235
Cenchrus -0.29172093 -0.025905149 -0.002125005 -0.023939785 -0.0092478255 -0.022453403 -0.013886682 -0.0185766 -0.011830034 0.0006133199
Cenchrus_tribuloides 0.41512662 -0.045755014 0.12741773 0.053733785 -0.068226635 0.026769424 -0.0022592668 -0.047493044 -0.12593351 0.10728817
Centaur -0.28581682 -0.021999005 -0.001674257 -0.016740046 -0.0060244002 -0.014610886 -0.008123504 -0.009569138 -0.005170076 0.00072243327
Centaurium_scilloides -0.28563407 -0.021894384 -0.0016614699 -0.016583787 -0.005961623 -0.014449365 -0.008023431 -0.009443913 -0.005092007 0.00071120204
Centaurus -0.28581682 -0.021999005 -0.001674257 -0.016740046 -0.0060244002 -0.014610886 -0.008123504 -0.009569138 -0.005170076 0.00072243327
Centennial_State -0.28563407 -0.021894384 -0.0016614699 -0.016583787 -0.005961623 -0.014449365 -0.008023431 -0.009443913 -0.005092007 0.00071120204
Center_for_Disease_Control_and_Prevention 0.35685924 -0.054874755 -0.2800973 -0.025490822 -0.005753787 0.04656626 0.009140162 0.05862964 0.04879733 -0.059196275
Central_American -0.28563407 -0.021894384 -0.0016614699 -0.016583787 -0.005961623 -0.014449365 -0.008023431 -0.009443913 -0.005092007 0.00071120204
Central_Dravidian 0.15363137 -0.042006493 -0.08390619 -0.037448224 0.06334141 0.007968963 0.07956678 0.21538164 -0.12349503 -0.13300994
Central_Intelligence_Agency -0.28563407 -0.021894384 -0.0016614699 -0.016583787 -0.005961623 -0.014449365 -0.008023431 -0.009443913 -0.005092007 0.00071120204
Centranthus -0.28563407 -0.021894384 -0.0016614699 -0.016583787 -0.005961623 -0.014449365 -0.008023431 -0.009443913 -0.005092007 0.00071120204
Centrolobium_robustum -0.28563407 -0.021894384 -0.0016614699 -0.016583787 -0.005961623 -0.014449365 -0.008023431 -0.009443913 -0.005092007 0.00071120204
Centropus -0.28563407 -0.021894384 -0.0016614699 -0.016583787 -0.005961623 -0.014449365 -0.008023431 -0.009443914 -0.005092006 0.0007112016
Centunculus -0.28563407 -0.021894384 -0.0016614699 -0.016583787 -0.005961623 -0.014449365 -0.008023431 -0.009443913 -0.005092007 0.00071120204
Cephalanthera_rubra -0.28563407 -0.021894384 -0.0016614699 -0.016583787 -0.005961623 -0.014449365 -0.008023431 -0.009443913 -0.005092007 0.00071120204
Cephalopterus -0.28563407 -0.021894384 -0.0016614699 -0.016583787 -0.005961623 -0.014449365 -0.008023431 -0.009443913 -0.005092007 0.00071120204
Cephalotaceae -0.28563407 -0.021894384 -0.0016614699 -0.016583787 -0.005961623 -0.014449365 -0.008023431 -0.009443913 -0.005092007 0.00071120204
Cephalotaxaceae -0.28563407 -0.021894384 -0.0016614699 -0.016583787 -0.005961623 -0.014449365 -0.008023431 -0.009443913 -0.005092007 0.00071120204
Cephalotaxus -0.28563407 -0.021894384 -0.0016614699 -0.016583787 -0.005961623 -0.014449365 -0.008023431 -0.009443913 -0.005092007 0.00071120204
Cepphus_columba -0.28563407 -0.021894384 -0.0016614699 -0.016583787 -0.005961623 -0.014449365 -0.008023431 -0.009443913 -0.005092007 0.00071120204
Cepphus_grylle -0.28581682 -0.021999005 -0.0016742568 -0.016740045 -0.0060244063 -0.014610886 -0.008123517 -0.009569129 -0.005170092 0.00072243524
Cepphus -0.28563407 -0.021894384 -0.0016614699 -0.016583787 -0.005961623 -0.014449365 -0.008023431 -0.009443913 -0.005092007 0.00071120204
Cerambycidae -0.28563407 -0.021894384 -0.0016614699 -0.016583787 -0.005961623 -0.014449365 -0.008023431 -0.009443914 -0.005092006 0.0007112016
Cerapteryx_graminis -0.28563407 -0.021894384 -0.0016614699 -0.016583787 -0.005961623 -0.014449365 -0.008023431 -0.009443914 -0.005092006 0.0007112016
Cerastium_alpinum -0.28563407 -0.021894384 -0.0016614699 -0.016583787 -0.005961623 -0.014449365 -0.008023431 -0.009443914 -0.005092006 0.0007112016
Ceratophyllaceae -0.28563407 -0.021894384 -0.0016614699 -0.016583787 -0.005961623 -0.014449365 -0.008023431 -0.009443914 -0.005092006 0.0007112016
Ceratophyllum -0.28563407 -0.021894384 -0.0016614699 -0.016583787 -0.005961623 -0.014449365 -0.008023431 -0.009443913 -0.005092007 0.00071120204
Ceratopsidae -0.28563407 -0.021894384 -0.0016614699 -0.016583787 -0.005961623 -0.014449365 -0.008023431 -0.009443913 -0.005092007 0.00071120204
Ceratopteris_pteridioides -0.28563407 -0.021894384 -0.0016614699 -0.016583787 -0.005961623 -0.014449365 -0.008023431 -0.009443913 -0.005092007 0.00071120204
Ceratopteris_thalictroides -0.28563407 -0.021894384 -0.0016614699 -0.016583787 -0.005961623 -0.014449365 -0.008023431 -0.009443914 -0.005092006 0.0007112016
Ceratotherium_simum -0.28563407 -0.021894384 -0.0016614699 -0.016583787 -0.005961623 -0.014449365 -0.008023431 -0.009443913 -0.005092007 0.00071120204
Cercidiphyllum_japonicum -0.28563407 -0.021894384 -0.0016614699 -0.016583787 -0.005961623 -0.014449365 -0.008023431 -0.009443913 -0.005092007 0.00071120204
Cercopidae -0.28581682 -0.021999005 -0.0016742571 -0.016740046 -0.006024391 -0.014610881 -0.008123487 -0.009569117 -0.0051700855 0.0007224343
Cercopithecidae -0.28563407 -0.021894384 -0.0016614699 -0.016583787 -0.005961623 -0.014449365 -0.008023431 -0.009443914 -0.005092006 0.0007112016
Ceres -0.28563407 -0.021894384 -0.0016614699 -0.016583787 -0.005961623 -0.014449365 -0.008023431 -0.009443914 -0.005092006 0.0007112016
Cervantes_Saavedra -0.28563407 -0.021894384 -0.0016614699 -0.016583787 -0.005961623 -0.014449365 -0.008023431 -0.009443914 -0.005092006 0.0007112016
Cervus_unicolor -0.28563407 -0.021894384 -0.0016614699 -0.016583787 -0.005961623 -0.014449365 -0.008023431 -0.009443914 -0.005092006 0.0007112016
Cesare_Borgia -0.28563407 -0.021894384 -0.0016614699 -0.016583787 -0.005961623 -0.014449365 -0.008023431 -0.009443914 -0.005092006 0.0007112016
Cestoda 0.3860083 -0.0035828745 -0.30503246 0.09092678 -0.13590364 0.080245055 -0.09347664 -0.073469445 0.18337499 0.08200684
Cestrum_diurnum -0.19857511 -0.019585531 0.046635944 0.5788191 0.0624232 -0.16712213 0.6446768 -0.30391416 0.094002165 -0.12731765
Cestrum_nocturnum -0.19857511 -0.019585539 0.046635933 0.5788191 0.06242319 -0.16712219 0.64467686 -0.30391422 0.09400212 -0.12731758
Cetorhinidae -0.28563407 -0.021894384 -0.0016614699 -0.016583787 -0.005961623 -0.014449365 -0.008023431 -0.009443913 -0.005092007 0.00071120204
Cetorhinus -0.28581682 -0.021999005 -0.0016742571 -0.016740046 -0.006024391 -0.014610882 -0.008123487 -0.009569119 -0.005170083 0.00072244206
Cetus -0.28563407 -0.021894384 -0.0016614699 -0.016583787 -0.005961623 -0.014449365 -0.008023431 -0.009443913 -0.005092007 0.00071120204
Cewa -0.28563407 -0.021894384 -0.0016614699 -0.016583787 -0.005961623 -0.014449365 -0.008023431 -0.009443914 -0.005092006 0.0007112016
Ceylonite -0.2858168 -0.021999 -0.001674244 -0.01674004 -0.0060244096 -0.014610885 -0.008123507 -0.009569105 -0.0051700375 0.0007224229
Cezanne -0.28563407 -0.021894384 -0.0016614699 -0.016583787 -0.005961623 -0.014449365 -0.008023431 -0.009443914 -0.005092006 0.0007112016
Chaetodipterus -0.28563407 -0.021894384 -0.0016614699 -0.016583787 -0.005961623 -0.014449365 -0.008023431 -0.009443914 -0.005092006 0.0007112016
Chaetognatha -0.28563407 -0.021894384 -0.0016614699 -0.016583787 -0.005961623 -0.014449365 -0.008023431 -0.009443914 -0.005092006 0.0007112016
Chaga -0.28563407 -0.021894384 -0.0016614699 -0.016583787 -0.005961623 -0.014449365 -0.008023431 -0.009443913 -0.005092007 0.00071120204
Chagall -0.28563407 -0.021894384 -0.0016614699 -0.016583787 -0.005961623 -0.014449365 -0.008023431 -0.009443913 -0.005092007 0.00071120204
Chagatai -0.28563407 -0.021894384 -0.0016614699 -0.016583787 -0.005961623 -0.014449365 -0.008023431 -0.009443913 -0.005092007 0.00071120204
Chaim_Soutine -0.28563407 -0.021894384 -0.0016614699 -0.016583787 -0.005961623 -0.014449365 -0.008023431 -0.009443914 -0.005092006 0.0007112016
Chalcididae -0.28563407 -0.021894384 -0.0016614699 -0.016583787 -0.005961623 -0.014449365 -0.008023431 -0.009443914 -0.005092006 0.0007112016
Chaldea -0.28563407 -0.021894384 -0.0016614699 -0.016583787 -0.005961623 -0.014449365 -0.008023431 -0.009443914 -0.005092006 0.0007112016
Chalons -0.28563407 -0.021894384 -0.0016614699 -0.016583787 -0.005961623 -0.014449365 -0.008023431 -0.009443914 -0.005092006 0.0007112016
Chamaea_fasciata -0.28581682 -0.021999005 -0.0016742564 -0.016740046 -0.006024374 -0.014610885 -0.008123466 -0.009569149 -0.0051700906 0.0007224419
Chamaecrista_fasciculata -0.15336196 -0.013977796 0.071934015 0.5824981 0.1638443 -0.060471058 0.38508308 -0.16819559 0.16008607 -0.11593582
Chamaecyparis_lawsoniana -0.28563407 -0.021894384 -0.0016614699 -0.016583787 -0.005961623 -0.014449365 -0.008023431 -0.009443914 -0.005092006 0.0007112016
Chamaecyparis -0.28563407 -0.021894384 -0.0016614699 -0.016583787 -0.005961623 -0.014449365 -0.008023431 -0.009443914 -0.0050920066 0.0007112018
Chamaedaphne_calyculata -0.19857511 -0.019585542 0.046635933 0.5788191 0.062423196 -0.16712219 0.64467686 -0.30391422 0.09400213 -0.12731756
Chamaeleontidae -0.28563407 -0.021894384 -0.0016614699 -0.016583787 -0.005961623 -0.014449365 -0.008023431 -0.009443914 -0.005092006 0.0007112016
Chamaemelum_nobilis -0.2323545 0.061049003 0.017877256 0.6680279 0.50585634 0.03578631 -0.47827572 0.10377096 0.018926773 0.0038417773
Chamberlain -0.28563407 -0.021894384 -0.0016614699 -0.016583787 -0.005961623 -0.014449365 -0.008023431 -0.009443914 -0.0050920066 0.0007112018
Champlain -0.28563407 -0.021894384 -0.0016614699 -0.016583787 -0.005961623 -0.014449365 -0.008023431 -0.009443913 -0.005092008 0.0007112023
Chancellor_of_the_Exchequer -0.28563407 -0.021894384 -0.0016614699 -0.016583787 -0.005961623 -0.014449365 -0.008023431 -0.009443914 -0.0050920066 0.0007112018
Chancellorsville -0.28563407 -0.021894384 -0.0016614699 -0.016583787 -0.005961623 -0.014449365 -0.008023431 -0.009443914 -0.0050920066 0.0007112018
Chandler -0.28563407 -0.021894384 -0.0016614699 -0.016583787 -0.005961623 -0.014449365 -0.008023431 -0.009443914 -0.0050920066 0.0007112018
Chang_Jiang -0.28563407 -0.021894384 -0.0016614699 -0.016583787 -0.005961623 -0.014449365 -0.008023431 -0.009443914 -0.0050920066 0.0007112018
Channukkah -0.28599954 -0.02210448 -0.0016872569 -0.016899062 -0.0060883737 -0.014775836 -0.008225927 -0.00969756 -0.0052505075 0.00073399564
Chanukah -0.28599954 -0.02210448 -0.0016872569 -0.016899062 -0.0060883737 -0.014775836 -0.008225927 -0.00969756 -0.0052505075 0.00073399564
Chanukkah -0.28599954 -0.02210448 -0.0016872569 -0.016899062 -0.0060883737 -0.014775836 -0.008225927 -0.00969756 -0.0052505075 0.00073399564
Characeae -0.28581682 -0.021999005 -0.0016742571 -0.016740046 -0.00602439 -0.01461088 -0.008123487 -0.009569117 -0.0051700855 0.00072243216
Characidae -0.28563407 -0.021894384 -0.0016614699 -0.016583787 -0.005961623 -0.014449365 -0.008023431 -0.009443914 -0.0050920066 0.0007112018
Charadrius_morinellus -0.28563407 -0.021894384 -0.0016614699 -0.016583787 -0.005961623 -0.014449365 -0.008023431 -0.009443914 -0.005092006 0.0007112016
Charcot-Marie-Tooth_disease -0.28563407 -0.021894384 -0.0016614699 -0.016583787 -0.005961623 -0.014449365 -0.008023431 -0.009443914 -0.005092006 0.0007112016
Charcot -0.28563407 -0.021894384 -0.0016614699 -0.016583787 -0.005961623 -0.014449365 -0.008023431 -0.009443914 -0.005092006 0.0007112016
Charina_bottae -0.28563407 -0.021894384 -0.0016614699 -0.016583787 -0.005961623 -0.014449365 -0.008023431 -0.009443914 -0.005092006 0.0007112016
Charina -0.28563407 -0.021894384 -0.0016614699 -0.016583787 -0.005961623 -0.014449365 -0.008023431 -0.009443914 -0.005092006 0.0007112016
Charles_A._Lindbergh -0.28563407 -0.021894384 -0.0016614699 -0.016583787 -0.005961623 -0.014449365 -0.008023431 -0.009443914 -0.005092006 0.0007112016
Charles_Baudelaire -0.28563407 -0.021894384 -0.0016614699 -0.016583787 -0.005961623 -0.014449365 -0.008023431 -0.0094439145 -0.0050920066 0.00071120216
Charles_Edward_Ives -0.28563407 -0.021894384 -0.0016614699 -0.016583787 -0.005961623 -0.014449365 -0.008023431 -0.0094439145 -0.0050920066 0.00071120216
Charles_Evans_Hughes -0.28563407 -0.021894384 -0.0016614699 -0.016583787 -0.005961623 -0.014449365 -0.008023431 -0.0094439145 -0.0050920066 0.00071120216
Charlottetown -0.28563407 -0.021894384 -0.0016614699 -0.016583787 -0.005961623 -0.014449365 -0.008023431 -0.0094439145 -0.0050920066 0.00071120216
Charybdis -0.28563407 -0.021894384 -0.0016614699 -0.016583787 -0.005961623 -0.014449365 -0.008023431 -0.0094439145 -0.0050920066 0.00071120216
Chemical_Weapons_Convention -0.28563407 -0.021894384 -0.0016614699 -0.016583787 -0.005961623 -0.014449365 -0.008023431 -0.0094439145 -0.0050920066 0.00071120216
Chemnitzer_concertina -0.28563407 -0.021894384 -0.0016614699 -0.016583787 -0.005961623 -0.014449365 -0.008023431 -0.0094439145 -0.0050920066 0.00071120216
Chenopodium_vulvaria -0.28563407 -0.021894384 -0.0016614699 -0.016583787 -0.005961623 -0.014449365 -0.008023431 -0.0094439145 -0.0050920066 0.00071120216
Chester_William_Nimitz -0.28563407 -0.021894384 -0.0016614699 -0.016583787 -0.005961623 -0.014449365 -0.008023431 -0.0094439145 -0.0050920066 0.00071120216
Chimaera -0.28563407 -0.021894384 -0.0016614699 -0.016583787 -0.005961623 -0.014449365 -0.008023431 -0.0094439145 -0.0050920066 0.00071120216
Chinese_lantern_plant -0.28563407 -0.021894384 -0.0016614699 -0.016583787 -0.005961623 -0.014449365 -0.008023431 -0.0094439145 -0.0050920066 0.00071120216
Chinese_monetary_unit -0.28563407 -0.021894384 -0.0016614699 -0.016583787 -0.005961623 -0.014449365 -0.008023431 -0.0094439145 -0.0050920066 0.00071120216
Chisholm_Trail -0.28563407 -0.021894384 -0.0016614699 -0.016583787 -0.005961623 -0.014449365 -0.008023431 -0.0094439145 -0.0050920066 0.00071120216
Chisinau -0.28563407 -0.021894384 -0.0016614699 -0.016583787 -0.005961623 -0.014449365 -0.008023431 -0.0094439145 -0.0050920066 0.00071120216
Chlamydiaceae 0.18193796 0.08136188 -0.22503535 0.12506178 -0.23991115 0.025247999 -0.098222226 0.07369689 0.23744927 -0.041614436
Chloranthaceae -0.20771123 0.014577397 -0.10486342 0.04114148 -0.11853396 -0.017587345 -0.07669208 0.0005253646 0.13207477 -0.03503066
Chlorophyceae 0.3860084 -0.0035828669 -0.30503255 0.090926796 -0.13590367 0.08024507 -0.09347675 -0.07346939 0.18337502 0.08200685
Choloepus_didactylus -0.28563407 -0.021894384 -0.0016614699 -0.016583787 -0.005961623 -0.014449365 -0.008023431 -0.0094439145 -0.0050920066 0.00071120216
Choloepus_hoffmanni -0.28563407 -0.021894384 -0.0016614699 -0.016583787 -0.005961623 -0.014449365 -0.008023431 -0.0094439145 -0.0050920066 0.00071120216
Christian_Schonbein -0.28563407 -0.021894384 -0.0016614699 -0.016583787 -0.005961623 -0.014449365 -0.008023431 -0.0094439145 -0.0050920066 0.00071120216
Christian_Scientist -0.28563407 -0.021894384 -0.0016614699 -0.016583787 -0.005961623 -0.014449365 -0.008023431 -0.0094439145 -0.0050920066 0.00071120216
Christian_church -0.001000848 0.0026612384 -0.26280892 -0.066062465 0.07066169 0.018512914 0.033981904 0.053211335 0.08531658 -0.109307356
Christian_name -0.28563407 -0.021894384 -0.0016614699 -0.016583787 -0.005961623 -0.014449365 -0.008023431 -0.0094439145 -0.0050920066 0.00071120216
Christmas_stocking -0.28563407 -0.021894384 -0.0016614699 -0.016583787 -0.005961623 -0.014449365 -0.008023431 -0.0094439145 -0.0050920066 0.00071120216
Chronoperates -0.28563407 -0.021894384 -0.0016614699 -0.016583787 -0.005961623 -0.014449365 -0.008023431 -0.0094439145 -0.0050920066 0.00071120216
Chronoperates_paradoxus -0.2858168 -0.021999 -0.0016742444 -0.01674004 -0.006024407 -0.014610886 -0.008123507 -0.009569129 -0.0051700743 0.0007224336
Chrysanthemum_coronarium -0.28563407 -0.021894384 -0.0016614699 -0.016583787 -0.005961623 -0.014449365 -0.008023431 -0.0094439145 -0.0050920066 0.00071120216
Chrysanthemum_parthenium -0.2323545 0.06104901 0.017877279 0.66802776 0.5058563 0.035786327 -0.47827572 0.10377103 0.0189268 0.0038417575
Chrysanthemum_ptarmiciflorum -0.28599954 -0.02210448 -0.001687245 -0.016899062 -0.0060883723 -0.014775821 -0.008225902 -0.009697484 -0.0052505024 0.0007340001
Chrysaora_quinquecirrha -0.28563407 -0.021894384 -0.0016614699 -0.016583787 -0.005961623 -0.014449365 -0.008023431 -0.0094439145 -0.0050920066 0.00071120216
Chrysolepis_chrysophylla 0.10616645 -0.0073075388 0.061617162 0.16168319 -0.08155332 -0.021382205 0.17729895 0.18364188 0.03245382 0.52058095
Chuang-tzu -0.28563407 -0.021894384 -0.0016614699 -0.016583787 -0.005961623 -0.014449365 -0.008023431 -0.0094439145 -0.0050920066 0.00071120216
Chula_Vista -0.28563407 -0.021894384 -0.0016614699 -0.016583787 -0.005961623 -0.014449365 -0.008023431 -0.0094439145 -0.0050920066 0.00071120216
Chunga_burmeisteri -0.28563407 -0.021894384 -0.0016614699 -0.016583787 -0.005961624 -0.014449366 -0.008023431 -0.009443915 -0.0050920066 0.00071120466
Church_Slavic -0.28563407 -0.021894384 -0.0016614699 -0.016583787 -0.005961624 -0.014449366 -0.008023431 -0.009443915 -0.0050920066 0.00071120466
Church_of_Christ_Scientist -0.28563407 -0.021894384 -0.0016614699 -0.016583787 -0.005961624 -0.014449366 -0.008023431 -0.009443915 -0.0050920066 0.00071120466
Church_of_Scientology 0.23296973 -0.01857717 -0.31197202 -0.07829269 0.09311731 0.021105412 0.03477868 0.041806098 0.09482357 -0.08916842
Chuvash -0.28563407 -0.021894384 -0.0016614699 -0.016583787 -0.005961623 -0.014449365 -0.008023431 -0.0094439145 -0.0050920066 0.00071120216
Ci 0.15521784 0.06203887 0.053888902 0.029721834 -0.086998254 0.191745 0.013078211 0.032290317 0.017044764 -0.13226846
Cicadidae -0.28563407 -0.021894384 -0.0016614699 -0.016583787 -0.005961623 -0.014449365 -0.008023431 -0.0094439145 -0.0050920066 0.00071120216
Cicer_arietinum -0.28563407 -0.021894384 -0.0016614699 -0.016583787 -0.005961624 -0.014449366 -0.008023431 -0.009443915 -0.0050920066 0.00071120466
Cicily_Isabel_Fairfield -0.28563407 -0.021894384 -0.0016614699 -0.016583787 -0.005961624 -0.014449366 -0.008023431 -0.009443915 -0.0050920066 0.00071120466
Cirsium_arvense -0.28563407 -0.021894384 -0.0016614699 -0.016583787 -0.005961624 -0.014449366 -0.008023431 -0.009443915 -0.0050920066 0.00071120466
Citellus_lateralis -0.28618097 -0.02221009 -0.0017003173 -0.017059786 -0.006153239 -0.014943141 -0.008330145 -0.009828304 -0.0053328145 0.0007458401
Citellus_leucurus -0.28618097 -0.02221009 -0.0017003173 -0.017059786 -0.006153239 -0.014943141 -0.008330145 -0.009828304 -0.0053328145 0.0007458401
Citharichthys_cornutus -0.28563407 -0.021894384 -0.0016614699 -0.016583787 -0.005961624 -0.014449366 -0.008023431 -0.009443915 -0.0050920066 0.00071120466
Citrus_aurantium -0.20868321 0.0018355473 0.0761116 -0.008821543 0.0043095103 0.19754322 0.02239345 -0.07624131 0.054742437 -0.081174836
Citrus_paradisi -0.07093213 0.04432403 0.07578224 0.014348168 -0.00646997 0.24360564 0.046709802 -0.076038316 0.06281733 -0.10289997
City_of_the_Angels -0.28563407 -0.021894384 -0.0016614699 -0.016583787 -0.005961624 -0.014449366 -0.008023431 -0.009443915 -0.0050920066 0.00071120466
Civil_Rights_movement 0.5083543 -0.06671147 0.03833273 -0.03474091 -0.017760629 -0.055189185 -0.051147696 -0.040893 0.08437462 -0.05997865
Clark's_nutcracker -0.28563407 -0.021894384 -0.0016614699 -0.016583787 -0.005961624 -0.014449366 -0.008023431 -0.009443915 -0.0050920066 0.00071120466
Clarksburg -0.28563407 -0.021894384 -0.0016614699 -0.016583787 -0.005961624 -0.014449366 -0.008023431 -0.009443915 -0.0050920066 0.00071120466
Classical_Greek 0.08264766 -0.072366595 -0.14465335 -0.035699934 0.031364933 0.03280267 0.037420392 0.11004882 0.08762646 0.10439263
Claviceps -0.28563407 -0.021894384 -0.0016614699 -0.016583787 -0.005961624 -0.014449366 -0.008023431 -0.009443915 -0.0050920066 0.00071120466
Clematis_tangutica -0.28563407 -0.021894384 -0.0016614699 -0.016583787 -0.005961624 -0.014449366 -0.008023431 -0.009443915 -0.0050920066 0.00071120466
Clement_Philibert_Leo_Delibes -0.28563407 -0.021894384 -0.0016614699 -0.016583787 -0.005961624 -0.014449366 -0.008023431 -0.009443915 -0.0050920066 0.00071120466
Clement_Richard_Attlee -0.28563407 -0.021894384 -0.0016614699 -0.016583787 -0.005961624 -0.014449366 -0.008023431 -0.009443915 -0.0050920066 0.00071120466
Clement_XIV -0.28563407 -0.021894384 -0.0016614699 -0.016583787 -0.005961624 -0.014449366 -0.008023431 -0.009443915 -0.0050920066 0.00071120466
Cleopatra -0.28563407 -0.021894384 -0.0016614699 -0.016583787 -0.005961624 -0.014449366 -0.008023431 -0.009443915 -0.0050920066 0.00071120466
Clianthus_puniceus -0.28563407 -0.021894384 -0.0016614699 -0.016583787 -0.005961624 -0.014449366 -0.008023431 -0.009443915 -0.0050920066 0.00071120466
Clianthus_speciosus -0.28563407 -0.021894384 -0.0016614699 -0.016583787 -0.005961624 -0.014449366 -0.008023431 -0.009443915 -0.0050920066 0.00071120466
Clinch_River -0.28563407 -0.021894384 -0.0016614699 -0.016583787 -0.005961624 -0.014449366 -0.008023431 -0.009443915 -0.0050920066 0.00071120466
Clinopodium_grandiflorum -0.28563407 -0.021894384 -0.0016614699 -0.016583787 -0.005961624 -0.014449366 -0.008023431 -0.009443915 -0.005092005 0.00071120245
Clinopodium -0.28581682 -0.021999005 -0.0016742571 -0.016740046 -0.006024391 -0.014610881 -0.008123488 -0.009569117 -0.005170086 0.00072243455
Clinopodium_vulgare -0.258863 0.05018697 0.01582219 0.651062 0.50708133 0.02428904 -0.49435586 0.09590469 0.018781848 -0.00088945095
Clinton -0.28599945 -0.022104433 -0.0016872404 -0.016898982 -0.006088359 -0.014775737 -0.008225877 -0.009697458 -0.005250438 0.00073398073
Clioquinol -0.0040399153 0.056219846 -0.06268829 -0.026755964 0.095588446 0.12621215 0.079748556 0.17442895 -0.12942801 -0.032706592
Clitoria_mariana -0.0790396 0.09419604 0.028127879 0.05889575 0.031672843 0.0749862 -0.06040637 0.06015219 0.023970854 -0.123992756
Clitoria -0.28563407 -0.021894384 -0.0016614699 -0.016583787 -0.005961624 -0.014449366 -0.008023431 -0.009443915 -0.005092005 0.00071120245
Clive_Staples_Lewis -0.28563407 -0.021894384 -0.0016614699 -0.016583787 -0.005961624 -0.014449366 -0.008023431 -0.009443915 -0.005092005 0.00071120245
Clive -0.28563407 -0.021894384 -0.0016614699 -0.016583787 -0.005961624 -0.014449366 -0.008023431 -0.009443915 -0.005092005 0.00071120245
Clusia_insignis -0.28563407 -0.021894384 -0.0016614699 -0.016583787 -0.005961624 -0.014449366 -0.008023431 -0.009443915 -0.005092005 0.00071120245
Clusia_rosea -0.28581682 -0.021999005 -0.0016742568 -0.016740045 -0.006024385 -0.014610884 -0.008123476 -0.009569122 -0.00517007 0.00072243426
Clytemnestra -0.28563407 -0.021894384 -0.0016614699 -0.016583787 -0.005961624 -0.014449366 -0.008023431 -0.009443915 -0.005092005 0.00071120245
Clytocybe_alba -0.28563407 -0.021894384 -0.0016614699 -0.016583787 -0.005961624 -0.014449366 -0.008023431 -0.009443915 -0.005092005 0.00071120245
Cnemidophorus_tigris -0.28563407 -0.021894384 -0.0016614699 -0.016583787 -0.005961624 -0.014449366 -0.008023431 -0.009443915 -0.005092005 0.00071120245
Cnicus -0.28563407 -0.021894384 -0.0016614699 -0.016583787 -0.005961624 -0.014449366 -0.008023431 -0.009443915 -0.005092005 0.00071120245
Cnidaria -0.28581682 -0.021999005 -0.0016742568 -0.016740045 -0.006024385 -0.014610884 -0.008123476 -0.009569122 -0.00517007 0.00072243426
Cnossus -0.28563407 -0.021894384 -0.0016614699 -0.016583787 -0.005961624 -0.014449366 -0.008023431 -0.009443915 -0.005092005 0.00071120245
Cnut -0.28563407 -0.021894384 -0.0016614699 -0.016583787 -0.005961624 -0.014449366 -0.008023431 -0.009443915 -0.005092005 0.00071120245
Co-operative_Republic_of_Guyana -0.28563407 -0.021894384 -0.0016614699 -0.016583787 -0.005961624 -0.014449366 -0.008023431 -0.009443915 -0.005092005 0.00071120245
Co 0.20818305 -0.023699809 -0.016421378 0.13956572 -0.22664367 0.122609876 -0.047906645 -0.01345208 -0.14754269 -0.043875735
Coahuila -0.28563407 -0.021894384 -0.0016614699 -0.016583787 -0.005961624 -0.014449366 -0.008023431 -0.009443915 -0.005092005 0.00071120245
Cocopa -0.28563407 -0.021894384 -0.0016614699 -0.016583787 -0.005961624 -0.014449366 -0.008023431 -0.009443915 -0.005092005 0.00071120245
Coeloglossum_bracteatum -0.2858168 -0.021999 -0.0016742448 -0.016740045 -0.006024391 -0.014610881 -0.008123479 -0.009569113 -0.005170067 0.0007224313
Coeur_d'Alene -0.28563407 -0.021894384 -0.0016614699 -0.016583787 -0.005961624 -0.014449366 -0.008023431 -0.009443915 -0.005092005 0.00071120245
Coffea_liberica 0.31435633 -0.026726171 0.052087322 0.198934 -0.020886324 -0.017027484 0.10377838 0.13620512 -0.038336128 0.3447851
Cola -0.28581682 -0.021999005 -0.0016742571 -0.016740046 -0.006024391 -0.014610881 -0.008123487 -0.009569117 -0.0051700855 0.0007224343
Colaptes -0.28563407 -0.021894384 -0.0016614699 -0.016583787 -0.005961624 -0.014449366 -0.008023431 -0.009443915 -0.005092005 0.00071120245
Colchis -0.28563407 -0.021894384 -0.0016614699 -0.016583787 -0.005961624 -0.014449366 -0.008023431 -0.009443915 -0.005092005 0.00071120245
Coleridge -0.28563407 -0.021894384 -0.0016614699 -0.016583787 -0.005961624 -0.014449366 -0.008023431 -0.009443915 -0.005092005 0.00071120245
Coleus_aromaticus -0.28563407 -0.021894384 -0.0016614699 -0.016583787 -0.005961624 -0.014449366 -0.008023431 -0.009443915 -0.005092005 0.00071120245
College_of_Cardinals 0.4628342 0.05626728 -0.2835702 -0.021620847 0.01996309 -0.046309505 -0.023481563 -0.05846403 -0.046196062 -0.14522584
Collinsia_parviflora -0.28563407 -0.021894384 -0.0016614699 -0.016583787 -0.005961624 -0.014449366 -0.008023431 -0.009443915 -0.005092005 0.00071120245
Colocasia -0.29172093 -0.025905149 -0.0021250052 -0.023939785 -0.0092478255 -0.022453403 -0.01388668 -0.018576603 -0.011830032 0.00061331596
Colombian_monetary_unit -0.28563407 -0.021894384 -0.0016614699 -0.016583787 -0.005961623 -0.014449365 -0.008023432 -0.009443912 -0.0050920104 0.0007111935
Colombian -0.28563407 -0.021894384 -0.0016614699 -0.016583787 -0.005961623 -0.014449365 -0.008023432 -0.009443912 -0.0050920104 0.0007111935
Colony -0.28563407 -0.021894384 -0.0016614699 -0.016583787 -0.005961623 -0.014449365 -0.008023432 -0.009443912 -0.0050920104 0.0007111935
Colorado_blue_spruce 0.08478384 0.06198885 0.15319854 0.08588396 -0.084988005 0.035991956 0.10325892 0.107350625 0.03836613 0.21889964
Coluber_hippocrepis 0.21563248 0.4802564 0.0015299539 0.029939618 -0.08955762 -0.0735275 0.028665457 0.13172816 -0.009476025 0.0002563661
Columbus_Day -0.28563407 -0.021894384 -0.0016614699 -0.016583787 -0.005961623 -0.014449365 -0.008023432 -0.009443912 -0.005092011 0.0007111938
Colutea_arborescens -0.23000017 -0.025466138 0.04179702 0.56512636 0.068094045 -0.17433694 0.6383161 -0.31963056 0.097397834 -0.12896012
Colutea -0.28563407 -0.021894384 -0.0016614699 -0.016583787 -0.005961623 -0.014449365 -0.008023432 -0.009443912 -0.0050920104 0.0007111935
Coma_Berenices -0.28563407 -0.021894384 -0.0016614699 -0.016583787 -0.005961623 -0.014449365 -0.008023432 -0.009443912 -0.0050920104 0.0007111935
Comatula -0.28563407 -0.021894384 -0.0016614699 -0.016583787 -0.005961623 -0.014449365 -0.008023432 -0.009443912 -0.0050920104 0.0007111935
Combined_DNA_Index_System -0.28563407 -0.021894384 -0.0016614699 -0.016583787 -0.005961623 -0.014449365 -0.008023432 -0.009443912 -0.005092011 0.0007111938
Commelinales -0.28563407 -0.021894384 -0.0016614699 -0.016583787 -0.005961623 -0.014449365 -0.008023432 -0.009443912 -0.0050920104 0.0007111935
Commerce_Secretary 0.3594214 0.26035517 -0.06812245 -0.030667553 -0.017996918 -0.1303535 -0.015220184 0.06066254 -0.029911833 -0.014892509
Commission_on_Narcotic_Drugs -0.28563407 -0.021894384 -0.0016614699 -0.016583787 -0.005961623 -0.014449365 -0.008023432 -0.009443912 -0.005092011 0.0007111938
Commodore_Perry -0.28563407 -0.021894384 -0.0016614699 -0.016583787 -0.005961623 -0.014449365 -0.008023432 -0.009443912 -0.005092011 0.0007111938
Commodore_Vanderbilt -0.28581682 -0.021999005 -0.0016742572 -0.016740048 -0.006024385 -0.014610881 -0.008123474 -0.009569125 -0.005170069 0.0007224393
Commonwealth_Day -0.28563407 -0.021894384 -0.0016614699 -0.016583787 -0.005961623 -0.014449365 -0.008023432 -0.009443912 -0.0050920104 0.0007111935
Commonwealth_of_Puerto_Rico -0.28563407 -0.021894384 -0.0016614699 -0.016583787 -0.005961623 -0.014449365 -0.008023432 -0.009443912 -0.0050920104 0.0007111935
Communist_China -0.28563407 -0.021894384 -0.0016614699 -0.016583787 -0.005961623 -0.014449365 -0.008023432 -0.009443912 -0.0050920104 0.0007111935
Comoro_Islands -0.28563407 -0.021894384 -0.0016614699 -0.016583787 -0.005961623 -0.014449365 -0.008023432 -0.009443912 -0.0050920104 0.0007111935
Compositae -0.28581682 -0.021999005 -0.0016742571 -0.016740046 -0.006024391 -0.01461088 -0.008123488 -0.009569118 -0.0051700855 0.0007224356
Composite_order 0.49847037 -0.100357875 -0.19220114 -0.0493126 0.036028568 -0.06696827 -0.04945651 -0.08882154 0.0062304316 0.09494206
Comte_de_Mirabeau -0.28581682 -0.021999005 -0.0016742566 -0.016740048 -0.006024396 -0.01461089 -0.008123508 -0.009569155 -0.005170107 0.0007224462
Comte_de_Rochambeau -0.28563407 -0.021894384 -0.0016614699 -0.016583787 -0.005961623 -0.014449365 -0.008023432 -0.009443912 -0.0050920104 0.0007111935
Comtesse_Du_Barry -0.28563407 -0.021894384 -0.00166147 -0.016583787 -0.005961623 -0.014449365 -0.0080234315 -0.009443912 -0.005092009 0.00071119575
Comtism -0.28563407 -0.021894384 -0.00166147 -0.016583787 -0.005961623 -0.014449365 -0.0080234315 -0.009443912 -0.005092009 0.00071119575
Conakry -0.28581682 -0.021999005 -0.0016742572 -0.01674005 -0.006024381 -0.014610886 -0.008123476 -0.009569143 -0.005170103 0.0007224479
Condorcet -0.28563407 -0.021894384 -0.0016614699 -0.016583787 -0.005961623 -0.014449365 -0.008023432 -0.009443912 -0.0050920104 0.0007111935
Coney_Island -0.28563407 -0.021894384 -0.00166147 -0.016583787 -0.005961623 -0.014449365 -0.0080234315 -0.009443912 -0.005092009 0.00071119575
Confederacy -0.28563407 -0.021894384 -0.00166147 -0.016583787 -0.005961623 -0.014449365 -0.0080234315 -0.009443912 -0.005092009 0.00071119575
Confederate 0.1320637 0.6229421 -0.008512537 -0.054514427 -0.0018878896 -0.11039527 0.0018821553 0.015073082 -0.026292047 -0.006475872
Confucian -0.28563407 -0.021894384 -0.00166147 -0.016583787 -0.005961623 -0.014449365 -0.0080234315 -0.009443912 -0.005092009 0.00071119575
Confucius -0.28563407 -0.021894384 -0.00166147 -0.016583787 -0.005961623 -0.014449365 -0.0080234315 -0.009443912 -0.005092009 0.00071119575
Congo_River -0.28563407 -0.021894384 -0.00166147 -0.016583787 -0.005961623 -0.014449365 -0.0080234315 -0.009443912 -0.005092009 0.00071119575
Congo_peafowl -0.28581682 -0.021999005 -0.0016742568 -0.016740045 -0.0060244063 -0.014610886 -0.008123517 -0.009569129 -0.005170092 0.00072243524
Congregational_Christian_Church -0.28563407 -0.021894384 -0.00166147 -0.016583787 -0.005961623 -0.014449365 -0.0080234315 -0.009443912 -0.005092009 0.00071119575
Congress_of_Racial_Equality -0.28563407 -0.021894384 -0.00166147 -0.016583787 -0.005961623 -0.014449365 -0.0080234315 -0.009443912 -0.005092009 0.00071119575
Congreve -0.28563407 -0.021894384 -0.00166147 -0.016583787 -0.005961623 -0.014449365 -0.0080234315 -0.009443912 -0.005092009 0.00071119575
Coniferales -0.28563407 -0.021894384 -0.00166147 -0.016583787 -0.005961623 -0.014449365 -0.0080234315 -0.009443912 -0.00509201 0.000711196
Coniferophyta 0.19034904 0.009031661 -0.30129552 0.10022835 -0.15856503 0.13766362 -0.070152 0.013634202 0.2538027 0.08494961
Coniferophytina 0.19034915 0.009031664 -0.3012956 0.10022838 -0.15856501 0.13766363 -0.07015197 0.013634106 0.25380263 0.084949635
Coniferopsida 0.19034915 0.009031672 -0.3012956 0.10022837 -0.15856501 0.13766363 -0.07015198 0.013634104 0.25380263 0.08494964
Coniogramme_japonica -0.28563407 -0.021894384 -0.00166147 -0.016583787 -0.005961623 -0.014449365 -0.0080234315 -0.009443912 -0.005092009 0.00071119575
Coniogramme -0.28563407 -0.021894384 -0.00166147 -0.016583787 -0.005961623 -0.014449365 -0.0080234315 -0.009443912 -0.005092009 0.00071119575
Conium_maculatum -0.28563407 -0.021894384 -0.00166147 -0.016583787 -0.005961623 -0.014449365 -0.0080234315 -0.009443912 -0.005092009 0.00071119575
Conn's_syndrome -0.28563407 -0.021894384 -0.00166147 -0.016583787 -0.005961623 -0.014449365 -0.0080234315 -0.009443912 -0.005092009 0.00071119575
Connecticut -0.28563407 -0.021894384 -0.00166147 -0.016583787 -0.005961623 -0.014449365 -0.0080234315 -0.009443912 -0.00509201 0.000711196
Conopodium_denudatum -0.2323545 0.06104901 0.017877256 0.66802776 0.5058563 0.03578632 -0.47827572 0.10377097 0.01892682 0.0038417561
Conoy -0.28563407 -0.021894384 -0.00166147 -0.016583787 -0.005961623 -0.014449365 -0.0080234315 -0.009443912 -0.005092009 0.00071119575
Conrad_Aiken -0.28581682 -0.021999005 -0.001674257 -0.016740046 -0.0060244002 -0.014610887 -0.008123503 -0.009569139 -0.0051700743 0.00072244095
Conrad_Potter_Aiken -0.28581682 -0.021999005 -0.001674257 -0.016740046 -0.0060244002 -0.014610887 -0.008123503 -0.009569139 -0.0051700743 0.00072244095
Conservative 0.40100652 0.1926451 -0.13911374 0.03116749 -0.14006193 -0.060298596 -0.07815476 -0.009958741 0.011611938 -0.07200262
Constantine_I -0.28581682 -0.021999005 -0.001674257 -0.016740046 -0.0060244002 -0.014610887 -0.008123503 -0.009569139 -0.0051700743 0.0007224408
Constantine -0.28581682 -0.021999005 -0.001674257 -0.016740046 -0.0060244002 -0.014610887 -0.008123503 -0.009569139 -0.0051700743 0.0007224408
Constitutional_Convention -0.28563407 -0.021894384 -0.0016614699 -0.016583787 -0.005961623 -0.014449365 -0.008023431 -0.009443913 -0.005092007 0.00071120204
Constitutional_Union_Party 0.40367097 0.36461183 -0.058072977 0.0042789765 -0.056747656 -0.13842008 -0.049413066 -0.057596017 0.032618392 -0.09223874
Constrictor_constrictor -0.28563407 -0.021894384 -0.0016614699 -0.016583787 -0.005961623 -0.014449365 -0.008023431 -0.009443913 -0.005092007 0.00071120204
Continent -0.28563407 -0.021894384 -0.0016614699 -0.016583787 -0.005961623 -0.014449365 -0.008023431 -0.009443913 -0.005092007 0.00071120204
Contopus -0.28563407 -0.021894384 -0.0016614699 -0.016583787 -0.005961623 -0.014449365 -0.008023431 -0.009443913 -0.005092007 0.00071120204
Conuropsis_carolinensis -0.28563407 -0.021894384 -0.0016614699 -0.016583787 -0.005961623 -0.014449365 -0.008023431 -0.009443913 -0.005092007 0.00071120204
Conuropsis -0.28563407 -0.021894384 -0.0016614699 -0.016583787 -0.005961623 -0.014449365 -0.008023431 -0.009443913 -0.005092007 0.00071120204
Convolvulus_arvensis -0.28563407 -0.021894384 -0.0016614699 -0.016583787 -0.005961623 -0.014449365 -0.008023431 -0.009443913 -0.005092007 0.00071120204
Cooley's_anemia -0.28563407 -0.021894384 -0.0016614699 -0.016583787 -0.005961623 -0.014449365 -0.008023431 -0.009443913 -0.005092007 0.00071120204
Coosa -0.28563407 -0.021894384 -0.0016614699 -0.016583787 -0.005961623 -0.014449365 -0.008023431 -0.009443913 -0.005092007 0.00071120204
Copernican 0.14410903 0.14472315 0.044441197 -0.039067604 0.07074683 0.41546506 0.048938695 -0.12260199 -0.17432399 0.053429797
Copernicia_cerifera -0.28563407 -0.021894384 -0.0016614699 -0.016583787 -0.005961623 -0.014449365 -0.008023431 -0.009443913 -0.005092007 0.00071120204
Coprinus_atramentarius -0.28563407 -0.021894384 -0.0016614699 -0.016583787 -0.005961623 -0.014449365 -0.008023431 -0.009443913 -0.005092007 0.00071120204
Coprinus -0.28563407 -0.021894384 -0.0016614699 -0.016583787 -0.005961623 -0.014449365 -0.008023431 -0.009443913 -0.005092007 0.00071120204
Coptis -0.28563407 -0.021894384 -0.0016614699 -0.016583787 -0.005961623 -0.014449365 -0.008023431 -0.009443913 -0.005092007 0.00071120204
Cora -0.28599954 -0.022104474 -0.0016872595 -0.016899068 -0.0060883584 -0.014775823 -0.008225891 -0.0096975 -0.0052504977 0.00073399156
Corchorus -0.28563407 -0.021894384 -0.0016614699 -0.016583787 -0.005961623 -0.014449365 -0.008023431 -0.009443913 -0.005092007 0.00071120204
Cordaitales -0.28563407 -0.021894384 -0.0016614699 -0.016583787 -0.005961623 -0.014449365 -0.008023431 -0.009443913 -0.005092007 0.00071120204
Cordarone -0.28563407 -0.021894384 -0.0016614699 -0.016583787 -0.005961623 -0.014449365 -0.008023431 -0.009443913 -0.005092007 0.00071120204
Corday -0.28563407 -0.021894384 -0.0016614699 -0.016583787 -0.005961623 -0.014449365 -0.008023431 -0.009443913 -0.005092007 0.00071120204
Coregonidae -0.28563407 -0.021894384 -0.0016614699 -0.016583787 -0.005961623 -0.014449365 -0.008023431 -0.009443913 -0.005092007 0.00071120204
Coreopsis_gigantea -0.28563407 -0.021894384 -0.0016614699 -0.016583787 -0.005961623 -0.014449365 -0.008023431 -0.009443913 -0.005092007 0.00071120204
Coreopsis_maritima -0.28563407 -0.021894384 -0.0016614699 -0.016583787 -0.005961623 -0.014449365 -0.008023431 -0.009443913 -0.005092007 0.00071120204
Coriandrum -0.28563407 -0.021894384 -0.0016614699 -0.016583787 -0.005961623 -0.014449365 -0.008023431 -0.009443913 -0.005092007 0.00071120204
Corinthian -0.28563407 -0.021894384 -0.0016614699 -0.016583787 -0.005961623 -0.014449365 -0.008023431 -0.009443913 -0.005092007 0.00071120204
Corixidae -0.28563407 -0.021894384 -0.0016614699 -0.016583787 -0.005961623 -0.014449365 -0.008023431 -0.009443913 -0.005092007 0.00071120204
Cork -0.28563407 -0.021894384 -0.0016614699 -0.016583787 -0.005961623 -0.014449365 -0.008023431 -0.009443913 -0.005092007 0.00071120204
Cornelia_Otis_Skinner -0.28563407 -0.021894384 -0.0016614699 -0.016583787 -0.005961623 -0.014449365 -0.008023431 -0.009443913 -0.005092007 0.00071120204
Cornelius_Vanderbilt -0.28581682 -0.021999005 -0.0016742572 -0.016740048 -0.006024385 -0.014610881 -0.008123474 -0.009569125 -0.005170069 0.0007224393
Cornhusker_State -0.28563407 -0.021894384 -0.0016614699 -0.016583787 -0.005961623 -0.014449365 -0.008023431 -0.009443913 -0.005092007 0.00071120204
Cornhusker 0.04958976 0.7207546 -0.0053380346 -0.016422842 -0.015155822 -0.109241575 0.015360341 -0.02187468 0.026447024 0.059530992
Cornish_fowl 0.13329916 0.23627871 0.08629862 -0.00092400704 0.004679137 0.16864447 0.021351846 0.0070424792 -0.023078185 0.026563918
Cornish_pasty -0.28563407 -0.021894384 -0.0016614699 -0.016583787 -0.005961623 -0.014449365 -0.008023431 -0.009443913 -0.005092007 0.00071120204
Cornishman -0.28563407 -0.021894384 -0.0016614699 -0.016583787 -0.005961623 -0.014449365 -0.008023431 -0.009443913 -0.005092007 0.00071120204
Cornus_florida -0.029827952 0.0073897974 0.059585657 0.18310326 -0.099186875 -0.036532532 0.20937423 0.15062903 0.02979943 0.46483245
Cornus -0.28563407 -0.021894384 -0.0016614699 -0.016583787 -0.005961623 -0.014449365 -0.008023431 -0.009443913 -0.005092007 0.00071120204
Cornwall -0.28563407 -0.021894384 -0.0016614699 -0.016583787 -0.005961623 -0.014449365 -0.008023431 -0.009443913 -0.005092007 0.00071120204
Cornwallis -0.28563407 -0.021894384 -0.0016614699 -0.016583787 -0.005961623 -0.014449365 -0.008023431 -0.009443913 -0.005092007 0.00071120204
Corokia -0.28563407 -0.021894384 -0.0016614699 -0.016583787 -0.005961623 -0.014449365 -0.008023431 -0.009443913 -0.005092007 0.00071120204
Corse -0.28581682 -0.021999005 -0.001674257 -0.016740046 -0.0060244002 -0.0146108875 -0.008123503 -0.009569138 -0.005170074 0.00072244083
Corsica -0.28581682 -0.021999005 -0.001674257 -0.016740046 -0.0060244002 -0.014610886 -0.008123504 -0.0095691355 -0.0051700766 0.0007224343
Corsican_Army -0.28563407 -0.021894384 -0.0016614699 -0.016583787 -0.005961623 -0.014449365 -0.008023431 -0.009443913 -0.005092007 0.00071120204
Corticium -0.28563407 -0.021894384 -0.0016614699 -0.016583787 -0.005961623 -0.014449365 -0.008023431 -0.009443913 -0.005092007 0.00071120204
Corticium_solani -0.28563407 -0.021894384 -0.0016614699 -0.016583787 -0.005961623 -0.014449365 -0.008023431 -0.009443913 -0.005092007 0.00071120204
Cortinarius_corrugatus -0.28563407 -0.021894384 -0.0016614699 -0.016583787 -0.005961623 -0.014449365 -0.008023431 -0.009443913 -0.005092007 0.00071120204
Cortinarius_gentilis -0.28563407 -0.021894384 -0.0016614699 -0.016583787 -0.005961623 -0.014449365 -0.008023431 -0.009443913 -0.005092007 0.00071120204
Cortinarius_mutabilis -0.28581682 -0.021999005 -0.001674244 -0.01674005 -0.006024387 -0.014610885 -0.008123481 -0.009569133 -0.005170098 0.0007224384
Cortinarius_violaceus -0.28563407 -0.021894384 -0.0016614699 -0.016583787 -0.005961623 -0.014449365 -0.008023431 -0.009443913 -0.005092007 0.00071120204
Corvus_brachyrhyncos 0.47860333 -0.07345417 0.209646 -0.07599807 0.10990515 -0.06702475 0.0027435126 -0.041425083 -0.07748807 0.018121641
Corvus_corax -0.28563407 -0.021894384 -0.0016614699 -0.016583787 -0.005961623 -0.014449365 -0.008023431 -0.009443913 -0.005092007 0.00071120204
Corydalis -0.28599945 -0.022104433 -0.0016872283 -0.016898984 -0.006088355 -0.014775719 -0.0082258545 -0.009697447 -0.0052504367 0.0007340017
Corydalis_solida -0.28599903 -0.022104174 -0.0016872115 -0.0168986 -0.0060881893 -0.014775353 -0.008225612 -0.009697164 -0.005250275 0.0007339956
Corydalus -0.28599903 -0.022104174 -0.0016872115 -0.0168986 -0.0060881893 -0.014775353 -0.008225612 -0.009697164 -0.005250275 0.0007339956
Corylaceae -0.2858168 -0.021999 -0.0016742444 -0.016740043 -0.0060244002 -0.014610879 -0.00812349 -0.009569089 -0.0051700454 0.0007224226
Corynebacterium_diphtheriae -0.28581682 -0.021999005 -0.0016742568 -0.016740045 -0.0060244063 -0.014610886 -0.008123517 -0.00956913 -0.0051700915 0.00072243635
Corypha_gebanga -0.28581682 -0.021999005 -0.001674257 -0.016740046 -0.0060244002 -0.014610886 -0.008123504 -0.009569136 -0.005170076 0.0007224344
Corypha_utan -0.28581682 -0.021999005 -0.001674257 -0.016740046 -0.0060244002 -0.014610886 -0.008123504 -0.009569136 -0.005170076 0.0007224344
Coryphaena_equisetis -0.28563407 -0.021894384 -0.0016614699 -0.016583787 -0.005961623 -0.014449365 -0.008023431 -0.009443913 -0.005092007 0.00071120204
Coryphaena_hippurus -0.28563407 -0.021894384 -0.0016614699 -0.016583787 -0.005961623 -0.014449365 -0.008023431 -0.009443913 -0.005092007 0.00071120204
Coryphaenidae -0.28563407 -0.021894384 -0.0016614699 -0.016583787 -0.005961623 -0.014449365 -0.008023431 -0.009443913 -0.005092007 0.00071120204
Cossack -0.28563407 -0.021894384 -0.0016614699 -0.016583787 -0.005961623 -0.014449365 -0.008023431 -0.009443913 -0.005092007 0.00071120204
Costa_Rican_monetary_unit -0.28563407 -0.021894384 -0.0016614699 -0.016583787 -0.005961623 -0.014449365 -0.008023431 -0.009443913 -0.005092007 0.00071120204
Cotoneaster_horizontalis -0.28563407 -0.021894384 -0.0016614699 -0.016583787 -0.005961623 -0.014449365 -0.008023431 -0.009443913 -0.005092007 0.00071120204
Cotopaxi -0.28563407 -0.021894384 -0.0016614699 -0.016583787 -0.005961623 -0.014449365 -0.008023431 -0.009443913 -0.005092007 0.00071120204
Coturnix_coturnix -0.28563407 -0.021894384 -0.0016614699 -0.016583787 -0.005961623 -0.014449365 -0.008023431 -0.009443913 -0.005092007 0.00071120204
Coumadin -0.28563407 -0.021894384 -0.0016614699 -0.016583787 -0.005961623 -0.014449365 -0.008023431 -0.009443913 -0.005092007 0.00071120204
Council_Bluffs -0.28563407 -0.021894384 -0.0016614699 -0.016583787 -0.005961623 -0.014449365 -0.008023431 -0.009443913 -0.005092007 0.00071120204
Council_of_Economic_Advisors -0.28563407 -0.021894384 -0.0016614699 -0.016583787 -0.005961623 -0.014449365 -0.008023431 -0.009443913 -0.005092007 0.00071120204
Council_on_Environmental_Policy -0.28563407 -0.021894384 -0.0016614699 -0.016583787 -0.005961623 -0.014449365 -0.008023431 -0.009443913 -0.005092007 0.00071120204
Count_Alessandro_di_Cagliostro -0.28563407 -0.021894384 -0.0016614699 -0.016583787 -0.005961623 -0.014449365 -0.008023431 -0.009443913 -0.005092007 0.00071120204
Counterterrorist_Center 0.40611494 -0.060497273 -0.27989683 -0.027341345 -0.0047674566 0.026085675 -0.004426838 0.02401406 0.033093397 -0.05843385
Cowper -0.28563407 -0.021894384 -0.0016614699 -0.016583787 -0.005961623 -0.014449365 -0.008023431 -0.009443913 -0.005092007 0.00071120204
Cox-1 -0.28581682 -0.021999005 -0.0016742566 -0.016740046 -0.0060244002 -0.014610885 -0.008123504 -0.009569135 -0.005170075 0.00072243455
Cox-2_inhibitor -0.28563407 -0.021894384 -0.0016614699 -0.016583787 -0.005961623 -0.014449365 -0.008023431 -0.009443913 -0.005092007 0.00071120204
Cox -0.28581682 -0.021999005 -0.0016742566 -0.016740046 -0.0060244002 -0.014610885 -0.008123504 -0.009569135 -0.005170075 0.00072243455
Coyote_State -0.28563407 -0.021894384 -0.0016614699 -0.016583787 -0.005961623 -0.014449365 -0.008023431 -0.009443913 -0.005092007 0.00071120204
Cr 0.20818312 -0.023699827 -0.016421389 0.13956574 -0.22664376 0.122609854 -0.047906756 -0.0134521425 -0.14754273 -0.043875717
Crab 0.13070327 0.82060593 0.008575403 -0.05923124 0.02981883 -0.13785714 -0.0036241452 -0.04813896 0.024397513 0.007105411
Crangon -0.28563407 -0.021894384 -0.0016614699 -0.016583787 -0.005961623 -0.014449365 -0.008023431 -0.009443913 -0.005092007 0.00071120204
Craspedia -0.28563407 -0.021894384 -0.0016614699 -0.016583787 -0.005961623 -0.014449365 -0.008023431 -0.009443913 -0.005092007 0.00071120204
Crataegus_crus-galli -0.28563407 -0.021894384 -0.0016614699 -0.016583787 -0.005961623 -0.014449365 -0.008023431 -0.009443913 -0.005092007 0.00071120204
Crataegus_laevigata -0.28581682 -0.021999005 -0.0016742576 -0.016740046 -0.0060244002 -0.014610875 -0.008123499 -0.009569145 -0.005170082 0.0007224359
Crataegus_monogyna -0.28563407 -0.021894384 -0.0016614699 -0.016583787 -0.005961623 -0.014449365 -0.008023431 -0.009443913 -0.005092007 0.00071120204
Crataegus -0.28563407 -0.021894384 -0.0016614699 -0.016583787 -0.005961623 -0.014449365 -0.008023431 -0.009443913 -0.005092007 0.00071120204
Crataegus_oxycantha -0.28581682 -0.021999005 -0.0016742576 -0.016740046 -0.0060244002 -0.014610875 -0.008123499 -0.009569145 -0.005170082 0.0007224359
Crax -0.28563407 -0.021894384 -0.0016614699 -0.016583787 -0.005961623 -0.014449365 -0.008023431 -0.009443913 -0.005092007 0.00071120204
Crazy_Glue -0.050640084 -0.019343557 0.09167395 0.09519557 -0.09920502 0.06182348 0.05165184 0.09241273 -0.08581543 0.13298789
Creation -0.28563407 -0.021894384 -0.0016614699 -0.016583787 -0.005961623 -0.014449365 -0.008023431 -0.009443914 -0.005092006 0.0007112016
Creator -0.28581682 -0.021999005 -0.0016742568 -0.016740045 -0.0060244063 -0.014610886 -0.008123517 -0.009569129 -0.005170092 0.00072243524
Creon -0.28563407 -0.021894384 -0.0016614699 -0.016583787 -0.005961623 -0.014449365 -0.008023431 -0.009443914 -0.005092006 0.0007112016
Crepis -0.28563407 -0.021894384 -0.0016614699 -0.016583787 -0.005961623 -0.014449365 -0.008023431 -0.009443914 -0.005092006 0.0007112016
Cretaceous -0.28563407 -0.021894384 -0.0016614699 -0.016583787 -0.005961623 -0.014449365 -0.008023431 -0.009443914 -0.005092006 0.0007112016
Cretan -0.13418499 0.5677888 -0.0029863836 -0.026021864 -0.0027683876 -0.106661186 -0.001922833 -0.040475283 0.014632652 0.04271083
Crete -0.28563407 -0.021894384 -0.0016614699 -0.016583787 -0.005961623 -0.014449365 -0.008023431 -0.009443914 -0.005092006 0.0007112016
Creutzfeldt-Jakob_disease -0.28563407 -0.021894384 -0.0016614699 -0.016583787 -0.005961623 -0.014449365 -0.008023431 -0.009443913 -0.005092007 0.00071120204
Cricetus_cricetus -0.28563407 -0.021894384 -0.0016614699 -0.016583787 -0.005961623 -0.014449365 -0.008023431 -0.009443914 -0.005092006 0.0007112016
Cricetus -0.28563407 -0.021894384 -0.0016614699 -0.016583787 -0.005961623 -0.014449365 -0.008023431 -0.009443914 -0.005092006 0.0007112016
Criminal_Investigation_Command -0.28563407 -0.021894384 -0.0016614699 -0.016583787 -0.005961623 -0.014449365 -0.008023431 -0.0094439145 -0.005092007 0.00071120186
Crocanthemum_canadense -0.28563407 -0.021894384 -0.0016614699 -0.016583787 -0.005961623 -0.014449365 -0.008023431 -0.0094439145 -0.005092007 0.00071120186
Crockett -0.28563407 -0.021894384 -0.0016614699 -0.016583787 -0.005961623 -0.014449365 -0.008023431 -0.0094439145 -0.005092007 0.00071120186
Crocodile_River -0.28563407 -0.021894384 -0.0016614699 -0.016583787 -0.005961623 -0.014449365 -0.008023431 -0.0094439145 -0.005092007 0.00071120186
Cromwell -0.28596827 -0.022086289 -0.001685011 -0.016871432 -0.0060772295 -0.014747084 -0.008208022 -0.009675108 -0.005236391 0.0007319733
Cromwellian -0.2859368 -0.02206828 -0.0016828189 -0.016844533 -0.006066427 -0.014719274 -0.0081908135 -0.009653565 -0.005222992 0.0007300437
Crossopterygii 0.38600838 -0.0035828745 -0.30503243 0.090926796 -0.13590369 0.08024506 -0.09347669 -0.07346934 0.18337509 0.082006834
Crotalidae -0.28563407 -0.021894384 -0.0016614699 -0.016583787 -0.005961623 -0.014449365 -0.008023431 -0.009443914 -0.0050920085 0.00071120233
Crotalus_cerastes -0.28654507 -0.022424664 -0.0017271431 -0.017391019 -0.006287259 -0.015289867 -0.0085468395 -0.010101051 -0.0055055115 0.0007707571
Crotalus_tigris -0.28654507 -0.022424664 -0.0017271431 -0.017391019 -0.006287259 -0.015289867 -0.0085468395 -0.010101051 -0.0055055115 0.0007707571
Crotophaga -0.28581682 -0.021999005 -0.0016742571 -0.016740046 -0.006024391 -0.014610881 -0.008123488 -0.009569117 -0.005170086 0.00072243455
Crown_land 0.5487743 -0.07559343 -0.055496365 0.050799415 -0.07399199 0.006974268 -0.058251802 -0.13800265 -0.01866212 0.12580383
Cryptobranchus -0.28563407 -0.021894384 -0.0016614699 -0.016583787 -0.005961623 -0.014449365 -0.008023431 -0.009443914 -0.005092006 0.0007112016
Cryptocercus -0.28563407 -0.021894384 -0.0016614699 -0.016583787 -0.005961623 -0.014449365 -0.008023431 -0.0094439145 -0.0050920066 0.00071120216
Cryptophyceae 0.38600832 -0.003582885 -0.30503246 0.0909268 -0.13590363 0.08024503 -0.09347667 -0.0734694 0.183375 0.082006805
Cryptophyta -0.28563407 -0.021894384 -0.0016614699 -0.016583787 -0.005961623 -0.014449365 -0.008023431 -0.009443914 -0.0050920085 0.00071120233
Cryptotermes_brevis -0.28563407 -0.021894384 -0.0016614699 -0.016583787 -0.005961623 -0.014449365 -0.008023431 -0.0094439145 -0.005092007 0.00071120186
Cs 0.2081831 -0.023699813 -0.016421355 0.13956575 -0.22664373 0.1226099 -0.047906656 -0.01345208 -0.14754269 -0.04387576
Ctenizidae -0.28563407 -0.021894384 -0.0016614699 -0.016583787 -0.005961623 -0.014449365 -0.008023431 -0.0094439145 -0.0050920066 0.00071120216
Ctenocephalides_canis -0.28563407 -0.021894384 -0.0016614699 -0.016583787 -0.005961623 -0.014449365 -0.008023431 -0.0094439145 -0.0050920066 0.00071120216
Ctenocephalides -0.28581682 -0.021999005 -0.0016742571 -0.016740046 -0.006024391 -0.014610881 -0.008123488 -0.009569117 -0.005170086 0.00072243455
Cuban_heel -0.28563407 -0.021894384 -0.0016614699 -0.016583787 -0.005961623 -0.014449365 -0.008023431 -0.0094439145 -0.0050920066 0.00071120216
Cucumis_sativus -0.28581682 -0.021999005 -0.0016742575 -0.016740048 -0.006024391 -0.014610881 -0.008123486 -0.009569118 -0.0051700864 0.0007224343
Culebra -0.28563407 -0.021894384 -0.0016614699 -0.016583787 -0.005961623 -0.014449365 -0.008023431 -0.0094439145 -0.0050920066 0.00071120216
Cupressus_pigmaea -0.28563407 -0.021894384 -0.0016614699 -0.016583787 -0.005961623 -0.014449365 -0.008023431 -0.0094439145 -0.0050920066 0.00071120216
Curacao -0.28563407 -0.021894384 -0.0016614699 -0.016583787 -0.005961623 -0.014449365 -0.008023431 -0.0094439145 -0.0050920066 0.00071120216
Curcuma_domestica -0.23235455 0.06104901 0.017877279 0.66802776 0.5058562 0.035786286 -0.47827584 0.10377101 0.01892681 0.003841771
Curie -0.28581682 -0.021999005 -0.0016742568 -0.016740045 -0.0060244063 -0.014610886 -0.008123517 -0.009569129 -0.005170092 0.0007224355
Curtisia -0.28563407 -0.021894384 -0.0016614699 -0.016583787 -0.005961623 -0.014449365 -0.008023431 -0.0094439145 -0.0050920066 0.00071120216
Cushing's_syndrome -0.28563407 -0.021894384 -0.0016614699 -0.016583787 -0.005961623 -0.014449365 -0.008023431 -0.0094439145 -0.0050920066 0.00071120216
Custer -0.28563407 -0.021894384 -0.0016614699 -0.016583787 -0.005961623 -0.014449365 -0.008023431 -0.0094439145 -0.0050920066 0.00071120216
Cuvier -0.28563407 -0.021894384 -0.0016614699 -0.016583787 -0.005961623 -0.014449365 -0.008023431 -0.0094439145 -0.0050920066 0.00071120216
Cuzco -0.28563407 -0.021894384 -0.0016614699 -0.016583787 -0.005961623 -0.014449365 -0.008023431 -0.0094439145 -0.0050920066 0.00071120216
Cyatheaceae -0.28563407 -0.021894384 -0.0016614699 -0.016583787 -0.005961623 -0.014449365 -0.008023431 -0.0094439145 -0.0050920066 0.00071120216
Cyclades -0.28563407 -0.021894384 -0.0016614699 -0.016583787 -0.005961623 -0.014449365 -0.008023431 -0.0094439145 -0.0050920066 0.00071120216
Cyclophorus -0.28563407 -0.021894384 -0.0016614699 -0.016583787 -0.005961623 -0.014449365 -0.008023431 -0.0094439145 -0.0050920066 0.00071120216
