15000 20
10-membered -0.28563654 -0.02188906 -0.0016755364 -0.016598543 -0.005949527 -0.014463783 -0.008085493 -0.009489276 -0.0050911787 0.0008040798 6.473044e-05 -0.0059876014 -0.002936516 -0.0026237557 -0.0026304075 0.0014714359 -0.00029144975 0.00046224557 -6.026282e-05 -0.0014038915
Acocanthera_venenata -0.19857422 -0.019584695 0.046626195 0.57871115 0.06287976 -0.16648567 0.644006 -0.305001 0.09782945 -0.12148446 -0.029409336 0.05954775 0.04657861 -0.062150832 0.09612835 0.07956391 -0.024879085 -0.021007666 0.0047439802 0.02177631
American -0.05099694 0.7021782 -0.0034711347 -0.021647815 -0.010740885 -0.11674782 0.006716693 -0.0345444 0.01800531 0.053250816 0.05741452 -0.051646672 -0.012458948 0.022598434 0.033137813 -0.0057101245 0.04915661 0.10343337 -0.09419936 0.0021419472
Anaprox -0.28618112 -0.022209913 -0.0017055774 -0.017078493 -0.0061587417 -0.014939318 -0.008350147 -0.009834547 -0.0053229406 0.0008398661 7.0906855e-05 -0.0063335868 -0.003085877 -0.002793981 -0.0027812016 0.0015731886 -0.0002985253 0.00049007655 -4.4507757e-05 -0.0014988334
Anastatica -0.28563422 -0.021894358 -0.0016600516 -0.01658526 -0.005961193 -0.014446278 -0.008044877 -0.009432036 -0.005068446 0.00080616114 6.485773e-05 -0.0060060215 -0.0029177498 -0.0026421729 -0.0026244833 0.0014762596 -0.00027502282 0.00046184953 -3.451074e-05 -0.0013868712
Aqua-Lung -0.28581697 -0.021998938 -0.0016738998 -0.01674113 -0.0060301055 -0.014612783 -0.00814783 -0.00956285 -0.005148431 0.0008176793 6.560344e-05 -0.0061154 -0.0029697875 -0.0026908836 -0.002676398 0.0015090824 -0.00028115846 0.0004709401 -3.174398e-05 -0.00141848
Aquitania -0.28563422 -0.021894319 -0.001661082 -0.016584672 -0.0059673344 -0.014451056 -0.008046445 -0.009436616 -0.005074374 0.00080291205 6.774494e-05 -0.0060105617 -0.0029150438 -0.0026429223 -0.0026217978 0.0014777363 -0.00027509712 0.00046470598 -3.1882904e-05 -0.0013834262
Arab_League -0.28563422 -0.021894315 -0.0016611967 -0.016585128 -0.005968106 -0.014453231 -0.008048677 -0.009431817 -0.0050715767 0.00080788066 6.588751e-05 -0.0060142917 -0.0029172986 -0.002641015 -0.0026237036 0.0014727415 -0.00027610644 0.00046070784 -3.5732053e-05 -0.001386237
Arafat -0.28563422 -0.021894319 -0.001661066 -0.016584845 -0.0059671905 -0.0144514395 -0.008047019 -0.0094355205 -0.005072342 0.0008041722 6.810676e-05 -0.00600827 -0.0029191463 -0.002636689 -0.002624658 0.0014797397 -0.0002789558 0.00046220468 -3.7648584e-05 -0.0013884059
Armed_Islamic_Group -0.28563422 -0.021894323 -0.0016610491 -0.016584693 -0.00596697 -0.014450598 -0.008046539 -0.009437459 -0.00507253 0.0008060125 6.470077e-05 -0.00601162 -0.0029215685 -0.002644784 -0.0026207159 0.0014751081 -0.00027249154 0.00046124746 -3.498128e-05 -0.00138987
Arnold_Schonberg -0.28563422 -0.021894323 -0.0016609963 -0.016584601 -0.0059665823 -0.014450013 -0.00804593 -0.009439272 -0.005072613 0.00080483494 5.991197e-05 -0.0060109003 -0.0029203915 -0.0026395256 -0.0026266854 0.0014810754 -0.0002759987 0.0004609775 -3.5475707e-05 -0.0013842481
Arnold_Toynbee -0.28563422 -0.021894323 -0.0016609877 -0.016584594 -0.005966497 -0.014449935 -0.008045791 -0.009439504 -0.00507121 0.00080538203 6.234494e-05 -0.006010962 -0.0029218635 -0.0026392562 -0.0026229192 0.001480125 -0.00028015368 0.00046354654 -3.3362667e-05 -0.0013902243
Arnoseris_minima -0.2323548 0.061049927 0.017877987 0.6680391 0.5058761 0.03566991 -0.47814712 0.104511 0.018335676 0.0027707762 0.042300396 -0.00058044144 0.041716367 -0.009260848 -0.023396863 -0.027477374 0.0064708353 -0.0070271674 0.002960755 0.014229809
Ascomycotina 0.32977638 -0.0510336 -0.07790899 0.018533267 -0.07105173 0.08690147 -0.03647762 0.008973931 0.13528216 -0.047083765 0.013073758 -0.05773013 -0.048536822 0.13794099 -0.006630079 0.11797151 0.047297698 -0.14281057 -0.0806553 -0.09862776
Asio_otus -0.016310398 0.028229238 0.06523389 0.010358231 -0.019045115 0.07872655 0.019327624 0.090241104 0.031242954 0.059169486 -0.0845137 0.029580623 -0.030057596 -0.10910859 0.016938878 -0.034163676 0.060133953 -0.029560402 -0.01802922 -0.03232525
BA -0.28563422 -0.021894323 -0.0016609827 -0.01658456 -0.005966476 -0.014449698 -0.008045659 -0.009439756 -0.0050725415 0.00080419716 6.197157e-05 -0.0060064704 -0.0029215382 -0.0026418136 -0.0026223261 0.0014759538 -0.00027867247 0.00046398028 -3.95847e-05 -0.0013876017
Bahrein -0.28563422 -0.021894323 -0.0016609811 -0.016584584 -0.005966474 -0.014449771 -0.008045636 -0.009439551 -0.0050722365 0.0008037046 6.134311e-05 -0.00600611 -0.0029202572 -0.0026399216 -0.002624546 0.0014816667 -0.0002778123 0.00045821693 -3.775645e-05 -0.0013880116
Bath -0.28563422 -0.021894323 -0.0016609854 -0.016584584 -0.005966491 -0.014449891 -0.008045668 -0.009439592 -0.0050719 0.0008048097 6.061379e-05 -0.0060074446 -0.0029198234 -0.0026414501 -0.0026234647 0.0014806391 -0.00028046287 0.0004653439 -3.0545576e-05 -0.0013872024
Batidaceae -0.28563422 -0.021894323 -0.0016609788 -0.01658458 -0.005966459 -0.014449672 -0.008045576 -0.009439623 -0.0050727758 0.00080271385 6.1710605e-05 -0.006004723 -0.0029201817 -0.002639588 -0.0026262447 0.0014828983 -0.00027467415 0.00045290825 -4.058252e-05 -0.0013867541
Battle_of_Bull_Run -0.28563422 -0.021894323 -0.001660983 -0.016584601 -0.005966459 -0.014449941 -0.008045773 -0.009439446 -0.005071023 0.00080474344 6.081042e-05 -0.0060098087 -0.0029210676 -0.0026388813 -0.0026243427 0.0014808293 -0.00028174723 0.0004602632 -3.745386e-05 -0.001395306
Battle_of_Midway -0.28563422 -0.021894323 -0.0016609853 -0.016584583 -0.0059664855 -0.014449844 -0.008045699 -0.009439579 -0.005072007 0.0008044671 6.128286e-05 -0.0060072225 -0.0029203433 -0.0026404266 -0.002622988 0.0014798092 -0.00027922023 0.00046264986 -3.561539e-05 -0.0013886838
Battle_of_Wake -0.28563422 -0.021894323 -0.0016609858 -0.016584579 -0.005966495 -0.014449837 -0.0080457 -0.009439576 -0.005072033 0.0008046366 6.116524e-05 -0.0060071093 -0.0029204672 -0.0026409512 -0.0026221606 0.0014793822 -0.00027930317 0.00046421282 -3.5091212e-05 -0.0013888578
Bavaria -0.28563422 -0.021894323 -0.0016609848 -0.01658458 -0.0059665022 -0.014449889 -0.008045661 -0.00943952 -0.005071965 0.00080463686 6.0635342e-05 -0.006007949 -0.0029201694 -0.0026414338 -0.002623612 0.0014818483 -0.00027909115 0.0004632784 -3.0326391e-05 -0.0013892957
Bay_of_Campeche -0.28563422 -0.021894323 -0.0016609838 -0.016584586 -0.0059664873 -0.014449838 -0.008045751 -0.009439566 -0.0050719646 0.0008041812 6.0906706e-05 -0.006007389 -0.002920765 -0.0026398355 -0.0026232463 0.001480433 -0.00027884144 0.0004631817 -3.8357757e-05 -0.0013887335
Bay_of_Naples -0.28563422 -0.021894323 -0.0016609856 -0.016584583 -0.005966493 -0.014449849 -0.008045712 -0.009439575 -0.005072028 0.0008045706 6.10239e-05 -0.0060072336 -0.0029203699 -0.0026406602 -0.0026227164 0.0014799492 -0.00027955155 0.0004640166 -3.465766e-05 -0.0013878971
Baycol -0.28563422 -0.021894323 -0.001660986 -0.016584583 -0.0059664873 -0.014449845 -0.008045721 -0.009439584 -0.005071974 0.0008045105 6.104186e-05 -0.006007165 -0.002920446 -0.0026406331 -0.0026228218 0.0014794784 -0.00027974937 0.00046376424 -3.516003e-05 -0.0013883522
Bayesian -0.28563422 -0.021894323 -0.0016609861 -0.016584583 -0.0059664887 -0.014449843 -0.008045709 -0.009439589 -0.005071972 0.00080449897 6.128508e-05 -0.006007158 -0.002920465 -0.002640587 -0.002622764 0.0014793345 -0.00027969817 0.00046344497 -3.5513538e-05 -0.0013882725
Baykal -0.28563422 -0.021894323 -0.0016609858 -0.016584583 -0.0059664883 -0.014449841 -0.008045712 -0.009439581 -0.0050719855 0.0008045027 6.127028e-05 -0.0060071694 -0.002920487 -0.0026405917 -0.0026226763 0.0014793188 -0.0002795551 0.0004634197 -3.5579455e-05 -0.0013886264
Beaufort_scale 0.5393782 -0.06730279 0.04787774 0.029028416 -0.0643102 -0.058529567 -0.07038271 -0.13682452 -0.13437644 0.036169775 0.093612164 0.065437056 -0.11854423 -0.014664642 -0.028770532 0.02367237 -0.0061383233 -0.119288884 0.101660885 -0.004356991
Beaumont -0.28563422 -0.021894323 -0.0016609858 -0.016584583 -0.0059664887 -0.014449842 -0.008045712 -0.009439579 -0.005071987 0.0008045157 6.126511e-05 -0.0060071778 -0.0029204811 -0.0026405908 -0.0026226463 0.0014793365 -0.00027953467 0.00046346217 -3.5521916e-05 -0.0013887208
Beethoven 0.47258154 -0.060434233 -0.04964141 -0.04100834 0.06241235 0.019574951 -0.008595017 0.011481697 -0.1272712 -0.12559904 -0.17909557 -0.101606354 -0.0018584088 0.13420966 0.22949168 0.026124742 -0.046597645 0.019683698 -0.07360259 0.03997512
Begonia_heracleifolia -0.14839064 -0.0230219 0.040408656 0.08235003 0.015500419 0.057987634 0.08242636 -0.008760787 0.23031665 -0.012209017 -0.024163434 -0.009750963 -0.18299556 0.108350106 -0.042198338 0.26304197 0.14680064 -0.060403492 0.09560036 -0.11649502
Begonia_socotrana -0.14839062 -0.0230219 0.040408675 0.08235005 0.015500411 0.057987656 0.082426384 -0.008760754 0.2303167 -0.0122090215 -0.024163434 -0.009750996 -0.18299554 0.1083502 -0.04219832 0.263042 0.14680065 -0.06040345 0.09560038 -0.11649501
Begonia_tuberhybrida -0.28563422 -0.021894323 -0.0016609858 -0.016584583 -0.0059664887 -0.014449842 -0.0080457125 -0.009439577 -0.005071987 0.000804513 6.126199e-05 -0.006007181 -0.0029204844 -0.0026405873 -0.0026226477 0.0014793456 -0.00027951982 0.00046345385 -3.554518e-05 -0.0013887372
Begoniaceae -0.28563422 -0.021894323 -0.0016609858 -0.016584583 -0.0059664887 -0.014449842 -0.0080457125 -0.009439577 -0.005071987 0.000804513 6.126199e-05 -0.006007181 -0.0029204844 -0.0026405873 -0.0026226477 0.0014793456 -0.00027951982 0.00046345385 -3.554518e-05 -0.0013887372
Belgian_capital -0.28563422 -0.021894323 -0.0016609858 -0.016584583 -0.0059664887 -0.014449842 -0.0080457125 -0.009439577 -0.005071987 0.000804513 6.126199e-05 -0.006007181 -0.0029204844 -0.0026405873 -0.0026226477 0.0014793456 -0.00027951982 0.00046345385 -3.554518e-05 -0.0013887372
Belgian_hare 0.23705725 0.17210057 0.034079675 0.07166208 -0.13914399 0.083627075 0.013559796 0.054562386 -0.06479853 -0.08106918 0.087684676 0.00091155135 -0.025514325 -0.08552473 0.06708412 -0.18091804 0.07733961 -0.039697364 -0.055146277 -0.23447585
Belgian -0.13418518 0.567789 -0.0029262651 -0.026020193 -0.0031527244 -0.1071825 -0.002597519 -0.043077927 0.01130338 0.041777823 0.04513259 -0.044366993 -0.0046548294 0.01804926 0.026817262 -0.0060641794 0.044389907 0.08481119 -0.07498601 -0.0014189424
Bell -0.28563422 -0.021894323 -0.0016609858 -0.016584583 -0.0059664887 -0.014449842 -0.0080457125 -0.009439577 -0.0050719874 0.0008045125 6.126164e-05 -0.00600718 -0.0029204846 -0.0026405873 -0.0026226477 0.0014793456 -0.0002795196 0.00046345356 -3.5545414e-05 -0.0013887368
Belle_Isle_cress -0.28563422 -0.021894323 -0.0016609858 -0.016584583 -0.0059664887 -0.014449842 -0.0080457125 -0.009439577 -0.0050719874 0.0008045125 6.126164e-05 -0.00600718 -0.0029204846 -0.0026405873 -0.0026226477 0.0014793456 -0.0002795196 0.00046345356 -3.5545414e-05 -0.0013887368
Bemisia -0.28563422 -0.021894323 -0.0016609858 -0.016584583 -0.0059664887 -0.014449842 -0.0080457125 -0.009439577 -0.0050719874 0.0008045125 6.126164e-05 -0.00600718 -0.0029204846 -0.0026405873 -0.0026226477 0.0014793456 -0.0002795196 0.00046345356 -3.5545414e-05 -0.0013887368
Benadryl -0.28563422 -0.021894323 -0.0016609858 -0.016584583 -0.0059664887 -0.014449842 -0.0080457125 -0.009439577 -0.0050719874 0.0008045125 6.126164e-05 -0.00600718 -0.0029204846 -0.0026405873 -0.0026226477 0.0014793456 -0.0002795196 0.00046345356 -3.5545414e-05 -0.0013887368
Benjamin_Henry_Latrobe -0.28563422 -0.021894323 -0.0016609858 -0.016584583 -0.0059664887 -0.014449842 -0.0080457125 -0.009439577 -0.0050719874 0.0008045125 6.126164e-05 -0.00600718 -0.0029204846 -0.0026405873 -0.0026226477 0.0014793456 -0.0002795196 0.00046345356 -3.5545414e-05 -0.0013887368
Benjamin_Shahn -0.28563422 -0.021894323 -0.0016609858 -0.016584583 -0.0059664887 -0.014449842 -0.0080457125 -0.009439577 -0.0050719874 0.0008045127 6.126159e-05 -0.00600718 -0.0029204844 -0.0026405873 -0.0026226474 0.0014793456 -0.0002795196 0.00046345382 -3.5544716e-05 -0.001388737
Benny_Hill -0.28563422 -0.021894323 -0.0016609858 -0.016584583 -0.0059664887 -0.014449842 -0.0080457125 -0.009439577 -0.0050719874 0.0008045125 6.126164e-05 -0.00600718 -0.0029204846 -0.0026405873 -0.0026226477 0.0014793456 -0.0002795196 0.00046345356 -3.5545414e-05 -0.0013887368
Bering_Standard_Time 0.2566927 0.009983968 -0.038750034 -0.08880851 0.17917524 0.08473399 0.08618416 -0.01837267 0.10819584 0.021712868 0.07540693 0.0027865525 -0.18637142 0.12502865 -0.14157568 0.13555254 0.13019408 -0.04158641 0.06501731 -0.10302394
Berkshire_Hills -0.28563422 -0.021894323 -0.0016609858 -0.016584583 -0.0059664887 -0.014449842 -0.0080457125 -0.009439577 -0.0050719874 0.0008045125 6.126164e-05 -0.00600718 -0.0029204846 -0.0026405873 -0.0026226477 0.0014793456 -0.0002795196 0.00046345356 -3.5545414e-05 -0.0013887368
Berkshire -0.28563422 -0.021894323 -0.0016609858 -0.016584583 -0.0059664887 -0.014449842 -0.0080457125 -0.009439577 -0.0050719874 0.0008045125 6.126164e-05 -0.00600718 -0.0029204846 -0.0026405873 -0.0026226477 0.0014793456 -0.0002795196 0.00046345356 -3.5545414e-05 -0.0013887368
Berlin_airlift -0.28563422 -0.021894323 -0.0016609863 -0.016584584 -0.0059664897 -0.014449842 -0.008045712 -0.009439577 -0.0050719874 0.00080451334 6.12605e-05 -0.006007183 -0.002920485 -0.0026405896 -0.0026226505 0.0014793454 -0.00027952032 0.00046345312 -3.5545596e-05 -0.0013887377
Bermuda_plan -0.28563422 -0.021894323 -0.0016609863 -0.016584584 -0.0059664897 -0.014449842 -0.008045712 -0.009439577 -0.0050719874 0.0008045131 6.1260595e-05 -0.0060071833 -0.0029204853 -0.0026405891 -0.0026226512 0.0014793464 -0.00027951927 0.00046345225 -3.5547775e-05 -0.0013887384
Bermuda_shorts -0.28563422 -0.021894323 -0.0016609863 -0.016584584 -0.0059664897 -0.014449842 -0.008045712 -0.009439577 -0.0050719874 0.00080451334 6.12605e-05 -0.006007183 -0.002920485 -0.0026405896 -0.0026226505 0.0014793454 -0.00027952032 0.00046345312 -3.5545596e-05 -0.0013887377
Bernese_mountain_dog -0.28563422 -0.021894323 -0.0016609863 -0.016584584 -0.0059664897 -0.014449842 -0.008045712 -0.009439577 -0.0050719874 0.0008045131 6.1260595e-05 -0.0060071833 -0.0029204853 -0.0026405891 -0.0026226512 0.0014793464 -0.00027951927 0.00046345225 -3.5547775e-05 -0.0013887384
Bernstein -0.28563422 -0.021894323 -0.0016609863 -0.016584584 -0.0059664897 -0.014449842 -0.008045712 -0.009439577 -0.005071987 0.00080451294 6.1260616e-05 -0.0060071833 -0.0029204856 -0.0026405891 -0.0026226512 0.0014793464 -0.0002795192 0.00046345204 -3.5548506e-05 -0.0013887385
Bertillon -0.28563422 -0.021894323 -0.0016609863 -0.016584584 -0.0059664897 -0.014449842 -0.008045712 -0.009439577 -0.0050719874 0.00080451334 6.126073e-05 -0.0060071824 -0.0029204853 -0.00264059 -0.0026226505 0.001479345 -0.00027951982 0.00046345397 -3.5545156e-05 -0.0013887364
Betelgeuse -0.28563422 -0.021894323 -0.0016609863 -0.016584584 -0.0059664897 -0.014449842 -0.008045712 -0.009439577 -0.0050719874 0.00080451334 6.126073e-05 -0.0060071824 -0.0029204853 -0.00264059 -0.0026226505 0.001479345 -0.00027951982 0.00046345397 -3.5545156e-05 -0.0013887364
Bethe -0.28563422 -0.021894323 -0.0016609863 -0.016584584 -0.0059664897 -0.014449842 -0.008045712 -0.009439579 -0.005071987 0.00080451294 6.126057e-05 -0.006007183 -0.002920485 -0.0026405898 -0.002622651 0.0014793454 -0.00027952026 0.00046345362 -3.5546258e-05 -0.0013887367
Betula_nigra -0.28581697 -0.021998947 -0.0016737499 -0.016740885 -0.0060293283 -0.014611407 -0.008146276 -0.009564962 -0.00515005 0.0008174565 6.19563e-05 -0.006113132 -0.0029728143 -0.0026899385 -0.0026732804 0.0015102009 -0.00028493506 0.0004723207 -3.613127e-05 -0.0014232121
Beverly_Sills -0.28581697 -0.021998953 -0.0016737505 -0.016740885 -0.0060293353 -0.014611409 -0.008146265 -0.0095649725 -0.005150043 0.0008174592 6.194484e-05 -0.006113133 -0.002972813 -0.0026899383 -0.0026732797 0.0015102046 -0.00028494038 0.00047231716 -3.613155e-05 -0.0014232158
Biblical_Aramaic -0.28563422 -0.021894323 -0.0016609863 -0.016584584 -0.0059664897 -0.014449842 -0.008045712 -0.009439579 -0.005071987 0.000804513 6.126053e-05 -0.006007183 -0.0029204853 -0.00264059 -0.0026226505 0.0014793453 -0.00027952026 0.00046345382 -3.5545487e-05 -0.0013887365
Bidens -0.28563422 -0.021894323 -0.0016609863 -0.016584584 -0.0059664897 -0.014449842 -0.008045712 -0.009439579 -0.005071987 0.000804513 6.126053e-05 -0.006007183 -0.0029204853 -0.00264059 -0.0026226505 0.0014793453 -0.00027952026 0.00046345382 -3.5545487e-05 -0.0013887365
Bidens_trichosperma -0.28563422 -0.021894323 -0.0016609863 -0.016584584 -0.0059664897 -0.014449842 -0.008045712 -0.009439579 -0.005071987 0.000804513 6.126053e-05 -0.006007183 -0.0029204853 -0.00264059 -0.0026226505 0.0014793453 -0.00027952026 0.00046345382 -3.5545487e-05 -0.0013887365
Big_Blue 0.2539985 -0.0061408826 0.051910784 0.083212525 -0.19046551 -0.0021828434 -0.009105685 0.15141523 -0.0948916 -0.074850224 0.061382383 -0.021562992 0.054367013 -0.015286151 0.075278625 0.006533853 0.047003582 -0.08350587 0.043036956 -0.026489463
Bihar -0.28563422 -0.021894323 -0.0016609863 -0.016584584 -0.0059664897 -0.014449842 -0.008045712 -0.009439579 -0.005071987 0.000804513 6.126053e-05 -0.006007183 -0.0029204853 -0.00264059 -0.0026226505 0.0014793453 -0.00027952026 0.00046345382 -3.5545487e-05 -0.0013887365
Bill_Clinton -0.28599915 -0.022104116 -0.0016866883 -0.016899474 -0.0060932394 -0.014775913 -0.008248965 -0.00969323 -0.0052302247 0.0008307643 6.260496e-05 -0.0062224003 -0.0030268792 -0.0027408677 -0.0027255886 0.0015422713 -0.00029055626 0.00048147215 -3.6709494e-05 -0.001459337
Bill_Gates -0.28563422 -0.021894323 -0.0016609863 -0.016584584 -0.00596649 -0.014449842 -0.008045712 -0.009439579 -0.005071987 0.00080451346 6.126011e-05 -0.0060071847 -0.002920485 -0.002640591 -0.002622652 0.001479346 -0.00027952105 0.00046345266 -3.5545745e-05 -0.0013887375
Black_Africa -0.28563422 -0.021894323 -0.0016609863 -0.016584584 -0.00596649 -0.014449842 -0.008045712 -0.009439579 -0.005071987 0.00080451346 6.126011e-05 -0.0060071847 -0.002920485 -0.002640591 -0.002622652 0.001479346 -0.00027952105 0.00046345266 -3.5545745e-05 -0.0013887375
Blackpool -0.28563422 -0.021894323 -0.0016609863 -0.016584584 -0.00596649 -0.014449842 -0.008045712 -0.009439579 -0.005071987 0.00080451346 6.126011e-05 -0.0060071847 -0.002920485 -0.002640591 -0.002622652 0.001479346 -0.00027952105 0.00046345266 -3.5545745e-05 -0.0013887375
Blarina -0.28563422 -0.021894323 -0.0016609863 -0.016584584 -0.00596649 -0.014449842 -0.008045712 -0.009439579 -0.005071987 0.00080451346 6.126011e-05 -0.0060071847 -0.002920485 -0.002640591 -0.002622652 0.001479346 -0.00027952105 0.00046345266 -3.5545745e-05 -0.0013887375
Blennius -0.28563422 -0.021894323 -0.0016609863 -0.016584584 -0.00596649 -0.014449842 -0.008045712 -0.009439579 -0.005071987 0.00080451346 6.126011e-05 -0.0060071847 -0.002920485 -0.002640591 -0.002622652 0.001479346 -0.00027952105 0.00046345266 -3.5545745e-05 -0.0013887375
Blue_Ridge_Mountains -0.28563422 -0.021894323 -0.0016609863 -0.016584584 -0.00596649 -0.014449842 -0.008045712 -0.009439579 -0.005071987 0.00080451346 6.126011e-05 -0.0060071847 -0.002920485 -0.002640591 -0.002622652 0.001479346 -0.00027952105 0.00046345266 -3.5545745e-05 -0.0013887375
Bluebeard -0.28563422 -0.021894323 -0.0016609863 -0.016584584 -0.00596649 -0.014449842 -0.008045712 -0.009439579 -0.005071987 0.00080451346 6.126011e-05 -0.0060071847 -0.002920485 -0.002640591 -0.002622652 0.001479346 -0.00027952105 0.00046345266 -3.5545745e-05 -0.0013887375
Bluegrass -0.28563422 -0.021894323 -0.0016609863 -0.016584584 -0.00596649 -0.014449841 -0.008045712 -0.009439579 -0.005071987 0.0008045133 6.1259954e-05 -0.0060071847 -0.0029204853 -0.0026405908 -0.002622652 0.0014793464 -0.0002795204 0.00046345225 -3.5546745e-05 -0.0013887382
Bob_Woodward -0.28563422 -0.021894323 -0.0016609863 -0.016584584 -0.00596649 -0.014449842 -0.008045712 -0.009439579 -0.005071987 0.00080451346 6.126011e-05 -0.0060071847 -0.002920485 -0.002640591 -0.002622652 0.001479346 -0.00027952105 0.00046345266 -3.5545745e-05 -0.0013887375
Boche -0.28653646 -0.022419479 -0.0017258828 -0.017384086 -0.006289477 -0.015282253 -0.008566836 -0.010091455 -0.0054813717 0.0008725326 6.430647e-05 -0.0065680607 -0.0031980053 -0.002902545 -0.0028924218 0.001645484 -0.00030829068 0.00051026134 -3.8249033e-05 -0.0015777714
Bodhisattva -0.28563422 -0.021894323 -0.0016609863 -0.016584584 -0.00596649 -0.014449842 -0.008045712 -0.009439579 -0.005071987 0.00080451346 6.126011e-05 -0.0060071847 -0.002920485 -0.002640591 -0.002622652 0.001479346 -0.00027952105 0.00046345266 -3.5545745e-05 -0.0013887375
Bodoni 0.1695818 0.7182993 0.038118348 -0.054212995 0.030055726 -0.08169873 0.008499403 -0.06500834 0.0032019557 0.030053984 0.051131096 -0.05387855 -0.024164328 0.035861842 0.046030015 -0.05506834 0.044656698 0.06721927 -0.06402886 0.052452926
Boehmenism -0.28563422 -0.021894323 -0.0016609827 -0.016584586 -0.005966485 -0.014449836 -0.008045669 -0.009439518 -0.0050719976 0.0008045125 6.128371e-05 -0.0060071805 -0.00292046 -0.00264062 -0.002622646 0.0014793254 -0.00027947797 0.0004634516 -3.55254e-05 -0.0013886902
Boell -0.28581697 -0.021998953 -0.0016737502 -0.016740885 -0.0060293335 -0.014611404 -0.008146263 -0.009564977 -0.005150044 0.0008174587 6.19421e-05 -0.0061131357 -0.0029728098 -0.0026899418 -0.0026732807 0.0015102072 -0.0002849469 0.00047231116 -3.613258e-05 -0.0014232189
Bolanci -0.28563422 -0.021894323 -0.0016609827 -0.016584586 -0.005966485 -0.014449836 -0.008045669 -0.009439517 -0.0050719976 0.00080451294 6.1283754e-05 -0.0060071815 -0.00292046 -0.0026406196 -0.002622646 0.0014793251 -0.00027947794 0.00046345184 -3.5524863e-05 -0.0013886899
Boletus_variipes -0.28563422 -0.021894323 -0.0016609827 -0.016584586 -0.005966485 -0.014449836 -0.008045669 -0.009439517 -0.0050719976 0.00080451294 6.1283754e-05 -0.0060071815 -0.00292046 -0.0026406196 -0.002622646 0.0014793251 -0.00027947794 0.00046345184 -3.5524863e-05 -0.0013886899
Bolshevistic -0.28563422 -0.021894323 -0.0016609827 -0.016584586 -0.005966485 -0.014449836 -0.008045669 -0.009439518 -0.0050719976 0.0008045127 6.1283674e-05 -0.0060071805 -0.0029204597 -0.00264062 -0.002622646 0.0014793251 -0.00027947806 0.0004634518 -3.5524634e-05 -0.0013886901
Boltonia -0.28563422 -0.021894323 -0.0016609827 -0.016584586 -0.005966485 -0.014449836 -0.008045669 -0.009439518 -0.0050719976 0.0008045125 6.128371e-05 -0.0060071805 -0.00292046 -0.00264062 -0.002622646 0.0014793254 -0.00027947797 0.0004634516 -3.55254e-05 -0.0013886902
Boltzmann -0.28563422 -0.021894323 -0.0016609827 -0.016584586 -0.005966485 -0.014449836 -0.008045669 -0.009439518 -0.0050719976 0.0008045125 6.128371e-05 -0.0060071805 -0.00292046 -0.00264062 -0.002622646 0.0014793254 -0.00027947797 0.0004634516 -3.55254e-05 -0.0013886902
Bombax_malabarica 0.25698286 -0.014790193 0.04634548 0.158619 -0.074775845 -0.04595191 0.15538149 0.13702533 0.007080002 0.49023247 0.12908432 -0.24168175 0.15928589 0.21705772 -0.08224066 -0.13571678 -0.09488314 -0.17159072 -0.06943262 -0.051009975
Bombax -0.28563422 -0.021894323 -0.0016609827 -0.016584586 -0.005966485 -0.014449836 -0.008045669 -0.009439518 -0.0050719976 0.0008045127 6.1283674e-05 -0.0060071805 -0.0029204597 -0.00264062 -0.002622646 0.0014793251 -0.00027947806 0.0004634518 -3.5524634e-05 -0.0013886901
Boniface_VIII -0.28563422 -0.021894323 -0.0016609827 -0.016584586 -0.005966485 -0.014449836 -0.008045669 -0.009439518 -0.0050719976 0.0008045125 6.128371e-05 -0.0060071805 -0.00292046 -0.00264062 -0.002622646 0.0014793254 -0.00027947797 0.0004634516 -3.55254e-05 -0.0013886902
Bontemps -0.28563422 -0.021894323 -0.0016609827 -0.016584586 -0.005966485 -0.014449836 -0.008045669 -0.009439518 -0.0050719976 0.0008045127 6.1283674e-05 -0.0060071805 -0.0029204597 -0.00264062 -0.002622646 0.0014793251 -0.00027947806 0.0004634518 -3.5524634e-05 -0.0013886901
Book_of_Baruch -0.28563422 -0.021894323 -0.0016609827 -0.016584586 -0.005966485 -0.014449836 -0.008045669 -0.009439518 -0.0050719976 0.0008045126 6.128361e-05 -0.0060071805 -0.0029204597 -0.00264062 -0.002622646 0.0014793252 -0.00027947783 0.0004634516 -3.5525085e-05 -0.0013886901
Book_of_Haggai -0.28563422 -0.021894323 -0.0016609827 -0.016584586 -0.005966485 -0.014449836 -0.008045669 -0.009439518 -0.0050719976 0.0008045126 6.128361e-05 -0.0060071805 -0.0029204597 -0.00264062 -0.002622646 0.0014793252 -0.00027947783 0.0004634516 -3.5525085e-05 -0.0013886901
Book_of_Jeremiah -0.28563422 -0.021894323 -0.0016609827 -0.016584586 -0.005966485 -0.014449836 -0.008045669 -0.009439518 -0.0050719976 0.0008045127 6.1283674e-05 -0.0060071805 -0.0029204597 -0.00264062 -0.002622646 0.0014793251 -0.00027947806 0.0004634518 -3.5524634e-05 -0.0013886901
Book_of_Jonah -0.28581697 -0.021998953 -0.0016737502 -0.016740885 -0.0060293335 -0.014611405 -0.008146263 -0.009564976 -0.005150043 0.0008174587 6.1942024e-05 -0.0061131367 -0.0029728105 -0.0026899413 -0.0026732816 0.0015102075 -0.0002849465 0.0004723106 -3.6134486e-05 -0.0014232193
Book_of_Judith -0.28563422 -0.021894323 -0.0016609827 -0.016584586 -0.005966485 -0.014449836 -0.008045669 -0.009439518 -0.0050719976 0.0008045126 6.128361e-05 -0.0060071805 -0.0029204597 -0.00264062 -0.002622646 0.0014793252 -0.00027947783 0.0004634516 -3.5525085e-05 -0.0013886901
Book_of_Psalms 0.31356204 -0.057958543 -0.14215234 0.0026566386 0.12410962 -0.016719615 0.08215354 0.11844464 -0.14923026 0.06731612 -0.09377095 0.10091419 -0.0995341 -0.08461596 -0.10936815 0.032057814 -0.040549714 0.021874106 -0.07979182 -0.03584929
Boolean_logic -0.28563422 -0.021894323 -0.0016609827 -0.016584586 -0.005966485 -0.014449836 -0.008045669 -0.009439518 -0.0050719976 0.0008045126 6.128361e-05 -0.0060071805 -0.0029204597 -0.00264062 -0.002622646 0.0014793252 -0.00027947783 0.0004634516 -3.5525085e-05 -0.0013886901
Borago_officinalis -0.23235479 0.061049927 0.017877989 0.6680391 0.50587595 0.03566929 -0.47814754 0.10451168 0.018337872 0.002774224 0.042297855 -0.00058959046 0.041718878 -0.009257339 -0.023394767 -0.027470065 0.0064675906 -0.007023919 0.0029606922 0.014229269
Borago -0.28563422 -0.021894323 -0.0016609827 -0.016584586 -0.005966484 -0.014449836 -0.008045669 -0.009439518 -0.0050719976 0.00080451235 6.128319e-05 -0.0060071805 -0.0029204597 -0.0026406208 -0.0026226463 0.001479325 -0.00027947768 0.00046345126 -3.55255e-05 -0.0013886901
Borassus_flabellifer -0.28563422 -0.021894323 -0.0016609827 -0.016584586 -0.005966484 -0.014449836 -0.008045669 -0.009439518 -0.0050719976 0.0008045124 6.1283245e-05 -0.0060071805 -0.0029204597 -0.0026406208 -0.0026226463 0.0014793248 -0.00027947783 0.00046345146 -3.552505e-05 -0.0013886901
Border_terrier -0.28563422 -0.021894323 -0.0016609827 -0.016584586 -0.005966484 -0.014449836 -0.008045669 -0.009439518 -0.0050719976 0.0008045124 6.1283245e-05 -0.0060071805 -0.0029204597 -0.0026406208 -0.0026226463 0.0014793248 -0.00027947783 0.00046345146 -3.552505e-05 -0.0013886901
Borrelia_burgdorferi -0.28563422 -0.021894323 -0.0016609827 -0.016584586 -0.005966484 -0.014449836 -0.008045669 -0.009439518 -0.005071998 0.0008045121 6.128395e-05 -0.006007179 -0.0029204611 -0.0026406203 -0.0026226446 0.0014793212 -0.0002794774 0.00046345245 -3.553263e-05 -0.0013886893
Bosnia_and_Herzegovina -0.28563422 -0.021894323 -0.0016609827 -0.016584586 -0.005966484 -0.014449836 -0.008045669 -0.009439518 -0.0050719976 0.00080451224 6.128331e-05 -0.006007181 -0.00292046 -0.0026406199 -0.0026226465 0.0014793259 -0.00027947675 0.00046345056 -3.5527188e-05 -0.0013886907
Boston_cream_pie 0.35175407 -0.0014154785 0.12851404 0.14648741 -0.25243172 0.09200854 -0.059396345 -0.0273611 -0.1410233 -0.071311526 0.17891549 0.08598248 -0.14219913 -0.062025413 0.031692404 -0.06722324 0.08316966 -0.08701702 -0.030824844 -0.02527636
Boswellia -0.28563422 -0.021894323 -0.0016609827 -0.016584586 -0.005966484 -0.014449836 -0.008045669 -0.009439518 -0.0050719976 0.00080451235 6.128319e-05 -0.0060071805 -0.0029204597 -0.0026406208 -0.0026226463 0.001479325 -0.00027947768 0.00046345126 -3.55255e-05 -0.0013886901
Botrychium_matricariifolium -0.28563422 -0.021894323 -0.0016609827 -0.016584586 -0.005966484 -0.014449836 -0.008045669 -0.009439518 -0.0050719976 0.0008045124 6.1283245e-05 -0.0060071805 -0.0029204597 -0.0026406208 -0.0026226463 0.0014793248 -0.00027947783 0.00046345146 -3.552505e-05 -0.0013886901
Bourgogne -0.28563422 -0.021894323 -0.0016609827 -0.016584586 -0.005966484 -0.014449836 -0.008045669 -0.009439518 -0.0050719976 0.0008045124 6.1283245e-05 -0.0060071805 -0.0029204597 -0.0026406208 -0.0026226463 0.0014793248 -0.00027947783 0.00046345146 -3.552505e-05 -0.0013886901
Bowditch -0.28563422 -0.021894323 -0.0016609827 -0.016584586 -0.005966484 -0.014449836 -0.008045669 -0.009439518 -0.0050719976 0.0008045125 6.128314e-05 -0.006007181 -0.0029204597 -0.0026406213 -0.0026226463 0.0014793249 -0.00027947768 0.00046345146 -3.552473e-05 -0.00138869
Boy_Orator_of_the_Platte -0.28563422 -0.021894323 -0.0016609827 -0.016584586 -0.005966484 -0.014449836 -0.008045669 -0.009439518 -0.0050719976 0.0008045125 6.128314e-05 -0.006007181 -0.0029204597 -0.0026406213 -0.0026226463 0.0014793249 -0.00027947768 0.00046345146 -3.552473e-05 -0.00138869
Boyne -0.28563422 -0.021894323 -0.0016609827 -0.016584586 -0.005966484 -0.014449836 -0.008045669 -0.009439518 -0.0050719976 0.0008045125 6.128314e-05 -0.006007181 -0.0029204597 -0.0026406213 -0.0026226463 0.0014793249 -0.00027947768 0.00046345146 -3.552473e-05 -0.00138869
Bradbury -0.28563422 -0.021894323 -0.0016609827 -0.016584586 -0.005966484 -0.014449836 -0.008045669 -0.009439518 -0.0050719976 0.0008045125 6.128314e-05 -0.006007181 -0.0029204597 -0.0026406213 -0.0026226463 0.0014793249 -0.00027947768 0.00046345146 -3.552473e-05 -0.00138869
Bradley_method_of_childbirth -0.28563422 -0.021894323 -0.0016609827 -0.016584586 -0.005966484 -0.014449836 -0.008045669 -0.009439518 -0.0050719976 0.0008045125 6.128314e-05 -0.006007181 -0.0029204597 -0.0026406213 -0.0026226463 0.0014793249 -0.00027947768 0.00046345146 -3.552473e-05 -0.00138869
Braga -0.28563422 -0.021894323 -0.0016609827 -0.016584586 -0.005966484 -0.014449836 -0.008045669 -0.009439518 -0.0050719976 0.0008045125 6.128314e-05 -0.006007181 -0.0029204597 -0.0026406213 -0.0026226463 0.0014793249 -0.00027947768 0.00046345146 -3.552473e-05 -0.00138869
Bram_Stoker -0.28563422 -0.021894323 -0.0016609827 -0.016584586 -0.005966484 -0.014449836 -0.008045669 -0.009439518 -0.0050719976 0.00080451224 6.128323e-05 -0.0060071805 -0.0029204597 -0.0026406206 -0.0026226465 0.0014793259 -0.0002794769 0.00046344986 -3.5525416e-05 -0.0013886897
Branchiobdella -0.28563422 -0.021894323 -0.0016609827 -0.016584586 -0.005966484 -0.014449833 -0.008045668 -0.009439518 -0.005071998 0.0008045123 6.128316e-05 -0.006007181 -0.0029204597 -0.0026406215 -0.0026226467 0.0014793249 -0.00027947835 0.0004634515 -3.5524594e-05 -0.00138869
Branchiostomidae -0.28563422 -0.021894323 -0.0016609827 -0.016584586 -0.005966484 -0.014449833 -0.008045668 -0.009439518 -0.005071998 0.0008045123 6.128316e-05 -0.006007181 -0.0029204597 -0.0026406215 -0.0026226467 0.0014793249 -0.00027947835 0.0004634515 -3.5524594e-05 -0.00138869
Branta_bernicla -0.28563422 -0.021894323 -0.0016609827 -0.016584586 -0.005966484 -0.014449833 -0.008045668 -0.009439518 -0.005071998 0.0008045123 6.128316e-05 -0.006007181 -0.0029204597 -0.0026406215 -0.0026226467 0.0014793249 -0.00027947835 0.0004634515 -3.5524594e-05 -0.00138869
Branta_leucopsis -0.28563422 -0.021894323 -0.0016609827 -0.016584586 -0.005966484 -0.014449833 -0.008045668 -0.009439518 -0.005071998 0.0008045124 6.1283215e-05 -0.006007181 -0.0029204597 -0.0026406215 -0.0026226467 0.0014793248 -0.00027947853 0.0004634517 -3.552418e-05 -0.00138869
Braque -0.28563422 -0.021894323 -0.0016609827 -0.016584586 -0.005966484 -0.014449833 -0.008045668 -0.009439518 -0.005071998 0.0008045123 6.128316e-05 -0.006007181 -0.0029204597 -0.0026406215 -0.0026226467 0.0014793249 -0.00027947835 0.0004634515 -3.5524594e-05 -0.00138869
Brasil -0.28581697 -0.021998947 -0.0016737644 -0.016740886 -0.006029333 -0.014611404 -0.0081462795 -0.009564987 -0.0051500425 0.00081744534 6.1925195e-05 -0.0061131017 -0.0029728496 -0.0026899432 -0.0026732695 0.0015101982 -0.00028493433 0.00047233616 -3.6161713e-05 -0.0014232302
Brassica -0.28563422 -0.021894323 -0.0016609827 -0.016584586 -0.005966484 -0.014449836 -0.008045669 -0.009439518 -0.0050719976 0.00080451235 6.128328e-05 -0.0060071805 -0.0029204597 -0.0026406208 -0.0026226463 0.0014793258 -0.00027947707 0.00046345004 -3.552495e-05 -0.0013886896
Brazil -0.28581697 -0.021998947 -0.0016737644 -0.016740886 -0.0060293335 -0.014611404 -0.0081462795 -0.009564986 -0.0051500374 0.0008174487 6.1923995e-05 -0.006113119 -0.0029728506 -0.0026899357 -0.0026732727 0.0015102087 -0.0002849437 0.00047233145 -3.6162106e-05 -0.0014232498
Brazos -0.28563422 -0.021894323 -0.0016609827 -0.016584586 -0.005966484 -0.014449833 -0.008045668 -0.009439518 -0.005071998 0.0008045121 6.128323e-05 -0.0060071805 -0.0029204597 -0.002640621 -0.0026226465 0.001479325 -0.00027947835 0.00046345126 -3.5525452e-05 -0.0013886902
Bremen -0.28563422 -0.021894323 -0.0016609827 -0.016584586 -0.005966484 -0.014449833 -0.008045668 -0.009439518 -0.005071998 0.0008045124 6.1283215e-05 -0.006007181 -0.0029204597 -0.0026406215 -0.0026226467 0.0014793248 -0.00027947853 0.0004634517 -3.552418e-05 -0.00138869
Bremerhaven -0.28563422 -0.021894323 -0.0016609827 -0.016584586 -0.005966484 -0.014449833 -0.008045668 -0.009439518 -0.005071998 0.0008045123 6.128316e-05 -0.006007181 -0.0029204597 -0.0026406215 -0.0026226467 0.0014793249 -0.00027947835 0.0004634515 -3.5524594e-05 -0.00138869
Brisbane -0.28563422 -0.021894323 -0.0016609827 -0.016584586 -0.005966484 -0.014449833 -0.008045668 -0.009439518 -0.005071998 0.0008045123 6.128316e-05 -0.006007181 -0.0029204597 -0.0026406215 -0.0026226467 0.0014793249 -0.00027947835 0.0004634515 -3.5524594e-05 -0.00138869
Brownian_motion 0.5101344 -0.12168115 0.16961989 -0.06913724 0.01934706 -0.116068564 -0.056391526 -0.017589102 0.07827299 -0.09186609 -0.057271972 -0.07668351 0.14448598 0.0051559648 0.0648095 -0.030342417 0.09664646 -0.05472102 -0.04845103 -0.015988555
Brownian_movement 0.5101343 -0.12168116 0.16961986 -0.069137275 0.01934712 -0.11606861 -0.0563915 -0.017589133 0.07827291 -0.09186613 -0.05727192 -0.07668353 0.14448594 0.005155927 0.06480953 -0.03034241 0.09664645 -0.05472098 -0.04845101 -0.015988557
Bruckner -0.28563422 -0.021894323 -0.0016609827 -0.016584586 -0.005966484 -0.014449833 -0.008045668 -0.009439518 -0.005071998 0.0008045123 6.128316e-05 -0.006007181 -0.0029204597 -0.0026406215 -0.0026226467 0.0014793249 -0.00027947835 0.0004634515 -3.5524594e-05 -0.00138869
Brugmansia_arborea -0.19857422 -0.019584425 0.046629332 0.5787153 0.06287767 -0.16648404 0.64400774 -0.30499265 0.09782991 -0.12148369 -0.029411258 0.05954564 0.046579517 -0.062152356 0.09613207 0.07956477 -0.024874544 -0.021006014 0.004747972 0.021781256
Brumaire -0.28563422 -0.021894323 -0.0016609827 -0.016584586 -0.005966484 -0.014449833 -0.008045668 -0.009439518 -0.005071998 0.0008045123 6.128316e-05 -0.006007181 -0.0029204597 -0.0026406215 -0.0026226467 0.0014793249 -0.00027947835 0.0004634515 -3.5524594e-05 -0.00138869
Bruno -0.28563422 -0.021894323 -0.0016609827 -0.016584586 -0.005966484 -0.014449833 -0.008045668 -0.009439518 -0.005071998 0.0008045121 6.1283296e-05 -0.0060071805 -0.0029204595 -0.002640621 -0.0026226465 0.0014793256 -0.0002794776 0.0004634499 -3.5525245e-05 -0.0013886897
Brussels_biscuit 0.403237 -0.047467943 0.15433414 0.024492001 0.04400677 0.04008355 -0.00021230479 -0.012152776 -0.07075708 0.09398373 -0.07947851 0.044735916 -0.047957174 -0.10260357 0.08804335 0.0010548683 -0.036584653 0.00020803636 0.03942209 -0.033568062
Brussels_lace 0.43743226 -0.07495831 0.1221893 0.10569897 -0.0786309 -0.08802191 0.049615934 -0.03127431 -0.10788526 -0.21005446 -0.078417554 -0.0052297255 0.01572593 0.14931226 -0.110415496 -0.14837919 -0.058160335 0.06413439 -0.05785524 0.005448379
Bryonia_dioica -0.28581697 -0.021998947 -0.0016737513 -0.016740888 -0.006029329 -0.014611405 -0.008146274 -0.009564973 -0.005150048 0.00081745913 6.194719e-05 -0.0061131273 -0.0029728166 -0.0026899297 -0.002673262 0.0015102051 -0.0002849364 0.00047232988 -3.6133228e-05 -0.0014232094
Bucconidae -0.18819116 0.023190908 -0.11307485 0.047996633 -0.12545554 -0.011599776 -0.07589207 0.010220207 0.14095573 -0.026477126 -0.19525889 0.039764456 -0.10354592 0.0046068607 -0.06529196 -0.0064775627 -0.05817211 -0.056870524 -0.106983274 0.05013506
Buchloe_dactyloides 0.415127 -0.04575451 0.1274299 0.053714372 -0.06864253 0.026748559 -0.0031617568 -0.047881316 -0.1270804 0.102173045 -0.010189156 0.03850822 -0.057837896 -0.15614828 -0.035268407 -0.098764636 0.1278904 0.04664326 0.044049468 -0.019941645
Buckleya_distichophylla -0.28563422 -0.021894323 -0.0016609827 -0.016584586 -0.005966484 -0.014449833 -0.008045668 -0.009439518 -0.005071998 0.0008045123 6.128316e-05 -0.006007181 -0.0029204597 -0.0026406215 -0.0026226467 0.0014793249 -0.00027947835 0.0004634515 -3.5524594e-05 -0.00138869
Bull_Moose_Party 0.40367132 0.3646126 -0.05798564 0.0040908353 -0.05738786 -0.13946897 -0.04991766 -0.058400385 0.0284306 -0.10125357 0.009321 0.0048403665 0.03304526 0.031784125 -0.012865282 -0.06037039 0.08558157 0.030386014 -0.072232395 -0.04344389
Bultmann -0.28563422 -0.021894323 -0.0016609827 -0.016584586 -0.005966484 -0.014449833 -0.008045668 -0.009439518 -0.005071998 0.0008045123 6.128316e-05 -0.006007181 -0.0029204597 -0.0026406215 -0.0026226467 0.0014793249 -0.00027947835 0.0004634515 -3.5524594e-05 -0.00138869
Bunche -0.28563422 -0.021894323 -0.0016609827 -0.016584586 -0.005966484 -0.014449833 -0.008045668 -0.009439518 -0.005071998 0.0008045121 6.1283296e-05 -0.0060071805 -0.0029204595 -0.002640621 -0.0026226465 0.0014793256 -0.0002794776 0.0004634499 -3.5525245e-05 -0.0013886897
Burbage -0.28563422 -0.021894323 -0.0016609827 -0.016584586 -0.005966484 -0.014449833 -0.008045668 -0.009439518 -0.005071998 0.0008045122 6.128335e-05 -0.0060071805 -0.0029204595 -0.002640621 -0.0026226465 0.0014793256 -0.00027947777 0.0004634501 -3.5524816e-05 -0.0013886897
Burbank -0.28581697 -0.021998953 -0.0016737505 -0.016740885 -0.0060293344 -0.014611406 -0.008146265 -0.009564973 -0.0051500434 0.0008174589 6.194347e-05 -0.006113135 -0.0029728133 -0.0026899395 -0.002673282 0.0015102067 -0.0002849408 0.00047231588 -3.613439e-05 -0.0014232164
Burger -0.28563422 -0.021894323 -0.0016609827 -0.016584586 -0.005966484 -0.014449833 -0.008045668 -0.009439518 -0.005071998 0.0008045123 6.128316e-05 -0.006007181 -0.0029204597 -0.0026406215 -0.0026226467 0.0014793249 -0.00027947835 0.0004634515 -3.5524594e-05 -0.00138869
Burrill_Bernard_Crohn -0.28563422 -0.021894323 -0.0016609827 -0.016584586 -0.005966484 -0.014449833 -0.008045668 -0.009439518 -0.005071998 0.0008045121 6.1283296e-05 -0.0060071805 -0.0029204595 -0.002640621 -0.0026226465 0.0014793256 -0.0002794776 0.0004634499 -3.5525245e-05 -0.0013886897
Bushman -0.28654143 -0.022422347 -0.0017262407 -0.01738844 -0.0062911995 -0.015286801 -0.008569668 -0.010094998 -0.005483606 0.0008728929 6.4369444e-05 -0.0065710824 -0.0031994795 -0.0029039634 -0.0028939 0.0016463673 -0.00030843992 0.0005105069 -3.8275404e-05 -0.0015787778
Buster_Keaton -0.28581697 -0.021998953 -0.0016737505 -0.016740885 -0.006029334 -0.014611405 -0.008146264 -0.009564974 -0.005150042 0.0008174593 6.1944906e-05 -0.006113137 -0.0029728126 -0.0026899332 -0.0026732788 0.0015102078 -0.00028494518 0.00047231343 -3.6138525e-05 -0.0014232205
Butler -0.28563422 -0.021894323 -0.0016609827 -0.016584586 -0.005966484 -0.014449833 -0.008045668 -0.009439518 -0.0050719986 0.0008045117 6.1284074e-05 -0.0060071787 -0.002920461 -0.002640621 -0.0026226446 0.0014793214 -0.0002794773 0.0004634511 -3.5532692e-05 -0.0013886889
CAT_scanner -0.28563422 -0.021894323 -0.0016609827 -0.016584586 -0.005966484 -0.014449833 -0.008045668 -0.009439518 -0.005071998 0.0008045121 6.1283296e-05 -0.0060071805 -0.0029204595 -0.002640621 -0.0026226465 0.0014793256 -0.0002794776 0.0004634499 -3.5525245e-05 -0.0013886897
CD4_cell -0.28563422 -0.021894323 -0.0016609826 -0.016584586 -0.005966484 -0.014449833 -0.008045668 -0.009439519 -0.005071998 0.000804512 6.128325e-05 -0.0060071805 -0.0029204593 -0.0026406206 -0.0026226463 0.0014793263 -0.00027947783 0.00046344966 -3.5524998e-05 -0.00138869
CDC 0.3568597 -0.05487329 -0.28013226 -0.025554113 -0.0054128324 0.047848806 0.007960454 0.059199423 0.047362596 -0.053023685 0.07079314 -0.04899268 0.13973197 -0.02111294 0.11392658 0.05798789 -0.079443835 -0.008521152 -0.08908907 -0.022916764
CD 0.25065827 -0.034845393 -0.13008879 -0.019327112 0.057073798 0.084152415 0.0472078 0.106240034 -0.10665827 -0.005060475 -0.01606181 0.06540943 0.0033645777 -0.0870438 0.031049902 0.08986467 -0.096339315 -0.0108023705 -0.093574814 0.077061966
CFO -0.28563422 -0.021894323 -0.0016609826 -0.016584586 -0.005966484 -0.014449833 -0.008045668 -0.009439519 -0.005071999 0.0008045117 6.128438e-05 -0.0060071787 -0.002920461 -0.00264062 -0.0026226437 0.0014793201 -0.00027947835 0.00046345216 -3.5534453e-05 -0.0013886894
CMBR -0.28563422 -0.021894323 -0.0016609826 -0.016584586 -0.005966484 -0.014449833 -0.008045668 -0.009439519 -0.005071999 0.0008045117 6.128438e-05 -0.0060071787 -0.002920461 -0.00264062 -0.0026226437 0.0014793201 -0.00027947835 0.00046345216 -3.5534453e-05 -0.0013886894
CNPZ -0.28581697 -0.021998953 -0.0016737505 -0.016740885 -0.0060293353 -0.014611407 -0.008146265 -0.0095649725 -0.0051500434 0.0008174588 6.19453e-05 -0.0061131306 -0.002972813 -0.0026899378 -0.0026732783 0.0015102042 -0.00028493928 0.0004723175 -3.6132544e-05 -0.0014232153
CN_Tower -0.28563422 -0.021894323 -0.0016609826 -0.016584586 -0.005966484 -0.014449833 -0.008045668 -0.009439519 -0.005071998 0.0008045122 6.128315e-05 -0.006007181 -0.0029204595 -0.002640621 -0.0026226463 0.0014793254 -0.00027947853 0.0004634512 -3.552473e-05 -0.0013886903
CST 0.2566927 0.009983973 -0.03875002 -0.08880851 0.17917524 0.08473399 0.08618422 -0.018372642 0.10819583 0.021712825 0.07540695 0.0027866024 -0.18637145 0.1250286 -0.14157568 0.13555256 0.13019411 -0.041586414 0.06501732 -0.10302391
CS_gas -0.28563422 -0.021894323 -0.0016609826 -0.016584586 -0.005966484 -0.014449833 -0.008045668 -0.009439519 -0.005071998 0.0008045122 6.128315e-05 -0.006007181 -0.0029204595 -0.002640621 -0.0026226463 0.0014793254 -0.00027947853 0.0004634512 -3.552473e-05 -0.0013886903
C_and_W -0.28563422 -0.021894323 -0.0016609826 -0.016584586 -0.005966484 -0.014449833 -0.008045668 -0.009439519 -0.005071998 0.00080451206 6.1283594e-05 -0.0060071805 -0.00292046 -0.0026406203 -0.0026226458 0.0014793243 -0.00027947855 0.00046345085 -3.552747e-05 -0.00138869
C_horizon -0.28563422 -0.021894323 -0.0016609826 -0.016584586 -0.005966484 -0.014449833 -0.008045668 -0.009439519 -0.005071998 0.0008045122 6.128315e-05 -0.006007181 -0.0029204595 -0.002640621 -0.0026226463 0.0014793254 -0.00027947853 0.0004634512 -3.552473e-05 -0.0013886903
C 0.07765464 0.012674882 0.023738991 0.03868542 -0.03657873 0.19019055 0.025784582 0.033860616 -0.038478464 0.01906589 0.04490484 -0.04972091 -0.19413044 0.10669875 0.097367495 0.08875632 0.085209765 0.012364028 0.014982457 0.01906104
Ca 0.20818347 -0.023699075 -0.016383657 0.1392459 -0.22621106 0.12379819 -0.049523696 -0.016941322 -0.14505741 -0.039469857 0.14618723 0.016456021 -0.20702182 0.024643116 0.041544814 -0.07165688 0.09783143 -0.13537467 -0.042708028 0.061003044
Cadra_cautella -0.28563422 -0.021894323 -0.0016609826 -0.016584586 -0.005966484 -0.014449833 -0.008045668 -0.009439519 -0.005071998 0.00080451166 6.128403e-05 -0.0060071787 -0.0029204607 -0.0026406206 -0.0026226446 0.0014793219 -0.0002794776 0.00046345094 -3.5532325e-05 -0.001388689
Cadra -0.28563422 -0.021894323 -0.0016609826 -0.016584586 -0.005966484 -0.014449833 -0.008045668 -0.009439519 -0.0050719986 0.00080451154 6.1284445e-05 -0.006007178 -0.002920461 -0.00264062 -0.0026226442 0.0014793207 -0.00027947762 0.0004634506 -3.5534835e-05 -0.0013886889
Caenolestidae -0.28563422 -0.021894323 -0.0016609826 -0.016584586 -0.005966484 -0.014449833 -0.008045668 -0.009439519 -0.005071999 0.0008045117 6.128438e-05 -0.0060071787 -0.002920461 -0.00264062 -0.0026226437 0.0014793201 -0.00027947835 0.00046345216 -3.5534453e-05 -0.0013886894
Caesalpinia -0.28563422 -0.021894323 -0.0016609826 -0.016584586 -0.005966484 -0.014449833 -0.008045668 -0.009439519 -0.005071999 0.0008045117 6.128438e-05 -0.0060071787 -0.002920461 -0.00264062 -0.0026226437 0.0014793201 -0.00027947835 0.00046345216 -3.5534453e-05 -0.0013886894
Caesalpiniaceae -0.28563422 -0.021894323 -0.0016609826 -0.016584586 -0.005966484 -0.014449833 -0.008045668 -0.009439519 -0.005071998 0.00080451166 6.128442e-05 -0.006007178 -0.0029204607 -0.0026406206 -0.0026226437 0.0014793206 -0.00027947762 0.0004634509 -3.5534063e-05 -0.0013886887
Cajanus_cajan -0.19857426 -0.019584432 0.046629347 0.5787153 0.06287772 -0.16648398 0.6440076 -0.30499262 0.09782988 -0.12148369 -0.029411262 0.059545655 0.046579517 -0.062152367 0.09613208 0.07956477 -0.024874544 -0.021006022 0.004747965 0.021781266
Calamagrostis_acutiflora 0.002438126 -0.03044124 0.11078503 0.040592454 -0.04715169 0.06820897 0.047732383 0.06669742 -0.057770982 0.091542065 0.0021486224 0.040225346 -0.060759626 -0.16327335 -0.04922384 -0.086706966 0.12628435 0.062566675 0.025804592 -0.024915317
Calamintha -0.28563422 -0.021894323 -0.0016609826 -0.016584586 -0.005966484 -0.014449833 -0.008045668 -0.009439519 -0.0050719986 0.00080451154 6.1284445e-05 -0.006007178 -0.002920461 -0.00264062 -0.0026226442 0.0014793207 -0.00027947762 0.0004634506 -3.5534835e-05 -0.0013886889
Caledonia -0.28563422 -0.021894323 -0.0016609826 -0.016584586 -0.005966484 -0.014449833 -0.008045668 -0.009439519 -0.005071998 0.00080451166 6.128442e-05 -0.006007178 -0.0029204607 -0.0026406206 -0.0026226437 0.0014793206 -0.00027947762 0.0004634509 -3.5534063e-05 -0.0013886887
Cali -0.28563422 -0.021894323 -0.0016609826 -0.016584586 -0.005966484 -0.014449833 -0.008045668 -0.009439519 -0.005071998 0.00080451166 6.128442e-05 -0.006007178 -0.0029204607 -0.0026406206 -0.0026226437 0.0014793206 -0.00027947762 0.0004634509 -3.5534063e-05 -0.0013886887
California_dandelion -0.28581697 -0.021998953 -0.0016737505 -0.016740885 -0.0060293353 -0.014611407 -0.008146265 -0.0095649725 -0.005150044 0.0008174586 6.194618e-05 -0.0061131297 -0.0029728133 -0.002689938 -0.0026732753 0.0015101989 -0.00028494038 0.0004723208 -3.61384e-05 -0.001423214
California_quail -0.28563422 -0.021894323 -0.0016609826 -0.016584586 -0.005966484 -0.014449833 -0.008045668 -0.009439519 -0.005071998 0.00080451166 6.128442e-05 -0.006007178 -0.0029204607 -0.0026406206 -0.0026226437 0.0014793206 -0.00027947762 0.0004634509 -3.5534063e-05 -0.0013886887
California_redbud -0.19857422 -0.019584425 0.04662937 0.57871526 0.062877685 -0.16648394 0.64400774 -0.3049926 0.0978299 -0.12148371 -0.029411202 0.059545662 0.046579577 -0.06215235 0.09613205 0.079564735 -0.02487451 -0.021006027 0.0047479603 0.02178131
California_single-leaf_pinyon -0.28563422 -0.021894323 -0.0016609826 -0.016584586 -0.005966484 -0.014449833 -0.008045668 -0.009439519 -0.005071998 0.00080451166 6.128442e-05 -0.006007178 -0.0029204607 -0.0026406206 -0.0026226437 0.0014793206 -0.00027947762 0.0004634509 -3.5534063e-05 -0.0013886887
California_tree_poppy -0.15336165 -0.01397727 0.07190539 0.58237195 0.16430223 -0.05961767 0.38548622 -0.16717681 0.16305369 -0.11334142 -0.02575392 0.06994207 -0.019051172 -0.0318078 0.0555843 0.16842312 0.03492397 -0.042076666 0.03785425 -0.019520575
California_whipsnake -0.28563422 -0.021894323 -0.0016609826 -0.016584586 -0.005966484 -0.014449833 -0.008045668 -0.009439519 -0.005071998 0.00080451166 6.128442e-05 -0.006007178 -0.0029204607 -0.0026406206 -0.0026226437 0.0014793206 -0.00027947762 0.0004634509 -3.5534063e-05 -0.0013886887
Caligula -0.28563422 -0.021894323 -0.0016609826 -0.016584586 -0.005966484 -0.014449833 -0.008045668 -0.009439519 -0.005071998 0.00080451166 6.128442e-05 -0.006007178 -0.0029204607 -0.0026406206 -0.0026226437 0.0014793206 -0.00027947762 0.0004634509 -3.5534063e-05 -0.0013886887
Caliphate_State -0.28563422 -0.021894323 -0.0016609826 -0.016584586 -0.005966484 -0.014449833 -0.008045668 -0.009439519 -0.005071998 0.00080451166 6.128442e-05 -0.006007178 -0.0029204607 -0.0026406206 -0.0026226437 0.0014793206 -0.00027947762 0.0004634509 -3.5534063e-05 -0.0013886887
Calixtus_III -0.28563422 -0.021894323 -0.0016609826 -0.016584586 -0.005966484 -0.014449833 -0.008045668 -0.009439519 -0.005071998 0.00080451166 6.128442e-05 -0.006007178 -0.0029204607 -0.0026406206 -0.0026226437 0.0014793206 -0.00027947762 0.0004634509 -3.5534063e-05 -0.0013886887
Calliphoridae -0.28563422 -0.021894323 -0.0016609826 -0.016584586 -0.005966484 -0.014449833 -0.008045668 -0.009439519 -0.005071998 0.00080451166 6.128442e-05 -0.006007178 -0.0029204607 -0.0026406206 -0.0026226437 0.0014793206 -0.00027947762 0.0004634509 -3.5534063e-05 -0.0013886887
Caloosahatchee -0.28563422 -0.021894323 -0.0016609826 -0.016584586 -0.005966484 -0.014449833 -0.008045668 -0.009439519 -0.005071999 0.00080451113 6.128445e-05 -0.0060071773 -0.0029204607 -0.00264062 -0.0026226435 0.0014793202 -0.0002794772 0.00046345085 -3.5534624e-05 -0.0013886889
Calostoma_lutescens -0.28563422 -0.021894323 -0.0016609826 -0.016584586 -0.005966484 -0.014449833 -0.008045668 -0.009439519 -0.005071999 0.0008045113 6.128438e-05 -0.0060071778 -0.002920461 -0.00264062 -0.002622643 0.0014793193 -0.0002794779 0.00046345245 -3.5533914e-05 -0.0013886894
Calostomataceae -0.28563422 -0.021894323 -0.0016609826 -0.016584586 -0.005966484 -0.014449833 -0.008045668 -0.009439519 -0.005071999 0.00080451113 6.128445e-05 -0.0060071773 -0.0029204607 -0.00264062 -0.0026226435 0.0014793202 -0.0002794772 0.00046345085 -3.5534624e-05 -0.0013886889
Calycophyllum_candidissimum 0.25698292 -0.014790186 0.046345435 0.15861896 -0.07477582 -0.045951977 0.15538149 0.13702519 0.0070799305 0.49023232 0.12908427 -0.24168175 0.15928584 0.21705766 -0.082240716 -0.13571677 -0.094883114 -0.17159066 -0.06943263 -0.051009987
Calycophyllum -0.28563422 -0.021894323 -0.0016609826 -0.016584586 -0.005966484 -0.014449833 -0.008045668 -0.009439519 -0.005071999 0.00080451113 6.128445e-05 -0.0060071773 -0.0029204607 -0.00264062 -0.0026226435 0.0014793202 -0.0002794772 0.00046345085 -3.5534624e-05 -0.0013886889
Calymmatobacterium -0.28581697 -0.021998947 -0.0016737507 -0.016740885 -0.0060293325 -0.014611406 -0.008146265 -0.0095649725 -0.005150043 0.00081745663 6.194964e-05 -0.0061131204 -0.0029728187 -0.0026899376 -0.0026732772 0.0015102042 -0.00028494047 0.00047232932 -3.614848e-05 -0.0014232128
Cambria -0.28576627 -0.017354915 -0.0017376199 -0.016941188 -0.0060668904 -0.016415589 -0.008119131 -0.010406277 -0.0048709866 0.0019213159 0.0012786363 -0.007297301 -0.0030074788 -0.0020971769 -0.0018788654 0.0012058645 0.0011064848 0.0033970217 -0.0026386795 -0.0014633321
Cambrian -0.20336035 0.3579174 -0.0023326227 -0.02210347 0.0023615402 -0.06976982 -0.010039031 -0.035026588 0.0021249908 0.022253487 0.026720705 -0.028617648 0.0018355175 0.008434156 0.012702856 -0.0046799397 0.030158771 0.05050051 -0.03954206 -0.005270211
Cambridge -0.28563422 -0.021894323 -0.0016609826 -0.016584586 -0.005966484 -0.014449833 -0.008045668 -0.009439519 -0.005071999 0.00080451113 6.128445e-05 -0.0060071773 -0.0029204607 -0.00264062 -0.0026226435 0.0014793202 -0.0002794772 0.00046345085 -3.5534624e-05 -0.0013886889
Camellia_japonica -0.28563422 -0.021894323 -0.0016609826 -0.016584586 -0.005966484 -0.014449833 -0.008045668 -0.009439519 -0.005071999 0.00080451113 6.128445e-05 -0.0060071773 -0.0029204607 -0.00264062 -0.0026226435 0.0014793202 -0.0002794772 0.00046345085 -3.5534624e-05 -0.0013886889
Cameroon_franc -0.28563422 -0.021894323 -0.0016609826 -0.016584586 -0.005966484 -0.014449833 -0.008045668 -0.009439519 -0.005071999 0.00080451113 6.128445e-05 -0.0060071773 -0.0029204607 -0.00264062 -0.0026226435 0.0014793202 -0.0002794772 0.00046345085 -3.5534624e-05 -0.0013886889
Camlan -0.28563422 -0.021894323 -0.0016609826 -0.016584586 -0.005966484 -0.014449833 -0.008045668 -0.009439519 -0.005071999 0.00080451113 6.128445e-05 -0.0060071773 -0.0029204607 -0.00264062 -0.0026226435 0.0014793202 -0.0002794772 0.00046345085 -3.5534624e-05 -0.0013886889
Campanula_americana -0.28563422 -0.021894323 -0.0016609826 -0.016584586 -0.005966484 -0.014449833 -0.008045668 -0.009439519 -0.005071999 0.00080451113 6.128445e-05 -0.0060071773 -0.0029204607 -0.00264062 -0.0026226435 0.0014793202 -0.0002794772 0.00046345085 -3.5534624e-05 -0.0013886889
Campanulales -0.28563422 -0.021894323 -0.0016609826 -0.016584586 -0.005966484 -0.014449833 -0.008045668 -0.009439519 -0.005071999 0.00080451113 6.128445e-05 -0.0060071773 -0.0029204607 -0.00264062 -0.0026226435 0.0014793202 -0.0002794772 0.00046345085 -3.5534624e-05 -0.0013886889
Campeche -0.28563422 -0.021894323 -0.0016609826 -0.016584586 -0.005966484 -0.014449833 -0.008045668 -0.009439519 -0.005071999 0.00080451096 6.128372e-05 -0.0060071778 -0.0029204604 -0.0026406196 -0.0026226446 0.0014793223 -0.00027947713 0.0004634517 -3.553464e-05 -0.0013886878
Campephilus_principalis -0.28563422 -0.021894323 -0.0016609826 -0.016584586 -0.005966484 -0.014449833 -0.008045668 -0.009439519 -0.005071999 0.00080451096 6.128372e-05 -0.0060071778 -0.0029204604 -0.0026406196 -0.0026226446 0.0014793223 -0.00027947713 0.0004634517 -3.553464e-05 -0.0013886878
Campyloneurum_augustifolium -0.28581694 -0.021998944 -0.0016737566 -0.016740873 -0.0060293376 -0.014611383 -0.008146278 -0.00956495 -0.0051500183 0.00081744883 6.192178e-05 -0.006113111 -0.0029728296 -0.0026899485 -0.0026732916 0.0015102173 -0.00028493706 0.00047233285 -3.6133984e-05 -0.0014232147
Campylorhynchus -0.28581697 -0.021998947 -0.0016737507 -0.016740885 -0.0060293325 -0.014611406 -0.0081462655 -0.009564972 -0.005150045 0.0008174557 6.194899e-05 -0.0061131185 -0.0029728184 -0.0026899413 -0.0026732804 0.0015102023 -0.0002849382 0.00047233014 -3.6147012e-05 -0.0014232117
Canaan -0.28563422 -0.021894323 -0.0016609826 -0.016584586 -0.005966484 -0.014449833 -0.008045668 -0.009439519 -0.005071999 0.00080451113 6.128445e-05 -0.0060071773 -0.0029204607 -0.00264062 -0.0026226435 0.0014793202 -0.0002794772 0.00046345085 -3.5534624e-05 -0.0013886889
Canaanite -0.28563422 -0.021894323 -0.0016609826 -0.016584586 -0.005966484 -0.014449833 -0.008045668 -0.009439519 -0.005071999 0.00080451113 6.128445e-05 -0.0060071773 -0.0029204607 -0.00264062 -0.0026226435 0.0014793202 -0.0002794772 0.00046345085 -3.5534624e-05 -0.0013886889
Canada_wild_rye -0.28563422 -0.021894323 -0.0016609826 -0.016584586 -0.005966484 -0.014449833 -0.008045668 -0.009439519 -0.005071999 0.00080451113 6.128445e-05 -0.0060071773 -0.0029204607 -0.00264062 -0.0026226435 0.0014793202 -0.0002794772 0.00046345085 -3.5534624e-05 -0.0013886889
Canadian_Security_Intelligence_Service -0.28563422 -0.021894323 -0.0016609826 -0.016584586 -0.005966484 -0.014449833 -0.008045668 -0.009439519 -0.005071999 0.00080451113 6.128445e-05 -0.0060071773 -0.0029204607 -0.00264062 -0.0026226435 0.0014793202 -0.0002794772 0.00046345085 -3.5534624e-05 -0.0013886889
Canadian_aspen -0.23710564 -0.016213328 0.02501878 0.100144155 -0.061665002 -0.050811045 0.13199814 0.049462143 0.0058192243 0.3200922 0.060425464 -0.17129204 0.123787455 0.15088832 -0.06516626 -0.18501277 -0.14567257 -0.12935106 -0.024131773 -0.035426464
Canaries -0.28563422 -0.021894323 -0.0016609826 -0.016584586 -0.005966484 -0.014449833 -0.008045668 -0.009439521 -0.0050719986 0.0008045111 6.12843e-05 -0.006007178 -0.0029204602 -0.0026406206 -0.0026226437 0.0014793205 -0.0002794776 0.0004634509 -3.5534576e-05 -0.0013886889
Cancer_irroratus -0.28563422 -0.021894323 -0.0016609826 -0.016584586 -0.005966484 -0.014449833 -0.008045668 -0.009439521 -0.0050719986 0.0008045111 6.12843e-05 -0.006007178 -0.0029204602 -0.0026406206 -0.0026226437 0.0014793205 -0.0002794776 0.0004634509 -3.5534576e-05 -0.0013886889
Cancer_magister -0.28563422 -0.021894323 -0.0016609826 -0.016584586 -0.005966484 -0.014449833 -0.008045668 -0.009439521 -0.0050719986 0.00080451096 6.1283565e-05 -0.006007178 -0.00292046 -0.00264062 -0.0026226446 0.0014793226 -0.0002794775 0.00046345175 -3.5534587e-05 -0.0013886878
Cancer 0.13070352 0.82060564 0.008640395 -0.059278097 0.029554691 -0.13831906 -0.0042673233 -0.050497115 0.021368835 0.007068821 0.05895091 -0.02829463 -0.030588454 0.0147089325 0.047995597 0.0028852173 0.06628908 0.05662178 -0.08840218 0.014200663
Candlemas_Day -0.28581697 -0.021998953 -0.0016737505 -0.016740885 -0.0060293344 -0.014611406 -0.008146265 -0.009564973 -0.0051500425 0.0008174598 6.1945e-05 -0.006113136 -0.0029728122 -0.0026899355 -0.0026732776 0.0015102073 -0.00028494326 0.00047231663 -3.6133057e-05 -0.0014232167
Canetti -0.28563422 -0.021894323 -0.0016609826 -0.016584586 -0.005966484 -0.014449833 -0.008045668 -0.009439521 -0.0050719986 0.0008045111 6.12843e-05 -0.006007178 -0.0029204602 -0.0026406206 -0.0026226437 0.0014793205 -0.0002794776 0.0004634509 -3.5534576e-05 -0.0013886889
Canis_lupus 0.17763239 0.37180373 0.092696905 0.021966306 -0.06851435 0.116506584 0.015149285 -0.029237496 0.00251214 0.047083016 -0.10849634 0.017202513 0.024830222 -0.0041391 -0.045220256 -0.026867794 -0.007930715 -0.076895274 0.045653444 -0.041728944
Canis_lupus_tundrarum 0.17763236 0.37180367 0.09269691 0.021966288 -0.06851431 0.11650658 0.015149287 -0.029237453 0.0025121297 0.047083 -0.10849633 0.017202493 0.024830218 -0.004139091 -0.045220237 -0.026867794 -0.007930712 -0.07689525 0.045653377 -0.04172895
Canna_indica -0.28563422 -0.021894323 -0.0016609826 -0.016584586 -0.005966484 -0.014449833 -0.008045668 -0.009439521 -0.005071998 0.00080451096 6.128349e-05 -0.006007178 -0.00292046 -0.0026406206 -0.0026226446 0.0014793226 -0.00027947754 0.00046345204 -3.5533587e-05 -0.0013886875
Cantharellus_clavatus -0.28581697 -0.021998947 -0.0016737521 -0.016740886 -0.0060293353 -0.014611407 -0.008146265 -0.009564973 -0.005150045 0.0008174583 6.195065e-05 -0.006113126 -0.0029728175 -0.0026899343 -0.002673273 0.0015101968 -0.00028493334 0.0004723203 -3.614623e-05 -0.001423215
Canton_crepe -0.28563422 -0.021894323 -0.0016609826 -0.016584586 -0.005966484 -0.014449833 -0.008045668 -0.009439521 -0.005071998 0.00080451096 6.128349e-05 -0.006007178 -0.00292046 -0.0026406206 -0.0026226446 0.0014793226 -0.00027947754 0.00046345204 -3.5533587e-05 -0.0013886875
Cape_Canaveral -0.28563422 -0.021894323 -0.0016609826 -0.016584586 -0.005966484 -0.014449833 -0.008045668 -0.009439521 -0.005071998 0.00080451096 6.128349e-05 -0.006007178 -0.00292046 -0.0026406206 -0.0026226446 0.0014793226 -0.00027947754 0.00046345204 -3.5533587e-05 -0.0013886875
Cape_Flattery -0.28563422 -0.021894323 -0.0016609826 -0.016584586 -0.005966484 -0.014449833 -0.008045668 -0.009439521 -0.0050719986 0.00080451096 6.1283565e-05 -0.006007178 -0.00292046 -0.00264062 -0.0026226446 0.0014793226 -0.0002794775 0.00046345175 -3.5534587e-05 -0.0013886878
Cape_Froward -0.28563422 -0.021894323 -0.0016609826 -0.016584586 -0.005966484 -0.014449833 -0.008045668 -0.009439521 -0.005071998 0.00080451096 6.128349e-05 -0.006007178 -0.00292046 -0.0026406206 -0.0026226446 0.0014793226 -0.00027947754 0.00046345204 -3.5533587e-05 -0.0013886875
Cape_Girardeau -0.28563422 -0.021894323 -0.0016609826 -0.016584586 -0.005966484 -0.014449833 -0.008045668 -0.009439521 -0.005071998 0.00080451096 6.128349e-05 -0.006007178 -0.00292046 -0.0026406206 -0.0026226446 0.0014793226 -0.00027947754 0.00046345204 -3.5533587e-05 -0.0013886875
Cape_Horn -0.28563422 -0.021894323 -0.0016609826 -0.016584586 -0.005966484 -0.014449833 -0.008045668 -0.009439521 -0.005071998 0.00080451096 6.128349e-05 -0.006007178 -0.00292046 -0.0026406206 -0.0026226446 0.0014793226 -0.00027947754 0.00046345204 -3.5533587e-05 -0.0013886875
Cape_Verde_Islands -0.28563422 -0.021894323 -0.0016609826 -0.016584586 -0.005966484 -0.014449833 -0.008045668 -0.009439521 -0.005071998 0.00080451096 6.128349e-05 -0.006007178 -0.00292046 -0.0026406206 -0.0026226446 0.0014793226 -0.00027947754 0.00046345204 -3.5533587e-05 -0.0013886875
Cape_lobster -0.28563422 -0.021894323 -0.0016609826 -0.016584586 -0.005966484 -0.014449833 -0.008045668 -0.009439521 -0.005071998 0.00080451096 6.128349e-05 -0.006007178 -0.00292046 -0.0026406206 -0.0026226446 0.0014793226 -0.00027947754 0.00046345204 -3.5533587e-05 -0.0013886875
Cape_of_Good_Hope_Province -0.28563422 -0.021894323 -0.0016609826 -0.016584586 -0.005966484 -0.014449833 -0.008045668 -0.009439521 -0.005071998 0.00080451096 6.128349e-05 -0.006007178 -0.00292046 -0.0026406206 -0.0026226446 0.0014793226 -0.00027947754 0.00046345204 -3.5533587e-05 -0.0013886875
Capek -0.28563422 -0.021894323 -0.0016609826 -0.016584586 -0.005966484 -0.014449833 -0.008045668 -0.009439521 -0.005071998 0.00080451096 6.128349e-05 -0.006007178 -0.00292046 -0.0026406206 -0.0026226446 0.0014793226 -0.00027947754 0.00046345204 -3.5533587e-05 -0.0013886875
Capone -0.28563422 -0.021894323 -0.0016609826 -0.016584586 -0.005966484 -0.014449833 -0.008045668 -0.009439521 -0.005071998 0.00080451096 6.128349e-05 -0.006007178 -0.00292046 -0.0026406206 -0.0026226446 0.0014793226 -0.00027947754 0.00046345204 -3.5533587e-05 -0.0013886875
Capparidaceae -0.28563422 -0.021894323 -0.0016609826 -0.016584586 -0.005966484 -0.014449833 -0.008045668 -0.009439521 -0.005071998 0.00080451096 6.128349e-05 -0.006007178 -0.00292046 -0.0026406206 -0.0026226446 0.0014793226 -0.00027947754 0.00046345204 -3.5533587e-05 -0.0013886875
Capra_falconeri -0.28563422 -0.021894323 -0.0016609826 -0.016584586 -0.005966484 -0.014449833 -0.008045668 -0.009439521 -0.005071998 0.00080451096 6.128349e-05 -0.006007178 -0.00292046 -0.0026406206 -0.0026226446 0.0014793226 -0.00027947754 0.00046345204 -3.5533587e-05 -0.0013886875
Capra -0.28581697 -0.021998947 -0.0016737507 -0.016740885 -0.0060293325 -0.014611407 -0.0081462655 -0.009564972 -0.005150045 0.0008174559 6.194974e-05 -0.006113116 -0.0029728187 -0.0026899418 -0.0026732776 0.0015102004 -0.00028493817 0.00047233264 -3.614394e-05 -0.0014232117
Caprella -0.28563422 -0.021894323 -0.0016609826 -0.016584586 -0.005966484 -0.014449833 -0.008045668 -0.009439521 -0.005071998 0.0008045108 6.128329e-05 -0.006007178 -0.00292046 -0.0026406203 -0.0026226446 0.0014793226 -0.00027947783 0.0004634519 -3.5533685e-05 -0.0013886875
Capreolus_capreolus -0.28563422 -0.021894323 -0.0016609826 -0.016584586 -0.005966484 -0.014449833 -0.008045668 -0.009439521 -0.005071998 0.0008045108 6.128329e-05 -0.006007178 -0.00292046 -0.0026406203 -0.0026226446 0.0014793226 -0.00027947783 0.0004634519 -3.5533685e-05 -0.0013886875
Capricornis -0.28563422 -0.021894323 -0.0016609826 -0.016584586 -0.005966484 -0.014449833 -0.008045668 -0.009439521 -0.005071998 0.0008045108 6.128329e-05 -0.006007178 -0.00292046 -0.0026406203 -0.0026226446 0.0014793226 -0.00027947783 0.0004634519 -3.5533685e-05 -0.0013886875
Capricornus -0.28563422 -0.021894323 -0.0016609826 -0.016584586 -0.005966484 -0.014449833 -0.008045668 -0.009439521 -0.005071998 0.0008045108 6.128329e-05 -0.006007178 -0.00292046 -0.0026406203 -0.0026226446 0.0014793226 -0.00027947783 0.0004634519 -3.5533685e-05 -0.0013886875
Caprimulgus_carolinensis -0.28563422 -0.021894323 -0.0016609826 -0.016584586 -0.005966484 -0.014449833 -0.008045668 -0.009439521 -0.005071998 0.0008045108 6.128329e-05 -0.006007178 -0.00292046 -0.0026406203 -0.0026226446 0.0014793226 -0.00027947783 0.0004634519 -3.5533685e-05 -0.0013886875
Capros_aper -0.28563422 -0.021894323 -0.0016609826 -0.016584586 -0.005966484 -0.014449833 -0.008045668 -0.009439521 -0.005071998 0.0008045108 6.128329e-05 -0.006007178 -0.00292046 -0.0026406203 -0.0026226446 0.0014793226 -0.00027947783 0.0004634519 -3.5533685e-05 -0.0013886875
Capros -0.28581697 -0.021998947 -0.0016737507 -0.016740885 -0.0060293325 -0.014611407 -0.0081462655 -0.009564972 -0.005150045 0.0008174555 6.1949744e-05 -0.006113116 -0.0029728184 -0.0026899416 -0.0026732786 0.0015102014 -0.00028493724 0.00047233084 -3.614491e-05 -0.0014232112
Capsicum_annuum_cerasiforme -0.28563422 -0.021894323 -0.0016609826 -0.016584586 -0.005966484 -0.014449833 -0.008045668 -0.009439521 -0.005071998 0.0008045108 6.128329e-05 -0.006007178 -0.00292046 -0.0026406203 -0.0026226446 0.0014793226 -0.00027947783 0.0004634519 -3.5533685e-05 -0.0013886875
Capsicum_annuum_longum -0.28563422 -0.021894323 -0.0016609826 -0.016584586 -0.005966484 -0.014449833 -0.008045668 -0.009439521 -0.005071998 0.0008045108 6.128329e-05 -0.006007178 -0.00292046 -0.0026406203 -0.0026226446 0.0014793226 -0.00027947783 0.0004634519 -3.5533685e-05 -0.0013886875
Capsicum_frutescens -0.28581697 -0.021998947 -0.0016737636 -0.016740883 -0.006029336 -0.014611401 -0.008146264 -0.009564996 -0.005150045 0.00081745425 6.192013e-05 -0.0061131204 -0.0029728415 -0.0026899402 -0.0026732725 0.00151021 -0.00028495336 0.0004723325 -3.6145128e-05 -0.0014232271
Captain_Bligh -0.28563422 -0.021894323 -0.0016609826 -0.016584586 -0.005966484 -0.014449833 -0.008045668 -0.009439521 -0.005071998 0.0008045108 6.128329e-05 -0.006007178 -0.00292046 -0.0026406203 -0.0026226446 0.0014793226 -0.00027947783 0.0004634519 -3.5533685e-05 -0.0013886875
Captain_Bob -0.28563422 -0.021894323 -0.0016609826 -0.016584586 -0.005966484 -0.014449833 -0.008045668 -0.009439521 -0.005071998 0.0008045108 6.128329e-05 -0.006007178 -0.00292046 -0.0026406203 -0.0026226446 0.0014793226 -0.00027947783 0.0004634519 -3.5533685e-05 -0.0013886875
Carafate 0.037359178 -0.025248902 0.02726112 0.02850446 0.099104114 0.19874163 0.06533096 0.19409564 -0.19881049 -0.041585427 -0.17537391 -0.16750903 -0.21989073 0.19467688 0.54513544 0.10962512 -0.16127746 0.20495823 0.028299674 -0.029911598
Carangidae -0.28563422 -0.021894323 -0.0016609826 -0.016584586 -0.005966484 -0.014449833 -0.008045668 -0.009439521 -0.005071998 0.0008045108 6.128329e-05 -0.006007178 -0.00292046 -0.0026406203 -0.0026226446 0.0014793226 -0.00027947783 0.0004634519 -3.5533685e-05 -0.0013886875
Carboniferous_period -0.28563422 -0.021894323 -0.0016609826 -0.016584586 -0.005966484 -0.014449833 -0.008045668 -0.009439521 -0.005071998 0.0008045108 6.128329e-05 -0.006007178 -0.00292046 -0.0026406203 -0.0026226446 0.0014793226 -0.00027947783 0.0004634519 -3.5533685e-05 -0.0013886875
Carcharhinus_leucas -0.28742698 -0.022959849 -0.0017947688 -0.018247645 -0.0066425446 -0.016198453 -0.009149397 -0.0108247 -0.005955358 0.00095192494 6.970252e-05 -0.007229353 -0.003531727 -0.0032116289 -0.0032127213 0.0018574594 -0.0003320336 0.0005509582 -4.3556145e-05 -0.0018209106
Carcharhinus_plumbeus -0.28742698 -0.022959849 -0.0017947688 -0.018247645 -0.0066425446 -0.016198453 -0.009149397 -0.0108247 -0.005955358 0.00095192494 6.970252e-05 -0.007229353 -0.003531727 -0.0032116289 -0.0032127213 0.0018574594 -0.0003320336 0.0005509582 -4.3556145e-05 -0.0018209106
Carcharias -0.28563422 -0.021894323 -0.0016609826 -0.016584586 -0.005966484 -0.014449833 -0.008045668 -0.009439521 -0.005071998 0.0008045108 6.128329e-05 -0.006007178 -0.00292046 -0.0026406203 -0.0026226446 0.0014793226 -0.00027947783 0.0004634519 -3.5533685e-05 -0.0013886875
Carcharias_taurus -0.28744653 -0.022971408 -0.0017962112 -0.01826563 -0.0066498527 -0.016217344 -0.009161317 -0.010839631 -0.0059648664 0.0009535262 6.979692e-05 -0.007242496 -0.0035382807 -0.0032177544 -0.0032190487 0.0018615071 -0.00033260358 0.00055188965 -4.3619893e-05 -0.0018255399
Cardamine_rotundifolia -0.28563422 -0.021894323 -0.0016609826 -0.016584586 -0.005966484 -0.014449833 -0.008045668 -0.009439521 -0.005071998 0.00080451096 6.128327e-05 -0.006007178 -0.00292046 -0.0026406208 -0.0026226442 0.0014793226 -0.00027947786 0.0004634521 -3.5532827e-05 -0.0013886875
Cardinal_Richelieu -0.28563422 -0.021894323 -0.0016609826 -0.016584586 -0.005966484 -0.014449833 -0.008045668 -0.009439521 -0.005071998 0.00080451096 6.128327e-05 -0.006007178 -0.00292046 -0.0026406208 -0.0026226442 0.0014793226 -0.00027947786 0.0004634521 -3.5532827e-05 -0.0013886875
Cardinalis_cardinalis -0.28563422 -0.021894323 -0.0016609826 -0.016584586 -0.005966484 -0.014449833 -0.008045668 -0.009439521 -0.005071998 0.00080451096 6.128327e-05 -0.006007178 -0.00292046 -0.0026406208 -0.0026226442 0.0014793226 -0.00027947786 0.0004634521 -3.5532827e-05 -0.0013886875
Carduelinae -0.18819116 0.023190908 -0.11307486 0.04799664 -0.12545553 -0.0115997745 -0.07589207 0.010220169 0.14095573 -0.026477117 -0.19525896 0.03976444 -0.10354596 0.0046068663 -0.065291956 -0.0064775515 -0.05817215 -0.056870505 -0.106983274 0.05013504
Cardura -0.23277491 -0.02910692 0.014610534 0.008132109 0.057292797 0.110741444 0.021488734 0.10111355 -0.16951688 -0.030738639 -0.1570451 -0.14671604 -0.186091 0.1684394 0.48468143 0.097445 -0.15180139 0.19011267 0.03451383 -0.03579983
Caretta_caretta -0.28563422 -0.021894323 -0.0016609826 -0.016584586 -0.0059664836 -0.014449832 -0.008045667 -0.0094395215 -0.0050719986 0.0008045107 6.128319e-05 -0.006007178 -0.0029204597 -0.0026406208 -0.0026226442 0.0014793226 -0.0002794779 0.0004634519 -3.5533416e-05 -0.0013886879
Carib_Indian -0.28563422 -0.021894323 -0.0016609826 -0.016584586 -0.0059664836 -0.014449832 -0.008045667 -0.0094395215 -0.0050719986 0.0008045107 6.128319e-05 -0.006007178 -0.0029204597 -0.0026406208 -0.0026226442 0.0014793226 -0.0002794779 0.0004634519 -3.5533416e-05 -0.0013886879
Carl_Anderson -0.28563422 -0.021894323 -0.0016609826 -0.016584586 -0.0059664836 -0.014449833 -0.008045667 -0.0094395215 -0.0050719986 0.0008045107 6.1283004e-05 -0.006007178 -0.0029204597 -0.00264062 -0.002622645 0.0014793229 -0.0002794783 0.00046345094 -3.5534307e-05 -0.001388689
Carl_Maria_von_Weber -0.28563422 -0.021894323 -0.0016609826 -0.016584586 -0.005966483 -0.014449833 -0.008045667 -0.009439522 -0.005071999 0.0008045087 6.128516e-05 -0.0060071754 -0.0029204634 -0.0026406217 -0.0026226474 0.0014793159 -0.00027947806 0.0004634489 -3.5534038e-05 -0.0013886917
Carl_Rogers -0.28563422 -0.021894323 -0.0016609826 -0.016584586 -0.005966483 -0.014449833 -0.008045667 -0.009439522 -0.005071999 0.0008045087 6.128516e-05 -0.0060071754 -0.0029204634 -0.0026406217 -0.0026226474 0.0014793159 -0.00027947806 0.0004634489 -3.5534038e-05 -0.0013886917
Carlina_acaulis -0.28581697 -0.021998947 -0.0016737648 -0.016740885 -0.0060293362 -0.0146114 -0.0081462655 -0.009564996 -0.005150042 0.00081745407 6.1926236e-05 -0.0061131106 -0.00297284 -0.0026899483 -0.00267328 0.0015102025 -0.00028494417 0.00047232586 -3.6149362e-05 -0.001423228
Carlsbad -0.28563422 -0.021894323 -0.0016609863 -0.016584584 -0.00596649 -0.014449842 -0.0080457125 -0.009439576 -0.005071988 0.00080451305 6.1261235e-05 -0.006007181 -0.0029204858 -0.0026405884 -0.0026226498 0.0014793455 -0.00027951822 0.00046345367 -3.554698e-05 -0.0013887371
Carnegie_Mellon_University -0.28563422 -0.021894323 -0.0016609863 -0.016584584 -0.00596649 -0.014449842 -0.0080457125 -0.009439576 -0.005071988 0.00080451317 6.12612e-05 -0.006007181 -0.0029204856 -0.0026405887 -0.002622649 0.0014793453 -0.00027951825 0.00046345385 -3.554616e-05 -0.0013887368
Carnegiea_gigantea -0.28563422 -0.021894323 -0.0016609863 -0.016584584 -0.00596649 -0.014449842 -0.0080457125 -0.009439576 -0.005071988 0.00080451317 6.12612e-05 -0.006007181 -0.0029204856 -0.0026405887 -0.002622649 0.0014793453 -0.00027951825 0.00046345385 -3.554616e-05 -0.0013887368
Carnot -0.28563422 -0.021894323 -0.0016609863 -0.016584584 -0.00596649 -0.014449842 -0.0080457125 -0.009439576 -0.005071988 0.00080451317 6.12612e-05 -0.006007181 -0.0029204856 -0.0026405887 -0.002622649 0.0014793453 -0.00027951825 0.00046345385 -3.554616e-05 -0.0013887368
Carolina_chickadee -0.28563422 -0.021894323 -0.0016609863 -0.016584584 -0.00596649 -0.014449842 -0.008045712 -0.009439576 -0.0050719874 0.00080451317 6.126116e-05 -0.0060071815 -0.0029204858 -0.0026405894 -0.0026226498 0.0014793447 -0.0002795188 0.00046345385 -3.5546513e-05 -0.0013887372
Carpenteria_californica -0.28563422 -0.021894323 -0.0016609863 -0.016584584 -0.00596649 -0.014449842 -0.008045712 -0.009439576 -0.0050719874 0.00080451317 6.126116e-05 -0.0060071815 -0.0029204858 -0.0026405894 -0.0026226498 0.0014793447 -0.0002795188 0.00046345385 -3.5546513e-05 -0.0013887372
Carphophis_amoenus -0.28563422 -0.021894323 -0.0016609863 -0.016584584 -0.00596649 -0.014449842 -0.008045712 -0.009439576 -0.0050719874 0.00080451317 6.126116e-05 -0.0060071815 -0.0029204858 -0.0026405894 -0.0026226498 0.0014793447 -0.0002795188 0.00046345385 -3.5546513e-05 -0.0013887372
Carpinus_betulus -0.28563422 -0.021894323 -0.0016609863 -0.016584584 -0.00596649 -0.014449842 -0.008045712 -0.009439576 -0.0050719874 0.00080451317 6.126116e-05 -0.0060071815 -0.0029204858 -0.0026405894 -0.0026226498 0.0014793447 -0.0002795188 0.00046345385 -3.5546513e-05 -0.0013887372
Carpinus -0.28563422 -0.021894323 -0.0016609863 -0.016584584 -0.00596649 -0.014449842 -0.008045712 -0.009439576 -0.0050719874 0.00080451317 6.126116e-05 -0.0060071815 -0.0029204858 -0.0026405894 -0.0026226498 0.0014793447 -0.0002795188 0.00046345385 -3.5546513e-05 -0.0013887372
Carpodacus -0.28563422 -0.021894323 -0.0016609863 -0.016584584 -0.00596649 -0.014449842 -0.008045712 -0.009439576 -0.0050719874 0.00080451317 6.126116e-05 -0.0060071815 -0.0029204858 -0.0026405894 -0.0026226498 0.0014793447 -0.0002795188 0.00046345385 -3.5546513e-05 -0.0013887372
Carson_McCullers -0.28563422 -0.021894323 -0.0016609863 -0.016584584 -0.00596649 -0.014449842 -0.008045712 -0.009439576 -0.0050719874 0.00080451317 6.126116e-05 -0.0060071815 -0.0029204858 -0.0026405894 -0.0026226498 0.0014793447 -0.0002795188 0.00046345385 -3.5546513e-05 -0.0013887372
Carter -0.28563422 -0.021894323 -0.0016609863 -0.016584584 -0.00596649 -0.014449842 -0.008045712 -0.009439576 -0.0050719874 0.00080451317 6.126116e-05 -0.0060071815 -0.0029204858 -0.0026405894 -0.0026226498 0.0014793447 -0.0002795188 0.00046345385 -3.5546513e-05 -0.0013887372
Cartesian 0.25879398 0.55148464 0.020649424 -0.030516975 0.07361575 -0.09203053 0.0027268098 -0.077820316 0.025228964 0.10141992 0.046210833 -0.028867073 -0.06260031 0.0301954 0.033492707 0.018505437 -0.008172997 0.01771938 -0.020099634 -0.0036855505
Cartesian_plane 0.49563292 -0.071588546 -0.026209665 0.06844974 -0.110336624 0.04082765 -0.056694955 -0.068943925 -0.104848504 -0.06374539 0.05705036 -0.020678507 -0.04860837 0.085022785 -0.02235735 0.045731522 0.11195115 -0.08676919 -0.0011611085 0.010003609
Cartesian_product 0.5198638 -0.056922533 -0.115432784 -0.014186295 0.07951371 -0.029191189 0.005729757 -0.12171227 -0.13939357 0.0057170987 -0.038669378 0.013530992 -0.057625275 -0.007340634 -0.039203778 0.030391173 -0.016026832 0.0043374235 -0.021583714 -0.029564058
Carthusian_order 0.49847087 -0.100357614 -0.19221224 -0.049300008 0.035879634 -0.067412175 -0.04966143 -0.08827106 0.007375553 0.090649955 -0.010469559 0.24093871 0.086980715 0.05647458 0.022778004 0.026872609 -0.049989756 -0.04175434 -0.0023273106 -0.0035899302
Cartwright -0.28581697 -0.021998953 -0.0016737502 -0.016740885 -0.006029334 -0.014611405 -0.008146264 -0.009564976 -0.0051500425 0.00081745913 6.194423e-05 -0.0061131385 -0.0029728117 -0.0026899343 -0.0026732814 0.0015102116 -0.000284945 0.00047231282 -3.6131783e-05 -0.001423219
Caruso -0.28563422 -0.021894323 -0.0016609863 -0.016584584 -0.00596649 -0.014449842 -0.008045712 -0.009439576 -0.0050719874 0.00080451294 6.126125e-05 -0.006007182 -0.002920486 -0.002640589 -0.0026226502 0.0014793457 -0.00027951773 0.00046345295 -3.5548703e-05 -0.0013887378
Carya_aquatica -0.28563422 -0.021894323 -0.0016609863 -0.016584584 -0.00596649 -0.014449842 -0.008045712 -0.009439576 -0.0050719874 0.00080451317 6.126116e-05 -0.0060071815 -0.0029204858 -0.0026405894 -0.0026226498 0.0014793447 -0.0002795188 0.00046345385 -3.5546513e-05 -0.0013887372
Carya -0.28563422 -0.021894323 -0.0016609863 -0.016584584 -0.00596649 -0.014449842 -0.008045712 -0.009439576 -0.0050719874 0.00080451317 6.126116e-05 -0.0060071815 -0.0029204858 -0.0026405894 -0.0026226498 0.0014793447 -0.0002795188 0.00046345385 -3.5546513e-05 -0.0013887372
Carya_tomentosa -0.28618115 -0.022210043 -0.0016997893 -0.017060706 -0.006158396 -0.01494377 -0.008354073 -0.009824664 -0.0053126947 0.0008444828 6.321433e-05 -0.0063354056 -0.003082836 -0.0027936413 -0.002779916 0.0015757 -0.00029637452 0.0004908452 -3.7283306e-05 -0.0014973314
Caryocaraceae -0.28563422 -0.021894323 -0.0016609863 -0.016584584 -0.00596649 -0.014449842 -0.008045712 -0.009439576 -0.0050719874 0.00080451317 6.126116e-05 -0.0060071815 -0.0029204858 -0.0026405894 -0.0026226498 0.0014793447 -0.0002795188 0.00046345385 -3.5546513e-05 -0.0013887372
Caryophyllaceae -0.28581697 -0.021998947 -0.001673752 -0.016740886 -0.006029334 -0.014611405 -0.008146264 -0.009564976 -0.0051500434 0.0008174585 6.194813e-05 -0.0061131325 -0.0029728154 -0.0026899355 -0.00267328 0.0015102047 -0.00028494024 0.00047231946 -3.6132653e-05 -0.0014232156
Caryophyllidae 0.38600832 -0.0035826652 -0.30501634 0.09081 -0.13612643 0.08075121 -0.0945349 -0.0749643 0.18556327 0.08182725 -0.3107014 0.031643987 -0.108122826 -0.06719993 0.0023184982 -0.05922393 0.034331635 -0.12677632 0.017173175 -0.11086334
Casablanca -0.28563422 -0.021894323 -0.0016609863 -0.016584584 -0.00596649 -0.014449842 -0.008045712 -0.009439576 -0.0050719874 0.00080451317 6.126116e-05 -0.0060071815 -0.0029204858 -0.0026405894 -0.0026226498 0.0014793447 -0.0002795188 0.00046345385 -3.5546513e-05 -0.0013887372
Cascade_Mountains -0.28563422 -0.021894323 -0.0016609863 -0.016584584 -0.00596649 -0.014449842 -0.008045712 -0.009439576 -0.0050719874 0.00080451317 6.126116e-05 -0.0060071815 -0.0029204858 -0.0026405894 -0.0026226498 0.0014793447 -0.0002795188 0.00046345385 -3.5546513e-05 -0.0013887372
Caspar_Bartholin -0.28563422 -0.021894323 -0.0016609863 -0.016584584 -0.00596649 -0.014449842 -0.008045712 -0.009439576 -0.0050719874 0.00080451317 6.126116e-05 -0.0060071815 -0.0029204858 -0.0026405894 -0.0026226498 0.0014793447 -0.0002795188 0.00046345385 -3.5546513e-05 -0.0013887372
Cassia_acutifolia -0.25229642 -0.026916903 0.036354296 0.5297842 0.0690219 -0.17239556 0.6116225 -0.3193749 0.10123887 -0.12219967 -0.030819256 0.05819037 0.055576697 -0.065999836 0.10687827 0.09463679 -0.028880324 -0.03402299 0.010236754 0.02697516
Cassia_alata -0.25229645 -0.026916903 0.036354277 0.52978414 0.06902194 -0.17239551 0.6116225 -0.31937498 0.101238765 -0.12219967 -0.030819213 0.058190394 0.05557671 -0.06599983 0.10687826 0.094636776 -0.028880315 -0.03402299 0.010236717 0.026975174
Cassia_javonica -0.28581697 -0.021998947 -0.0016737521 -0.016740886 -0.0060293367 -0.014611412 -0.008146267 -0.009564965 -0.005150046 0.0008174582 6.195837e-05 -0.006113134 -0.0029728063 -0.0026899297 -0.002673287 0.0015102072 -0.00028493576 0.0004723206 -3.613198e-05 -0.0014232089
Cassia_occidentalis -0.27218455 -0.028364044 0.033464897 0.49978355 0.0714644 -0.16747193 0.5879244 -0.3115437 0.09741585 -0.1245952 -0.033056438 0.05862969 0.056037433 -0.063702315 0.10436892 0.096557856 -0.029465359 -0.0346241 0.011587335 0.026301447
Cassin's_kingbird -0.28563422 -0.021894323 -0.0016609863 -0.016584584 -0.0059664897 -0.014449841 -0.008045712 -0.009439577 -0.0050719874 0.000804513 6.1261235e-05 -0.0060071815 -0.0029204853 -0.0026405896 -0.0026226498 0.001479345 -0.00027951898 0.00046345376 -3.554633e-05 -0.0013887372
Cassiope -0.28563422 -0.021894323 -0.0016609863 -0.016584584 -0.0059664897 -0.014449842 -0.008045712 -0.009439577 -0.0050719874 0.00080451317 6.126139e-05 -0.0060071815 -0.002920485 -0.0026405898 -0.0026226498 0.0014793446 -0.00027951962 0.00046345417 -3.5545327e-05 -0.0013887365
Cassite 0.2377619 -0.050502297 -0.09238178 -0.040088665 0.06775008 -0.00021740347 0.07228516 0.19944178 -0.12800099 -0.119320415 -0.016927665 -0.062627204 0.062853016 0.09768064 0.059504397 0.056910258 -0.0065362738 -0.1853339 -0.14585483 -0.01685551
Cassius_Clay -0.28563422 -0.021894323 -0.0016609863 -0.016584584 -0.0059664897 -0.014449841 -0.008045712 -0.009439577 -0.0050719874 0.000804513 6.1261235e-05 -0.0060071815 -0.0029204853 -0.0026405896 -0.0026226498 0.001479345 -0.00027951898 0.00046345376 -3.554633e-05 -0.0013887372
Cassius_Longinus -0.28563422 -0.021894323 -0.0016609863 -0.016584584 -0.0059664897 -0.014449841 -0.008045712 -0.009439577 -0.0050719874 0.000804513 6.1261235e-05 -0.0060071815 -0.0029204853 -0.0026405896 -0.0026226498 0.001479345 -0.00027951898 0.00046345376 -3.554633e-05 -0.0013887372
Castanea_dentata -0.28563422 -0.021894323 -0.0016609863 -0.016584584 -0.0059664897 -0.014449841 -0.008045712 -0.009439577 -0.0050719874 0.000804513 6.1261235e-05 -0.0060071815 -0.0029204853 -0.0026405896 -0.0026226498 0.001479345 -0.00027951898 0.00046345376 -3.554633e-05 -0.0013887372
Castanopsis_chrysophylla 0.106166996 -0.0073075946 0.061549388 0.16185912 -0.081977524 -0.021543179 0.17837912 0.18614234 0.034181256 0.5117589 0.14464216 -0.25450298 0.1734493 0.22272636 -0.08472872 -0.15473059 -0.110425495 -0.18581954 -0.089978136 -0.05558508
Castile -0.28581697 -0.021998947 -0.0016737643 -0.016740888 -0.0060293316 -0.014611402 -0.0081462795 -0.0095649855 -0.0051500453 0.0008174564 6.1923085e-05 -0.00611311 -0.0029728482 -0.0026899446 -0.002673261 0.0015101847 -0.00028494356 0.00047232944 -3.6164223e-05 -0.0014232374
Castilla -0.28581697 -0.021998947 -0.0016737643 -0.016740888 -0.0060293316 -0.014611402 -0.0081462795 -0.0095649855 -0.0051500453 0.0008174564 6.1923085e-05 -0.00611311 -0.0029728482 -0.0026899446 -0.002673261 0.0015101847 -0.00028494356 0.00047232944 -3.6164223e-05 -0.0014232374
Castries -0.28563422 -0.021894323 -0.0016609863 -0.016584584 -0.0059664897 -0.014449841 -0.008045712 -0.009439577 -0.0050719874 0.00080451276 6.1261315e-05 -0.006007182 -0.0029204856 -0.002640589 -0.00262265 0.0014793461 -0.00027951793 0.00046345292 -3.554847e-05 -0.0013887378
Castro -0.28563422 -0.021894323 -0.0016609863 -0.016584584 -0.0059664897 -0.014449841 -0.008045712 -0.009439577 -0.0050719874 0.00080451276 6.1261315e-05 -0.006007182 -0.0029204856 -0.002640589 -0.00262265 0.0014793461 -0.00027951793 0.00046345292 -3.554847e-05 -0.0013887378
Casuarius -0.28563422 -0.021894323 -0.0016609863 -0.016584584 -0.0059664897 -0.014449841 -0.008045712 -0.009439577 -0.0050719874 0.00080451276 6.1261315e-05 -0.006007182 -0.0029204856 -0.002640589 -0.00262265 0.0014793461 -0.00027951793 0.00046345292 -3.554847e-05 -0.0013887378
Catalina_cherry -0.28563422 -0.021894323 -0.0016609863 -0.016584584 -0.0059664897 -0.014449841 -0.008045712 -0.009439577 -0.0050719874 0.0008045128 6.126068e-05 -0.006007183 -0.0029204856 -0.0026405891 -0.002622651 0.0014793464 -0.00027951814 0.0004634525 -3.5548997e-05 -0.0013887378
Catapres -0.19931178 -0.027584635 0.019671742 0.015061161 0.06683226 0.13397875 0.03057194 0.1252207 -0.1773987 -0.036881763 -0.16838975 -0.15601338 -0.19922036 0.17782654 0.5180024 0.101636276 -0.16093428 0.19915545 0.03248985 -0.03647267
Catha -0.28563422 -0.021894323 -0.0016609863 -0.016584584 -0.0059664897 -0.014449841 -0.008045712 -0.009439577 -0.0050719874 0.0008045128 6.126068e-05 -0.006007183 -0.0029204856 -0.0026405891 -0.002622651 0.0014793464 -0.00027951814 0.0004634525 -3.5548997e-05 -0.0013887378
Catharanthus -0.28563422 -0.021894323 -0.0016609863 -0.016584584 -0.0059664897 -0.014449841 -0.008045712 -0.009439577 -0.0050719874 0.00080451305 6.126059e-05 -0.0060071824 -0.0029204853 -0.0026405898 -0.0026226505 0.0014793455 -0.00027951918 0.00046345335 -3.554687e-05 -0.0013887372
Cathaya -0.28563422 -0.021894323 -0.0016609863 -0.016584584 -0.0059664897 -0.014449841 -0.008045712 -0.009439577 -0.0050719883 0.0008045127 6.1260835e-05 -0.006007181 -0.002920485 -0.002640589 -0.0026226498 0.0014793453 -0.000279519 0.0004634533 -3.5546724e-05 -0.0013887376
Cather -0.28563422 -0.021894323 -0.0016609863 -0.016584584 -0.0059664897 -0.014449841 -0.008045712 -0.009439577 -0.0050719874 0.0008045128 6.126068e-05 -0.006007183 -0.0029204856 -0.0026405891 -0.002622651 0.0014793464 -0.00027951814 0.0004634525 -3.5548997e-05 -0.0013887378
Catherine_the_Great -0.28563422 -0.021894323 -0.0016609863 -0.016584584 -0.0059664897 -0.014449841 -0.008045712 -0.009439577 -0.0050719874 0.0008045128 6.126068e-05 -0.006007183 -0.0029204856 -0.0026405891 -0.002622651 0.0014793464 -0.00027951814 0.0004634525 -3.5548997e-05 -0.0013887378
Catholic_Church 0.070105955 0.013149085 -0.2858059 -0.060786728 0.06904732 0.0229422 0.038289625 0.06511974 0.08718428 -0.13410163 0.1282349 0.027950924 0.024893943 0.0419894 -0.048387304 -0.052297384 -0.04384148 0.000586598 -0.033661094 0.07453439
Catholic_Reaction_Force -0.28563422 -0.021894323 -0.0016609863 -0.016584584 -0.0059664897 -0.014449841 -0.008045712 -0.009439577 -0.0050719874 0.00080451305 6.126059e-05 -0.0060071824 -0.0029204853 -0.0026405898 -0.0026226505 0.0014793455 -0.00027951918 0.00046345335 -3.554687e-05 -0.0013887372
Catholic -0.2857615 -0.021967106 -0.0016698538 -0.016693154 -0.0060101384 -0.014562021 -0.008115534 -0.0095266 -0.0051261103 0.00081348896 6.1721265e-05 -0.006080586 -0.002956747 -0.0026747666 -0.0026577045 0.0015006977 -0.00028326662 0.00046958937 -3.5947065e-05 -0.0014125619
Catholic_school -0.28563422 -0.021894323 -0.0016609863 -0.016584584 -0.0059664897 -0.014449841 -0.008045712 -0.009439577 -0.0050719874 0.0008045129 6.1260675e-05 -0.006007183 -0.0029204856 -0.0026405894 -0.0026226507 0.0014793462 -0.00027951816 0.0004634527 -3.5548277e-05 -0.0013887377
Catholicism -0.2857615 -0.021967106 -0.001669854 -0.016693154 -0.0060101403 -0.014562022 -0.0081155365 -0.0095265955 -0.0051261093 0.00081349025 6.171719e-05 -0.006080588 -0.0029567499 -0.0026747785 -0.0026577106 0.0015006949 -0.00028326365 0.0004695888 -3.5947214e-05 -0.0014125607
Catholicos -0.28563422 -0.021894323 -0.0016609863 -0.016584584 -0.0059664897 -0.014449841 -0.008045712 -0.009439577 -0.0050719874 0.00080451305 6.126059e-05 -0.0060071824 -0.0029204853 -0.0026405898 -0.0026226505 0.0014793455 -0.00027951918 0.00046345335 -3.554687e-05 -0.0013887372
Catoptrophorus -0.28563422 -0.021894323 -0.0016609863 -0.016584584 -0.0059664897 -0.014449841 -0.008045712 -0.009439577 -0.0050719874 0.0008045132 6.126059e-05 -0.0060071824 -0.0029204856 -0.00264059 -0.0026226505 0.0014793454 -0.00027951918 0.00046345362 -3.554616e-05 -0.0013887371
Catoptrophorus_semipalmatus -0.28563422 -0.021894323 -0.0016609863 -0.016584584 -0.0059664897 -0.014449841 -0.008045712 -0.009439577 -0.0050719874 0.0008045132 6.126059e-05 -0.0060071824 -0.0029204856 -0.00264059 -0.0026226505 0.0014793454 -0.00027951918 0.00046345362 -3.554616e-05 -0.0013887371
Catskill_Mountains -0.28581697 -0.021998947 -0.0016737643 -0.016740886 -0.0060293316 -0.014611402 -0.0081462795 -0.009564986 -0.0051500467 0.00081745535 6.192392e-05 -0.0061131064 -0.0029728487 -0.0026899439 -0.002673259 0.0015101825 -0.0002849406 0.00047232723 -3.617013e-05 -0.0014232383
Catskills -0.28581697 -0.021998947 -0.0016737643 -0.016740886 -0.0060293316 -0.014611402 -0.0081462795 -0.009564986 -0.0051500467 0.00081745535 6.192392e-05 -0.0061131064 -0.0029728487 -0.0026899439 -0.002673259 0.0015101825 -0.0002849406 0.00047232723 -3.617013e-05 -0.0014232383
Cattell -0.28563422 -0.021894323 -0.0016609863 -0.016584584 -0.0059664897 -0.014449841 -0.008045712 -0.009439577 -0.0050719874 0.00080451305 6.126059e-05 -0.0060071824 -0.0029204853 -0.0026405898 -0.0026226505 0.0014793455 -0.00027951918 0.00046345335 -3.554687e-05 -0.0013887372
Cattleya_citrina -0.28563422 -0.021894323 -0.0016609863 -0.016584584 -0.0059664897 -0.014449841 -0.008045712 -0.009439577 -0.0050719874 0.0008045129 6.1260675e-05 -0.006007183 -0.0029204856 -0.0026405894 -0.0026226507 0.0014793462 -0.00027951816 0.0004634527 -3.5548277e-05 -0.0013887377
Caucasian_walnut -0.28563422 -0.021894323 -0.0016609863 -0.016584584 -0.0059664897 -0.014449841 -0.008045712 -0.009439577 -0.0050719874 0.0008045132 6.126059e-05 -0.0060071824 -0.0029204856 -0.00264059 -0.0026226505 0.0014793454 -0.00027951918 0.00046345362 -3.554616e-05 -0.0013887371
Caulophyllum_thalictrioides -0.24421322 -0.026568107 0.038937025 0.5542477 0.07074069 -0.1762212 0.63255644 -0.32639408 0.10404141 -0.123728186 -0.03079399 0.059197087 0.0562724 -0.066846654 0.108870454 0.09457471 -0.02881273 -0.033835944 0.0096705 0.026585534
Caulophyllum_thalictroides -0.24421321 -0.026568107 0.038937036 0.5542477 0.07074069 -0.1762212 0.63255644 -0.3263941 0.10404141 -0.12372818 -0.030793982 0.0591971 0.0562724 -0.06684662 0.10887047 0.09457471 -0.0288127 -0.03383596 0.009670466 0.026585516
Caviidae -0.28563422 -0.021894323 -0.0016609827 -0.016584586 -0.005966485 -0.014449836 -0.008045669 -0.009439517 -0.0050719976 0.0008045122 6.128427e-05 -0.0060071787 -0.0029204597 -0.0026406187 -0.0026226449 0.0014793245 -0.0002794766 0.00046345266 -3.5525183e-05 -0.0013886887
Cayuga_Lake -0.28563422 -0.021894323 -0.0016609827 -0.016584586 -0.005966485 -0.014449836 -0.008045669 -0.009439517 -0.0050719976 0.0008045122 6.128427e-05 -0.0060071787 -0.0029204597 -0.0026406187 -0.0026226449 0.0014793245 -0.0002794766 0.00046345266 -3.5525183e-05 -0.0013886887
Cayuga -0.28563422 -0.021894323 -0.0016609827 -0.016584586 -0.005966485 -0.014449836 -0.008045669 -0.009439517 -0.0050719976 0.0008045122 6.128427e-05 -0.0060071787 -0.0029204597 -0.0026406187 -0.0026226449 0.0014793245 -0.0002794766 0.00046345266 -3.5525183e-05 -0.0013886887
Ce 0.20818344 -0.023699077 -0.016383661 0.1392459 -0.22621101 0.12379816 -0.049523678 -0.016941223 -0.14505745 -0.03946984 0.1461873 0.016455965 -0.2070218 0.024643132 0.041544814 -0.07165688 0.09783146 -0.13537467 -0.04270805 0.06100309
Cebu_maguey -0.28563422 -0.021894323 -0.0016609827 -0.016584586 -0.005966485 -0.014449836 -0.008045669 -0.009439517 -0.0050719976 0.0008045127 6.128369e-05 -0.006007181 -0.0029204602 -0.0026406199 -0.002622646 0.0014793251 -0.00027947666 0.00046345225 -3.5525954e-05 -0.0013886893
Cebu -0.28563422 -0.021894323 -0.0016609827 -0.016584586 -0.005966485 -0.014449836 -0.008045669 -0.009439517 -0.0050719976 0.0008045127 6.128369e-05 -0.006007181 -0.0029204602 -0.0026406199 -0.002622646 0.0014793251 -0.00027947666 0.00046345225 -3.5525954e-05 -0.0013886893
Cebuano -0.28563422 -0.021894323 -0.0016609827 -0.016584586 -0.005966485 -0.014449836 -0.008045669 -0.009439517 -0.0050719976 0.00080451276 6.128378e-05 -0.0060071805 -0.0029204602 -0.0026406199 -0.0026226458 0.0014793249 -0.00027947713 0.0004634524 -3.5525365e-05 -0.0013886885
Cecropia -0.28581697 -0.021998947 -0.0016737517 -0.016740885 -0.006029334 -0.014611405 -0.008146263 -0.009564979 -0.005150044 0.00081745913 6.194627e-05 -0.0061131376 -0.0029728105 -0.0026899274 -0.0026732797 0.0015102131 -0.00028494798 0.0004723181 -3.6129826e-05 -0.0014232189
Cedar_Rapids -0.28563422 -0.021894323 -0.0016609827 -0.016584586 -0.005966485 -0.014449836 -0.008045669 -0.009439517 -0.0050719976 0.00080451276 6.128378e-05 -0.0060071805 -0.0029204602 -0.0026406199 -0.0026226458 0.0014793249 -0.00027947713 0.0004634524 -3.5525365e-05 -0.0013886885
Cedrus -0.28563422 -0.021894323 -0.0016609827 -0.016584586 -0.005966485 -0.014449836 -0.008045669 -0.009439517 -0.0050719976 0.00080451276 6.128378e-05 -0.0060071805 -0.0029204602 -0.0026406199 -0.0026226458 0.0014793249 -0.00027947713 0.0004634524 -3.5525365e-05 -0.0013886885
Cefobid -0.28563422 -0.021894323 -0.0016609827 -0.016584586 -0.005966485 -0.014449836 -0.008045669 -0.009439517 -0.0050719976 0.0008045128 6.1283834e-05 -0.0060071805 -0.0029204602 -0.0026406199 -0.0026226458 0.0014793247 -0.0002794773 0.0004634526 -3.552495e-05 -0.0013886886
Ceftin -0.28563422 -0.021894323 -0.0016609827 -0.016584586 -0.005966485 -0.014449836 -0.008045669 -0.009439517 -0.0050719976 0.00080451276 6.128378e-05 -0.0060071805 -0.0029204602 -0.0026406199 -0.0026226458 0.0014793249 -0.00027947713 0.0004634524 -3.5525365e-05 -0.0013886885
Celastric_articulatus -0.07903985 0.09419538 0.02818544 0.058500268 0.032362517 0.07585433 -0.05999402 0.05982642 0.028986316 -0.12211928 -0.03264778 0.042210694 0.007846092 0.016490398 -0.09669021 -0.009569428 -0.021033844 -0.094405934 0.020931298 0.1208407
Celastrus -0.28563422 -0.021894323 -0.0016609827 -0.016584586 -0.005966485 -0.014449836 -0.008045669 -0.009439517 -0.0050719976 0.00080451276 6.128378e-05 -0.0060071805 -0.0029204602 -0.0026406199 -0.0026226458 0.0014793249 -0.00027947713 0.0004634524 -3.5525365e-05 -0.0013886885
Celestial_City -0.28563422 -0.021894323 -0.0016609827 -0.016584586 -0.005966485 -0.014449836 -0.008045669 -0.009439517 -0.0050719976 0.00080451305 6.1283776e-05 -0.0060071805 -0.0029204602 -0.0026406199 -0.0026226456 0.0014793249 -0.00027947713 0.0004634526 -3.5524827e-05 -0.0013886883
Celtis_australis 0.05495502 -0.0065319007 0.0634354 0.15864952 -0.08537714 -0.019600466 0.17607778 0.1879041 0.036946144 0.5074925 0.14270343 -0.25517502 0.17575295 0.2222684 -0.083895 -0.15898402 -0.1150395 -0.18758593 -0.093004845 -0.05357471
Cenchrus -0.2917214 -0.025905875 -0.0022473598 -0.023800079 -0.009139379 -0.022651436 -0.013654902 -0.015833681 -0.011148499 0.005453358 0.0069851186 -0.013656791 -0.0010570528 -0.014113142 0.00035148664 0.00038634482 0.0056115245 -0.007092218 0.047381718 0.01844947
Cenchrus_tribuloides 0.415127 -0.04575451 0.12742992 0.053714376 -0.06864251 0.026748564 -0.0031617468 -0.04788132 -0.12708043 0.10217303 -0.010189111 0.038508285 -0.057837903 -0.15614833 -0.035268415 -0.09876468 0.12789041 0.046643265 0.044049423 -0.019941617
Centaur -0.28581697 -0.021998947 -0.0016737643 -0.016740886 -0.006029331 -0.014611401 -0.008146279 -0.009564987 -0.005150046 0.0008174546 6.192475e-05 -0.0061131064 -0.0029728503 -0.0026899492 -0.0026732632 0.0015101838 -0.00028494163 0.00047232668 -3.6168356e-05 -0.0014232357
Centaurium_scilloides -0.28563422 -0.021894323 -0.0016609827 -0.016584586 -0.005966485 -0.014449836 -0.008045669 -0.009439517 -0.0050719976 0.00080451305 6.1283776e-05 -0.0060071805 -0.0029204602 -0.0026406199 -0.0026226456 0.0014793249 -0.00027947713 0.0004634526 -3.5524827e-05 -0.0013886883
Centaurus -0.28581697 -0.021998947 -0.0016737643 -0.016740886 -0.006029331 -0.014611401 -0.008146279 -0.009564987 -0.005150046 0.0008174546 6.192475e-05 -0.0061131064 -0.0029728503 -0.0026899492 -0.0026732632 0.0015101838 -0.00028494163 0.00047232668 -3.6168356e-05 -0.0014232357
Centennial_State -0.28563422 -0.021894323 -0.0016609827 -0.016584586 -0.005966485 -0.014449836 -0.008045669 -0.009439517 -0.0050719976 0.0008045127 6.128369e-05 -0.006007181 -0.0029204602 -0.0026406199 -0.002622646 0.0014793251 -0.00027947666 0.00046345225 -3.5525954e-05 -0.0013886893
Center_for_Disease_Control_and_Prevention 0.35685965 -0.054873314 -0.28013226 -0.025554145 -0.0054128044 0.047848772 0.007960415 0.059199218 0.047362514 -0.053023703 0.07079306 -0.04899264 0.13973191 -0.021112964 0.11392657 0.057987906 -0.079443894 -0.008521134 -0.08908911 -0.022916824
Central_American -0.28563422 -0.021894323 -0.0016609827 -0.016584586 -0.005966485 -0.014449836 -0.008045669 -0.009439518 -0.0050719976 0.0008045125 6.1283805e-05 -0.0060071796 -0.00292046 -0.00264062 -0.0026226458 0.0014793248 -0.00027947742 0.0004634524 -3.5525416e-05 -0.0013886887
Central_Dravidian 0.15363184 -0.0420071 -0.083985195 -0.037468404 0.0638158 0.010184395 0.07853706 0.21538469 -0.12142772 -0.12064376 -0.014966876 -0.060442824 0.0620248 0.09595762 0.061162323 0.058787197 -0.008568951 -0.18254478 -0.15002695 -0.019104796
Central_Intelligence_Agency -0.28563422 -0.021894323 -0.0016609827 -0.016584586 -0.005966485 -0.014449836 -0.008045669 -0.009439518 -0.0050719976 0.00080451235 6.128365e-05 -0.00600718 -0.00292046 -0.00264062 -0.002622646 0.0014793252 -0.00027947675 0.00046345202 -3.552643e-05 -0.0013886894
Centranthus -0.28563422 -0.021894323 -0.0016609827 -0.016584586 -0.005966485 -0.014449836 -0.008045669 -0.009439518 -0.0050719976 0.0008045125 6.1283805e-05 -0.0060071796 -0.00292046 -0.00264062 -0.0026226458 0.0014793248 -0.00027947742 0.0004634524 -3.5525416e-05 -0.0013886887
Centrolobium_robustum -0.28563422 -0.021894323 -0.0016609827 -0.016584586 -0.005966485 -0.014449836 -0.008045669 -0.009439518 -0.0050719976 0.0008045125 6.1283805e-05 -0.0060071796 -0.00292046 -0.00264062 -0.0026226458 0.0014793248 -0.00027947742 0.0004634524 -3.5525416e-05 -0.0013886887
Centropus -0.28563422 -0.021894323 -0.0016609827 -0.016584586 -0.005966485 -0.014449836 -0.008045669 -0.009439518 -0.0050719976 0.00080451235 6.128365e-05 -0.00600718 -0.00292046 -0.00264062 -0.002622646 0.0014793252 -0.00027947675 0.00046345202 -3.552643e-05 -0.0013886894
Centunculus -0.28563422 -0.021894323 -0.0016609827 -0.016584586 -0.005966485 -0.014449836 -0.008045669 -0.009439518 -0.0050719976 0.00080451235 6.128365e-05 -0.00600718 -0.00292046 -0.00264062 -0.002622646 0.0014793252 -0.00027947675 0.00046345202 -3.552643e-05 -0.0013886894
Cephalanthera_rubra -0.28563422 -0.021894323 -0.0016609827 -0.016584586 -0.005966485 -0.014449836 -0.008045669 -0.009439518 -0.0050719976 0.0008045125 6.1283805e-05 -0.0060071796 -0.00292046 -0.00264062 -0.0026226458 0.0014793248 -0.00027947742 0.0004634524 -3.5525416e-05 -0.0013886887
Cephalopterus -0.28563422 -0.021894323 -0.0016609827 -0.016584586 -0.005966485 -0.014449836 -0.008045669 -0.009439518 -0.0050719976 0.0008045125 6.1283805e-05 -0.0060071796 -0.00292046 -0.00264062 -0.0026226458 0.0014793248 -0.00027947742 0.0004634524 -3.5525416e-05 -0.0013886887
Cephalotaceae -0.28563422 -0.021894323 -0.0016609827 -0.016584586 -0.005966485 -0.014449836 -0.008045669 -0.009439518 -0.0050719976 0.00080451235 6.128365e-05 -0.00600718 -0.00292046 -0.00264062 -0.002622646 0.0014793252 -0.00027947675 0.00046345202 -3.552643e-05 -0.0013886894
Cephalotaxaceae -0.28563422 -0.021894323 -0.0016609827 -0.016584586 -0.005966485 -0.014449836 -0.008045669 -0.009439518 -0.0050719976 0.00080451235 6.128365e-05 -0.00600718 -0.00292046 -0.00264062 -0.002622646 0.0014793252 -0.00027947675 0.00046345202 -3.552643e-05 -0.0013886894
Cephalotaxus -0.28563422 -0.021894323 -0.0016609827 -0.016584586 -0.005966485 -0.014449836 -0.008045669 -0.009439518 -0.0050719976 0.00080451235 6.128365e-05 -0.00600718 -0.00292046 -0.00264062 -0.002622646 0.0014793252 -0.00027947675 0.00046345202 -3.552643e-05 -0.0013886894
Cepphus_columba -0.28563422 -0.021894323 -0.0016609827 -0.016584586 -0.005966485 -0.014449836 -0.008045669 -0.009439518 -0.0050719976 0.00080451235 6.128365e-05 -0.00600718 -0.00292046 -0.00264062 -0.002622646 0.0014793252 -0.00027947675 0.00046345202 -3.552643e-05 -0.0013886894
Cepphus_grylle -0.28581697 -0.021998953 -0.0016737516 -0.016740888 -0.006029336 -0.014611406 -0.008146264 -0.009564973 -0.005150044 0.00081745925 6.1945466e-05 -0.0061131325 -0.002972813 -0.0026899402 -0.002673277 0.0015102002 -0.00028494193 0.00047232065 -3.6136298e-05 -0.0014232139
Cepphus -0.28563422 -0.021894323 -0.0016609827 -0.016584586 -0.005966485 -0.014449836 -0.008045669 -0.009439518 -0.0050719976 0.00080451235 6.128365e-05 -0.00600718 -0.00292046 -0.00264062 -0.002622646 0.0014793252 -0.00027947675 0.00046345202 -3.552643e-05 -0.0013886894
Cerambycidae -0.28563422 -0.021894323 -0.0016609827 -0.016584586 -0.005966485 -0.014449836 -0.008045669 -0.009439518 -0.0050719976 0.0008045125 6.1283805e-05 -0.0060071796 -0.00292046 -0.00264062 -0.0026226458 0.0014793248 -0.00027947742 0.0004634524 -3.5525416e-05 -0.0013886887
Cerapteryx_graminis -0.28563422 -0.021894323 -0.0016609827 -0.016584586 -0.005966485 -0.014449836 -0.008045669 -0.009439518 -0.0050719976 0.0008045127 6.128373e-05 -0.0060071796 -0.00292046 -0.00264062 -0.0026226456 0.0014793247 -0.00027947748 0.00046345266 -3.5524656e-05 -0.0013886886
